-0.00228826031383363
-0.004879879559169043
0.03697878881975304
0.03635252180859401
0.03456921227688374
0.0318136164239004
0.03449800907268637
0.030158501766405922
0.028912987861130224
0.030162608817663212
0.031344123241512235
0.03300858731417839
0.03478881313437661
0.03540287364065838
0.03533994185971729
0.03649148145529879
0.03267879105092776
0.03346912652702488
0.03349200923551966
0.030098068084980004
0.02853042847296846
0.030981761528960917
0.03084225096254504
0.03336794486844941
0.034933497844701185
0.034093145142145884
0.034157887560667885
0.035919136092362546
0.03721167799519473
0.03202269817248241
0.03176138217400337
0.0299333111130625
0.028377064512285475
0.028690821534473738
0.03235045480651296
0.030424604735640924
0.03314230855753449
0.03244268030818903
0.038789174808802465
0.04262866268026261
0.03890315409949407
0.032626656734796824
0.03018591776241064
0.029575400934789744
0.026703520281756314
0.02780372409575449
0.03244558698731432
0.02867345794512346
0.03415087761435052
0.03974479359184446
0.048863854787118216
0.05838208601668328
0.05294439238799778
0.025518327070185358
0.026411985862480145
0.025300294980965542
0.028809155477973372
0.026892855746225772
0.028792302826109693
0.03110777051289346
0.036860632241790814
0.04398447870755195
0.0626635606909695
0.09785620657557997
0.0863432158410337
0.010307734858751177
-0.0020059296670776553
0.016839794363074874
0.020568726825413827
0.02697674628059661
0.029349538724257558
0.034953384295789154
0.04115218161669886
0.05068468676109576
0.09482062509617084
0.16180468398015158
0.2947263303300271
-0.06653291070692992
-0.025572030986959704
-0.012312768640549311
0.014724722168270886
0.022911275359352983
0.02945036651904464
0.03626925244082696
0.04726039014994569
0.05952782177311744
0.11175001654012551
0.33209761790457176
-3.1733196480303003
-2.5631600645547272
-0.11839859362763035
-0.011051135525207503
0.006750225023803896
0.024671306432680506
0.029820200445857394
0.03626709413524599
0.04519759041956265
0.06933191985750432
0.09238377169526624
0.15333229785288863
0.34454162211313644
-0.060149496489461135
-0.024201674964363512
-0.008011373399710637
0.015699066662918752
0.02295025763120126
0.029670344535665735
0.03546539167810119
0.04694557764959562
0.06006227116184041
0.06510826865210774
0.08770169844682953
0.0839931945996329
0.003989292368845761
0.00035229456285532855
0.01864439256564905
0.017863092263775346
0.026354924332556998
0.029077959325785503
0.03626769071020821
0.04202239186337641
0.05232693404077184
0.047288910442905896
0.05366180677379688
0.0558182932833567
0.02788047669363453
0.02709684958171027
0.020882838194836904
0.02296323675854244
0.03116135294547728
0.03351815187072002
0.035545810492095695
0.0384781225419403
0.043372287767631024
0.03781307002268546
0.04300236994058618
0.03996124886106547
0.036555233310341176
0.03004625373438539
0.02836561451784471
0.027722252683411545
0.033256899740652664
0.030505166788298527
0.03696295838280135
0.036991507054806014
0.037292786092638856
-0.023729030233082902
-0.01829980575216109
-0.018427194334275535
-0.017603623908961984
-0.017385217500264272
-0.021242013831847862
-0.026769137352719585
-0.014949242240950194
-0.01288378391682782
-0.0178601476630893
-0.012591955966003156
-0.019465535817061563
-0.016625121687681953
-0.014685264018354863
-0.01194782652495189
-0.00957431468489599
-0.018182909572293973
-0.07917107464580089
-0.023705274004386483
-0.01098929543041644
-0.005844159338463627
-0.009453638575095957
-0.008031310798976872
-0.010454701802904011
-0.01432991134671572
-0.008331277640386344
0.008598507462153498
0.01179900643539696
-0.004799958125917706
-0.4956316238263798
-0.032560525783412064
0.021810426049223286
0.0013120981328636357
-0.0031949450683846433
-0.0065578446807482635
-0.011918184360293297
-0.012112235192238483
0.0035067435811074825
0.03124560476351851
0.06979603241435407
2.580495258308401
-4.538447643037607
0.2846932544725833
0.12544481580076342
0.02078696870724757
0.006944805296455451
-0.0005116373211004872
-0.008355456767233496
-0.005439682389848973
0.005064444227444358
0.04904228351807823
0.09488437491771931
0.28566813250111334
0.7360294061103247
0.2866923763811027
0.10633097700019085
0.039559059699055744
0.00923847842606099
0.0008983099867225118
-0.005961164498363036
-0.010542972395691855
0.004627219506644963
0.023069528413042703
0.08167474353387144
0.1594411510216695
0.25778642956219444
0.1606217549126048
0.08111264656143456
0.031249478778706426
0.011744386379601568
-0.0011443924735453084
-0.00948961251083013
-0.008685923889269826
0.003419171336747368
0.015655711964340537
0.04168855584332797
0.08598161232628194
0.09556098486480268
0.07502484891800806
0.043294819812767095
0.023089053200970676
0.005478883378717055
-0.0005301576767159592
-0.005911574807873312
-0.006165361552480706
0.001147327930403622
0.010990539875712585
0.025967927343382644
0.033616675087853876
0.04178865491736938
0.035368664028385996
0.023818155675944617
0.004753394194293622
-0.003939274598771332
-0.004622731479295892
-0.0076615508311381674
-0.013625174119228898
-0.0029426447144617544
-0.0028578637793424816
0.0062479881117120505
0.010315820429834463
0.015103279267627773
0.009520449257361245
-0.0018156033313070955
0.0027510715235075467
-0.01131647001567964
-0.010709070595246593
-0.0109456679622433
-0.019498975707444105
-0.008003747920471097
-0.009949975740960052
-0.007822799258600485
-0.0020599104483618865
-0.0007289918217261218
-0.00623935666558706
-0.007494106123655085
-0.00984311898421846
-0.020444244730763513
-0.016100421438905173
-0.01757161786090033
-0.02066668408338414
-0.013850456069922665
-0.018299509974534875
-0.007739725619912286
-0.009880142005452154
-0.013048674670751242
-0.010833206401640871
-0.01603665266106026
-0.014730579557262933
-0.022060059475083195
-0.018137372977629688
-0.02378485252659764
-0.02384564335474529
-0.01861098719291492
-0.015971631519031696
-0.01858123119304067
-0.019411452278093856
-0.016412321023908733
-0.017017612086788897
-0.020797657222829537
-0.019147428592218525
-0.020844290309434372
-0.023889981006044447
-0.022967151467150546
