0.002503935526114437
0.0020821090649002206
0.016582261279825133
0.0006434229490519114
0.006214574794804159
0.011748155760047663
-0.01764824187186089
-0.07656263081020004
-0.11605261282976631
-0.08317466303631134
-0.05051380861933905
-0.023663021219667985
-0.013175083682081782
-0.005305183530667519
0.0013500193448100289
0.006422072260767069
0.023676981967462856
0.03594627749331343
0.06827739621366886
-0.29739917173156416
-0.23447584667907778
-0.11579821154580522
-0.05379298863955153
-0.034119085031221526
-0.010370258860960728
-0.0039822704219819914
0.00271334229713545
0.00923375203579621
0.026582448620198255
0.09711145562539247
0.2146418330566
0.4180286278734133
-0.29223960586812203
-0.07633371107029241
-0.055039180377704416
-0.020009934638992134
-0.010978979977133138
-0.0035354085655395985
0.0022301949686406625
0.01292911782883038
0.033885827619949835
0.06242269663709457
0.11914429426806579
0.2243246902907975
0.052430513799473874
-0.015662719284648415
-0.01659001491769404
-0.016970452587120106
-0.006885166201669798
-0.0033990154456663303
0.0031561599779357983
0.009767767962434566
0.020055714232265834
0.04891668230571549
0.06998681914936979
0.113041614763812
0.037432488049147845
0.0078099052709030056
-0.0056013682464061765
-0.006137607582516876
-0.0037927272905054076
-0.0034572864313727556
0.0027908668376699468
0.01413007420830113
0.01374256329446825
0.023660714785737207
0.04147731988976164
0.03835086356979041
0.026111819773387494
0.006672240429236374
0.006480708786648092
-0.001810425235586605
0.0034812291201473805
0.006570089092582047
0.006940454288931946
0.004276612482463737
0.008672314642821321
0.015868728568697792
0.016158870580510038
0.022659090250448766
0.012459753898530488
0.006696116198597807
0.0007962962665456121
-0.0008748126814747538
-0.00016336826696964593
-0.0012081220275883436
0.0007632045299081155
0.002274798843643611
0.003141509657865295
0.004974208231748274
0.010283652377503614
0.008501934606864093
0.012236771961832212
0.004861123128578647
-0.002956808355754217
-0.0077757598798335395
-0.000633187850865424
-0.0009874181076412213
0.0016566695714640993
-0.001088910652039264
-0.0024931801031039588
0.0022383392025768357
0.00016107672986271867
0.0007960417016651083
-0.0067362215457177676
-0.006942477187146669
-0.010494397791027048
-0.007268816861621473
-0.008091380215611156
-0.0004273356596680558
0.0037438468269805486
0.0007552778431848808
-0.001688982019792835
-0.0013471033519383475
0.0009570394778327824
-0.007609652585990982
-0.010675431702036917
-0.011772392063574947
-0.014683073428980146
-0.013271253388357393
-0.008943787638614493
-0.0004987560287515055
0.001489088419863448
-0.0016719138585314954
-0.00038783801979380065
0.0012557268659247971
-0.01293953465338724
-0.019616518102326046
-0.030342988751741226
-0.0228057643991693
-0.02152133356331377
-0.015435315276031624
-0.011434053011047246
-0.003983540478515686
-0.0019418063582813073
-0.0015103498741036233
0.0034210908590243906
-0.0041070000114497105
-0.014749877314685111
-0.05546651643489445
-0.05095801482881338
-0.050228239319222955
-0.026913561704172504
-0.02047063920828531
-0.010761001675573102
-0.005020546698679196
0.000308498915348785
0.0008776163199533295
0.026695416491998764
0.02193334985529981
0.024529818583908472
0.01730459426103467
0.019537339304631352
0.02260785294570561
0.026683793918604867
0.02993335627894916
0.0348748149112376
0.03316214133023472
0.03398077942766933
0.02709386475771401
0.026069996556013445
0.026110903976080884
0.021784964622904156
0.022659357924677114
0.02082065487093839
0.02711148122496212
0.027582368316372237
0.0289991128203378
0.03096494404045238
0.03256030186917005
0.032365606711560004
0.03026928236295838
0.033633916053622565
0.025261242690681324
0.021647793993374378
0.017898741319228702
0.021329100770646956
0.026532695710799782
0.027501693440278068
0.026909512855783035
0.03216449323938961
0.033777665171528436
0.03670941996171922
0.03317804945726608
0.03428345767188764
0.025976792538942417
0.015355926626505612
0.019309607842874773
0.018188632355153868
0.02306799828295172
0.02460208040373376
0.03023830434437224
0.034544997868365
0.04292295276749388
0.03909459640302119
0.041158631039780236
0.04909011655546964
0.015182483620127451
0.00971142453054408
0.00761914373446927
0.01519169957154552
0.020283616671360243
0.026119426857480563
0.03228592227856586
0.03906425090095182
0.0493719834083341
0.05540002534031416
0.05273364124142499
0.06517921631734086
0.010646693388821434
-0.027150682659490572
-0.004110503877644756
0.00248163751863918
0.016184774044281713
0.024082217364141907
0.03487650629805797
0.04054674066451582
0.05846478501142885
0.06942844701874343
0.09701638532922338
0.2192322886269347
-0.1767661736594083
-0.053763284841426826
-0.04369357102972546
-0.003253588562634757
0.010223244571334254
0.022637777477799593
0.03436609449455321
0.04947687708800312
0.0618909736291096
0.11160827180986646
0.14689498048569968
-2.5047192751641862
-1.4833517922656823
-0.24025470787325734
-0.058153221582102524
-0.018761648779360488
0.009842175853179733
0.020530708507198705
0.03838943398532997
0.0486308681232277
0.07931273856189533
0.11696056326024329
0.3158786839509145
0.20955231040422975
-0.2030262086528753
-0.08139523668407547
-0.052994701579395655
-0.00892934264689728
0.0063213702565333724
0.02396764403176473
0.03385600554871644
0.04956387738291713
0.06270033466694805
0.09988710505680941
0.10514373022471929
0.02772934129603729
-0.025474269813857964
-0.04470142541741974
-0.009784226099502046
-0.0006358376913057245
0.015102345546089014
0.022289001734535043
0.035394705941461796
0.04233218305923945
0.054074142495242096
0.060277282268546374
0.07907702415315561
0.02902566939350902
-7.349717405319683e-5
0.003181880748105835
0.004421997809928972
0.012089141838661078
0.018127915119466022
0.0267233890299207
0.030768550584930804
0.03845600571394974
0.04298076786686093
0.04855363569099155
0.037375829288025166
0.025157559259978386
0.016358464161323832
0.010484049557766821
0.011112205675835289
0.014383106945504428
0.020095588771900944
0.023531114276163632
0.028418384445619112
0.031985327044229205
0.03699235413628192
0.03631730178251466
0.036523338821012725
0.018904991720124505
0.011992645053671114
0.01623074523915136
0.033995536675250224
0.021153635910341858
0.04460878071476969
0.03093017926777155
0.04644334572704108
0.03420236317859782
0.02628761764433448
0.023770783941325726
0.010332997974650244
0.027118598603873518
-0.000979870802367487
0.022652901892084406
0.04064804825552493
0.06729155316493553
0.05900628901678586
0.03366248959532627
0.023968892078096344
0.049070470331100534
0.013529362859789576
0.0327369371120909
0.008529625095840355
0.04452714797963387
0.030757138904012896
0.061154050147622825
0.06229613341152514
0.07565345971485883
0.07471062333902861
0.053604297787925824
0.06982153898289231
0.04396511108658627
0.05345996618895052
0.04123080983885605
0.025630197984307296
0.034964787989651365
-0.0040387794408981055
0.048263455718332605
0.08161657206550141
0.09098610745005604
0.08186773689666373
0.06763513615741128
0.07250861970329009
0.049368770592031964
0.0260746892864872
0.008365331485864245
0.034859420929236364
-0.06296903437417285
-0.04239507040725354
0.06870848211491956
0.06737800889013042
0.04850579150089794
0.06330275598370355
0.06691270513668571
0.05073660732181063
0.02430084331033695
0.026404593072959205
0.0042258945849073075
-0.0063767237234049305
-0.016838674229035667
-0.06893541587210399
-1.2623197894467955
-0.0332607436361161
0.07388372859912144
0.048929271670160535
0.07505439580085527
0.0593860389313077
0.03873033287570754
0.005583897008537432
0.023938932458215847
-0.04147710263174367
-0.18778547637309104
-0.5555823402028197
5.050208316967756
-1.0628845511098826
-0.15972775189771515
0.002269488267973106
0.0049084195016042735
-0.008534377998908757
0.017872980568749003
0.04672405744118355
-0.011169733747532214
-0.05372852180192618
-0.14114587842918055
-0.48067675546192434
-0.6638174778910921
-0.6767173772913958
-0.21065374111415552
-0.08181915821031342
-0.025024328955492187
0.011879263771914715
0.009336147717150928
-0.022114406788435192
-0.03508638038180708
-0.08630387319485917
-0.10082711962975159
-0.14785457632399013
-0.47054688597689204
-0.22582999459528302
-0.13832968535791335
-0.05108794434762381
-0.016038709849529206
0.008465792751519785
0.018482801793714847
0.007674418080413834
-0.022929996242732485
-0.021698369685953747
-0.051853288815268586
-0.13160360712985494
-0.12292585808565842
-0.13444246310234587
-0.09389929863666861
-0.06484201668604107
0.011849595490787656
0.013370882141188442
0.008066947499668749
-0.017917140195501877
-0.004094989101030063
-0.03472404733630106
-0.03962297692872734
-0.03140129220541642
-0.07818961138148475
-0.046579588945154
-0.06340378773537174
-0.010296240257931783
-0.0093285819830974
-0.0008166460887813129
0.01258856197794735
-0.005393778978324723
0.008683204142490056
-0.01394203137006923
-0.015222037004043848
-0.010232204932702781
0.012057962912934875
0.018819629507440126
0.006145653989904384
0.02305538854481297
0.017902805653956952
0.04349264062704796
0.019091373328406772
0.045321013672052685
0.036004624512712344
-0.003906039241731032
0.03526124471347443
0.03847373522681776
0.034334204169530105
0.03391506613810646
0.031279095029339836
0.03136424708929485
0.03254825718984757
0.03260363273544412
0.03335255512638634
0.031466595559935966
0.03282836440966831
0.03514157904911053
0.049927804795076254
0.05007529648466856
0.04964317384451645
0.03960394709222498
0.03805274869526926
0.035414862098075844
0.03501230513790867
0.033559200441555775
0.03601943151029639
0.03709440983315713
0.04428116538945558
0.04266333957544804
0.06460994054418812
0.07911763330464966
0.06026325068603386
0.054633504200044265
0.04297734938569591
0.03738229444346789
0.03567824292711001
0.03614875726045531
0.03894165029665424
0.04044875712941162
0.04457193154027455
0.057672361452439196
0.10552578501470393
0.11731614426111744
0.10083121586102903
0.06343213207223973
0.05062948691206372
0.03967865238412073
0.03763292064508295
0.03548255999427869
0.03948617648869961
0.043643245314298515
0.055003059248420326
0.06925874216963784
0.1410136402748536
0.294684828483002
0.11260174238168544
0.08424759439448108
0.047348399528829174
0.04319317690969072
0.03437756153841643
0.038431091135665923
0.03739685954178044
0.04784530487643561
0.05437114527183724
0.09784085641420631
0.27492423223291074
-2.700399773094065
0.23668198971589888
0.047326006670053045
0.04071630910401837
0.03131265477303275
0.03190266898160025
0.030756976412996222
0.032798811459623364
0.037646077517626504
0.0556589751203259
0.07838362738685342
-0.1489835495675582
-1.6823136913307954
-0.16028979948820668
-0.004904896905498901
0.008295621747835763
0.02440334210670605
0.019629076061685062
0.02850930604194514
0.02595796293209072
0.02747799595223868
0.02008155689894347
0.028042577068748492
-0.04460262448978452
-0.25282456687398575
-0.08539313417194333
-0.040795524728030226
0.004557695490245616
0.015379590326529921
0.024252262969646485
0.02174789111084961
0.025475335329294302
0.021052151675803675
0.015048357567117558
-0.02097002926663249
-0.03902841959728078
-0.05983810817645187
-0.0554050966682138
-0.009179518148295032
0.0020512470591589767
0.02036345539483128
0.021788189722923623
0.026455560340985
0.02024255986091483
0.019999339269739274
0.011625769742927746
0.00010489396789739483
-0.0033539070298434846
-0.01955968476306663
-0.006073847469783892
0.00278005266793838
0.008599830607553179
0.01837685142069329
0.023730411321809176
0.021462201320179394
0.02087503619582582
0.02111432433873383
0.0150327751912222
0.004857345491942696
0.010559859021941528
0.009384532129142548
0.010485174085146043
0.01684293169721491
0.01644984049249555
0.022195485763575634
0.023036734522869348
0.02538928757973181
0.02235273295065173
0.024220967827067712
0.021185224389134158
0.019206299223514276
0.025963446800568786
0.023082448981935733
0.024999154484199804
0.02284969131402961
0.025101991706923288
0.02619775032129147
0.028228782730978966
0.02764374808631532
0.03088043621205098
0.025758514025304297
0.026438386356616494
0.024449633202179903
