1.3140665760622656e-5
0.00014325107312820515
8.392404169749109e-5
0.0016702568569225064
-0.0001224721259228315
-6.429843829459266e-5
-1.672401482113298e-5
-0.0009006017531975983
0.025711198627649166
-0.21309359811471687
-0.08830615479898414
-0.062458705451367634
1.166545882916748
-0.2797921565552206
-0.2677163989114931
-0.2308961538876816
-0.37053629515710773
-0.16317590705694823
0.04870590426163796
0.1721247037727049
0.06844670263540051
0.11172838792216162
-0.07868497727451661
0.14039756707386816
-0.022853814602159236
0.14364961395397693
0.26751538620277854
0.0018408237369455132
0.015289983518643217
-0.03356853776634213
-1.1499276294164158
0.3651409121596413
0.033744812129753395
0.10355481729685267
0.24118935128088725
0.173892358143931
-0.6088401783752088
0.13634301395079834
0.25201317878601925
0.13381590923706113
0.110337802704418
-0.014222688523982585
0.04732173851728253
0.2054758192682472
-0.8176687724378705
-0.04990527763772289
0.17445660643930622
0.20124832801266276
0.34479298264076624
-0.31957052146384474
-0.034612163539818816
0.28311449550833967
-0.07328227191165539
-0.23254129238532617
-0.06013752193943709
0.23309273668370714
0.495469520805584
-0.1333428623523449
-0.03010838579097574
-0.756642165754802
-0.03584182983385281
-0.04456827201904613
-0.004462059674635187
0.09496127559987035
-0.020159772114579807
0.21438055509336806
0.10643622008555832
0.10177356030082534
-0.1407858711471318
-0.139463073237553
0.08317813186267292
0.19017502826035954
-0.07057263129231404
-0.10810499844776023
-0.0903576316722421
-0.5853912063041531
0.06595217522050349
-0.025104821736913363
-0.04281549264564366
0.11481131341625461
-0.015684133044169435
-0.008793942284927508
0.3139080717523932
0.1963773239474324
0.39546874056344156
-0.11886893950524868
-0.20096825912694355
0.20484443125726612
-0.03647657663894332
0.19289671260746474
0.08389149542661875
-0.17334390018575688
0.053808644929943104
0.18357588544331732
0.3252810650705392
-0.12763558423989427
-0.012814256225665295
0.303853025936824
0.3985908106653177
-0.39907093370095026
-0.17683507477995355
0.26598815792759145
-0.47936195068428106
-0.40854752166936753
-0.01250922230472997
-0.025739297131019162
-0.07421757684020673
-0.0022671000489140887
-0.07235964573451094
-0.15790196962855854
-0.5291498410689381
-0.17958696987006262
0.19120431444980177
0.2349947077347337
-0.6345251760065771
0.2654272699658245
0.17615080959798296
0.2048697865348904
0.37814287917809153
0.27446703147975854
-0.017231244941375966
-0.10469149262655439
0.04771923467919101
-0.029692241626518536
-0.18850360722177237
0.02713656215623358
0.013467884132081718
-0.14989032161452137
-0.017633260467885277
0.36337422431428074
-0.16127978527304748
0.7558435923108979
-0.15161960838528216
-0.028594105699068968
-0.24287762833525023
-0.11182820127479558
