-0.0007088469625479467
-0.0013021091901809796
-0.0008235227209610928
-0.012036348545041254
0.0020078814721245252
0.002489989730520695
-0.0036064795020189257
0.0003854530682143038
-0.0018538170787609017
-0.0026968427312843773
-0.006499739169189734
-0.00756842902092368
-0.006351517443594242
-0.004333775232492049
-0.0018885642355349372
0.001837495856773663
-0.0027491585764743303
0.0008075918993866929
-0.0003672837336469038
0.0010251033640475528
0.004031174335616432
0.0033342118872784748
0.003970303240264896
0.0047243984017777164
0.0015335842737802278
0.0018107228049671934
0.00227369535016421
-0.0032246184656462527
0.0017532453093443744
0.0009755828194850384
-0.003633061988530674
-0.0003495291129707842
-0.0012180524263743276
0.002215000093352104
0.007292130112277875
0.010488885222912287
0.010829134656162311
0.006737916617148894
0.004825058601450768
0.00640004518328822
0.008137256632151474
0.004007497237265075
0.002967299068915948
0.0024454049453763375
0.00033577720187606545
0.001882977303660403
0.003868199246155085
0.005427368141278105
0.00788964013720411
0.007377445141371135
0.009452106351445886
0.0064980493187937385
0.007486782422010951
0.00432277795003142
0.004213646018118573
0.00016829663754905724
0.0023737958826962197
0.004829129313161046
0.006156915115556773
0.007247264479791052
0.006650400098177556
0.010114415544653142
0.010550930625603451
0.0160683422074927
0.014315400021487642
0.01569058547559678
0.010554868626723639
0.0060600660396536036
0.00041102024325524885
0.0006194916071075867
0.0015730045190695929
0.005579155994032166
0.01075426684216901
0.008318112184898252
0.009272158310661588
0.015276116584431804
0.019253971166375068
0.02120125245987404
0.02654498624985083
0.01589518688879202
0.010887353431218409
0.0019743913071344613
0.0022973499448206616
-0.0018899092298122512
0.0044593887524505245
0.005491560959201925
0.010687617230954146
0.011752287270971853
0.010362280858359243
0.017909609175332273
0.029632527123532298
0.044211285363964986
0.04323518872271665
0.039708204823766566
0.006399101126724224
-0.003265939813840779
-0.006895121592892619
-0.00529936761208137
-0.0006014862345650601
0.0042672745179880706
0.005171457491126054
0.008441506589593285
0.01745830810001253
0.02648239255610921
0.046820746089209865
0.07150582038993139
0.10665239492270626
0.05849089782957556
-0.001069620023100363
-0.018872509470270284
-0.013712169163489562
-0.012697230447025292
-0.0034090963567443
0.000609815058355356
0.0026209814430219894
0.005472160311624583
0.017845981415819483
0.03024533260562253
0.052081147696907575
0.10461149257690061
0.22578308925651897
0.32767698486765656
-0.0926656584254862
-0.04976963273583528
-0.030256400922761186
-0.013471734414408292
-0.009403342387661625
-0.0006488187155056658
0.008537904713893757
0.013307070966009011
0.012809630293211922
0.01940296123504092
0.047633731564012606
0.06837382972023182
0.26820595071190995
-0.40959910239371783
-0.2257786880562313
-0.10443235034354657
-0.03580209647222653
-0.022741245816298564
-0.013261136292500617
-0.005614499019105814
0.0007235349627209187
0.00546466086804283
0.0042491555678941225
0.010545429167225376
0.012244001087650632
0.012910956924469466
-0.034054279096664905
-0.21955923510500125
-0.11338748712666727
-0.06710613502282663
-0.04025578163366721
-0.019753284679134366
-0.01877298992335155
-0.004050876332733064
-0.003177284647951253
0.0015063644536786622
0.00655759558517412
-6.711359462984162e-5
0.010688437426855029
-0.01555005363942268
-0.03355187364565235
-0.09976396119108434
-0.05724053552494948
-0.04792141776123601
-0.028836279324980046
-0.022203533899858588
-0.012192784689379642
-0.006057702766884707
-0.0038355297236716593
0.00018708092178263623
8.496065277243894e-5
0.00123133637282311
0.0031489456731478285
-0.004388236607619157
-0.02342379443665179
-0.030632601992839792
-0.03165869369727877
-0.023817726426237713
-0.024136770322351266
-0.017897452860527328
-0.009641030624157694
-0.008514106132382562
-0.005243917698661063
0.0022750531367375215
1.5386146159064498e-5
0.0011768289684084853
-0.0023823485112061562
-0.006449824005291243
-0.0072039917080708605
-0.018837165336971728
-0.014429545743529885
-0.014202462665269627
-0.006532404932030857
-0.009332602483811406
-0.00781593851315786
-0.002844413905613548
-0.0019023367332718214
0.0009568348340259199
0.04178489657721748
0.05092478531236865
0.04821247824785309
0.04702928727749326
0.037071480332111155
0.03626756064655426
0.031181692439732022
0.0288918924771941
0.027307821945675402
0.027404194368149
0.028677419244831682
0.030202124811497987
0.0331707050452959
0.037598544375706984
0.034366924441337286
0.03480002909811498
0.03947855635607894
0.03260371337956086
0.032216513356140036
0.03257887994606649
0.029820775902968513
0.025018057209250266
0.02504381624805181
0.02389796735670304
0.02766854403807774
0.025339229864154572
0.032164636083954076
0.033880549087613274
0.030325883060768517
0.02994548672715215
0.028348606610954404
0.029871182591256984
0.025613711228931992
0.02638731149057218
0.02846572146860942
0.026238441967521824
0.02509630205095051
0.025994246790468332
0.026628762657876514
0.025220151369732418
0.02324599540369597
0.027230539369538658
0.020901862030409203
0.01920175112213476
0.020572503396405897
0.021312114027185698
0.024587128275421047
0.02178258328437229
0.024126685290638078
0.02278138669581267
0.02201459792892439
0.023973054362819
0.022372466857530842
0.021781540853174408
0.020823798693473512
0.019420081842238555
0.016892261497157272
0.012701264672698913
0.011544257761031842
0.013057250460117171
0.014076394528209437
0.017269747116938697
0.019528571098795633
0.019658085600851846
0.017705264118143018
0.019879626779228256
0.01978659852003946
0.020942141883794067
0.016980454025762245
0.015174850892028715
0.008767962990033571
1.9494617841279657e-5
-0.0005377162796597773
-0.00057406158636151
0.010211774079006374
0.01200306089201866
0.013474290492894642
0.01713817668945367
0.020417144000074418
0.018761253167648744
0.0187153056929069
0.01751417621126807
0.016332949226336154
0.011305798153758354
-0.004657924809228198
-0.012577917456370411
-0.026188800580204313
-0.014564803282273116
-0.005373199476648463
0.004261414386194371
0.010394474720475774
0.013053805073681186
0.018190878667421247
0.01852061348347715
0.017944454857504642
0.016330371536957367
0.009749304841655329
0.008512915609841897
-0.0080740559549737
-0.04779216045597106
-0.06308982434807832
-0.05630382535360582
-0.014880893236455308
-0.0032883900521600514
0.010581430994873957
0.011363648858850174
0.017986680559120824
0.02120705611501629
0.018297402911507114
0.014995607364247819
0.013199704788602194
0.0016606609280294278
-0.02964469533743654
-0.061676747777424046
-0.23575805337633648
-0.0837396199726173
-0.046261454944699756
0.000330572370669235
0.007617690042501116
0.017405254419320428
0.017286012724118043
0.02284345650016636
0.022361935371488666
0.01777051648800256
0.013116379361254545
0.004418074972719909
0.004599695017654791
-0.18896984886293272
-1.7297967960747633
-0.20812793104052857
-0.022335086533831663
-0.003189495756140035
0.018730507493645743
0.022893389197679633
0.021592639780543137
0.021453461268113188
0.024494464907112806
0.020993260072735945
0.022961733425675587
0.009759470266964543
0.05739647627412085
0.21502298612181087
-2.7268048031255328
0.21035030930653964
0.030805356975059726
0.03229547325412469
0.024229773884004407
0.026848738576624266
0.02212475202843383
0.022732155003255528
0.02381449707168266
0.025900434299317092
0.028973412633285033
0.04295640454689423
0.08947665200995743
0.13341507476525022
0.30491216319899606
0.10307488018705943
0.07584598560119404
0.03968872296405629
0.0335429480010994
0.029103068782446586
0.02937361004436455
0.024349759623372602
0.02644581618904823
0.031658541884584064
0.03877929817453502
0.04702030067070561
0.06639306761362758
0.10423837978983545
0.11201573701194614
0.09339797128168337
0.05815679176062344
0.046041258975812134
0.03469875774344865
0.032337360306474563
0.030233513465021428
0.02698090868781081
0.029707471194383096
0.034247727317272256
0.03695440526946131
0.049069825400053675
0.058026498526771185
0.06521548449491783
0.07539013221622307
0.06209612442498665
0.05103211455480188
0.04036353916826875
0.03516695084816803
0.028223159939704454
0.028986457687032802
0.027137091484779365
0.029561464263563562
0.0314784792568669
0.037853075895559994
0.04096271867908804
0.0031986585528518937
0.005638124573966845
0.006870655746030822
-0.0030000795924212853
-0.0066791787055204485
-0.01049376185600118
-0.01821502098568352
-0.02211674293798941
-0.02448374882507398
-0.033620321382696036
-0.031443298701691935
-0.041045436021360446
-0.038462400876612436
-0.0338575366761174
0.012471790114234558
0.04918041630565638
0.018640693202777364
0.007624553103162712
-0.005511587348978118
-0.010103845968896304
-0.02102570180770901
-0.02767805217247545
-0.03276526252405231
-0.036801411853230166
-0.04484901230044408
-0.053610802546364994
-0.0766044060725903
-0.04297108909274497
0.15182358313831942
0.09301432440434056
0.06509409942457306
0.01699816702747602
0.003625347537154217
-0.011308643687360918
-0.014738196347624213
-0.02584720874307863
-0.03180136340125751
-0.043762895720691156
-0.056803563820758116
-0.09495336962406557
-0.1064707179687206
-0.2407015764363038
1.6003137664930407
0.25164605810029733
0.06638678571786628
0.03191292943876197
0.003651398382589198
-0.0058078508956712
-0.012267557763941075
-0.023121224885346812
-0.03043753126325311
-0.04468686022266299
-0.07293689537318007
-0.10670663069652812
-0.29475110611022853
2.6457529272829627
0.14927121694528891
0.049065876174681576
0.047518335233966355
0.013784747297814356
0.0013918569078623989
-0.009932494786484896
-0.015083877846181296
-0.025623122683940645
-0.03091547426044292
-0.04336500128951982
-0.06052991690408641
-0.10275572969889414
-0.12961751869750954
-0.25957474737358915
-0.024083761015043347
0.0289169957963974
0.009489666653712767
0.00449186629958492
-0.005541796992262516
-0.01132615969717557
-0.0193817700582466
-0.023847268848064596
-0.03139734342478035
-0.038293923181937466
-0.051640782634041614
-0.06492779900441648
-0.09180419689684315
-0.07257495433919099
-0.015122469122666222
-0.0044123106766081775
0.00017285854208715524
-0.00474683837642563
-0.007085975499242365
-0.014632719233947366
-0.016483113567415934
-0.02159341298460748
-0.029818885234295402
-0.03552673748550803
-0.03929475808325629
-0.04821059255121081
-0.04814312065825019
-0.04665342768416158
-0.02022631551088714
-0.010883518553049412
-0.011904398941120777
-0.010030850409631297
-0.012951504888521691
-0.017117236127315704
-0.019227023832358154
-0.01786379407998541
-0.02421436806412164
-0.029222898112830548
-0.03377086057187138
-0.03235085674934494
-0.03654040273690478
-0.027583721719059956
-0.021611081262051048
-0.018310686879778233
-0.01399889430661335
-0.01382584204150823
-0.015585522496656581
-0.01694497101401848
-0.01813613113951866
-0.022862859695975863
-0.02347767607193582
-0.02804072481943283
-0.031651019055630635
-0.03280488663576575
-0.02622639249781269
-0.024974372512389702
-0.018571103431403214
-0.01584490727493745
-0.016271257448240047
-0.01873957535735624
-0.01665300115938782
-0.016240281814946893
-0.018626228851485124
-0.01953283998658615
-0.02418682345468254
-0.025442589558968873
-0.029161400007698707
-0.028637524239659037
-0.02724314123114319
-0.020913196693769533
-0.016474459250936213
-0.014513633347627876
-0.014349410297725152
-0.014787746781286694
-0.01679289982549814
-0.020743272805853624
-0.02089908387459596
-0.025115258921658355
-0.025897852403366135
-0.02954766644093125
-0.026257607193643798
-0.023269196052905717
-0.025554485675490717
-0.02130468569826278
-0.01765132518285254
-0.014633993282788726
-0.012097601660130316
-0.011000430942543972
-0.015407400370623556
-0.01778414756797478
-0.020036372687831032
-0.022055203142453794
-0.02478508732770089
-0.022377411082356864
-0.02490804694529492
-0.023788711658910403
-0.02518905051858017
-0.020369821340468178
-0.01326468939350487
-0.010939925234407417
-0.011277317176794381
-0.013546412148802287
-0.015632844319417038
-0.015052620397782518
-0.015652270974820175
-0.019994995669413155
-0.02025064409595635
-0.028631685273628648
-0.02570459435964575
-0.027271783110537958
-0.02621844227266636
-0.022328584551713722
-0.014992854429226628
-0.0025863215636738133
-0.0029095743693788164
-0.008188864920870856
-0.011667063099574555
-0.01276511565832695
-0.016599996500840986
-0.019623249873593138
-0.02344471124394733
-0.025657185472481314
-0.031103076423728032
-0.031462586748288765
-0.033544748430003955
-0.02475708369675073
-0.0491937724139003
-0.010582833960222287
0.006081404259190154
0.026139028526179525
0.03186737197461855
0.03724905255864349
0.027256962788770184
0.06436474729494322
0.02815891891786802
0.06553512999087753
-0.04198395850899872
-1.2845591037542188
-0.0871977321760761
0.006349688806618045
-0.05153576284719791
-0.04257926570368869
-0.014974894662086902
0.010621303045157859
0.009744329168022868
0.007556257417800065
0.02248331544744729
0.0024563966961677333
-0.03842884841933334
-0.1646644311737483
-1.3380928967972
5.204734947886246
-0.4932244492561796
-0.2345977286415429
-0.09576411184105672
-0.059954401530493945
-0.008071289148102338
0.005625706773719963
-0.0032107110781960644
0.001867504461278242
-0.002491529693820743
-0.017118803432448322
-0.09736087530113288
-0.2678083947709978
-0.6611694537200327
-0.5661534392836657
-0.4692999682655059
-0.16119017658679524
-0.0873006121860117
-0.04544952661336171
-0.03206288043260559
0.008380133486008553
0.015638997293560677
-0.0007872771181023312
-0.00793812869203482
-0.022118476035074663
-0.0757329755253694
-0.18827930850635746
-0.24437234003550942
-0.39674229710307896
-0.13137672440192708
-0.1458938610421883
-0.037193447610703846
-0.005320549459998887
-0.015832428711040826
0.011640824463817994
0.002623956091883765
0.02675337106811304
-0.006580209445278408
-0.018662580124517658
-0.05364675236478905
-0.09224184729918564
-0.15793089977386301
-0.11631152559656287
-0.11606944031859807
-0.06503362020312552
0.018067564485547145
-0.0033160259901558646
0.020888640799805288
0.03307230140990278
0.009382060745875805
-0.0012162001259807998
-0.005887313642033619
-0.015302392480875934
-0.03850275303183965
-0.04305399270728803
-0.07934811306979661
-0.08212598241273716
-0.021674214094609356
-0.021075583762920763
-0.005572727304992435
0.007822526004681953
0.003692057425919955
0.03855938945571853
0.014496970330163231
-0.0001606704238434067
0.009243460830808719
0.009586666466576153
0.01097989712159175
0.011729101999292568
-0.04205893562376966
-0.04446293582972307
-0.021830124227690095
0.024997423269787905
0.03758753200238105
0.034652630313416144
0.02487857549919172
-0.0013460775654724763
0.005840192258137622
0.028406845850715106
0.01887574020329057
0.03456395140909456
-0.015061933716744497
0.011514920553471707
-0.0009549780253568438
0.00577948491787963
0.0030994371713383723
0.0370310965802987
0.03187386061418983
0.05541053257452009
0.042639320825828705
0.03823741531268993
0.033057001020246515
0.026812715286881325
0.015263730292894876
0.0017222718621858236
0.013717576713677807
0.04802445720689227
0.010992023675624983
0.014992456935127728
0.023350724223259425
-0.005286249069760865
0.05331141042048154
0.0021828746784182847
0.03065874553789072
0.025171718065609805
0.05281045886875145
0.057764897921004164
0.036807771866379645
0.021106111158085698
0.011714765245731769
0.003519634032946228
0.032100465864452685
0.01910500409914494
0.033841434091721065
0.022494190294286773
0.010391933872892343
0.02484643917262266
0.031245691072834945
0.05405719918601382
0.033557354544497875
0.01482937139979454
0.048131160307719086
0.05005449776441126
0.05085149787722548
0.016818822938478473
0.04329930887855681
0.06270766130860693
0.039729511577842415
0.004023503055081477
0.027169654564698262
0.028143218113079915
0.0361614940282308
0.04063717432223847
0.03932208479773177
0.01790581483626293
0.028913378934141087
0.04519419727875953
0.028289317699144827
0.03671196049969442
0.0293312339893213
0.047333667507643104
0.05057380506783081
0.004452641646313529
0.0007196350423560797
0.02012080505158661
0.021898496652861376
0.009027482542753124
0.03903281646761112
0.03250659218412719
0.053379493656592406
0.04673933273852729
0.0512837297376173
0.07066410553759414
0.055893473005597286
0.036463734242488964
0.01574331214926908
0.015329209346797722
0.00327123291730505
-0.007972639445805235
0.025984487301393737
0.02875327580712758
0.028605644981112
0.039083488731687675
0.07652432519040818
0.06426722257618141
0.0911745619882401
0.06598540343103279
0.045406787387378085
0.04850455749455238
-0.007332359499822096
-0.022679392519544598
