0.0026129798631739296
-0.0002695352406774892
-0.01904551024928109
-0.018225490006770748
-0.010377273979060884
-0.020287636465560595
-0.016326693595945956
-0.02164994197623336
-0.010944958948776612
-0.011138538891722416
-0.012391240177723438
-0.006425807003092151
-0.00997733147861268
-0.010257794361183062
-0.01994802162738544
-0.016236150919330523
-0.02264172345634654
-0.014723032426955659
-0.0177659942498236
-0.016370802356566398
-0.019939080047375837
-0.01977397941065391
-0.014557672491962118
-0.006171738250545865
-0.010534264079272437
-0.004737324869061883
-0.0016196208157978026
-0.0018716768558304842
-0.010699246253773035
-0.010644467491065523
-0.01277457653080795
-0.007435918265139389
-0.013877819774766476
-0.020486311946012938
-0.0154073197207418
-0.015401398648194205
-0.016394429737232184
-0.006742677323838263
0.001205789662302355
-0.003216139348055859
-2.7494860722079417e-5
-0.011864379904713878
-0.010254886753394105
-0.01531631135240058
-0.010325545990247882
-0.002594547403346053
-0.01159005459496545
-0.02171097501655607
-0.017241567076624716
-0.017015470059147383
-0.013620957969899676
0.004640733451780138
0.012078720106090393
0.010168156309571493
0.0035423443481541602
-0.0033349799019241934
-0.009303941875054327
-0.02030739356766313
-0.007524166687132619
-0.008539120414340396
-0.012571818727589943
-0.020878915482955184
-0.02372180484675938
-0.02224965086921363
-0.004954583021315216
0.028607326826477902
0.0321092695391824
0.03237316948327524
0.02773799597537878
0.014156668462956632
0.0008912188415804915
-0.008801841909137173
-0.0019856923088270545
-0.01250371607480347
-0.009131517398044485
-0.02093212840882648
-0.016124986948742287
-0.024301878611153356
0.0011962813075921935
0.09025684272917389
0.10418020019057728
0.0905703785908547
0.06038670007809796
0.02685718453201613
0.009464916807089793
0.002566367854855895
-0.011159054328639256
-0.013341419606588589
-0.013011771157848961
-0.026769449638609204
-0.03630539640870602
-0.07034086619391229
-0.0652808574445236
2.0045897300578277
0.32919648526687045
0.1904642439631205
0.10153111249543789
0.052806965579227864
0.02068660135328505
0.0051698165038506615
-0.00438488710888045
-0.008740072335964025
-0.021562556911442245
-0.02118833114871092
-0.042627407162156954
-0.1146985058047386
-0.4815286722881338
-4.48218109140943
0.8630313662417556
0.32178260147548743
0.13826647162879738
0.06657012789041744
0.0361195287033266
0.007078221907783854
0.0012465173663836712
-0.006545839801019841
-0.00830017361717646
-0.018893556597598574
-0.01899298133736324
-0.02812502586375214
0.04300983577947537
0.512299742115738
0.3573778111091014
0.2161844798332294
0.11454163612505096
0.05543506615914653
0.022257996741100683
0.00947753875760702
-0.00966209748628408
-0.007432421708804518
-0.0066876719606403946
-0.009330668291393477
-0.015473102286221195
0.0026926511894629344
0.046051138739656036
0.13093907391093057
0.11300556631380725
0.10815659307532727
0.052781662165912575
0.033175296294078144
0.0037289632819165336
0.003211837106858486
-0.010946320094985456
-0.004798588228734339
-0.01012396975433073
-0.012405841602205642
-0.008618842316733587
0.0030376828067793502
0.028245910111314724
0.03185768809710333
0.05758615548726029
0.05194381018159339
0.034114141722845784
0.015374604250746254
-0.0017741191797856475
-0.011429329315884319
-0.012503525996318366
-0.0027743588540816043
-0.00837941749124155
-0.006873294575004732
-0.006438147145920361
-0.0045959993858023795
9.90610101727317e-5
0.0145836435632955
0.020288824068623677
0.020525382059458856
0.008908583003467013
0.005522926619352194
-0.008985242233258065
-0.02473699160656862
-0.01498960587887504
-0.015742593762622353
-0.014629617817887975
-0.009402438240315775
-0.018481248150176384
-0.013297560826580221
-0.007232353008008434
-0.0002818750805896366
0.00337908534162405
-0.0005353628716926549
-0.004649898886945905
-0.003016271496959119
-0.012681511962040851
-0.020543444860326016
-0.011943360798458093
-0.024772743795817335
-0.021299853370563365
-0.025924647150359224
-0.02305132157929023
-0.019606522599822932
-0.011516347942760982
-0.011932143706555539
-0.006073173353769119
-0.004836033091767869
-0.007439882346124297
-0.011165289461104556
-0.013105635189371856
-0.01987590714254448
0.0011285912256136814
0.11283522295362097
2.216052341549329
0.14814917408190734
0.006711609049889626
-0.013843490782534218
-0.02312004570324231
-0.020190178865931503
-0.020938857882273197
-0.024756027892721313
-0.02427841726810695
-0.018803007483462194
-0.020217376095388723
-0.011829991510949045
-0.06134924630357823
-0.20670351575248644
2.708189902551648
-0.2884455825295328
-0.07423109052600475
-0.04407464315010426
-0.029779767436485548
-0.027740384511612575
-0.024780830876038856
-0.025343378082793418
-0.023773003299969436
-0.022531026720871938
-0.024195240372633334
-0.03904875192392743
-0.07569276306725321
-0.11046924021877784
-0.26892192635788864
-0.14577880721879372
-0.08136571068981122
-0.042623502100525686
-0.03727204109797991
-0.02733232356759025
-0.023141656349111524
-0.02485114925869588
-0.023955028488145885
-0.02613074904916607
-0.03197845765393296
-0.03991092883323822
-0.052257844708928816
-0.08059453811474299
-0.09138730726683005
-0.08452256287629024
-0.055400693293699343
-0.043706512689612
-0.03535933677767814
-0.03167551406504731
-0.026808048043662387
-0.025335866687533033
-0.021225604066738086
-0.026517799765032386
-0.030695977795059923
-0.03675839350017406
-0.0413670615842999
-0.051100608258482914
-0.05970312859728473
-0.05200705304989259
-0.04498926290350052
-0.03637477813587994
-0.03425946297201527
-0.029492025208905148
-0.028538912945546988
-0.025873166856902313
-0.022271438050789003
-0.025552610036617678
-0.026319736145097437
-0.03038999075765344
-0.03147963492030586
-0.035672698164811285
-0.038234195125736156
-0.04025085183122476
-0.03296899629213822
-0.03005230006820946
-0.02898710425668397
-0.025054131670633133
-0.026538184146824472
-0.02329341140173723
-0.023468870516568426
-0.023479075461962703
-0.025095500190962503
-0.027876727435301944
-0.02830125892466434
-0.02810251845467064
-0.029813167760836454
-0.030377508221360427
-0.02911510312490279
-0.027164884998060846
-0.024609569136571422
-0.023289644211173615
-0.021441746366274765
-0.02025832668594342
-0.025235021690769563
-0.019776766680204373
-0.023563495189805127
-0.027799821741746666
-0.02275051080438756
-0.024798286588754076
-0.023168265104188387
-0.022330392648668634
-0.023908289562688954
-0.02225081968653231
-0.020427631586644363
-0.01998008136743928
-0.022779063118722413
-0.022233581298873893
-0.022720948581128855
-0.021143199610852294
-0.021839625900945913
-0.02288607316908869
-0.020336781938407766
-0.018970589948564258
-0.01874810203312338
-0.019412271403531557
-0.022207233355289686
-0.017430863193188387
-0.020477278594580817
-0.01800974536939887
-0.018456261835583097
-0.021825330596954497
-0.021271620714748505
-0.018805448127427044
-0.019309479479865777
-0.020420600813147963
-0.01566339385553094
-0.01465638724592284
-0.011879582911137769
-0.015892136108510754
-0.018926030525059093
-0.017453270319195715
-0.01814126895302266
-0.022072825493618508
-0.021108991659807227
-0.020024701481918362
-0.019773006200385048
-0.01879740548468536
-0.016543451749612394
-0.017074014300109984
-0.011800153016856503
-0.009286813512278181
-0.004466665171379569
-0.004475707400031205
-0.01528920092028559
-0.014300985666168898
-0.015351657000358811
-0.017762754516883156
-0.01763572366546485
-0.018027900937119715
-0.016805039231058336
-0.014866717012943068
-0.014219829309242997
-0.012828322625027764
-0.004263440252827682
-0.00035608499918214
0.01050215020880066
0.0012385104667037984
-0.0034435814970312016
-0.01203508401840309
-0.014204101378667497
-0.017094203475997632
-0.020393310972664294
-0.018980478363391794
-0.021819986580021062
-0.01840493991618076
-0.014568465368654077
-0.01348327547255502
0.0017694412507365952
0.02368472352268481
0.028018944843298536
0.030016854470350747
0.002735579479859614
-0.008955615253224825
-0.016919812568421393
-0.017523862771770655
-0.0199258812363225
-0.020092978967146256
-0.021358716089816765
-0.019395406485972756
-0.01615825001730666
-0.009854043923656705
0.016878947271171868
0.035803295817549714
0.15403988543520702
0.06291467312801084
0.021529043708484543
-0.01197490229495022
-0.016150608729730048
-0.01683982952584535
-0.018970259099088102
-0.020513805979084226
-0.020201065006133355
-0.022170000447430265
-0.017086980130029884
-0.012553719692529932
