-0.0008641921889850663
-0.0035500360214085797
-0.03575159380062822
-0.06155717243779517
-0.04578687490297776
3.1973338386999046
-2.5135617202541236
-0.08327800102734173
-0.04245436983770742
-0.07183672835127132
-0.14984299480380847
-0.34292792492175617
-0.1677407741613882
-0.06247889824215793
-0.014408447012872654
-0.026082726538072466
-0.06447107333635911
-0.08220808113241174
-0.0610354427013202
-0.03091091249935884
0.0009402031380528841
-0.00529871075638528
-0.010282984674957751
-0.014340811879143295
-0.01074252886074776
-0.0002908098741942472
0.005601258636970102
0.00407878504401487
0.00591155232426354
0.025294302327440673
0.028491991870039327
0.0067706355667929265
-0.004002747720812043
-0.00797936725400237
0.03414238602717103
0.5693832469688314
0.027635095669880327
0.01578840143460464
-0.11663827424184618
-0.09180465124499859
-0.0870315856919216
-0.1262021895625819
-0.18490813210687645
-0.17073923593256454
-0.10115829927852232
-0.07715753744916633
-0.07603653959776377
-0.08798168929962077
-0.14137000635090105
-0.13373641615276416
-0.11216880149756782
-0.0764545524540653
-0.05196685362825992
-0.06618817053731754
-0.15954517294872766
-0.17107331784380153
-0.16522393518738218
-0.07373376623945839
-0.03177421838370234
0.020795432995732818
-0.6119176388494165
-0.27894894857712527
-0.20128334388299501
-0.10113635431754361
0.00749240573797847
2.1445180677106532
3.210751922816601
-0.544623465328998
-0.16654863392176134
-0.10650537894628023
-0.1021185703813434
-0.16564130464911878
-0.532176919637807
-0.25426392630760436
