-0.00012255696477172845
-0.002401544289573732
-0.0017382959706056054
0.013380233965724204
-0.05140929157935368
0.0035515256042095867
-0.026497114693334937
-0.0669014496175807
-0.21345626652847963
-0.1327490973956406
0.031022195495521807
0.024812543651621687
0.040691034010094114
-0.01173371012675436
0.013051892323265585
-0.023028663831644376
0.07673306381864657
0.08199285994336437
0.07072457096302416
0.10494368934489859
0.10095016723931792
0.122272172569519
0.13046825579270838
0.08293066014946494
0.11304102886032227
0.1685875009979443
0.2797061053302043
0.19035251094927375
0.0793367422381702
0.07787709451489096
0.0767747588071372
0.11616557208444592
-0.7477810310547424
0.20199340072879896
-0.03467906149194396
-0.004810073862330263
0.0038939207374938493
-0.12065886410312855
-0.4890331454275575
-0.24293549632649591
0.1667350171147318
0.1364242001700658
0.1567480773748242
-0.17237084681828113
-1.5626658283345174
-0.04928440157668844
0.1047568403060404
0.13782773914230714
0.09852480672249965
0.10901286885121972
-0.12112510626401604
0.10503379781982444
0.14017575513582753
0.11562710759705823
0.13320285445608546
0.09496208086298696
0.1228382758668992
0.11739936664514157
0.13821153104676315
0.15934267204903227
0.1357553476289345
0.18918180502866136
0.1672049920886563
0.19335856199631815
0.18791745135512838
0.14945673155843442
0.16959235650787416
0.16583604275626027
0.5733607001100156
0.19955329648801348
0.15717289676321144
0.17122914873204578
0.11601634561525401
-5.86520956044433
2.5333775048272686
0.5589195723098137
0.09599293761867689
0.03389686849924559
0.07496557123360212
0.136645531308749
0.1838803145568163
0.12614200817190782
0.056004135274550615
-0.0066635692728795135
-0.07146425914822366
0.3374760817577586
0.22707253287149845
0.16877607521074908
0.06944275964550767
-0.17027870992507674
-1.6286040200043361
-2.3800152337681153
0.4370523554766911
0.17384945243673747
0.06622984984113925
0.039318877943771785
-0.04677592871086154
0.2813226370148224
0.19857981765510035
0.1676583574371674
0.101732899780232
0.05510722310058126
0.10157589029974257
0.13914757082612284
0.17801321994498714
0.12739659289958769
0.08535360921516602
0.08366889530086632
0.07348373955883095
0.15493688011095863
0.14444069904018803
0.13853833436766974
0.12355583080103577
0.11711050059218595
0.2049040936514766
-0.012999561812627507
-0.028427509748083613
-0.04049028082934283
0.19033801384482335
5.307206641720864
-0.043315973716723424
-0.04570016842831506
-0.11904444271165826
-0.02304321032918642
-0.24367930036214971
-1.1356559133497082
-2.4663193143797715
-0.43675419833502577
-0.14176304568131273
-0.14023184734918176
-0.15049054819534136
-0.282836252350959
-0.4263031960078053
-0.16335989099110265
-0.08373592439691854
-0.07857848661454171
-0.02651708183058571
-0.03157223785182596
-0.056623543644137346
-0.010918011722782131
0.00023119674214234272
0.011526153328201824
0.00957376687590223
0.05761373979421828
0.06890799696224179
0.041650677925015686
0.026620788798571618
0.025520538267759806
