-0.0014825714247403599
-0.05776131875214789
-3.0747999229633195e-5
-0.0009924625976032461
0.0006824405642277568
-0.0009399367140722842
-0.0022515758254327504
0.0022105400694153584
0.0068391077380709165
0.3156033281620653
0.3116550820994879
0.1935815227835426
0.09797256039843515
0.00527477701007438
0.0736558942990624
0.21676693756295695
0.2222870278391479
0.1666506106296761
0.11677488034496486
0.06852809999588372
0.08219168823699222
0.16471212844210378
0.1863385643284307
0.15167433432885358
0.10245056575357338
0.06782056818367233
0.019959533021111323
0.23112819127671516
0.2206514125892946
0.1597763635392903
0.08500538961600819
0.015200209296521069
-0.22762256816592474
-1.2027616654343027
0.3554385548446968
0.20312472367728446
0.06147885476348197
-0.08454884203630637
-0.3771843098808365
-2.578322943222567
0.3682203943524879
0.21573448795214945
0.09126546425171785
-0.12182092725799433
0.0718809750614079
0.013421247273970753
0.17190836146108007
0.3130872298037476
-3.8362271277156705
0.4682855299984227
0.07269516800903318
0.018839665790063312
0.058940914609858626
0.34145761609414105
0.6047250048409896
0.20359153487715106
-0.04131888229416021
-0.10827536808040115
0.007565616564544744
0.001451585893485994
0.09335503171267989
-0.03426667259200256
-0.11976265503823871
-0.13127612585091003
-0.11060841648846018
0.04310163993010965
0.013268215349067709
-0.013591409304723426
-0.0708259195310452
-0.13231640508303924
-0.0639526727120373
0.10389828223601569
0.16437703064316156
0.16479237921572462
0.07179385651724969
-0.060606946209305415
0.0450075979827456
0.2813272226045334
1.3171333273282948
0.094923566188696
1.6726978639564056
-0.39324875749085353
-0.1572031778311676
-0.10085467308052662
-0.16930010312008875
-0.46172360171208454
0.5959561921604571
-0.1924825128001214
-0.13689144609836337
-0.118947902453361
-0.1317132298564299
-0.22448774616676515
-0.09079252593869727
-0.09919685576524938
-0.0929752926848665
-0.08246573961492029
-0.09572333247841318
-0.08403723534882152
0.010314637390624803
-0.03734799869403064
-0.04844003041098489
-0.055630391086298255
-0.03810790619943307
-0.022750184530534037
0.10430099526159088
0.04516570081106581
-0.042046612494625026
-0.03308777885682016
-0.015199517091686786
0.08815239473377164
0.42599186019978386
0.023054391554850943
-0.012195501571371524
-0.06390479500578922
0.010189079006269263
0.05463173391947796
0.003866520062700391
0.014538684701206553
0.022457576624995982
0.09730078542540145
0.05193949371646704
0.04392088805156087
0.03720561511291318
0.0010341913097886124
0.1175984523114287
0.2925063394419227
0.1709890665594485
0.0567170003824374
-0.02664187191492913
-0.04916724058481717
-0.44249355200547114
0.764168460372452
0.26199201260517335
0.07666561981959397
-0.02399948219682689
-0.13807692625258017
-0.2613382294580905
-0.44507084810092346
-0.0026439080383180483
-0.024657960599112298
-0.05324033362516047
-0.06877441348417845
-0.1649829997173612
-0.10829801754366561
-0.05564856394887867
-0.021918888471107303
-0.009185161539455373
-0.04461727515077781
-0.02493780547896957
-0.041475847979221235
0.0027284936926002114
-0.016559873842605235
0.15329808059491434
0.06790723272156104
-0.03222982444526375
-0.13280117580403858
-0.21567860535489464
-1.356551034455181
0.2639753035743366
0.08994417873185126
-0.009772788150436328
-0.18169479714426928
-0.46303912676653186
0.9968935575261269
0.17990559383839114
0.09353429667268762
-1.8485857620464388e-6
-0.0847263936016498
-0.11593961107616217
0.19544575968988975
0.11866167473779257
0.06063634571357768
0.01882390626282847
-0.028269709706590537
-0.03242803999745069
0.10834759599645762
0.06983569674021062
0.04775082139903579
0.007793173860889171
-0.01802325712552574
-0.007877237107208808
0.06323298410245438
0.08256677322026072
0.038552922906480276
-0.004702349869826301
-0.055075545329547705
-0.06336965776627058
0.08557510295663737
0.005593851376819807
-0.014948961231364155
0.03857340604364285
-0.14272392228979053
-0.024688950137760346
-0.016400185430019892
-0.014809104524053537
0.04455205511605144
0.2894423509580331
-0.30254397845326647
-0.14510048918656362
0.011255061075880188
0.014511977843099575
-0.09687180539024176
-0.27467033428127535
0.747072307508824
0.11349545523538332
-0.00016466598762148815
-0.01878581146654338
-0.022278466904506772
-0.156632003248557
0.043216916945898735
0.02647506799377281
0.024603154273992442
-0.0005871892719739435
-0.03470992339733513
-0.021197238766575345
-0.027029964300270586
0.016812667447792952
-0.0014846482936573357
-0.011798095811205061
-0.003243665160760801
-0.038102864889843706
-0.016853240621828365
-0.017756036680579075
0.008777273501520851
0.051602104502530166
-0.005696149873714691
-0.05606321348547447
-0.12077849019340064
-0.4170136797000569
-0.08255186948364446
0.09392817750624492
0.06520593815159906
-0.0886325473490474
-0.37137655787993473
-0.7680986343291142
0.36996210624776
0.16805416675505178
0.054406632574751396
0.01083052719720975
-0.07241383209932356
0.33006002496080034
0.22046367565963168
0.10172345192706456
0.07405531155438727
0.016372147325567472
0.031111619884272353
0.10460015939730215
0.17042127356457967
0.08137757806918325
0.033658634400686
0.028059045079162796
-0.008522129116698309
0.05653300581379089
0.05328146086440347
0.02350371239019374
0.029364291601770016
-0.0366299588764454
-0.047976168890231013
-0.10564518650443848
0.020523371735593435
0.024272444345319617
0.03721474579557139
0.12009539279072393
0.13787852600839706
0.08897707654155582
0.01150829286739616
-0.020172183571481633
0.04172935082990282
0.059395451394224474
0.352242972407806
0.021153034798931623
0.01811679020828299
-0.038991651885699974
-0.0972625925400015
-0.3885068643854125
-0.7103321516631927
-0.39030508643638806
-0.11499383766258592
-0.038278184806399454
-0.04466073817311018
-0.10997474421766022
0.9697946747169265
-0.14594420369330022
-0.0690322744185615
-0.0002882159518745489
-0.00598455792790356
0.004251754793829254
0.015946569727591318
-0.0166725360529321
-0.013022903197109066
0.015701582329793837
0.035602123254761225
0.050354960011512885
0.08765244843670884
0.03497456950398173
0.02345996443935617
