0.0036304539233230357
0.04756058603839382
-0.07739287479027954
0.04954404319186606
-0.06207243442051168
0.004049165584571597
-0.05026878871792239
0.04630223616449404
-0.061825780463141015
0.049971659141844434
-0.08137168316292637
0.04130846578981313
-0.09208039934105021
0.030207613406202108
-0.07989326989295674
0.03683498718130569
-0.06763521123891003
0.043767586121170626
-0.0819071683551605
0.0362041416177067
-0.09945761362115223
0.12612090521431896
-0.08505408299504466
0.03242513747442918
-0.07477975368908713
0.04509767117121342
-0.08072321326335795
0.0609507686624018
-0.05620636080652985
0.8629014391859168
-0.045733532041827084
0.05184475726568697
-0.07141351679589046
0.04197425440641896
-0.06999827271806705
0.10455972491998569
0.17335317918096357
-1.1124676314751891
0.19190184850229752
0.08674947693359611
-0.06608401834637138
0.035766958911474855
-0.07475010715933923
0.10542278976743213
0.10448228512478684
-0.1709110329590138
0.11653666601326308
0.08696753452063098
-0.0698203213110757
0.03937174070329038
-0.0724393723713574
0.08352651479452108
0.03738641577098247
-0.03262792290073216
0.05024216674402591
0.0685947884107578
-0.0718025669234244
0.04228488163780916
-0.07322789475347175
0.06615240264840767
-0.024118842871656304
-0.005784443664816679
-0.00772524031576341
0.054704841457148635
-0.06839628046332387
