0.0002763939611578122
0.040621532331541796
0.0020339299897398555
-0.265074528973751
-0.0825793456153624
-0.07490260155814159
-0.06003127361388547
-0.07596160376651158
-0.08237521332152746
-0.2686295757755755
2.274700123830131
0.15587500521567652
-0.023974624301544126
-0.03353657213637953
-0.052637654540775895
-0.03458998733644661
-0.030963802765538742
0.15215896998800046
1.2939865363712257
0.066862598450136
0.010451757962054423
-0.03292184053614668
-0.037773483029255345
-0.035954433635662614
0.01007608494114088
0.06220835893747863
0.2578864730492711
0.02510767540681348
-0.020960076740165114
-0.029279330290282707
-0.04309787805105327
-0.03190507538775691
-0.022912222008904023
0.026586843633356828
0.03746395385308319
-0.03867206384479508
-0.042176514710250475
-0.05436957026034561
-0.04783246128562623
-0.0513932849089944
-0.03695143259404104
-0.04011218038595642
-0.021822038622343443
-0.07419570354467775
-0.07337445482512651
-0.05929869911855107
-0.06688416657363218
-0.06321420069207528
-0.07115932105600219
-0.07584700373455618
-0.09583813548034599
-0.13948949066543648
-0.0892012315812596
-0.08042451594878425
-0.07210305651013586
-0.0818676262898878
-0.09038630966720451
-0.13801249734170726
-0.14826829029051322
-0.17310731115604716
-0.12359412280221414
-0.07903264464188728
-0.07919053189099316
-0.07796152627057815
-0.12522332313669138
-0.1722721589448132
-0.37162739619969676
-0.030773592485895333
-0.01537479209146041
-0.05728049591513734
-0.008755923554251688
0.5114446020690228
0.5714089313577424
0.06736668882410686
0.10444243186126388
-0.014231600991009924
-0.062225391794617044
-0.05777185291545252
-0.021427539278015693
0.17052919871155736
0.03776796619248811
0.17529836263392098
0.01622552207210418
-0.0353074720426467
-0.05512348067840735
-0.06100928601440982
-0.022531016339270224
-0.04504523349547073
0.06272487411039206
0.029180092133674465
0.009403787663042135
-0.0340881866245372
-0.06003426921194882
-0.04608824304951493
-0.07282389038904703
0.011978707779367733
0.04462424314548615
0.020955553502312842
-0.017936340412733016
-0.04276985706109763
-0.05553906467848088
-0.0647526020831346
-0.024037412033694354
0.06375112248405844
0.06507198888647796
0.02405559613262678
0.014635014089076023
-0.025259348261915837
-0.0595395491819668
-0.11635412581306494
0.0550600504205464
0.13618591260491536
0.10701536367022366
0.11831120095348077
0.0227909645702653
-0.00806200236020636
-0.06881984749988687
0.011986334511317583
-0.1260465262786518
0.7928072714392033
0.45751032268697356
0.1365932820056833
0.05333320752078542
0.008974679715581748
-0.04065582801270565
-0.0948914361688879
1.3657002619848562
-4.992686083387187
0.6724124460709215
0.3776319569603508
0.05376434970631336
0.0990622638823435
0.10315248175433983
0.10401745051959056
0.08558145845733436
0.0745172804451654
0.052546092176033454
0.057198464025540435
0.05776884317677207
0.08265010978791679
0.10309334141190572
0.0900901375550633
0.09003511339167802
0.07342642920117395
0.06589341096897929
0.05581102143008508
0.07187486470571278
0.10076102791497032
0.10253738357222367
0.10436501169731816
0.08788343969146904
0.07674269526545212
0.058041607639617666
0.05681342242369798
0.057536805465907885
0.10197777969545399
0.14477274119946784
0.11519750814675367
0.09727593141398717
0.06755851758371537
0.051754810839919556
0.0097724123793339
0.04899210148162209
0.2881719742644629
0.19634234193243988
0.1582768931798564
0.09594244182613526
0.06644875591459148
0.0030469927569484333
-0.03276602274093352
-0.12734013191579896
-2.9542404713595176
0.3916001446575196
0.17574863863041737
0.11748252110758337
0.04625985837438171
-0.008580730217629505
-0.22362703997861977
-2.0159403600168355
0.2865238383043635
0.2009551868524389
0.15847274995002758
0.09851374357617407
0.06646656942578236
0.0012291616973735154
-0.03608397971776014
-0.12952990378556697
0.10617915489975832
0.1432264043656406
0.11494511182419441
0.09651138172909318
0.06406701324843321
0.04600975792086102
0.012509815572896056
0.05137622245407573
