0.006335545364581003
0.0033680838253523724
-0.0012807152870533806
-0.00027315127915803703
-0.1759962019132515
-0.14079753119214677
-0.09071143215008405
-0.08659584242763521
-0.07709800941371363
-0.10330902826578588
-0.13972896391556008
-0.18034951297384796
-0.07120318509856689
-0.055429597835645994
-0.05477078108193941
-0.028917866887087057
-0.01419620923381398
-0.026033781578889085
-0.04406677473347442
-0.05928197959937933
0.020853489239069867
-0.0019365195276514766
0.002961525910801203
0.003505337553255841
0.014838484034170346
0.0197284122361048
0.025268624301059334
0.01728397909214667
0.10729458804013153
0.01717454066003029
-0.019445037405686892
-0.01611962831839728
0.004178980635922253
0.04614188047986151
0.07809831143024146
0.053259508364410624
0.29592909832090003
-0.032645528076880995
-0.05550886833280287
-0.045800191503209665
-0.021371830863570154
0.041080084377011494
0.1426947428800359
0.17407570648578302
1.4073970467726225
-2.053091441496445
-0.21570483413747027
-0.10695034009685071
-0.1463877577148689
-0.07589890059712179
-0.09401027938479498
6.24871407953362
-0.4247312542291686
-0.4130330771341772
-0.1767127677839283
-0.14929794752490352
-0.13696504716427474
-0.2761894668105305
-0.41258557816677643
-0.5930217567934343
-0.32984470438899044
-0.23426644709399555
-0.16002609269000348
-0.1029652957472004
-0.11847304256723071
-0.1586882775081796
-0.30694512968424315
-0.3990746815117966
0.06982302820322864
0.11828754598235544
0.10082033982074624
0.3306591566563958
-0.04714527926254849
0.03973020390640573
0.03736953980270035
0.06712988685718214
0.07320773217784882
0.07679507451587886
0.1103021140188341
0.09150318346954776
0.0811467971753852
0.0426670584307918
0.06304915025643222
0.06080786345588457
0.06562945971620933
0.08215979133916314
0.07714939466537091
0.09197319434130263
0.0639051317173251
0.07541180082671144
0.06468142172553022
0.07511101024879466
0.07708081073301042
0.0681141638888591
0.0851435721634212
0.07205499331773094
0.08009830676401973
0.06782509014431717
0.07794422800527993
0.07057957859056316
0.07200404046285301
0.07883103138574123
0.07674477964825763
0.09887793527120485
0.0727378054140253
0.07819861367336042
0.0648259216419031
0.07837852899213772
0.07950445441577711
0.07965470536755392
0.11691343951567952
0.10066924815875064
0.09520649865749098
0.05063530175000354
0.06682284338864546
0.06246758049330981
0.07802532082644842
0.11711522837867751
0.11239358929891125
0.3620998891617258
-0.019623870848616484
0.04223562338168976
0.03566492139443911
0.0732765793747749
0.09208053567573665
0.1088345846783321
-4.902555209832759
1.9005169069363406
-1.782648703263215
-0.1032302208507917
0.039141217420485014
0.04898553534244734
0.0003331863662794062
0.016193529294248027
0.02820147852085116
0.0310100138836057
-0.001826380130125774
-0.030499729933809477
-0.027668806513493717
-0.013054676063361068
0.0010568565646521017
0.012671766889481836
0.02064516753308778
0.017329688311683057
-0.0007778537591518994
-0.017909877559418797
-0.014577116348738057
-0.012645000817193967
0.003227625220729339
0.012962527310790688
0.018465987257791094
0.01366277426730845
-0.0033085381308153236
-0.01702015509760733
-0.017531012136609403
-0.013729236475400189
-0.0002169131194879277
0.017275875060466253
0.026965439831763697
0.026974736752159965
-0.00526704539711193
-0.03529495015303803
-0.02980461800624275
-0.013079744707988018
0.0009327040051552407
0.029740057826951983
0.058739135858085274
0.058462445817382844
-0.020116257029654184
-0.08578035491751036
-0.05395340953166225
-0.02388554669754521
0.0011604758263717607
0.04666889173564556
0.08454140172109807
0.1527302099312284
-2.1857005470907147
-0.19925190900669076
-0.09128620620486923
-0.03489553083373299
0.0020696626088634387
0.04183362737155079
0.09031657649895736
0.15001291339903464
2.3054058846838266
-0.1782057085433137
-0.09194443012906965
-0.03339035326169495
0.001563186840137927
0.027789422795102863
0.061588959411749945
0.059588810469007845
-0.005810598899903631
-0.07466076951762134
-0.05153579175307122
-0.02489195144656837
-0.09448920067180194
-0.09953893639553142
-0.13974415929287717
-0.18476463817055197
-0.3473654432145226
-0.16987366028667394
-0.13351719436419274
-0.09213927843394619
-0.07702476041206893
-0.09305048284943841
-0.10535219725369122
-0.28178935710291797
2.5089984878324416
-0.23347802537969936
-0.09285723761858368
-0.09055922026295321
-0.062421972846618955
-0.04603725089746014
-0.034927437114230526
0.1548797913425492
1.8315124329347585
0.1069881715655303
-0.04593907709907171
-0.054756556693044973
-0.04804155750099903
-0.04064027732024929
0.005299859795178271
0.05632495485791931
0.20946774892355818
0.026182947146822323
-0.010327841194195282
-0.05251097953487893
-0.057436166850907994
-0.0475728743718828
-0.03277641125103382
0.011087906205040661
0.009219414320562499
0.0019219172524603013
-0.04191615427667414
-0.05074041992860633
-0.06343395555347203
-0.06867406758058564
-0.05540989117096198
-0.055036635051825565
-0.04009337616938602
-0.05688017231801205
-0.0562755009638477
-0.06704058336428592
-0.08073250422482928
-0.0799781179122081
-0.09014268486196195
-0.08830497858992388
-0.10428903021672498
-0.08890416256722745
-0.08922157367966292
-0.07872708901379359
-0.08379086630463245
-0.0975545559005994
-0.1069498271870256
-0.14772642257022275
-0.14758535688484817
-0.14396322096061284
-0.1030856742391974
-0.09609461552208164
