-0.0013554081772432138
0.0018363651939407527
0.0007824741312645734
-0.0011673424243565447
0.0008936788290310774
0.000930402366510923
0.01254252683658638
0.0016967452033765117
0.023407471094157212
0.005482604267106556
-0.0128748767714554
-0.005362317870997314
0.0011623864408715125
0.014558992270490895
0.03186999221438649
0.03790323793939389
-0.030543370053459556
-0.03298924180939896
-0.026594036592730526
-0.018663285761240635
-0.011008820253144487
-0.01613891586982223
-0.0258337743857195
-0.03501697389351991
-0.10188799248355675
-0.07568186628589015
-0.059953553739336814
-0.03360141600943477
-0.03254940029410718
-0.045638183328134664
-0.06988553551556943
-0.09309152240602983
-0.19586587923911283
-0.14127721062689366
-0.08001613308181024
-0.057503273376567694
-0.04992376105586786
-0.06809189877395745
-0.10612583576659443
-0.18749069252044137
-0.4533532091022022
-0.1619948836463946
-0.10769518112960681
-0.06443284023973914
-0.059706114776721324
-0.08332158268599224
-0.13748097310530244
-0.4134496810805929
1.9444719925264558
-0.11287198904054653
-0.05221450625539706
-0.04240329801382723
-0.02971569835369624
-0.04121123128741447
-0.033803625208474485
0.47668783184017605
0.2536777494548344
0.03838657595969004
-0.02068710710581786
-0.015092526516814184
-0.0038863124015275424
0.03830951699329085
0.09556705199696922
0.22030721474103152
0.10086283408999966
0.01526365243408205
-0.005455373457902505
-0.005745808467108948
0.01486446138451031
0.03937029513376571
0.0724171553252631
0.11746068984241582
-0.018181964126381674
-0.01792518964858882
-0.026043417724990844
-0.016519104015320394
-0.021467214577587757
-0.005693623696178497
-0.022490673812521404
-0.012553241626368903
-0.01596544677709421
-0.02654799378668632
-0.026290161604314008
-0.04275014176891107
0.016287463831281393
-0.02231528666060531
-0.009271092276835056
-0.01933460196766868
-0.030430338281316978
-0.028210271181195463
-0.06145736968379799
-0.04314187609089743
1.2558226517519764
0.02106529562317842
-0.03563169046343445
-0.014870773504023736
-0.01855153673251821
-0.04964800669916154
-0.07062240164638761
-0.2421415430462862
-0.100548573765751
-0.0694345343489995
-0.011858414131532576
-0.03253050501674394
-0.027375425693338718
-0.031092640047287637
-0.0714000937865325
-0.07705683011217959
0.47710465911478117
0.016754009764436646
-0.035503256416210736
-0.014578723889978232
-0.014443442250391509
-0.027377546723960183
-0.01984876441503303
-0.04445382270806009
0.00988387329627553
-0.02380007939930439
-0.012761857487811211
-0.021816182275404907
-0.016423649483161506
-0.01598010422618707
-0.0235747605956442
-0.014237961556661325
-0.02887660454818436
-0.0043125758028895594
-0.019503170442322942
-0.013138965149177053
-0.012702595377981223
-0.019077045225973328
-0.01597579886273638
-0.024332074510590326
-0.014013393347226146
-0.01572382297005681
-0.01107506926975097
-0.0165347139412713
0.0012888025243925438
-0.008329117369575235
-0.03732522794105675
-0.025068772741271665
-0.035769388752499146
0.07227219349728259
0.06556597740990415
0.0564154290717237
0.0013205070591552855
-0.02442003673093154
-0.03028674172009051
-0.045183903540144996
-0.010341867330990236
-0.015757892856813435
0.03753667014910726
0.003860928908822607
-0.015336245979464747
-0.019903380767081126
-0.042162492351914195
-0.04115542134035301
-0.05040875107939754
-0.01612974350820626
-0.015561093325245613
0.0019835573906165924
-0.010325855457582446
-0.03718042041334469
-0.03702231860473197
-0.07359550781062506
-0.059013265225703986
-0.0656441884100101
-0.007005373950927411
-0.01857198202545266
-0.015894680352146622
-0.023140583977656056
-0.06270678460741239
-0.07362502554361611
-0.11022977389431834
-0.052684581767084404
-0.012140803746737623
0.02482880309956173
0.023796137213968765
-0.03740422242881497
-0.05119451745189322
-0.13128653878407262
-0.13025383440190588
-0.22736666617678464
0.1320351483695273
0.03731986962641967
0.011139341956733077
-0.007365467483437394
-0.083986293999098
-0.1183292603564434
-0.24270705216725433
0.6692984402141094
0.32027798963139087
0.166368657107901
0.03784266315662078
-0.025392814466044848
-0.03860125915472828
-0.05437733351527457
-0.028585323765981482
0.45908382930258174
0.1313359335388988
0.06500092877676653
0.6964891870484228
-0.34948657238043757
-0.17529455672610106
-0.057381452087175606
-0.007165389243437213
0.051703850434178446
0.10776153024319618
0.20406260753764113
-0.9125936684365774
-0.41697258881380644
-0.1742175783203418
-0.05935895305128371
-0.005294166557262248
0.04858728152650813
0.08945236958981076
0.17006580745868646
0.098424816703773
-0.12197534966258515
-0.08088034390164216
-0.03659734559831344
0.0005058014402219378
0.036632581205583804
0.0733960916456691
0.10492971104616562
0.05318459204514305
-0.02720486563817672
-0.026542021235071316
-0.01329279219137364
0.006390532629219689
0.03158984182223486
0.05660618106265184
0.06128157785984788
0.02901201240474093
0.002668438804846859
-0.009274302373885577
-0.007725133606512363
0.010245475606819338
0.02704047344125524
0.04120830554295961
0.050238657467656204
0.03325347293657527
0.0013565599237667495
-0.006267084579195801
-0.002924686763118307
0.012189212582203995
0.024116744119945098
0.04176336503546905
0.04245956573448139
0.028634340612881535
-0.01641690979644386
-0.030777601977493144
-0.010214256574614222
0.00892679080352401
0.031626489935269314
0.04570272461771625
0.05655941625343753
0.09659799379963077
-0.09980970929007288
-0.07265253123864762
-0.03432726727659551
0.004840705024421505
0.03542310784259792
0.07669378470336026
0.10002512902993536
0.003365320961594157
-0.011537671968087844
0.0008861147562965763
-0.005780249411096823
0.01915651565363227
0.00349582172387743
0.013673108656020023
-0.0035907816411747647
-0.004512161795040715
-0.0010753500170626144
-0.01914983026670339
0.017827499547804986
0.03181393733417581
0.041646379750374454
0.010339612540188598
0.012023337544571243
0.0038533897612166453
-0.025327645049333117
-0.011883768379902623
-0.04589935145263485
0.12453757554902775
0.037990873638899456
0.033790547551590715
0.001270904552806742
-0.01350560662523799
-0.009561097691961243
-0.09618730758660965
-0.7569419403633083
0.24361556267421208
0.12260853014529913
0.0018563125799235232
0.016330318455280095
0.0064369642658054435
-0.004826265309779186
0.06646203653887046
0.8123187145164537
-0.3622813937327098
-0.09772745392380372
-0.003912344035258841
-0.014033462326074213
-0.010939027961062445
0.007869660267775599
-0.004554753322164543
0.0548927396453382
-0.09354455366005462
-0.02752203414898279
-0.02579961269381862
-0.0014546339786734935
-0.0025207921259896345
-0.007237377204926079
0.008457159484054155
-0.007883980632432218
-0.007699552168132919
-0.025205529079079487
-0.0012377281804916876
-0.013043786548979447
-0.0062514305755119485
0.002107210120128578
-0.005895300884514406
0.007152869597332009
-0.00981209226440031
0.0015635323561673732
-0.004668047607983718
0.0009613623669097425
0.07397283209399703
0.10980084090043422
0.2321845419299896
0.231739548222763
0.11918315974271405
0.07808892390798992
0.053660476637162384
0.05376185165235924
0.0758480328781584
0.10679508793850014
-1.1262766409189564
0.4083908890062125
0.14468236727072561
0.055343987745662945
0.04843979901343596
0.04335773472323314
-0.01946828400547164
-0.09676378794839184
-0.6377226960026076
-0.47021492298056217
-0.04937973612338732
0.01357174204813802
0.016384749869593797
0.011709264476342766
-0.04233773228476437
-0.08025241511486805
-0.16790949804150762
-0.12438749595935904
-0.028535874167476976
-0.0011049951344863326
0.008075569893453404
-0.006562131714346867
-0.015432214325706276
-0.04356944049627456
-0.0505702963528211
-0.03563043052616009
-0.007846809433329216
0.008520286634138997
0.004499148931406723
-0.0003542294348040366
0.008909261410798505
0.005154390735637864
0.002952679994620858
0.011568429080447404
0.019207773167899015
0.021339777689165312
0.01970917643976558
0.014601027862069751
0.03679650309338659
0.04396401352982054
0.0554481676093654
0.059322542822570636
0.04968499506508659
0.04430201431100151
0.03250412619425343
0.031243164719627698
0.05926475954647372
0.08530338316050695
0.12357732147487838
0.1249028613781074
0.09243668048551369
0.05985250463466477
0.04854925716045279
0.0455139854806202
-0.42019639456983027
-0.15812137465115447
-0.0467014113507241
0.088861545542396
0.12016089980139039
-0.020054915523830243
-0.5372937224439032
-0.5557341758790408
-0.3127266115454525
-0.10464524120672486
-0.021635068659793314
0.0808224057923854
0.10333856977052154
-0.041967944428289924
-1.2289092543864144
3.83192086659045
-0.21750777818443723
-0.14033875846941465
-0.0008774640471244585
0.05441659047484029
0.10456473932927107
-0.1327631992625598
-0.2986341643650753
-0.3648206617037679
-0.17602410979722707
-0.07587106947659895
-0.016085203707261263
0.05452094031301034
0.08984271249758023
0.025152421452156702
-0.1563749637829604
-0.2629156887886311
-0.05065705984778779
-0.00903082914143227
0.04896335957653611
0.06679571410992712
0.10051470148821547
0.07915141827144248
0.001339065166718066
-0.0578997067385172
-0.006838226555661353
0.04364061973037017
0.06581252635404711
0.09582171995560197
0.11421976436676168
0.09547963674699292
0.0576295719735766
0.02118801871219346
-0.02830499119158856
-0.011256105596712591
0.06111239313999431
0.12030997516189265
0.12443497097205275
0.11489940593026876
0.058166214963588675
-0.026337121035022594
-0.15110481599465236
-0.05605110015051483
0.0123688167368547
0.10938832462779022
0.15360775676644509
0.12039974560496215
-0.06930266261333017
-0.39606361704847826
0.5701621463450492
0.1188346600221644
0.03614566909364174
0.02535311234189316
-0.02545390171413849
-0.03423766836876183
-0.04454154760311292
0.018835539367819495
0.6319475265376663
0.4336826340063193
0.14220184982370435
0.009373750713322464
-0.013427688247315162
-0.07387627543688459
-0.08740285201151417
-0.2702791955252329
-0.21405088370531306
0.10851552522672282
0.0392858813293095
0.017530940912159107
-0.03390685564565244
-0.05392696184229651
-0.11533105665827366
-0.13732160150335307
-0.06372655150038549
-0.01603798183582498
0.011022215153409337
-0.022913931552258578
-0.02571445487949805
-0.058285758992522765
-0.07634539957417663
-0.1052154790268566
-0.05954687493147423
-0.014681174697145352
-0.016770097828286156
-0.016494958188890785
-0.03804090948963647
-0.04176368634742856
-0.06878687462577163
-0.06140723814679131
-0.024791261997649645
-0.025866827327354142
-0.011564508634597953
-0.03013986238821759
-0.025662386188691648
-0.04038198601330116
-0.03689620125018733
-0.047484243948500815
-0.014059864115174379
0.004590794856065623
-0.01646036171280576
-0.014108904522667724
-0.03369737801432398
-0.029588558254503874
-0.03580719799248447
-0.011461652897280688
0.054519291199474004
0.021670090840640817
0.02687068435868626
-0.01350444519496765
-0.015061921354126474
-0.038528956309692025
-0.021395173579443493
-0.03319276342232341
