-0.014191740973415651
0.0003260466955642257
-0.0021016888695768276
0.0009793872887225907
-0.004275199943469757
0.0019757012851856215
-0.00019780729289343166
0.0020769820832961016
-0.1199697544601222
0.628480392238871
-4.3810627103799655
0.52583999857562
0.3534032457995125
0.13185110364879257
0.03454158565035491
-0.0491359403364844
-0.09273711066226606
-0.1024372464750443
0.07858461688854362
0.18447607836633084
0.6634484667312884
0.39195461975693524
0.22847665435109726
0.09060127727333626
-0.0015873583568267926
-0.05758730182423066
-0.04001709773576389
-0.04638198690143393
-0.0068980424657711665
0.07175176164781255
0.09817449572709992
0.11258797241361392
0.07209193916480555
0.006239490109769477
-0.030551396975852595
-0.0868063127086353
-0.0575882066130925
-0.028729759117852752
-0.00043906497169757773
0.017668631335797002
-0.023793768458529055
0.05666000245577446
0.00237126082391592
-0.004471302666552896
-0.06259589025444766
-0.08715026900430582
-0.04617843392545215
-0.019132635054094505
-0.02188421820567709
0.006768012223515378
-0.011147150055434991
-0.02270284413272333
-0.001062529236415732
-0.019668682972882597
-0.07619603805892594
-0.10177359719620349
-0.06993989250864344
-0.042472735125585324
-0.05999131931550056
-0.015185695446650957
-0.021184668472328798
-0.025406389419290517
-0.010452726958370163
-0.02138603748784884
-0.050543605126858716
-0.05887119072561191
-0.07241875525069916
-0.06601655126060789
-0.06490064776745708
-0.01145477785067106
0.014048744494284652
-0.01409719534543755
-0.004735930286487818
-0.026607289958160897
-0.039772339347442995
-0.03805061334087122
-0.06037776163486697
-0.08905568691783122
-0.04815225457062867
0.008477375730443113
0.1525869364886111
0.10885331726283588
0.03644390376366564
-0.011928150186080644
-0.046588759443906294
-0.03997197289500866
-0.07463973119652025
-0.09655688377725594
-0.04614569291801668
0.14296804966888146
0.2870543790510054
0.31585070509482
0.1897181010253187
0.049734180247736626
-0.005320510664198587
-0.0337330423247484
-0.07819517486514266
-0.08400962669845045
-0.04812986745924458
0.19078202089662197
0.8331849031415614
0.8667021976449764
0.2890854543696658
0.11257101611322383
-0.01889057247522396
-0.04107787961598623
-0.09678706641545423
-0.10369723389903654
0.03408185614948036
0.03921222365802779
0.03307454389104987
0.024457977942118465
0.02778652426024386
0.019862804707612276
0.02182656996684242
0.025449822762490776
0.025472439497255982
0.03443166929433443
0.012194031578595005
0.014023247264892439
0.01814076589403194
0.015247307167176552
0.02013242226516412
0.016058052940182147
0.01326884641504342
0.016401394189183845
0.012418025742292331
0.010550741005626167
-0.021479835934096816
-0.00977275449766061
-0.001104659602217518
0.009129772392978653
0.009505246349974688
0.010409405041853876
0.0040262978951546595
0.005666895957983969
-0.009235813301150564
-0.018022599747452503
-0.07124767034007704
-0.04930230511688922
-0.017171423031755333
-0.0038032531115113877
0.004215399881833624
0.0033106994400522844
0.00014183822340652465
-0.00984138481393662
-0.031876623414303265
-0.0627117528853284
-0.20988419038369066
-0.1037513295607549
-0.0366661433851056
-0.0038036619592317373
0.005968949612058273
0.0043323837790206834
-0.0008993666444703669
-0.024359735194613312
-0.06367047227183516
-0.1408701583908863
-0.6064468507346904
-0.14507888632475438
-0.030664612324061553
0.007692644145415622
0.016650037964702408
0.008301761502586297
0.001734250908322225
-0.01570788354560505
-0.0728520481897882
-0.2606989349521423
-1.231734301651141
0.17171041867456752
0.07528389713499525
0.0390301704659877
0.029808210418150172
0.026633405416143327
0.014319612660158408
0.015991138556630667
0.030965081099765514
0.41722492316485527
0.3352677339786674
0.17428576387681272
0.10044948432553448
0.051551810218670543
0.035743899700100216
0.031200388795963648
0.02652827281668014
0.034061036974451064
0.06283332160455486
0.11982213280350797
0.1296018463326689
0.11228517569040318
0.0671480401692655
0.045028652554730444
0.03181169858474067
0.031042419303632156
0.026828428519751996
0.031012282039766775
0.051187915780422054
0.09525086095720299
0.07268354045762519
0.0626896104858002
0.04984324008865746
0.038394687851531585
0.033409804903760075
0.0256372646358996
0.028324657787244044
0.03240237230356165
0.04244862991821182
0.05653996814415556
-0.00602448834769296
-0.021194694818025377
-0.03499195143336968
-0.04438049657031455
-0.05040800288406601
-0.017793577634402192
0.035877323124466974
0.047818373293924125
0.01794884939862419
0.006250247616478842
-0.010946853314039523
-0.02058837993790345
-0.02763234668262805
-0.03244450024142595
-0.021651340112358492
-0.017346722322607856
0.013114759939483802
0.0105483469116083
0.00897137045368598
-0.0053417946923126495
-0.015061355277048147
-0.019864924451928882
-0.023073147187559852
-0.02368402290970087
-0.024884325077749386
-0.01650393130173427
-0.007928781266352124
0.0017128032629712497
-0.001495460283140319
-0.004595706745887864
-0.013642031568259131
-0.019098418152013352
-0.025944928923102732
-0.030461589658447318
-0.02759946986506792
-0.024107437002016698
-0.01282321174217198
-0.002971000869288107
-0.004298535560943591
-0.00839851575085224
-0.012434954080564716
-0.026524941783675027
-0.033855853664280386
-0.04026320869354083
-0.04049780112987621
-0.030759282938673388
-0.0118139171519235
-0.002982291183176124
-0.004661891877624458
-0.004323749759973145
-0.012855922508896844
-0.027895519387334932
-0.0407505077502333
-0.059282841758592913
-0.07760739060728745
-0.06173858366213593
-0.0014667302225153567
0.010539774615746535
0.0003119176803788987
-0.005921923747662433
-0.012573134806361151
-0.030599296511457267
-0.055782119483161065
-0.08641872204366396
-0.14089402639313664
-0.19032274912139008
0.020318950864228594
0.04303820073813641
0.02234364466764464
0.006572073438026709
-0.008769345999095141
-0.030981394206452014
-0.06143795772310332
-0.10350027822072562
-0.25107896728096873
-0.49433063256383436
0.35573254332570226
0.09439179313625891
0.0498094746972322
0.014088468024235282
-0.010883429060288274
-0.03046876839401512
-0.059410381654536056
-0.09661474068272316
-0.2294108802340773
1.1812752841872778
0.7657406752052079
0.180773608461255
0.04619208595814473
0.025405448787836498
-0.0049609804181120565
-0.026517079599071024
-0.04285795391108609
-0.07194662656676683
-0.08356496572144236
-0.0703741721321383
0.1294983715230365
0.06559069183673072
0.05304556314689666
0.012307201734723352
-0.035985148698896595
-0.025453641509765063
-0.023033187178288374
-0.016733401532463128
-0.010302787489120014
-0.006908687531017286
-0.0033606298494348666
-0.008438890023492759
-0.021754257359912616
-0.02208016028112853
-0.060024061035107656
-0.05597019521810014
-0.03436027566971002
-0.027006623198374113
-0.014216770392026217
-0.012126321211875336
-3.6777064383140845e-5
-0.018229887445878244
-0.027328154616498596
-0.07943568964572266
-0.1481859678734506
-0.06845607769999419
-0.056457807497667364
-0.028000822172832132
-0.019057790543648014
-0.0026826558694406214
-0.0029470055712770785
0.007716766531537458
-0.050504570785599744
-0.1277353136833745
-0.23867375599613233
-0.13320769717187023
-0.051684294593448456
-0.03149094489848502
-0.011819368513791203
0.0011223945926478757
0.02618247323940093
0.028549881836939187
0.08997633796335786
-0.36449407656595423
-0.25092615781791405
-0.0644513876175726
-0.05791029632192423
-0.015409497608062794
-0.00936113467928422
0.016557514202086822
0.028997663916501545
0.13214983680041686
0.378232685569869
0.734738405348474
0.030461626949093403
-0.022920342757971026
-0.01560329529863656
-0.013021802965684436
0.006802282276039023
0.012444004332666302
0.051267376864560614
0.08089093501796783
0.13937020104312217
0.22612895933993435
0.02300731045673032
0.006591744030880968
-0.013241687885381166
-0.00682305707288354
0.0038833792713107705
0.018318699414946356
0.02419411541721671
0.06376823009590019
0.07684045201860988
0.10496622641232234
0.019946314228344718
-0.0015239740049497442
-0.0034243285841645214
-0.006553657184782468
0.0017177274440532198
0.00508646958977319
0.02153606904472748
0.027860930329926096
0.047636962442041936
0.027650872972560598
0.00010339947121470067
-0.0013675725009360787
-0.009812167567638634
-0.003989239269339382
-0.006689056666199549
0.006101934861422977
0.006548983622763524
0.01108551506599127
0.009584327721016228
0.008415127713226838
-0.009963739771955306
-0.016538274606255874
-0.012068699488580737
-0.011837782204198215
-0.0031386791088111278
-0.002962715779048485
0.0014950643406296477
-0.004589634555389662
-0.0029081796535128782
-0.010009140548183835
0.029869405826310085
0.0317275977819046
0.013173181659087823
0.0005771939669044776
-0.0235294681835785
-0.03950524001506155
-0.08453730479931287
-0.08905464684548228
-0.008245175624834917
0.05180707670176245
0.06890545693313703
0.033061853056508224
0.017958991867840765
-0.0016124055183477256
-0.023468207566037697
-0.05981570134769198
-0.1450066493987885
-0.317575215903594
0.04366557353558561
0.044657345418408295
0.05480384626881913
0.054336928371143754
0.01602227921627961
0.0013384018309735837
-0.028992913925251343
-0.04588881173363272
-0.16585986099247463
-1.071665188809976
1.0660596377650688
0.24668657051049475
0.07741001249454076
0.032758415448747184
0.019241031172964454
-0.0030408954788514603
-0.0159108608410522
-0.04874635565263339
-0.0624967944860117
-0.1528154742749717
0.1185113037673293
0.058590430786729895
0.03488048515650846
0.030894328823374288
0.019313398255666938
0.0037876652819084085
-0.013281652485027022
-0.020927858096013233
-0.03719362614369557
-0.019242854358754377
0.009529432677269295
0.061358745462991915
0.0317419977253692
0.019095687691164504
0.013617164081113664
0.0023528360108674025
-0.002648167500591385
-0.014592457334890252
-0.0029848178942671237
-0.008670123652421745
0.028772616089572364
0.026425949159175795
0.018980682372491668
0.020155260191219864
0.0064898122975177875
0.004661447330464214
0.0006992367216559662
0.00017502661004654106
-0.0017282802280670505
0.007458266257849085
0.008982225901031277
0.022760998474249852
0.020126961755130526
0.01272382554293076
0.01183680209942072
0.0027830241234190777
-4.614845626171128e-5
-0.0028593673211601296
0.001255573787731562
0.0009515423915744434
0.01076380339660907
0.01755175345424102
0.015332725913647722
0.019598160581254572
0.012224428879630055
0.001229088762887554
-0.007581329839275063
-0.007026063223043731
-0.00968636751507475
-0.00017449231722629563
0.0037827585513716695
0.016900543229617798
0.02254253624456791
0.014647548690744689
0.011915592195232494
-0.002574595864468911
-0.008422008315523139
-0.02378381563439539
-0.03210861204056492
-0.027732339310121895
0.022550825635334754
0.022418853045324157
0.0038243339666343447
-0.01532130555474497
-0.014108469128047791
-0.019578943910849272
-0.008943412535147764
-0.008702373700064823
0.002304891276327665
0.011029077967801823
0.03161074951492958
0.005704509538906061
0.015391929763245259
-0.0005122356729553783
-0.027396797004235515
-0.017864763344441464
-0.014841995848403605
0.0033452788778958174
0.011993902507522858
0.05688082370142618
0.06541632199488633
0.10613274899976295
0.07579485318685544
-0.03376388333467277
-0.029323120502528364
-0.03005949612325808
-0.01241654359694588
-0.000823697974532345
0.03317415470687754
0.06544669788411414
0.2099355631709881
0.38813127888319005
-0.30503230350811233
-0.07881344284488782
-0.06950312558933129
-0.03640500683069014
-0.025890390004054752
0.003770794309998255
0.01137752767253168
0.12632957931198777
0.7868596789141775
0.9753383685323882
-0.1607407924514457
-0.12145701413426986
-0.057499234955289844
-0.0436218012845362
-0.022979508465378246
-0.015153723247259422
0.009435910735438304
-0.0037057844033369968
0.052368487630623586
-0.24417365547505665
-0.11881735985452732
-0.06801166077154565
-0.05463795620585724
-0.04077044824136695
-0.03155728753910266
-0.01576835350863852
-0.014217673009952317
-0.005811037705757247
-0.0425299040983934
-0.09009065028571096
-0.05993891556090964
-0.05759493690931258
-0.04145175813955969
-0.038454869900521715
-0.024886328683930568
-0.02510740426180779
-0.018515262318598992
-0.03273488991189377
-0.032030102824133266
-0.07182716878490761
-0.04934376269657162
-0.03988103098488096
-0.03743384243645874
-0.029206236242896224
-0.02533983408101097
-0.023179285509890995
-0.02622567974008863
-0.024356097285481503
-0.03675351370422718
-0.03610465770093668
-0.031236153575777265
-0.033815099938407374
-0.023764014863804528
-0.02841274034273817
-0.021975715838534072
-0.020647723329525223
-0.020664474303812096
-0.02275584831449126
-0.02013626118861003
-0.02885201909108895
-0.017173913280142374
-0.01925876521965557
-0.027792503413075407
-0.022782327221210517
-0.01733683822745181
-0.008966995532612416
-0.016378861609008553
-0.002168944363069074
-0.007436665219929919
-0.0015308692147209633
0.016082842681625714
0.003499685860043912
7.587065305278266e-5
-0.003842913824521148
-0.006585381366201138
-0.017563376038807033
0.02127267248293478
0.5100668985148106
-0.538356005666402
-0.030854272812886233
-0.006221414489201273
0.006928722077722967
-0.0004713141102129978
0.0024911413252976847
-0.006040029470576552
0.0014998815813497446
-0.007182541387396077
0.06292518217554469
-0.03325649091321017
0.003111576575591357
0.0006439872382775601
0.0005157787411955236
-0.00026336358812492503
-0.0024560099058582147
7.39433068681673e-5
-0.0035709883001655675
0.0036276396523353743
0.007424070589131455
0.005785905341025976
-0.009270183014197285
-0.002192435240290491
0.001024729481954163
0.0007471413698797125
0.0014740903368254186
-0.00232467929090743
-0.00011692304597024899
-0.0013575889789008747
0.004371558908795959
-0.003929420905587276
0.001203172301117303
0.0029073485375786835
0.0005771429980379418
0.005267615661623427
-0.001954410900219213
-0.00017468040877942836
-0.003085295769300546
-0.0012637448377900715
-0.003458396127710528
0.0015294602693543742
-0.0020980993369287214
0.0017111038551809667
0.006387106920018374
0.0037893271911282247
0.000842376759435496
-0.003976261871725512
-0.005661339738557303
-0.006980804743004693
-0.0021565253113906236
-0.0021539203349514864
0.0050616315815774915
0.011410415767211395
0.006168830083867224
0.004451922788810109
-0.0028767935038632626
-0.005770059631093622
-0.014342455174979939
-0.010660102567331325
-0.007194924597880885
0.012892763114686373
0.012069797647983046
0.01506180973385141
0.0145952773422866
0.005251084459450408
0.0012551415092314062
-0.009852378417881313
-0.019338728278555053
-0.03377203695139491
-0.01439259229884796
0.016234624903718083
0.030924772700185416
0.03764914753686512
0.013104377813921734
0.00833452239121903
-0.004936615404188199
-0.01030173956574404
-0.036896229205623576
-0.0637885551680984
-0.14279146466305057
0.08869307706684922
0.05358826802395239
0.030793502716233614
0.019632319402502447
0.0040509100808844645
-0.0002719931099430699
-0.016490544758125423
-0.027381031922794702
-0.14996821739771418
-0.33968664250693964
0.43417381404315736
0.13767593385176352
0.022917458491022592
0.011567713059980812
0.01270536200568909
0.023000090446233877
0.03820646264598983
0.064170068584318
0.10597621892543409
0.15545417053456173
0.10614001747408922
0.07177069371120712
-0.008640722085154106
-0.011917740387276715
0.0002333549829273599
0.022216720578908247
0.04274795813721012
0.07318514286055076
0.15365727721891603
0.31436282367266166
0.44669453220573446
0.08074588060009068
-0.11415627927389962
-0.03856339455019723
-0.014286633161605342
0.0010607329029097708
0.03253607979330822
0.06451251555861831
0.12454314999727473
0.28933923033437087
-1.919820424150549
-0.30516557130825295
-0.13763193302990076
-0.04313690776640571
-0.017490752131665205
0.0058868435180032715
0.02637123358290898
0.0514632503800078
0.0601046662791381
0.1655169305857403
-0.34830807033197864
-0.12510448833060656
-0.047724427684564856
-0.03149457453277979
-0.016138128368248766
5.5964684427677546e-5
0.01296172693770305
0.0314989696781787
0.037656308080892556
0.029396376678093854
-0.026728052331892373
-0.09671461665031511
-0.03559118011029486
-0.01450244695081399
-0.01309350001526102
0.0012726368245602332
0.009263646782747284
0.016644947516160892
0.021213730400619756
0.019331633564507737
-0.01564817038386156
-0.04058067536684133
-0.01654660753716351
-0.002272124613109838
0.003743744439622326
0.007624528249477996
0.01427461968837012
0.016382708379548288
0.017982376229861347
0.00768187997425659
0.0028137537664559443
-0.013596566465955808
0.0006796969393418754
0.002492013612738923
0.0017767851211472555
0.004112576546197568
0.018753828780466275
0.010868494385496547
0.012721348271054133
0.018647168899281037
0.017764502951270213
0.004749355860236606
0.011656631762389189
0.0005591553288343729
0.009138066090165906
0.01872834040964728
0.022947294440562066
0.020667785848083015
0.03517077581998762
0.041234697113368836
0.03785766727516691
0.029328379006942712
0.02124791578541789
0.012599540368268323
0.01073349531966196
0.025208439721895085
0.03958021102225807
0.0435516180606207
0.062179765436035525
0.0699980439531058
0.054972843148386796
0.03584141542346044
