0.0019791387450927957
-0.0008884104467839563
-0.0023654948028940716
-0.0017037089582343488
-0.09934799206613575
-0.05712739817939201
-0.02342452310127866
0.008546674643110123
0.0383814489521827
0.02231197994969224
0.03205278886348061
0.032963153369861005
0.26818554114994686
6.199770604046516
-1.7966889036052498
-0.4505759284819111
-0.09059493873091519
-0.029831266868509745
-0.016356163229413346
0.006185730578630468
0.011748905829712442
0.01599881373148285
-0.046507405908858934
-0.07323501965037796
-0.40814013714626346
-1.7338980558494699
-0.7385190105578711
-0.17204839046275597
-0.035160046394686395
0.005374841024667553
0.0024634753959908206
0.0043924235639255845
0.00943928542588385
-0.0019541494413262985
-0.028256674657507273
-0.09706671759529183
-0.18353624805576893
-0.4371791190434443
-0.17361068781370753
-0.07772500463474381
-0.020678134620963105
0.01578790715427518
0.02642383497796063
0.02727226155026803
0.002297603362985425
0.009366640917159687
-0.01722573175511283
-0.03981506830074148
-0.10568343674871779
-0.13381069180183242
-0.0940558382966231
-0.022536967778592758
0.0026639673946935397
-0.011217917419599557
-0.010238784261759004
0.02606937931761693
0.02436498386183704
0.01849480083071367
0.021940905245307448
-0.018496715523524176
-0.023426723201951195
-0.06217962575691975
-0.02510649080183731
-0.002270649829906707
0.021672408001147243
0.011366849755210276
-0.004229363909451498
0.0342068332380801
0.021711201853492967
0.03541374647230024
0.02138988841112156
0.0216890451887706
-0.010724570752199413
-0.007545670305615609
-0.01092324191192921
0.006760872567395028
0.0031448594115202986
0.019782704354221418
0.0337743411359802
0.02411195906963014
0.020745088165423524
0.02563018930768374
0.037249894712991095
0.016875420592810962
0.017064072125543332
0.0022405135761958753
-0.0022430122888033944
0.0025968244300121446
0.0014744778245799073
0.011994663066802008
0.020528491083930452
0.016433133578814374
0.04545049923523436
0.03567279859595289
0.016399639554642062
0.02992383806469022
0.01121679707997417
0.01403427703496525
-2.4535340547283957e-5
-0.008471009082225017
-0.014633989537907753
-0.001670893717869994
0.01569219852687292
0.015053874677873677
0.057850161288474936
0.05088911297425041
0.03723947623018032
0.01484974320101255
0.033266783742459706
0.021233930815067446
-0.007315073421561081
-0.016715468854191003
-0.028624600851226145
-0.005455044926856858
0.014872725782166783
0.007048699723807083
0.004492738757555043
0.02389274047508469
0.042732486912562984
0.04012822176407836
0.044058075975310085
0.058901140442536304
-0.05013796176459029
-0.03773087204869698
-0.053209067923935156
-0.02842909996060822
0.000402180338833949
0.007312161069965311
0.028268689030435758
0.015231618331673245
0.05671844155010666
0.008772853748432969
0.10277727600729726
0.01522441537755084
-0.10802492841424446
-0.13593531016693397
-0.1075880894245761
-0.03411523294833763
-0.01542388302279913
0.018134349890612786
0.03226502685718327
0.044976163285524895
0.04041161970679373
0.11047638269618593
0.20577875023053996
0.20199122316458046
-0.3903622348499512
-0.21563683897568187
0.026155105147116366
0.022139520818756517
0.013497647583237501
0.009110516478984277
0.0007181788795275637
0.003681369672588007
0.004840767797445349
0.03727804131502548
0.0436847824615622
0.046654840898946136
0.04118731225450283
0.03440306078358389
0.031309187749065916
0.024447539151239914
0.018619862685803523
0.012939597044539881
0.014137327105677902
0.009072152819905314
0.016991097491005008
0.02501360221496351
0.03625989959247243
0.035939125344678594
0.03583112355351083
0.03120923355169216
0.02856474981336003
0.025422704472588407
0.02107049059312209
0.023138763269005724
0.020578939050859446
0.021372987306071387
0.01972669469957619
0.026420698591961948
0.02737016038746724
0.034480205261763326
0.03274665461256532
0.03183022573975799
0.02987940775682855
0.02464841329843916
0.022534935992684794
0.019839146881872938
0.021197118024002388
0.0198006305927854
0.023963238789076483
0.02657157717720636
0.031056343515330324
0.030052039396334936
0.036001325971962914
0.03266030789069938
0.027593186334847496
0.026248645240642823
0.01845289471319802
0.017496135497258626
0.019633425399102504
0.02256130499131854
0.023570184876233365
0.031176628444473685
0.03295356095598746
0.03648819731217031
0.03430289184724928
0.03263374220511434
0.028811225953080312
0.023364799215933006
0.019202714243794054
0.013603639572728837
0.013034837145676997
0.013249711565817801
0.02627231768181013
0.032896237276734665
0.0419115877867151
0.040469933264120295
0.03965468269166932
0.03264681853225737
0.02825770314337521
0.02085273447336953
0.015478964652657622
0.010880849643312672
0.004136639538304612
0.011069277893308204
0.02094327757616418
0.05439047610594631
0.05173700945129385
0.05387485797334089
0.04257067054886481
0.037424377584114946
0.03226565874993345
0.016232248107524504
0.008864783537748071
-0.0011656352731922149
-0.007844109186444556
-0.030325138508329907
0.02684417750570731
0.07085656730503731
0.09732576567503275
0.06544134424122013
0.05305801747462479
0.042100188622274465
0.032676571472975736
0.020426640271925457
0.003562667276654992
-0.009186179685468239
-0.04941469416609544
-0.051697407329250454
-0.15271404895965032
0.24164158515307324
0.13764004933569393
0.10756907741594715
0.06126234242159223
0.050387559432115286
0.03080443175430672
0.017044021384011274
0.006172636599998858
-0.02482295094366246
-0.06354226310775427
-0.2812856320387858
-1.2676590637315255
-2.3261817189230105
0.28732481952607025
0.11171653505431123
0.07871663453608833
0.04425780187488738
0.029822181564856866
0.01981871216622044
0.0013516233561255205
-0.0093849897310278
-0.06355400992664983
-0.10087044353146694
-0.17868512705258313
0.22390640192923775
0.10256143768830933
0.09596225791480917
0.06318810481314344
0.048415902177546564
0.030099844926082087
0.018086771887877866
0.00895094865343626
-0.0028493498044885454
-0.015298956696859099
-0.04854975658469023
-0.012245484792219982
0.04039601426691767
0.07990821623955496
0.05649664937159525
0.05009759272722727
0.04022738407654113
0.010808762818782711
0.020437622311205376
0.0192852571450873
0.013164880024031217
0.004180765681719293
0.006346326824026399
0.002088949360692382
0.0016138547679214739
0.005060073298288624
0.009294572264555238
0.006571492294732625
0.00605193781332325
0.017374358176485884
0.025230790744595673
0.03853672442560274
0.02902849960551151
0.020796865025599326
0.001731415118501962
0.002961751269595371
0.0027303815015775256
0.004754487351585054
0.006988417671388947
0.011643299895883266
0.007285760831761772
0.020507880941239228
0.03471277100378603
0.05752596384679433
0.09494511826521902
0.035572572643364074
0.004032994648190376
-0.0028801311217126887
0.002638222620292635
-0.0006860993115687046
0.0021359723262265435
0.007674384879565287
0.016575240248068078
0.03537348470834188
0.05601121434536465
0.1192164553327134
0.18555155925032968
0.052588089556555126
-0.02288891054340131
-0.016535728434446298
-0.0036990492077565553
0.0022265391436770933
-0.00023608800139064072
0.008940481006243462
0.014668357898968674
0.032091966863496524
0.09760169012489552
0.1989737204747492
0.35466575406909473
-0.3112152177498478
-0.09826447352168906
-0.057834679458932475
-0.01067014200596289
-0.004666118193905165
0.007680178082964286
0.009706551093947288
0.02148186167246661
0.027101918361425437
0.0412330753996112
0.06690644430861599
-0.34148878102179114
-0.3036789783142496
-0.15237504813194813
-0.04734115471973469
-0.025127356947121388
-0.008492474044135985
0.0035115826332065697
0.009308864379653954
0.015342343830483126
0.009680298237305752
0.009714645942800706
-0.023396995111661986
-0.11213650619106978
-0.16147297235682667
-0.08834332297188371
-0.05083158285969116
-0.015773023010773816
-0.008798700098753985
0.00044861595618823566
0.005582444312652641
0.01180602678563115
0.006515651519380106
-0.0019103158434693019
-0.010951962871336658
-0.06528307808631595
-0.05944091197264285
-0.0535233253489297
-0.025165621826335787
-0.015356311208301028
-0.002913591366520849
-0.0017928562224318427
0.0037627902314937445
0.005247305672804469
0.006356662025835351
0.005068553748361447
-0.010787826759326947
-0.016015686607554733
-0.028474076169237986
-0.020005933876949995
-0.01867827793183055
-0.007432132183654528
-0.0012446222926072311
0.0049827621383701955
0.005023015529558833
0.009641115061661796
0.012407615285440727
0.010893401486350065
-0.0009179563898148275
-0.007877648979234
-0.0034767394994612015
-0.00485845054828841
-0.004846611908787231
-0.0040480731872986776
5.8379205033524126e-5
0.003803391013824834
0.004671625985348504
0.009188924512208764
0.013582894375731007
0.01464194749662485
0.005722271230394183
0.0029313465222582874
-0.003481499679419226
0.0014994270434093297
0.004562720200884959
0.004732485936424738
0.0027636933443788364
0.00267286251186506
0.002890676736490483
0.014235868571305798
0.012584742566037919
0.017038612046914585
0.016240663341318913
0.005239331435972261
0.007612968467688151
0.004206369001983739
0.005875544417013541
0.00860381395097992
0.01118200571407214
0.007440812310228617
0.006803974985066601
0.009028289530546303
0.020046988939468772
0.017866891990522132
0.015600449710686772
0.019078097679377962
0.019979313180420868
0.021520159017065842
0.023605279788638942
0.022642641116205283
0.0230391666578635
0.024879371725889953
0.024441110862934382
0.021615563733345115
0.0007107089369813065
0.003324430149783968
0.0024206971502306715
0.011056439197340945
0.012715646631458423
0.019517464720467365
0.020685650518344107
0.021512074047076484
0.016683877583173714
0.02145107807526416
0.016401754890213265
0.014185930545499109
-0.01388493695160846
-0.031549451551157584
-0.013734081372178868
-0.00657730727992772
0.008200113396355742
0.01203271998641311
0.018501914248410505
0.016657471246105712
0.017745808448477684
0.015835918340732724
0.009595965271553632
-0.003140707371291728
-0.050274033303028084
-0.06765932080229961
-0.06567983333155232
-0.018780903199420145
-0.0008983004000544151
0.011274527124522874
0.015204103726555732
0.018619097453960315
0.016593086410394222
0.012824006055933196
0.0007992841305072516
-0.010097995566127702
-0.05842112943818215
-0.2768095751650613
-0.09776590962192702
-0.0471175769503122
0.0011881313316011513
0.010123521574026753
0.01637446626579592
0.015559605323006202
0.021329593497888766
0.015605608442508065
0.009661465689280753
-0.032183666571763345
-0.1557399440631068
-1.2853826220739952
-0.16890752669423914
-0.01371774778685454
0.0018040663987243005
0.021749506994511898
0.019164621872622398
0.02142649108647007
0.02303790422251645
0.02358446100639078
0.01755670329424989
0.02654472410261245
0.23859204371116027
-2.303103188470204
0.23359278755801624
0.044675994360208394
0.03723427716821632
0.0256717132014871
0.027467526495161
0.028442919401368973
0.02915738065207426
0.030233710588587627
0.050390253424610475
0.07330679429187312
0.13689650438529932
0.29306783842656137
0.10722610340937418
0.0823139607214093
0.04262856863095561
0.03357694426517235
0.028415027662808564
0.03036643663180201
0.02933460902403539
0.040264907469574285
0.0461768997547383
0.09445092810977988
0.10376441017106165
0.10815397604668689
0.09554339986204873
0.057584950536054606
0.04807975683034471
0.03496375213624211
0.03085478232272205
0.028570730582834984
0.03397806171543278
0.03702799205422648
0.050138412104013826
0.06685386036803447
0.06213502172857584
0.07481767184449037
0.060284909531870295
0.04704217545849922
0.039051209938050266
0.033730685549367576
0.03059894706018903
0.033526813813311344
0.034152432922881705
0.039084983088304964
0.04065133751010599
0.05535796195005654
0.04776114855103194
0.04644923251342297
0.04464633502594778
0.033362197620774595
0.033210738163690565
0.02998462197068642
0.03114032715173023
0.032631921198284314
0.03386127914080663
0.033414355966290714
0.038977953996000424
0.03980044334981643
0.02766957864387861
0.03180069861403381
0.028375630404798586
0.030974813957116272
0.024889003047700618
0.026346244133676516
0.02586431819179223
0.027184088691484497
0.02585752272943056
0.031997259205156066
0.028765071313498248
0.030252955623141065
