-0.010260254317245133
0.0015028548134822521
0.00022549169534117345
0.5620164106897362
0.1610748903922802
0.5165397031395503
-4.11132673548981
0.41451088196610125
0.2057836623161554
0.7512376228279007
0.4481376269609648
0.26838261450050316
0.03336734655257477
-0.22705617211494472
0.36282918145900556
-0.2572309378167638
-0.1868108332677431
0.023100131908816678
1.023544606518537
-0.51453873868318
-0.34348358457694184
-0.35003145340459135
-0.3686678911821702
0.032231596986857625
-0.2989509786198602
-0.28308033072100947
-0.2930982108758561
1.4504404592346396
0.07361695977444635
-0.3257459922415022
-0.11736689349254806
2.6240240687001526
-0.522372732313305
-0.35409020146323733
-0.4247860774699388
-0.6087470583043066
-0.025107909731968005
1.0996899690907325
2.2793566105620897
-0.235382306235366
-0.1569301239812888
-0.10482069024212623
-0.4096996318313988
-0.24351080875715742
-0.17881838012152954
-0.17249700914098537
-0.21420966968416072
-0.23452489381216043
-0.19499110913616186
-0.014525481637242436
-0.5865815068920913
