-4.027882549451837e-5
0.004063666589221389
-0.002111729906304246
0.004672738405250389
0.1661594187572785
-0.06759901336121303
-0.04667018422617145
-0.07922358167587522
-0.4521313297971685
-0.23736781351854916
-0.18205624927730207
-0.13836081391951296
1.571196106908391
-0.3849438036423838
-0.1430833932938788
-0.35394484271152316
0.360613476069935
0.004494603422195998
-0.05323840179288111
0.06005582271307226
0.4889013614170833
0.2985407147179599
0.05101908894611639
-0.6400736919249662
0.605015342652874
0.06983610190830322
-0.00695249389520859
-0.05770276471779135
0.02122404836575063
0.010491959874057209
-0.047824959005864365
-0.07949905027268388
-0.6582477488644615
0.08827028073229623
0.003522698456756987
-0.07992088824261395
0.050243364317416606
-0.0032487930470608507
-0.028333003228665842
-0.012216294824884892
0.08980026724210936
0.36832992828235456
-0.05695627873258078
-0.03997103909363552
0.4624310940105393
-0.9296692256500878
-0.44221214601088904
-0.08703528833125072
0.11123609137613946
0.5659516427348624
-0.026043868122386692
-0.008206450790566594
-0.14132175244318318
0.08115094783299545
-0.024421680859120228
-0.1229578967622776
-0.02786879735893003
-1.1522081015087131
0.08588944898302489
-0.047033324534009505
0.6792541294621427
0.19955848586040037
0.1691696635414229
0.026614015044005238
0.009672190455450464
0.2665050115204137
0.06641104895186711
-0.03851338809120109
