-0.00025150587877185445
-0.00011825008027132412
-0.00024875284899419654
-0.00022828823746816223
0.0003764691667305324
-0.00023113451349168542
-0.0006928900112165287
-0.00028935811807280775
0.000409144650829683
0.0009732872171719476
0.00024626899749033096
0.00017347854066597116
0.00019300393019381048
0.0003412586608005945
-2.084378740291646e-5
0.00035499858232105865
-0.3898704980411974
0.12952180682398365
0.4035687314110877
0.1826499370828159
0.04144436441893851
-0.10655133974411608
0.013253798578521797
-0.01400003792183384
0.0019489320884639838
-0.011619009881483977
-0.04348936430330968
0.09709677091462925
0.0017935756096241085
-0.09288917769159866
-0.3289022053760776
0.11724371606892686
0.07664514613766961
-0.10225740117826881
-0.11682194027989563
0.2665705887732804
0.010080391475385635
-0.07813382843684616
0.005594722378040104
-0.3540418416846596
0.2207459758906482
-0.033459062571398565
0.06320164780938649
0.23669492013545476
0.04356676335812122
-0.0369008541315893
-0.07426172834618965
-0.13042349931091937
0.11431376422124996
0.11940410244972488
0.011225460213576947
-0.3477655004677677
0.30594323006930757
0.0553659525480659
0.22322935098246208
0.23115373237833764
0.16292947625275062
0.05532240776773624
-0.09208026471683217
-0.3358841267848876
-0.1116902800273902
-0.012276393831415936
-0.10117819760545457
-0.2617127134387738
0.27631013814334077
0.07504690256576287
-0.17110189049478244
-0.46225499869951286
0.38019464077035586
0.1771932854052573
-0.32975764605849894
0.5618482894436023
0.04662204352290912
0.031738001478704654
-0.18177643708145513
-0.13698884560745428
0.05007535581916139
0.0373709262532114
-0.16354676083352382
-0.2062730046453476
-0.03993604080544339
-0.04913811397500667
0.1559967457453568
-0.057590029753915487
0.0021362178464265627
0.1065418791312904
0.032142736411892026
0.08046002994063867
0.2093371597054279
0.13760599403928098
-0.3003017571234713
-0.06085806172809602
-0.16694546381919434
-0.19134311048502234
0.25381626955817976
-0.09922445468210711
-0.026876358680120713
0.2027103799243824
-0.4892473509402211
0.19603131650969755
-0.03043719065215108
-0.007540360195193161
0.030827541058587128
0.11663038483456721
-0.09136985936483359
-0.03988239975810871
0.12002194629790866
-0.18963761338435078
0.11206707036071664
-0.07103545837804165
0.11531952836263323
0.034818424016014905
0.07577019396640641
0.05133311993097671
-0.04102359645096543
-0.15730946196263032
-0.1887032994160892
-0.29902109130926224
0.09457385448076781
-0.0534531459470437
0.2007958359109138
0.2598381264619531
0.08259995855129164
0.1316659598597061
-0.08909133454338841
0.015443806630787696
0.11345101610421489
-0.17756994229363535
0.11321953775757408
-0.09549209714343623
0.07562347497231622
0.09433689350634522
0.33825103926250755
-0.368083633809353
0.3281894895316507
-0.27212320951842384
-0.045661105852605535
-0.0016640684492791604
0.12664078349306143
-0.038686010800357454
-0.08900214817351751
-0.12677949103742076
-0.001212148194023393
-0.009357305594101301
-0.09178960384592193
-0.001864699733046416
0.06292925147844547
0.33620919854227416
-0.06898431432557475
-0.07848336878202375
0.05107541742939246
-0.3127063296127013
-0.11833903531735294
0.13736866411488366
0.30941405695228497
-0.19938790903267045
0.10837953839298893
-0.04751960387866838
0.17837696070164738
-0.24217822310561868
0.31954930884505756
-0.09620624926773624
-0.27139856501347004
0.3505123505235412
0.01742077999161118
-0.04011779105793837
-0.017448904142102945
-0.3717876005586698
0.02144370808784875
-0.02024874875287484
-0.05302198003120882
0.1367723221706083
0.05678582181354273
-0.1569118457300998
-0.044055658887101515
0.19691305201739256
-0.010239862135330643
-0.03158960514397652
-0.00822739407701239
0.02358223270664303
-0.09161355407554778
0.07340928615382274
0.017509451937098016
0.042711308094143856
0.28249648348820516
-0.41314987431089845
-0.02523284432750838
0.1665624418136519
-0.0856156151212299
-0.08658079371942588
0.26178531722637755
-0.15230697851167713
0.6013909872245522
-0.1879669972528631
-0.21195324278039476
-0.7555387795300859
-0.17258987470778514
-0.11882347475578528
-0.01297762634487617
-0.06874257587818669
0.02489774758211231
0.03309346871515438
0.047723432028919335
0.15240272653848774
0.27888538679549124
0.015395388755652118
0.1596980202844486
0.18530541330874803
0.4000640202297234
0.1720726737361678
0.1531605247923717
-0.4961656621116645
-0.20650294671599032
-0.025251435606726026
-0.10466945707901996
-0.19412096272049606
-0.25995976833428514
-0.10292888188921301
0.032917904324179854
-0.13404338983052053
0.3628646127446617
0.2073962896828582
0.083002450090648
0.1408640286298355
-0.01934198229249125
-0.25322580636433495
-0.18100482531650575
0.1690657967592102
-0.011638222533882315
0.14168328207640543
0.10381891882908388
-0.09517397893417387
-0.01931839507270557
-0.026274910707064968
-0.11008416075692787
-0.23366270403667874
0.0009877302979665458
0.03164267774329823
0.2058171373890249
0.2817094429151037
-0.3197499739061079
0.39049527092572445
0.088070530012976
0.05997255021773318
-0.03697880128343253
-0.19532960726102755
-0.035062877171904566
-0.15305350271217724
0.006458318975794479
-0.026092329993138964
-0.18129018182246576
0.10005811239420048
0.058120988768353414
-0.13833040914428837
0.2819319791562818
0.10357993278793064
0.15975241503537013
0.19433872363427854
-0.344403414307224
-0.062189166009514255
0.0800268488921694
-0.4227573809739067
0.2166837752100907
0.06288611566278263
0.08761581841729014
-0.07715806062358965
0.11111416257451188
0.03195271811868529
0.08751141935965916
0.0742056799728474
-0.06971065331293962
-0.11006900164071387
