-0.0005829690583260868
0.00661841498643973
0.0017215711456000484
-0.0013296055472022505
0.000251273478206729
0.0015215040865833073
-0.0007611023719676319
7.802529588834964e-5
-0.011664768009205512
-0.008730468124716298
-0.007345307854941766
-0.004567475181095289
-0.0024618451905499493
0.0006439223348457659
0.004561906872727543
0.014233211998721637
0.023424169630059638
0.046592829622010466
0.04638207787076881
0.019313364298412437
-0.012741625553623086
-0.012141435932706522
-0.018907076575909613
-0.014977960001009191
-0.009587809795120502
-0.006146315957994458
-0.0034931572093161336
-0.0007119814884648452
0.007564254721015789
0.017068401629804695
0.04739675116280053
0.07693045280055058
0.22555809422712997
-0.013459157218648151
-0.03776954954035098
-0.03261006378889023
-0.02326801291412471
-0.012759167461329147
-0.010603316099229695
-0.007000616379135283
-0.005524193688626067
-0.0007497893137595571
0.005423084427041532
0.02378804353345649
0.046275805211312394
0.16370267203921682
0.671010747295111
0.8572054485580074
-0.1373676484212592
-0.04671226646585681
-0.02955525297007383
-0.017978175352158454
-0.010210935199875275
-0.007079804187611785
-0.004184253204877038
-0.003524832761415771
0.0036548199038349523
0.0020529093186334004
0.00950289479907174
-0.07264187207001348
-0.3667028857079628
0.1166484481349379
-0.08573084477652707
-0.06570741140874906
-0.025260350599923206
-0.013738878122720245
-0.009837052550710611
-0.007589929157707793
-0.004588753486746579
-0.004106562352364878
-0.0034071013156251433
-0.0035509889412472153
-0.017321716362978794
-0.034531749617844186
-0.12166202995386195
-0.0776283134902522
-0.07601202578404324
-0.04044859012817262
-0.01825678005393991
-0.011779662321783926
-0.008682612141575568
-0.007435907927901524
-0.005414143616787015
-0.0070649747491138655
-0.005734199479968623
-0.011266860884723607
-0.01574537955615693
-0.03189180181345643
-0.045945414222273814
-0.048864930645474945
-0.03572053612218325
-0.028382067530987702
-0.014940367730026802
-0.01017631302173547
-0.008900929729917162
-0.006310590752334864
-0.006952302939985684
-0.00694874287489015
-0.005075904052764342
-0.007249679844435736
-0.012992574576768038
-0.01920483037225979
-0.026961230874931612
-0.026467031251625115
-0.024795732195095104
-0.01902268727241839
-0.011929439842127925
-0.010095936511480458
-0.008435995681918657
-0.00684724498810244
-0.006109777972171725
-0.007776237731177207
-0.006609298944079933
-0.008687572135032021
-0.008538133916981973
-0.013161105014909759
-0.015740522302051023
-0.017463691673348387
-0.017206691440738265
-0.016037318977980747
-0.010202801743573341
-0.007747736616632194
-0.007651165059993221
-0.005822041350403228
-0.006624991542642421
-0.005269854625434186
-0.005753071688369072
-0.00584031980946939
-0.007005808487326844
-0.008766908234323497
-0.009347976285574457
-0.010831575262871903
-0.012262150231472136
-0.012158293507257435
-0.009037364001025873
-0.007660047521606717
-0.005141138446484608
-0.005604606435636276
-0.006825970369789767
-0.004760464937211488
-0.005057719857229027
-0.003322109519121189
-0.0047259559020417985
-0.005571745370716718
-0.006309613754845933
-0.008490606975948937
-0.009276776523719865
-0.010293318542666808
-0.009627354298895014
-0.007815308345110435
-0.006096716273238154
-0.004929878558097643
-0.006362157212498702
-0.0035223856434034918
-0.0018177780020720961
-0.002640667894161613
-0.003936282615548655
-0.002151625447122385
-0.005821258141628285
-0.006095984043621742
-0.00767832389167249
-0.008453038615727198
-0.009083203949633505
-0.008927645772978346
-0.007365214970167946
-0.007330687060182263
-0.006350872926783589
-0.004686801898603714
-0.0008184778195081575
-0.0003064928124436148
0.00044523378844737397
-0.0005201590821508048
0.0005907378360338808
-0.0026448977407585667
-0.0061178250144263415
-0.00919480385102356
-0.008117105091004889
-0.00854912242817852
-0.008023050440057408
-0.006493936526740727
-0.005528509764837768
-0.0032849142148219704
0.0004539003450037781
0.002644398394552457
0.004420182816459053
0.005832250858074616
0.007584923824602267
0.004442707303570428
-0.0026984658872806393
-0.005290751444846033
-0.0073500304425421666
-0.008422643319881372
-0.006398264607919356
-0.006291878810991359
-0.004326143369870099
-0.0032247256391693857
0.0018233634052144834
0.005269576348606949
0.012796728860616892
0.015879349287453163
0.02143293477789698
0.007831479304000603
-0.0032351930089658558
-0.007164897105403962
-0.04515669397615692
0.0012640527688635216
0.022541541578362478
0.03227624069359926
0.02583917166195036
0.01858140668310839
0.0041897428879868
-0.02294519982655484
-0.032602641671305756
-0.050944387395690155
-0.12022374169847927
-0.21716481297949417
-0.224867765012799
-0.10450436676186865
-0.008945363167712113
0.0074338715557582665
0.03358698831985975
0.04119410150455259
0.03234789084306738
0.019659841824293967
0.008916100360146595
0.001272578926007769
-0.015472067217366365
-0.021747770003326526
-0.05175864785120168
-0.06545240558105166
-0.07254734138878527
-0.03853116600997835
0.006356802182434043
0.02276921923510282
0.03939838806852435
0.04113546828768548
0.0377463322122995
0.030064308750094828
0.020538577095298546
0.009916353163427042
0.003959894003804517
-0.0011063372278294964
-0.007089855186859318
-0.008912024375415703
-0.00918637216422793
-0.0009628922128418191
0.023867715195143663
0.030107888051905413
0.0330985204777231
0.04626970896427354
0.03777810416120851
0.03488311701799227
0.028049608384387716
0.032116374132334674
0.023004011070508888
0.02452403691884784
0.01341959044941184
0.020133328079253717
0.01491247069332231
0.015372279997465366
0.030341979859627916
0.033141793975088436
0.03206136842151498
0.03581925124859176
0.03560801953592459
0.027863188364780155
0.035605435860766574
0.03243346807236826
0.034867207152740165
0.026180742423121843
0.02625758624806834
0.03174552956319853
0.020492612034852135
0.02385045333941422
0.03292430569485517
0.040531164594169805
0.03233656739114703
0.0400492156186418
0.03553337153721958
0.03236358923444465
0.03714362885868006
0.028247013323560565
0.03204086068500906
0.02990772389699852
0.030014271641580006
0.030695894033990475
0.029012846469636713
0.03363951190796382
0.028463567530004015
0.0346925960267276
0.03792799156119948
0.04378824444284137
0.036918055311762114
0.03748723391900278
0.036903189027595214
0.03265807458139927
0.03316856729816603
0.0321717050404783
0.03432974523141897
0.02569004304643537
0.033800068046135334
0.03333070705208164
0.034459114162326686
0.034308339153381
0.04243742872315534
0.03867365424196444
0.035598547497202426
0.02957775389872046
0.03673567206011039
0.027696945789972702
0.02103898701987422
0.027072937162176125
0.018429296295372058
0.019905510499896344
0.0265904076054306
0.028047255611159706
0.03314654325201829
0.04090738644002026
0.04219907767736769
0.03932495074853548
0.03262318809151387
0.024464877734754396
0.019525730865701675
0.01662496489114278
0.018606590799939253
0.005479209716415036
0.0062687659697496885
0.0020710824304617133
0.012517917189193319
0.01617783644148841
0.016365487948126936
0.032050273960234896
0.037223000197718376
0.03718902640903214
0.028390199251899676
0.015753798559455516
0.00983683387130106
0.016410474895217998
-0.0062903479656064324
-0.02120216390224814
-0.01989953472529666
-0.06739716939338462
-0.04083597399320577
-0.021880735578242154
-0.03362454279630642
0.017159493050024715
0.02856211394373868
0.027638183852475445
0.02695538966803498
0.01611107534399579
0.009383006560306426
-0.01248005648808186
-0.031046745318912664
-0.07199058338015506
-0.05384621163425379
-0.2853674270679737
-0.2306520699642914
-0.13651727247390175
-0.10896310596371389
-0.01309497398574688
0.02193439529962652
0.02640713995753787
0.027642152630847665
0.020642395621524236
-0.0018479192946313189
-0.017177416723174133
-0.06215025828982993
-0.0711170974300536
-0.24042904686098798
-0.26729151125815265
-0.684715789235399
-0.37800047062041514
-0.17089683841658168
-0.017975735364657908
0.010800149064832093
0.022803428060252928
0.025110097869306913
0.016626274011699225
-0.0067508909677587645
-0.05094269978285441
-0.036122746494658
-0.1964830553082192
-0.20215496179387013
4.154642022125582
-1.3897548718834805
-0.29479292683815406
-0.09246407317166785
-0.02052767367860395
0.018032462165649563
0.020931140739762495
0.01927013443116849
0.019072967201821788
-0.0005718234163238033
-0.01784108463210413
-0.04966387825099886
-0.050224213006846256
-0.10825694440435221
-0.21926730059819233
-0.43215182834645766
-0.3566332818991016
-0.011122433330852756
-0.010383602048303717
-0.008970278304519167
-0.0069861549232933156
-0.006534341743145085
-0.009225229842868924
-0.013207921862916094
-0.022288896688934485
-0.03328300469696136
-0.03345015217288992
-0.025710197173621878
-0.019475061977831446
-0.016501678878197378
-0.01483133430545458
-0.012049782862420507
-0.010670664174740248
-0.009397986251640417
-0.006591040748807245
-0.0071988073920377284
-0.008673375804511933
-0.014714127658481938
-0.031618010698623154
-0.05693520224617848
-0.05251284828734805
-0.03974737439896015
-0.029956967913035537
-0.020591640186582102
-0.015148283679966136
-0.011384984897256749
-0.009238129328829763
-0.007279367314187406
-0.005409012569613973
-0.004816199194018404
-0.0033499700294006875
-0.009556565455674404
-0.029690416071159118
-0.10672311992313456
-0.0631986088293269
-0.061617109467758564
-0.04154160469476475
-0.02587426641000169
-0.01714763333148559
-0.012322468343468155
-0.009159105010736277
-0.005246773588709021
-0.0030527019686635327
0.00013834192639981487
0.004311967222229585
0.011042921655335226
-0.039110020939893526
-0.6057275735743899
0.21647423873958532
-0.04067802325467793
-0.053762464130251306
-0.02998602960856187
-0.01928797689951435
-0.012600803347700416
-0.009367862799603315
-0.005090849354132252
-0.0012790377305865238
0.007591743790053251
0.0203587568973821
0.05730950727343724
0.1576517456033559
0.5963891828311465
1.0546847208528174
-0.11413823205515153
-0.04348594038636536
-0.02432169986935743
-0.015897930207038825
-0.011464627560912802
-0.007666050444949079
-0.004378873827869012
-0.00038786882709601655
0.007003741556499283
0.02192915785841943
0.04811975785945852
0.09163459849162786
0.17091685207463508
0.020285807896932316
-0.02772946749372246
-0.02541093614047537
-0.015687199987496958
-0.012380271826481732
-0.009847574460487278
-0.007563470465444903
-0.0037412197585664484
-0.0008072701453502894
0.005954911644065481
0.01549077957608861
0.03416465781589762
0.049150760394590313
0.059047071043268555
0.019356937410235826
-0.004669490459620897
-0.012934026214134227
-0.010477563245875001
-0.01053269162998288
-0.007577530964364912
-0.0051955752792550505
-0.0025713249894135227
0.00020379841584277638
0.0018487961929677206
0.008523114506209536
0.014804219558404387
0.024957002665256158
0.017644576586221532
0.014690803370244995
-0.0019379792343045248
-0.005136420533113809
-0.007747877562146163
-0.007723858176246921
-0.005753866247537184
-0.0037143661174052246
-0.00375440941197869
-0.0007276695320123908
-0.0005235820050102601
0.0029354941904696304
0.006939088543721601
0.00892242365958739
0.009935572328850789
0.004280924502853597
-0.001092693345656588
-0.0047853391813849535
-0.004877882203494393
-0.006487513574168349
-0.0059230497096704115
-0.004557959261054842
-0.0044162429998316965
-0.0027951000944588245
-0.0031555858490955524
-0.0009193944003399398
0.0007476921265829102
0.001588534530441002
5.904272681512472e-5
-0.0013773231399449321
-0.006214100902330884
-0.007423609167685761
-0.008232077835799401
-0.007801775576386427
-0.007358311063639666
-0.005878144836400238
-0.004876835740522129
-0.002758200051359765
-0.0038570756810717218
-0.004528749774109386
-0.0035577595175218663
-0.004294184312793137
-0.005737650697732778
-0.006054097641190585
-0.0069283801951940055
-0.008805895580429374
-0.009306174371623965
-0.008604178532325694
-0.006970926414068565
-0.005447822736866452
-0.006670022678314784
-0.005017040199908432
-0.00556169625034153
-0.0058983232586710095
-0.0069199938979380565
-0.007544815689564996
-0.009693267606044645
-0.009358200066872683
-0.009326947829151912
-0.009667395017712932
-0.008473872041719021
-0.008253660835284046
-0.005798307363262655
-0.005719433241892212
-0.005993706020358606
-0.005450630210592161
-0.006817327979318727
-0.007521717786031392
-0.008561764823958205
-0.011011580368394697
-0.013901639942352578
-0.013531381791079074
-0.010838127599949376
-0.009414010591148901
-0.009443692828360769
-0.007999368110362963
-0.008371967309444327
-0.009261209511493274
-0.007879067981340665
-0.006743263144921592
-0.00729245935541373
-0.007006804115041782
-0.009123090860503542
-0.01455226187409161
-0.020128610483068354
-0.02125183334622851
-0.017462330890489715
-0.013301290106898036
-0.011947080589996788
-0.011894073137304322
0.002364944088166501
-0.006506607417141224
-0.0190313322456529
-0.03936940960505981
-0.07313643301166962
-0.13162479332672458
-0.23666196833636147
0.22582273693793908
0.17650641975126463
0.08904697167323672
0.050950345882995705
0.03170881025602128
0.018898426141754323
0.010555156317904189
0.002436233323822901
-0.005144609028107668
-0.012122848619283958
-0.02527381454843841
-0.040790290270881685
-0.052944418837413985
-0.042709729640302826
0.07613648317731599
0.07840056904732615
0.05723896620837303
0.03762676717420278
0.026625414685793124
0.018849665998148246
0.009909339008823475
0.002563546759855854
-0.002399297526730258
-0.007567766070564103
-0.012279511808966507
-0.018898500244633524
-0.02059697428011603
-0.006062730844464259
0.025218333707393285
0.04110639516240719
0.03360415988555006
0.02722110187284218
0.02070428781060659
0.015028138069618434
0.0085690989700613
0.0035894442097330823
-2.8648476471848888e-5
-0.003259863484766688
-0.00694424235005961
-0.008111296674638366
-0.004965602461155035
0.0015199149036375162
0.01616863174382577
0.021908352575438446
0.022841269834764238
0.019996011898370535
0.01637642324342407
0.013663537499832557
0.008470094195744618
0.003645964508262293
0.002230637068818203
0.0005125825178238945
-0.0014441938148224843
-0.0016989540234390813
0.0009158460069378717
0.004995401119196537
0.010843973753683756
0.016680993880030394
0.01781691948682633
0.016206408334543922
0.013733452961202453
0.010938237852985299
0.0072288421945837875
0.004979839366839434
0.0030291410015530493
0.0024784177351374727
0.00120921715947105
0.0015544330584878552
0.0037145137308740076
0.0066082368956704145
0.009782730149252402
0.013639852005203488
0.01526235998351209
0.015141986457380276
0.012958530949142465
0.00983012222424114
0.007339161987960247
0.005628489652611486
0.003558942105954339
0.0015442081650391792
0.0008129179321709602
0.0022259749739439736
0.0032861229598372915
0.007580236327911318
0.010440938155289311
0.013051523330865771
0.014033038534756381
0.013271187057470994
0.012042559079288346
0.010272894031074824
0.00788598234051421
0.005430477019018845
0.003784222198458253
0.0022482246742053075
0.0010191426774439165
0.002609004216775789
0.0034002929735265017
0.006690819389505191
0.01098649226063922
0.012157250031953474
0.0133652701607721
0.013333351886275746
0.012272890116007662
0.009574025491424052
0.007477800581959211
0.0060987657396480216
0.0031905107918070636
0.00019477141553576294
-0.0017980734436045774
-0.0012395755887033857
0.0017261783373413414
0.007405562202125627
0.012961885864180884
0.015051740424331021
0.016839246167384084
0.01574945024303942
0.01311477218020075
0.011049936149323964
0.0085594044837264
0.006191745709808839
0.001419135862106305
-0.002053847581211721
-0.00521788386331269
-0.005323033455424791
-0.003861360953093334
0.0037484709322188198
0.01816221243911637
0.022322113844725183
0.022365350723080893
0.02151989190151915
0.017942346978753035
0.01277215943995767
0.008808446825904778
0.0056718520116593165
-0.00010966794265594227
-0.00570680009045924
-0.011028346867551364
-0.015965694370938692
-0.014903151932235601
-0.001383512488936594
0.034177351999396546
0.04121851950865608
0.03585512250211408
0.028341480503034353
0.021420494068851083
0.01508148082509752
0.01011010050555271
0.0031513002659132572
-0.003491963251576488
-0.012697069173871867
-0.02403810140693236
-0.037136821684620694
-0.047364323414349735
-0.026136248827985306
0.06251415043786814
0.07644346048624728
0.057508302498905525
0.039800483187069025
0.026029401488252474
0.01678464749949435
0.009252458546031557
0.0021514812914150134
-0.006035753553898329
-0.01953641412800485
-0.03714556882045098
-0.07090426930199067
-0.1096505993219718
-0.21088945412860377
0.17781479907631698
0.14933600991039428
0.09160580759121573
0.05286025697744549
0.03305945230168079
0.019212170427305678
0.010523334349953428
0.002639400393586263
-0.0073554213567789805
-0.023275054388306116
-0.05200248317418113
-0.09862717054465653
-0.2591134567776326
-0.6063171502996956
-1.0262002062653794
0.24664201952810952
0.1004358435645456
0.05480332070995872
0.03200508253066952
0.02021629120089798
0.010134264765061728
0.010628199794088512
0.01529811267879713
0.028634236079460883
0.03835136048742916
0.06355170742074878
0.05263151897941934
0.05580751626613318
0.020230758463150193
0.01207689937194179
0.001313966447036011
0.0025768380532242203
-0.001113432274783687
0.002586884251397058
0.004893030028067077
0.007193998837582402
0.011376723904099783
0.01655688579942275
0.027544173076406848
0.029301572028464524
0.037002861254428254
0.02470735169841491
0.0183870864266081
0.00705089006868317
0.0050265552102102375
0.000898481706136505
0.001273066153305302
0.0013853293715870288
0.004570452129954747
0.00633951979491111
0.006603059698558465
0.010926683614086123
0.013234852684524838
0.017497532125773627
0.014462889811346484
0.015143595065610362
0.007207137364246322
0.004566038976308144
-2.5525782311891676e-5
8.57232808192755e-6
-0.00033863315566922054
0.002267330039903818
0.001961822671278649
0.003462051041046082
0.0052842854946869786
0.0049410872431573044
0.007575806794596311
0.00506370510633241
0.005747745102397043
0.0034318129328528113
0.002521374341254943
-0.001643101443862197
-0.002508889827692158
-0.003684141855819711
-0.0013079775174258282
-4.755274866774376e-5
0.0017172743537992113
0.0017392731370513416
0.0010800763516008566
0.0014354650529821921
-0.00031869383166062296
0.0003745924386387598
-0.0034665090892869064
-0.0026399594692887063
-0.006552084941652735
-0.00527921062339726
-0.005600426336953477
-0.003120004437111328
-0.003075801372089764
-0.0007103377790829357
-0.0015871714731999225
-0.0011394224758520966
-0.0015728890536240475
-0.002809757742354894
-0.0030150269292594976
-0.007820808590382814
-0.009576080499514044
-0.012966591686854337
-0.011518213312768599
-0.010728012892839825
-0.009125796149200604
-0.007509568324731239
-0.0036676031137423274
-0.002969464330264955
-0.0013555375089353513
-0.0010793715597878254
-0.0023425287488317657
-0.001775203859192364
-0.00702410910743813
-0.011239120944673539
-0.022042445988991487
-0.022888213987731405
-0.023714092309132666
-0.01704812584842707
-0.015976443203641093
-0.010828441735776346
-0.007298728374624577
-0.005563873881390953
-0.003977567123893741
-0.004824292092395103
-0.002256981115716197
-0.005561669355706107
-0.007832369766669234
-0.023581989252369078
-0.033237001472236266
-0.04609799925444403
-0.03614670327204778
-0.030208785819060818
-0.0209662150744252
-0.017159121785376225
-0.008672325654493645
-0.0070907431862798995
-0.0051763727288771395
-0.000560575583634774
-0.002325440118188421
-0.0014137012346254433
-0.012992456095939903
-0.025481335019415657
-0.06962224473260004
-0.07585450783694714
-0.07255593457857384
-0.04589079778072215
-0.031477967081475926
-0.018372334828634592
-0.012434185706796809
-0.0071233640114988445
-0.0054123241468468
-0.0006900374053569363
0.0044862195261938095
0.0022493230598555907
0.0032868001574343046
-0.03664662280792634
-0.11164808877286758
-0.14691414598501254
-0.10293687145864905
-0.07432366894546164
-0.03886525540397714
-0.024726253828977113
-0.011875444599461308
-0.00712618037056345
-0.002415800781072324
0.0057879137753574905
0.009415612031641847
0.02160641701471222
0.01702413160075107
0.011725745503237798
-0.31911443365353953
-0.20173745002056584
-0.14729885386467279
-0.08166099178706217
-0.04828761918755552
-0.023108738884115684
-0.013068047170207627
-0.0056871787995528295
-0.0008816808681286416
0.0071554470560621
0.0223131449598837
0.03523259665068344
0.10292576833197202
0.24216243673657892
0.6795390838853151
-0.5249369261541754
-0.08758093924767359
-0.06803771789700597
-0.03024018451292447
-0.018760755425280315
-0.009163356722520957
-0.004286707701843301
0.0035019856023907657
0.012401859701463501
0.020523845965187613
0.047101686613456886
0.07737542877256624
0.16298264958376069
0.33125187856831756
0.1768190235054291
0.006337449579677555
-0.006887862980254752
-0.01431861646452795
-0.007168229440030168
-0.005621916656928326
-0.0008211687519717097
0.0035954128118263853
0.01026636395050003
0.021982871642932503
0.03394738754925816
0.07232669259145404
0.09560070165831912
0.1446992807804953
0.07975002395113968
0.03761401517510258
8.028633149439565e-5
-7.034688896868044e-5
-0.003879757751722703
-0.0015394392140756984
-0.0002595917527420242
0.005789586210307682
-0.0010748493270252466
0.0004520926846196478
0.0007463328518890647
0.0026569572693153627
0.0007142621918964137
0.004515494566408963
0.005665210130338545
0.00899626742978849
0.008226574741458654
0.005856412743611107
0.001262510876360865
0.0003655578472508839
-0.0010308572489503554
-0.0016096488184749055
-0.00018530785056547304
-0.00037223379227786443
0.0006075550477755861
0.0006496832051527882
-4.913785508647091e-5
0.0012835488874832863
0.002774581010530298
0.0031160928625687395
0.00253818434281838
0.0011888918066353237
-0.0007820370809673517
-0.0015109744807199402
-0.0022622789766488295
-0.002758956130265915
-0.0026189245380529563
-0.0010046372031396755
0.0002684559389392579
0.0008232513558378064
-0.00010490514040036843
-0.0008571579613608578
-0.0005418040174798967
0.00013316577783482357
-0.0011420698563922738
-0.0005402110147573443
-0.0004708061519885896
-0.0008383020589311351
-0.002551699891138714
-0.0014237915315656396
-0.0012907369150635967
-0.000820413822574548
-0.0008831769490282261
-0.0012796002471054297
-0.0024829467824993984
-0.002037485441132202
-0.0016877146424464952
-0.0031651459510121122
-0.002028844296843243
-0.0020168509854090466
-1.5691867974699055e-5
-0.0007531741217592788
0.0002086173024304634
-0.0008850910622005938
0.00016962579737779743
0.0004553484680931925
-0.0003196448564451943
-0.0008271968744278452
-0.00402074683892009
-0.002965321269882762
-0.004465114487402
-0.004648088689369691
-0.006566173684747081
-0.003538114891803175
-0.0003581039080679173
0.001568243263734247
0.0003593114422702074
0.0010152891980876357
0.00031538480033542005
-0.0016947515664017944
-0.0016544829370641525
-0.001991045134561006
-0.0032759873476041743
-0.004003942497398578
-0.005664211220634007
-0.009136727923354095
-0.011040150639684358
-0.010209683648718104
-0.00287578181598352
-0.0009110962073866225
0.00042998678979524834
-0.0013788425315423977
-0.0020251945688840576
-0.0019703571347341312
-0.0024504546673675483
-0.0011886909095357445
-0.0034322459360744562
-0.006425154485849538
-0.012252953629174317
-0.016216689566797178
-0.02452524004721744
-0.012568663004290173
-0.00559320304773406
-0.0008411300390357801
-0.0018459976921342705
-0.0013242130358550523
-0.001106062215343878
-0.003286079383367642
-0.0029768689415055572
-0.003620888038635481
-0.004574570171758328
-0.010741046880141226
-0.01594728878947548
-0.037387361875949314
-0.04218050524299588
-0.020560044364030895
0.0012646382386041805
-0.002806297361128617
0.0001973256321297523
-0.0019682191517836857
-0.0010419888055266174
-0.0016107430908887297
-0.0022474294807317847
-0.0018955344761196044
-0.005376713354509884
-0.008583522826546345
-0.028649115293897413
-0.04655066207908466
-0.15416936677522905
0.015836966987666762
-0.0006268019584290824
0.003940015976186608
-0.001210737826486307
0.000780442703330756
-0.0005241172806670016
-0.0014027508867924046
0.00022271096714742225
-0.0017217121349613696
-0.001452382774759805
-0.0091804702487989
-0.01369746896731906
-0.11674083950674519
-0.6656835213336263
0.6419237517311849
0.07486098729014225
-0.004244736775564044
-0.00042168494850429894
-0.0033654201190363216
-0.0039683155854840935
-0.002444067350325363
-0.0010579539349120375
0.001497327397940874
0.00187048374001528
0.01176446458900423
0.026094142330965048
0.14509979409367224
0.5507312974786566
-0.6226314444595908
-0.08147797975275806
-0.005384637524841292
-0.00698440212604007
-0.0019712806271996847
-0.0037762724708207637
-0.002176081046229119
-0.00046130232512532393
0.0013184560284020964
0.0050381195204998236
0.013406667508116666
0.03795440800442369
0.06362643093963176
0.15811502233713357
-0.020366079102674635
-0.0075958860009489575
-0.01293522229253358
-0.002567300619913594
-0.004613254075908709
-0.004094537220371854
-0.0013368919968860904
-0.0007711939876163537
0.00206522339593167
0.004789654070618537
0.013052335349822322
0.023935378420284797
0.04030264389489763
0.04036252710260855
0.017381258321348347
-0.006236884531816455
-0.0034166063996400988
-0.004515717874894635
-0.003727216835068947
-0.0023109087047617316
-0.0016260315103965894
0.0015247476999496075
0.0021406125711604107
0.002708427049994612
0.006858186090267769
0.013191064305388274
0.018882522693050335
0.01697691464630506
0.008397898950867053
0.001729448168974777
-0.0022526879171558506
-0.0020919884895783877
-0.0033772261692703426
0.0014963836239481046
0.00011962450943604487
-0.0005229310742356502
0.0013287363437578558
-0.00037198106930037475
0.00029998048746797303
0.00031316036467540884
0.0025745199103707015
0.001801359074573012
0.0020433489764087732
0.0027254873749161324
0.002197158366042832
0.0015909862599516867
0.00391015981465154
0.003542596917524479
0.0027664991137692713
0.0035590790864664977
-0.0001016742714937614
0.001109882954508432
0.001665169174853879
0.001937212187219333
0.003039195624729337
0.0038526758011304457
0.0018224127231747053
0.003779241692377637
0.002437630084325254
0.0025174664496855686
0.002961914942649943
0.003333672554303736
0.004400800743774193
0.003682977295155028
0.002129524478388827
0.0030294381893365818
0.003843456047801764
0.0017257861532211584
0.002894014655485049
0.004235907910725309
0.004786430510551242
0.004695769152551066
0.005847598695869119
0.0024916883634742227
0.004540032007393389
0.0076758272117468836
0.005638709378625514
0.007887800554364381
0.003937924725060376
0.005630647133263698
0.002117462750926804
0.0021436274802168315
0.0032585600556957633
0.0056253124613465455
0.005833525362496355
0.005257881023494925
0.004184436608794071
0.005804100705893984
0.005827622219616005
0.008049218027062046
0.010295117558906443
0.008931703392443128
0.010784798051321416
0.006324124089244777
0.005733433169203447
0.0026842141246394436
0.004395673560378477
0.002985098764526889
0.005356541814932423
0.0037745845077011867
0.005762053132705508
0.005963239941540933
0.009537454464169976
0.015839927299771385
0.0097401453358581
0.01902441043359728
0.007692341398894972
0.009804606234848889
0.0032957988082188442
0.004179341751724046
0.002873109375960944
0.004263846439293913
0.004716309398019671
0.006432448803116855
0.0059372634787493266
0.008391392655281769
0.00866046501083598
0.016440454650451394
0.039097814031406684
0.02390359426464031
0.03185115885399884
0.0027346047992367045
0.005440000525980177
0.002496335988929347
0.004806720295400036
0.00319838976127639
0.005251916906577185
0.005816839071521894
0.007577083946685762
0.01037640827178252
0.017975262282316985
0.05071366383072366
0.06593782729998807
-1.3641628995717865
0.04946734214157784
0.01840891302857142
-0.0008224713744892612
0.0038948896536216
0.001416521163629931
0.002897869333276157
0.004819526177237407
0.008153048979411794
0.0057669338409217
0.014357015453346972
0.016512940815910492
0.0417152549816461
0.16374653461120625
0.43161944511878353
0.15681854873981846
-0.002919177844797545
0.007581448987783295
0.0007724192867388103
0.006023455712901759
0.004321763963773029
0.005954214911277768
0.006008363202557932
0.009473692340395913
0.010666487499858216
0.03212994701625293
0.027501401437547167
-0.0216897241653962
-0.34002087189297475
0.03590812408037093
0.0012497414798611174
-0.009770798427407388
0.001012230295933757
0.0011436837041332879
0.007036987353716877
0.005257952914370265
0.006772331219821135
0.006235183594349601
0.010011620811140712
0.011637617855463144
-0.006251023230240582
-0.0067552616108812365
-0.09116361413033995
-0.010855297722754061
-0.016944918763895714
-0.0008472017563764104
-0.002066891226289211
0.003700296996342982
0.002537655308931822
0.004718580519894844
0.003991031004220752
0.004402195458585494
0.003869771865204164
0.008033532642807274
0.0002678026540900625
-0.0132716180104401
-0.009868615654992285
-0.014959167203637979
-0.002754944684458886
-0.0035726024306668974
0.0008709873357118742
0.0018643320340671378
0.0029146216643236417
0.0029504257866894276
0.004623836216692651
0.0014198686466596164
0.0034777030483315024
0.0006615553553079665
-0.0020885341286652477
-0.00501471537723945
-0.011841145137775531
-0.005177065678900046
-0.0031597845627687094
-0.0005451182672498662
-0.000754095244285453
0.0020840884034403363
0.001796086825508545
0.0027645340314610494
0.003704500000214609
0.002631509627363478
0.002194418891467524
0.001072984892419064
0.0023364844159086268
-0.002612655152187368
-0.0027635107722029186
-0.0033125415555200393
-5.348074034818614e-5
-0.0003744575588829301
0.0015045434435581296
0.0011032560130710412
0.0013111999873621578
0.0018973476064529722
0.006100278366780828
0.0036102266027158826
0.003326020821086712
0.0005565123472876546
0.0033018481187032296
0.000963170189878581
-0.0006727798798792087
-0.0009650678320853897
-0.0018559010824145002
-0.0029523663769678472
-0.0018457937772120982
-0.0009212306569463876
0.003396055860136995
0.0037576907131726595
0.007272637566613414
0.008877747815216795
0.008633901345751744
0.004887029638839992
-0.0009725740376490087
-0.0018722574021327594
-0.0031908534634915667
-0.002726891943724278
-0.004728426439291545
-0.003750929720491794
-0.0062660278290336486
-0.004904142062750378
-0.005505555121550662
-0.0013638486363900988
-0.0011033504817256927
0.002929528991040516
0.001957160554850813
0.0017976878807361612
-0.001167934308256831
-0.003402904801381462
-0.003534979991548144
-0.003941536129726641
-0.006848848148800437
-0.009272073788267636
-0.008943318743824235
-0.009150291806906349
-0.010128376085125838
-0.009313423500910687
-0.007300646964720287
-0.0055078682484484285
-0.0019601847750553925
-0.0017247605788096188
-0.003640179945586946
-0.0031990170217412284
-0.004695024119529559
-0.005039395664257915
-0.008409376125928023
-0.010817347772258686
-0.014418293280981714
-0.015409559536901056
-0.018972705561847672
-0.016586858579751784
-0.01773117949460097
-0.010412647776763944
-0.007112391647458143
-0.0028413971274220485
-0.0038288230982779525
-0.0047583090829492105
-0.004686471706734974
-0.007454654401732472
-0.01020853996277306
-0.016069722284548192
-0.019999944215968825
-0.027763239937000944
-0.02751924459466748
-0.03628921818647608
-0.02689848640545401
-0.021233797675572378
-0.01152194961044954
-0.00788861963958989
-0.004646344392492576
-0.004059695936262021
-0.0061796872919687145
-0.007489383861725631
-0.012666122356012265
-0.01734118248743581
-0.028491157532639897
-0.036757727804662285
-0.05451299406832188
-0.056935422763334874
-0.05320032249711111
-0.025369080987657604
-0.01702634453640983
-0.007208605442282084
-0.002223108961148556
-0.004508070502297798
-0.005754279662793103
-0.010096780620425655
-0.013641936701860022
-0.023676275936143895
-0.03217009958484297
-0.060387791511447374
-0.08569043294464337
-0.1129825671121192
-0.08254966389068802
-0.04258477096238138
-0.010176807379032529
-0.006898020630410507
0.00351672847650456
0.00032797850319977957
-0.004334192711150852
-0.006862729799170732
-0.013478390831368493
-0.022408163481871492
-0.04204857113155421
-0.07098272581780912
-0.1347488466326365
-0.2771445367463555
-0.1403909247310665
-0.017096437759473754
0.0014225177319807016
0.008421619370735208
0.011146753058555094
0.003272353539515002
-0.0005529210334015996
-0.005771717825414529
-0.00925861450341167
-0.020261472200301583
-0.03379161541239107
-0.08357196777469818
-0.1923444289259336
-0.6081483668210587
0.6592732211931682
0.06882739838995015
0.05890857224630083
0.019963469755191445
0.019358114041837533
0.009110479517168068
0.0016090814163598958
-0.003200951827686618
-0.007281331312281671
-0.011705597687444084
-0.020056284624707578
-0.01757452046274829
0.007471237380166671
0.2884007259103532
0.24542444300593638
0.20104880999579908
0.09217257983444856
0.04680526827926033
0.019236509162869106
0.00823623949600653
0.0035043724593367158
-0.001768240013286133
-0.0034434999991983643
-0.006224845817797479
-0.0017932431137545725
-5.935165264545056e-5
0.03974374730686004
0.11554294886896199
0.17892026409575082
0.12235684386326247
0.07580549040672177
0.03440369885268007
0.013644329262062601
0.0086454670786329
0.0033641931876324167
0.0011445041062786631
0.00010280766996456522
-0.0007759058191555735
0.0014478758317589898
0.0111294558545025
0.023354644104185227
0.06444797654995794
0.0698313513676224
0.070570416007811
0.042977479424831364
0.028469516957738455
0.011502843091276024
0.006308406617866561
0.0029790721283376237
0.0005788585941762128
0.0013943643536756904
-0.002011721532710281
0.001782228288618971
0.005580377320562773
0.019443582357302522
0.029092127782725664
0.04159495908987895
0.03484139722254899
0.028420521269437612
0.01832593914992715
0.00673910867467959
0.0046180280625451806
0.0005668040899301833
0.0004689331108629105
6.105303342908083e-5
0.0008197277544330018
0.001250754638696439
0.005068315764514058
0.008829147452054322
0.016958968496945545
0.017750252885804414
0.02087698455050034
0.01611548916558129
0.012614150249255388
