-0.0020435454683888875
0.0012649027307821824
-1.5007351548234944
-0.10173716603868517
-0.02210282483352582
-0.008912730428697502
-0.000633877315142073
-0.002290354493928398
0.00034961619833208597
0.002996650687334305
0.007326759731584492
0.013869937684649395
0.024434361037076482
0.04716452569955049
0.08941960722788686
0.17404372356820466
3.7231000772712686
-6.253907670508544
-0.10611541381970598
-0.010781053955713037
-0.015418194949106833
-0.003841978988527518
-0.002182449911069142
-0.000436727249735082
-0.0005687475434695645
0.001333817702826725
0.00526610672772669
0.01255723940857188
0.022967469927926348
0.04365724742344598
0.07785365242874061
0.14158809106878367
0.10502123974312423
0.35253771320103905
0.014368297566380826
-0.004937679267887645
0.0010803135666336563
-0.0015797335524032317
-0.0010515538516783001
-0.0008629688700097287
-0.000729972203751795
0.0014650278953240391
0.004207453807606181
0.011193021161684604
0.02076634333898461
0.034079277315820174
0.059667854389585336
0.09202484840871392
0.1268730716189886
0.1289547645904515
0.025189492846671553
0.011707728280050917
0.005024635544161087
-4.2563674628171054e-5
-0.0017644431844374138
-0.00011695555473959216
2.8716268164232384e-5
-0.00014426167339450424
0.0029112536458566133
0.00997697748045751
0.01677376207520836
0.02451429193884572
0.03937028491069836
0.05608322719080886
0.06746631393662515
0.06474006461863878
0.022503651003637163
0.010890136583034336
0.007234850374877412
0.0029820512298584117
0.001033088747937743
0.000513206406946939
3.4881610012161817e-5
-0.0007185890878282915
0.0014147381234209835
0.004947150217920534
0.01070725354469518
0.017399130195233096
0.02380727278584124
0.0310952097596505
0.03792906034977277
0.03366207478918464
0.014634963059653545
0.009577405825525931
0.003489648974483007
0.003002592916552455
0.0011085140535808421
0.00023581680161400935
-0.0009647169369758617
-0.0014735072421314945
-0.00016704177404312884
0.0023656992722626336
0.006868848861629396
0.010062772001675768
0.01445598570315431
0.01892293941290049
0.02126282376316132
0.02062019245560646
0.011101949560512298
0.007484250482202794
0.003170807749465372
0.0014325523838543608
0.0006741409680959823
-0.003585797144773153
-0.003077362023988488
-0.003139152731251124
-0.0006919685777799496
0.0011669209414457635
0.004349254215274885
0.006298880956724011
0.008597627350270639
0.013172202615839006
0.01333237327293273
0.014485791672124371
0.0075419123577168895
0.005827846360669305
0.0019658422027391685
1.1819983939289925e-5
0.0004259662906477027
-0.0034652211824354887
-0.004370165132467036
-0.004102194491335385
-0.001108062511605351
0.000718043587120724
0.0005087865934519553
0.004095014408774311
0.003261192928980447
0.00928021340148339
0.00920038991387217
0.009007415391133948
0.0059061866127081255
0.00494969011785068
0.002397476385126124
0.00025129512867336993
-0.0006365568945005983
-0.0035552541626458463
-0.004037109224231936
-0.0032035281968312364
-0.00200068711194443
-0.000652252431280732
-4.01295632334941e-5
0.002308147563965134
0.003290074685630754
0.0059409641917502485
0.008207603329080625
0.007040291023433929
0.007923978922402061
0.0051384085417616205
0.004167443876118199
0.0006930162116941946
-0.0013409746608659182
-0.004792326410857529
-0.003504526160788103
-0.0021250100785860458
-0.001591890873940381
-0.0013622130233433526
-0.0006867089753818468
0.0032823845690142807
0.005400856419741401
0.006830025629308178
0.00832530650900377
0.008401152301177314
0.010134904251463397
0.005651831835165862
0.003884157135788373
0.0009747957024469447
-0.0021016362062327154
-0.0029482066630849867
-0.0016613572357891122
-0.002153847521668019
-0.0004207905518188162
0.000811987354615473
0.002283287858681492
0.0058524507651007245
0.00954216703574907
0.012488534220775819
0.013959296956189112
0.01197998812990209
0.015525089206660852
0.010602922688220823
0.00588479795976196
0.002730225177739993
0.0001691772154666126
-0.001262690306579666
-0.0015014901091395375
-0.001977123482515473
-0.00034844336683627266
0.0007078741075803339
0.004240569172556122
0.01018482155630044
0.017734330140876664
0.021355488530393433
0.022478156995945305
0.021369416649895896
0.023488368244231672
0.013288422790459432
0.007911464096964204
0.0010240934951102221
0.00031871158901866626
-0.0013352522424563207
-3.920205742405998e-5
-0.00033947802125503413
0.0007773847080894946
0.0032046873748532868
0.008716603243151641
0.01676789022031878
0.025392812358235334
0.034597310418830705
0.03981369656818173
0.035450531446542824
0.027684446133762745
0.011394452790498952
0.003680510975210711
0.002242989831894099
-0.0018667938999279276
-0.001309687426711879
0.001080502719735869
0.0016589609333914077
0.003751138780485051
0.00783960371438342
0.0179590729106555
0.028590357445083113
0.03960254584304478
0.05667279295947598
0.0685004949872383
0.0654041617992603
0.013918126769601058
-0.004050960306474937
-0.0009586980228715512
-0.0016783773666666094
-0.0008964681900517205
-0.0015638317952729954
0.00024062496113310934
0.002276397986470919
0.006056154997806728
0.011526214557904561
0.021963114738887297
0.035808376616454946
0.060827471898604366
0.09311510480124612
0.12645306805696827
0.12731144041465337
-0.10959998403546183
-0.01211372853955042
-0.019525877411214903
-0.004670453772475827
-0.0015582241604685308
-0.0009081061560356285
0.0005182749725455767
0.004188707921779928
0.007059230084928883
0.013683301011518509
0.025395910110323192
0.04533661540994626
0.0765879223955525
0.1391408432329357
0.10620893657618849
0.3533197039184666
-0.0073094553092697525
-0.008328061881943283
-0.00872480024616118
-0.00876957029849188
-0.008191736709746374
-0.009366034730225313
-0.009895701779374332
-0.01144272547938548
-0.010369494002189786
-0.010871932698281633
-0.010445329935858456
-0.010481645249175964
-0.011561828867280573
-0.009317060240803256
-0.009740425472787261
-0.00828288887446863
-0.00783802002881192
-0.009028891977932555
-0.00812919373687597
-0.00917706299499057
-0.008633261748421548
-0.009454233278235543
-0.010389545139750779
-0.011448274377627314
-0.011240817106210001
-0.011135180662536572
-0.012503472094715667
-0.01239224910201248
-0.01062693236423059
-0.009352694158349698
-0.008724618791467617
-0.007858266514028019
-0.009167838208701498
-0.008757435487087408
-0.008402812201910751
-0.00869002773549365
-0.010062019362510909
-0.00986690612674206
-0.011676494003876482
-0.012517071316307388
-0.015181939997600343
-0.014368070812176293
-0.016076455163226713
-0.014895239651412012
-0.013340652175979418
-0.011278749658172582
-0.009486753576295403
-0.00915116156064701
-0.009541428487864788
-0.008944407259835566
-0.008835199219234946
-0.00908939795176963
-0.011307161500261976
-0.010899778211076645
-0.013074442306717766
-0.01687193531000786
-0.018556490530067124
-0.020443843180865496
-0.02001588950821857
-0.0197130710457149
-0.015090891064694429
-0.013538834379679836
-0.010303487111911556
-0.010449461405987476
-0.009143019209618086
-0.010302239037121139
-0.0095629685942512
-0.010740388794602516
-0.01119600999956317
-0.0135804549264813
-0.018056727691668103
-0.021666691177056406
-0.02605088959590443
-0.02518816554161574
-0.030380395315282128
-0.025239346404551177
-0.02058549952664123
-0.01607558849542892
-0.01301007669494634
-0.010647958821290705
-0.01167202363748662
-0.009362443582756463
-0.009700615165382188
-0.011485993739350584
-0.013755508358229
-0.016454839225391423
-0.019104797776464066
-0.03209122401265779
-0.026871904125794738
-0.035983866077538104
-0.06163108855655956
-0.04203751271331073
-0.026244347149610634
-0.02248914407168034
-0.014700138328770398
-0.013390468137473853
-0.011625414029300623
-0.009972885766392948
-0.011587135710161137
-0.011478666938386816
-0.013644601259815151
-0.015758393658758037
-0.02290224995396205
-0.035170710536632704
-0.02309099010726168
0.06332320234406487
-0.39502750131639636
-0.05327555208763344
-0.049089490751081516
-0.02506626278652542
-0.01945101844262454
-0.014093593490175875
-0.010566749153040346
-0.010387891459667549
-0.010982718746665492
-0.011925480178347483
-0.01306854189252892
-0.017443006814711084
-0.021248791494522985
-0.050633307067535
-0.0584460179228571
2.908686251061606
1.7394193121726522
-0.11439462671601419
-0.049040025306371395
-0.03118593544757555
-0.019117169899150282
-0.015302958043160028
-0.010676724495115497
-0.010093100480148044
-0.011040571115098671
-0.011715904510870137
-0.013404157136098145
-0.01691086058446345
-0.024353370343065794
-0.03321695774206185
-0.020960473065187897
0.06491759173410133
-0.3879437815383134
-0.05240344969781714
-0.047819114594156095
-0.024300368304715794
-0.01729602840930006
-0.012526666695169178
-0.01065271934921802
-0.010640682286921008
-0.010184557771460283
-0.010719947990665788
-0.013660392337965704
-0.016840426690006703
-0.020387817206036118
-0.029893790955084917
-0.025900853623129685
-0.034690041914941766
-0.06123831629076517
-0.04014150557915025
-0.02441257607006357
-0.021070420448871457
-0.013218628097154647
-0.011191140895045287
-0.009257742004405045
-0.008838380991877308
-0.009130129063728589
-0.009926106763972237
-0.01373557863290523
-0.015141241221537165
-0.019720402530315036
-0.021355735502767294
-0.024200747436537936
-0.02420881498541329
-0.030006862112309445
-0.023547354525626153
-0.021059277451245396
-0.015438886785472096
-0.012490077668318616
-0.010846224856797473
-0.009318189502394584
-0.009281236550366613
-0.0079690373320609
-0.010165399250916607
-0.011859097977078481
-0.01465013017263781
-0.016159749066187532
-0.01748455146828056
-0.018045714607961505
-0.01985170019780682
-0.01787081668458526
-0.018574462136027748
-0.01581499481779491
-0.014483147147113492
-0.011654435794029187
-0.010537611896419474
-0.007976544929636445
-0.00808609509141017
-0.007804098487982523
-0.009573803416118251
-0.010389215567947715
-0.012450280236503835
-0.013090898567919845
-0.014019623665765552
-0.015415536162187526
-0.015610753965644509
-0.015440950121462266
-0.014320052069524837
-0.013282159058068255
-0.01106100377919927
-0.009900960570191178
-0.00893160227237813
-0.0069026382875640255
-0.007140223788297845
-0.006311492333955666
-0.00940386363109934
-0.010479296809060748
-0.011443807421021957
-0.012259612951079529
-0.011853774128122403
-0.013195237778909439
-0.013503802997870136
-0.012501436515149334
-0.011481083229366742
-0.012042193616066676
-0.010390506317678495
-0.00862216566434976
-0.008718433705644294
-0.0071873510139679395
-0.006637329831416559
-0.0071296132307677625
-0.009109520300319942
-0.008940025041774135
-0.008826202320720159
-0.010062276007392363
-0.008855479843693195
-0.010932111582351214
-0.011934311089712605
-0.0120911833027311
-0.010369523129817412
-0.011162737220447961
-0.009394426162492761
-0.008959846996557904
-0.008887460129123902
-0.007685858134121615
-0.007423516561172512
-0.007942974487748005
-0.007870222098029898
-0.007855690706318896
-0.009340332622157378
-0.00996196234062438
-0.010395332277168412
-0.00994793576569549
-0.011326310184924695
-0.011255855066924473
-0.010418312900328654
-0.010935584732992594
-0.009159585880573468
-0.008701969511155106
-0.00830641563065439
