0.00035337323845849463
0.002726838494455272
-0.0010054589536634458
0.09443171736627817
0.10427585736520381
0.09282787595906608
0.05009064878991268
0.03609353520870278
0.022652979502979863
0.01831678287221972
0.01472317786498397
0.012868752170973765
0.01310041611768158
0.012649626437910405
0.01186983432612134
0.013408216682224331
0.014099932175327992
0.018877043537307566
0.022664066061963153
0.03663651377830791
0.0507839763948866
0.05189348777808934
0.06857532422642823
0.051863225444539265
0.042139267751074995
0.029079045314741224
0.02379566422312304
0.01723237266511769
0.015452599512500925
0.012665886580848055
0.013207417870821114
0.01218960370950285
0.012862140470078678
0.013529291500399283
0.01553310179740603
0.017472992351537098
0.02393398306202936
0.02905214124948383
0.043191198052147856
0.03841051109648338
0.03886082699024665
0.03870090710644354
0.029701769984179036
0.026728491686900113
0.02001748837708591
0.01833881529892017
0.01499848087244339
0.013074776009219236
0.011652113298282536
0.012495112897961867
0.01406120280772338
0.014604698694303354
0.014732047093645409
0.01844626225596375
0.020130031996079926
0.02539861900563929
0.0295608896620304
0.026378938863178263
0.0294745058785451
0.027151823890376445
0.025093791880014683
0.020812636103665908
0.018545978516624515
0.015915242534480258
0.013945361792921853
0.01176035694746187
0.012294980937263503
0.012107194933614096
0.013111781212826787
0.012873715884341197
0.014932784418315756
0.015585277471448897
0.017588994649574374
0.019832323870961115
0.023688928276983354
0.02061722184686556
0.0197818670794359
0.021031509107136272
0.0181428360625377
0.018052164999444044
0.015869213519152936
0.01477569851000903
0.013224613903727025
0.012725040673852363
0.012142197434002305
0.01215283621587224
0.012591706539024076
0.011893956108510196
0.013383527810696811
0.0136595543098271
0.01408191144457756
0.018304224326281524
0.018393617701705785
0.015459818240061833
0.016580610950800198
0.015487926794790025
0.015664795267432967
0.014734235354025332
0.013173193168171391
0.01213378228446671
0.012188737078418591
0.01022395550989208
0.011067658204094019
0.011027244334305497
0.011314044511478032
0.010709714992057131
0.01137424822886765
0.01163956257802692
0.013613242429241038
0.014188890331529263
0.015095721236054141
0.011132417007281216
0.01139148212685442
0.012375213277881526
0.011996145808301786
0.011683109618702808
0.010787981288782734
0.010353897979894647
0.009723405928955256
0.00908570353673096
0.008698962326840939
0.010212979482090092
0.009765826803541999
0.009512066268931852
0.01011730587410099
0.010410452417561946
0.010442046433070144
0.011170215449241492
0.011397805364036576
0.007740466505507546
0.008469289793671802
0.007610454216129597
0.007639133218605672
0.00818092918812608
0.009070562102688515
0.008616027369055835
0.008366095909989286
0.007994786787411324
0.009016601734487947
0.009174743236341864
0.009790263784350826
0.009966069221266118
0.010236582774357954
0.009177289662443008
0.008620893220582808
0.007278175115894309
0.008088996847221317
0.004311061477431278
0.003869861951669886
0.0058827919182205006
0.005362584156717178
0.006585743535041663
0.006149492578255825
0.006877907189688446
0.008219222134481029
0.008007118372400122
0.00801869469083358
0.009492666767344879
0.009473584896934862
0.009499998955519569
0.007995447733840293
0.0075722658899741845
0.005883708362267444
0.005711568122342759
0.004265639463558697
-0.0012035825593607003
-0.0014386146822803988
-0.0004132361589452663
0.0014179997905945023
0.0024580782703398627
0.004863309676169843
0.005777312631248799
0.007504539018371702
0.00803532128537441
0.008246946904553644
0.007564220459820676
0.008915187696999633
0.007374069531235452
0.006498286439534369
0.005616358338388757
0.0042714385122208974
0.0013951887738574713
0.00011901275477635854
-0.006709415799958968
-0.009986075400693566
-0.006721264664795187
-0.005011951415227532
-0.0006319884236026585
0.0022450868670948936
0.0041281164008228404
0.006237647803753256
0.007937447805369403
0.006954149644802097
0.007531371868948815
0.007817022922149251
0.007044632005970352
0.005277517092202703
0.004672924018702719
0.002351819230146262
-0.0004447819050927346
-0.005282124021745157
-0.018658582628406493
-0.018254853222507923
-0.018647962963257148
-0.010145568040243101
-0.006624873856265172
-8.181402822929026e-5
0.001734745087159793
0.005039398772047852
0.007146597976454597
0.007235965306993943
0.006405182547264686
0.007320590089280903
0.007383779341144802
0.004800231622431724
0.001673209651521699
0.00012531139738248
-0.00562649687218222
-0.009612030805604107
-0.03099338500364324
-0.04731020325963294
-0.0316518954668125
-0.02271596525402239
-0.008630430169936868
-0.0038664268839572664
0.0025040450473630366
0.0042074804632787795
0.006818612995570322
0.0063942967655556335
0.007516566292260314
0.00636541625738719
0.006741032794143629
0.004063529103155215
0.00171749406660294
-0.00400503039791494
-0.008893696904302846
-0.022115404273664867
-0.07337078647032512
-0.0837682035027119
-0.07153610885774941
-0.030335390039482574
-0.015970277622047217
-0.0030819743767762173
0.00209428974823863
0.005535715110019241
0.006585128241729261
0.007950119931970933
0.007344551407335199
0.0070670866531071476
0.0064008151381034755
0.0056824247233956925
0.0003180150331802195
-0.002148610820117277
-0.016501251158533074
-0.02992471777111707
-0.09703848918326377
-0.27554777156004356
-0.09681411636772036
-0.05151585286602395
-0.012318903142079373
-0.0035277094459821917
0.0039963002509179274
0.004896386570077498
0.007769387946569807
0.007689855392930896
0.00893356323739036
0.007944288476754753
0.008795682350045984
0.005824509587634682
0.003955882513277598
-0.0040385954601354895
-0.011842090900845465
-0.05289949545272051
-0.19690327016960416
-1.1571071936747679
-0.1955709873919123
-0.016055465966024505
-0.008651461067601333
0.006568847382305198
0.005566146586721319
0.00830638351067763
0.00797319439689177
0.009995771978987517
0.009767384228275418
0.010097282575036812
0.009119555702455389
0.008623412991391393
0.006952713063656471
0.006421691321949297
-0.00837220440657373
-0.015237197872605282
0.22264630993256448
-2.1257378752901652
0.2198891290985916
0.033596710810751385
0.028838218633121013
0.013595908738354513
0.01346069170736185
0.011700051820381125
0.01166953809429438
0.010666559545205463
0.011440615054037416
0.011450498447305396
0.010713600023859633
0.01043039405777113
0.013146087418724656
0.013977432111368001
0.02883505111607167
0.033767214633236765
0.1160260383268753
0.3000225754720148
0.11591687250522936
0.07202053904904263
0.030338666920863448
0.023293451290180442
0.015518980144211252
0.014836148204981086
0.012844801987231957
0.011448172546148338
0.011144150296960323
0.011086611479750371
0.0119482938155405
0.014381150278233572
0.015477234433104997
0.024163716314926954
0.03123604583340444
0.07241914258436914
-0.03442294679198565
-0.021288822891391
-0.0013838854308580455
-0.004812333401552142
0.007249053974535742
0.007732602204393044
0.006981072591641519
0.01204310911903535
0.015765661673601942
0.004901311167812545
0.009229774155293158
-0.013758136378259945
-0.020145538272193605
-0.030910068949164846
-0.049463721820133096
-0.09507186979490787
-0.07212735250546713
-0.07416519946160655
-0.0797221466096013
-0.012845397831074393
-0.010069852908129888
-0.0024015241234630696
0.012080140588860786
0.01016044533176675
0.005155601992260788
0.006259128711511273
0.017170819546682852
0.011483636205639485
0.008152991635368888
-0.010184900245156048
-0.030500005366447955
-0.04960422841174867
-0.12205929742594207
-0.1580814027727663
-0.31068299784159886
0.018444749803764142
0.023133505402325887
-0.04878193565740669
-0.017576182268648124
-0.006291012512015429
0.012808852104673203
0.011738333529031891
0.005738733368414382
0.009436467999636159
0.01144687024489379
0.00480994452415649
-0.013141864880361107
-0.01917934983082621
-0.043562276638049596
-0.10218259638851622
-0.13072715381413633
-0.4232939557568808
-0.5146548654672717
-0.42407859984589147
-0.18604773901293994
-0.021593085021728277
-0.023127929931926264
-0.005860129242752736
0.010434204381876451
0.009888980452452689
0.0006015248912070478
0.014694971900295985
0.024711847812781698
0.008914340648038293
-0.0070924964293750175
-0.00884614903728412
-0.045083735901598934
-0.09201001987599415
-0.20472412313849453
-1.177865550171013
4.374507065453609
-0.37014389796057967
-0.055137881642854436
-0.030795723215433234
-0.0012131130852153786
-0.0002658590765384763
0.019902164180189447
0.013492381730190269
0.014081918001844032
0.01741126146030774
0.01947523505688058
0.004543646975922809
-0.005626065509322025
-0.014064376914072179
-0.024433190171904068
-0.08059150045145035
-0.20721525724375403
-0.13064138496217595
-0.7033269529242253
-0.14072134413808915
-0.04007410258038774
-0.01682711248170723
-0.010879116850572952
0.004008652124963902
-0.001354721036578722
0.010881218194383356
0.007835800678714967
0.023450861520676526
0.02022619921011694
0.01196460491891329
-0.005343323196711691
-0.0016581606494831553
-0.027476012801676407
-0.050420227880422865
-0.07568213724597861
-0.1993317730187884
-0.07328451646836481
-0.026241724537975943
-0.016670639120737688
-0.01836997643314213
0.007481928847940092
0.011956465568267589
0.008351921283337343
0.017640083012303437
0.014071139041579101
0.017523890980994695
0.023108183257572586
0.016201025313291508
0.009459552624810857
0.0070183448950790536
-0.010179131577381803
-0.024261445466612554
-0.02911131473450279
-0.052790982872532644
-0.039145331189197635
-0.034645731766386294
-0.005042885244755174
0.007793992691379333
0.007726851383431068
0.013909064374332883
0.015954409217006204
0.023833054145755737
0.021117854321500085
0.024671744053066505
0.01720158771053926
0.025415920564663547
0.02271321648327191
0.009704323608025015
0.0023233142262028975
0.0018894402363140118
-0.011018435981283393
-0.014952359543051892
-0.028021229019724484
-0.0041484782285634274
0.004528450372344553
0.008565518232478569
0.0060116805364989305
0.014365557955436106
0.021985869172436192
0.01907131170430563
0.014299193050611093
0.017133492202174194
0.025131562819657106
0.028648398903168004
0.025285133515713976
0.017426413789272573
0.006963579460099964
-0.0012852733257608783
0.005121266168476312
-0.004302912831139698
-0.003633966968831312
-0.002757912739505564
0.007860342410173013
0.01823355361508044
0.0056281743613266965
0.013245412678266335
0.017097747216295475
0.015919329304087657
0.031792757521920546
0.030008136134208913
0.015024308010083868
0.020295261863636154
0.017019452977977773
0.013330085807403158
0.010553056628892481
0.00990081408202974
-0.0023656477053722548
-0.0040928656174144
7.095668421954306e-5
0.006927566406211156
0.012662452407510688
0.003943334218416764
0.009612306732399233
0.015137259915618085
0.0132008561117346
0.020555316966567243
0.024059258337261375
0.021112087593319822
0.02021391694311461
0.014628086062511307
0.015233619170568221
0.020647102058806297
0.010379987438318515
0.007844875455040107
0.009096338726062986
0.023196888512876806
0.01058250572025738
0.02028148073736239
0.011260076809571803
0.01806103941062258
0.014836589160304439
0.016561126857965673
0.01849781468459275
0.024170654296954884
0.024527709390834998
0.030163667660146384
0.015087834285030851
0.01613689446141572
0.020729903838646074
0.021226539978958715
0.024631688558777082
0.030691206698883915
0.0141654819737837
0.023790945676699912
0.011132834424699574
0.007440371145877265
0.025869071223343188
0.021930982792648206
0.015721378185452172
0.017012917097469816
0.0182471427228263
0.018787943905208573
0.02567392732793922
0.02200204385629448
0.017634974761903704
0.021021603237483262
0.02028829011636876
0.01872404015535428
0.018102486202859217
0.0070580892339118986
0.0011164248607785528
0.008117995086095007
0.013602105208858184
0.016690702140265593
0.01064821573396955
-0.00169716988694668
0.006322531157871875
0.013489591788327305
0.016117635467744654
0.023620489102713443
0.026164318763343224
0.014668227763287094
0.01781610889114331
0.016802956563242537
0.018638466098469253
0.019107575580172124
0.017122628667247054
0.012743602266965982
0.014116615590925398
0.01585070179688094
0.010002495874177285
0.0017993677413342165
0.012988335430472791
0.014887581783276855
0.018605777731074562
0.010576776583587157
0.021883245401814314
0.023809855089224806
0.021753853031559817
0.01982511541462661
0.018725271974072016
0.01713180834382406
0.023298516884350008
0.01684813473759844
0.01918552509241083
0.018722469321600037
0.0073625298849943595
-0.005180968338679237
0.005602842449494119
-0.005804875691639084
0.010456380299119102
0.008292555705765415
0.01024169759365829
0.013582821271863416
0.016846410202063962
0.017447694199828848
0.024018718819296486
0.00976941677394737
0.0078066585002249085
0.020013310181579095
0.014828091157034604
0.014397466126565128
0.015166310049530122
-0.001659555863180156
-0.002688963856697567
-0.0007433985924267189
0.00019585457511078134
0.010962581572549007
-0.01011695829023195
0.0007239441651446751
0.00854288640996329
0.0035745661358989322
0.004233313239343594
0.004580047636880205
0.012960096757525214
0.018541701067954254
0.02256845394839893
0.014046608675275794
0.007190788337905783
0.004975483402692698
0.007831878702980353
-0.00934906882820984
-0.009227676988942973
-0.017286217701341592
-0.010292209980127271
-0.015168917221137519
-0.027055774926660413
-0.011632466845066417
-0.004376212937004664
0.006378799979372837
-0.0016947065189220698
0.00435448487096504
0.016151341820001157
0.00958399372781215
0.009549443444721428
0.0058176502014746
0.006272120325920309
0.0006778903754289275
-0.012141704422748117
-0.02112613467711524
-0.034247725254936946
-0.038428734561044675
-0.039379948739009255
-0.026316416116506532
0.05049699373233875
0.026745269223936663
0.021051917537152864
0.00774068978577099
0.0030147297758616643
-0.0043008545589299195
-0.00714296397958943
-0.010291410928086154
-0.014042899886878148
-0.01867092965924997
-0.021273007443171628
-0.027061879712675242
-0.033841153992442426
-0.047841280932499335
-0.05512178586456425
-0.0764930840595695
-0.03798258256417862
0.012103785417284268
0.00890204604064392
0.014180233707610082
0.006187045271683941
0.0041376309828412144
-0.0023754114793200966
-0.004878477833019955
-0.008673192204514617
-0.010350610324042301
-0.014266459484860335
-0.017043507988480564
-0.019562098153090277
-0.022847593725088905
-0.02943705261327895
-0.03302537857276858
-0.04033380833806207
-0.03400773029145126
-0.0310559696950856
0.005757189806482057
0.0008113671360260667
0.0012813539883764094
0.002106495794657734
-0.0025428990338211585
-0.0056376360284381
-0.007913394350215498
-0.008708356962339922
-0.01160970193963139
-0.014422952984956057
-0.015383670484400277
-0.018134499432491156
-0.020862773923773455
-0.02327194926203001
-0.027790455923319957
-0.025939475755950365
-0.026974774350390526
-0.015561524690777295
-0.009531420989639992
-0.006262836601292679
-0.0018083782581302566
-0.004402618618310491
-0.003925926543387665
-0.007849802803080305
-0.008084442888771798
-0.009957467272093899
-0.011071622567949526
-0.013613048562412279
-0.01468075243250332
-0.017029973857502628
-0.018779476242571473
-0.022085412766024753
-0.0202245818513787
-0.021409532519532534
-0.01824772690274631
-0.016166022769979076
-0.008383586815851406
-0.007677567024947406
-0.008153636028995931
-0.006562490101207173
-0.005615428241414202
-0.007092804120562346
-0.007927704436048401
-0.009957106762295661
-0.011302466524605391
-0.012876277054250743
-0.014548302175105823
-0.015998960150831663
-0.016295489259719756
-0.018096204057461353
-0.019359733520523364
-0.01741093310257052
-0.016468844895562704
-0.013727720454816426
-0.011569453081656734
-0.009227989440095907
-0.008581318862263237
-0.007990276074018633
-0.008000699397586533
-0.008633273499770189
-0.009248571378207192
-0.010978544324423672
-0.011925604306182025
-0.012532542694784085
-0.014085425821581992
-0.01514823681911091
-0.015380320248671293
-0.016517107188452146
-0.0149807838949623
-0.016232604241574647
-0.014765672983751171
-0.013626056616209086
-0.011480489984290626
-0.009153494124217175
-0.010500649069579652
-0.009612669155937672
-0.009149899024541294
-0.009500838923444341
-0.010402417841346913
-0.010992911286857178
-0.013555578067631678
-0.013179289094541118
-0.013811346264794399
-0.013669194830543687
-0.014700742031899956
-0.015379870479737554
-0.014158472685177684
-0.013778630693407058
-0.013928343553697816
-0.012078006052998377
-0.010827936896253082
-0.011049946389946011
-0.010421293399310735
-0.009959190727821992
-0.009908740063115764
-0.01000320199431722
-0.010035156439252277
-0.010966280318731961
-0.012718124864306747
-0.013867138037348938
-0.014096000325284847
-0.01411664317978772
-0.014400653324737611
-0.01562495689487796
-0.015060090168454623
-0.014085131657627878
-0.013288239248261783
-0.013314341352396314
-0.011899462260015302
-0.010227201103376944
-0.010666923850169934
-0.009487201554867845
-0.00998194284943189
-0.009643977730644425
-0.011123089927360363
-0.011121855676284584
-0.011620992879912822
-0.01352670567494457
-0.013923086271018452
-0.013728156038988271
-0.015495979266793277
-0.016226833300128595
-0.01654088355968224
-0.016046184307347833
-0.013674953320644187
-0.011871124019505002
-0.012593545509720383
-0.010693207412681186
-0.008956318674555234
-0.008350307381103567
-0.008063473795160928
-0.009530019250700768
-0.009176464804927674
-0.011693414082638465
-0.011301084913202137
-0.013371452024541545
-0.013760726518040294
-0.015092356034921539
-0.015868430875332837
-0.017494234354897623
-0.015959174415178027
-0.016932492752272252
-0.013543757894732758
-0.01190961284855044
-0.011116464698171933
-0.008591904235855336
-0.0073187261909749435
-0.0062957035496798925
-0.00644747480209813
-0.007689691040546741
-0.009168844273127334
-0.010427517831546624
-0.011775928657985865
-0.013724311723343536
-0.014332154649258135
-0.01629045892130483
-0.017251311855402265
-0.01675671935107279
-0.01725105863609508
-0.016232897071183
-0.015658416630420325
-0.012993543934950672
-0.011287178365806892
-0.006920567751070407
-0.0038755154465677276
-0.004464882324915661
-0.004815108836587141
-0.006363527937958041
-0.007551000582991187
-0.010847670475830882
-0.011434044474926056
-0.013927121612055598
-0.015768217215174157
-0.017088929154234073
-0.01831202487161494
-0.019959475511640134
-0.020140600825114666
-0.0216320827550017
-0.017172062136304324
-0.01589009548818284
-0.007920755660007063
0.0009289713796938068
-0.0012695268475308558
0.0017653199763435136
-0.003026840822999784
-0.0036776141063012777
-0.006548694834548889
-0.008854783134230467
-0.011151526917968387
-0.013435021965123306
-0.015780637350198693
-0.017934249155090575
-0.02105502978342336
-0.022245487261968965
-0.025629886338595833
-0.02504971561464986
-0.025269161711620355
-0.015007636796898113
-0.009770475847732885
0.008586324664677642
0.013726091705866429
0.0072459947668199855
0.002767173860094907
-0.001892964614453244
-0.004664448379589598
-0.008367161805019495
-0.011352297568409709
-0.014166938605381013
-0.016500158056413555
-0.02046719161554483
-0.02302637232351347
-0.02793565778845045
-0.030547257855799273
-0.038602508152757196
-0.03315064835654657
-0.030864485314679082
0.0058291341403094955
0.04968030780175213
0.02695965759629869
0.020484691178117288
0.007526722407519034
0.0026493271681740037
-0.003569391263911849
-0.007119297037299693
-0.012457961523272634
-0.013173185116266695
-0.018209755043181484
-0.020685591424017543
-0.02712127716670846
-0.03232722512666717
-0.045216948620028174
-0.05144777930521091
-0.07397871210444246
-0.03551012765779253
0.013424812664759693
0.09508661324371753
0.0701304072712093
0.02951203011253052
0.016865297791046643
0.004213524144134327
-0.0013766286821429226
-0.006804043638111004
-0.010931452970081882
-0.015066230844286689
-0.018698488710136452
-0.02392092354827352
-0.030357642904233262
-0.04158481905761977
-0.053824379048363916
-0.09602753603557834
-0.11657786577396054
-0.21667862680252736
0.19594437492874422
0.2754599035615954
0.08157930004191176
0.04596272402110764
0.015792516520022885
0.006472309087047391
-0.0009256962140458624
-0.005707979662863949
-0.011174020692157236
-0.015274922646921792
-0.020726633127695942
-0.0253139555664698
-0.032602033005956925
-0.04164325706823169
-0.0707143162797607
-0.10706279762419532
-0.30256432417666923
2.474152702249806
1.4826529789323417
0.09481453927376524
0.07117591437354191
0.029566656350706724
0.017418903358176453
0.004853498678923517
-0.0017747745781790001
-0.0066223942198886
-0.010439606481252028
-0.014301105649193643
-0.01881804345093391
-0.02451003527252256
-0.02929958326957431
-0.042619140755442896
-0.055164371140194506
-0.09749867702863638
-0.12044576214732669
-0.22875084730453657
0.19807156656510658
