-0.0002606722115576542
0.0004835421699115553
-0.0004035602798040154
-0.0008258609270875212
2.7345783478006013e-5
-0.0007074688672052936
0.0004024977653778515
-0.00020610247872721748
-0.0003431044839121188
-0.000589983277133796
-0.00035348298156757073
0.00044868248824310474
0.0011350184721903495
-0.0032596166095090486
-0.00014100094020790623
-0.0018820122022980585
-0.08612334257059692
-0.14719633733139403
-0.43673304644490046
0.044563884923135094
-0.0032318196339052706
-0.011748087543425923
-0.042650780361905165
-0.08656302032041176
-0.021384663082736472
-2.7726905441072865e-5
0.006882226512153795
-0.029891214253903023
-0.06377403579383654
-0.07134031597098307
-0.026644558240895885
0.009309712159605278
-0.00618689125577519
-0.018229969355005364
-0.07022211182486561
-0.15284742071738297
0.08188236012979368
0.01388573555364462
0.026975839004743388
-0.038567065884611874
-0.11453295308514422
-0.252157143327875
0.7447824638970096
0.13643703577650246
0.03166985781499236
-0.017145000162523027
-0.09432632720592934
-0.24618063147653912
0.8601442494675627
0.06346045578174102
0.03392189349415184
-0.033011251743339645
0.030579402371409773
0.05676008850550851
0.12232813598619652
-0.855143116438124
-0.0019465621925224366
-0.021608163374292916
0.016226368793282594
0.06345991041319379
0.061093567375140635
0.07687066475998315
0.0009159859671356327
0.014672662537567096
0.016211975488238183
0.015563954065073285
0.042672722354073045
0.022290080120313846
0.016755425149903642
-0.0029570137430989895
-0.014357912253187466
0.0029124434581818508
-0.016537290886933488
-0.028362107350818573
-0.01611341991179383
-0.0013085654653721204
-0.0038445895468868043
-0.022769987949013536
-0.01837484489413381
-0.2798580477974505
-0.004517844624551183
-0.03274799786638212
-0.0064527915580026305
0.009028250679337694
-0.48101789049899973
1.4511785347842656
-0.1524102230445864
-0.02569180331178537
-0.23596171247980957
-0.5218845830104563
0.6366765138395317
-0.12052262295142863
-0.0667898235763191
-0.08348918553821466
-0.14783933754733128
-0.21201464322718144
-0.1369102774097288
-0.07905165276917522
-0.0831139751308266
-0.09415187656432167
-0.06461424809578346
-0.0830499369329196
-0.059742862213210554
-0.05115487048997555
-0.03716604761226937
-0.04864994269723215
0.014659513929840322
0.03638769998351653
0.025035756672656756
0.02673101421062734
0.00827421405568798
0.014768348796034631
0.0896222824056368
0.1385676699260727
0.1669845422446548
0.07178866184794798
0.06048902518290019
0.043457011979438055
0.0753491848729026
0.3229108735013456
0.2523775227196635
0.17500096984750224
0.036771146865453526
0.03495564534981353
0.018623215073774145
-0.0003567499050212153
0.019009157729991066
0.02186735308382341
0.057614936016008346
0.035280764516258015
-0.01442404640222076
0.012940504334905983
0.0006375465768197175
-0.0014035469552408737
-0.033080655937231196
-0.03277156447399372
-0.002552105208837532
0.024706510718224488
-0.002364596942671227
-0.042971548430168656
-0.09950316748623135
-0.15114525375171506
1.399914509319787
-0.030598904241854876
-0.025886596221830368
-0.044220019866917454
-0.0901192353514265
-0.24523895679834495
-0.32045308089709257
-0.07818340223170367
-0.02189393290334184
-0.005004757177958452
0.04544579183376498
-0.506618715017601
-0.10133233578940348
-0.022977685485266696
0.003928338182566888
0.0533743963042875
0.09042068303086362
0.11283715077668674
-0.008427732473320442
0.030206563513788653
-0.5369480116233853
0.39014692026424297
0.18909205982205338
-0.0853240268964578
-0.03498143157573289
0.022295937623795864
0.03400866389644578
-0.030601977987385356
-0.08441671393471267
-0.05880582025325701
-0.007000150272971394
0.0021067944289484488
0.013096691523981794
-0.028114639162216907
-0.032203022970058816
-0.037743313136028855
0.0045525268868165155
0.01056594023806493
-0.002259900998927222
0.005721298652235292
-0.010018070598123733
0.005999998785124939
0.021009780159951592
-0.0035192226928136066
-0.0041541986619635825
-0.012023770365407298
0.048786251224176624
0.01947735042312763
0.019082489151109924
0.016518590590603257
0.0006522938316720834
-0.04106664920061508
0.09570886975899814
0.08157963207946364
0.03310337697021075
-0.011616428366703105
-0.04100788274848466
-0.12498934332161106
-0.3325018753893739
0.5155002123541206
-0.1289084525279815
-0.03648814205005893
-0.025599233864682575
0.039868061617184085
0.7545794023280599
-0.475209119692154
-0.05124205534919972
-0.02607318945469134
0.010728983853089435
0.044345817375675924
0.08841781636928928
-0.12159106200464524
-0.01764058008360184
-0.004410186240374009
-0.0012235497018616517
0.01642664302535761
0.0180717510175911
-0.003768684298754453
0.00861053851825891
-0.003082005183308095
-0.00929248978404217
-0.03313000861838554
-0.017525114280279416
-0.0012858090347885182
0.04527915521901227
0.0023824533358893204
-0.03848855810836713
-0.0802794511047874
-0.10116479738399127
0.09000380655890135
0.04512742263164339
0.03351881014865991
0.051043714234845425
0.0124956644823335
0.04871351761826127
0.02328956471325065
0.027819217429793097
0.0535101470788286
0.05496764682637268
0.04065848501412668
0.017797677968942598
0.03176217382300421
0.0453786815203204
0.05537371117793593
0.12014157031590364
-0.1217210620664011
0.017395225113015125
-0.002761178999884791
0.03474547117895558
0.08569033954627224
0.1459921419790085
-0.6995609852028716
-0.0957092959024697
0.018635465044821567
0.05947413330411396
0.09229738949136133
0.23328835432390774
-0.6485626058034838
0.21032271471104153
0.05569400758460467
0.038355992632137716
0.05957640736576248
0.02067650545546184
-0.216886125143197
0.05236000108492783
0.05919909931863863
-0.004034765172324774
0.019863888085297255
-0.1632735247965228
-0.32685638492830543
-0.14306154774748056
-0.04583756681870923
0.05838357462086681
0.1069861882821264
0.42173606563644517
-0.7083643017781764
-0.3818326332354776
-0.06249059115810511
0.05516729611299572
0.15165803432877883
0.2523311898831741
0.3037146992027376
-0.01760253866404311
0.01956895496606163
0.06709336884699767
0.08573080303291589
0.1475879592414257
0.10233767220970047
0.05708491911435169
0.025434896028748148
0.019458536417080216
0.04463811122577592
0.0274414930761027
0.04576652291876123
0.005802832797444124
0.0240251236062814
0.009787870767500728
-0.01221369450946138
-0.021892607605519494
-0.10536073558858394
-0.03339472952477339
-0.015184378852743144
-0.1637894152745485
-0.18674326103980463
-0.00284743786773173
0.02775308268541025
0.07439840880346757
0.18109778566336743
0.08316734570920953
0.009961663443220168
0.00647940038235899
0.020677734678372167
0.047910400228487464
0.0911711570147732
0.017773686851377077
0.00045066279455113843
0.011211471303351204
0.0015967441989028818
0.011143895308768133
0.011343911536497425
-0.07630337422920448
-0.018870828755656245
-0.010410981907429773
-0.0031107628643425368
-0.043098740884045694
-0.06142041309565767
-0.1321422928189544
-0.08706163101068104
-0.00045708498427293536
-0.022203179236392513
-0.044032029270585346
-0.11237957775585528
0.20259686842184335
-0.10638018079039628
-0.003689565778535955
0.04790310860022923
0.010004402190600534
0.27259902776468165
0.009828680762499702
0.0016641041948429872
0.0019287934774330309
0.024633336980651004
0.03167927563930655
0.054501372701056906
-0.01444088763435123
-0.02700874776761543
-0.01426317061564523
-0.013526503304665606
-0.0034112493635123503
0.005877734469441807
-0.08288121280592284
-0.07324744427081191
-0.04555204695194083
-0.0408819111865075
-0.05188865031997888
0.28226919076556656
-0.4047326461444356
-0.11072019318443034
-0.02985441710902245
-0.04646118036043215
-0.778583463593787
0.10476758892403534
-0.0753477942778427
-0.036603415096143156
0.0015258368590018506
0.052342312851224704
0.0976745196567327
0.9052998214100767
0.02484308758004311
-0.001910220477954253
0.021045191418178063
0.04715633131578758
0.0741425633485805
0.11233541215156273
0.253699486920844
0.2811842355721534
0.1404899346668404
0.05929946574229822
0.03953729149041412
0.04602896396573953
0.12243031553332248
0.13247473599802145
0.07790507777859743
0.064966457272576
0.033322584137153485
0.07391621394493278
0.0395515710175127
0.025931458591603722
0.047512637374734636
0.01885952452866036
0.020193413741729435
0.0008351235153608661
-0.12516773412046794
-0.03890305395709507
-0.023139088953676265
0.002309371460436663
-0.040185998832392975
-0.05905295449662577
-0.3195152646679636
-0.22638159318497003
-0.008285064385146776
-0.02157599947343098
-0.04725293839197728
-0.15918145249930254
-0.638900549045043
0.41618171139837873
0.11906209296682767
0.0526736905696971
-0.08377312620719433
-0.24115053996470873
0.004815177074433387
0.03029024738971959
0.013572644288655568
0.01612444263832088
-0.008116595277284607
0.005128115071038066
0.005143550144371101
0.014115805073680496
0.024264461006026656
0.0060906873339241305
-0.0021753803022088077
-0.034635358227082254
-0.0022938092830354214
0.06992968350144368
0.02836222124151533
0.019258797507789333
-0.06734816409561022
-0.11232165405796864
0.4103233764559276
0.11314494101299981
0.061297737777572595
0.008704290872285138
-0.49266242943088057
0.47008451754182856
0.03340519795375771
0.09075914028603843
0.0388337443388541
0.025536722023205363
-0.041859846969771984
-0.7745420020349729
0.04832480484878175
0.030666087334478894
0.032678752880653784
0.002813879410712
0.0028014528131696794
-0.04241523812037226
-0.01335445538102171
-0.0327641376449495
-0.06879731720669593
-0.01278250422741296
1.0278685242004815
0.07341693105345982
-0.035108030723357844
-0.061175227411517784
-0.06422403074236338
-0.09276368278969993
-0.11038487833109498
-0.06472246523106384
-0.05107222096548518
-0.04149323559723296
-0.0700432277109735
-0.06609283297155952
-0.1010446834920434
-0.04933847781301875
-0.020136570596868273
-0.04113225806710621
-0.03583684550919786
-0.05682661960718406
-0.08215917708679808
-0.04338951876097024
0.005551517864951403
-0.004576200674645118
-0.026479879306959518
-0.0033114687877701943
-0.5281935957695807
0.035277075284965285
0.05683238565718488
-0.0240598152877294
0.01873378170310652
0.6441584987300619
-0.3424734718595212
0.29209811500139493
-0.05790099564248565
-0.10518307990252491
-0.12210878084019537
-0.065744896716984
-0.046683256030865136
0.016983094533660054
0.13631334842621792
0.09157750289794968
-0.003916099074621194
-0.00020450764711544102
0.06576884308540105
0.09741442501790194
0.10699350046936033
0.09772137979919035
-0.1664170735949531
0.002342924636147218
0.06093749458571721
0.1447589529125578
0.012142148218682522
-0.31307283877025094
-0.25216113220010705
-0.1636255276153391
-0.01134066315792097
0.013078633837043947
-0.23492369554855377
-0.1736414550663018
2.3044864818189175
-0.13624319223187895
-0.11323849876247687
-0.1127752223190148
-0.2042659562224616
-0.20110119925251568
-0.2407728296749166
-0.1674217861421993
-0.148344776450529
-0.09063126737372759
-0.06168317736908917
-0.13712660205698535
-0.12435392664676514
0.07628286934482711
0.07990949109578145
-0.0016177417158109693
-0.10888499650001576
-0.24857944332806028
-0.5678831088875362
0.19873196715395722
0.11801241145433113
0.02877739562312389
-0.08267050542629145
-0.3208807131593497
0.9197060940402388
0.34121886480985153
0.1479076730551577
0.009309666635559556
-0.08684320816589457
-0.14238519824738816
-0.08467793075079709
0.11626325391563931
0.06880152333022589
0.022041145465797336
-0.04071994160628338
-0.10033464345379983
-0.024228447073977755
0.026405977175285904
0.05189330475568573
-0.0061944171215810966
-0.05302745295416975
-0.06893897965714703
-0.05070157750993746
0.03634662234332108
0.033446953742116044
0.010476797744420849
0.034957600784521786
0.028839114745185235
0.022335776866218716
0.03249650057334684
0.03820359534226653
0.05204126409427163
0.05270171287156527
0.02971798791297897
0.03685517908089607
0.04171183705917815
0.07366617005846209
0.10630112380500165
0.0046650803959794275
0.014921149963968377
0.01918901733564905
0.06320644492306682
0.11142201353162572
0.28390150986421797
-0.18890644968448836
-0.03273626176821342
-0.0008096265428155075
-0.027200793270032844
-0.6995392922128271
-0.2941176719490213
-0.09495841990049075
-0.01840457118190293
-0.01074122914001846
-0.03476818557840032
-0.14526111543333198
0.44652719799305596
0.008474789886741859
0.008326660143394627
0.01468433135294393
0.0010495052756127462
0.013996745558317113
0.012351307230704213
