-0.0017391616496386176
-0.010585150139460632
0.002662784142330687
0.0011324177229872722
-0.04908549502575639
-0.0401895120518521
-0.04866258020603381
-0.04950525442809666
-0.058872943031270546
-0.06726681996736308
-0.08267728624597528
-0.0668101379605558
-0.057920239436197285
-0.04871111466352922
-0.04751215351870789
-0.046650833248854585
-0.047185606498658
-0.05607684417603398
-0.06916659257338606
-0.11109855516410347
-0.12639601907558332
-0.11628664784293748
-0.07333934124231722
-0.05977638999368214
-0.050985371905924615
-0.042992917133121866
-0.04679935687715252
-0.05451522902546914
-0.09059140107997576
-0.120103094914126
-0.3342025799412537
-0.1509954093758357
-0.10206942443096403
-0.058084976709799535
-0.03961156884324959
-0.040759482424053826
-0.037688255339793496
-0.04477939298456136
-0.043525775529672
-0.2329466062870681
2.15518703809617
-0.21807674867167423
-0.0657650773307055
-0.0555912894947048
-0.03137255387416051
-0.029166771728890782
-0.031631641643772065
-0.011413358075615441
0.007125654175735829
0.19976956851979194
1.1640692788187743
0.16848418445355212
-0.015619085887871531
-0.020382878435627676
-0.021939087805271745
-0.03009951953988897
-0.020255781810586907
-0.013999414280188699
0.03185582315923018
0.07514297490769255
0.24369235876364773
0.06172515878502693
0.028675073646516763
-0.019308983208939045
-0.024247309526461203
-0.021985174624999364
-0.024930590033751504
-0.012822237470064224
0.0010342468732836784
0.042350098313864236
0.05311693580157963
0.04190798675434258
-0.000147583527797182
-0.012735068565266813
-0.026373455351513975
-0.026035451265383928
-0.024391737582794403
-0.02143635401538854
-0.010582165385530244
-0.0023526726864558293
0.012898572808117627
-0.006208250397174522
-0.010489406466146406
-0.021789680779500994
-0.0342264548876636
-0.03091959361019362
-0.03084064511401861
-0.02829087720877821
-0.03229617555656188
-0.024722615723921103
-0.027686562993885576
-0.024501312901965482
-0.030149173379295534
-0.029204031309312657
-0.03552476251335494
-0.03808351523332173
-0.03802564524880048
-0.03921062455060402
-0.0390292543504725
-0.043635820897556236
-0.0446564592514315
-0.04872177192326805
-0.04228386362358148
-0.042535258289974474
-0.03183827282780752
-0.05472418445804441
-0.030068660072975435
-0.016162517732406102
-0.007270205565870874
-0.003327226990964759
0.009596741236796932
0.03940181993961494
0.032948101683429966
-0.042820222298818336
-0.024005243280777525
-0.019899567855387938
-0.022147489081384256
-0.012395969427248875
-0.0034267675783110573
-0.009837075370293626
-0.0030461080639173476
0.011084009929692292
-0.016376181643228866
-0.014998009869230392
-0.005849075646804194
-0.02521157190176773
-0.028521637265024043
-0.03361185035285686
-0.016543481572712255
-0.011245094014557377
0.0062073498741064504
-0.0007552571304129422
0.0024332825165191523
-0.014356877554084851
0.027318840088983484
0.007323894719682853
-0.018651413122502684
-0.009401407827421052
-0.03668141549069427
-0.025201775762299282
-0.01784179770334406
0.006191714419565187
0.00014148193865918548
0.034038910341630965
0.09342325574751881
0.017332704358374952
0.020938420067989044
-0.017193665151736173
-0.009598088413982232
-0.028049200132164054
0.00402044556637042
0.0205287481354524
0.0670366361134968
0.08922874174201632
0.16445243066361784
0.09238101743050346
0.007814594821571551
0.02208290499645321
0.01463302456838031
0.00930259781079864
0.016885577401837718
0.1141253427966103
0.19095319480886316
0.3448867388189914
0.3692391310846913
0.10046115705299069
0.04633788913828798
-0.0030272277642063683
0.020607747066802524
0.02054553635167053
0.0823118780616139
0.20099666924573206
0.6963524408226272
1.6752004127095972
-0.2703641659036662
0.02054514904885839
-0.03578840468285044
-0.007030080175592202
-0.004501262842526301
0.04130799297952372
0.103017930854297
0.3773894282456525
1.7795195240309627
-5.937018065490305
-0.17713571434894548
-0.13517377442941675
-0.03173598418019418
-0.029614087392909473
-0.01546874112006654
0.012706765272838864
0.08814717801253434
0.15729509647896653
0.42000766455551053
-0.30355669805975305
-0.14141217592656288
-0.05513513630528293
-0.04955640339870125
-0.02670245709513469
-0.041468303117702415
-0.004235235849218656
0.043388394604625694
0.10571531307335225
0.0772174752870601
0.00605793572607924
0.011323834166113475
0.007797651141417597
0.017150108162251078
0.01715236531695078
0.0168587010565141
0.009860957367905394
0.011701692051803462
0.007336898425082333
0.00694013535471835
0.004930875126948986
-0.004704368374965034
0.0035470990746913553
0.009740723995318562
0.012898227180282319
0.010640030882021433
0.009391255769483782
0.007330714737824455
0.00863734946237574
-0.0014796564707143908
0.0013788268415376131
-0.016873286263136066
-0.01925898181784066
0.0051868079702132456
0.005157834919641084
0.008615035206212814
0.007325637678380715
0.007691384326946514
-0.004376928218165494
-0.004369562839290351
-0.025907428304898342
-0.11695831669604807
-0.0389367337654385
-0.014637721956744754
0.011502115967764098
0.004390257745900507
0.004310580132621936
0.00044186462219041
-0.0017287388552133388
-0.03922033444811066
-0.04717302770350372
-0.3059872133778515
-0.08337709387833812
-0.0015180407988027874
0.007601563686103482
0.011238444885503511
0.0031077006467231964
-0.0003023890607104364
-0.027427650491962337
-0.04688925111892239
-0.1407936763886431
-0.4083233766856793
0.23951455608201738
0.05284871419155512
0.04115570990517492
0.014662467613010767
0.011547459211043377
-0.008084205954717615
-0.0246783184518855
-0.11800965113337632
-0.2976450846171479
0.25361627901923806
0.1939911096469061
0.1022357155420234
0.04153223143169911
0.026339298967562635
0.01147520089283289
0.00686790330045915
-0.015672454257217843
-0.04336560315496807
-0.1066902656063455
0.06939880030117944
0.11146391056120643
0.06573844022729308
0.045237548871968264
0.025352460722508952
0.0136116097387663
0.005730386877796265
0.006303578284611303
-0.013704491505068151
0.006154114482781179
0.04446440953424567
0.043636958925803604
0.04276038748765478
0.02312803279859813
0.022513753006310516
0.01177531197895777
0.010332820890444943
0.005338199008357041
0.006541426900226178
0.007916903904760067
0.021169013916455773
0.025302173246374727
0.02033365893990167
0.021550720428154684
0.016170883203193407
0.013559183676846429
0.010100285928253511
0.013933592217804
0.007942184184492874
0.01505978007669409
-0.030242554981324693
-0.009609496751149598
0.0017584314182841313
0.031112097373411494
-0.0071763678501727945
-0.054799630925168256
-0.09703964976833554
-0.06873444080483998
-0.06038363075224566
-0.038509374785877744
-0.026080010748055972
-0.021457466457034096
-0.009100564400163833
-0.012357294343218103
-0.01377948286167999
-0.05208139053807421
-0.055675650562428056
-0.05872426539641855
-0.047603880868944
-0.036486727860630494
-0.030303872125254372
-0.022103195773654317
-0.02221179357741086
-0.017586671405701228
-0.03252203238266764
-0.04018275653975778
-0.049363159258197245
-0.043787867551360035
-0.04354248438876076
-0.03529424011581236
-0.02774924755708951
-0.025368589959990834
-0.01975619939797928
-0.02673270368923025
-0.030948480994795104
-0.044165339467857924
-0.04187565969140737
-0.04333711162597504
-0.039952519803499065
-0.03846098497088052
-0.03277017508617096
-0.023577785533493684
-0.02116810795071086
-0.020400386821855535
-0.032598837400465513
-0.040944129717195674
-0.04767603228944539
-0.04492038276631888
-0.04509269202503383
-0.03463121976456718
-0.026849618552379512
-0.020662522442383216
-0.009966660785551475
-0.01603703615059172
-0.02486143597084925
-0.05763316286520431
-0.05829821673224096
-0.058547060151933006
-0.045863037659043565
-0.03892369120765764
-0.02731767343088788
-0.009314941698668986
0.002459525517879008
0.02158621235118384
-0.029311948465392906
-0.07772807157734128
-0.10700965790408677
-0.074763082601196
-0.05960866242997161
-0.040750011155319114
-0.021097957181758973
0.0005314401595047586
0.04065757245546161
0.051313967087823
0.1633345455181364
-0.2781418008439496
-0.15179293631815588
-0.1177296624812405
-0.06607626244979845
-0.050628747520297154
-0.02411754155641782
0.014275948320400553
0.05405928649883806
0.253896771471679
1.223215433032504
2.2357379219532483
-0.31628129084094747
-0.12459996861800829
-0.08403323338056909
-0.04505320909571971
-0.022202715132261547
-0.0035864984935015144
0.047799221661375
0.07924685588937105
0.15123060152045453
-0.2390283560468009
-0.12854780082454265
-0.11414233592048294
-0.0642467306101079
-0.04529576144185932
