-0.0026933962988981994
-0.0022639073013132984
-0.010246732443952907
-0.008406147584886082
-0.013439316624922336
-0.01033854267720255
-0.00855255382075708
-0.0010742991301373145
0.017810660609135838
0.03979130436876274
0.07845888675392496
0.15423911571977958
0.09841320857671843
0.01715778279293551
0.00924245253029046
-0.007763381095956921
-0.014681373488118866
-0.017453400694611595
-0.009284527346368837
-3.5804361924705874e-5
0.0014566856919528198
0.017580752654589752
0.04013181283797001
0.05395620580582214
0.049404103559206304
0.015001177758666263
0.002187226835336915
-0.01226444651059992
-0.01497714591242582
-0.016564763143231673
-0.01690160381277553
-0.009127823517455584
-0.0017042052957169126
0.007847172943277143
0.010835029785125436
0.017482950432589895
0.015429767592033187
0.009410301535238143
-0.006628743704727251
-0.016046100562861952
-0.008194453752251715
-0.023256481983231606
-0.019565051493929942
-0.008727738824525422
-0.010615862728284492
-0.010596042128239311
-0.002485425474192323
9.780905143408824e-5
0.00578795170487522
-0.0009319249732761721
-0.01331014714644696
-0.014577772047659367
-0.01032275359495978
-0.01892301260021561
-0.020346678656870953
-0.014221474674589708
-0.016868390749862208
-0.00965822525240574
-0.006063913297626531
-0.005330703919504224
-0.006223294185490794
-0.006742777915639408
-0.010030201835990082
-0.012835298487974588
-0.017215364957972587
-0.025243631219585887
-0.018771095893894894
-0.01234025042111125
-0.017253116420696962
-0.0014336323252329497
-0.00410005369061233
-0.0035630922151231427
-0.007410292234521358
-0.010914384088089764
-0.014927725266840532
-0.022603624021960516
-0.021344093394888325
-0.019893361550664842
-0.0188705324500577
-0.010690117447302501
-0.0009705605702388491
0.008408768736077921
0.011240926405980239
0.019140657606851165
0.005750146429379664
-0.004133603184412621
-0.016329563844004392
-0.018716778252511987
-0.01887040991278867
-0.02729274255941076
-0.015060133343840772
0.0005111372793074232
0.010711228145293662
0.026190138962905188
0.04821191106977707
0.059826992470167754
0.04174718089302998
-0.00709634605949147
-0.027057402689020495
-0.02182876970288225
-0.02487864217827384
-0.016780873365533855
-0.011587991234073008
0.001848847331757025
0.023830295311567683
0.06038352361413156
0.10904236898201394
0.20355081122833454
0.10347828210690829
-0.023799677769327683
-0.07604237205740101
-0.03783915086259618
-0.02850654785876438
-0.013640441893897955
-0.00715336383039847
0.004288564708345369
0.03533716786643357
0.10305809068398075
0.2954255778217007
2.591773707215955
0.4888234437419143
-0.1258260804025948
-0.06953248236515723
-0.032125038476212155
-0.019835502121332844
-0.011103366997220681
-0.005467110725501508
0.008282085888511277
0.035206161384007346
0.09092858381525507
0.1443178022131826
0.09274554524101186
-4.371176750726041
-0.2917546357366081
-0.04812062832310296
-0.020702525636210077
-0.009524552399261239
-0.010779549200117816
-0.002979074964669182
0.004642298898197162
0.03446116246246913
0.07320765273372952
0.1755486780401752
0.2929329502148431
0.20851142577805964
-0.05278090727709964
-0.04229402334036353
-0.0421271467662622
-0.04019100580159473
-0.040309373989128
-0.039708047271785694
-0.03882026051547725
-0.040385610081984345
-0.03950062805470641
-0.036885193831300664
-0.03697073490605702
-0.03923797525095318
-0.03885520046684405
-0.035538572738958496
-0.03601863164538716
-0.03412936544671455
-0.038761476106738565
-0.03459760053403258
-0.033972480151301776
-0.033181514701551555
-0.037015556539304474
-0.0367173814311158
-0.03470207151483273
-0.03710747180405228
-0.03352565787688589
-0.028602262769937287
-0.02635260944557473
-0.03076024602310924
-0.030680001641165112
-0.033443177727419386
-0.03495932186868216
-0.03678216457645586
-0.036844913559082794
-0.034996483316094285
-0.030757992893453094
-0.028921123877020772
-0.02911396384191545
-0.012080689237842671
-0.01678123312917418
-0.020319368747647743
-0.02493876911449739
-0.030431773284206307
-0.0332831908918615
-0.035044071631449125
-0.03583083451196813
-0.0306536999088445
-0.027273887414924314
-0.0241965644881361
-0.018230881377303134
0.0036233354016457064
0.009122568404498342
-0.010934256054506033
-0.02041915743309766
-0.027433824219447758
-0.032774636857056
-0.0367397279180766
-0.033943196526712065
-0.029784582396244614
-0.024888384363474982
-0.019184217230314552
-0.0013013473544715394
0.0736471654043616
0.052195481346000355
0.013862641073470554
-0.01652875465431085
-0.02714314247457179
-0.03490324910208191
-0.03598394957618077
-0.034033938410455725
-0.0319717368979814
-0.025147626330588372
-0.010148370288329087
0.006396240516359965
2.3398987441006494
0.24738704210759693
0.02252447781139036
-0.022443696536936827
-0.03411575028776377
-0.0382678216298072
-0.03727143574959256
-0.03473150020362355
-0.03521451235557293
-0.02660899004059444
-0.00818000278437702
0.0927289920537475
-0.9834522917551318
3.7381002741796836
-0.022377344163816332
-0.04819775855005313
-0.040146992998636534
-0.038724769088752706
-0.038144301120847074
-0.039023974674189124
-0.039755283917540095
-0.04572462532408513
-0.06651258946713581
-0.1908579851775087
-0.17744689873933306
-0.11244741538049911
-0.0815904674757732
-0.05676385471773757
-0.041593116737044286
-0.039343277166980044
-0.04200006239340925
-0.040371596838921296
-0.043207480390326417
-0.049680849602665104
-0.06531656651376198
-0.09590431451842121
-0.09151339647770002
-0.09447497404199984
-0.06488034988880609
-0.052459458210964476
-0.04265559804961814
-0.042120870992056046
-0.03922301962005028
-0.042482169139456225
-0.04531882185467359
-0.049319738092295506
-0.0595518154572124
-0.07555985643964562
-0.06625372251422804
-0.06353944003026768
-0.056166139188885154
-0.04433192718420932
-0.04143271477756928
-0.04244214556197861
-0.03928293959361528
-0.039742537951361005
-0.04264428611163371
-0.04684474388673923
-0.05109382666538783
-0.05642525876206383
-0.05019376046311249
-0.05104291295836977
-0.04562338185442352
-0.0423729478486049
-0.042183197942572956
-0.03949267812990539
-0.040618109505918085
-0.04204425691474738
-0.038602259656351785
-0.039358088422868046
-0.04290841904709136
-0.04927336648130562
