-0.0011785032645383168
-0.016079954558662124
0.0011796643588364464
-0.0004952520183748582
0.008551707969716932
0.007045146785542867
0.013940159970023612
0.017832603244935658
0.023486138168338683
0.022542220213987475
0.026606397781449076
0.024427970330729028
0.020120660625036015
0.01616264239705837
0.012563470713536546
0.008171877728463325
0.004567439486358888
0.006620878317896722
0.007543900729916825
0.02092110863356826
0.019262083290905972
0.021975827409202266
0.023093885696145743
0.026589911771468886
0.01753772756399406
0.018753749721372538
0.013663660240710076
0.012693224239260451
0.0012403068588263324
-0.0039002502467916913
0.009007194187139002
0.014013530547283024
0.02814113080107117
0.024514009359063928
0.025837171161252684
0.023153267454575396
0.02347890443744939
0.013661749986438241
0.008782978914883258
0.002455213315466869
-0.011424662860487851
-0.012670323266489703
-0.01645683940875965
0.02488533508572152
0.025011459097271642
0.037634078793828275
0.0314182367844817
0.02650301143430333
0.020237421775696075
0.017257905199029658
0.004098483722197747
-0.0001690201562574564
-0.02261851404469636
-0.05768362432262012
-0.017560643702027364
0.006916638724930915
0.062463153540799676
0.043883356525950525
0.046730719724585736
0.031075167006017947
0.02204177435273697
0.009860052635022222
0.0034770031329450263
-0.01495612110258241
-0.07041355811118419
-0.07781850531640634
-0.22908328044986406
0.48948441096353895
0.09010588720976073
0.09304239403591469
0.05355774784712334
0.04156453811922597
0.019947305627414195
0.01506691477529292
-0.003747395339467246
-0.020751067992830913
-0.06629153370090354
-0.27396562835359073
-0.782392841651491
-1.9923314489626498
0.35100204065532803
0.11261371429572982
0.08152330315941089
0.04611806566335497
0.027395561232036625
0.011116858668601135
-0.0021302787256048893
-0.035189555552320145
-0.07400623158399185
-0.10389606972770915
-0.24952832123399185
0.3193758903527714
0.16346004882914103
0.12635115439305997
0.06325917364886331
0.05091655524642387
0.024389386776046733
0.00938111288856996
-0.005650884975800135
-0.02275031004375814
-0.021667783170651416
-0.05425677429593305
-0.0009320417628851958
0.04430892050936201
0.10940564553534726
0.07223510035338941
0.06322522650697977
0.037987832184046666
0.02779796866257184
0.011938882766112111
0.0032042078335698613
-0.015956621425631604
-0.013543497963223412
-0.005123999086086113
-0.0056157173696743425
0.048080186346928476
0.04890805838808979
0.05596292137312981
0.04365047645413957
0.03512333833269709
0.02427516611947076
0.0169529852114552
0.0025164180775895583
-0.0015616663350764164
0.006364831612420736
0.0008558067174643717
0.015424245376865892
0.025165600119649696
0.037949692676735106
0.03361319541506255
0.03417718776922439
0.025068354570135495
0.024632963896716147
0.01100917114866341
0.0061192319813364255
0.0008416195338766143
0.006596630450397552
0.01186094060998076
0.012652205157586536
0.02453188831921392
0.02725017585368563
0.02744534948604089
0.025729358056621868
0.024488130467637138
0.018307014073727312
0.018702802456169627
0.00914045378108439
0.00941912187841464
1.02014600734102
0.22523797402976847
-0.009762043552989094
0.05431067024346342
-0.009778368543946203
0.007392405162900651
-0.029904715280776255
-0.05444818930426026
-0.06900675368847181
0.08973603355124683
0.3765156523882326
0.45218350881756225
-5.258279000591456
-0.1493024772718819
0.12777526017469373
-0.026905180468486143
0.02780261650778156
3.228164531882604e-5
-0.015515041147858502
-0.039168279688941994
-0.02406250273144024
0.05409677013433802
0.18153994116991226
0.9171858766152848
0.22562792564036843
0.18907768153047058
-0.2819874035979464
-0.015295720476567926
0.04195241675075462
0.022562878637622873
-0.016417671806844027
-0.02172570152372004
0.002733331374196856
0.0404828486370213
0.12875381538591962
0.3138403425712346
0.354325436318382
-0.13005981214956885
-0.006712056192048363
0.0009959773681977157
0.08669151359569541
0.01494342610547839
0.0068985590383038795
0.004581086613935877
0.03667375520199337
-0.005752737021781366
0.08534866669787018
0.05848676646073042
-0.03471125262910918
0.01267628906655716
-0.03881707837283243
-0.017025275348851458
-0.008856958640864294
0.026206696491717852
-0.015687545641474916
0.030311009653197912
0.014167411141959506
0.010701248573770718
0.01695439230978263
0.01133035067537341
0.040225538390024115
-0.017408593843484213
0.01110598155123424
-0.04528343251223233
-0.0063116046591694015
-0.019145248748443484
-0.010438149261235215
-0.04570763970785576
-0.012131325243594752
-0.017919349993977353
0.02680686254517238
-0.0036853282937501643
-0.030381580713611356
-0.03271604127795924
0.005139006577710267
-0.01544127108997254
-0.02817794676797094
-0.02435609770648363
-0.0406948350791307
-0.019533676540178346
0.004251043291978084
0.0008712659674400837
0.0329534665643764
-0.019941254516705368
0.014984953499853262
-0.035290158598259146
0.003775806346567453
0.003408467809964474
-0.015711122594339353
-0.05839769499407453
-0.01883997224906736
0.013007556678142886
-0.011264205168069686
-0.019763863123142808
0.004367388068107429
0.04185802237973822
0.05471561983228865
0.0594277956792134
-0.028263645997407497
0.0023458219157667837
-0.032503504222758675
-0.017430540752141784
-0.011911521638829848
-0.015006529811849856
-0.011041135915631281
0.004107393897623941
-0.0056462610107510134
0.06101559609758897
0.05257659530598848
0.04940524592682973
0.017401112204985646
0.02188016987244698
0.008517507994613436
0.005781811287516513
-0.02406062250501081
-0.026537644062208834
-0.016508541380085628
0.030432326030893016
0.025318994073182777
0.06032889305033921
0.16911643783062913
0.1510592973543483
0.04075112737858916
0.034955222715510395
-0.021710028109549095
-0.05133779571359087
-0.03573598106417216
-0.06181211574448707
-0.024678596597255537
0.030927358112572485
0.07932249360042587
0.14805863920761336
0.19553714251395157
0.09433855956745248
0.07276619803108925
0.03907529284981073
-0.024299434549022114
-0.032820686422958364
-0.0421156631981938
-0.06245988729034419
-0.09327825139707802
0.0037234098917606085
0.14508039391344799
0.3343798902352573
0.034336512216535026
0.04840837267273729
0.046991741436111144
0.04595347603994771
0.03994857379138715
0.035577129923598474
0.02786518848839108
0.027590740243581366
0.024099160770089355
0.028703094686682647
0.02751277644835008
0.03382669832449458
0.049120738387702666
0.062150168492876696
0.0782486268064227
0.06350852659609983
0.05432282043118158
0.03914383856937003
0.034163243307457763
0.028980259539419215
0.028812508123856717
0.027058797082040894
0.03157389298173025
0.03664633589582112
0.0615222815536971
0.10033633949296818
0.11479279972187095
0.10503008678217064
0.06543721077593277
0.049616509785961715
0.032711134452872014
0.029665525630217404
0.029577643462689495
0.030569343633416617
0.03094574790475441
0.043433868448600324
0.07906653294863486
0.11764375007125173
0.3026369454380591
0.12651163839983637
0.09110132041929278
0.04806047909979669
0.035265636751679014
0.026702762476443008
0.02815373949607235
0.0276061182263153
0.03224642314832105
0.039396058027771505
0.03619658655530775
0.23047849793375735
-2.0752975754740284
0.22454114312825774
0.05448013743915867
0.0406562844531601
0.029209005505091194
0.023635417249720667
0.021016164396766478
0.022923812657206624
0.02382336980027653
0.03279153227691718
-0.0240301459068932
-0.2078892432730909
-1.0922468361866968
-0.17504153434308142
0.0006503212135682015
0.007081491121586254
0.02183750434994471
0.020127280683915262
0.02235428575270057
0.01586899629993008
0.017523464328676634
0.001538227014353198
-0.047518026397167096
-0.09802279412378077
-0.2398257928261218
-0.06426613638148031
-0.027088614206051336
0.005728362474828546
0.010363164846710756
0.0192770491480875
0.015378428888961463
0.012876664904747549
0.006882709809818834
-0.006412239257184527
-0.021194747910365516
-0.058037285675516664
-0.06377988531670528
-0.04871469083930126
-0.010439979463596774
0.0014666500564948525
0.013117910439778847
0.014505430159709948
0.016114510529346586
0.012682966349588449
0.0068978060547191175
-0.005507051692017247
-0.010441164731587994
-0.016870313160208938
-0.030129562188144252
-0.013306847514670301
-0.006014754918426256
0.008587095668427915
0.013332379956882474
0.01370980167032315
0.014625428098316469
0.015666124198676867
0.007704596498167918
0.004085996575983525
0.006623760937157981
-0.004787772461260128
0.0005585602045975509
0.004511914244051801
0.00936348113815772
0.015366293126148602
0.017852430538420755
0.019385355890197246
0.020400009376181538
0.01762850246863989
0.012453071667321958
0.010228083325858091
0.015681700536428873
0.018682836122720942
0.014963520771378424
0.02003364262159149
0.01837246362125934
0.02165091421747034
0.02128187899344946
0.02133702330095064
0.021266224700343513
0.019110686159897444
0.017805788693056872
0.019490701302231555
0.028347848208218614
0.03086414519599989
0.03190843412307345
0.026692990268031673
0.027997441297750333
0.02718936106397404
0.02614011253833058
0.023408339948298242
0.02562072046787144
0.020409408160153984
0.02248051960027724
0.026045119229865677
0.03317819274623628
0.012253135066325017
0.016050965535730734
0.002469330281758278
0.002256965836278383
4.69260278130562e-5
0.0018274174795974941
0.004992007512527015
0.013612955287396583
0.013447158099249071
0.020920379667243118
0.021477684367020054
0.03468686990808781
0.061334572072998465
0.004707746297231675
0.007195022488907677
-0.006760461339362995
-0.0015697138493575527
0.0020941566139581745
0.010933490289242105
0.01133321675262662
0.021721705424217048
0.022994941302716905
0.056819811431464924
0.14637210911093876
-0.5614798428871566
0.006066942710940644
-0.02298680053481439
-0.0073309362224046135
-0.010161302686337284
0.003574650394194233
0.0037558793730179062
0.01736277335295958
0.024899476612146334
0.058352580381893206
0.056242210342699966
0.3317191671062109
-0.5095536967507617
-0.2044150150578101
-0.046405289294896304
-0.037865276510758494
-0.014045185522635888
-0.005277437858103338
0.00604382056960168
0.013633212622307895
0.03351753589696768
0.04485524337153944
0.16692212616684846
0.19251886159056378
-0.22667655957562544
-0.1260989576285489
-0.08663452842236481
-0.03211789034733354
-0.022352531795152827
-0.0036391984781367894
0.009307901812947026
0.017896205899672994
0.0293593557700015
0.061367610402820315
0.07849191780937634
0.012160264964535037
-0.022248889843568907
-0.07833505026881522
-0.042584405796535
-0.03457110455942129
-0.01298155431633705
-0.005660704954681418
0.006725010200524556
0.009126556430124664
0.023245414429698855
0.02404737775314016
0.048334556285689785
0.018811959345357662
-0.023900463975806908
-0.028193173976209213
-0.030986431667161578
-0.017627173778296448
-0.010959123166809205
-0.002830479312798104
0.0017538546708036618
0.010862227433801087
0.01435796791284501
0.020954637210824485
0.013725338913954327
0.004408283821258525
-0.004706194243864051
-0.018592841717522922
-0.010444360559556776
-0.011466954654116665
-0.003452123137044453
-0.002724666206791656
0.007059873990653619
0.009900775379798174
0.016144123395798737
0.0070535199025218535
0.013271305201003577
0.006627601038696102
-0.00218094047038334
-0.005907780939170139
-0.006930791999338337
-0.007210573477962832
-0.004313347635039181
0.0009156863784568821
-0.0016341475044960789
0.009687808377440207
0.009071248202380169
0.009319571257376043
0.007092340956312829
0.007498144477180209
0.004690642126116549
0.0024597987956995436
0.000866084630958626
-0.0061256291238544446
-0.003766318692243629
1.2595350331251866e-5
0.0013817878859911318
0.006840989805230199
0.01119191726080252
0.006479513914013916
0.011585919257772392
0.015324121656748492
0.004834060048350256
0.00585635876977965
0.004151978649320476
0.0009562908197106592
-0.0014542927310132554
0.004841263154786735
0.0017797246733225467
0.005273090667817648
0.0065911176856755125
0.012695899240658374
0.013266200667548023
0.011219601384703962
0.015484475676367121
0.0013089286828673855
0.005723485221908854
0.0010750614734770917
0.000649150751218312
-0.0008927727533296725
0.006265626927594332
0.011300619723129322
0.01440534281031089
0.01476889012217584
0.02010270385401584
