7.992866402788449e-5
0.0008432376913762071
-0.00013786854586464925
1.0882766490121132
-2.433832850736646
-0.4870174807082709
-0.13877641064567317
-0.06859275409596376
-0.5164166578870582
-0.30535554289503386
-0.20596362565058984
-0.2268275147361552
-0.22605074115577342
-0.31163061756826077
-0.24749676315080546
0.07029749646835859
4.55181151149442
-0.2870000756690124
-0.2706246219102475
0.43887957078377793
-2.4377791224261607
0.4599884164058618
0.3790274597544148
0.32812724774613183
0.47665610457136365
0.3204124142337452
0.35255635240424027
0.3058450260714906
-0.009311994476250618
0.29883172887814713
0.2701589178664577
-0.024836275763548934
-1.4528915655274506
-0.019765051018876278
0.2751007708126223
0.024675068653249175
0.028174809690542577
0.02798835545462711
0.03763182390962853
0.025059396680346922
0.011338662778761693
-1.8785356362915033
0.025178605997999877
0.040545320200103166
2.12141664607764
-0.6786822173545459
0.11394314318856136
0.03513759349944139
0.026596390830208386
-0.002727158078045323
0.03625919504642209
