-0.0002719633578652616
-0.002047455627750629
-0.0009421919753496467
0.002193415784717194
0.003916801521760059
-0.022061519290672207
-0.056159102037677294
0.008151261655482446
0.009772685509004151
0.6852816769630337
-0.7189560347422863
0.0042616186448102035
0.031816142207760516
-1.0856255577005616
0.3420208979966874
0.3223703033646092
0.03576012624941739
-0.006987170790345325
0.35459457232393893
0.08014329823265504
-0.09515944978801599
-0.2004031052381953
-0.3334861951604033
-0.08559555746757261
0.016845180439458752
-0.3450026896851307
1.3418701955151435
0.7677824981309176
-0.09160026898957586
-0.2549192653405928
-0.26625091468198636
-0.04471351567050043
-0.06825606002986596
-0.16891891101939838
-0.1455584331946272
-0.05083350773237234
0.13590160841379154
-0.13909463017525717
0.06459948631530792
0.12826949303874302
0.24445647282779923
0.18807946006468737
0.13456410844479133
0.13226938178485226
-0.9727299274993194
0.9262833107729599
0.11646090532570183
0.2184533502491305
-0.9719783586460009
-0.20674084020562192
-0.1374583347191453
0.1049645140928105
-0.09366425160884315
-0.2742522249735364
0.13988958694399842
-0.11473525033860203
-0.11518218074996822
-0.0848526970964219
0.5075566820572264
-0.028168800805932932
-0.1847849636559592
-0.35014995128744425
2.3768529935581633
-0.2494080616715565
-0.23210600659272138
-0.2278916580584208
-0.8919350347066342
-0.1761681803522452
