-0.0007828296954748941
0.001918606013830795
-0.17054513622807113
-0.20195079764409213
-0.17167793681129886
-0.12170904002189124
-0.10554140141004367
-0.11368447364558629
-0.08087154841122897
-0.10564638915596868
-0.10929715427646337
-0.0941973060780602
-0.08374386967131832
-0.08443941829704933
-0.03316930388135052
0.0018669700098366254
-0.10442099518080095
-0.0903738249518426
-0.07894201743918805
-0.05363487441132289
0.017719203147280226
2.178214869322752
-0.16289714423283075
-0.12730772805987134
-0.0914588251121631
-0.06470621787446267
-0.6257059479435542
3.253689763145997
-0.5308176826570394
-0.1909205010530644
-0.14414643339055375
-0.16074565705885904
-0.28096468557114984
-0.5438658849151208
-0.25896352212157414
-0.1739471875281955
-0.13167588517544662
-0.17192201482078803
0.15291508701531586
0.07363665543117981
0.01763368393442885
0.00034536578012552867
-0.030771999568111424
0.04884243815671844
0.35459168191240203
0.08769977092423563
0.0168051929796931
-0.025921869258711695
-0.5764157220780101
-3.2714376485001595
0.17499699168816696
0.06496621617746381
0.014057461719368988
-0.026385521959908852
-0.021493617094930455
2.5458554873056722
0.06515573832442038
0.03418961663304385
0.0028250948517921236
-0.0026083715560567475
-0.012586834349515387
0.08728775739339309
0.04465661381877652
0.01911620290411406
0.0014576698304973718
-0.001502278571776912
0.004630543532628136
0.03724684550681603
0.07209542197841579
0.03603580811108519
0.011822662632518613
0.0007216085182248698
0.011156864592942508
0.06187938223531728
