0.0020173083297821276
-0.018778169727310508
-0.0005311538018196209
0.0072264217069737055
0.060562020444219065
0.09736450606245542
0.05634609666498737
0.014892215707557423
-0.19205770753951645
0.06801090074481168
0.10921628206469021
0.10724385930963756
0.1136512502163417
0.06547692956410034
0.0708249964787157
0.18398085502978526
0.1416632510584822
0.1506628585768739
0.1424383870430656
0.1884703897493742
0.18016270896419181
0.24528543747816936
0.195675592877593
0.15752126174561296
0.1963410320790778
0.23590783359609482
0.45638369861715017
0.3466530037616637
0.15350298900241877
0.16223954560687948
0.15419380511930314
0.341122832025269
-2.6340531787022816
-0.08547325344161781
0.09738638653137469
0.08373439374440497
0.09471140160452302
-0.0852169767716088
-1.664352027589785
0.25787638069136404
0.4712561177578534
0.5384365806937612
-0.09746429796813641
0.09701946473377847
0.048722056953489315
0.09031369998856008
0.27926470981123797
-0.2110628853792505
0.09998628287894998
-0.0009600656834960137
0.054987886297788925
0.036221164457931436
0.02339406453276492
0.0503570281191377
-0.04075766285672126
-0.016706501865762648
-0.004188593020583892
0.26919860889837927
0.024832066748166102
-0.03859527068486751
-0.004166097036068415
-0.042009577654070165
-0.051606197640015755
-0.11063711594071093
1.214344259275936
0.16009205018543662
0.0008075098162526723
-0.006699012226719196
0.15044177820138616
1.1400874020234855
-5.0424327992704026
0.39371970073416873
0.18678033770102984
0.017854186195478433
0.11409273972776761
-0.05538119800340543
-0.18021757791275006
-0.23363963713622782
-0.3313844784258598
0.09332608756752055
-0.003417946019834186
-0.09872148938233513
-0.1305151888794319
-0.1869320705873897
-0.14474711780825802
-0.0882525059808332
-0.04842366462740709
-0.09844510076393645
-0.1390076004010455
-0.14791105974172852
-0.15250758591343633
-0.07927981953655244
-0.08781239473950332
-0.09986483868602015
-0.13195113212754572
-0.1897929302008299
-0.14100952753360396
-0.09020443387498922
-0.05028182277794887
-0.057475232284929054
-0.17828695572696654
-0.2337184380535998
-0.3339117013013299
0.09591819353644221
-0.007706431757521103
-0.06697955063994757
-0.17211790221221884
-0.43590945236398654
2.4757281984652146
1.516727996417385
0.2032063086775381
