0.00036276928891229186
8.76615518928082e-5
0.009265986058866802
-0.0002754480831566883
-0.36292410445174744
-0.15207296898276937
-0.14803695360886804
-0.10855171931007503
-0.31297837915637355
2.699464509367083
-0.2664995766760416
-0.20728935402284776
-0.14890203640599065
-0.17235345836375374
-0.17848221590037197
-0.4415595319476247
-0.20097569165169712
-0.1520338386458685
-0.14811950288939255
-0.13083576108989445
-0.16786493597968438
-0.1790706253888985
-0.08496723286146396
-0.12090039587257537
-0.10538426013996594
-0.10216239304625045
-0.06855184006223591
-0.09318853464096331
-0.05800302084016375
-0.06966043996192187
-0.10170025440877586
-0.04876604596076542
-0.01627211024211518
0.1547895717399167
0.09324433856535178
-0.10657265513353673
-0.0880506228208492
-0.06575929337486888
0.1501300889339568
1.468561246219991
0.03940885673360486
0.07029106127739788
0.1327477389811504
0.16901134356387615
0.11595976030007417
0.08930406277516428
-0.012497465749702978
-0.08538588595201668
0.32423917585569684
0.1899576950053426
0.15530652988287805
0.04616280092778837
-0.19774560990350465
-1.4030856426705234
-2.415209472647133
0.3970161535415411
0.1540029076900943
0.06073480008923085
0.036652597047439145
-0.08406816435508004
0.36285090426645566
0.22707600550349058
0.1727708421298306
0.06464113301692137
0.04895628008434257
0.10582575574226481
0.17557699362233778
0.18841894418021024
0.13288615307856136
0.09619254105260452
0.08283404315925881
0.08363516613564342
0.15917120777168042
0.14419260112989854
0.12582017766903106
0.09144801113095265
-0.03162360522057708
0.07787418690869308
0.03555886401732327
0.01057823424337689
-0.05394898666288698
0.0027549774750137397
0.161230945175726
0.08985866232478083
0.08720304184893905
-0.04612269338827808
-0.011192405173051213
0.057746420335424695
0.20960551305967073
0.14596100717806068
-0.02278926463811952
-0.14490820846394897
-0.42014616479986866
0.2845590753919313
0.2166324169526747
-0.05368489579158996
-0.05283575691868709
-0.4415763802230397
-1.9679049749048039
6.509484547643656
-0.4173502618006965
-0.09530491492799616
-0.1262307504649282
-0.20318723811527659
-0.8235450634742006
-2.077317493970366
-0.15626251386187898
-0.06561720652097774
-0.003430735467909546
-0.11797269582831658
-0.17219591780032853
-0.42859976367774527
-0.16956198537913228
-0.06471293821006191
-0.013513734348167604
0.03817556558139443
-0.2727273015040312
-0.2701578078053156
-0.10285481004924496
-0.04664565902705212
0.1244540385804785
0.28054952375169523
0.47278494655303466
-0.3294869727130136
-0.003992166422615017
0.03008667440860843
0.07363149890726908
0.19550024148671516
0.3123927430973761
0.11880833340830635
0.0005270707993435158
-0.012404501941910716
0.061611522443336994
0.08250010363702287
0.1347734043203779
0.0316806040419814
-0.06649706647591434
-0.02250215872651804
-0.012194975363932162
0.02547422457157429
-0.0441970605710942
-0.039918835764042156
-0.10743744027902863
-0.07814174331254091
-0.016169766281892838
-0.03584195391835014
-0.09818596406101497
-0.1700056538660625
