-3.676285629805067e-5
0.000428434410167003
-0.002125986956983461
0.007721421730748001
-0.0029046249001445437
0.001967268083526068
-0.00038920764739091575
0.0031040735214484423
-0.002005551943935321
-0.09169915328684798
-0.021400783318379222
-0.019563807377479613
0.038985533300561405
0.014666513556989804
0.04255295125779259
0.05518398231643886
-0.005143610774951123
0.03298681464517518
0.03350864434875839
0.07981050528515167
0.15755908596849927
0.07613343316225143
0.03914837470310181
0.019439962611009033
0.08085501015836663
0.09824268963792203
0.2124860327731925
0.3023413266861298
-0.050616321533150425
0.025375274865474348
0.05915473239800163
0.15242789821383246
0.31216791994067244
-0.7298109041467268
-0.47087715901878824
-0.05937624218057245
0.05974483976554695
0.10263789651017102
-0.05231904228662858
-0.43603990856693114
-0.10135149491996943
-0.021512614555012865
0.0024602838795890593
0.04164688715405691
0.021612479238082318
0.03850170924955233
0.012865126827520652
-0.0032682623786890836
-0.025144156694469323
0.003012759040753939
-0.0410343690403296
-0.024373226354841307
-0.029114918308954622
-0.037748814379984744
-0.06437979754743788
-0.08325242511322616
-0.14094609750682272
-0.07455691995334694
-0.05789658677693065
-0.06495847113095062
-0.11059622707174703
-0.16909884316337206
0.8183333361705188
-0.580743141814948
-0.061423391394304604
-0.05007366435123527
-0.1239973076870032
-0.26280214629736326
0.39208105663044157
0.21522054947713357
0.07725353624905502
0.0028731908541407385
0.0006957402032349768
0.032283870352214014
0.12313797955491437
0.12615555767717107
0.05238463130901258
0.008277773341097944
0.015608629424135323
0.0647108403707155
-0.029902739400133573
0.6387912186596203
0.07416781611016704
0.006274706504311837
0.02413960722277594
-0.025850938932409803
0.006477135976141751
0.1160088071549321
0.03760074752711902
0.03761803685864896
0.016085555857811504
0.027429445353982528
0.05738297868323285
0.0567965325418235
0.05922510050339467
0.03335425811754931
0.03850203277021057
0.024997350242854384
0.05572997891906715
0.11999361806830701
0.06710596551150286
0.056014529145399006
0.03574341184892384
0.049831738437251034
0.022901875237574497
0.27471060091386135
0.05471039132098492
0.03953296895434239
0.04330547344051021
0.02202932599578505
-0.2779531563631336
-0.6189579252292176
-1.1321812454525815
0.018700151153958375
0.0007766212292655765
-0.011191975287865658
0.01902081204673508
-0.053880176999562664
-0.10476286393202378
0.09467713414009457
0.1686174733287684
0.33146527505135076
0.2851311161979452
0.027918796739514536
0.01940036752904521
0.1520648224138971
0.829443625857959
-2.8091187745603015
0.29119018850443773
0.04409245105609757
0.0263588183779515
0.16501108913847276
0.3653518236589068
0.1715751072506122
0.05830468700264449
-0.033540500175803366
-0.08078363343238913
-0.030864774060161547
0.09854248484733387
0.24260483521041964
0.007012963922663625
-0.09400249298823228
-0.12567017712260306
-0.09876362069801874
-0.001473102261526151
0.09260637916163131
0.06270630360082752
-0.09158747058223192
-0.136554222751783
-0.08714471075355418
0.08792240097036448
0.08022756315195971
-0.2462784188895454
-0.17441780625803718
-0.05704692621547684
-0.024212543288567333
0.0031117678413285273
-0.24681625735131604
-0.4625776885010585
-0.11579266312912989
-0.060989803196217114
0.08773943346718956
0.2866372305376988
0.6930817126282178
0.09919790052352673
-0.04195057779323743
0.03201938827597567
0.054855643217967306
0.18312532742029056
0.27925618768864247
-0.0016940099014145686
0.0049242018222245615
-0.0053994434905796735
0.057965609067283715
0.062118611647422224
0.11201637884217842
-0.021679704399520015
-0.0562605224967894
-0.01566841285886811
-0.00714045751340421
0.03025883559842777
-0.030018437606479292
-0.16945737489608656
-0.08926805937179379
-0.0678390019526412
-0.010170425018507935
-0.03696099200889758
-0.07686870243702114
0.01923201565120582
0.014455997864332663
-0.014113282792435022
-0.06384656693410688
-0.11032408110689827
-0.0927566448691446
0.03375199527847946
0.060647580993634174
-0.011188108699767748
-0.10214677208327994
-0.19856055794858404
-0.17146726624384936
0.4442935337056221
0.11579304005543177
0.009737835161218867
-0.09361053174214636
-0.35296506542951267
0.8998487422942465
0.18100590910722544
0.11633422431513045
0.021485057157366722
-0.06293233152096943
-0.1479428981309002
-0.3933883886893491
0.07560892042725104
0.051475768694109955
0.016606297956225476
-0.031113287267322508
-0.06816850844075037
-0.04679034740176841
0.013953539633587366
0.026061985621681452
0.0011505234962041152
-0.0375596128676287
-0.06552696598534766
-0.035141750502907965
-0.031106130870489978
-0.10332761372577969
0.09033140548216155
0.013172521269318664
0.023559017313708824
-0.018742595576789364
-0.02583595202180909
0.0025167754437133093
-0.005677115101563182
0.021251378910351046
-0.0035903756708382055
0.0053234149303647465
0.01797418834004464
-0.019859423009701498
0.004088934118159522
-0.02416581959839427
0.007045596679783335
-0.0039300756595261254
0.02318091555403539
0.023728449530955955
-0.05252836969585799
-0.026266874953888682
-0.020365068418284792
0.024322781257826515
0.10643682453014823
0.6580663322574398
-0.5341422819390388
-0.07191220569444504
0.001492562557916214
0.0038922514665441447
-0.10385930812459702
-0.3410068926066604
0.2635550408568062
0.11805532963777561
-0.0060502111925764285
0.006772592915525378
0.049932090659644345
0.04273642403932078
0.08493946715482684
-0.061609319176432274
0.016417461095674792
0.02207253208995462
0.018906682832882046
0.036633778497266706
-0.001477925773221891
0.0009688321398997562
-0.007701722587788177
0.02506537741403379
0.01639479863270128
-0.013590302520909222
-0.017987460815810267
-0.10183298466836871
-0.025908815978788597
-0.009629830445715113
-0.0029423098373438056
0.0003635229234461926
-0.026587733714485286
-0.25073897667806944
-0.053463164698248
0.002439359573189379
0.05846041468827204
0.05236694420258088
0.3636476706747991
0.6164414579910038
-0.5564228455307291
0.02805536456249884
0.03781111511789924
0.10606155168344929
0.12588459029918997
-0.5501507993324093
-0.07850431346296477
0.04924907008399503
