0.00019573652216122088
0.0006471584002108305
-0.029309855967585702
-0.009921781671932512
-0.004011406785646117
0.00392899664776859
0.007056524042484459
0.007961386443611027
-0.003664281260756482
-0.019966529692847883
-0.0713984867203525
-0.04099734281005391
-0.012319933474406677
0.005101663855490196
0.007515147652995987
0.010240696048759062
0.008390478002960439
-0.0825144934214778
-0.20920212155701806
-0.07885398149184536
-0.028638084010983663
-0.002905191384847539
0.012785148980986883
0.03203375996300263
0.03661937776493271
-2.6521256879115485
-0.4061559162686016
-0.10622367373926327
-0.04161255446661652
-0.005677901726459688
0.01608801842728097
0.05033025538395491
0.5156452327018547
3.6607266322688634
-0.1613422499373846
-0.08115018612485483
-0.031207472938015055
-0.007904262738233183
0.005919219269652771
0.006868509560732475
0.03635007390927668
-0.07758919665337653
-0.07175538874781444
-0.03974388188838205
-0.012074383940402519
-0.003657441202789215
0.002532089619500251
0.0015620595023757425
-0.01522228000495634
-0.07647380559644094
-0.02953943977652527
-0.015503690920239723
-0.005387842806806243
0.0022848696815021496
0.006285665435572872
0.0016232111924363766
-0.005470199212601452
-0.026828868723189476
-0.01599899773018945
-0.008547125408160015
0.0009890709934325234
0.005576902920961169
0.006805749933860289
0.0025891067804857193
-0.0006031413702472972
-0.014910768169771244
-0.0880753802919252
-0.07075623260675046
-0.08325224002810298
-0.13739840757400767
-0.5028737630644322
3.416149703976106
-0.46433699027386416
-0.14350798721958058
-0.06975342981265324
-0.06060013376440613
-0.053332993375159995
-0.037333787806248256
0.033036476833374726
2.373518206127114
-0.11035234866465113
-0.08846120650774562
-0.06101822056095808
-0.052305322905288595
-0.04478658967281471
-0.023697053910523097
0.0016573805363779544
0.05280780504159711
-0.05643923930927306
-0.05685319332115919
-0.049920441494341175
-0.04793325502602222
-0.043278962202642796
-0.039557661596706005
-0.024350595383052696
-0.04142899665180817
-0.044346127388489594
-0.05576888382064245
-0.047514701616776504
-0.04764822483540117
-0.051316854656553855
-0.04664140773944336
-0.0506541796129994
-0.05421603619366255
-0.05945260865547833
-0.05170599419024135
-0.054454807207280305
-0.05147629466922334
-0.05355597873516526
-0.06508310931367968
-0.0774304681610688
-0.0856839638172464
-0.08356465356927957
-0.06751724588782598
-0.06770873199095213
-0.06168757014025373
-0.06912889673709084
-0.0935130465678836
-0.14310747955170708
-0.17153079819894368
-0.13746658774303006
-0.0909233559865998
-0.07956464384382315
-0.06784278748004896
-0.0813121695341025
-0.13913379178882343
-0.24603107196508084
-0.46090420731832926
-0.21648929902572026
-0.12858916115580835
