-0.0004400356410594286
-0.000560633969613763
0.0009009794551491495
-0.00098304937284665
0.10207841413280586
0.0573764459951602
0.07549511499319372
0.023943709200907003
0.029100978480178372
-0.032220975607085006
0.06676162257251704
0.07776243334343964
0.10247675482743933
0.07960116696977944
0.03009136866143835
-0.002544958476145927
-0.10879592729119765
-0.0725002019786333
0.030497226195707376
0.1697413801940294
0.1757857161558723
0.05403326256602579
0.004607134794383143
-0.08306042145739692
-0.19729488318227525
-0.4739049965109745
0.37113050546760074
0.18632109330306568
-0.006682332757998954
0.04190510467791636
-0.029229784584301834
-0.10216185959499662
-0.43196188891746706
-2.0411924292856174
6.62800181046447
0.19165779516608858
-0.08485027022153253
-0.047120469944231434
0.002908940947605988
-0.09538861160206913
-0.23352779915895974
-0.7606010794662661
-2.062233504356541
-0.35614877501716746
-0.0936059207193505
-0.02677106341281622
-0.01730917880525342
-0.0130502579893347
-0.13940816885506843
-0.2134535747983384
-0.3931863648355384
-0.18044024373965462
-0.04767905661201475
-0.011688701373773163
0.002143835484584546
0.0028168053525322928
-0.03187589212257482
-0.1041753867910707
-0.10234982416684069
-0.08911066440833383
0.0394908787124233
0.052671916635389615
0.0288102460508497
0.0282651122381085
-0.015114672424524692
-0.007944171821605714
-0.024489532267929916
0.025097069475768362
-0.06780253438962379
-0.027133121010201756
-0.01630928147287181
0.01597556151802762
-0.00697407954267802
-0.08254380995307653
-0.13940704717312608
-0.09825002265421455
-0.059404352401880904
-0.03265071346369783
0.014906459920079622
0.0468981990875808
0.09868191990704724
-0.29301995306000306
-0.24313463370785318
-0.14438472229986632
-0.06025311026503039
-0.005544954044967197
0.01659888987603635
0.13133174500246478
0.3026155018353009
0.4748564602771575
-0.27125406117055767
-0.08834484158113519
-0.013772421687199332
-0.005936416468896508
0.0394374929080795
0.07438193319999585
0.17169417868474432
0.298879042747548
0.0812998096733429
-0.013133575575844615
-0.00848586940977792
0.007538446865244254
0.007191650147099089
0.05737208567968301
0.07654060194627986
0.130620286983754
0.040444473519261046
0.006629704460914513
-0.007981867645243586
-0.010674148023482224
0.0025578049190783133
0.011245916164531716
0.03927797142510081
0.016486394390738075
0.012424892345907991
-0.013372047107030553
-0.03263160524347267
-0.018267934684667673
-0.012846082958509182
0.0004528267009621081
-0.008420417286809234
-0.006805892668626299
-0.028724324933177434
-0.026766411061214426
-0.036880561065924126
-0.03511020543186749
-0.01724636502140711
-0.015651158471783208
-0.006461879170880321
-0.05589265067535462
-0.060926478117230086
-0.06694069901413298
-0.1285768243039587
-0.14512293928592096
-0.10033355792502148
-0.07882071324930924
-0.05005402688784699
-0.03495833067711919
-0.00888828913769068
-0.07361068552296351
-0.09713600846338052
-0.09273217166751908
-0.0909353467405153
-0.06955956107653168
-0.05985584656048925
-0.04522915603460426
-0.05025375408474493
-0.06264837491951997
-0.07196386104996441
-0.0869727275982869
-0.07740874575341312
-0.07147179881229271
-0.05067052128599214
-0.04801892772986372
-0.04642264969017725
-0.060605213083475405
-0.0837541943551804
-0.08445381100980923
-0.08231894792613
-0.065455231747243
-0.05511954692167982
-0.03566661253864431
-0.035724061794408
-0.038876888945802976
-0.08263964062589604
-0.12039309838443961
-0.09046593766039542
-0.07605613187228026
-0.04188837969248886
-0.02356006343191856
0.005720270050269624
-0.03010215686740957
-0.26908759210974337
-0.144404754662969
-0.1322653361584269
-0.07743804508121102
-0.04402706088469496
0.01907074319319907
0.060496658598129936
0.12353748308262819
2.5492823227770116
-0.3449340470140521
-0.14608355022752598
-0.09040732321483651
-0.027257250444843017
0.02404539681543113
0.23665964574779105
1.4937207107126256
-0.32507798299698865
-0.1867251746330632
-0.14588796153758912
-0.0814868628150585
-0.04665633887569259
0.0055729126993066015
0.010759342635724575
0.12539852846146018
-0.07524904231494343
-0.06541884303253151
-0.26104213722802694
2.4853944320422565
-0.2610440266069144
-0.09834749976973217
-0.0857159816600201
-0.06867980164508385
-0.08308295484682598
-0.11932257618720973
-0.1384215965083168
-0.3724652269869529
-0.19535461329029286
-0.13822203065501837
-0.08752654331418452
-0.0821715879876972
-0.08471124714824686
-0.09196428810846541
-0.1330931903347055
-0.15117424910377328
-0.14701651638875873
-0.09988298486148389
-0.09012153123814486
-0.08044178455004196
-0.0672618951507147
-0.07485811723687577
-0.0800135998878466
-0.09585044826980899
-0.08304404222575779
-0.08483559983984273
-0.0692331816683812
-0.07153007931514595
-0.060413593609850685
-0.04706945020503895
-0.045561005698187294
-0.030937100297289754
-0.05210485300044467
-0.054046786165260007
-0.06274131382101085
-0.05487414893633796
-0.04175608541742015
-0.027240193794702022
0.013757575816284048
0.015785427506630208
0.00713046034575463
-0.03537680344957742
-0.045991591937975515
-0.05362927970603681
-0.03542003898640586
0.011084980247481231
0.05373517920891472
0.20999479136391755
0.02256703652365344
-0.0046059790419804
-0.04350728698600883
-0.044443071091788924
-0.03511368385663737
-0.011197676375556983
0.179793875763746
1.443063100286447
0.1445828530482926
-0.04316031731094839
-0.046517728927657
-0.05768450631277198
