0.001077138697840861
0.00037080318223335103
-0.0003755321267810742
-0.0010084294378754773
-0.0013152099709095766
0.0005825052015536157
0.021736176009310906
-0.00014527855149167192
5.251754455245228e-5
-0.0018429810639142487
-8.505988807375948e-5
-0.0009761917980689418
-0.0006038649377450232
0.0002928149652295679
-0.00016635801582941403
-0.0005777493590727561
0.01755888193592138
0.0056792115166844894
0.0009219258048470279
-0.010412100973727724
-0.008832227237768778
-0.01740368070282557
-0.007979188735425115
-0.007963617379192746
0.014152905641178427
0.011614775797953817
-0.002474640752010087
0.001359750439495566
-0.009720807336055343
-0.01080026432506028
-0.019094416026143517
-0.017470821702003005
-0.02134042149287503
-0.010192382549721792
-0.012995333259091494
0.004364950792170712
-0.006429799593747907
-0.010171890761644714
-0.008425178690484683
-0.019164564756499466
-0.020125787807946393
-0.03283008719549265
-0.030316588391049937
-0.03992139278481234
-0.023781541739459223
-0.017727855517900928
-0.010278588462184489
-0.003961840728324158
-0.013517181048733869
-0.01663214543688899
-0.029606200171854655
-0.0351777368003329
-0.059113468566628705
-0.05271645805385247
-0.06040636076083688
-0.013055545961326648
0.012510020527125016
-0.00361947050021873
-0.0067340192601499475
-0.024366762895959244
-0.0309181472129668
-0.06169238837360684
-0.06862806824780719
-0.12326477721914855
-0.08995384731394065
-0.024211082913509336
0.026097916019079903
0.018538808509524354
-0.006798680503722224
-0.019158189317276413
-0.04687803041535424
-0.060940224233234586
-0.1339089123882571
-0.1915755877694037
-0.278214154171281
0.06094939666813482
0.11072316535726509
0.031748799746523476
0.015025647443337438
-0.01811228390214909
-0.03303095119728686
-0.07723317612286631
-0.1127091657376562
-0.3124067741563985
0.7991745798847872
0.3995657143728328
0.1037864830662436
0.0542071236371648
0.008527145655289958
-0.00416677026756308
-0.031020133422010838
-0.03051483390126871
-0.06425454330924504
-0.038803194165958566
0.31733354670232
0.21272440110166532
0.07797487539098219
0.030279126755744002
0.0121601697592503
-0.010236154510364196
-0.013338024082500474
-0.0284155865601451
-0.014541099473406932
-0.015394106586275715
0.09189834888862748
0.11107825861119404
0.03333470308311021
0.023823727110983864
0.0025462299721750667
-0.0017589904761602844
-0.01480856206639708
-0.010961201178559763
-0.01691013797355917
0.012288087332805321
0.030521652474537666
0.05894781745280852
0.017293687273077167
0.005375610194430576
0.007281405844321958
0.0029422976756241876
0.009092361523434778
0.00804145594971073
0.020145253833083805
0.01927238939993101
0.028761905474523886
0.018965659017892947
0.0023168921271319665
0.004481940409979311
0.0008053291422339677
0.004307035073117377
0.0014694563294123779
0.004746940323253316
0.002651532494992227
0.0084149881099773
0.005542258625026274
0.008726320711899752
-0.0036971105816527745
-0.005963962480460335
-0.00018744005841846663
-0.004063231752440762
-0.0009784566745547952
-0.006889184550819147
-0.0024616921560292313
-0.009656811064767068
-0.005089239124401124
-0.01092442514962179
-0.017131216868313665
-0.00430630963740225
-0.004538788130406802
-0.0006531366809764799
-0.007355370752299902
-0.007963259774394625
-0.02067721058600575
-0.022602028851801806
-0.03354985458521923
-0.016892121138828885
-0.017640839913993275
-0.01339366474845161
-0.0015211797301530859
-0.005129200934433124
-0.006846796460604638
-0.018860247156412668
-0.02840940101911635
-0.05705194351137295
-0.061738292537393914
-0.044399820379467714
-0.04156641965559305
-0.011727012170236093
-0.00836453727539416
-0.00439702524618565
-0.013283915536980488
-0.01963442390893818
-0.05418906136269474
-0.09668512090402305
-0.19322664566671008
-0.06994047316239843
-0.013236141587725878
-0.013475505926653655
0.004320210149908228
-0.005630915063011873
-0.00501040829642721
-0.019401977546103757
-0.030108820902858543
-0.2957032575024842
-0.7712094135959956
-0.3350486028615477
0.03689035737332249
0.01809082895377548
0.0033103534417917024
0.006708416284548066
0.0010580518574437464
0.011645957923556334
0.009964297282633146
0.26043228430081894
0.6880134322002563
0.3141311591802596
0.04454691837229149
0.011846072853912036
0.011931963614703524
0.00531277135476422
0.012941601597829623
0.016240170089258318
0.046326779217549394
0.08237349094999122
0.20830115132449634
0.09896910402181068
0.023985433817381788
0.01656185692142024
0.004125701218254775
0.008378317320777153
0.004839004190663823
0.01716934429512173
0.024627704171859482
0.05234946183490466
0.058255996818324274
0.05612900244683452
0.0601852838187677
0.029701349082627726
0.016913294471157973
-0.0010971490497962732
-0.0064981338387670486
-0.023954835731156168
-0.03142217977135177
-0.0559780754441165
-0.019555387291647464
0.036483813636117204
0.021160200854047878
0.02035834711619332
0.006783090802360518
0.0036737663965180764
-0.007383209493538965
-0.012506301661943511
-0.023346487484599568
-0.017719301567653053
-0.011588321261510024
0.018184583809098695
0.014180321792918222
0.008740581237163722
0.006313056585664608
-0.001037691268361181
-0.0015232866890840632
-0.0117553736094721
-0.0095864828657483
-0.014670127596124146
-0.0015233244689100154
0.0006611134432982503
0.005450792015655259
0.01048192810151678
0.0006128619929800113
0.0003258874018189677
-0.006475968137067413
-0.007281912061513406
-0.012869009577743616
-0.005954700240099934
-0.009037830723124946
0.0049796122134406805
0.010199997786232814
0.006607317855619443
0.005520056595938964
-0.0043649494491707535
-0.0032405035183951823
-0.011060532393732688
-0.01021540189362761
-0.016481622804302012
-0.006419112132464829
-0.004212803817552447
0.00829711242463624
0.01410155486946304
0.00319017156498511
0.00015837069417546306
-0.006003333313956798
-0.00879137643072785
-0.02161670520068089
-0.017891637708216154
-0.021481964284454855
0.0044363556006325276
0.028856620142429002
0.020563347385800568
0.012996123415526804
-0.0016926116608511812
-0.0031936508731041004
-0.02020455365236022
-0.02320803122495916
-0.04946091514681313
-0.025058366897172474
-0.0007911062800458137
0.03906359105338956
0.04558653375233263
0.016462294665961948
0.004813299542635896
-0.011819223279245778
-0.020338382889625636
-0.05185998884292399
-0.08071930267482054
-0.2831349627820809
0.29172742803831436
0.19408247232301612
0.06753723222061435
0.031809545221679024
0.004471931817194991
-0.007747428249024856
-0.03086680733039545
-0.053698007263887404
-0.2082111279624892
-0.8012887832096054
0.9252462032638264
0.08975501223280523
0.06126545877918503
0.01947654778664196
0.007230137850654434
-0.013358044754041206
-0.023197489188171626
-0.05922835380572849
-0.09362408141136758
-0.22131098570118046
0.3417126359809693
0.003512032264935839
0.005367522732552213
0.012049867929740398
0.013048659029653131
0.012011902983950174
0.006591635997931013
0.005263225395036653
0.005407792330480703
0.002755576948740536
0.0014600084732886522
0.0021991467277389064
0.004643519652980967
0.015336601522042262
0.016831526785731264
0.014219688972782632
0.007764355047974151
0.0047274891935329254
0.005063182365694181
0.002019604950612303
0.0015100609466924789
-0.005296378242216963
-0.0007604452457870912
0.026140534554828915
0.022883738267147735
0.013643167440893403
0.009094877994286274
0.004539293000349821
0.005705158881928766
0.00014307979110438052
-0.0035141264968712505
-0.01992924542365624
-0.020031867659396244
0.11296894319032628
0.029871374068380755
0.014710782835057584
0.00729740750397153
0.0033355613201508645
0.002491454284590092
-0.0030856385440916957
-0.009185508849998423
-0.07874169825684364
-0.2755162610867868
0.8111166146264112
-0.026605827502451163
-0.007630162495286395
0.0034279170503755826
0.0035217062800996955
0.0003588617626142437
-0.004414877467565971
-0.021081939620309163
-0.07903073712211829
-0.30264485737545715
-0.6567107231888081
-0.06348987919180075
-0.01174184350279893
0.0028552654637262853
0.0026359549799728635
-0.0003688032507474605
-0.005092042751315676
-0.02124822311026478
-0.025033966984346342
-0.03398289744987785
0.13682685780769532
0.03278533104074779
0.006060706574034057
-0.000851297662990807
0.003963268512003987
0.0005064278369165084
-0.0031558050023536904
-0.013356466697388311
-0.002620812425294058
0.014948724088059423
0.04198023302614407
0.025038917903534495
0.006763114584395229
0.006615293876878188
0.0037019732655944725
0.0047288912446100265
0.0009761761191547828
-0.0007587718216101725
0.005489655167760288
0.009113794130860216
0.01481182704765484
0.013143648037691351
0.010761102298414062
0.005694014146403223
0.0049174142870854545
0.004340241028614873
0.0011198394917845676
0.0030000151353730313
0.00444426185678296
0.007111625627833775
0.009805399872609498
0.013658804974297618
0.010978078119049176
0.007133220288829798
0.007202319678774612
0.00637023088403502
0.0036272667887828425
0.005137336819896659
-0.00534031873122583
-0.013865974413398527
-0.019189972893960062
-0.03178000137107515
-0.02432528218569203
-0.022213334115267325
-0.011464569116895591
-0.009149850794031605
-0.003635358702899173
-0.006292853998196727
0.0037462373913223507
0.0051980988509243075
-0.005987991182366798
-0.008491862819849864
-0.012446866319524534
-0.007626478121047109
-0.0065294398497147375
-0.0019443910816431403
0.0006815523475158037
0.006967008065633953
0.02108645121135963
0.019398459313821545
0.0208192664993895
0.0029799480300609247
0.000788637831362313
-0.005882203579708189
-0.0022255660678758907
-0.0015877927861094362
0.0073458511232122456
0.01254300035844268
0.03635507071970504
0.05143512093513626
0.046079292727500755
0.02709972480636907
0.001021956218815275
0.0002963539738325607
-0.0035418162491490696
0.004035203333596971
0.00990651641205294
0.0257239462184676
0.06618710130625559
0.09340084152386667
0.11976243465638749
0.04022672438852183
0.00324456960117696
-0.01422580217380029
-0.0030276816207656645
0.0009159525566636757
0.018821110107559245
0.03598428363861158
0.09044335716409403
0.18073143153911964
0.1952106002301751
0.08126943755881604
-0.03552038814830074
-0.0221762134403659
-0.01712251914870626
0.003681247376505546
0.017042637806466993
0.05070242735671876
0.1004194423155133
0.2520778259803923
0.7705739146969323
-0.4019763638445883
-0.12793542297189286
-0.06565892304153209
-0.024886436611165318
-0.0059298142633529855
0.01556120925360001
0.037906224741752516
0.016899795349083847
-0.00014399917479979564
-0.3570058053998475
-0.25444459386565
-0.1536433642959079
-0.05786800246968522
-0.031491477028513015
-0.008571273517622912
0.0025913753677871544
0.014886601497799901
-0.006849378428565509
-0.05255848092754012
-0.13389149800805708
-0.15719279354041127
-0.07502128268243555
-0.05197345711967003
-0.023006655529547577
-0.01506026889497092
-0.0034423538740194614
-0.003170614795269662
-0.015660770466100624
-0.02882374851973303
-0.06283724163986672
-0.058209196662528426
-0.05115918354983319
-0.02906741672304576
-0.019735139194819205
-0.009514495637828043
-0.007105552448756757
-0.0051187081151960545
0.579777627719095
0.2661392396929797
0.1580214254271759
0.05980502293459419
0.02510826064577202
-0.01025363260333329
-0.02715830565146447
-0.06896180056237086
-0.10251483810181308
-0.2192058039943437
-0.44531339270720305
0.22904973842147006
0.09452339366096402
0.05712008260709583
0.009298362476825221
-0.007696731514949917
-0.041836421158767796
-0.06605087416628853
-0.1305290221130028
-0.21151428895484606
-0.12670083998892157
-0.007160297578805624
0.03872316179434495
0.01922133237227047
0.005175966266689942
-0.016732270621886355
-0.03107084981512195
-0.06269497344920887
-0.08290790401956988
-0.13488242765436606
-0.07399740512688383
-0.010702620130510376
0.000547872092839654
0.006718737665313416
-0.005962379313144572
-0.011886121734413026
-0.029774928232346013
-0.04001010830339626
-0.06443890216489942
-0.06977168860257846
-0.029009538914071938
-0.01662691432621316
-0.0008095287939205828
-0.004230266832782746
-0.00625740726235618
-0.013763979984753138
-0.01943650315166261
-0.032772046166356754
-0.03456963102522867
-0.044481334033763295
-0.014430454637317677
0.0006362400874077793
0.00011835441455907618
0.0019213884194777054
-0.004941681566149292
-0.00788596987434386
-0.01807806096427967
-0.019088792549259614
-0.024580334020942774
-0.01664850566535858
0.00975466113040065
0.010542136138597676
0.01758706291709521
0.0056602658854955175
0.0025045241450819817
-0.009236647487794146
-0.008828135882874644
-0.017504832856415638
-0.012021316697266148
-0.009411573701964123
0.025116371390989465
0.04489254969839278
0.029566669845178445
0.024052420239007853
0.006088379417882443
-0.0019085830777260688
-0.01225193358321422
-0.012680177860367195
-0.015518827188615903
0.007088344222736191
0.08667001638868761
0.08024340781907172
0.0752966093253366
0.033034480462471455
0.016833143332132094
-0.004138191488597309
-0.011024747801723593
-0.025781288406908746
-0.011470618584903012
-0.016666758040623196
0.26921902695099154
0.1809848465509546
0.1066512591314308
0.06579477784566085
0.017131405891538262
4.4189552545200546e-5
-0.026313212471817338
-0.03054788043773052
-0.054376385322604935
-0.014941865895293942
0.06163065568888804
0.04141681863027258
0.03224515337670335
-0.018335728126925837
-0.028362222030182304
0.015618185760049667
0.054109798167426754
0.1028896942954941
0.0837232239263482
0.04985356105506305
0.08557369331592775
0.07150766457528171
0.05671604645247002
0.04190360131651382
0.04547023032705984
0.05701786995861078
0.06854277421542104
0.08818849070400345
0.0835124566302483
0.08647274494504821
0.0795938466953359
0.04656684595442485
0.0601307972216074
0.056298192030833964
0.07014211611058473
0.0772812696668077
0.07358899607304993
0.10121997486592398
0.10033274645632138
0.11492959265123937
0.08361806623780821
0.06798132503066383
0.07676013684253234
0.07081124500867995
0.010648326143812822
0.025148543111129927
0.03455815051138466
0.07433881715419773
0.07094187928302746
0.09493257432527905
0.06660519398059132
0.03329116124428329
-0.008760650424818477
-0.21070006091360485
-0.1056632115159156
-0.11426936151068424
0.002565306333172033
0.03631728912069213
0.07921968298484343
0.0852714084808814
-0.008010505679042258
-0.06936293813948105
-0.2455247865084937
-0.33535625467143043
-0.2572149440842196
-0.2580083759097294
-0.1776247967395794
-0.03678179568287654
0.004753997719796178
0.05061272926891008
-0.04510309415366586
-0.13758480182775287
-0.2402853684361269
-0.2965895229420487
3.602937620890789
-0.3955204801148208
-0.19779424727414813
-0.07053641971979592
0.027542479205574184
0.008224957912562534
-0.00324332291188013
-0.07686493362324422
-0.22557897942346603
-0.49811042205635025
-0.23252113041015196
-0.46591044877542975
-0.31186238425219276
-0.06568090618467838
0.0076886050602477315
0.008025661937936131
0.0026645397715935955
-0.02926825771063795
-0.1309358740821507
-0.25836246651079425
-0.1964604928649187
-0.32147436259382856
-0.13563796202486272
-0.02876946348851507
0.028408367416080094
0.01758826591039222
0.05190158039029606
0.005137967755131128
-0.02910187216845994
-0.12043652318103978
-0.15197084286381385
-0.10791163060586817
-0.052230518323679836
0.04013298074751932
0.04031792802584103
0.043198532089863836
-0.23899373369726937
-0.2957815294188081
-0.08397432566444485
0.008018882747555202
0.006569883491972717
0.008129410470685767
0.00539034460011846
0.004347052937601906
0.010324774519557052
-0.039523460860030675
0.49709260502275243
-0.7077652251417096
0.2226994533493596
0.05098040414271983
0.015872516351020913
0.012944334210284255
0.00834719634594248
0.013939850891905992
0.020425007785953353
0.10248580153519833
0.1105428610598565
0.026152878260611488
0.07452073500972937
0.034265240385684854
0.01849692225623711
0.013345083355686065
0.011386277686218544
0.013746995822748813
0.026521500128828257
0.04102040651942778
0.019345458346009304
0.03559586038752093
0.028674308552032533
0.0222320653502313
0.013125722022345576
0.008904633707574739
0.008163989710020449
0.009863732666766345
0.01330244250974227
0.0206992243307558
0.009741000653871353
0.010213687800211426
0.01396978560908737
0.010585462410232492
0.007894009170233108
0.006716855865075243
0.0076525916112688795
0.006909047441939415
0.00892110436036522
0.008577153572838244
0.0038772559676996028
0.004770719554090173
0.00542579610899378
0.0051723135022189864
0.007405464789948845
0.005701108657158677
0.004815857913559194
0.0042626868227090995
0.004278047437064291
0.00548160771978948
0.0009276355825285654
-0.0007632184862778039
0.00039416848428323095
0.0024838077154628008
0.0038657191386589703
0.0024128367728106217
0.0048445834479399555
0.0021595421397697656
0.0014878290976149584
0.0014340978446089245
-0.007992409237710692
-0.010879978617774195
-0.006430847345128479
-0.0003969992948000803
0.0038117469453660354
0.004485318585412984
0.003911469913006122
0.0019174803677931046
-0.0009671140098044147
-0.003205032751521296
-0.016824585616020717
-0.028410994502120045
-0.014159963792597196
-0.0038056521216078432
0.0010205389057512805
0.004519767872474198
0.002756693369233216
0.002235587833947127
-0.0007453737508299581
-0.010419284670869156
-0.0654486816383513
-0.07093321965126742
-0.03867076313416896
-0.006391933939499755
0.0016717568877760796
0.004932650285204009
0.0026942522706889407
0.003328207118164525
-0.005097730116070659
-0.016759046265643833
-0.001300229751533149
-0.021299931850537704
-0.046860551518371124
-0.09659012429263765
-0.22267833958604227
-0.6075178237560336
0.3679805222891296
0.1609797715528722
0.07057833337492465
0.026158870684056323
-0.004099234753415191
-0.020570655843713603
-0.04061156872467835
-0.0668124326223968
-0.10021717343151039
-0.08805910576377668
0.10978812352558268
0.07585738764256368
0.04435308739938872
0.013957109894453685
-0.004129167359335506
-0.01666375278302061
-0.028524725764095683
-0.041999017974433145
-0.0468361449363762
-0.02547001744057751
0.015518105977362962
0.03357217101845961
0.02082987402810767
0.008663035478339066
-0.00520173276209044
-0.013602835420709527
-0.02201299741556473
-0.027497867492201955
-0.02855729087047452
-0.016383124541050828
0.001177708708079911
0.010248434698939605
0.008949000362672812
0.0008654166504253305
-0.006842854165872812
-0.013175353368182628
-0.017328142592443523
-0.021375581504826453
-0.01891273110776271
-0.01560091821639361
-0.003305165718367053
0.0039036906523014286
0.004356088171291259
-0.00042601242253308277
-0.008599725991827218
-0.0137644896660902
-0.01944456145223736
-0.02229746109111294
-0.02566964765431674
-0.018095318534135672
-0.0067840289461663945
0.0007464071378626882
0.0025358911205376504
-0.0017365013643863257
-0.007199368760434353
-0.013340341187522285
-0.020977575532135754
-0.03336737258710014
-0.034534158153209295
-0.028320903972017905
-0.00427098190018776
0.0073696388828527765
0.00564491716347774
0.00020017552948182603
-0.006763587258557836
-0.015624014913496327
-0.032069175374089515
-0.043235214321979264
-0.06394871749244228
-0.047728310642294304
0.004296212489590205
0.02068850880111623
0.017322906051403023
0.0040195951719051905
-0.0046012806366313615
-0.0209822402802929
-0.03868545657111004
-0.07436662019625138
-0.12737228715024457
-0.233437890393725
0.09363186195751642
0.0597147273870219
0.033874446953342144
0.013838523693579232
0.00026619380035032125
-0.01998701075229277
-0.049058397967292874
-0.09404076973899178
-0.22862452075521864
1.0125510333297494
0.5507857871671327
0.1482463727492543
0.06581631857823221
0.02340428652326446
0.49799469314586087
0.08516889276448171
0.027804996160512078
0.008881927297359912
-0.0009406088008184993
0.00109076962549697
-0.0009838474372703525
-0.0004333863829397327
-0.014090883265222967
-0.5382155135235832
-0.45115882373153143
0.13509181455958275
0.0461654642666611
0.008920957597071491
0.00484490410470497
-0.000597929844348642
0.0031106796025317696
-0.004008004704665521
-0.02374109686281898
-0.08107248212555146
-0.009627745321593818
0.035877643907821284
0.02049612672543955
0.012139786278859555
0.0034516094982377826
0.0033475958115312216
-0.0012850264150998424
-0.004492832513285636
-0.01890862233679522
-0.025374758752352358
5.290780187531044e-5
0.006722114314379
0.015029620120679332
0.006454030869322736
0.003647741030712911
0.0012089415515870836
-0.0025509363769273792
-0.005588733814877782
-0.007381644590940555
-0.011442017631952905
-0.0008077220390143411
0.006359986267935246
0.006812335609477964
0.006674090234787455
0.003241619428425682
0.0023000030328251325
-0.0006316433489745825
-0.0010614243133235503
-0.0017515924845495703
0.00037954710454930714
0.001494303973766004
0.0002032719235913671
0.0024853695148052634
0.001105422104284472
0.0009460951459875933
0.0017132158123875033
0.0022161219651608754
-0.0008611559498869687
0.0014214497378516333
-0.0003493392758673108
-0.002220898171641491
0.0016898391438074651
0.0005918799988746834
0.0014891216508530311
-0.0012983549213895457
0.002277851679368831
-3.2036280314901976e-5
0.0027865945707304433
0.0006080465232100639
0.001970946144575046
0.0018985416825659535
-0.004078941599811395
0.001307809386055768
-0.0006537729920960203
0.0003955561128227437
0.00025404933725853025
0.0025402016950023354
0.0028215405521166727
0.005758917485310382
0.0009897489570538961
-0.0006189165808557683
-0.00044424436329513096
-0.005015945576139708
0.00041711934667790554
-0.001263942249284459
0.0030782103487897667
0.001600729410383499
0.011211043118936956
0.006454867665571344
0.024701911254865507
0.149477482739906
0.004201014802995424
0.003915278580215751
-0.0006928164714830907
0.001843813132362169
0.0009562457311465926
0.007666268962916078
0.004527593895229651
0.017526126735512754
-0.006636758399722614
-0.004460621847479088
-0.012627058411009664
-0.011785746818314291
-0.03605085331446737
-0.04596132185846411
-0.12965238084890168
0.07858219963630204
0.015140289238869538
0.010614564808054047
-0.007990075038096334
-0.010276786540732392
-0.007129669555595336
-0.01817449876305675
-0.017554091379811534
-0.03755946288314316
-0.019528893051077578
-0.011090726694380876
0.011142057687814167
-0.0026206075516324073
-0.001171634284475208
-0.004394520995668673
-0.011890444886627006
-0.009521288283779001
-0.018574159341766983
-0.013143725589412472
-0.0182886090233604
-0.0024073057009214817
-0.006677283670532255
-0.0003693953248956924
-0.007053410872270644
-0.008321748124242877
-0.0054999191700183196
-0.010056191135644554
-0.007565723967517979
-0.015408164676033013
-0.007039753454875525
-0.011069180738510518
-0.003756380333814364
-0.008140921871186063
-0.004454249217990371
-0.0058033471836512265
-0.009426709178740883
-0.006087087369535906
-0.010386695957522426
-0.005237829902084414
-0.011406735061890222
-0.00569206173416345
-0.0110669199722177
-0.004918659697164955
-0.00994985380040962
-0.010511562912247937
-0.004920700414879515
-0.009688985951282736
-0.0030146613176407415
-0.010813945125977746
-0.0025376006996155527
-0.015811659733774134
-0.00830852009020018
-0.013135777877990208
-0.007515455860299206
-0.00668700951129231
-0.00794507948559457
-0.002732256122236607
-0.007854491218530482
0.005083277566890308
-0.01211913033100751
-0.012047212760326127
-0.02482011430196983
-0.013014010170574948
-0.013771028624128743
-0.010929407601470405
-0.00430589642546632
-0.010238121815548635
0.004669165442648525
-0.0030165004220560855
0.05396937443465724
-0.07326483577562605
-0.018035258888678896
-0.024175895215461686
-0.009443238163215024
-0.005976117840710894
-0.01243324268183199
-0.004522920165797513
-0.02194915854059032
0.06243174226278804
0.6842136963771576
-0.6136593356761142
-0.07207097343527581
-1.1785034440660606e-5
-0.015140806889084051
-0.011232543737924275
-0.005957492795711557
-0.01798440180044743
-0.013598637974055944
-0.14186895480176256
0.265383853099484
0.6717524590603344
0.09032479603947456
0.0014458815695213077
-0.0014459243520445688
-0.002884324279598333
-0.00516043097425661
-0.008689823468712363
0.00046716179248394447
0.009724581709023267
0.03220569624920001
0.05062885527204863
0.08951375518524864
0.07088117830394239
0.03462215222806871
-0.0020848851092533415
-0.009071614523427635
-0.0070209098884397554
-0.008229476176553193
0.003247840242253362
0.010696342313451438
0.025803547757288627
0.025851472945706003
0.029345748064257163
0.0022894018042817167
-0.020495192370793523
-0.01799461484523702
-0.01832492307481137
-0.011836230830471627
-0.011490755431747882
-0.00566704383745432
-0.008948527732355924
-0.005224679698322981
-0.014104663302012021
-0.013054574246401492
-0.031011179678678464
-0.029475689721344258
-0.022489460435589564
-0.020573196790491077
-0.018836623700386024
-0.025432942810703105
-0.02645205412483106
-0.03621306090327549
-0.03595261045584936
-0.03948692894777203
-0.04754138976079568
-0.033895140368488175
-0.030706237961603336
-0.02242815405216976
-0.027243544628035837
-0.03624549620684667
-0.052057467530270594
-0.06320750296815421
-0.06850533902543827
-0.056690165404469056
-0.061338910015271905
-0.04611915859001185
-0.02968560367263555
-0.03107203012408999
-0.03216701605945661
-0.04928867000944333
-0.07531784937835063
-0.10583901360227481
-0.11343153657691542
-0.09985284204963255
-0.099458793347201
-0.0486283205981569
-0.0377187148343195
-0.02646485460072707
-0.03132130680078393
-0.04900239593356151
-0.08851759084993263
-0.19766500407317222
-0.24382994880899897
-0.1625721520981619
-0.08483813447181446
-0.04473374454784712
-0.025038307694118044
-0.019473894162004117
-0.011761988074085487
-0.014880138921714968
-0.06178718211967923
0.3082135212740211
1.2711118880971943
-0.25674445149965863
-0.030836043155293247
-0.01693664775225205
-0.01844141267864451
-0.003331090521983446
0.010729005572425128
0.04198095338812482
0.10795920194067968
0.26682038900211286
0.2267034628953414
0.019911898865498687
0.002346260729814231
-0.015092350155587417
-0.005259477102648176
0.0005521797784337576
0.020092606239260968
0.040849717665413704
0.09996058752482426
0.16190334602804535
0.1836977361271082
0.02076294162508332
-0.02596760610103284
-0.06362047531469223
-0.091414407127267
-0.023993909336912873
0.2208734690505501
0.12871870463211557
0.08299969985487941
0.04660373214249438
0.014066040767637112
-0.010438173867625914
-0.054732542720103784
-0.10770388093550685
-0.22207536245397608
0.7621634164066601
0.45148828947052944
0.28203812209251916
0.13553084545749705
0.05441931960360396
0.018451415422562772
-0.008522282336276776
-0.03404752709245735
-0.08342532032359032
-0.17329332434426764
-0.22907347730911679
-2.577342815715946
0.3104011531974098
0.16362076504746312
0.0742345120230885
0.021305146203892088
-0.008651192064202567
-0.0253704952882145
-0.046631809243182415
-0.08984021754885943
-0.08554244105088434
0.14283599916806045
0.1637145708900525
0.10714182738858422
0.04790512718980306
0.01722289012386597
-0.002077774941969604
-0.009567488995259872
-0.025566541560066092
-0.024201144895120503
-0.013194811879404928
0.04077970918706349
0.07732233389340094
0.06050211471474716
0.0396256807727455
0.015843354947866924
0.0032918033140133577
-0.0037207777368106452
-0.007434174682132876
-0.00798078107274436
0.008978314089847091
0.02124658068014387
0.042130717182523834
0.03949655234367515
0.025315714703995497
0.014661904811822602
0.009869571342626973
0.0032593596655320833
-0.0020591243858136404
0.006828774369628217
0.006955300948060889
0.020296782202129316
0.025800625268262035
0.02487834662047805
0.024015107222735876
0.011925976155485355
0.007673775565392061
-0.005222558439379954
-0.005569609984485519
-0.01040226787472069
0.004840621340443866
0.015227676709883656
0.02421381885357212
0.022767287945037087
0.019248519168743202
0.005785102548254331
0.003601048506947596
-0.005811583238936717
-0.019191536060144548
-0.00825361978294955
0.004746903055284573
0.025243314748470132
0.035037953424669074
0.0298209913042031
0.023597853248667148
0.010826595727609346
0.0035772662621451233
-0.020634020533003318
-0.019201887375471575
-0.037802799543839444
0.022977475866858547
0.04689568374538579
0.055931554944547546
0.05177183664498063
0.027709224547501705
0.00991804620183254
-0.0004924584368414533
0.005236580870828058
-0.0025050419041437754
-0.016088397450961064
-0.09455690220537398
-0.5348660410724188
-0.3555105433809732
-0.09071092492507331
-0.014850079603575483
0.0014803095470248455
0.007422701434360678
-0.002224051547137004
-0.013565747804771327
-0.03586769776430926
-0.085036508763755
-0.18189768080520394
-0.23337848674099665
-0.07469218436949988
-0.026651311813118868
-0.004726771269818558
0.00047465114075998774
-0.0005295281762350797
-0.008899909945903173
-0.025764784131200653
-0.05312915492325024
-0.09261308955984324
-0.08969281942092203
-0.049730944492899144
-0.018939165218653485
-0.004144825194727985
0.00012609954892877105
0.000999627826579402
-0.004222964083438789
-0.012296389853687356
-0.02607280784711376
-0.03784306554648972
-0.036741367915448686
-0.018427117115943803
-0.00721240378325796
-0.0013763973137659964
0.0012711867962650022
0.007061665913882873
0.005456100433687998
0.0035112208791417128
3.2272273985548407e-5
-0.0023983922982660664
0.0006147884705216427
0.004731677787324838
0.006981089499426519
0.009726051244306911
0.00849253436990421
0.015538050976810824
0.015237327608189752
0.017600582043489178
0.02280202691333437
0.026375211356804134
0.028854918570594166
0.026924152032459455
0.022216288001075966
0.018033661491545047
0.017052256216561906
0.02113180929167349
0.024570515860299017
0.03612355666031097
0.05019038894299598
0.06343145816349056
0.05896453225712771
0.04986408353155577
0.036466025198296476
0.02608535690377484
0.02233844586604544
0.024389006712700157
0.03447178664230745
0.051003903598777885
0.08634014096348439
0.1183289077717155
0.11885715312213731
0.0788953511169538
0.04960549621227491
0.031909065313157445
0.02336780039583325
0.02533828789622115
0.03614081114655129
0.06899309465227235
0.13584898063706272
0.2504437005297941
0.24201337693333533
0.1276206864576128
0.06667452337807807
0.03545374351467953
0.027035589947781664
0.0184115242126078
0.026821213184415753
0.04320499771525456
0.14271084117236757
-0.9510364733540264
0.5060347004061108
0.14962341550847605
0.0466673837837611
0.022522732375088776
0.018152549909113802
-0.0036948599908567113
-0.018714299023020752
-0.03678542183434722
-0.10496662252467119
-0.10462397267263238
-0.04653225701057029
-0.006087351583672062
-0.001370723136975851
0.002835944734590816
-0.0022026049477617358
-0.004352729988070789
-0.009431236901405701
-0.026758059900878685
-0.03785674872580462
-0.04573532518707446
-0.021671195240626315
-0.00923031363242413
-0.0011869598779608607
0.0002374880136037619
0.0003192336071011876
0.0008198154436496194
-0.007452165513374247
-0.012933779481810645
-0.016319913796863445
-0.014300929595791026
-0.010505780229743963
-0.0033221478500647496
-0.0015544452559997845
0.002473704149840412
-6.842153736239789e-5
0.0007315683158568003
0.0002558888417679518
-0.006069339351372519
-0.0022948678351651986
-0.005164416083167996
-0.0014451309701049055
-0.00018958207467422632
0.003936610107069703
0.0031048108697107352
0.001903013893390214
0.0068240774722802666
0.004681119658609223
0.005928284375698192
0.003920284418546589
0.008332449022181289
0.0061069091969842525
0.008206516301094494
0.006562895231037151
0.006581986729782757
0.0037354987822997517
0.004667367564682421
0.009910160305550574
0.007356086350662267
0.01789284317098697
0.010845462692697452
0.01623372895937174
0.009535607681206993
0.009223415947363612
0.005699635105034475
0.007448496058299184
0.011333089049395825
0.007271558099003341
0.026952540891517
0.019394182569317624
0.025437982358712932
0.01812719617765565
0.024449503089918164
0.011351322706681643
0.010051978970770736
0.006442087106997472
0.005412437742240201
0.022059789065685984
0.027793228197278187
0.061136168552530346
0.0013392481460552021
0.05222377307786915
0.03255526363082957
0.022178307573837066
0.011372104472902307
0.012240806394319027
0.010045011372370285
0.002914252586838949
0.08458473003594685
0.9043725735467677
-0.5394859000466394
0.1635321552393665
0.04382872952668391
0.014310830336424168
0.011991244235309131
0.007549981738798023
-0.006009423285504312
-0.0029581861646863416
-0.06677207153768855
-0.27896910926286034
-0.3218511836287546
-0.07532393408178908
-0.003945041785196557
0.006781956230086414
0.0022949765604836645
0.004496539518989889
0.01169353428283493
0.0076577704418481374
0.013492771651756566
0.006167982083587363
0.011289560849392049
0.004629076880652283
0.011264912519057781
0.006668387100140858
0.011714586361113158
0.0074580024236466655
0.008532152389899374
0.01542918430753708
0.007873662807604702
0.014842348412711906
-0.001639223098686671
0.0068484721528082135
0.001856356793520784
0.009172688538462578
0.006155709990529853
0.011830467073277773
0.015585403895760498
0.012156170771576217
0.024796609906839098
0.007172205224977875
-0.0023490346480589475
-0.01170162640297192
0.004149579234034056
0.0031168586572676094
0.011182814527386658
0.009038724783516947
0.010339639933471933
0.027044031011462938
0.0203074441185765
0.07534406034868828
-0.08607240755556801
-0.012892100231095492
-0.008088868276570979
0.008653990717844276
0.007073536433421489
0.015485621955926248
0.01862908108518705
0.006298329127015256
0.09379434689208778
0.7147202913268438
-0.6854231639084188
-0.06412599416807746
0.01725021140875736
0.003963477063315847
0.013860803286860776
0.008542534233123494
0.002989426974421808
0.012833342315608773
-0.09445881331556122
-1.6429393054305166
0.7347622288356611
0.14236359375851634
0.030047093653758454
0.021783602248725917
0.009379275098118646
0.014143363062282198
0.009058145214517066
-0.012244957985119612
-0.014713371053192224
-0.08380343456765671
0.13045525582504006
0.04800412350734413
0.03910074386937629
0.015127644816443058
0.015460914937480733
0.005914603571201545
0.0015884958380307564
0.003130127365303367
-0.013803099089717292
0.0070514919869407505
0.013731152491821958
0.037577594753396934
0.019825538686255646
0.019273465500737177
0.009067088800230393
0.011403811099471884
0.009844451678195986
0.00011866471995330985
0.007159146124069896
0.0025328222043426844
0.020447723854022694
0.013978237456818043
0.019200876368237186
0.011954611602901006
0.014394993546314945
0.006612042441871154
0.007284837295331569
0.010267558033484343
0.004305823246164145
0.011961295170849002
0.007550239394696594
0.0144855629061251
0.009781661115234923
0.013460020107884807
0.009027423765863456
0.012031891339477348
