0.01018909431031698
-6.2404611863506185e-6
-3.738662874552449e-5
0.007716000493102865
0.009098867290641669
0.05372197206865792
-0.03045273770771139
0.44046213893751074
0.5196761419727215
0.34565298134948935
0.0981708599081898
0.07383682012911066
0.01254619921239331
-0.012367676382815664
-0.019608614262798706
-0.016234018252530617
-0.016775019151726602
-0.01858917736115702
0.0019685726505370184
-0.013135172990548193
0.0018250992843685432
0.008780881897839887
0.07778103336443025
0.0019551746112129874
0.2896196377990874
0.13634220731855778
0.09137147111713981
0.036825469775572287
0.011748230184565969
-0.005014029734634112
-0.011463802035250112
-0.009194453757819831
-0.008103715530797733
-0.00916861524579997
-0.006026351698473833
-0.015966503708065623
-0.007412796939252515
0.02377221988793686
0.016984054568681694
0.08534615902803593
0.07763670817544378
0.09137353393750852
0.0360413573854795
0.02014268484395437
-0.0006746171891438869
-0.00997874823135356
-0.01406123081200854
-0.013466349582651603
-0.012723954731880883
-0.01740340845539224
-0.01095626568306873
0.00011597919887333874
0.0023661785833160942
0.00863391933621697
0.012166063087776438
0.020390225761754442
0.03522648631177828
0.028192575987435083
0.019288066582213107
0.011126891958341798
-0.004292733380953742
-0.01699874545446827
-0.010134317655268767
-0.015084647467820194
-0.007404481891226191
-0.007433006468245882
-0.014519135072733528
-0.0064013153899619285
-0.011688221961445065
0.00204498779399719
0.004099142030960504
0.00630379543077249
0.013886409781377503
0.007572448675899443
-0.006180896542744644
-0.011786444267151525
-0.01591455322384596
-0.011339737048889865
-0.019771307307899902
-0.02464126601011062
-0.021575829019510044
-0.01833054519432684
-0.007690460730484727
-0.014376635816672608
-0.014100346768210793
-0.01699132453916971
-0.014953988132276285
-0.004999503957849115
0.002691132134353035
-0.01096429355983158
-0.0010772473226912799
-0.0176651735936861
-0.01738841801799055
-0.013720943533899445
-0.017513319812729283
-0.024802891063452903
-0.013841707008588736
-0.020464660169650616
-0.031346223502486656
-0.018796449320707877
-0.0214699946586529
-0.0085847967563614
-0.006573007419012736
-0.0035212007323832412
0.00040771481252319856
-0.019720403536549164
-0.012640837436511796
-0.012179447685382035
-0.012608609686570014
-0.01067030917333894
-0.014197437782699234
-0.01640312562279003
-0.022050565976572692
-0.02434030174780677
-0.030760022028263643
-0.022914981906405053
-0.024104136644322594
-0.011454234795337814
-0.008041690793468595
-0.018830260520524028
-0.012545715560341703
-0.010236532213226011
-0.019261396089771628
-0.021793097789667776
-0.014379755579293314
-0.018304742438284286
-0.014042417962569666
-0.021420770685556742
-0.02516533452058796
-0.02627814017229664
-0.03019072381906061
-0.026980204649745588
-0.02286041149401719
-0.018206130192229456
-0.016158397019224148
-0.0029792651916914622
-0.025384986087832156
-0.01877937299774876
-0.022728165622519624
-0.021922490134177734
-0.018128923335925935
-0.021494095990351014
-0.016582920375672355
-0.021670420402835077
-0.02654124519758917
-0.030043175229062382
-0.029479620707287383
-0.02425167759088518
-0.011260064083814747
-0.009308091795889855
-0.016013333529021265
-0.00813236967758941
-0.014369382952597588
-0.012596969200128708
-0.0026637496429471946
-0.010945741391796071
-0.017420539554493353
-0.02344085352229642
-0.008606364915437197
-0.026008653996517434
-0.030991851212329842
-0.02238296156378241
-0.024644727087736355
-0.01714587760034274
-0.00990083002150695
0.00039567847646807333
0.0004004288251281381
0.0013814032970380532
-0.010591271110962974
0.0023965596952347755
-0.011963220189407342
-0.01426028932413093
-0.013080403343366728
-0.022088507262414042
-0.02940354885732728
-0.021614383436278486
-0.02096811214256006
-0.014977328313439304
-0.018768909862487033
-0.007832625083948754
-0.005008858413183368
-0.012692305378237685
0.00660118094719098
0.0030096870133689154
0.019085223051869736
0.00910815832873886
0.014897127839423562
-0.008154678823761228
-0.010506965210710656
-0.02364474308074233
-0.016971593657443183
-0.03239964486367578
-0.029485344691125164
-0.021708697451321035
-0.01995557322758304
-0.0016098840328536944
0.0007482232074721238
0.014099772234169809
0.014890303912971414
0.02581211815002043
0.022510518971405595
0.03001306261191083
0.03266464291825089
0.011291516487204807
0.008286295330817078
0.004053935212737884
-0.018268505922809767
-0.01316709961133353
-0.02235315061430153
-0.01743903107948988
-0.013110987826632269
-0.003305423997172382
0.015777748184721344
0.016703769027119682
0.05742439287966741
0.037101953497522565
0.08410672911198341
0.16843375559211424
0.06540550835533411
0.041359998425763704
0.0236822519075038
0.007194733423160134
-0.01290345508375415
-0.02115197383495668
-0.02136835754650293
-0.018820620836879076
-0.004937980643015262
0.019544236103421937
0.01665736863304389
0.04668482608862455
0.07444036153692958
0.20529306340177253
0.7070697663282667
0.09950863776806955
0.198913644547977
0.060452960660495554
0.020042400772607362
-0.0008178314971942493
-0.019550297387876846
-0.004250504475029775
-0.011895130347371663
-0.007183892736821857
0.0031642681331650107
0.0035998785654583966
0.02879164624368235
0.030979350580200266
0.22252072057577435
0.41196573075069465
-4.097902220445852
0.8991775846214755
0.15191140179036222
0.06816240852559742
0.02571213476971493
-0.0001287374147648857
-0.008626512895672778
-0.01790503585331481
-0.011906919435599711
-0.006794008342451053
-0.0012871063121058929
-0.018715363229092112
-0.017334224354778525
-0.016373455411957664
-0.016308182361503346
-0.016742552563496747
-0.022047245123301248
-0.024951163134401506
-0.03865524506633512
-0.05225106497602726
-0.0948740459598086
-0.10715003286981661
-0.09791547206467067
-0.05446339491167661
-0.040419075060073396
-0.025877408746256526
-0.021713759472455994
-0.017479778028762133
-0.015013222124677619
-0.015174324900484084
-0.014703136489098092
-0.018192757465289144
-0.018599076765465194
-0.026784457838800076
-0.03340655126583648
-0.07529350462836851
-0.11887215348484108
-0.30208550657578614
-0.12003205713345018
-0.076812582943661
-0.034779537488560726
-0.02632278784424372
-0.01858236686851271
-0.013842464511388548
-0.014699160992848457
-0.013645578142931651
-0.014508885527938687
-0.014146496753741529
-0.016382599135992073
-0.016501741354990315
-0.03175939560442155
-0.037004090875683064
-0.22049263745257672
2.1393185095028344
-0.22686646541351416
-0.03901809625986052
-0.03203354695950667
-0.01657130936865806
-0.016834212707185454
-0.011399495204047603
-0.011864511290199931
-0.01253712069820354
-0.011381952480241203
-0.011357069247295607
-0.008768999800061914
-0.009383549233278724
0.005833829027416615
0.012286347897284436
0.19164159392920385
1.1739716711265922
0.1961773244024075
0.012639638147951146
0.006577821033247524
-0.010322518253120758
-0.009628306800311655
-0.008282249920896819
-0.00969182486172719
-0.010327941872816762
-0.01003972007428746
-0.008968972908900742
-0.007120427961215096
-0.00016004156504339118
0.007529207750823635
0.04850798986936178
0.09435287923870586
0.27212120268748424
0.09405626143957217
0.04933808439658352
0.008203976212332029
0.000167725012450356
-0.008175215498046371
-0.008547970105046123
-0.009676708143502598
-0.010306851990341988
-0.009132294838728813
-0.008845183834312239
-0.003999900337274418
-0.00016140388826065114
0.012405376537809584
0.02584241281171269
0.06933768473768852
0.08036656216607248
0.06937389526944539
0.025106974324306284
0.012687402128115643
-0.0006237670681559697
-0.004933127599629836
-0.007347152943355409
-0.009541975827219483
-0.009089678908207244
-0.010405783686285919
-0.007594420703965779
-0.00497497745575671
0.0008572164577083367
0.005622922448062371
0.01890942181200011
0.027630496511093738
0.04364697303878229
0.027916073043779202
0.01870840990994094
0.004132185370729914
-0.00021275886220247105
-0.005895765630175184
-0.00922054588062596
-0.009556743082611703
-0.010341941864425589
-0.009433803161074112
-0.008043842817908754
-0.004128874788749611
-0.0038825297855591754
0.0012928917607630405
0.005949272177856942
0.014543433171036865
0.015285048063802304
0.014676876989229658
0.0068511720037769995
0.002720296946143605
-0.003054930035916427
-0.005879997728542025
-0.009531230350832472
-0.01088182035968464
-0.010496612152464807
-0.010594634678798062
-0.007540590984382481
-0.00765519849601992
-0.00562219564545224
-0.003990330762581472
-0.00027675942358624704
0.0016241606993281966
0.005281036308216567
0.0008345785241708006
0.0006620664102884552
-0.0047326588792703
-0.005680089217668435
-0.008703490792985408
-0.01073695910260529
-0.011463748991679927
-0.012011018874658589
-0.011082958743765137
-0.01148615219527761
-0.010048178855866147
-0.010481851216500866
-0.006370619033287773
-0.006369035753341274
-0.003914896919501892
-0.005072864608392073
-0.004438266763357229
-0.00683232799016377
-0.007103164793217254
-0.00858193891462349
-0.008622398044246946
-0.011652113432779625
-0.013144726935465964
-0.0136322559799325
-0.01202009114935938
-0.012655614672555127
-0.012449597906964729
-0.012884093044401518
-0.011267859959467018
-0.009874015872831023
-0.010838646198984036
-0.010040048225618707
-0.011284656077351761
-0.010306219300510967
-0.01047358686327115
-0.012235000495329731
-0.01128327664559032
-0.014407851269946105
-0.013364797753772788
-0.0137020703954718
-0.013512454199325516
-0.013872579442433204
-0.014096120186241902
-0.014343712362226318
-0.014400336026740538
-0.015868912722333567
-0.015221013729821207
-0.016195116923612956
-0.014962453933247558
-0.01567569549882395
-0.014857993777348791
-0.015634057029307064
-0.014626672287549339
-0.015597126866496072
-0.01553290759307096
-0.014632355452441941
-0.016016714673962307
-0.016028386284982852
-0.0160379076398415
-0.01686001825273648
-0.018634919414064352
-0.01919754688204851
-0.021891964886483737
-0.022644404362911718
-0.021722276940780817
-0.019871162333955028
-0.019533326443992225
-0.017669168981888687
-0.01608987504719798
-0.017186803707843264
-0.015700753103721862
-0.016706523368641077
-0.01606950523726228
-0.017165820578560444
-0.0182036523211957
-0.02173865361071441
-0.022376664797434664
-0.026546757453722678
-0.027308627874215292
-0.030658970007672426
-0.028106369646688827
-0.026915198534972765
-0.022282458065878204
-0.020744810330194183
-0.01767976220894528
-0.017766936652262297
-0.01788440963107384
-0.016188112106545773
-0.016281624174628098
-0.01802994478171528
-0.021061487021413212
-0.022463165642473984
-0.028244816656230704
-0.03229576535354674
-0.04077267503478321
-0.040991169390097344
-0.041960287200183646
-0.032900313359553575
-0.029928605802669046
-0.023281286380260002
-0.020604395244646332
-0.019555044455118832
-0.016929347895241198
-0.017167456119968484
-0.01662210991379436
-0.018482993742962917
-0.020083226027950356
-0.026109105603254832
-0.031147336061728585
-0.04514068106378494
-0.054178963114504555
-0.07084591243844193
-0.05452325245075913
-0.04622258261650797
-0.032331683301762525
-0.02632884983266956
-0.021033313955572005
0.027321114356763224
0.027605272961020774
0.023706080554329302
0.02100817417911444
0.018521187787752427
0.015959921618472265
0.01226873615356349
0.009888302331174777
0.006923293625884178
0.004343130597707773
0.0011563141340201904
0.0020740432442445367
0.0008742148394065251
0.010599114734652632
0.018523698473221738
0.02763830929845058
0.04140332760740052
0.032221899663111855
0.029788324384188176
0.023444957031611428
0.020509502369102615
0.015373084881358285
0.011809652993617458
0.007694787415801441
0.005780850130055252
-0.0009914530522995364
-0.0040191150310539495
-0.011767336339803624
-0.007409129106707755
-0.004882151397386764
0.03321171689361326
0.03670456877190841
0.05464702801634236
0.04682342529912223
0.03425969613890188
0.027152328903574968
0.021488867309708337
0.01834558281365258
0.012241283659296451
0.008178009287628081
0.0010808006781350113
-0.004048019176603841
-0.01803010153310649
-0.025812049807551914
-0.04792908693628527
-0.012185482526495837
0.03771837187073074
0.07774008317561013
0.09918772132267208
0.05679914349108147
0.04367965366463142
0.02995300007240802
0.023680533870911978
0.016484051016102196
0.011678876839126813
0.005056286046706453
-0.0010891300537543842
-0.012549699017280463
-0.02589259719145301
-0.06987815969539689
-0.09192816179217954
-0.19540540534254958
0.2299529278831384
0.12210735134672199
0.1070209356050118
0.07250093790214138
0.041912379011535904
0.03141529982557752
0.02209292432695555
0.017579014470129765
0.009884642406502588
0.005274038240133898
-0.003014013923381964
-0.012590720754890912
-0.042076238536728164
-0.07905999041462967
-0.27175306358391893
-1.2539201850000987
-2.23306339226072
0.3035720408070217
0.0958295975582845
0.0552786159144807
0.04172520321799084
0.029411745091475937
0.023419970602952634
0.01777255941725631
0.011797770368875133
0.005612918223488259
0.00031139768436329925
-0.012729228109687076
-0.026432037452576003
-0.0672979447205997
-0.09324575042293337
-0.19334071047009974
0.22144602292495918
0.11970570895767917
0.05202552885470003
0.04652329340579341
0.032864517854942515
0.027359958043605494
0.020771351118423695
0.016559493461466353
0.010619751049141828
0.00785868938781108
0.0007480902892485822
-0.004930734527948513
-0.018177424476054426
-0.024910810084141664
-0.04756646442512253
-0.012630052476189865
0.03808623021172122
0.07628493784685852
0.041305815372860086
0.03382217247290274
0.029564142240826916
0.02345583068361756
0.02025464856494561
0.016220751269854318
0.012549680300657107
0.00793346656391089
0.005889044930374609
-0.0007133768645370567
-0.004622802735827129
-0.012957162015497826
-0.006379137450559802
-0.00442513471052562
0.03209373683305593
0.035977343407659484
0.027697757918092345
0.0285715245559424
0.02401021678201906
0.020910835456312497
0.017543153046668623
0.015946177881077512
0.01209239586675095
0.010437531736998632
0.007144847909478952
0.003902508347823318
-0.00024067400105278846
-1.2937605115112723e-5
-0.0003932702633427222
0.011667916222022715
0.017968795044011592
0.027954438774214774
0.02254160116078709
0.021707920601130096
0.021301584783692717
0.018216580065483275
0.017037042052846466
0.013714999516566585
0.013043617826739826
0.010186446532446693
0.008487496706631011
0.006548345619036013
0.004993331008503795
0.0054366075964277834
0.008684554522446996
0.010898369339853227
0.019116487935685433
0.019245068677062636
0.019404242735388263
0.01918749580043669
0.017999938439866657
0.0184273112811306
0.01620313012178124
0.014931888077182
0.013029234376239597
0.011910622823164229
0.009287804770973095
0.009124644188076353
0.008057886374619048
0.009807012564793972
0.009782907797963385
0.01357680661562863
0.01574736654596148
0.019053168689962076
0.017516403560043036
0.01745836492213336
0.017196594915597514
0.016383544219215337
0.01600594735646109
0.01475469590125667
0.013072670403624613
0.011346063171862155
0.01119722169561879
0.0091125178669978
0.01020718727690803
0.010535140793016295
0.01148129739596371
0.012829694394234587
0.015762036187885232
0.016393409141135632
0.01698400226741765
0.01789863753577381
0.017599280160504497
0.016398389765799357
0.015335309150943265
0.014725854167250826
0.013664027284668144
0.012304784191548289
0.010866203057752764
0.010216643297306186
0.009386267952235553
0.01105284615053479
0.01066352767696173
0.0137434190988681
0.014444142361648581
0.016776673537270356
0.01882519026943597
0.017947270806225046
0.018469599743193163
0.01707876132490464
0.017785404561506957
0.015135068641166009
0.01402043127670992
0.011681060005392388
0.010240731349130451
0.009149060821943568
0.010275351826140977
0.01114279920017097
0.011795866044723562
0.01244257967282176
0.014657225730817982
0.0168621201521221
0.018542756589916953
0.02059857085613101
0.019508218408812325
0.018667001708300678
0.01704421624741995
0.015541762339553278
0.01283237527471312
0.012992423462108339
0.010406234553879365
0.009045023779945314
0.007448808645838574
0.009940897795504382
0.009557604197267604
0.014140360549364196
0.015055928780600416
0.019507577405590046
0.023669542840221127
0.02190738607533466
0.022108837201899077
0.01927932064317985
0.017332226424876553
0.015072371761658009
0.011709639838631967
0.011175987690882745
0.009330490319280061
0.0055556682440598346
0.0073827109849448165
0.0059874795169482424
0.008305167103097097
0.010513032927078194
0.017695963258346218
0.01894302162381101
