0.0008828496309820518
-0.0004115483480529259
0.009338099871985358
0.009060629022654051
0.011276655263063807
0.011033209314789396
0.013829650472316704
0.013513780118468254
0.016837042536541495
0.00788953231025287
0.008978256829250362
0.0024798614346075976
-0.0012100649335548136
-0.0016058982124568856
-0.006422929466293799
-0.007000954995958235
-0.006007238187544212
-0.0016840349824444603
0.003591583314747064
0.009417875881658676
0.011769349190752816
0.01473926190833601
0.013202265064107143
0.013907794081918534
0.013417332848925613
0.013988666474034801
0.015052340014956141
0.008643943585255734
0.010195880791110064
0.006265924146999845
0.0034749298272827066
0.0021847210614659995
0.001353452296394346
0.002298096851326455
0.004752636083601861
0.003991848354416747
0.008694626339510457
0.013621281354286524
0.013229076686721113
0.013452537413696957
0.01271407944276232
0.016099183695583014
0.015170217758404514
0.012450344875333957
0.014203688975943467
0.01124022254139441
0.010502384685984528
0.008779672278371446
0.005055086364229321
0.008480448822133346
0.00670965120296086
0.005469127233055258
0.0052282435502110786
0.007182197626803236
0.0126755166839988
0.012037117630399245
0.01309758985915702
0.01740805596015054
0.01308684769342099
0.015000303848475241
0.01609517446781695
0.015939642337260307
0.014321871798588948
0.010680849600676934
0.011049430644261804
0.005629168089918075
0.007155151811359956
0.0084866275707457
0.005235196994894551
0.00706598924131457
0.008398459420051982
0.009673750980648195
0.014542812472155579
0.014225251867533614
0.012875732774225108
0.017310873070707392
0.011444035315038875
0.015939017700201057
0.017118309725285046
0.01893956311657027
0.016171756405036965
0.01450467586751679
0.009726767298124876
0.00622273059211193
0.0071522474851834945
0.008740269909175355
0.010740936946083773
0.009098003629375549
0.010467299745750313
0.00945625448919141
0.012654586915503108
0.01509689387450816
0.011855451533743741
0.01370416902485505
0.010862054034404328
0.01619670345845734
0.015219113239418346
0.01552606118996953
0.018843283195117543
0.010222697815994558
0.01242596678579934
0.010531552112804696
0.013614946338319547
0.009615391049440244
0.011399710117518256
0.012660939695407629
0.011007911965082955
0.008663766907510986
0.012848705314164018
0.010022938664651941
0.013376126278236217
0.013394243376795865
0.016479470350225994
0.019191770758926308
0.019297399826896537
0.013631609090143954
0.014829294187161298
0.010163886023216757
0.00950820252170496
0.010668739125460366
0.01222467712961249
0.0082355872197354
0.00869667471577335
0.01335590548391219
0.006203731049710415
0.009683101002797002
0.009631471272841403
0.012598964573235349
0.011060522514570889
0.013820129817250495
0.015325561583212214
0.010421768504101588
0.015618003168384883
0.01313426167851732
0.012090801844931554
0.0114434316909887
0.007445807986463018
0.0049760338726933685
0.009628899902450232
0.0075680296271278796
0.012306338557603873
0.0177042887902203
0.013592972994250475
0.0099642022360277
0.009436858410792427
0.01006966466716663
0.011847454739649465
0.017056028236185627
0.014634958241396344
0.011558889340996125
0.01206157211660832
0.01416967106279753
0.013888560318846607
0.010522676251422123
0.008480974800918525
0.004316171433323306
0.0031720412807591898
0.006181455919485576
0.02036507041947755
0.03349897839044892
0.02888008309240938
0.01717077580655081
0.009499461646782581
0.011589445187339785
0.007811962017770211
0.01528877956029365
0.013557180102733699
0.012811054065499067
0.013405235306892978
0.015097315571224033
0.012687465779909597
0.008896066689302264
0.0036395893207254166
0.00019481079436879916
-0.006682859959378335
-0.008655257831069322
0.01614340950442407
0.10556245591434192
0.055296747467988246
0.007318317144565116
0.007046420686280772
0.006261295903681267
0.001311343905354197
0.005653142780504529
0.010801682687827729
0.007313048171965524
0.013407936963962995
0.01064947899342682
0.011747987559718781
0.007393571229008508
-0.0031886942675604
-0.008581505305038529
-0.03027780177372842
-0.042058252553105656
-0.050609690661145255
0.5061439492969707
0.04884330081679065
-0.020406596803039002
-0.008602193908192684
0.00042616899355375597
0.00029499305093158394
0.004085840291035446
0.008674816452125221
0.007672170200170127
0.011525698995158337
0.013471923650941544
0.006767203582105443
0.0014562888678602078
-0.007642530008325908
-0.027709998203665428
-0.04593732526367503
-0.14732300440645646
-0.5190405421882636
4.561448420150708
-1.9375223082449926
-0.10441764167998575
-0.038323723219810396
-0.011455667396034565
-0.008355600185804484
-0.000606510159303796
0.004664247145614165
0.011632436788948453
0.009182256210559316
0.013884413153153712
0.004279849287933345
0.0018443949573278388
-0.00853730267096693
-0.029319375750315742
-0.06898207867962705
-0.12161596326994706
-0.37676036067981783
-0.9137040260074784
-0.3497708831969207
-0.12942494762812157
-0.05455382357237264
-0.02422544708483045
-0.00817005981045715
0.00024325040723364218
0.005374413999802012
0.006383020983156048
0.0102438493928807
0.009116620301817643
0.004290820834640695
-0.005999079365668692
-0.009804922454007471
-0.029389110868032555
-0.05764692867378862
-0.11263872344490743
-0.22349557848768398
-0.33475699408808735
-0.2001677404124691
-0.10762156709764051
-0.048794681217357506
-0.026364645549280197
-0.007231402083760498
0.002260824996986087
0.005475931463173788
0.008088932230507107
0.010741502335451078
0.010985314977116627
0.005408629293433694
-0.0028602549317952937
-0.007404221574115512
-0.02146086218485856
-0.04330503086494927
-0.07503547598592634
-0.12576901570640442
-0.14918052385756503
-0.12268424541185732
-0.06968897878868648
-0.039554363525793494
-0.019149228112767626
-0.001621855078102131
0.0030468190447074024
0.009553394753617021
0.013696950774188872
0.011098446180927769
0.014187917531165542
0.007472180078283072
0.003293106937196741
-0.0021709577108841365
-0.01278446847761724
-0.025718719253051036
-0.04486507283679389
-0.06425971484052179
-0.07945690128292335
-0.0629627566384105
-0.04488069224275191
-0.028197925182564944
-0.009664712793165386
0.0028906947849051652
0.008614335130072504
0.007869758829359554
0.012602187260111176
0.00814151912866633
0.007327268477434654
0.007822712899980532
0.006315321039486808
0.0011135705702579794
-0.006096564238279809
-0.014765405858947396
-0.023955589523300375
-0.0321613618775485
-0.04215173219505198
-0.03543347332743446
-0.024271779024404225
-0.017168787339142705
-0.006506471816764588
0.003419952038723851
0.010422998837796587
0.006163365751161958
0.012600270160564845
0.014553375195353461
0.012514362282457689
0.01506819136641366
0.009324743121027218
0.006587273743114684
0.002968660661776306
-0.00560159273855001
-0.008900175149353613
-0.01725556641054747
-0.02238327771363246
-0.018897969217961205
-0.012004361451740875
-0.009204450612429416
0.0005363290856808564
0.016430772023167083
0.017241101194721716
0.017922623959009412
0.019240633510105607
0.021488819067201778
0.02213792991150128
0.025504734634288814
0.01937150705803142
0.01308156692206754
0.007214072810537613
0.007042262048162256
0.006314387159067712
0.007207238613680636
0.00849122361961353
0.010433028148880974
0.012285619677856185
0.013557649916094592
0.01585308574133584
0.015221096242792996
0.018492716895181536
0.020784407183621578
0.021895586289700737
0.027275478109765723
0.03268943146820601
0.03454066653250681
0.03377429565741501
0.005704088797127843
0.003800672760860263
-0.0010116752375778086
0.0034104812356426503
0.0051258736359010675
0.007468379538587469
0.009346549043045434
0.01100167782084753
0.01171807228678384
0.013445135848582068
0.016415082579164783
0.01931530802592333
0.021620709710351557
0.023813987772785625
0.03490593507001535
0.043102200492132876
0.06757438980240102
0.055064105915937606
-0.01021241993034589
-0.02585854367993292
-0.00924557535742154
-0.004492700333939267
0.001850454573743229
0.00508609282350831
0.008362030845492625
0.010588254487590393
0.012308247938879496
0.013540229982144861
0.017173306266846208
0.01926402798214441
0.02230581501025003
0.028795774081179296
0.042513788895460515
0.07130057767968728
0.1006640209474144
0.19925293756813225
-0.13030131548537807
-0.04895093228535174
-0.0339972759317579
-0.008740377610143915
-0.001914423062733359
0.0036051623424454868
0.005900573647749222
0.010571703873167
0.011891537703233784
0.014744036399777644
0.01658571247583827
0.01879303719764051
0.024539369287707315
0.030317484922608374
0.050837125419159135
0.08136241639244485
0.25223676566320313
-2.6483195774117743
-2.1390075099118504
-0.16814271551154103
-0.03884275738648515
-0.019493094520530472
-0.0009992485975350066
0.0032284383831895176
0.006478393414132063
0.010494155624030872
0.012682819062015481
0.013823743567252255
0.015739157322702944
0.019639760190217775
0.023982881630400615
0.03129787968801175
0.04119222532471199
0.07498722677090157
0.13182563717560267
0.26914541395904895
-0.16771853474622467
-0.06903280734165446
-0.04092485421332854
-0.010648665146225759
-0.00450533535429142
0.004406811559333236
0.0068955219191075305
0.010395455027556726
0.012537735636671748
0.013972586132289983
0.015415569834056437
0.01731785411558671
0.02270635089591366
0.026306771483607484
0.035293195129531454
0.04701427913356517
0.07390039292695931
0.06301860297517059
-0.017297112202155514
-0.0308308401213261
-0.011295974622699122
-0.004727573627761672
0.002308059978355347
0.005172309192027603
0.008842473934272711
0.009802562231859041
0.01266313257665699
0.013720713381902196
0.014867319445122356
0.017095879321387134
0.019966710107625744
0.02405919782208842
0.026465656319366072
0.03465998582654769
0.035848380439300304
0.03433961498123152
0.004237891230738554
0.0016055728253980626
-0.0011550438120572822
0.0023636343639823728
0.004896415754344789
0.007417226435227101
0.009755151848870288
0.01017767259080344
0.011199848170635894
0.012457840149048797
0.014323068632002408
0.015787416917987556
0.01740887480794824
0.01903827866328425
0.022022258431370366
0.023458570288288655
0.02457528972560815
0.020521146369673747
0.015221136296607795
0.007309821442036952
0.007646683123769692
0.006876276370825579
0.007697487160326759
0.0076971883606569555
0.00914020466903662
0.011234080045492525
0.011783485148499827
0.011322092761905093
0.013685359767414031
0.014251865297028491
0.014746099921726675
0.01783556682118134
0.01830508472408919
0.019452168917545837
0.017766017574033843
0.01818673433360269
0.012598651950760433
0.011412293711385487
0.009697254549209885
0.009622894676844936
0.010074019816731387
0.011235024836403281
0.010922472105784224
0.010845042424393313
0.013178455122463238
0.013726774831685667
0.012156723755013706
0.013617739944996689
0.014676839374680574
0.015852380804381352
0.016776994635076543
0.016263017578100964
0.016407252577414374
0.015710462418812972
0.015203763680575537
0.012039005205363258
0.01082783566612286
0.010753110898454672
0.01034323350632568
0.01009136244695787
0.011092065786693195
0.010798446772312214
0.012021837160598351
0.012580964233691039
0.013056903517525231
0.013750221705645691
0.013919501750688807
0.014963897346532048
0.014987595126225581
0.015953958785336834
0.015498256342350402
0.014309001639819473
0.014320712801261916
0.012192230126970956
0.010954902816201232
0.01163356381940217
0.011315386637218787
0.011598560396745432
0.011840074909262335
0.012723164169110209
0.012972176331478666
0.012342692443004134
0.012438519010163724
0.013200632016448697
0.012673875981097989
0.014196767058172355
0.01570895823567144
0.014448894591495258
0.01458564535535219
0.013847938265776417
0.013116327023927805
0.013505975037597763
0.012747372975941118
0.011584209404187511
0.012687190209382032
0.011732620557160416
0.01172997806938708
0.012045123278690683
0.012003943732109737
0.011916450052325452
0.011382418056893667
0.011494183653962566
0.012754391960448018
0.01399537669202696
0.014503183849071894
0.015502771614751908
0.014455822226335624
0.014058217492010172
0.012898103461214309
0.013429870557776941
0.012701860874999655
0.011583614873397107
0.01252960045736356
0.011396000434796718
0.011691021999668372
0.011069787680737837
0.011987441373826516
0.012022323972273038
0.01238904537615229
0.013019675301855629
0.012892898469959248
0.013973290760206637
0.014290107016928745
0.013759055202337292
0.014018462362705509
0.014509086382641858
0.013124686471068627
0.01156896759574637
0.013240984329888041
0.011523170174502613
0.012186758507967643
0.011506100206114582
0.011800989975696551
0.011497703822443027
0.011642403657461676
0.012640492444090943
0.013707232357092683
0.013665847839956901
0.01261897542219578
0.013402270545923935
0.01422327820816678
0.015582371041920305
0.015465976056584582
0.013392497972421345
0.012525225591608225
0.012069423108867886
0.011211562632066971
0.011141913563531822
0.011307530547173487
0.010981893349515107
0.011848670608859297
0.01182211631466262
0.012989472844507383
0.013052015347777543
0.014184954261882909
0.014408507581911496
0.014204427456138312
0.015497073786643672
0.01627799775189181
0.01655242293217899
0.015182530142108677
0.013376795886771193
0.012709573926280832
0.013036830884965137
0.012820287741857032
0.010661647099661692
0.01040046479527493
0.010849160236869633
0.011438089246920516
0.012305128656585264
0.0132976951147815
0.014413907382356527
0.014074126693491314
0.014782498274340344
0.01591091243901125
0.01692479886276661
0.01940156267110862
0.019048969804356098
0.018201550097975697
0.016225843714145066
0.010869477502982125
0.011347805998131595
0.008168493067559148
0.008582053565913265
0.010397060775840218
0.0097765057958038
0.010660746720902307
0.011213382619637181
0.011152228412562344
0.01400465583982863
