-0.00014081053230215144
0.008952608255298262
-0.00016504858218870872
-0.0057272011922321914
-0.008139672580781548
-0.008548161408183364
-0.009563670307543426
-0.01013735857108109
-0.009891363469133132
-0.009126083115182567
-0.008572803436545944
-0.010486580046057473
-0.009642210758257566
-0.009829995220230814
-0.0093301039769171
-0.008704655988685313
-0.00855587982427949
-0.007314627541741259
-0.008199397374499887
-0.007935531951125964
-0.00832597509633625
-0.00931247597312754
-0.007891683139717526
-0.007333692413588038
-0.007904596535402956
-0.008048379661628424
-0.008838466729425686
-0.008536351873756846
-0.008331605541526227
-0.008836244174644759
-0.010242668451516751
-0.00863559799323275
-0.009222438657499095
-0.009613872513594704
-0.009559899060340594
-0.009591348744662083
-0.008655371061160733
-0.008761201896385616
-0.008606462985991445
-0.00867574398262395
-0.008931272218336292
-0.00964476210764326
-0.009158368289947325
-0.008671775097039107
-0.007467841184031302
-0.007306207496724711
-0.008098648949994167
-0.009144561597021907
-0.008878497899275225
-0.008807297005793259
-0.009274338320558406
-0.009504353993252295
-0.01006143601762589
-0.01014072001404757
-0.009723923956137458
-0.009888395703989453
-0.009750835444961092
-0.00905266537625709
-0.008288058800009029
-0.00844556022243579
-0.008244235522293399
-0.008028528543303418
-0.007344522068287252
-0.008356352147164603
-0.008697686388887925
-0.008932546073401649
-0.007824735477004746
-0.008311341970632522
-0.008712106140165037
-0.00919808859902675
-0.00890832815357752
-0.009298429364186582
-0.0081875264177366
-0.008561486094391483
-0.010161657446708968
-0.008937277215580693
-0.009673832599332877
-0.00980393862366313
-0.009416284565037871
-0.00968915023146821
-0.008045767106122936
-0.00864248774572735
-0.008692930232628094
-0.007317303878119876
-0.009153576440922599
-0.008492824963505733
-0.008507935540756883
-0.008578924960602412
-0.007629335474953139
-0.007323819409790927
-0.008067223274972125
-0.008113580690806341
-0.007951120004746268
-0.009571056451880517
-0.00902044406404975
-0.009824616114517024
-0.009660193889179665
-0.008611728098478657
-0.008359252158265804
-0.008605511790424595
-0.009518804844109382
-0.009864510227872079
-0.00945003629009083
-0.007815811604128977
-0.009220563394197115
-0.008038173445506362
-0.008916077037372827
-0.007861492006851154
-0.007484172720961332
-0.008339163139794457
-0.007054406181786077
-0.008183413847235328
-0.007701361994908084
-0.0077840384801727515
-0.00888720790818435
-0.009492925359926465
-0.009465273619701738
-0.01019842121407228
-0.010343464585019889
-0.009347236458791954
-0.008488938363302273
-0.00872750308384053
-0.009830494755982307
-0.009456605805058731
-0.00917151863945654
-0.009130584344071022
-0.00874299630818477
-0.00750621220803083
-0.008786001875543497
-0.007874829667775817
-0.00845806402216794
-0.007646556721026818
-0.008383725387912213
-0.007868241006610946
-0.007446314815629106
-0.008410717231810484
-0.008619936226921301
-0.009934858000897129
-0.010025898067238028
-0.011431768772170572
-0.010567961857244077
-0.010906135094763422
-0.009957839841634114
-0.009062368267790702
-0.010537959875125187
-0.01001419914531924
-0.009456718432343025
-0.008232023465244603
-0.008972688152300746
-0.008576295947355053
-0.00807882084192717
-0.00834407756657175
-0.008294041929500784
-0.006740379767838685
-0.00720434646401851
-0.007046344957619946
-0.007067631329450125
-0.007448488612010954
-0.009598220352545516
-0.011071146244602094
-0.012772243977286933
-0.013130009775585658
-0.01273856044693734
-0.011135523908061322
-0.0121747189104312
-0.009899740787898483
-0.00920203086164765
-0.008960897861731414
-0.00915881919895095
-0.008796306671557704
-0.008936274503876358
-0.008525577791886993
-0.007761435387617703
-0.007759037824963808
-0.0070119283045026
-0.005735290499636659
-0.006592211970194233
-0.006003303694995517
-0.006805901956111775
-0.007492881529893389
-0.006609112203739893
-0.012075922873565502
-0.013160310817354555
-0.014753713974891879
-0.015142349234765552
-0.013642558197111214
-0.012478682871693333
-0.011325752700674426
-0.010403989418037149
-0.010293058313954068
-0.009857644096858508
-0.008783641178744053
-0.008546500927702733
-0.008684029547817133
-0.008417258287416119
-0.007391801804050308
-0.006616083180681227
-0.005197489128586041
-0.004796618831809282
-0.004413256267795291
-0.003435488270422756
-0.005216423704472302
-0.0062929882849756605
-0.012665220222626743
-0.019215257040480452
-0.01836944505516682
-0.018115530911584656
-0.015899725425511515
-0.014483733164587839
-0.012142207312913324
-0.011043629175670682
-0.01023237913851838
-0.009514273815938374
-0.00994228583317403
-0.008880722502358284
-0.008692193125150724
-0.007717777587668576
-0.006467827460668732
-0.006642294161991205
-0.004338287912294318
-0.0027064758304985895
-0.0004635421403349721
0.0007555127082343471
-0.000547506661797339
0.004209766778581254
-0.025057272812011356
-0.025840883085863117
-0.02911373860510822
-0.023326226042990714
-0.021207325315013865
-0.01781168507705341
-0.014634175255122173
-0.012028558802464229
-0.011426234264863997
-0.009244257374472561
-0.009537820646284894
-0.008472586329253828
-0.00834500380070368
-0.006988232437405251
-0.004799734338000003
-0.004170714415519946
-0.0020381317971456285
0.0021979726854756136
0.004120994197971044
0.009992177731654549
0.0055246292183237285
0.008102262162288952
-0.032222206829676026
-0.05775590927723348
-0.04120805184804793
-0.03294761106633784
-0.024263177752904184
-0.02015189177563397
-0.015867890075424447
-0.013586213614960181
-0.010665839043514674
-0.010993328301181776
-0.00898889827272933
-0.007193589156642754
-0.007652568170502004
-0.006672034512243678
-0.004068210296734035
-0.0029931739931761243
0.0015020832671275872
0.00523665334971582
0.014127019414527027
0.019995904751982912
0.03740075429191382
0.14780788590895785
-0.19957085453009768
-0.08499709038408915
-0.07603770405336134
-0.04247839660593884
-0.0312247583372107
-0.021150928286552316
-0.01693103104313379
-0.0145038595872888
-0.011907326818440636
-0.010491839183772384
-0.009551883260346632
-0.008620249606395208
-0.007423010795324016
-0.0062742831129103185
-0.0032907569487381017
-0.0007542550155468766
0.00325269792896134
0.01144904970489433
0.02181414469130925
0.0540759882822023
0.06884787809108496
1.69858804270311
2.8028875804278743
-0.2904809372774799
-0.0886996374135542
-0.05663240791828858
-0.03167060202264071
-0.023376814505882547
-0.017689105505792866
-0.014347347663184627
-0.011916885279878893
-0.012107834669501117
-0.00926460189689033
-0.008422489298966279
-0.006175270435953389
-0.006272161642187425
-0.004502945963770299
-0.0005024335083325982
0.003805418649460713
0.0118793629723609
0.03496522392884211
0.0641830314578095
0.22290993868132036
0.21737981485583646
-0.2906282697734791
-0.11448602504324794
-0.08390031293127835
-0.044944592502855374
-0.03204019112898347
-0.02204419396906264
-0.016470113290108047
-0.01395624822001246
-0.012079488825047871
-0.011035008861394151
-0.009997843040180938
-0.008558428034709423
-0.006973910128309885
-0.00598417171994989
-0.003988813089094359
-0.0011997748375120404
0.0038639988004785532
0.012730153781674027
0.023593339214871747
0.06099190169271318
0.09501090324443816
0.02319599642125079
-0.028116328660597864
-0.06339314702257086
-0.04536924766940128
-0.03562237396238155
-0.025218662969022497
-0.020194549349779888
-0.015553142148964721
-0.01312319209697086
-0.011378135918215324
-0.010580634988577968
-0.01009003009626322
-0.008479759680076259
-0.007618783518941558
-0.006743963208423718
-0.004737294796549749
-0.002381892516966887
0.002774328303876513
0.006964705693658945
0.01650765354407612
0.025913847360000186
0.0466720525526101
0.006615555097079791
-0.025782928182483962
-0.030411514075877596
-0.031921739494133204
-0.023874227599754317
-0.021112743120316902
-0.017025823448894306
-0.014680704812241967
-0.012199080045381696
-0.010607331350616285
-0.009215047157671246
-0.009140718389095475
-0.008216753674247148
-0.007728459922032464
-0.007588073090002832
-0.006204180763989065
-0.0036831225349350906
-0.0005540247172817248
0.002837267342619185
0.005384540198885731
0.013493801452945887
0.011450270690771296
-0.004800259195350682
-0.012417353892421457
-0.019828710991168095
-0.019723588887482362
-0.019776995197791317
-0.017217822076709032
-0.015559583076374412
-0.012086006788628142
-0.011982661269121961
-0.009543651931061254
-0.008696361427976734
-0.008641732390655295
-0.008770615115123477
-0.008021675332227043
-0.007370352905650491
-0.006010793486751623
-0.004510922519000958
-0.00393953267671222
-0.0017747897414484206
-0.0001262007505744659
0.0015378405003186888
0.003078636095356859
-0.006609817382778518
-0.010746106598395365
-0.012947838878370163
-0.01432743782481429
-0.015595271138360805
-0.014451285884728852
-0.011812662946484928
-0.011217005636578167
-0.010615204773515822
-0.00976863494038554
-0.009099413855188301
-0.008576770461478098
-0.009039655326731382
-0.0076850296218984905
-0.00718362485722682
-0.007609157399498128
-0.006575388299499928
-0.004904278533250274
-0.0035511927719493633
-0.003082982463932711
-0.002364762248583587
-0.0030320456464241947
-0.008243907717760459
-0.009036843157260482
-0.011220520759627536
-0.010917648921065145
-0.01279965991923039
-0.01176942078190614
-0.011328877809485553
-0.011136194556181086
-0.009740926593220461
-0.008222680764386483
-0.009199382842179445
-0.00892863526831244
-0.007413608143846277
-0.007957693568942478
-0.007498515429173029
-0.008373671942795539
-0.006688197500365512
-0.005428015148747429
-0.005956363167177147
-0.004770446572678085
-0.00494320142199142
-0.0056841908273318345
-0.008934331395827664
-0.009911609349200939
-0.009881024981014086
-0.010848704004649408
-0.011108188612245535
-0.01002275514473542
-0.010605545230405718
-0.009977418029981498
-0.009970803369227895
-0.0089264181199319
-0.010063384737452106
-0.00733802639599666
-0.007859853074870882
-0.008073773270732677
-0.0077431533300338405
-0.0085859908561199
-0.0074173794684507036
-0.006013105858047626
-0.006998995336561012
-0.007079989074794821
-0.007084876232021112
-0.0066438126959253024
-0.007859731222920193
-0.008456163409728911
-0.00993063109375938
-0.010382118773276012
-0.010387785890650269
-0.009350096265050678
-0.00986940036165879
-0.009518590775811863
-0.00961670612565219
-0.008661896732379142
-0.008954621060815692
-0.008738506575688648
-0.007562485254612026
-0.007959370116738286
-0.00870505269333337
-0.008455573218673714
-0.008095983310380563
-0.00804764163128172
-0.008009620847053436
-0.006550892682405799
-0.007890469157826641
-0.007111395973192588
0.013644615713110889
-0.005058402963078308
-0.006013208349936069
-0.00755215471958069
-0.00014614458922256003
0.004027696805293544
0.005421844041298047
0.013113159563246457
0.006445324080392965
-0.024744933635591645
-0.00526266090133543
0.02287014815366771
-0.0012274780773322645
-0.003277277316783579
-0.001775290198460335
-0.0031675643811501257
0.011763520429700688
0.009170332027152487
0.00646827575650211
-0.017387852369201415
0.006286212575367215
0.013606362330581205
-0.0062701333876820945
-0.01765307692401588
0.0020824735994521846
0.010544275796655088
0.001992789504343834
-0.006799877938045381
0.0004910649570013066
-0.003243847131772602
0.0075462232870852925
0.003923375228089068
-0.0034236919736093147
-0.010321977503220251
-0.004345314537975266
0.0045939042505658894
-0.0031958082605477826
-0.0026065138228097387
0.008248382570517385
-0.021416689889992034
0.003032218356376553
0.0034933296823778373
-0.007246629593869765
-0.021007702921912192
-0.003042356324554194
-0.0040616272574937815
0.006961897682577344
-0.007021278383605941
-0.003220037105077984
-0.001271037051006307
0.007312728071942037
-0.003173661691284358
-0.006798543098987914
0.002784113564942851
0.0007992835764842991
-0.013808843224035913
-0.002924570768031375
-0.00037171967062055145
0.0033285258917384267
-0.004460381077725216
-0.007898040801937284
0.004711347910465349
0.012170683752529289
-0.0010469747882507576
0.014208223335463312
0.011544157197994474
0.006260661837593363
0.003005923434014209
-0.011162243563127675
0.005532850080581029
0.015119008753564978
-0.011316965893106328
-0.0023385451565730428
0.010008057160795928
0.013887117545681458
0.004052101273617612
-0.00751533574096664
0.007980114778972841
0.002590017741543114
-0.001220274405443548
0.0019161874754088106
0.012968209252038402
-0.002183659573141246
-0.005760643295392662
-0.005919663675283741
-0.012800092671101958
0.0027400545609005547
0.00417727637331955
-0.01848343688865715
-0.0017348326086178768
0.004631035308745648
-0.018126209987769634
-0.0102155310306843
0.009522421675978724
0.006604740051472151
-0.0253598204015703
-0.013722256175465878
0.013918181498074743
0.018574719138101763
-0.0012240668497719648
-0.009188884997578521
-0.0021371938449914083
-0.008310396007034935
-0.0017843436821826117
-0.006421489861056597
0.0126271394000178
0.010315977590052754
-0.0017692378914351942
0.0017553943162447363
-0.0018609800141421388
-0.02507278004493399
0.0016909452406333601
0.02175785415514301
0.018461786927292227
-0.007096838809130512
-0.004569140210306498
-0.010411745100465546
0.018524412680559002
-0.008173427828984135
-0.030699930879254322
-0.0012283676323620102
0.014792217105155563
0.016089987545230305
0.009414860608403724
-0.017102516191582116
0.004980038349464271
0.00149155814993358
-0.018889321047338287
-0.002929267135268558
0.01043063699166791
0.02065996470231945
0.011207659805541816
-0.005105794884568499
-0.010589339221962816
0.008389091853481488
0.0023350498203624772
0.01724777404629628
0.022944717092366698
0.004354083537387257
-0.012863946315236586
0.011750150771795075
0.01456652633625388
-0.0067549265555601114
-0.016430517873724407
-0.002155564494192204
0.007136259016455289
0.005871065461899083
-0.0029503141064224363
0.0024560623846959107
-0.008109745448913453
-0.006958165513045573
-0.013012840785873149
0.006023064500782044
0.013738016766090096
0.002835379557674572
-0.009205686134931702
0.004642555603951263
-0.0027119470194977213
0.006867799919499604
-0.011705220220897239
0.006119182087999678
0.004359137364407927
0.00712774531110554
-0.004535649213751266
0.01600276120862273
0.015219158064753411
-0.004696867397935218
-0.008800423299135081
-0.004558184613386937
-0.0009721719585634701
0.010366469080416418
-0.004386669304984963
0.012650811730961026
-0.00556399597088402
0.000451294350958276
0.005519619278281375
-0.002581072369174667
0.002466287038504615
0.0019218374799557282
-0.01594031476956314
0.005426673495391297
-0.00030198639141983656
-0.010812709994815803
-0.007172645690993736
0.013550093214081361
-0.005207499681308473
-0.007560065587664902
0.004261716961080375
0.0038192366283133178
0.007121484533644942
-0.011293499983205535
-0.00642340886617734
0.005883143622652774
-0.013868967605659347
0.0017890580131686507
0.008479960100527787
0.009504510533693857
0.007715455048964176
0.0012355241246534974
-0.010222114621528585
0.0016124205136776224
8.254812479034862e-5
-0.0052240109683614495
0.006956722914176288
0.003081278608687207
-0.0022346991804379004
-0.005824231127620622
0.0003033179577011172
-0.005037994380592907
0.000812855407069164
-0.006963081480055445
0.0009356838733009698
0.012642337870788483
-0.005907304534418855
-0.0062056089795987
0.016321241102400925
-0.0026375330973096357
-0.005859652761726443
-0.00014376411278001363
0.0036075270036385857
0.0013385714667994517
-0.0023070949153072787
0.0014484925623315663
0.00013225463457234958
-0.005392693303814294
-0.004792689785937132
-0.002202284482315902
0.015444478027580776
-0.0027944233353933605
0.007828324003072682
-0.001340381829585511
-0.011106142156763298
-0.012283295278623575
-0.0043524950354269735
0.0021431668317661813
0.018593284230950264
0.012417296272662318
-0.00020582939802810249
-0.00027454216177775397
-0.0054942090566536695
-0.006778697120995669
-0.004385060624655227
-0.001852468857158225
-0.004027462693137782
-0.00853924204913705
0.007596374808026506
-0.003934803953037187
-0.018638883044781604
-0.004660734125105958
-0.006215571145881697
0.009910076133379263
0.004972591091562328
0.0010354110344779157
0.0006836443339424819
0.0009620033367402036
-0.00831228156946208
-0.009040985508157308
-0.004576262652547586
-0.0068826518826810654
0.0017863898289218133
0.002036900071599461
0.013404654075678526
0.005236666583709695
-0.01065173146845425
0.00047518577173115417
0.002352341050387743
0.001074420806777914
-0.005159073026526475
0.012752837048207235
0.024005546156641314
-0.00644158673521006
-0.03503074755485013
-0.020332036606805697
0.012013767893826724
0.007967290591432466
0.01653453908976537
0.006324462269449749
-0.0019344278395878227
0.014630463822600075
0.00027214135466003056
-0.003152240798569072
0.004870203901779084
-0.011155337870902811
-0.008457963685309898
0.0016238447441831857
0.015440325235519534
0.00831279983789331
0.003739896600238997
0.009187140546825224
0.011259357149969625
-0.0015456286675126943
-0.0023134857654308442
0.01891239829677357
0.025890150039634102
-0.014589233905508184
-0.01040997992096796
0.014293980485862508
-0.0024719031991604977
-0.0016759532578881353
0.0009870849472464918
-0.006692648388281904
-0.0022518038444447226
-0.010394505545846592
0.006238421746601869
0.023110984521544822
0.004062421467247961
-0.012543480194392428
0.0019002181164498994
0.007374495712853475
0.004034291824133695
0.0054700859361260686
-0.0026813548670020135
-0.006601689067729808
0.002734043123700568
-0.013635652920201649
-0.001698453015939965
0.013305374234497338
0.010394659291799828
-0.010822185597022239
-0.0077043241329445575
0.009849732618362358
-0.01116924402936159
0.0012153533143189465
-0.017870477938655916
-0.01039616743653184
-0.009511856216556385
0.002227918523657468
0.0035958863337617374
0.008423647800542944
-0.009215594335137783
0.008554616546180954
-0.0031322829366314023
-0.0022719911666467976
0.00863978740747753
0.006005998743430471
0.010277314227387521
0.00034083405045120553
-0.015350440693763378
0.007690626514622295
-0.007318125284013599
-0.006140513124297174
0.015125131698686836
0.009344269052130545
0.005837267024313744
-0.013975860100351359
-0.017150460387553367
0.0007574005229820076
-0.0028118063156779764
-0.0046140845304761344
-0.0032327664756060144
0.0008392225418822474
0.006672234185763307
0.0057153519361104015
-0.0028747278904498637
-0.0033836648169610533
-0.0008134765690671002
-0.0051971094144436306
-0.008635873280081608
0.00477674257923952
0.0023064575193593954
-0.009462614358684838
-0.0007345649680660536
0.00237126213453704
-0.0018122411609745755
-0.00794798009176991
0.011745573235870374
-0.0003892492475718933
-0.008260603985206274
-0.00151629799590733
0.0008932065188177464
0.0011502740970973768
0.0006696919387561694
0.01027186961949407
0.0027455105650492826
0.004991138030745766
0.012015214012690761
0.018762824974307667
0.008838461648527604
-0.002495855583191971
-0.0004407666300162349
-0.006102250860121243
0.012310286722938223
0.007235212658615618
0.009243882641162491
0.00864449109391139
-0.011967734205611057
0.012006024104967466
-0.0026366153437271857
0.010218662232376394
0.007936893148478659
-0.010550008459040416
-0.002495689871244873
0.004694288585952425
-0.00026789060847013605
-0.0009043029630383176
-0.005746523585685665
-0.007654745210433108
-0.008436993965012646
-0.02091608762435839
0.005896837714855933
0.012963134417306541
-0.0007208270295450626
-0.014369349785562723
-0.0034219841769066684
0.0006776581853830906
-0.006488141526103916
0.010663104155924977
-0.0005449324749575203
0.0028608047242170745
-0.001019495566775198
0.006135601148412017
-0.0007746004091955638
0.017204577563357634
0.007849219089835966
-0.014570065304189132
-0.015475878595326547
0.014265153802489565
0.008537415685736838
0.01820095503134396
-0.0007174033274684774
-0.003576345001603188
-0.006298582520689981
-0.02435064462368334
0.028495825537339967
0.018231755648328445
-0.0022485689624158972
-0.003655650337885641
-0.0028887966341984146
-0.008024433767915515
-0.000796391519885991
0.004220258237194478
0.012178143546290678
0.0010989520035100085
0.0031843850151909003
-0.008360758425703333
0.003847050826990005
0.006935171874449865
-0.026975393672168137
0.001131173263416106
0.020526502208737772
0.008007960570092908
0.007524278528044961
0.012804703415564792
0.0007169039779425191
-0.005737223401489778
-0.01220975321351337
-0.013558360280628973
0.0027571843264475727
0.009949335172611672
0.013240342649260817
0.009153920992807978
-0.017966943261755252
0.006441788105148732
-0.015237179386926697
0.006284928719962692
0.017555894621257846
0.0015000073434309315
0.004183534007450348
-0.00041172741232028856
-0.004454676677269166
-0.011148712168434726
-0.008972978350416176
-0.012307076100918114
-0.006201870130329797
0.004012205985735895
0.005315844627635577
-0.005368932784891604
0.0005965021111007385
-0.0017496624396337822
-0.017154945111744882
-0.012720693566999687
0.0005264538674936963
0.005018056850870701
0.005156719290343968
-0.003265701747525827
-0.004973431670266015
-0.008094295380142513
-0.014169115460860719
0.007779136724696957
-0.0024635349687840502
-0.008884351848311645
0.01004170438500273
0.005288305683196546
0.011540443727715245
0.003618578054072196
0.004226721941637902
0.004690466217719809
0.004597953913931606
0.005257095916417878
0.0038426733913374776
0.004576636531995856
0.004392842155502831
0.003643081535303911
0.004110615590692928
0.004685928977055462
0.0030772405059180056
0.004162782405786916
0.0032183175716842616
0.00349654694527405
0.004218712900927184
0.0048330329257679884
0.005277651970731075
0.005302566694830297
0.004820341005494292
0.004158634949558403
0.0039310063617698735
0.004178916017541484
0.00452797014476786
0.004530952371715079
0.003716903686720793
0.003513726137905907
0.002879966166366954
0.003349073532452536
0.003654399241248861
0.0032476053581183832
0.0027178941288331813
0.003041494109379048
0.0035460606137411614
0.003584306810848673
0.004327014701192652
0.004471158907235779
0.004978566036953539
0.005483874195888231
0.004709450233593582
0.006101729492277308
0.005448222341289063
0.004251574093161137
0.004541858962831596
0.00488781681245801
0.0040865140887543
0.004574738023423677
0.0032761978894638062
0.0030190384196859496
0.0022184442944934526
0.0027325794284598194
0.0016310909936198502
0.0020360496499802244
0.0013445096491726475
0.001913671555100444
0.0027210771861571397
0.002956278362043976
0.0033446039385841547
0.004226510886943406
0.0039440186089454154
0.004702801303572097
0.004516734156567188
0.005114881444025713
0.004417229894236925
0.004695755305899312
0.005546016880986668
0.004243157712939775
0.0038678056023186773
0.0045517392010050225
0.003217895650827794
0.00097685368852054
0.000992766587108679
0.00019988811639840023
-0.00038714721143189403
-0.0005868308368346114
-8.40053096616126e-5
0.0003471827769180774
0.0004220173751439896
0.001518085759153065
0.0017759695667248566
0.003791105158142022
0.0038299126452197548
0.004271763245056062
0.004381895506783153
0.006098394317461834
0.003954578075012973
0.004487953996745615
0.004527054525983851
0.00452814373547199
0.0044151789666107485
0.003638832105684996
0.0016044251230957992
0.0006284750742741843
0.00038959701451142607
-0.001429397798139765
-0.0017310795945541762
-0.00261648362602552
-0.003256952190668234
-0.0008302931839374332
-0.00126803458289797
0.001637505370775138
0.001951660194854506
0.0030918385249106184
0.004018665842417731
0.004111173067758724
0.0038849458402493682
0.004106280660235642
0.0034911317707286694
0.003860331181638202
0.004389522356681235
0.004315989000857636
0.003826612935754057
0.002677829941542528
0.001280917486475013
-0.0008519443475195146
-0.001993155946930092
-0.0050760529645095965
-0.006378558641239678
-0.008424458967646712
-0.007620025158655834
-0.005765393969613934
-0.0034320875854471395
-0.001498690401332231
0.0009848986365319841
0.002618457232175689
0.003284410292626951
0.004013504610445967
0.0033130066047459715
0.003924621198892721
0.004379549483807642
0.0037476240608752217
0.004368850426688857
0.004107920032881488
0.003055679840606248
0.002594609595214316
0.00030505343531341824
-0.0011553673755289803
-0.005355840329230284
-0.009523781301221253
-0.015208136172215047
-0.015108838666902734
-0.01566044064517871
-0.009753674211870664
-0.006766225694420359
-0.002718507051177959
0.00036974098908474626
0.0023760331653944495
0.0035347977580185617
0.004202910629717142
0.004304836494391579
0.004983221315645204
0.00479205319666596
0.004354100554336331
0.004184545745089055
0.004339453474142487
0.0026597513892864604
0.0016799657226432034
0.0003500328141026155
-0.0037515373352944867
-0.008218649985331243
-0.01777175561613487
-0.02530432404479174
-0.03738965849985725
-0.027325465964673952
-0.020160744897631453
-0.0098087336776447
-0.0051534222692254565
-0.0011277731156665986
0.0014214351718295642
0.00283091016076243
0.003381228300920921
0.005142098968663425
0.005729706448471283
0.004617381334327892
0.0046774732860050934
0.005080623176314124
0.003826628413618091
0.0026074108274590836
0.0016674226959254644
-0.0004858940628313987
-0.0037918054953280543
-0.014013527126226208
-0.024615606548522705
-0.05774755516117148
-0.06631411483134732
-0.061565629591232116
-0.027100303166602082
-0.016015905307705025
-0.004644309577774379
-0.0019369904364029522
0.000520919547089807
0.0023426993204776177
0.003552502947846172
0.0038632176439676777
0.004971077970176612
0.005421254791869318
0.004967433593086163
0.0046689240945774505
0.0034698123783628047
0.0029668150689318865
0.002532693756825327
0.0026356437160022857
-0.003318830216185697
-0.00997987131476716
-0.04549934835752901
-0.07473239592767442
-0.22254549306418478
-0.09288647118498573
-0.04556821691362667
-0.014209079066348133
-0.005752783778820909
0.0003182014843391483
0.002480235649992706
0.0029720693630800035
0.0033247056006952182
0.004651806726239846
0.005232282641980776
0.0039324962336255605
0.004813262144601424
0.0038175667090244022
0.0032635825416244242
0.003563712833079299
0.004897184693596103
0.00345556872448829
0.00297286435360063
-0.009233631594845713
-0.016024609636995712
-0.15099307082752214
-0.7372675419833815
-0.19864071965832733
-0.02161209742005712
-0.01037897874877099
0.0018134623274564698
0.002226710252810128
0.004404671446018138
0.00486500175629696
0.004199456997164498
0.0045854317778064825
0.00468696309651854
0.004824666133355144
0.004730177217518103
0.0047527447881648525
0.005018737423611626
0.0052156717589892316
0.0073741085153482926
0.00792335880134302
0.008457581022955036
0.02221367780299616
0.029439712380860177
0.20256060181426064
-1.6359745603791986
0.2588757376042305
0.02925614820742601
0.02242968081830686
0.007603746178580597
0.007807187121936271
0.006126884120473376
0.005545794902149131
0.005083173976911131
0.004632470247482477
0.004736760574279141
0.00456992703939925
0.004509829676037115
0.005022443333539308
0.006166074185231394
0.005315069399590697
0.007862799424258285
0.009183247513972745
0.015468568614696076
0.021476560561577047
0.05444093085487666
0.0838693676749491
0.27567600085098837
0.10950249816617105
0.05935577896621498
0.02538379036330978
0.015870897008380017
0.009469404267535135
0.007483725655341268
0.00658709128361309
0.005829449122465509
0.004389869184774575
0.0050320617930878575
0.003867670969849854
0.0050296384372082335
0.005206822939258122
0.0060533396451611585
0.006993701431307526
0.008598761418271766
0.011122964355581527
0.015817141418926192
0.025954881077041102
0.035680765506484025
0.0724555458721878
0.08512511200323439
0.0767650655160936
0.03984021190085377
0.026010550455334597
0.015581116499810999
0.011085438651808261
0.008407698386759291
0.007280767227321774
0.0056049348239307
0.005610863659149521
0.0051799705080522234
0.004723227275714865
0.005450514189481936
0.005038309843690784
0.0061476367438072395
0.007414565454484819
0.008766845560250395
0.010613174896770728
0.01496665000195133
0.019102098181875696
0.029716962405367017
0.03794365947945315
0.05306981857307662
0.0395135638956231
0.031749485440788185
0.019891896632379287
0.01534499943829775
0.010266961934742634
0.00872486492776167
0.00658906841861349
0.006014266719682643
0.005391470609596487
0.005421107561467263
0.00502947031970749
0.005530367346618457
0.00582459079728204
0.005581754825679422
0.006407102328570792
0.008266771787350366
0.009803772828595902
0.01223922885865207
0.016151377086344943
0.019725348803699895
0.026147679338112934
0.02772429566410398
0.026877959442906493
0.021279460695017134
0.016490226137559794
0.011467420956540662
0.010094821447591195
0.008316159035296018
0.007137787032878427
0.005316059340578173
0.005708144467206354
0.0056356512115278
0.005635611636539442
0.005687549133048846
0.0056049399779596635
0.005004025700684909
0.006137726009247351
0.007685503727753504
0.00776694595414009
0.010594528353369199
0.013369926931874014
0.015479258683046641
0.017715354471970535
0.019349556656625598
0.017140760359134505
0.016740432636784208
0.013848724775199082
0.01069177880526336
0.008783769592783743
0.008139406668845347
0.006688226493238433
0.0057862511032228114
0.005808167239047425
0.0052558698618734925
0.005529904029866631
0.004745974837537871
0.004980877242182118
0.004559806750815808
0.005653215474438929
0.006873520957455153
0.007185378314154311
0.009477343083764597
0.01025744632692684
0.012170933841470045
0.01289926406381286
0.01379570284840552
0.012563408256439302
0.011747848134899812
0.011043334329511264
0.009915536346730432
0.008702290503444439
0.007678486109678017
0.006094472655385643
0.006076274897042979
0.006461602918942324
0.005390071479027625
0.004521584326132379
0.005351939341946713
0.0037863741295484604
0.005611244633227214
0.005734283665924821
0.005356050383883429
0.006775345927442619
0.007777863013751997
0.007863529100904286
0.00941013278580175
0.009060631977695749
0.010095060076608276
0.009156739447912354
0.009402377167083592
0.009166527628229915
0.00843291420629589
0.008330017396124215
0.006907050695320652
0.006765905112363705
0.005879008392521875
0.006055183759592514
0.005541185717399958
0.005365355459096477
0.004346377437404182
0.003930223762984015
0.004632735557557915
0.005506661390919657
0.00586633776638451
0.005309024500202974
0.007081165960178239
0.007400786706221525
0.007104240076995552
0.008239273893558236
0.008088214008835169
0.008559922597014302
0.008123515864614407
0.006952267891522224
0.006982898401475689
0.0063994025398258336
0.005068089408319332
0.005280293337242534
0.004373786245236062
0.004825198854064343
0.00539600273478861
0.004499925077950266
0.00474933771263617
0.004092303436118747
0.004501958503119515
0.005217086645210145
0.005734777319207939
0.005394590227342177
0.005443171736945845
0.0056289581901822466
0.006068801563044119
0.007645287537389624
0.007153552690189418
0.006438618297610033
0.005579998690944796
0.00529496266344276
0.005535541118530517
0.005642148146612249
0.006081616242882897
0.005326279273840329
0.004773344994830361
0.005342833457904882
0.004952607828115201
0.004957411980984516
0.005233179139322389
0.005478844260289289
0.004791410115044625
0.005690675481253938
0.005122337046906928
0.005793113556288648
0.004562679030541076
0.004557763248475793
0.004775439928502347
0.005024945524417718
0.004890516876623485
0.005271777649361955
0.005617596450172364
0.004142798187562246
0.004036907057083978
0.005224484949415043
0.004514845833029679
0.004766779483063798
0.005527374048776222
0.00484461230782602
0.004043689332205165
0.005016992017654934
0.004973816491251437
0.005235868624326652
0.002275422918114511
-0.0047224589726617295
-0.008291289507945821
-0.0008259234623355532
-0.00736448659826887
-0.0067208867695629825
-0.007865876167179068
-0.007270837100150281
-0.011452485628279033
-0.009968933233601932
-0.007366430120894524
-0.010651622387677967
-0.010873395213810443
-0.009153706201844969
-0.005691161550300358
-0.002907375094148265
-0.003336890427446921
-0.007016557413750798
-0.0005248314817798566
0.0010318326212622442
0.0055943713992629256
0.011409058363251776
0.0002901472757192887
-0.006933645695856409
-0.004748725478740043
-0.005640334335466573
-0.009618261817432326
-0.007519744675503472
-0.011109337874793759
-0.00967246757879876
-0.003320123021749117
-0.008978697858314191
-0.007078330422255783
-0.016761209685247132
-0.010727178010711436
-0.014976761105652221
-0.011165002415576511
-0.008382560764532027
4.413790158923304e-6
-0.006640471624789866
-0.00666081558171955
-0.00959603789242119
-0.0006396837451090953
0.004064180212912257
-0.01005573238782375
-0.0033699503989102824
-0.007841613406412125
-0.006755914736237845
-0.008045626916509944
-0.008365726612471997
-0.008676793444571911
-0.009857421718686109
-0.011906712239215272
-0.007472135355376523
-0.011094171336563676
-0.004967687178362969
-0.006657048235917326
-0.012277867742867394
-0.0045987396146528955
-0.005549145082437677
-0.0005276152504543226
-0.009451056627219278
-0.010357986678720201
-0.008314143166716512
-0.008657813265007737
-0.006897886694181814
-0.004706609293889564
-0.005023661128765727
-0.010444641159456551
-0.006144249017348859
-0.008198329880304174
-0.01103516058846266
-0.006847480882346681
-0.008168584175713641
-0.008372668561184647
-0.007587102875167194
-0.006864351368240128
-0.013604753355811584
-0.008082593190258485
-0.0037988984565492712
-0.0074907550583326425
-0.013317542321191065
-0.006491085614590345
-0.009911932049313673
-0.01386683413870589
-0.0191487061820441
-0.020418147960400868
-0.006345192512795937
-0.007399627266420858
-0.011432173592165727
-0.017668164736266406
-0.010305661388676172
-0.00810615395424083
-0.013635443665053808
-0.010820640086147568
-0.011382184933589463
-0.007498105437223465
-0.005498661916589869
-0.002627789514037798
-0.010391830063755474
-0.007238455216846308
-0.009471517511632546
-0.010893246740280098
-0.010803339875781793
-0.0029847473695690445
-0.00189714150674992
-0.010569304777649079
-0.013765600574505167
-0.011092413811847708
-0.005602382807094976
-0.013301462576062368
-0.010199451046472432
-0.0058049928428829615
-0.009441078284027756
-0.010816133838842348
-0.013955820529988226
-0.010381801653825923
-0.005372634274736051
-0.00920040399585522
-0.014703902393345722
-0.008110799687477507
-0.008576232989769669
-0.010730467503657706
-0.00805168719015429
-0.012182505159337002
-0.01021939359133652
-0.003955178878639594
-0.00140793380502099
-0.009755210266160998
-0.015643239472668064
-0.008317985784568393
-0.013470416002108245
-0.010420205886632184
-0.008732911526269841
-0.009523103323569572
-0.007785683828651871
-0.01216147027962164
-0.01436497657948031
-0.011523036228150872
-0.00784278233343297
-0.010079510833673403
-0.009325102751136766
-0.006632753543405045
-0.010391677697539792
-0.011397212223244127
-0.007979283477391099
-0.007390938267342177
-0.011607974787139232
-0.008480159767376979
-0.0032544956892174405
-0.006886377969786482
-0.008073059327475948
-0.007769492184981236
-0.009334183256145566
-0.0019472695927986875
-0.004000050086926857
-0.010564800602941779
-0.0030175943157980467
-0.003324191552427142
-0.016096201695738187
-0.01532956494413499
-0.006823060313910032
-0.0071689549677847585
-0.010732666373886052
-0.007663893587426751
-0.009146263148959709
-0.00740185871231561
-0.003246155293376591
-0.010658563853156803
-0.013097561135341279
-0.005958753452305289
-0.006598168411030357
-0.005512911668912372
-0.006388006201777542
-0.011372709693249498
-0.002105218304618541
-0.006748262335330495
-0.007408709507499101
-0.003916869668079164
-0.0036719041980220984
-0.005946539407703332
-0.015596799371744926
-0.01573683403510392
-0.007851200780317572
-0.007965154335658187
-0.008093878811990763
-0.01025962647846015
-0.008247433155897146
-0.01671100961679417
-0.014674977346735701
-0.011350787189447183
-0.004791846977544922
-0.007567309915232181
-0.0037517134070316283
-0.008381022691989889
-0.007250409320140092
-0.0012325751090046235
-0.004552485778712232
-0.008553083051643779
-0.0051126410870247305
0.010594470675089708
0.005760238263685774
-0.0023900145385358997
-0.004758757865546307
-0.01035548459591021
-0.0053031261913125145
-0.009410948514948465
-0.012668473133852099
-0.011822149372379263
-0.005002415061694644
-0.01196163484292128
-0.012577532077143638
-0.00986999419840084
-0.012019094587690599
-0.01065149716832423
-0.004392715575795524
-0.006338154325720216
-0.004952586469909627
-0.003203726051868177
-0.01202301840088773
0.003270435289125894
-0.0036133219207304334
-0.0036932148526536467
0.0009480484111206572
-0.0025048612708286682
-0.004297936743887811
-0.011701962061970793
-0.011257276013710175
-0.014738305881784722
-0.003996293399051053
-0.007233464691211301
-0.00992884882384706
-0.0060157936776434546
-0.012300170823627813
-0.004522758000652746
-0.009711956617593463
-0.010098698147199695
-0.007973601817793365
-0.004095353626624691
-0.0029706835184127632
-0.0003299464187892171
-0.0028666639651086755
0.004040718819859007
-0.002462131781501692
-0.0025177796773245037
-0.0005556387222011535
-0.001668832879307981
-0.004423687349697799
-0.0119840034137452
-0.0054830481515844446
-0.004297691702313455
-0.0012024191458372495
-0.008603721889675904
0.0005440254748944572
-0.008562298046136703
-0.009779107267733973
-0.013987235694850964
-0.006776848775702846
-0.0005942231485631421
-0.003365491875874896
-0.00019050824940368655
-0.004064512998933474
0.0009819155262488265
0.0050573478030438625
0.007322110461874442
0.006671590849375659
0.008095213539711446
0.005802177322809205
-0.0008972204298331684
-0.0015403694023513272
-0.008777471605184294
-0.010406840674576328
-0.009736167069501455
-0.0026799282229541805
-0.00412380294341812
-0.008602469096026782
-0.010693176874443773
-0.007251968889157529
-0.003872146205018653
-0.010217800828531225
-0.006381444503300424
0.0013167174796819166
0.007236730527991878
0.006644150705159056
0.0144244553192546
0.016313626487300205
0.03703993342708531
0.02310533923016886
0.02165156824972741
0.012772741541163694
0.005562912392537766
0.006164803321742194
0.001371053172132917
-0.008555767900055595
-0.0043235670616714765
-0.0037159460145852587
-0.010237840625146627
-0.008518810461279402
-0.007288182800710564
-0.0067481332031261825
-0.0005572080181797578
-0.008266796821416376
-0.006875014269396458
0.0019824550297044396
0.013769588938756495
0.018383323159417805
0.03372771571374698
0.03389148223833066
0.06843663138319643
0.07330416200820708
0.035708460815594485
0.030531877859847904
0.010494742375393195
0.006004688295657966
-0.0002706801493922689
-0.004958788562980925
-0.005291551113988875
-0.012063204578745854
-0.008565830265467471
-0.007346459432584272
-0.007182390006483342
-0.009454293089547115
-0.0008118324808053848
0.002306639092176216
0.004227711160673064
0.008409279561565014
0.006893512990091244
0.03166503314111131
0.04014748806449328
0.06163116884092424
0.231108475259173
0.13780496873923823
0.09365232254286626
0.03090998894451357
0.013670091320594055
0.007002242932399761
0.0027512491685005446
-0.0010033898564942934
-0.0032740801480917485
-0.00854688511640964
-0.015133196469484324
-0.012602217835025156
-0.004715261169659749
-0.011740448105206209
-0.003628046018178366
-0.0007791444305976934
0.0041515901728775935
0.009434360218485208
0.02070078272087651
0.041201692604809714
0.07635243070096702
0.07645727129660874
0.32672656242461534
0.4494274402894613
0.09462689924639146
0.06416477638090858
0.0198233166690585
0.014917532951878577
0.004223549063554084
0.004150007733526788
-0.0057099680719671
-0.007585598148269045
-0.01147442439061325
-0.012764158740671728
-0.0064819541667073995
-0.013279762885317112
-0.005637171803864733
-0.002603469236364583
0.006098856597808027
0.010298129770287899
0.021231536366036256
0.06548985765881749
0.012133215625116576
0.29839237964321214
-3.7264797379380967
1.2035826109358008
0.11404740451407373
0.03361485662260821
0.025440667967273258
0.009374392822868428
0.0002578611435534084
-0.006425712233313965
-0.00924274660085983
-0.001984348975745534
-0.009324421228718148
-0.007820550524428017
-0.0054715415656791935
-0.01422703153260653
0.001158423473720961
0.00352861272076816
0.0050319283846740805
0.01218784692539005
0.03743562878330627
0.059341540741813026
0.20603752289017238
0.4949521258148976
0.3375144811425092
0.11641491061878646
0.14874418384479002
0.03934159743927711
0.013168297745036913
0.008998952970748965
-0.001794439292159414
-0.0030892882765837493
-0.0011856772228462853
0.001819181858236533
-0.012366596457329551
-0.0048983428783956826
-0.0042457150080246015
-0.005662750248463631
-0.00505369232948088
-0.010920645915897196
0.0011873889034572688
0.011176111391788202
0.024935756824972746
0.05847805126206802
0.08789012413998544
0.11297900033508657
0.06788968437315614
0.04692802447462787
0.042409701669479695
0.018913172126758297
0.017758204197243357
-0.0014901802282571179
-0.0010820605170431367
-0.006569090153836221
-0.00849607954477388
-0.003232024946257902
-0.01015137149566476
-0.0024387445153059876
-0.004282350689256232
-0.006068492765216699
-0.005927420724824846
-0.006774859409071181
-0.004057920940770898
0.007647159051378123
0.02702114257340861
0.035584281191092436
0.05314547680493563
0.040917340476508746
0.020739988605037837
0.03608220283555513
0.004196283559539936
0.003716268754623579
0.0061292463232689425
-2.965250240187251e-7
-0.006995510904448268
-0.010184077454492605
-0.010483335913826204
-0.005527895440237546
-0.010598806607875325
-0.008644536226810657
-0.007326773690857689
-0.005799611307791247
-0.009688719282745315
-0.0005494923074001773
-0.002044206380587019
0.00036100130882033487
0.003656198149305679
0.010366365987903015
0.021457691377512873
0.03366483512825545
0.008388327824383398
0.0012744362650536944
-0.00011083334056099278
-0.0022163440703387317
-0.0074622389447321314
-0.00849937108794692
-0.002546335717382062
-0.003370542918265126
-0.014375436288288832
-0.009852852372879268
-0.008325700592105844
-0.008687907421405856
-0.006807771536352778
-0.012513219836722937
-0.011380617352352525
-0.004832429257255652
-0.00955439135190823
-0.005878083819402889
0.0031538098881583702
0.002914348189539723
0.010569539804913531
0.009171436451174807
