-0.0005775693656222759
-0.0001847766901784732
0.0006379397040100446
-0.00021582992805863044
-0.00013359327539839505
0.0025554428181562153
-0.0005227025557017962
-2.023530256806724e-5
0.0007026172616362076
-5.961257087304405e-5
0.0012730733368131102
0.0059590146207493195
0.00014507762778722354
-0.0004717416718667121
0.0007201550449425192
-0.00023700164212367013
0.10292495788570617
0.1504071343365921
0.11506618748891685
0.0609995352566835
0.022119711437927538
0.03547001298346895
0.041937338334621974
0.0769204435552029
0.1552421418095281
0.22899014716441715
0.273048720277765
0.03807811941042792
0.01692301788934476
0.014379813595368959
0.0515107601030171
0.08083264087178235
0.11419236383911058
0.415588762515457
-0.5384071943097346
-0.43659508418866894
-0.09831762627734462
-0.008902133583647423
0.021075041325352904
0.07771375412428014
0.018073282459969357
-0.21208600973692182
-0.34091271911599735
-0.2517248521784146
-0.09115288167063935
-0.040706365071613675
0.011334831630140516
0.017415618517835373
-0.023601311955297296
-0.08098116340736335
-0.16671006931387874
-0.12731234680735493
-0.0777826885342809
-0.02098879658361728
-0.003911852708375578
0.008908266770682006
0.00555920038895416
-0.03680852757378668
-0.04983749367340469
-0.061833595943915104
-0.022948484085687493
-0.012426508864047042
0.011090185383108384
0.006765063767782265
0.022856666194108883
0.030373563801156387
0.0013257381763359555
0.006278596247344918
-0.002969163891905801
0.014622364213739223
0.015426916441433949
0.030946729375199107
0.0707564925433493
0.07215561134915037
0.07270366203964518
0.034228421502000825
0.029029700121527606
0.02128809848095982
0.038109063360356916
0.04514819249790933
-0.0443517324528291
-0.09411725381992463
-0.10805465769061019
0.0999144855759171
0.11074425922175844
0.07184776215763619
0.03368440273131272
-0.007248718450784116
-0.01716030918267785
-0.028000174372808422
-0.01903443380468588
0.05256255390183556
0.06105508130352423
0.05056910467100775
0.02516071728491666
0.005941351333105312
-0.00030422329098153884
-0.006788774624646165
0.010856857086771268
0.03771286716606911
0.0510365668039769
0.03995778295325717
0.02930321335027694
0.0094980922526661
-0.0009723137720910723
-0.0019041829825320465
0.013284124649722428
0.05205343013837364
0.05545941711910004
0.050268551028104284
0.028888116824681898
0.014058523436332048
-0.010684050617906704
-0.02350713677509839
0.001730136150204956
0.08607666627294124
0.09438342410286991
0.06357193525283318
0.03878924665220155
0.007257173534206619
-0.03896616203832648
-0.08109976582940827
-0.08304603753107809
0.2384302841487474
0.15577352487709842
0.09911083169565621
0.041441866450420764
0.004174811813761335
-0.07596392832837814
-0.18290083309150001
-0.6781015203418383
-1.0556466400641882
0.2810835676831878
0.12242439106887923
0.053917789750240266
-0.012821493053087099
-0.08028767123968733
-0.1707009656352651
-0.36528943086443555
0.6361511442914509
0.21432124118502657
0.10889957059012945
0.040125595809782914
-0.009968052485799564
0.005310236992540914
-0.005234403877848035
-0.0012076244665310185
-0.007786156116626935
0.010179513934036325
0.006619734583507084
0.018891346692939296
0.002140472298894263
-0.007234083955288197
-0.0031495216928159524
-0.013877071776122322
-0.012283190189058971
-0.02243990793973745
-0.010169739591442307
-0.01498203275007345
-0.001810419737344506
-0.006752289354037942
-0.01736542927408034
-0.01819725325172135
-0.03705728399092624
-0.04152307243535191
-0.05243572165256404
-0.02859753961645252
-0.019962752970178587
-0.021453479362460223
-0.01679148708645051
-0.03791174585546096
-0.05362307177027063
-0.11025433781570079
-0.09725937586060791
-0.061609302811652444
-0.011168246081433875
-0.0017503302762106178
-0.027182770134545797
-0.039993495779929444
-0.10595166322057437
-0.16619517053537533
-0.616796635696274
-0.031341817597467174
-0.010749969706179736
0.008999910689913543
-0.005184343051735404
-0.04632967013164583
-0.04455029615375203
0.8017016094793268
0.11052437932024359
0.4001747426213952
0.08551774008012093
0.018842165818262514
-0.0067595363476373295
-0.0052754492526150545
-0.013573846009794749
0.10012848165707318
0.03643870404947664
0.130965687469781
0.035149992043750654
0.0018185672825055872
0.003119547456784059
-0.005841984745101706
0.0077164980418675325
0.019802156578721985
0.0571030503424071
0.03559907379687469
0.027569909012898523
-0.0015188067247735833
0.00657622228622534
0.004876718101466196
0.012239780960991686
0.010575235543368543
0.015239545166360575
-0.0023641545050287135
0.0020194205433038434
0.011969759442027158
0.00619846011092219
0.010262148077111224
0.006061378583897569
0.011813592581716598
0.009952864053215396
0.017718223468253275
0.008918196737665175
0.014954646717298197
0.012331072217553252
0.005304452491248224
0.007823995782934485
0.0018749451134601554
0.023199605173269224
0.024487119748457558
0.029254640379726225
0.025278422444068405
0.009238992389765357
0.010179333939964603
-0.0020551085016766116
-0.00883662265674995
-0.010828958345874584
0.07459939254698933
0.03792070342765815
0.00745787014057727
0.01013027436719711
0.0041033030321328025
0.00484761742470802
-0.038503451235561655
-0.90846815007518
0.4984961359321611
0.06201017823475591
-0.015242212724309305
-0.005357454207473771
0.013630589554481555
0.023700979669239203
0.07779582825024091
0.48991423552212837
-0.5484996807930254
-0.09737173298352211
-0.028176296358688777
2.3781658047316353e-6
0.007190842675895023
0.028453219264752333
0.04917982628016576
0.09819851309058195
-0.07712195964950305
-0.040166115756635576
-0.006157208648437128
-0.00181199460496173
0.01058140941308895
0.013880286860558097
0.028322730757082654
0.013381869730771899
-0.010162627845978826
-0.022804420545264947
0.020059860417210692
0.016809179961326248
0.0162613117913294
0.013575285673326724
-0.025030603584248072
-0.044225908852018235
0.0033299781480156557
0.020443098469565397
0.02788098598218642
0.02289231156800942
0.02598380978168429
0.012891274897867285
-0.23145144967550246
-0.2678194927506283
0.024295931138291357
0.03751828741722092
0.03560700681170932
0.027029636886416113
0.03882376006778272
0.06412868471234577
-0.45893423689649654
0.5776512318223685
0.22516691601875036
0.06823724923508612
0.029306312063127827
0.015328885713246173
0.00879217013841406
-0.028039594865926446
-0.2158056634960861
-0.16257946967801826
0.01362271457367017
0.044002934491672356
0.01784433006035383
0.012452911418674755
-0.0007315642994647773
-0.019339212745189634
-0.07208981143209268
-0.04665380513264197
0.0018176440110251111
0.020796966302431795
0.012055916083750493
0.008966989336020569
0.0031735961889197473
-0.007005316206577508
-0.01954707249402888
-0.01441069204038796
0.0034007222691417125
0.010678727288222696
0.009626209251368818
0.008264599791388204
0.005143387480840132
0.0026697667732664657
-0.004200238763328645
-0.0021399165398840866
0.003926543473363051
0.007768093684702902
0.012505402739668109
0.012889050464727424
0.011805415320358876
0.007016289375193545
-0.0013580067909615562
-0.0030783688370504183
0.0017343737343417948
0.00926467220751523
0.007740469830411297
-0.027460292272044714
-0.05073981052161119
-0.05622133902959731
-0.0038995599455981635
0.06689054002366807
0.07125359244854505
0.0396238797804761
0.006871307985198342
-0.03444193156019217
-0.08255516737955883
-0.10688848287173475
0.04948254550360823
0.11677735886261423
0.11542360315007927
0.06429531716492078
0.017237611801096862
-0.046221800554477
-0.1046669429935202
-0.18646947512145065
-0.0032538949917288945
-1.8020004420404487
0.2957775821877355
0.10454609831319814
0.007768377275178678
-0.01999832834196746
-0.05515458858496338
-0.023006047043917406
0.49585575183329733
0.06831076754523625
0.10273102500671087
0.06141702392286518
0.013593738531924651
-0.008353337126356853
-0.004495677184545512
0.01618146954159141
0.16795387621035743
0.14481293574051557
0.09122265166364434
0.03673794122281315
0.011924172828776993
0.0018746329133918875
0.0034220948683230893
0.028046226338407077
0.07895679745615207
0.0859368490970327
0.05713200222988893
0.03410533758184208
0.007657805876308807
-0.007921996611523372
-0.0052135470309842115
0.0011529096920585903
0.033360999891919145
0.03930082875142508
0.04722553044704396
0.022632368408965854
0.00448667747132692
-0.009565509540256693
-0.025143194405398927
-0.02200980624645482
0.002305772796135504
0.035645577355448016
0.039256699176915245
0.02815242242919524
-0.02930489318733714
-0.02710889115920134
-0.014590294154715414
-0.019557984108158025
-0.0052937202168409124
-0.04563218191635356
-0.030475228981884702
-0.04214070725825182
-0.04319174028913368
-0.01722279638334855
-0.011925345820899207
0.020230788552874863
0.005971343080392536
0.005114134788572142
-0.05369906935197012
-0.03398591162188499
-0.03733435914632043
-0.027772285772740792
0.017297591156035356
0.0319642086894682
0.0999163016933625
0.49101801278614343
-0.027227493687339916
-0.07095499417220154
-0.06423765084343477
-0.018650424609547682
-0.010460557304192106
0.06217416569774549
0.5416437311993841
1.0908037573762666
-0.17768258068144863
-0.056627027838443894
-0.04690400530715727
-0.038117643291817875
0.0018827941849872565
0.013365622753356817
0.18975130820062905
-0.4315921342229774
-0.1217668617255448
-0.10201166860742181
-0.05406222389583662
-0.02791601499147045
-0.029106601598078218
9.681028345313522e-5
-0.02973502883599381
-0.0925447140223086
-0.10495993054733951
-0.059925376221884
-0.03729224211491724
-0.03655900223825146
-0.024519890180601328
-0.03111702291449696
-0.02919847442147286
-0.0769412599030257
-0.052028120409893866
-0.05523445408936841
-0.03771013981962786
-0.023427180435345765
-0.0305175731382423
-0.01770284140604045
-0.04077258695537434
-0.039270961060449056
-0.050547752709088664
-0.03557272711121004
0.1975770287239992
0.0634548307242272
0.032751127721128266
-0.02413208896968277
-0.05615861426291164
-0.23369182510877146
-0.970435930127547
1.1270668074821029
0.07397351114329816
0.060741064103065213
0.0039036822156384206
-0.016713463523334034
-0.07994284152837183
-0.13274750658608117
-0.2651722519387768
0.2007971070405695
0.05491166666740289
0.019066697069540398
0.008646238341529479
-0.0268868086513298
-0.037552529147781975
-0.08745819766801785
-0.06443424785328318
0.003131126562762476
0.012432037652745677
0.01704719689100774
-0.00537967390999274
-0.010367377372490006
-0.029387983194753074
-0.026413347952228286
-0.030537291478384725
0.02456734949128844
0.023710737440192656
0.004512333329947971
0.00484611747370406
-0.01584160937620695
-0.009449420106672336
-0.02176202721256846
0.007960031913681104
0.008273319755950815
0.023193855191637816
0.02424513907464961
0.0012528017291237024
-0.0043963648492710596
-0.018946746373392356
-0.004767383641922226
-0.004703126262435815
0.0399233500905196
0.07001347168610458
0.029956264928215647
0.018379159576890538
-0.014232461557611627
-0.015783427609095176
-0.03770992560949089
0.011367793337132897
0.034875931018364004
0.09437887651356401
0.07430747807503428
0.013853743262002153
-0.0061708824506116885
-0.04877274947252048
-0.08783838367670987
-0.2542630691058555
0.24563168036123834
0.06528108198160892
0.09873084637435446
0.19064146426688536
0.25888910736812404
0.13187711782933276
0.07318978537075294
0.04756965479258876
0.04536913704686321
0.044019385843558814
0.09968761329399327
-0.7502113991677635
0.6122559987134619
0.18238398321644841
0.050690059922593
0.034493876840804925
0.030439589902023
-0.035575115110506074
-0.19277305383852564
-0.3442006044264158
-0.3404169373489088
-0.07894447438045013
-0.01764347851400743
0.001298938486542547
-0.006707690387120677
-0.04695408117315978
-0.1095473739078665
-0.18839666285620357
-0.17907955673871329
-0.0731496456893739
-0.030243828459048806
-0.010468391771707697
-0.017856938804660303
-0.02658717854864607
-0.054427598231596125
-0.08138365072037439
-0.07755140120589442
-0.03593649380660694
-0.015663393596186233
-0.00729202175944186
-0.011641445179718218
-0.00463727884629871
-0.00857814800373061
-0.01865320000659267
-0.009318335055385993
-0.0011745984295039487
0.005193530188619666
0.0074239558546266545
0.003500968054191142
0.022352710699977345
0.026972270995913494
0.033113997194532944
0.0418500512842694
0.03819544670084785
0.030837859439586574
0.023747159147366567
0.0216706698104897
0.04659317087428797
0.06347344808660148
0.07894292041061127
0.11318866937929076
0.0842482205465425
0.055296146117945616
0.04014674270445824
0.038448397218978664
-0.0765799530262378
-0.03266540107897476
-0.028850044028793705
-0.007326162456589487
-0.053383376095282715
-0.1248822671076816
-0.15017990783957638
-0.09212678608783101
-0.0684190343682898
-0.047796362124765526
0.001198047494541426
0.006455398291405121
0.04711589054045756
-0.26240975921896353
-0.21060209392530366
-0.14912694296785226
-0.0861958632450526
-0.013940637100998363
0.008635351608043997
0.09561626429868728
0.508317427143642
0.8428638612797686
-0.31767898444485826
-0.12391252480838114
-0.030478677641000207
-0.01579805747685495
0.04872720952867094
0.11888760592676123
0.21558463150592405
0.3916062598020678
0.022192687715638766
-0.06785877340497469
-0.03289285245156901
0.0046179109684080805
0.021427273290345376
0.08921607970041474
0.10646535605903547
0.11097651364621153
-0.016188571819999928
-0.013085419420324566
-0.01728820526304729
-0.016908813173268342
0.014383051449048391
0.019214757682199938
0.049247961690786594
0.0022354356077913503
-0.005380215434470881
-0.03523258523738617
-0.04231204616342729
-0.01572413236762828
-0.01573880634623479
0.0028687155942199913
-0.0182202319752714
-0.019626569416168253
-0.05113557490757838
-0.03540436766597231
-0.044494916150888644
-0.038278809039409875
-0.015982324017924498
-0.028831204349157404
-0.026134854696187138
-0.08974784257204792
-0.06763798413594237
-0.07569575578583576
0.06045092914369598
0.2577175691459369
0.1781050834713349
0.36575086489797154
0.053573790439430065
-0.07996421062709165
-0.10394928844213057
-0.05995927625659622
0.2711371217432454
0.3357817688665993
0.12710100677760672
0.42789680955088893
0.21488840490335595
-0.00814203465826301
-0.027732703651258718
0.06208717649947571
0.2203922288178216
0.2191290462987254
-3.1544738992258177
0.36732578335654603
0.3107518274668725
0.0475012275567157
0.030991087042557465
0.13795517789017425
0.12116011702210347
0.19431485075774088
0.15544466837463022
0.26303211728616277
0.11503826035527441
-0.01587495579972633
-0.0026054064259584887
0.04601944245120362
0.03637502223207177
0.14064420520981172
0.0882070151000377
0.08459583666042289
-0.0018455999792625728
-0.02822126956442283
-0.04427001453308611
-0.013752327364071712
-0.03521764768745476
0.016328192158819862
0.02509413947775084
-0.022533718631035766
-0.04746889672439641
-0.07973838300236344
-0.10832757679715738
-0.06967744196784403
-0.07780692888612806
-0.03761260920241726
-0.0023276812567652114
-0.05247515346381254
-0.08792502963787402
-0.11979112261231249
-0.125116753029581
-0.11340794358604692
-0.07129105011814146
0.05168733789033272
0.043890498848184696
0.030017268756316186
-0.0716652065875452
-0.1202417165524599
-0.1262333215780034
-0.1281367088362366
0.1264752441674544
0.2762998807400852
-2.614938469859947
0.06249254073335383
0.055728388924412356
0.017450564211305877
0.023142460004925876
0.07054518892597728
0.11315978823372595
0.14844350889133257
0.2840293113817712
0.0805888680659503
0.0617321722915734
0.03743911947137695
0.031281026612740716
0.05025311529877622
0.051183263352037316
0.08941639376325322
0.1023066870529696
0.06269874716725694
0.040875571212382014
0.030910018951432576
0.020433153093958278
0.03672909395963133
0.0256596006878929
0.02054339483683977
0.025394429754383087
0.010370395130607475
0.01402932839165379
0.011489967428668405
0.009274936426076113
0.011032399062951243
-0.008279900652486542
-0.011245175030030656
-0.049497217216979895
-0.052901216201690804
-0.02669205048490593
-0.01633601573938139
-0.00760844850261641
-0.0033399198299699073
-0.0034451191631890187
-0.04946842341938238
-0.047713656954275485
-0.1489489961186932
-0.0886080468592749
-0.042936857012247455
-0.01900949991013252
-0.008589068467702085
0.02182032933658323
0.07417964714682086
-0.01781830650941088
-0.2350736578531344
-0.10497862767221962
-0.05406915147764429
-0.019638253022406765
0.008216471531944242
0.13777358087431293
0.2283810244951212
0.8206884244811836
0.3652136228429489
-0.08771005051011654
-0.03302298803093861
-2.3329941518415416e-6
0.04158979046764879
-0.017758648767103872
-0.0069768624816571164
-0.01368873803610205
-0.005904433202982537
-0.015701405209457155
-0.005928338079833223
-0.03524802298942605
-0.008558508016748718
-0.006371700088506332
-0.013031902836550122
-0.003184532887989965
-0.01634903456715749
-0.007385876165554458
-0.02866470855196106
-0.015308385399473762
-0.022929789676715478
-0.0192378911409687
-0.006674683333264812
-0.012749267683909842
-0.008091140185329462
-0.023821483127407207
-0.012163392460446822
-0.03761507777996102
-0.013096742664811102
-0.006552279887664244
-0.021197578980432456
-0.005791558392804666
-0.016782664821871886
-0.004254528237099765
-0.04327191067427464
-0.02443840893682794
-0.036510843382144394
-0.02627224164066973
-0.006537337509944735
-0.017002520685078414
0.006243298855745525
-0.013400235185997686
0.0677941454530195
0.9773454402214629
0.033583434520814734
0.017629819186972793
-0.022886374043191698
-0.0017411544096370374
-0.01640484133766443
0.05322065014842369
0.5631655811810459
-0.8534473500379332
0.02664772140599487
-0.030081394749919596
-0.005216259148538954
-0.017134224725134123
0.005378845637614851
-0.001595085861378309
0.13503443966181636
-0.2685335714845245
-0.0024055997836802557
-0.008887290456828748
-0.018668999004256115
-0.0041191277314033175
-0.013421954945157227
0.010188041997585407
-0.014565277449662673
-0.022795896532608967
-0.03617434318422813
-1.2374630949829877
0.15384531735563903
0.06403209100888263
0.018368484910662973
-0.01367136604663145
-0.018228150472540887
0.04444837157348308
0.4533733941805937
0.22371630234019893
0.07469254007136893
0.047777313321248474
0.02087573788807824
0.013537245060897062
0.03765568463811547
0.12701882651807742
0.07022059632619489
0.05987337848342621
0.044713685157551385
0.028318011190437028
0.014635425231921038
0.014250061617183788
0.0276039867679875
0.04639156574763787
0.06857747673496001
0.02391805124890716
0.01759660374327427
0.012824999221107223
0.005852882538234372
0.004235474099675795
0.004899600463118593
0.012783334734509176
0.022795339326632517
-0.006651267151541306
0.002469465191885977
0.0032498050509523146
-0.0004381080211417527
-0.007024136252821677
-0.014490167926489685
-0.022866645092775747
-0.015399837833464181
-0.02989821877885278
-0.0009695766352466457
0.0025508536151790033
-0.006035102880036537
-0.01923527851889528
-0.03471645945806695
-0.06362769449243301
-0.054762947746224075
-0.03728177847324152
0.002878050584426719
0.007596895280911829
-0.0062474524305803966
-0.025493224350307427
-0.06908738182197183
-0.10841304667154673
-0.11540031545037382
0.146931328903921
0.040436101967047756
0.02974134788142933
0.0049050471985953945
-0.031118432806357114
-0.0854258882707602
-0.167629299572978
0.13118419514209687
0.007418460680839799
0.00364185262461553
0.004937235021279273
0.0015881948203260738
0.0012129642808165846
0.0006141867799842645
0.006919668433898848
0.0036152029169425693
-0.019865815393547204
-0.017566241730532426
-0.013965102963944756
-0.008866984540120004
-0.007374660349868355
-0.00532806826787016
-0.008764472577290836
-0.009842841651300008
-0.0337510619366201
-0.06729839605178538
-0.049675837483390675
-0.02513128921183445
-0.013985147386896392
-0.013427724404974951
-0.019844484463643786
-0.023518120745997562
0.28870076320633775
-0.19200846078416317
-0.10264741141671427
-0.03986071177141878
-0.019112473483317526
-0.01232801596476361
-0.015111462163545003
-0.04087486444123597
-0.13064864633928763
-0.3742590144944348
-0.07504755945173455
-0.0363509185488581
-0.011329618672372387
0.0042225843151137655
0.024509272241056663
-0.06277626689973499
0.2078234772903012
0.06919214694519543
0.022023350762966087
0.010045887021823262
0.01032601476179499
0.02680505521554858
0.06891181844528446
0.12975205247957175
0.13792818603949888
0.05663133581315127
0.031095595892781158
0.015180235818308666
0.013653262221444726
0.019656373314212796
0.038283887393608565
0.06631020147562972
0.03827861180708671
0.029638545272106184
0.017062765343754487
0.011142969931796769
0.008796320025106004
0.013616203245782442
0.019294785125973296
0.030732206794017825
0.024669763282322302
0.023732415778939243
0.03577537237782047
0.037891680165510214
0.05115828706039627
0.032606136209511895
0.027718091106756014
0.015856181861266354
0.022556746587688328
0.038872219022066196
0.0439489082293309
0.09079982102546157
0.07186944734495182
0.059191477232040664
0.01949091642709486
0.030302974585099705
0.03436916511533163
0.045296595761732075
0.10483497395627928
0.12054636436435373
-0.8056051526939615
0.025527223156896275
0.010376176953430393
0.014373634261929728
0.023295150549702374
0.07071437322692946
0.08677057608893521
-0.3175010265871687
-0.30021441197614007
-0.3763418504904922
-0.049336221660612696
0.014121965708193003
0.029377398869724996
0.03501591968129725
0.04920698598260268
-0.027606679073974145
0.030485013459715913
-0.056653479615853916
0.011300954091272257
0.013193389185259525
0.021905582322490534
0.032416328400830925
0.029592559255228666
0.029997611451330387
0.009952203256341106
0.016645165710428626
0.012528204905862829
0.02749522353069314
0.024117878566506278
0.022036535011835487
0.03187012213650247
0.020330846934792843
0.025725777420221363
0.01317728579891478
0.024514359973912308
0.01779051817668706
0.017036588969800533
0.024836553397649917
0.026201030119284385
0.03350055550550704
0.025912586343997495
0.02928119104819834
0.016964706491604902
0.020283108832334553
