0.0008049258017660272
0.0008340537900819998
-0.004741363312994804
0.0020644100371547207
-0.0030588825794459146
-0.0016672264211230275
-0.004556703903646675
0.00029902051385187565
0.0028726268518296737
-0.000982029825744114
0.0023691998902191807
-0.0006503441593447446
-0.0038038113049616157
-0.007077168055491788
-0.0011373718231940876
0.001236717705676842
0.13187397815883584
0.4426668568224162
-0.38830843747274546
-0.1068847120595616
-0.014166408896424326
-0.007590171660116042
0.002068171518889142
0.0004195046661977607
0.015600271840576036
0.026823096106605413
0.03312727331199948
0.09136840534224269
-0.1065199219882885
-0.04193920019312413
-0.028830188602541565
-0.0060223215072766996
-0.004110679567446403
0.004489449447406694
0.00463044403052296
0.025717390227333867
0.02234945193830304
0.017153575372471922
-0.0025681669747670186
-0.018122160199991626
-0.005486274819094939
-0.0070745404752823576
9.677313080188628e-5
-0.0013889828726005638
0.005584642461713185
0.007709762688398375
0.0040103782343596794
0.010007154828734351
-0.0046557483900314025
-2.4856171610724892e-5
-0.00694132399893726
-0.0008055314906468319
-0.0018813991984716473
0.0014708298343498079
0.0006344437120396915
0.007264303619080945
0.006473333157281194
-0.00031718948927153046
0.0044359748098076485
-0.0003402758611144479
0.00041157453141754094
-0.002356506889983803
0.0010056829291612039
-0.0014956446628291318
0.0031871470095534834
0.0005320776225729379
0.000932458227058406
0.006969838827076718
0.0005999260345991853
0.006088465915407844
0.0017522282562991358
0.002553022463883241
-0.0006900947695757441
0.001969493615250829
-1.900813573083623e-5
0.0033664326976914705
0.008696456225299076
0.0050979024952501235
0.01648352250838509
0.005658469868022857
0.007448369505254118
0.001675383011811327
0.0022897103628527274
-0.0005046520056725392
0.0034268843725821117
-0.00046241449042067306
0.004955660382603951
0.024168045920203433
0.020943669850971708
0.025666293725853453
0.0076065673512505875
0.007378791923473792
0.001125012286276689
0.003403935529200886
-0.0006312020531535255
0.007315310252734431
0.024840389460303317
-0.008397410596001518
0.10953812386697541
0.03175546663332217
0.021690908474204816
0.004382145265026386
0.006517995904768533
0.0008135524808580769
0.006742566247931743
0.0027354234592403236
0.001122185690789001
-1.0882491133166876
0.38016301156205984
0.07850566325103996
0.00475885551763374
0.006839715815893404
0.0009577724047502133
0.005310938375167482
0.0034807853628357507
0.02424523999382207
-0.0023337753996851645
-0.00543830292481975
-0.0038413848593244018
-0.006588404829721076
0.004632181618645821
0.0015318653046080388
0.004199452151305263
-0.0002056291890349222
0.0008726460133831769
-0.0035636038867290685
-0.004268435920157828
-0.0014967852382913908
-0.004335003006507456
0.0011687094185941754
-0.00044768157696549286
0.007096701458353624
0.0014902420772569046
0.0033107943054419414
-0.0014520961478641388
-0.0006680396693224721
-0.0001808405606986798
-0.003016494785485709
-0.0012279052490650451
-0.002219589404627426
0.008031079647654002
0.005265637260544565
0.008283684510009274
0.002325399219858859
0.0019443234973698438
-0.0017790198151681816
-0.0041634632661816506
-0.0014831554379676442
-0.007128606718109231
0.0060029852716464065
0.008960713648227698
0.020755485316028978
0.007613546171500739
0.0067100875718428725
-0.00017007169908332098
-0.0005763064974474553
-0.002738327922666103
-0.008306720821561657
-0.003171518837909439
-0.008194946310744817
0.06255091884262387
0.031050592704768804
0.025389674309192943
0.005955602690922782
0.004065303083151074
-0.0017648540912321082
-0.008676719924249008
-0.008882631481725823
-0.026347268948817417
-0.05504388070903098
0.26639525626945787
0.08017188391919286
0.020243093559588154
0.01574628140652108
0.001071188560082868
-0.0006922254986339693
-0.00682188369227141
-0.020528980046746793
-0.0374006082337681
-0.13455832015597716
-0.8233969989345048
-0.014940180787759067
0.020012719950778
0.005465154744324562
0.0053605419111940715
-0.0029553922617182866
-0.010677985012967777
-0.014255151100377162
-0.04426699985291952
-0.12065732120987722
0.8957277837443552
-0.020641350143476973
-0.002096925984971122
0.008564819886548466
-0.0007476490373645662
-0.0018456036735033283
-0.006501558611478555
-0.0176499086832031
-0.015931535700851047
-0.03012310188054592
0.023264120604763645
0.009207626302159547
0.011566250407920657
0.0012486795747820218
0.0016821063038710265
-0.00458955148586308
-0.007803533386895783
-0.0071523651709866284
-0.013165448191937908
-0.004792857814959832
2.2786311867685873e-5
0.012516394036203271
0.003593031076034383
0.003874790512016594
-0.0015802537690253128
-0.001056979933615595
0.0008807766316509123
0.005082277491386978
0.002912294112473721
0.005574292994214147
-0.02055095559134524
-0.04441322541969453
-0.03985820244173029
-0.04623268177908742
-0.025349931974047748
-0.0025161350775179383
0.002756503710225051
0.00389343065039807
0.007598309047344103
0.007358136735220118
0.0010913529759187099
-0.13468391470759006
0.046973648332421486
0.24053511839927463
0.006915746440893268
-0.0027520725512667
0.002086878167536989
0.0031366686250677246
0.004685661691673187
0.007329931949277419
-0.015394991589009728
-0.10936726459545262
0.5092550651049625
0.06358035865818519
-0.008100162635581375
0.007431290191750427
-0.000904885939037965
-0.0010577235593529717
0.0029822485341273537
0.0017938687695091729
-0.016913634325819778
-0.056978816202990175
-0.09077617364066798
-0.05036910057447571
-0.005625607406686877
-0.010539123133922048
-0.0003765183562956105
-0.0001872016499474739
0.0020722861445285064
-0.0004873564961588757
-0.0058321666487451485
-0.023525050145700593
-0.04136539148473754
-0.021264711273858816
-0.01206341149024765
-0.00574425836324125
0.002756106485982792
0.002890119607038095
0.0002170207744302339
0.001805751858066709
-0.002770229973839725
-0.003667144875927979
-0.011198922127914903
-0.008495343224114882
-0.006491008292976282
-0.002081844918059968
0.001383619873788824
-0.0009569109509985143
-0.0018709678698871006
-0.00048670741553137685
-0.0017543917404689055
-0.0014356792124065364
0.00153244049204231
-0.002016886021797702
0.0016140555507752272
-0.0010894010135587076
0.002340681552461647
0.0010332521941616446
-0.0023215239069378025
-0.004826339305083104
-0.0010176224258776245
-0.000598793835833043
0.0014455467220747553
0.0007941965192459518
0.003596974455775506
0.003349627450732196
0.0033386468997028346
0.00030614978668321236
-0.0033605808389558034
-0.0012497363830735165
-0.006540378955556072
-0.007189765221466159
-0.015494588342995117
-0.004665048607485362
0.003544064734131707
0.005715607233344244
0.0042949389267491565
0.0035306790041460213
-0.0015500726488046565
-0.0032988806085782374
-0.01006924685392203
-0.03867081507189902
-0.038920569369336466
-0.03201470179800256
-0.008368325868379961
0.002287471033288417
0.0024393475560204295
-0.003165692967118497
-0.008444013514400783
-0.0143140627001404
-0.02211763664573648
-0.026088291410559235
-0.02977901732623469
-0.02105536974460142
-0.006894548297511889
0.0006920730348139575
-0.0013849510105196166
-0.005314058886719914
-0.007576934435251993
-0.013455808793899748
-0.017896927588850718
-0.020801076138266275
-0.021086294720992264
-0.015461314470127734
-0.005171241825507264
-0.0018265647715146347
0.0011145772592344688
-0.0019791909482622756
-0.008519638048586296
-0.013126070031634553
-0.01881599618231369
-0.021756088001551207
-0.022116714900712053
-0.01569666526727059
-0.0048777060701613445
0.0029176478541159743
0.010552421309764632
7.67504977392604e-5
-0.00908234164812848
-0.0171552320242564
-0.02272174043510575
-0.0321908212876291
-0.03410754489803536
-0.02461235875723842
0.005082317413951151
0.013510486176868208
0.022538378710516768
0.007530967283912057
-0.009566136420927242
-0.020995568400279517
-0.037504650262638245
-0.0540083396877982
-0.0804613665633405
-0.056651643240499684
0.028413941030432387
0.04493666592336583
0.05313656910071262
0.015770141334751988
-0.0038617403730910236
-0.02668737967662634
-0.051343024049330534
-0.0950702081127275
-0.15949796503158994
-0.20071284040361023
0.1297797380625756
0.1024963739909115
0.07854716925460324
0.027885546761503118
-0.0025110208539208343
-0.02330931814552864
-0.060387630455591805
-0.12482851700065933
-0.28323644638876183
0.9379494157038152
0.482972419154945
0.2054192792310406
0.07678921438684697
0.025290282616997728
-0.0005827362424708605
-0.025327974045290996
-0.05455107927815253
-0.11905447735799463
-0.2274582010755475
-0.41728441105778585
0.3218933459630849
0.17110187647535993
0.03788024421501354
0.01414503814915516
-0.003765683572810304
-0.019177838898856388
-0.04248927577152452
-0.06900520339853236
-0.10370497036211584
-0.1171653153121516
0.07862994783344987
0.06650829962680088
0.014628623365637512
0.0037357697874801756
-0.0061862522529221005
-0.016959280397870077
-0.02784469253695179
-0.04339867884245604
-0.048976957829881325
-0.04237362231518342
0.0027542963800084525
0.015813193796608307
-0.07623315790690964
-0.03662515477138887
-0.021329501894095867
-0.012493706438377127
-0.009542708961302356
-0.003178727766637045
-0.02937353238182879
1.4644356086550068
-0.2521418572578148
-0.14129468673454368
-0.06186242632412729
-0.028367725583155833
-0.013051511440038981
-0.0013282307547281573
0.010885162920096333
0.05117530175687936
0.11115143058026396
0.22032636716987467
-0.3105149204971444
-0.10387452773502755
-0.009332123953009025
-0.009187961296565243
-0.005328544173299025
0.0028416317995393096
0.02521364231149565
0.05816599559328408
0.139113170604821
0.12973158645679614
0.1229009530870533
0.0381176223403858
0.004808928197796725
-0.0014735045778718461
-0.0007348819550419592
0.007487205995961589
0.016128969344196973
0.04166004585443894
0.07195077413061894
0.0997557209366383
0.08624723238068314
0.02678165579146773
0.0025330004186702414
0.0005983876457828605
0.0001829128052443422
0.004121640308564432
0.010137414548377573
0.02025958553998232
0.03526405132631756
0.0406274884625511
0.03298693450787955
0.015530906721145748
-0.004889214914084769
-0.0065115328377304575
-0.003955953526011238
-0.004783231041245168
0.00106465020890825
0.003350670499511797
0.007852212196837507
0.006586062689328075
0.004287300624024315
-0.001031447853035741
-0.016896460759933788
-0.01062799861802226
-0.010240893693133794
-0.009014284435447623
-0.00799322622149397
-0.010529954640127091
-0.013512042913915006
-0.012306622897246199
-0.01684873981925101
-0.013821500364383718
-0.026208798149163874
-0.022619495788496907
-0.01499023741316406
-0.015965766021504926
-0.018578590022301295
-0.030397065122776103
-0.0408909606553317
-0.05167136227735871
-0.035404914244081646
-0.0404475834703566
-0.046708137098589425
-0.025416315067743354
-0.019250239431319587
-0.019397912505139708
-0.025249925889048303
-0.04218389791983903
-0.07719548504362023
-0.09300960689652306
-0.10200234527819725
-0.06285297194214297
-0.05660051665072962
-0.037822295228262894
-0.022650796844104034
-0.018416874391139808
-0.024752682696877533
-0.04557918937080368
-0.10589266310675347
-0.22944146853437886
-0.17092978242034615
-0.1207018481064332
-0.013844452977088507
-0.021980012649703576
-0.06956288745471849
-0.13681112868195622
-0.14934964143340104
-0.08779995348133435
-0.05685741735632172
-0.02516150230261107
-0.01713138729400399
-0.0075338123793581855
0.001717303037415116
-0.014212335485771757
-0.02219637430741432
-0.2953168975462182
-0.2869573992363231
-0.1568492977014595
-0.065061091472517
-0.0382830351987686
-0.012418732912879869
-0.006867262022066712
0.021367209304867425
0.0765443458147203
0.18575688215442035
0.5651523014553134
-0.5458223466460622
-0.14112694331443668
-0.06502835528652261
-0.018716473556878534
-0.00833639446342484
0.010478309386442014
0.04185654151151837
0.0681570311221574
0.16869347403350818
0.2580872394166566
0.2676171556628446
0.03926466567954568
0.006750885294535432
-0.006470355143903735
0.006193680816055997
0.011027470700832853
0.027406195444330882
0.06642400916557875
0.08996391085490431
0.1514811772073307
0.10782828506494496
0.05470869160028119
0.01595331789081423
0.010816206330037027
0.006631497065352919
0.020182859115475106
0.026083866153973383
0.034900160923769644
0.062054651043859176
0.06324933912844381
0.062373778751173725
0.027752210608585456
0.017077922297669926
0.006825398148375353
0.010466272872496926
0.01260121634929937
0.011815298512603963
0.02163322111345025
0.021902305548678124
0.031270544191361306
0.01956869770837114
0.01629261288198897
0.003712217318881452
0.005728651895228328
0.004837305957254546
0.010836973666199665
0.006367943111393762
0.002896072596431311
0.006549718761772213
-0.0011438475104019116
0.0008099975350691199
-0.006325588577454173
-0.0032806754561166508
-0.0033246017773642853
6.395007940904703e-5
0.000504992844767896
-0.0074279588076423255
-0.008579078936155133
-0.01983201093697434
-0.022016623385247142
-0.02901018959693245
-0.0215750145743628
-0.019875558877225013
-0.010382283744981294
-0.0073964828930023745
-0.003352723264185536
-0.008800831873458535
-0.023234971404719036
-0.03579544704353999
-0.06896339442417669
-0.06153806335922537
-0.054823805986754404
-0.03298783065323316
-0.022983009652472814
-0.010676151084383861
-0.010314330938385935
0.002804609764880026
0.005711955399647204
-0.0005790678478705541
0.003389069924185875
-0.0018751415387012291
-0.00454144189379878
-0.02260650980739062
0.006072721696903571
0.0014533261792692412
0.006715972302520747
0.0048803400437028716
0.008097651204090523
0.0023883789280833155
-0.0292998100558095
0.12497946785293358
-0.12387807252638196
-0.04280675396180712
-0.02059046070178707
0.0019630246920105668
0.004061150022201816
0.0013905002878723497
-0.007213647664444831
-0.04220420382219955
-0.1696684812080452
0.2479311113834707
0.26959712824528265
-0.07834088321830272
-0.011990288080631193
-0.002480274533527446
0.002131078185870578
-0.000641171826054065
-0.004532473351427473
-0.04338881746570997
-0.06595957032092721
-0.19159990828136092
0.0610798564993275
0.0355576814811041
0.011169584557415606
0.0006084504174093797
-0.0006737717599468453
-8.521735473518042e-5
-0.00356936973600169
-0.00801091363084614
-0.040825538162690585
-0.03068739217838293
0.015085962810050797
0.02070131410898702
0.005713925958668392
0.0006422427319169835
0.0011233751843552407
0.0015483607923720756
0.003065506379478872
-0.0005489438009429593
0.0011544459384175726
-0.004703815442615185
0.0017741857539307106
0.0034040995405100107
0.0003051423010747694
0.0015764509480001468
0.003470210340297007
-0.00039777144619363466
0.0026810916067797415
0.0021581119180620004
0.006447049259292854
0.005837225649353351
0.0014639707714584537
0.0007305183621228914
0.0009109955047714779
0.0034273980418494457
0.0017967422383754648
0.0026671751049262417
0.0014284562728135847
0.001436154888505177
0.004865414455278161
0.006117749464413085
0.00029006254928040003
0.00700750628395267
0.004237851754044398
0.0023927406988008917
-0.0009750014449408646
0.0007294775567772151
0.0014139502826015092
0.0005807201191325924
0.006654185713109632
0.0017988379267687103
0.00890530180832172
0.003953098606258704
0.004232532151839523
0.0028990762870827725
0.0032153786434024312
0.0012333238622810427
0.00026422255881469964
0.0005547695905260277
-0.003906179775358574
-0.0011603655829885364
-0.00418374748472265
0.005927457627146901
0.004368826474546885
0.009844667641630939
0.0033046824150904197
0.04238077470760184
0.09788934124308422
0.2019935169635276
0.6902576771338221
-0.25438630835699316
-0.11787265079341287
-0.07471429439959149
-0.01707005092237393
-0.006003185455741609
0.021537501806596457
0.033801520239921834
0.03553699463568338
-0.0073880631025802015
-0.20158580129050171
-0.26528324092723937
-0.1381660554096405
-0.051571292780547076
-0.03011180903155808
0.00022114857657740816
0.008045060819353099
0.008049891093635334
0.018140027140010305
-0.02231766315629501
-0.06597064125138512
-0.1303693393816402
-0.05075024820611614
-0.04420814655081018
-0.01250574871318222
-0.006820437679981828
0.009229913357890283
0.009379463886150602
0.0008510226131949848
-0.005197001135847262
-0.04377074679346838
-0.031239561503337957
-0.03913977755985252
-0.019144342107998744
-0.01508936019691818
0.0012061753664621602
0.0020977648491536985
0.0014392959037253272
0.006001534721845701
-0.007688521684597082
-0.007423193166865959
-0.024414570884599304
-0.014310347786158003
-0.01720682788237195
-0.002258091593028637
-0.004589437293416268
0.006420031019226016
0.008753045510956167
0.003039978137179031
0.007367047139198897
-0.0034147026147799218
-0.004015383277877854
-0.013785433681315006
-0.004509318715944936
-0.0051057594716765395
0.0008936322474446045
0.002193726556113755
0.007966935467482603
0.016990622076769477
0.012956651977692907
0.015224231955108025
-0.0016071880041785393
-0.002292782969772847
-0.007000341372555364
-0.001449262612949805
-0.0015496327391263556
0.00860962105783189
0.02131617230765649
0.023597542084871647
0.04253154781800458
0.01620707907833138
0.010782041984701559
-0.012165419753319731
-0.004119718410146897
-0.00870724880762579
0.005211038921206309
0.008508883938726324
0.02766070099189535
0.06296919237864268
0.08456819895132098
0.060351085005304624
-0.02932665584243847
-0.016750658506937476
-0.021631020404158225
-0.004143937908536274
0.0005131957302862172
0.018431018023815856
0.0528303005749223
0.09656647805542493
0.13738987894533258
0.18155040321642235
-0.11991990720523475
-0.07178407620029291
-0.02862088874967261
-0.02054960142398124
0.004008343585794841
0.016248446051048835
0.004771264419427549
0.0071841090794139565
0.011443788714963127
0.0018005193922124656
-0.09359965496829216
-0.5209040351994506
-0.22220900319852394
-0.08233568843410853
-0.015248255589549
0.0013235925035857327
0.0006955449730167287
0.0009634795965860559
-0.00011526003613779578
-0.009925429362514983
-0.04714473055788554
-0.11125912467774032
-0.09451368834385512
-0.04452015677944251
-0.01766187282790944
-0.005859020809601549
-0.0027424029966637803
0.00019062529356409148
-0.004074804435048499
-0.008895722700925443
-0.028498285713984908
-0.0384075633403496
-0.0412354301745922
-0.024860011293271554
-0.012833465389182607
-0.0039297761633099925
0.00042626265111761133
0.0005104757485012782
-0.001012687308675191
-0.004487117516329638
-0.009660183490975485
-0.020279784997541177
-0.014990502057844437
-0.011398345752186375
-0.006698666570318664
-0.003352615446672164
0.001456665690034595
0.002757952660783219
0.0015681290494051943
0.0006341011755776069
-0.0023937952062752827
-0.002637157396677571
-0.004369310778353745
-0.001979305257858587
-0.0016942638237319079
0.0020028242688574713
0.004723047782266829
0.003362812119019269
0.005730758635138942
0.005508902347783595
0.01243864589414818
0.00916608010955665
0.010843917685643432
0.007140382176300601
0.0054307323338142624
0.0036826120241080433
0.00669155629292863
0.00959574183704699
0.011693652092809906
0.01898292394540946
0.030998984863819697
0.03360717592030775
0.028320750105116786
0.019483903939238763
0.01024911295273837
0.0074152349254712315
0.009415753595217404
0.0101220843032623
0.021695131042608225
0.036086418231605015
0.06761056164717977
0.07303083332064857
0.06673326366280369
0.038593667387668104
0.020435450906581852
0.009500426443890628
0.010322532732585175
0.016252370357885577
0.03017653782753417
0.0647570120960205
0.1429498621310967
0.23086969337600158
0.17490960890772764
0.06286672926857068
0.02460193965409199
0.012601029912601156
0.00968002526096326
0.014313728867741283
0.03530385729543822
0.08310249164949378
0.28896123680004665
-0.8057289602552109
0.38282370959810863
0.06929131276225592
0.013567433580287298
0.007685112967059965
-0.007540346052894469
-0.009363332561600596
-0.002583880681579725
0.001624461831145768
0.013380977067293584
0.00956942744997341
0.010509024319192569
0.002579769925029849
-0.0025285917546593803
-0.005874172489065721
-0.012775027768413029
-0.013248321528082169
-0.013866146551808073
-0.008454914523772856
-0.00828311685847757
-8.89928507049026e-5
-0.0004768355792397509
-0.001315482963880726
-0.006644691649589163
-0.007931156774635361
-0.014820339449322362
-0.02242621467037539
-0.021945596775794923
-0.027507304489080394
-0.018653715077243532
-0.014359489242321966
-0.004530938338928435
-0.005998425718204264
-0.005445597514506473
-0.012772760522536697
-0.0233997598185298
-0.02929114155016822
-0.04114062626073146
-0.04484361979527035
-0.04655930975153072
-0.016137739685681607
-0.009452677044018927
-0.005039243059686147
-0.008596454554320168
-0.013399043801791978
-0.025713700934391234
-0.0479315761170839
-0.06704818102194132
-0.11185643939976345
-0.09647323536381858
-0.022876044575610068
0.004286589266768647
-0.0025563912935470828
-0.0054961312396886435
-0.018499863106484545
-0.03628739252061805
-0.061279778103463
-0.1250186905965197
-0.21538011862399892
-0.39080640451171705
0.04951507952005276
0.026088599156431077
0.016265976214794323
-0.0028173783471378486
-0.015078230015580478
-0.024012437203977395
-0.06328355537876063
-0.10307271116425382
-0.5330424690029977
0.709991393104776
0.2843169472875888
0.10096895557572186
0.03099391621647235
0.007819473007877845
-0.011187049743934783
-0.017438971067883564
-0.019267701669386055
-0.012431984916022772
0.1439754226837786
0.30206444458871645
0.16580549181172435
0.07746157565491638
0.03993958974896119
0.008363350587467362
-0.00408790205048087
-0.006678313994982124
-0.008233652161351752
0.012259393591594163
0.051562705522849465
0.1153166050623577
0.07001370499994626
0.04640074903053613
0.02103003323317203
0.008449234001158518
-0.0036152166434314987
-0.0070948364265017196
-0.0031355049136581954
0.0021317687870391695
0.02916679362841198
0.034008551382212725
0.035618676414234794
0.02157862590476933
0.014736437646103807
0.002268797091139685
-0.0028656717457456776
0.0029656342638866157
-0.00772608562040633
0.002135704146904758
-0.002051569916801449
0.010985478608293459
0.006664264791209067
0.008939378764070346
0.004172945980815313
0.006753195623183189
-0.0014555828682904137
0.00029284596194300915
0.003811428554747797
-0.0017849295143177748
0.00970829100702809
0.006578217281437941
0.010351604521780905
0.0052923868128346326
0.008663901691894354
0.0033688216122955772
0.005835427122206288
0.005479303880617321
-0.004334271754410966
0.006814431958226689
0.0016307825403697636
0.017151803096900748
0.01106990197991602
0.01336450484730593
0.005320400272384278
0.007349808662089558
0.0023359792243407935
-0.009574808094699915
-0.0074907211000168495
-0.013083997343508355
0.022510703049136712
0.018201487315395448
0.022989191414304996
0.01008858024328839
0.007975118207246584
0.0007628295171187738
0.0032778026329820928
-0.015417008910139694
-0.0482503532497309
-0.01975663585047031
0.01319248721507992
0.05918462751643672
0.025290220579140682
0.020434352034824174
0.00424794666066376
0.0042150636116704086
-0.01224723127173147
-0.045459039700253244
-0.08873939010054774
-0.3467776256304844
0.13536913563349637
0.09193036985955572
0.0591290426951631
0.020198971129604375
0.013555059379559139
-0.0021306190129331886
-0.010409985214305792
-0.04539562555495985
-0.20297504550633885
-0.6702139756507831
0.48159402085489433
0.19413330364804554
0.058634931917439626
0.03481030092324855
0.010469678287991781
0.005867659348518901
-0.020023969270828185
-0.03704498433384245
-0.05976315889099618
-0.18555984543027187
0.31865213920278046
0.08710378467711521
0.06314610388088171
0.02338585003871846
0.01617872237309583
-0.001575108598233621
-0.004015689546547923
-0.011244391718429165
-0.03783036246078705
-0.0461958828850518
0.0186781584096201
0.03358733361826478
0.022883929896494105
0.0215526586221305
0.007658925045704734
0.008097606021254148
-0.007085524322701847
-0.010036984151677418
-0.006354742124377158
-0.02183074712376467
0.0013932591387344601
0.007054389760675345
0.019432861050988015
0.008698329720803281
0.009744259645018146
0.0023793209045303377
0.0020089338080716153
-0.0019005207528324524
0.00031450104071408235
-0.0007070903580116664
0.0014392990504930368
-0.0014083971339464445
0.010051902696600643
-0.004237796471400832
0.0022786721923848804
-0.000507943192560625
0.001151906489302863
-0.00039251557272404296
-0.000806884255263316
0.001936195961548844
0.0026940576964806593
0.01784975302031644
0.012911599085065853
0.02128212803629735
-0.001979269208066653
0.0016342666482197033
-0.003227371206931922
-0.0028828014648407535
-0.002995151034706273
-0.001585780285375894
0.012330023056743942
0.014781597501856904
0.054569091564161946
0.020871132725225856
0.021013902489849315
-0.004704911117825783
-0.0003788385747166506
-0.0038694264267821066
-0.005562709162970748
-0.006632783801188229
-0.0012069222653960084
-0.001581965262820365
-0.34548182847266307
0.1285888120051229
-0.011983818943171833
-0.001745370748336991
-0.007233023226727305
-0.004534092195728471
-0.0032860725128362914
0.0008935586660302318
0.031254310356102454
0.13616160235707947
-0.2744141919327787
0.20146469361296662
-0.10578997952534903
-0.02436214719337857
-0.006421144488246198
-0.0034455297864077142
-0.004969276516183968
0.001181963817219581
0.0219168166244155
0.061443328764655504
0.08813392971008416
-0.025090116934643254
-0.030839103592639378
-0.01418970448933545
-0.005609424536923031
-0.0023556104918985637
-0.0038312422078473057
-0.0008236555883766693
0.0089042794632517
0.029660997985813647
0.03867858727866554
0.012845567469272854
0.00025321485493821493
0.0004971400523995758
-0.0018085447936181268
-0.001020242175224494
-0.00473327134837047
-0.0010914739969727018
-0.00010941355877488107
0.0036807323715981723
0.0085035303065906
0.0021164967605442897
0.002562769229504201
-7.81883828537598e-5
-0.0010812666222642872
-0.0016261762432154673
-0.0014336542633261009
-0.0037992930431207427
0.0008143769782481684
-4.129819401404262e-5
0.0009786728617751763
0.0018814586070247052
0.0033618881627039366
-0.0011643676810792526
-0.0012065247754060628
0.0005371213548931353
-0.000464513865527693
-0.001106787447705207
-0.0030794936472713194
0.0001222023473870013
-0.0007827655208873829
0.0006595456685660413
-0.002744895415736036
-0.0004779631602736047
-0.0014830819052186835
0.009673558731808524
0.012796489341939506
0.03951433899079576
0.04861071675611262
0.04545969050963511
0.021011505029171828
0.015465554163269097
0.003910266539049924
0.005818199141625193
0.0013047912572367003
0.003080425583577035
0.011042708359701838
0.01205131760219437
0.027907903101451196
0.012878151016012062
0.014016770721167679
0.005879789979435947
0.006273300342215272
0.0007645502363279514
0.00414165844380963
0.0031006876430402347
0.002180195947546778
0.009027116624702717
0.0032552270505293514
0.007984791541510269
0.004383347784361207
0.0056281731252178216
-0.0006212794603854778
0.0025540783892937244
-0.0006973238028478849
-0.002213188200508603
7.835429742969783e-5
-0.007470420373473549
-0.00184648364514647
-0.00689389260891535
7.158420150306578e-5
-0.0012765279805233428
0.002154028677388381
-0.001868061146624431
0.001736721741360127
-0.0036647519441872314
-0.013078574662842348
-0.019106048001678755
-0.026026103173382747
-0.014604986896216107
-0.011794690454346245
-0.002671395506924893
-0.0020644670023155396
-7.73567389361602e-6
-0.004833208918634167
-0.013954377999114302
-0.02131419764720009
-0.05085361888107172
-0.056890384626091
-0.04581929788609145
-0.017940636575445392
-0.011063378474654818
-8.152266086106173e-5
-0.003539065316557178
-0.0012720579742548767
-0.018952591986106625
-0.04831133395958339
-0.09321962706211466
-0.19931494491414042
-0.0854128319058043
-0.036133961363014375
-0.007853325773178325
-0.0075758122887625194
-0.002048389395244236
-0.011201980904714253
-0.028884555161800385
-0.048450783489067936
-0.2366334050249822
-0.8456141350387724
-0.19671700213668344
-0.020621645525140463
-0.008140073827936077
0.0011121600495324748
-0.005133507982495659
-0.006150681681799651
-0.005056264888120678
-0.020785632585406104
0.3258849031015769
0.9012067116928044
0.24856121392096486
0.049376629993678936
0.019562662911913567
-0.0008828800927062345
0.000563072277747181
-0.006830298779008601
-0.0004501666853614645
0.020065228453377403
0.047956622689581764
0.1956475149442961
0.07848060826193756
0.04888054932274937
0.01572363324529007
0.00985641604967672
-0.00027810064940245156
0.0032876910836800387
-0.32209229500921505
-0.15726645383217916
-0.010284619579419866
0.027989358233047303
0.038196764868797715
0.02952908021294517
-0.0034661762029114685
-0.1631991697982267
-0.5838782774905221
-0.22282533188817563
-0.16856108941023104
-0.0490327779686574
0.008195202097475984
0.03584695718578186
0.044443984252951804
0.02717247559527229
-0.018924102206101023
-0.06553946200257216
-0.24519943195222513
-0.16395751719439414
-0.034394064747219816
0.0005728730907058159
0.02957402497284787
0.039151013178780864
0.04456798277195717
0.027989570445320817
-0.0016257110152391244
-0.045029044887911714
-0.08344915534437121
-0.09520168128737137
-0.006546610730670069
0.021250252258714457
0.03142699262445753
0.04349601624731839
0.05072184649798999
0.04116256269749361
0.022511823492224872
-0.0046458834513521605
-0.036762647410409494
-0.030149621539161214
0.018568810940295933
0.037468781093546906
0.043310065441539605
0.045152433060245425
0.051132994478232885
0.0532216906502907
0.04171806691543972
0.02423120418813405
0.014438551232618032
0.0024733739936647725
0.01599134000238852
0.03528683266218282
0.046066742130153875
0.050408830284222154
0.055161149296527594
0.05766276038849582
0.05706502233418052
0.0385985682232878
0.014913861845010654
0.021086134379330282
-0.007907809159595002
0.010851139138122785
0.037700206445565605
0.05158067527317042
0.051334396121421544
0.0584178469448025
0.054504316340657624
0.02105607866985589
-0.020312779311202112
-0.02930464886431228
-0.07744390256568456
-0.03696284689698345
0.009800055654185832
0.03560970430460459
0.04710718843453431
0.056085384866024164
0.03933844423081656
-0.03944709508267661
-0.18507521901543816
-0.1541396042404897
-0.18299360845732568
-0.1000290207080869
-0.02813173470878512
0.02248228848975108
0.04872717405732102
0.0550625288006287
0.02730964644489491
-0.1410311140872881
-0.27689180092259075
-0.24318029459421714
-0.22636566266189673
-0.08679525442359781
-0.03695379502541251
0.015862484031293558
0.04527134778609465
0.046505341670348616
0.0003081458016618192
-0.18554101024100536
-0.3453345355443494
2.8640024737592027
-0.004091507995006449
-0.012780191581855966
-0.009595107728937598
-0.005824287445043888
-0.00039404086399328595
0.0033564140701175978
0.006380617915755691
0.006966149709325806
0.005006804496732631
0.0030198917785331948
-0.01589198448008417
-0.031622895872756414
-0.027568704837891794
-0.012545784484979615
-0.0016615378984079113
0.004615259884930432
0.007399040666104074
0.007423347559202107
0.005736769921842341
-0.0005814446515773678
-0.02962127748402009
-0.08931039519713377
-0.08726317817658244
-0.023317678840566073
-0.0003210344555689169
0.004644220680147154
0.005677165225785996
0.008101430452572535
0.002702890417146387
-0.007843505978972671
-0.031181265133373846
-0.30185551298362473
-0.33866396117987635
-0.036710290917237653
0.011874710109698067
0.010176705146498096
0.009597059876608015
0.008225597047750229
0.006111235978081438
-0.0006694462220534225
0.08802089110690527
-0.6642189109350592
1.0287036410286472
0.14832467023207924
0.042144291374848035
0.016362787813619824
0.009616565439161923
0.010237816902309415
0.012659379267447788
0.029886261283812075
0.03269774930380846
-0.01338865192107633
-0.02282108235307084
0.017396116130051837
0.016538663793109542
0.013060339813866863
0.011349778339214842
0.01155472772356498
0.013185606984342868
0.02400523228073366
0.015503428967347481
-0.0004528869283496744
-0.019658960730346543
-0.0028446571349089573
0.0008747259163986858
0.007737789621059628
0.00882696806061683
0.010344723644418527
0.012942459951174264
0.014504187784006202
0.005487061987505941
0.00021167600981121038
-0.0019163982163448885
-0.004276429645401268
0.0048321604059343385
0.004618924068545586
0.006158601943613461
0.007564170109682538
0.007056177310592456
0.008677429694208328
0.00341304802803587
0.00025206336704531316
-0.002657674401870073
0.0009224304391177719
0.00494525709260861
0.0047686081078867825
0.006075766887534742
0.005789435034530747
0.005804567012631086
0.005081623435181393
0.0005205682942085877
-0.002662144249805532
-0.0018088208947949786
-0.0007465300220821742
0.002638237132433389
0.004427196536544531
0.00638919182146201
0.006041806020714317
0.005389125139629792
0.004408941896204051
0.4623070282973076
0.07769563986201555
0.010112195113693368
0.01197480901081796
-0.0018623327672575253
-0.0018235709648765895
-0.016071853550506898
-0.025686604949183223
-0.09670041219546645
-0.148598118893693
-0.6066463327207499
-0.011132245652811687
0.009796484650673697
-0.002204887369585024
0.004150977604636708
-0.002441682265450308
7.07527523314783e-5
-0.00895372041614371
0.01782679323482353
0.4402453696715257
-0.016511915697280135
0.007200760017407792
-0.006778927839977861
0.005418024680058264
-0.0009028417963256359
0.0057832228726182495
0.0009969993605146753
0.014697633854638006
0.014470481991971044
0.06603937329966514
0.014081592353280402
-0.0027293189049544843
0.005426861811315909
0.0008823845197917747
0.004964237382843622
0.0014755113314078036
0.00790625562384549
0.004597646775939445
0.018927341551363466
0.008319034373353464
-0.001689786847111782
0.006884789331077652
0.001177217351237889
0.004605546982047829
-7.339391155028295e-5
0.004729587008358036
0.00127522387344239
0.006528220818137662
0.0024756374314951718
0.009652524311107682
0.00405915495620268
-0.0001702986717679268
0.004552142042649058
1.8645978323410424e-5
0.004631634304256943
0.0006418586376782854
0.003722525003201706
-0.001125819822946573
0.0018964584783038318
-0.0032927237594761165
-0.0027828537173208764
0.004261933901672348
-0.0004546865899730346
0.0029577942638524383
-0.0004827727913923193
0.0011099568802277722
-0.0029473021630254887
-0.0010773086057333423
-0.007588531538506814
-0.001855545183394018
0.00013657040597657032
-0.0005109185896819775
0.004726409317101708
-0.0002489755283314994
0.0017219241728582148
-0.003217300419026135
-0.002630943376245264
-0.011106705352400971
-0.011343444658285008
-0.016610236659642126
-0.008600965934635843
0.018301873512365185
0.004657133663441413
0.004476743813989865
-0.0025070919103738747
-0.0011282166399449684
-0.011213271791581042
-0.015335032268397554
-0.03715069644079143
-0.029174864561608182
0.06887944292373026
0.02293780831150586
0.0214239097488544
0.002045758827510389
0.0016190415069733221
-0.0065472599398103465
-0.010433245091232994
-0.0348569428019708
-0.05188516893852445
-0.1320878092925761
