-0.0008484763306269322
-0.0030172771153782795
0.00823072499012396
0.0005574003578330702
0.000241669370244855
-0.012098338751864949
0.003967540729453172
-0.000864087916863565
-0.09940665003558048
-0.20682922014843527
0.192713085934312
0.07690678110753384
0.06011804469546333
0.027735065676952487
0.01500855805115863
0.005931101770432791
8.951234347978268e-5
-0.003248971906583149
-0.005954185934782908
-0.009694170256954076
-0.013314941331560755
-0.016858032935268705
-0.023448171576618552
-0.0330081662290731
-0.044946999980334565
-0.08152334410852125
-0.2719941397374825
1.862407483014708
0.8759004915424211
0.24671914817808638
0.06829813900835417
0.04071850515848107
0.01569838698974541
0.00653270292613158
0.00031607929620692475
-0.0037178859320065234
-0.006304233934035098
-0.010016595129413329
-0.01414682746670355
-0.018343182297106228
-0.024976397961214335
-0.03480525803370753
-0.0596789364134939
-0.09175497583873653
-0.10634623145849584
-0.25597314291015894
0.18531823913508066
0.07308538904977023
0.06010147251663431
0.026811585234873023
0.01378262910531656
0.006050257368892348
0.0003873044240725401
-0.0028899357303586613
-0.00625161099017035
-0.009884074516793056
-0.01206952049153845
-0.017108579139493693
-0.022301086893395432
-0.03271606816656272
-0.04497277572204205
-0.08239469428599588
-0.06570914157526891
-0.029854211200585495
0.006136416602091634
0.0401045782396334
0.02494063510202724
0.01873880333932514
0.007653381881621922
0.003481636782506314
-0.000822045421310583
-0.003339396282566335
-0.006429574470660357
-0.009549145923166975
-0.013248218884677839
-0.0164684108827304
-0.02054672375399091
-0.0268830809950809
-0.035941255945226874
-0.04415707098791282
-0.02867499319663573
-0.027864245756432468
0.005038751681012613
0.008814238420176873
0.011814749263902845
0.007360589976673026
0.005260754585603166
0.000579833292336385
-0.0022990759986999364
-0.003986316575402678
-0.007162217556201619
-0.007994242203797424
-0.011465813703562568
-0.01489916832087942
-0.0178847110154445
-0.02228344359500517
-0.02487237178993872
-0.03255868542652983
-0.02147306673606557
-0.012377339380529599
-0.006984802912236005
0.0017367359711084912
0.0023389943084580365
0.0035984388930064195
0.00010218723791448266
-0.0020376855608809988
-0.003225703864139708
-0.004872498559064662
-0.006124162166135778
-0.0085176581238463
-0.011091436584024563
-0.013723447867423036
-0.015153663467816644
-0.017189289760537258
-0.02040765389014467
-0.02063768125812802
-0.013752315659596528
-0.01215530342774868
-0.0072865541694380085
-0.0041726140130421
-0.0011650887101995612
-0.0022002632064451037
-0.001455181624220278
-0.0029313860737423827
-0.0054111725601189
-0.005320073668211438
-0.007364546532888886
-0.0080186277131262
-0.010082401123511288
-0.010710229861372045
-0.013577256610741353
-0.014157461531092227
-0.015231508570650615
-0.015616165170789188
-0.011776507630993568
-0.010099819582726117
-0.007699873510093068
-0.004985730727532103
-0.0033860776049649006
-0.0040197338661049015
-0.004498870124448372
-0.004104584748138215
-0.005090998667972428
-0.006284461443103343
-0.007233599180923876
-0.007834633402300327
-0.010112247201416793
-0.010923909734943177
-0.010991238436355874
-0.012132248061399628
-0.013510901221611967
-0.012964254268030832
-0.011254065372291766
-0.00931204765239531
-0.007789250483854175
-0.0067597981286146745
-0.005786529566298449
-0.004888582013136795
-0.005223721570897021
-0.006284238462410664
-0.005878163259726741
-0.0065909649562920485
-0.007588195940102846
-0.007814236903700901
-0.00856109364480112
-0.009382698835491789
-0.010796609930087934
-0.010358529053885833
-0.011693262512280892
-0.010408769534811475
-0.009299228293584231
-0.008003802468839846
-0.007645307464683008
-0.006536347655843562
-0.0063255240852822065
-0.005017894838240106
-0.004784992616740023
-0.006376860420611592
-0.006667977867457335
-0.006297125808195293
-0.006969170122486365
-0.009177695691316653
-0.008742152428886311
-0.009121209012762997
-0.009943164842192345
-0.010874028101914082
-0.010473645055682407
-0.010302053612395567
-0.009599315871249233
-0.006926171628401919
-0.007486776603227214
-0.005287321490799958
-0.006317105041556335
-0.00554638030430417
-0.0058681971430894955
-0.005599521625183466
-0.0057960142945328134
-0.006932284001944592
-0.006660637512639013
-0.007795968347550926
-0.008784061358324782
-0.009382026554683794
-0.009951474575067882
-0.010438959185009563
-0.010911650150085347
-0.009947614583679739
-0.009522487173698567
-0.008453186176307114
-0.007980379507952605
-0.00730417554576805
-0.006196040267005073
-0.005687609628435753
-0.004787263783123357
-0.005035715683808166
-0.0056427176886395675
-0.006635004966854119
-0.00678462012067191
-0.007789153820699798
-0.009251614935475081
-0.009953960300515409
-0.01074129248700039
-0.010700209443870711
-0.01057706371001661
-0.010406051648626426
-0.009398638175223325
-0.008648672483953882
-0.007585162939252987
-0.00547420946031172
-0.005306786056842353
-0.004015387260110503
-0.0048803454731528115
-0.00417251141266074
-0.005342263360472162
-0.005247748996820382
-0.006694379645181595
-0.007770190292839909
-0.009052921443495725
-0.010045918278185562
-0.009778955469214364
-0.01148245817198601
-0.010883878864190928
-0.010939732759824076
-0.011246735104943797
-0.009145132133845602
-0.006386626035505524
-0.004286315213943155
-0.004212851566773677
-0.0029888940607181226
-0.003637952768908905
-0.00393557872797892
-0.00499705839562361
-0.005220299313692489
-0.006915303034260972
-0.00789174683376666
-0.00942979689682511
-0.010812683797669451
-0.010792979554893688
-0.012212372532886684
-0.012188258197155424
-0.012028420912649797
-0.013853392219776745
-0.010791954532931424
-0.005406082287645778
-0.00373724869612522
-0.0006966168586074674
-0.0010238981715733255
-0.002510161630286973
-0.0035409329515218363
-0.004289090997818731
-0.0059578431987796655
-0.0079319173984344
-0.008747584230347294
-0.010170991054567138
-0.010991970906972416
-0.012948187697191312
-0.014311471385647541
-0.015262818121865095
-0.015855498937937317
-0.019535440528282804
-0.011398263416733386
-0.005226672912448365
0.003315063001685571
0.003135326798739248
0.0035738299255816067
0.0010739455770843397
-0.0016720825970195179
-0.0030339184879233563
-0.005043317678733506
-0.007639312564934579
-0.009073583541884735
-0.010296621982890478
-0.013020557097630689
-0.015353984364764416
-0.016878201412812408
-0.020549344600190304
-0.02008913459445312
-0.02885735172042988
-0.02492883072203633
0.00912311374959705
0.009499650536672767
0.015064831105545682
0.008789866779257464
0.005285727788965966
0.0015288367819458154
-0.0017161363579318318
-0.003983818969550551
-0.007081292156826577
-0.008092487287395284
-0.012110639995060643
-0.014675848062159843
-0.018480286332906225
-0.022040381019005392
-0.025392938280236924
-0.030441153730804808
-0.06515346512910566
-0.02610864636600989
0.018764051219204644
0.045841711125250706
0.026135845103485926
0.02040738203328373
0.009368273472058136
0.004026641522895727
-2.799319917352102e-6
-0.0034100531524166094
-0.006466989236550333
-0.010173566344772586
-0.01226033507496317
-0.015292205204763657
-0.02119267991908905
-0.02690725528539815
-0.0368776405135716
-0.04457526031764796
-0.006509676898551098
-0.00692305515468356
-0.006369744175848818
-0.029009583440566446
-0.012469986038186207
-0.016372971304252304
-0.024275665038978156
0.006346871448591648
0.011411480053989065
0.0006578460586370871
-0.023844388002351734
-0.020107977086365462
0.0074090546755741
0.008536780437852949
0.00624544027901561
-0.003229555287594541
-0.020881526610089282
-0.009193261040284343
-0.0017822963306707567
-0.007669145852144246
-0.009783911924232749
0.0013038831079622165
-0.005586166129623719
-0.00314954471602237
-0.029254468212398417
-0.01634741389635228
-0.0017857824249492562
-0.01145004828237882
-0.021689359062254263
-0.006229535529925907
0.010886908420201142
0.013584340484870583
0.010693940800666522
-0.008475259291417738
0.006044544073983723
-0.024195819116097562
-0.0013224578370354086
0.014216184929921398
0.016343100295106945
0.017058145237691676
0.03373104848641693
0.020520550446982522
0.007537171443879103
-0.008715750660958792
0.007067407382396601
-0.011110825023428318
-0.001185466287919502
0.0005129412680236243
0.002028373588520781
0.004186002678556721
-0.0017701210483896035
0.008480829677394205
-0.00084488256574508
0.0012981028945957267
-0.003804436646721894
0.009851849296283488
0.010697514833745694
0.004800005307665868
0.00801410278180046
0.006645426547537628
0.017907841289654305
0.020360922739877656
-0.0010855181646898513
0.010734350711110797
0.009228383609901412
0.0051224506691501265
0.010732867832170472
-0.010082617307400937
-0.008329597790540738
-0.003572988603759294
0.0029096578551217737
-0.003552542597644968
-0.00044698498160757483
0.0002056526508768681
-0.003206519683626189
-0.02627285803807911
-0.04267648601155621
-0.0021976226424499255
0.003612192814799476
0.014990301192578522
0.016688396834790762
-0.001144305180247804
0.011275456752580584
0.03246010145383595
0.0018335122261096278
-0.0031661578806741345
-0.024427200807216838
-0.0021438355383806666
-0.000900121201121228
-0.006841973270240945
0.0017136556915150307
0.022068387795253868
-0.005869731980246585
-0.020837421180625045
-0.025228810410127048
-0.02435843385984742
0.0016210341500986366
0.002306160894737769
-0.016000671534425408
-0.026125121628687055
-0.001030415309207402
0.008847735909442468
0.017272042178338894
-0.005401435371711443
-0.0016259772178093784
0.010767804540600001
0.0019994692295411537
-0.004145965650303488
-0.0022470929264154825
0.021273562943081144
0.016835795382930854
-0.002756241772174072
0.00017706840826606143
0.0017832113658960167
0.0017895876310294633
0.0008656249305523324
-0.024608412507987194
-0.027070321823950437
-0.013710316009933197
0.017903238870269133
0.0112971885089428
0.009151833592027023
0.006479712573873397
-0.009114621778443315
-0.0020292174120185233
0.005152004550703104
0.010834495390594149
0.0068037340512721416
0.007592625209691178
0.0015902698336828947
0.010576263918937406
0.016672947454855043
0.009297126179837394
0.018418242521101535
-0.006481256114451809
-0.013448025185955878
-0.023578257922494582
0.003970524967239783
0.012175761741642114
0.0029854712837926313
-0.02295988708189445
-0.01187931809195971
-0.012137270744751644
-0.003586344421384859
-0.011429738491436994
0.0021964999997100805
-0.007774648214862285
-0.00518598193573494
0.006104550936058766
0.029858909918709407
0.006619597350102771
0.007776311318093063
0.028742810752991767
-0.00020055680560910607
-0.012713790746082037
-0.018518276282476123
-0.01359374800026288
-0.011238799897569589
-0.010335115948045544
-0.019522080987970886
0.005534110478043833
-0.00408514523283594
-0.014899411636822504
0.004947767729546342
0.0031813509657496655
0.0005359187251245826
0.00850791372966465
-0.004222450395047382
-0.0162439285307448
-0.007724181983189965
0.017423638070942136
0.024272674371417242
0.017502579392020018
0.01202787725308834
-0.014940874351520587
-0.0012780151888306132
-0.0029489969092645224
0.003889839190592241
0.009946167140578537
0.018139634439985536
-0.007207460810170764
-0.010472117253827707
0.004837039673581042
-0.0036999891159444124
-0.010409543966666346
-0.02113142973900597
-0.025824206100930176
-0.01865638029736389
0.0007310620133125288
0.017685894907999402
0.018807904021297
0.027916109193280893
0.011370328704756592
-0.0007253274990896463
-0.0029170153443645115
0.014349319670907228
0.025349353614517366
0.010081572359139172
-0.025731961458660264
-0.01568520507233253
-0.007063179554987469
0.001215838438234739
0.00033738688746155765
0.014929575925783183
-0.010626918765684782
-0.005325632996402949
0.006624194852631776
-0.003556420384487502
0.007296384247085882
0.002635701736624799
0.004882387221810133
-0.018273278176783977
7.596726994653618e-5
0.005832179082180863
0.010532719710601546
-0.005831950911719348
-0.023069889645561555
-0.007838439725489197
0.029142217238223307
0.01564743025988296
0.0033841979191086887
0.0015631023522268792
0.02300518338621703
0.008653943844503178
0.01158913520325308
-0.025812725003357365
-0.022346921275964306
-0.007606414911741001
-0.022230741430444186
0.005992002462711538
-0.0016392567683576197
0.007117664285853149
-0.0014540405454347835
0.00045284743907961764
0.002919275623668891
-0.007128406628656372
0.023258877852657674
0.017848883874427433
-0.005181843244011049
-0.025915091575508253
-0.008400940702310051
-0.0013596850741625836
0.00022249732943719442
-0.02522326950263459
-0.039774854256381435
-0.0018480153008532567
0.01458475569576204
-0.0006693948203220041
0.008190753086035245
0.006714452600138816
-0.012054235580846217
-0.0007180813319623857
0.00020490403345481393
-0.00429597190787144
-0.007283076363703608
0.018132458662762054
-0.012560901390218981
-0.020128858942841207
-0.013255234791770886
0.006908135064536992
0.022857424509517447
0.005188028937599395
0.012278940006391143
0.0072934560141928294
0.021652918948222532
0.011784230005758853
-0.017209036743750405
-0.029427307144669207
-0.004630917696929731
-0.011056569667214263
0.007258925147626791
-0.002929965751390798
-0.003255329746452128
-0.007848973499574346
0.01212504758363875
-0.006838271323538476
-0.000744175703607841
0.007158824157120093
0.014411648992457261
0.015025982368741348
0.002401057041691141
0.017542985294443814
-0.0030307806358531144
-0.009564874791799467
0.007887007501657337
-0.01418262270201193
-0.0227811962943299
0.01566210417901358
0.044678647529966496
-0.005631471155299547
-0.011842901428766416
0.014130553108838961
0.0019628413992426436
0.007656904600572744
0.003688051241040552
0.015563588653361932
0.009379606080483086
0.0017810191978256669
-0.012662824770746694
-0.010855355175665696
0.001368552588008805
-0.0137434636166619
0.016674503668322946
0.011779189997490395
-0.012671466786388506
0.01667194329905911
0.02020344042527056
0.009159604586111175
-0.01784241942911214
0.005019767071592466
0.0016215455916959091
-0.009460853836661481
0.020901342638312392
0.024265475433582245
0.027952413644589332
-0.008346119055773966
-0.015733425051740267
-0.004761663893353795
-0.013360802126797204
-0.0014625566935117748
0.003866043127503392
0.008030205610906537
-0.0020971851736763304
0.009670429515174338
-0.022260433377553842
-0.02152146031173768
0.011478009427820726
0.013147515180822914
-0.017882445903465785
-0.008558513060711308
-0.0031123088040376813
-0.015229672483344732
-0.01427331765274568
-0.0017084590188453093
0.01940739829921907
0.002935246545815857
-0.01634933233783174
-0.01602210581338869
-0.009011456820853348
-0.0036255742709137228
0.012602453305483565
-0.013361225777017696
-0.01280875366145471
-0.003890338357686392
0.021134714047572698
0.02277495854641966
0.013630659216458698
-0.01125217175440262
-0.006588339182816714
-0.024696528209981142
-0.016312351126940718
-0.007861902247028854
0.01241435090307287
-0.005792903439507505
-0.028941450108511187
-0.012638050107896053
0.005709905735189677
0.0004070439948260057
-0.007894079187940006
-0.015761154633365734
-0.0025797977866574744
-0.005517970064106769
0.01735391414444755
0.02540263909726178
0.0022246853618911786
-0.005390835966708253
-0.0020681201040754693
0.002054885905791952
-0.01224895407580503
0.017002460440935924
0.018044301080809587
0.015708904549451473
-0.02244525491629796
-0.015482803587278412
0.017154726538549263
0.025906934211587674
0.010180346123894134
-0.011744796141496901
-0.0016952072143563814
0.0065910246942737566
0.006192266544136581
0.0009213419999092084
-0.02278813940694684
-0.012753839872057776
0.011889400292921048
-0.003459766704364893
0.015311459604310955
0.0033624126620526887
0.020321632494764125
0.012478834111310795
0.006802837129317742
-0.013337556139979518
0.015586544686658797
0.03075864689707424
0.03907800258665091
0.009387755708502669
-0.005326252725232082
0.014164620386057621
0.0006214654758010018
-0.0282130893404757
-0.01899361732788709
-0.017348550805434106
0.015198669550699274
0.005896576404795214
-0.0007170867116138811
0.0063645245729956005
0.017985048682868217
0.021784986088543935
-0.021372653016410392
-0.024016700126430222
-0.019416287577255716
0.006391391797909517
0.03502717071234526
0.01746060585527447
-0.009834616931779122
-0.0030843866575244066
0.00031343963775224163
-0.007732843209081838
-0.0050542423496796295
0.01202854645200654
0.027272379826160868
0.015578877828276213
-0.024415669870122003
-0.004912018067618111
0.01528111638007072
-0.014164528634328755
-0.012725636554111438
-0.018987661899008884
-0.03773435914654532
-0.011030912973780553
-0.00824341307694011
-0.015666395922114607
-0.024060999114546372
-0.004027250919060662
0.005038319853417426
0.008036925624409025
0.0029096786331522123
0.021072739683838063
0.02863031748434945
-0.023066077707826725
-0.0006156265710335284
-0.022649412296647152
-0.0018411513718631324
0.0003760957818165422
-0.0032431568708099663
0.005993814588094176
-0.001957411599296982
-0.020404981679156595
-0.007826232232285821
-0.021804957957767913
0.008614962322004056
0.0031753573483676613
0.005652425483855845
-0.020807859333182743
-0.008952026497136877
0.016553612843253546
0.022846096955366053
-0.018393247655416774
-0.03322880065538286
0.013066243778940247
0.002694905515838481
-0.009761236675594191
0.005762988213514528
0.03134660583892431
0.02907015138504841
0.0038579094233973663
0.004920542971006303
0.0017423739874265019
0.012764769581178413
0.023642363894427202
0.007403245851217222
-0.018537226814061163
-0.03396985333352872
-0.0034574594987667904
0.011766615653836575
-0.013020381166804085
-0.019586049917445263
-0.01354933281908086
0.0017255414728792153
-0.011447762625395737
-0.0013329834967438128
0.02473867393605948
0.027355690298397854
0.010648354798384737
0.004613994388713063
0.0227796112827301
-0.01023516668742598
-0.006222861908350827
0.0030593765605687363
-0.006450922603146073
-0.017819034823369335
-0.0007856770416095396
0.021511378521507075
-0.0070138467814082825
0.004480011862247019
-0.0005570713648665898
-0.007339201759975459
-0.02029166353733073
0.010309616533061408
0.005758526805689282
-0.018724407662303467
-0.009537364594113192
-0.007359257380558905
0.010539479556147606
-0.002965453703545992
-0.01272973815077586
0.012873885517383905
-0.002081296439767152
0.0010084732221941105
0.00976613465898886
0.011176982344379964
0.00843779375387096
0.010008684100011682
0.013568729121854408
-0.0017232722356122796
0.0070382732197399565
0.00927376276683381
0.006109650823224308
-0.010004035489542906
-0.04339369754309704
-0.024136658810470495
-0.0012384451219328398
0.03661124624694573
0.023879873681477405
0.011048480866008036
0.01889269262115543
-0.0038326954067922315
-0.016423257064357537
0.010877797655928176
0.011718590401382973
0.005463259411323056
0.01597798209027541
0.005182208043517348
-0.004252606433685548
0.026249531339909447
0.026803991359285365
0.001889792077978771
-0.02369794233693858
-0.025177341553483612
0.014585444031456434
0.011196941031412397
0.010404482465086611
0.02076643382703204
0.004952337745489598
0.010038584237944717
-0.014086311664530636
-0.025400029663105124
-0.0019251084099491005
-0.0031769214605220507
-0.007816162687846698
0.0033590484303978067
-0.01555018221204198
-0.015101322964936978
0.02251964452078918
0.020730375441942617
-0.004720963103878378
-0.03178403813003568
-0.001356448287291419
0.0059736666935086835
-0.015367093261062696
-0.012257901722254452
-0.008892222841730383
0.002080017259384924
-0.0014563255052596003
-0.006897130485147868
-0.003715847232728165
-0.010872047472082112
0.0035809786180573916
-0.007711470545174737
-0.01854654118930057
-0.028763595405308838
-0.0045557088298626945
0.016363236210560215
0.011947261023324603
-0.01806505283663944
-0.02181947328441469
0.009817668807384425
0.013060782866641796
-0.018314150268829096
-0.014646202776246406
-0.0006633988900234989
0.01007738097194921
-5.8399364373877636e-5
-0.001090080643289128
0.0011113351043922353
0.01179193503962367
0.010302613216967906
-0.0010323954771451296
-0.01112301245893881
0.013567161020094243
0.0130070136369473
0.001170437925959207
0.011387794540062427
-0.0018125935003954373
0.019266674748528882
0.00074114479332881
-0.0019095759875075772
-0.007106871426011751
0.0038199521032241646
0.01574164750759698
0.00028155484805474237
-0.004354032209822655
0.0024687817133734235
-0.0028595502008354114
0.002875595402089171
0.005567081259678668
-0.0009580202841141872
0.010257493791323399
0.011514241029244837
-0.0033999752178512743
-0.018224317918313204
0.018087445914546713
0.017736700287026307
-0.007371881505123572
-0.010443507705832985
0.0001360845900283238
0.002932884497232775
0.008788526690984967
0.015427149459133179
0.0006042868473071206
0.006000317385020394
-0.008744160169259857
0.009852863722254114
0.003317083133723778
-0.0028509221756980187
0.002052836408988014
0.0003475416158743921
-0.0015284086836547441
0.0055022568101887525
0.002390912499630237
-0.0041657775857679245
-0.007251115049283736
0.005398254258569334
-0.006161981454138604
-0.017062500037407148
-0.0010012700362203605
0.01861250145481635
0.010360827555542835
-0.008964400642247804
0.0009124699142866886
0.016805793590556978
0.007622700311966108
-0.007255971622911505
-0.0006867353625971345
-0.008655068508580678
-0.00337346820413707
0.0053329357576798525
-0.0028935494055176833
-0.004434273181320763
-0.003186759369687893
-0.004085863308492337
-0.00547196975543696
-0.005591433099009916
-0.004567649271676229
-0.005309273680287951
-0.006112483667303703
-0.005483095101978785
-0.0038536998035896748
-0.00635718845363507
-0.005497224074007352
-0.004141687615912607
-0.004201683451241575
-0.004970533798987338
-0.005438483146085911
-0.002664243272395354
-0.0031782620961587605
-0.005094663531330023
-0.0029863224500389935
-0.005192390121229679
-0.004853128916584318
-0.004482898343851168
-0.006114079784543345
-0.00725732164409105
-0.0038572065620194407
-0.004553978304568272
-0.005967744122425157
-0.006366352660680404
-0.005872507637265234
-0.006684283421358992
-0.005156700691073619
-0.003868793452157528
-0.007122609055252604
-0.002982071837676823
-0.003396051340848564
-0.004053604629900578
-0.004904876417505654
-0.005526123186266546
-0.004348740700627911
-0.0036689051344275803
-0.004085727472929019
-0.005740185010487863
-0.003432811319324865
-0.005184467899290582
-0.0037227084264395928
-0.004447747427679637
-0.0042141725839660365
-0.0044545964945641075
-0.003885077785526353
-0.006650530379485724
-0.007206415326622291
-0.0038996610217300006
-0.004815288206794741
-0.0039018834622869774
-0.00565915845311631
-0.0060819343709075015
-0.005159179106995863
-0.00421851007024035
-0.005828347150845608
-0.005847133854520305
-0.0026343888829410073
-0.004565633933979807
-0.0030553872352407823
-0.00494126892186574
-0.005704226639493267
-0.0049669491346812705
-0.004849031699093237
-0.004334970373885913
-0.0038994349037288593
-0.0009669873163315831
-0.0025741231794095404
-0.006621001358174812
-0.005927122166409024
-0.0073746723307819475
-0.006822644755254897
-0.005348402015497055
-0.005430729036498226
-0.005512412478628618
-0.003934865228866121
-0.005429509931459978
-0.0026622241829743387
-0.006204640038339829
-0.006440111984626273
-0.0060145103294312885
-0.0058876077311533544
-0.007132214953636327
-0.0038609819875133566
-0.0048248809905184625
-0.006257498420233636
-0.005064107388796977
-0.004349839373987637
-0.005710785794811968
-0.005858071708857243
-0.0025666481093204185
-0.0034669492092156756
-0.0039346067758117016
-0.004703550163429504
-0.004009477207023642
-0.0025443146859640397
-0.005121705111084874
-0.0045796252798798245
-0.005636839929295183
-0.005020984968993171
-0.004839599217625615
-0.0018085587123878738
-0.002210216835965882
-0.0030245536024392015
-0.002945296589147848
-0.0034395410132065153
-0.00468655940593025
-0.003642012361108983
-0.0027847186311353712
-0.0043659067425265655
-0.003524815000909236
-0.0025552003651719522
-0.0055027330248135055
-0.005049174641308439
-0.007140824787579491
-0.004117111212106416
-0.006935995826931209
-0.005621783511088519
-0.006586155428361195
-0.005863521334231099
-0.00436792773847096
-0.004985686049942317
-0.0032701998490808266
0.0017240209540775862
-0.0003397298912541863
0.0013108281920375736
-0.0017983586731206251
-0.003076781018206145
-0.00550911256027807
-0.003915879367344729
-0.005688468347529165
-0.0070089937919073815
-0.005098340520644178
-0.005299167803677441
-0.006330538968942145
-0.004885639197925586
-0.0034786466409820957
-0.007222708920262082
-0.0049509264238024875
-0.004025980505598475
-0.0012757471625184696
-0.0013940085551892387
0.0019382484997152332
0.0017111828797604627
0.002192711335513216
-0.002471868207998742
-0.00118477226118948
-0.004225589805833048
-0.005439221447810581
-0.007827513733287288
-0.007268459387838875
-0.004357181765529077
-0.005884952342458515
-0.004680183724763402
-0.0030306907363739557
-0.004796309347409161
-0.002172073945824034
-0.0039823303293112225
-0.005703455405611121
0.0009523401772513543
-0.005006645032927881
0.017037469693786684
0.002886875942817434
0.0033567341286191966
-0.0010343058065881577
-0.001215790630560165
-0.0032862598375032657
-0.004995911144033035
-0.004143696023017826
-0.0034934025405904054
-0.0041822859762234614
-0.0036179040081671023
-0.0027781197571999094
-0.0009568241295548408
-0.0030867764862143603
-0.0036145645839680044
0.00340581767341415
-0.004792960472260653
0.013561444339442359
0.024896473628026283
0.02564600636394166
0.005736587072613725
0.0036252455112892904
-0.0020870825613235598
-0.0037316427599856875
-0.003920468807737602
-0.005819250903342454
-0.005782866557734489
-0.0053264974144587
-0.0029277989051378897
-0.0030551773146828645
-0.0013725378714256923
-0.0007681208960765844
-0.006798981078807465
-0.007793569211955848
-0.018716467220012443
-0.049812524114814696
0.09862707557595425
0.025068536634127128
0.022970299025498
0.0019349739822910903
-0.002790471779510279
-0.005281428951746423
-0.005631214718125999
-0.004840687852479158
-0.004845852745489494
-0.004018010589091146
-0.0028362484237451206
-0.005325442559337479
-0.004057064516235847
-0.0033868820194789748
0.0018211816569395508
0.008328099096115977
-0.05393121174615789
0.21526628676744147
0.35343327730368435
0.11328902042085512
0.004509680797502839
0.007164319555673414
-0.005767811801520204
-0.004367127441665
-0.006536533702773017
-0.007061404362590038
-0.006304085461524873
-0.005573469568950609
-0.004397714056419118
-0.004338191426240074
-0.0030175227580803805
-0.0003813552853686857
-0.005633053557644794
0.014208604685312256
0.08426849987771354
0.347573246385757
0.22051986856646288
-0.07515159636032384
-0.002022898557721543
-0.00725407589825732
-0.005322714169862672
-0.006857005227321998
-0.005607455772187523
-0.004858861459677399
-0.0058910651468358334
-0.00673673481286982
-0.004873721817110059
-0.0011629571143027498
0.001264048006826862
0.0009516003455777692
0.01216230800159676
0.02125991678723752
0.026909034158331076
0.09678500845681574
-0.07492690412131138
-0.035688766802509014
-0.024255037512573546
-0.008889705635092346
-0.00894239053468885
-0.006011629749858079
-0.00508417383716997
-0.0043339273800637335
-0.0033799401550171503
-0.006568535606107977
-0.005406689470863499
-0.003553335299760933
-0.0016292445692097826
0.00021170605040407917
0.0015685315673405068
0.0012260733671630125
0.01919191130692367
-0.005658258121853887
-0.015794441386544993
-0.025872879381417704
-0.013410533000502092
-0.009041287435910273
-0.00738700036905543
-0.007263610158947381
-0.006418618040519216
-0.007890146235758936
-0.005158860369246394
-0.00728005270738245
-0.006583528606927069
-0.005517401476841688
-0.003337785025444551
-0.001482659268451429
0.0033290946821881817
0.004176638543695839
-0.0009863533246165265
0.004719021875565883
-0.014072771867938497
-0.009713382018489296
-0.010584870526201903
-0.006584460194458141
-0.0076449712978570806
-0.0054892639491960025
-0.005962700772492711
-0.0057558108538264775
-0.0032852289107270774
-0.004842065899965806
-0.006103021615140743
-0.005621172931741796
-0.008748781356802645
-0.0013734894092172032
-0.0020828917649458366
-0.0021644922980363994
-0.0011231529988441796
-0.003306660420480702
-0.006088744663466843
-0.007984937840461575
-0.004855562569071303
-0.0070021948367802725
-0.007010006270825874
-0.005204600823754454
-0.004772244889534852
-0.0013495146856819693
-0.0040051229161489465
-0.0040298191209040815
-0.006256033089446717
-0.004440107395900592
-0.0048524481029256755
-0.0024709016453289207
-0.0024740653941039584
0.004822369055783506
0.0065132228971090875
0.00592601439330029
0.004950250137228841
0.004579925780833339
0.005045326501453795
0.003563752237613634
0.0024089714870128044
0.001762543581124937
0.0019089366946356409
0.0018953869331670191
0.0023457146928814137
0.0038514879550090504
0.004811311577366707
0.005237642966091211
0.005232737818558486
0.006207423559136289
0.005922352701381149
0.006328864163391737
0.0061685729375505136
0.005783018203773846
0.006693382433957061
0.006253547524976406
0.006109313133770337
0.006259086770619907
0.005309532585635891
0.004592911018534539
0.004783164533353975
0.005746903692113056
0.006380240862040446
0.005419717069072394
0.0063982012998057575
0.006327608649112446
0.006897074601031802
0.007117615767069933
0.006360743409729931
0.006570566270781825
0.006034874158454165
0.006524190353955092
0.007371489555142845
0.007427293927179858
0.007961372280628846
0.007571529115882146
0.008256067876227343
0.007477747032385944
0.00886108908575955
0.00783924971046767
0.008868811211119227
0.008005780539057048
0.007821738332006726
0.00637825637704707
0.006686046032151085
0.0067261572987415705
0.007482585813248217
0.007556911084836677
0.007395510399249891
0.008437501657180456
0.008261758947697024
0.008522683398358393
0.009777929960791309
0.010828216852171226
0.011160165642750979
0.01155684075323896
0.011567114830905176
0.01109882073620573
0.011197973629903442
0.010724444963813081
0.009285465713668343
0.008405269429455173
0.008057419570571028
0.008330499368137519
0.0072895390050879945
0.007858530089757704
0.008522805274485597
0.009099778274016155
0.009155484485087548
0.010961819697379895
0.012185972893133412
0.0136194892350394
0.014114118566614707
0.01644227457650786
0.017015673705551154
0.01548206005198327
0.014255256217716927
0.013609497232044224
0.013031653498611583
0.011279035956491589
0.010638310075187358
0.007871987597300763
0.008027952772219946
0.008497484848501187
0.009762923892889247
0.010048968414478667
0.010888292488124573
0.012751088446288193
0.013972182819578158
0.017032631641748973
0.02097906464787151
0.022803494955064476
0.02365349740636138
0.02224294255554559
0.019865093281349715
0.01681902842418091
0.01409200771328992
0.011783102025027487
0.010676150001167726
0.009175586345766732
0.009253066432673405
0.007834182874164621
0.009391729331719013
0.01068207483604101
0.011653806605289922
0.01307120870721863
0.015653840073664774
0.02184864183341879
0.02736442531179333
0.03352300518754679
0.033958535810761914
0.032149003854367954
0.024672413668121777
0.021099877579160445
0.016392812928401085
0.011999715351679811
0.01092674136326477
0.010937079452307603
0.009210566683962479
0.00935135879910732
0.008298449428296106
0.010586992005370893
0.011357808523208451
0.015321332096887982
0.02019515873294996
0.025282773883652417
0.03605035933990026
0.04693398770421204
0.059920957333246205
0.04432359264980012
0.03657571000480837
0.024083720564759617
0.018962247703253297
0.013310301091573296
0.010895695932568306
0.010396046929334646
0.009181890559508984
0.008321211727855375
0.009250387414789974
0.010075844154321608
0.010982097367815908
0.01628371275506276
0.020276917042255066
0.031180678974412956
0.04653124685636631
0.08380623347579907
0.09237994394312397
0.07944652422298147
0.04177617761390851
0.0315932027554003
0.019310939315141645
0.01464456989739023
0.01094695228642546
0.009822475564744294
0.009018276383057433
0.008748451066354197
0.007334932288728274
0.00912984517710476
0.011399843945605954
0.013512655241786424
0.019886378411702158
0.029979484050148296
0.06547262936686449
0.10389213642173176
0.2884269220186672
0.0962864030667807
0.06330830964748906
0.027868008359493497
0.01962703317743236
0.013801965810403938
0.010046883310733203
0.009293451511430852
0.008497682941227802
0.006548823913206482
0.007244895679377343
0.007921290703132699
0.008916113313286452
0.01110618592423769
0.01146264664191599
0.025207115885709737
0.03444336846372398
0.22681130075987188
-1.692408555110016
0.1920752662093091
0.027571819878010138
0.02653330438388085
0.011653059281789661
0.010039258848355399
0.007870726217265634
0.007364354549089001
0.0059341929829548
0.006597380664160399
0.007353093281287714
0.006553770050179002
0.005636748373223354
0.004688110742245878
0.0028409178471510985
-0.009136919316801106
-0.019305547971028608
-0.2989166209440871
-0.6794861916508473
-0.17544882764334857
-0.004177587109916821
-0.007010230384939685
0.004710332440374232
0.005922943068061115
0.006506201601168366
0.006305167388563806
0.006050504607289045
0.005495215754071855
0.0054095694904167935
0.005920979682776896
0.0033247827420962387
0.001971150792673515
-0.0030786804976716035
-0.011443588531436661
-0.04804489886444116
-0.08728100697940934
-0.23981943509498682
-0.07214753745689526
-0.0415401077165591
-0.00920046071593786
-0.0028041166771440467
0.002707601963336382
0.004182340027140094
0.005628198704422624
0.006232140489008599
0.005247675783719754
0.004067897084897576
0.0031699627518083
0.0017252891006748557
-0.00031638007197022807
-0.0037247383760392106
-0.014678209001178473
-0.02628225908945748
-0.06217824936097655
-0.06786943019550119
-0.05974175082401479
-0.026233504825379252
-0.012179900708857688
-0.0015345044129526201
0.0006871098059667694
0.0029471197981814218
0.004190703673863906
0.005006969788032289
0.0035669487550443724
0.004341527998835956
0.003922218499078782
0.0023076988064439324
9.547046430632001e-5
-0.003325635758324467
-0.008399129002046197
-0.019484914562946487
-0.026770660207044168
-0.04063347585555217
-0.025897496859397514
-0.018276959039423262
-0.007376000790001846
-0.004678107595953763
-0.0006814073020322286
0.0018593721521198078
0.0035704253318551166
0.004928062368777575
0.004309386681095928
0.0037740968330510273
0.004606484600421042
0.001987932294654243
0.0017048749689442795
-0.000984645473555795
-0.005456659135318282
-0.008976471129390822
-0.015492266237819291
-0.015878747242506947
-0.015096446274547733
-0.00887152770748182
-0.005860900042002632
-0.0008253680277950185
-5.408282687140914e-5
0.0020623613397691195
0.0036940359798803392
0.004225647620953375
0.004262125581641986
0.004516202586728732
0.004528835031201799
0.003359191178010011
0.0020303891820877677
-0.0005336303362800204
-0.0017255845583196117
-0.0053305902689266245
-0.006516902508975208
-0.00785588746183152
-0.006581232347325692
-0.005043933699867929
-0.0017156746882186773
0.0010998748908694806
0.0025398617932464907
0.0038493097320612575
0.004218708737900847
0.004926296024238737
0.0039675870524786645
0.005120521473865354
0.00451568481914352
0.0035895694318192773
0.0037596819489103036
0.0027356517845790614
0.001593847761464721
-0.0008852628019901151
-0.0011578324943850133
-0.0032064448199850275
-0.0021490527387454197
-0.0003049575843749551
0.0010648467132030105
0.002341697127828356
0.003102244879728352
0.005270923048666985
0.005573935996507973
0.004549455321449454
0.00395562780457676
0.003388028081200644
-0.0015158382405222426
0.00617329731701167
0.022646755739358773
0.0013973898302276366
-0.01489355105691051
-0.021202327170380928
0.009940640562477773
-0.014998756872364816
0.006479955873172138
0.019966241747742374
-0.016191122162709883
-0.0010451411957217624
0.015400780693454717
0.00198256877373834
-0.007530244347640256
-0.0059008492436806274
0.0015723662046714312
0.014544450778849024
0.01877841672590391
0.0156954850939007
0.013951096255923966
-0.0015335402656311617
0.004518948075599047
0.017772915578646912
-0.0017084857403041795
0.02755635039290765
0.004879797874721505
-0.0020411276816820994
0.0042947016103498156
0.019119822426682462
0.027821128824314544
-0.007292819369756962
-0.029294404366264053
-0.01328523887661058
-0.0004630265388655612
0.006751335748931138
0.005298583447882799
-0.014084890552956458
-0.0123181150601335
-0.026601489381134637
-0.01060854643518305
0.019766967709074663
0.03167576462259909
-0.0058585253821847195
0.0006036416869708147
-0.007396311390278186
-0.02336399018398215
-0.001691267002822758
0.016516616569977067
-0.0009954648689039242
-0.03949383369418743
-0.021390456971244545
-0.0001584900246638047
0.0058527364624342704
-0.0016032132076503574
-0.0021143187336267197
-0.00768135138258341
-0.0281807432689332
-0.0068503486409227845
-0.012797523831323715
-0.005583769077585349
-0.005563989216661554
-0.018439559402469705
-0.019193990175180402
-0.005199930261489615
0.00998870832962967
0.008496309298131971
0.003217082312619654
-0.013187977222574268
-0.01465362529813858
0.0002614105931371194
0.006796858302774188
0.007684016685247919
-0.004185417040317278
0.012264338743792853
0.03256392093017924
0.0002637267511347982
-0.023312628818024955
-0.01507853458562693
-0.00741551459545205
-0.011805727975949457
-0.011924960789724525
0.0077521733862984605
0.016180733576212608
0.016835808687022866
0.0006367330737525208
7.935448840429797e-5
0.010423102370771022
0.02328472770818715
0.0040608424013950616
0.0034278182715335326
-0.014427414159750025
0.010936258032689342
0.03441814278615739
0.010945984387185644
-0.014551740826700401
-0.004897953049466174
-0.00035053554452380204
0.009603092289725647
-0.007672721637779089
0.0003001875637833396
0.013774741506117353
0.007876972889661993
0.0027801654327409015
-0.015124412885590638
-0.002332345857164078
0.011941113778597221
0.01205839378579827
0.0017406517282311006
-0.006187376631040167
-0.015037575557038427
-0.015592617746860844
0.01616927595144343
0.013695455597696842
0.018165468243591134
0.029443204917684006
0.0019104943130442394
-0.009565347627501348
-0.02038708979019731
-0.0016867738104146559
0.005607805960758959
0.01226965505870288
0.0020384171031753136
-0.007642627907926371
-0.008386460825689125
-0.0005069309957394957
0.007258361787457996
0.0035148960492551997
-0.0034158911783812467
-0.004044175199760524
-0.012923322919745933
0.01454536317774721
0.026764070726509548
0.013571085055906122
0.004544078468285354
0.0011043103061876322
-0.0010233068382723084
-0.013026324123538869
0.008972794560912989
0.02154589051093706
0.011930467983413079
-0.013057803734161736
-0.01407600617383457
-0.025073634430160016
-0.010442584345155383
0.000806398323520009
0.010738220964724115
0.004542694871215452
-0.031858443682314254
-0.01590257939685702
0.0033999933920120587
-0.0037457795383300857
-0.013230072722872754
-0.0021767365651788064
0.007944464265520958
0.0004737798042356076
-0.007508795324556901
0.009657534618431173
-0.012196334985236947
-0.019354288829268845
0.0015946769085324521
0.005295751536819691
-0.019920799769087817
-0.013849798621644415
-0.0015672313859382832
-0.005963059335529479
-0.015362822525605217
-0.030796798888172616
-0.002073044510073637
-0.008714950817086982
-0.02215256609052832
-0.007728277456522317
0.00667428812049637
-0.0008595302529733721
-0.012231349885519986
-0.01396991661543645
-0.009310311638214342
-0.015313803524236138
0.0283209025807832
0.02595821538191198
0.01722721017577416
-0.004739734790505814
-0.0025891622058526026
0.00624639188878841
0.0070046937018383906
-0.0012132270853556686
0.01869352973976056
0.020640558421096376
0.003674003420644743
-0.006687560631524843
0.004054840968538753
-0.008478920383420652
-0.004580224775879778
-0.008336437894643391
-0.012451216943128063
0.0004196263130266907
0.02128107610321512
0.028715285584044074
0.009223436009927862
0.00421719432262849
0.008239869460792502
0.0311650418292569
0.013444233498199785
0.006259373046263351
-0.004069372952018958
0.0022410783076087086
-0.00022939934299890925
-0.0058323604802680284
0.004657667656345065
0.022829295561275064
0.005842607960768485
0.006508599735127724
-0.007079182419416932
0.015309523979335427
0.005869657948607076
0.004277932919576421
-0.007691452417777526
-0.017763099603002847
0.004765206007925159
0.012623894187658052
0.008404844501298657
-0.006590554692833662
-0.008239928218786335
-0.010138075193253264
0.0029503865752749494
0.0016915042379307523
0.008909315723322774
0.02782387519296957
0.02984883615820327
0.006191490804958198
-0.014805317059644866
0.012989961502235154
-0.0023136673308774285
-0.01700652562499815
-0.02880020854248031
-0.006937984147609615
-0.010672266861618315
-0.0161431302244762
-0.0034903997923917346
0.0011275971275971624
-0.011054657620308729
0.008047987304097132
0.0295778729203515
0.006459995354467647
-0.009851550997645566
0.008663362069515368
0.009139860175058358
0.003618941011181746
-0.025768886425940184
-0.03610846003635687
-0.024225918022896045
-0.0013793328935314323
0.009186958613961058
-0.001724128703877887
-0.010533512135305137
-0.020847618722504412
-0.00858547351347472
0.0020697537441500824
0.001543032986864434
0.014492512759829197
-0.004155519126764874
-0.006023413319305939
-0.0236965580659693
-0.013362213285759457
0.0009412678874324365
-0.01423214290479963
-0.013834253564010975
-0.015036714542427393
0.015591845760095912
0.01118217570692739
0.03715899984023162
0.010980603794519128
-0.0027778823307968415
-0.012273425844871517
-0.013506138396625208
0.015406434108550127
0.02489118423881471
-0.019464201247217018
-0.006484135617629339
-0.01467297380740135
-0.018371041768599966
-0.0040134065904441334
0.0010339773249005244
-0.0028124285759520634
0.012784145683041856
0.01219428555781679
0.0006522880359457296
0.014989158249549588
0.01166241286846247
0.011674502744076599
-0.005291601257843313
-0.0061863398007478395
0.007075675021242633
0.016621354994886418
0.011420103347278105
-0.002286438723962176
-0.009649491302935248
-0.00854648341576562
-0.008696004129097474
0.009118090503336885
0.007822030211728108
-0.0010530469912980256
0.01926659509531332
0.012030419096275283
-0.019156402635490774
-0.023142560387986885
-2.694178796299135e-5
-0.007859595169210322
0.0036772854976740146
-0.006508078701860433
-0.019797021701543
0.010810734756850503
-0.005407093295801734
-0.00768123288033234
0.01100691698837991
0.007887892462913822
-0.013472235360721105
-0.005470868270443423
0.01690476159441675
0.0013121653249352553
-0.0054348118004529265
-0.005828133166443178
0.04462604319860204
0.021717919975398584
0.01509764138214158
0.0043439487965251135
0.002431759664267663
-0.004818504777771283
-0.011359967104944434
-0.011978386097570024
-0.01068151385381173
-0.009658197026168231
-0.011150660980759198
-0.00949028018113665
-0.005558270597571248
-0.005237829305220631
0.007377908987914382
0.018954100495868372
0.03442656690164652
0.035096578481586246
0.016496894424310786
0.015304458560640022
0.00544866081804669
0.0025218612029297084
-0.0038016765398309815
-0.007174189485459082
-0.009358532857189572
-0.012685998278267495
-0.010517582786790113
-0.012586216532633261
-0.012718715245395692
-0.0140334384767215
-0.008400688488838449
-0.0033870151475963815
0.0004082235637056713
0.005388727300832884
0.011552418622444088
0.018367819294342794
0.00411745804194639
0.003904764021080295
0.0010538690537523813
-0.0009326098088334343
-0.0054483971516147275
-0.012325136527757305
-0.009524863374263452
-0.012462048196604965
-0.02051509906792264
-0.01269734301086502
-0.008975592617429156
-0.00978732389101734
-0.01208638452157932
-0.004104610050179975
-0.0024371052774360266
-0.0017353337098226927
0.0005869627187290451
0.0022017880397908352
-0.005835446551579726
-0.005662080003738721
-0.007216301007803154
-0.007161895296320522
-0.00861370298951714
-0.012558871587996866
-0.013687573835385181
-0.018167981975165833
-0.021902485958508106
-0.014814980977068614
-0.013645185102869755
-0.011471396731247252
-0.010250935327233496
-0.012414417147335577
-0.006084058439942684
-0.004545844648779075
-0.007012713050369027
-0.0060656697650275275
-0.01305377420657807
-0.013027684335645068
-0.00838804844533063
-0.008708530527229022
-0.010494708991943014
-0.011980460089580041
-0.01570910834889313
-0.01688397379560236
-0.016525166006831144
-0.017111613736195422
-0.01732001381901984
-0.01400094236845206
-0.01626807279349713
-0.018733145205881777
-0.012621620951006201
-0.009097993520749989
-0.008223625844904794
-0.008816805960468417
-0.014116163422141111
-0.013144775076397542
-0.012638928030843672
-0.014903199564237943
-0.016960871130716152
-0.015775536026083236
-0.015279423228278844
-0.013859852910486423
-0.016254629918862337
-0.014604524012890427
-0.013918742086916305
-0.016998117311998243
-0.018724279084007013
-0.0166084812644021
-0.01132673933897368
-0.012391803915658604
-0.012078283824899902
-0.01128601352736961
-0.013029674973946604
-0.015980041350384645
-0.014095487398786782
-0.012707684477806545
-0.016824386806591738
-0.013315625855865335
-0.018207021818469882
-0.013144329315401448
-0.01599249998117414
-0.015654324689009874
-0.015652437270226298
-0.017790007302671964
-0.019732902732781433
-0.01471959701553821
-0.01481547961409446
-0.015302607142243203
-0.014086212029755397
-0.009699165889461925
-0.010387019293837554
-0.010235669361173271
-0.005202497447377471
-0.012908006480890577
-0.012166732013620986
-0.014290451302430144
-0.01739402588694005
-0.014708714698896794
-0.013165924960240355
-0.020275912013005586
-0.01476793751134367
-0.01918865298277083
-0.0194678798821999
-0.008560802627440491
-0.010018803870436839
-0.009922606721742715
-0.013453429302794475
-0.005096795450468514
0.0006894956865619645
3.306761547687022e-5
0.0012752802019267901
-0.00704061948656511
-0.006873320276832093
-0.011399151472255405
-0.013358111395058206
-0.01599084074367198
-0.02031889113064603
-0.015398191028575073
-0.015118651384617958
-0.018752329982483645
-0.015899390788560865
-0.009263039212024518
-0.00948135850668997
-0.008238564022287249
-0.0019389787074891853
-0.001268236959394301
0.015806833125405196
0.016563434469172147
0.006509101256370053
0.005179892745268326
-0.0036502976866962275
-0.008646501575840425
-0.017946133315006385
-0.01745557203989301
-0.015213815149935816
-0.01652784123927173
-0.016947170114863838
-0.013372556582945637
-0.011805249210506354
-0.01103170008731789
-0.0015120819660830397
0.0030181300326539203
0.010169353314614589
0.019667543667827286
0.029081309871889123
0.024939605952792227
0.023991270693899693
0.011924249349658871
0.009273936152174813
-0.00012917970071993682
-0.01149502818382578
-0.020591067755763054
-0.017553639487539865
-0.0147236427753679
-0.01730164617629876
-0.013295589813684672
-0.007674462201872678
-0.0035564339820694777
0.011127416728004578
0.012447752162803829
0.022695581597682764
0.027129743763920754
0.024710767439458926
0.05692214357690106
0.03356279745509376
0.033043674161759344
0.01546093136191146
0.002944461509624288
-0.0030838375717183526
-0.01115095693610779
-0.012207364648422533
-0.016468141673039897
-0.012578202879421166
-0.0061569738086512844
-0.0029603167694691587
0.007688948401141821
0.01262970484272363
0.020593173574935824
0.026592016909598334
0.045548714384569075
0.07197616595027402
0.10152617579384768
0.08010234263005032
0.0373061082317999
0.028244348355112133
0.004218605514726857
-0.002458080438456212
-0.007759324145286897
-0.014871673018804436
-0.01788336716852707
-0.011204174345037126
-0.004424655049057196
0.0025462531031543558
0.014953220652462653
0.023959085346971953
0.024920203735217753
0.06421880276125921
0.05710461579892853
-0.030337573196127704
0.16654720838901985
0.1172779269399773
0.06763800316388503
0.03090051709975226
0.01136486227295977
-0.0031931501069180353
-0.00888750185767738
-0.014055256296435384
-0.009545541557506958
-0.005575431762040879
-0.0026040303374374758
0.0024746761536365725
0.015943261198715638
0.01924588600159449
0.04607827730449878
0.056882198563165044
0.020198048390197038
-3.861083759394431
1.1281311980390463
0.27372171479475643
0.04744330321271278
0.03916342359040627
0.01205251030017954
0.001424359257677579
-0.006397077879529526
-0.014851128564980292
-0.011652456387711252
-0.006142605241324333
-0.004759219853060788
0.005693592485090203
0.01548022007218933
0.03211329243966878
0.026146147553149753
0.07769827068810391
-0.04144039523370936
0.9006028739369956
0.5562733583363111
-0.02888656793230046
0.03689405721284294
0.019145158520131707
0.00974012717122497
-5.427552820492848e-6
-0.005090088692219539
-0.00871545402825744
-0.014511310999200406
-0.0078175577552887
-0.0024772443973141113
0.004850130246247775
0.019311828844905947
0.033260119538122634
0.05992059717668833
0.08243634954452128
0.19649526096880582
0.29324192972571334
-0.021818153827762615
0.01643721107708926
-0.004879404985128759
0.0127563008836305
-0.0012039534176984902
-0.0012502072869169066
-0.009708213181940746
-0.011416903254879892
-0.007625737651938718
-0.006598782387026951
-0.007375426220034355
0.0026033397406017246
0.009246916645361663
0.02556372703981074
0.04072486490970942
0.08238357723224389
0.10039138196600485
0.04638407852432065
0.03474192386953856
-0.0015780888149210415
0.012525197269445135
0.005784461597480742
0.0001065014828690357
-0.008022428911500033
-0.013267074354257266
-0.01318289463787547
-0.011970817976539923
-0.014000843719805952
-0.005194390356871017
-0.0029998134085131595
0.005685012919526049
0.014004307652330078
0.038332169057103356
0.04096476776576174
0.07118725683164427
0.0014748733022649013
0.002961166521788752
0.002419026316024379
0.0015329127138773238
0.0026064940142139386
-0.0004547845176902974
0.0018410865715755864
0.0017080045777406818
0.00044842266400982637
0.00027445715409329344
0.0016283152365945608
0.0010444840370542135
0.0008297230608021865
0.0013265684717695902
0.0008413774825905902
0.0023096048182374377
0.0014714822022936106
0.002638528731106892
-4.4237273928317695e-5
0.0007844909096094474
-9.606192120384507e-5
0.00032995565480361925
0.0007639042462421204
-0.0013309616909834392
1.643209103781919e-5
0.000906731661286218
-0.0008530892455318836
-0.0015536409677809574
0.0009727626418851855
0.0005399165895083181
0.001522618379649726
0.0017393772615258893
-4.6076826872783186e-5
-0.0002707831168102117
0.0018153949818617752
0.0006722289605488028
-0.0003556619200445828
-0.0002245179890054804
-0.001493574177444557
-0.0013981110459353337
0.00030637811897891467
-0.0003242352626736829
-0.0009742819607433232
-7.626001933580903e-5
0.0020172656285587635
0.001157136469094101
0.00032855959337443636
0.0011044616467128913
0.0003318609217382885
0.00014777780659221482
0.0002634052748740022
0.001000552258680735
0.0009296637245516937
0.000944008465809196
-0.000703714921516792
-0.0022083837396600506
-0.0011037587019963183
-0.0019232192070328517
-0.0006362971220826169
-0.00160794052121386
-0.0006503748662674845
-0.0013714210200149778
0.00062722375815616
0.00035704747146116924
0.00045706289595117983
0.0011957881855618933
0.0012082659041607522
-3.660326168319092e-5
0.00038653156398131306
0.0008648938269493292
0.0011457444137025602
-0.0014655138061735956
-0.001980547970188115
-0.00281940466749531
-0.0034466753578492465
-0.0035506599971972027
-0.003501343948489926
-0.003681078681837954
-0.00212799037188412
0.00016611042210577353
0.0011693868891691208
1.635330465789102e-5
-0.0016879879204435933
-0.0005064517312670753
-0.0012471149185711117
-0.0005644765241231263
0.0006622915754007281
-0.001050902829409764
-0.0006453903481457974
-0.002505093053050496
-0.0038590728210159708
-0.0063123283692998675
-0.005125133658185385
-0.0045274932441603305
-0.004584307681449281
-0.004774668284221246
-0.002896760202599315
-0.0031229813664191567
-0.0003391183873037031
-0.002166483639823669
-0.0004891476400091076
-0.0006811067058019068
-0.0008976390328969653
0.0003950674626519504
-0.00024604421608554264
-0.0011695749226028444
-0.0016322317571958733
-0.0016614047491484002
-0.007728371452181411
-0.009251704900184926
-0.008828661424098596
-0.009021278961328021
-0.007103339417824366
-0.00450294403640492
-0.004692093541863866
-0.003742852930453118
-0.0016047036894049531
-0.001209982321195553
9.133442128436491e-7
-0.0024575862964087286
-0.0032852754082965535
-0.0004003820325840801
-0.0019218298041920668
-0.0028492479286164087
-0.0043276556300847115
-0.006555450156285344
-0.015015390627538308
-0.01711596536139122
-0.01579569395311862
-0.012007976795138979
-0.010000673506627138
-0.006967535556941842
-0.005126303395026701
-0.0021396564811851544
-0.0016067388882644485
-0.0017907000952950274
0.0013543437315683068
-0.0016255480391350902
-0.002663869254248905
-0.0009007365828132556
-0.0022705546485443937
-0.0016497734798391719
-0.006036534837681282
-0.009387720347384146
-0.018773577377831877
-0.034137700005669035
-0.022559990758950085
-0.020770356299894908
-0.013963156107444495
-0.010139826900253283
-0.0071510932966037406
-0.003234238529258253
-0.0018006194622430865
-0.002300866797608002
-0.00041906269634424826
-0.0011017001147579334
-0.000861131678117055
-0.0004915098445874317
-0.0022816512643794445
-0.004139014882523836
-0.007812021987091125
-0.01386809903251379
-0.04743627783575117
-0.049920549065799395
-0.051318847520761456
-0.024835580124275506
-0.02076271030112327
-0.011458320952943149
-0.007365384146443142
-0.0031838408667776434
0.0003851234590253354
0.0009919322585087247
0.00030971077842133405
-0.0016182637009605181
-0.0014101589715919923
-0.0016134049153567966
-0.003983133689769555
-0.00412202925411269
-0.008556728195752667
-0.01078354367292694
-0.018381471734268653
-0.18156064400329136
-0.05818493074685814
-0.048184125903548876
-0.021988505760330585
-0.013677391567000716
-0.006473256299769004
-0.003513718511671149
-0.000762174387420921
5.189233523622403e-5
0.0006680678384408669
0.00041195907112022076
-4.601815171363145e-5
-0.0024679274706128035
-0.003361394148029059
-0.005323616442710171
-0.001613573231826959
-0.025325851957617395
0.01487037040305601
1.502060672720717
-0.15132067466777133
-0.03314226524985093
-0.026157562592096374
-0.010764487577328962
-0.007863235082644542
-0.0036441278341740537
-0.0013568642360743286
-0.00046698459179804805
-0.0012255705678010115
-0.001434537171990126
-0.0008426671355274718
-0.0015497595202758807
-0.002983898244408826
-5.124095595821209e-5
-0.006425048268070272
0.01219088880324717
-0.5285596327077939
0.09991708237529619
0.02814335087916286
-0.035121628187523395
-0.0068523805823671735
-0.008141520363599304
-0.006707285439689626
-0.0038390220092464674
-0.0011832737062794142
-0.001250956796220727
-0.0014483547883102613
-0.001265857195821956
-6.259865196295113e-5
-0.0009366433612821059
0.0009286148724551063
-0.0014522207279713986
0.011392385309710196
0.0073381694366644505
0.024097684570919462
0.07741506026247423
0.009784759097885492
0.004915207872641715
-0.004296821107020084
-0.0037845355192067296
-0.0029551357412375525
-0.0026714281911797205
-0.0011659612816506152
-0.0006739106581498981
-8.044806323794639e-6
0.0010566032944357231
0.0003964046437255599
0.00047060731489122323
0.0015219915308873496
0.003659476590398654
0.005014413252986408
0.02050353154860349
0.026955516579765613
0.019245491628579883
0.01877769466092074
0.004255012804397575
2.269083745190157e-5
-0.002635876031447839
-0.0009713908762541868
-0.0009609197289377039
0.0008075410557726388
-0.0007157251787957504
-0.0007105949242630828
0.0008749707993578962
0.002134942938592721
0.0033360006856196123
0.0010671811405461452
0.002684748227583963
0.009523834773231517
0.008096471002932213
0.00608562610773833
0.012916542048682856
0.008141970488608999
0.0064677222406635485
-0.0004776964340244772
0.0006271962472550957
-0.0012489689241518772
-0.002065348424244985
-0.002019928724965512
-0.0032080679621291283
-0.0009421001903782657
0.0005665785330918245
-0.00016929858928654243
0.0017975943914410113
0.0026958451048313455
0.002681268472167182
0.003946958457099948
0.007995296147068351
0.006025841207679389
0.004129187945198514
0.004970209428745019
0.0010661483064458783
0.0007916025579490606
-0.00021764337266421525
-0.0011432425991035075
-0.0011303329124910044
0.0009245330684792095
-0.00022798823840847486
4.625640228328866e-6
0.0007217386021072458
-0.0012751247028997355
0.0006530566673101088
0.0014528481800088861
0.0019521121310155391
0.0038097138771284985
0.004080636321416788
0.00260282949705615
0.003265944184760011
0.0035497943969827685
0.0009059085973121302
0.0006273157107918858
0.0006408858087620472
-0.00048344046166126317
0.00032395317004547464
0.0021543181568635375
0.0011994810115350365
0.0012051820302012067
0.0006832846986124506
0.0002281007610974062
0.0022383596402054313
0.0024836142718204827
0.0015110891500106512
0.003129343836073091
0.0035469197246041748
