-0.0003989330629859948
-0.022392780515681457
-0.00012769750960799233
0.00024058053321132362
0.014010289672590048
0.01256231749645661
0.016789401573452448
0.01609336684122638
0.03343612598900739
0.03411244449257153
0.2637344656980167
-2.5784862094534025
0.25324021903123906
0.03436850697636217
0.03195050866617375
0.01565891799840804
0.016887282512161778
0.013183086231696891
0.013867955164738117
0.013025051121926097
0.013317369378105931
0.013049205510954977
0.011527224732865665
0.012575437880153438
0.008531522432555888
0.010126232858131289
-0.006196544526363751
-8.226190910228838e-5
-0.21033177923750665
-1.472037867254576
-0.20577540457216956
0.00040693645062365373
-0.00628669778248224
0.00987261172892055
0.009078400286031957
0.010981125969256449
0.010126608189303903
0.011124859742137984
0.010930612281053851
0.012185422427007528
0.00998177339163407
0.00842497870759062
0.007491822467165977
-0.001891511626949696
-0.008471680128149334
-0.050355009758727406
-0.08479178270240018
-0.25091817624451423
-0.08247171366751081
-0.04943808063248857
-0.007992926720277032
-0.0012764850936185718
0.0077322712277598914
0.00808258428891902
0.009526744741376512
0.009441170329934065
0.010178293826598744
0.009992984462428259
0.007557883025509153
0.0073619590937347825
0.003118750546911431
0.00024255380832741732
-0.013766416930348063
-0.0246630146294588
-0.06797306105888817
-0.07039491108760901
-0.0679623980524262
-0.025140867906672734
-0.013212248418347193
0.0004965429670604669
0.0035173886515221984
0.008175731197220181
0.008861821362436444
0.009118789786576442
0.009066258944722062
0.009336334472135962
0.008433188991170336
0.006183572771329141
0.005334378411551493
-0.0002379485345766139
-0.005220815855450527
-0.01804435728865886
-0.02508914529600318
-0.04318916612915476
-0.026907446040554124
-0.018231721203970524
-0.005076130125071129
-0.0004744258278264177
0.005030714220322127
0.0057781210862289855
0.009089175265745288
0.008687167033967715
0.009857197285861498
0.008793241009846848
0.009291053381327243
0.007392297198553306
0.005331392915843326
0.00431944298899317
-0.002318372182021561
-0.006035225413281602
-0.014868592516835036
-0.014467578257085632
-0.015501835758236597
-0.005297404887743522
-0.0030121751865346924
0.00381225876114152
0.004204876170064926
0.008362360923089455
0.008479382736490588
0.009754861711716661
0.010145818166162108
0.010399572845686107
0.009364604811922597
0.007431250333034911
0.007721119815889797
0.0040890586568712375
0.00280005550337914
-0.0010336503367294884
-0.003418930430278167
-0.0058546159101345065
-0.002770760937081578
-0.0013406645866660698
0.0033460120759706067
0.005147023462439662
0.007842089814176294
0.008363332362420131
0.008820026033221238
0.009623984893895376
0.01072101659698502
0.010829935672480355
0.00998148312535786
0.009931787270062142
0.009299057505568684
0.0072661446338097785
0.004480142639468764
0.004433036678613362
0.0015039542886751526
0.004279963969207052
0.003033752443072152
0.005350554775933799
0.0051165515668775505
0.007572462641971346
0.008688356221067825
0.00941024869619485
0.011064838250155732
0.011354177602193934
0.009978743555645583
0.010675787178274459
0.011515116904061928
0.010263202417885166
0.009905450536643563
0.00894369744344816
0.00862640181789048
0.006877389487419947
0.007082205932870157
0.007177897031768656
0.008111981315144253
0.008493621096407729
0.008116031946642958
0.009002439965666218
0.010507921522200253
0.01165817664702605
0.01207336109521747
0.011342008038356282
0.011627418829404608
0.012185712677748109
0.013049573576691384
0.012395591147909776
0.012834935213137813
0.012280646236133525
0.010044286460759787
0.011465206593415265
0.010089938571275305
0.011199719674615803
0.010999402185128125
0.011854087856062272
0.01104350119560454
0.011374696330085837
0.011404624640848335
0.012468641556890024
0.012798470537736037
0.012247249785519224
0.012245783698999453
0.012390072287308717
0.012873730582531448
0.013191623689303393
0.012977948762775192
0.013736468291017077
0.013993098463430238
0.014303052753204565
0.014875569876610045
0.013366689058179355
0.015161775299552309
0.01417479644382606
0.013058342159301269
0.012076840464221387
0.013425213000610175
0.013806969143565734
0.013728622611884757
0.012986210399397714
0.014818067782020246
0.013383440501629698
0.013421804258134875
0.015059996485925122
0.015215680970989133
0.015788592188203415
0.016053795526077753
0.017545921296591167
0.018293272493913968
0.019463562403464085
0.018590289241013507
0.01881217213428619
0.016931586142677493
0.016974608185322385
0.015077153508379683
0.015195168377610672
0.015596160670265521
0.013922630394354834
0.01490042981296999
0.013606336914819932
0.013767219736594052
0.014550841414509045
0.016280716569284145
0.01774307131537233
0.020152256965091292
0.020817388971291553
0.02385700016873029
0.02486246180254799
0.02403368639749601
0.02070875459676741
0.020512874779356663
0.018373994510981685
0.01688852181990625
0.01565843724754775
0.016387596220813167
0.014305632509957337
0.015690139596495976
0.0139196179710773
0.013763718703303379
0.016224478768088045
0.01783922764313767
0.021062022219015798
0.023073343139050885
0.02762739868380481
0.02878393699565956
0.03211486597870349
0.028986755696280647
0.027643945975031836
0.02317196869790829
0.021311968407929944
0.019414401738999085
0.01751777116641014
0.015723353272230085
0.01453927495436951
0.014206263745312961
0.014359107671111674
0.017514400249985
0.017399426109814327
0.02050079409317462
0.023309587851137833
0.02927035091911249
0.03206919455538057
0.04138650636931571
0.039955048191344114
0.04052259869723087
0.031827599040136996
0.02938596831955256
0.024280722871952758
0.021606191192863753
0.017163946862164565
0.01659384265144047
0.015137741243382768
0.015954411441655946
0.014837133423116801
0.016484225590779188
0.017963284743196157
0.02134882462136481
0.02641677615597568
0.03022468204633797
0.0454480634880277
0.05166791418956154
0.07045708486255403
0.05159713294667836
0.04630899028593294
0.030883961913786825
0.026235946948288066
0.020205902875833386
0.01807071515990269
0.016689850142768095
0.01608190506679719
0.014884279986738268
0.014938700651048962
0.015769846066655366
0.016281120554622212
0.021672507267385684
0.0246904802861046
0.03936147795868868
0.051335375722232894
0.09623593142316796
0.0981950270316224
0.09460069834955627
0.050101485942713214
0.03982942483756753
0.024963208258467075
0.022577718744975675
0.017375554052014915
0.016312330630813755
0.015072851967308554
0.015194229284961745
0.01464197424100444
0.014829887221375513
0.01596074526672722
0.017471042529714136
0.02690149393668008
0.03298722927906127
0.07479670161106748
0.11103351498512472
0.29538108045135214
0.10846161953814988
0.07430846958844053
0.03310644160081895
0.026824809934891194
0.01801478308508332
0.017041494805666947
0.014547901266444556
0.014962623389441498
0.014028941262311257
0.014195415508202362
-0.02089694337914005
-0.020783687983189997
-0.016982672572987977
-0.01750202486100646
-0.013780352775086453
-0.005987119533752062
0.008019292038446792
0.008879604987988409
0.04632582382299437
0.011367431462209972
0.04906562285968163
0.02550730860238146
0.021918902615469964
0.017358673404908133
0.010284909291243668
-0.0061350907371459824
-0.018174094211507646
-0.01530772321219898
-0.018584751035011327
-0.014394973378129068
-0.023256077064639783
-0.024467489036575446
-0.017141341524952797
-0.00891813313357833
-0.010980649746172324
0.02156171403641338
0.014844884960407837
0.0249362605542924
0.017273651556546234
0.021179805804783486
0.011938412960359957
0.012087930579538813
0.002651647791423768
-0.016687338084850928
-0.02489402843072825
-0.019100409986560204
-0.02281271017177265
-0.025965269062377814
-0.015587401183265343
-0.007883495738337753
-0.013472540810721877
-0.014436870370637622
-0.0036261740461601454
0.0038577170871003106
0.00521686822072704
0.010716679154103431
0.013458172359220954
0.0017712527115474495
0.009551548212221593
0.005882706561064426
-0.009711187921812631
-0.01689385050835041
-0.011807960757687988
-0.021106438945318728
-0.018351217250828642
-0.013734414415081431
-0.016988118390385422
-0.020681845817284324
-0.01778668932019422
-0.012651355920906597
-0.012759792852014024
-0.018175893707851574
-0.01153643413553404
0.012158701195082135
-0.0018799858487857897
-0.012067344222733067
-0.01627009386570645
-0.005781127926551114
-0.005814948019196333
-0.016274038152778315
-0.0260877433478
-0.019270938081201897
-0.01717722264744993
-0.022912712271018335
-0.02980709187514986
-0.02919287771119231
-0.015733065260128413
-0.02584771668804531
-0.011060220287318944
-0.019505865602615295
-0.01725731237706924
0.0023142495132844566
-0.005113222512434754
-0.017716862037722034
-0.004562164272078417
-0.008324944989772336
-0.010372203858843687
-0.013894876853142758
-0.02493015553874936
-0.024940304138687645
-0.03511678669786607
-0.02244389611465583
-0.02606888589639463
-0.022543299637301853
-0.01985056078238643
-0.02091611239818018
-0.020647457247482657
-0.015817019940204284
-0.017552068837774937
-0.012449748212577876
-0.01106631603605051
-0.0033877367494228915
-0.002607073002000114
-0.01968883309174305
-0.016320080444622038
-0.019481208416793027
-0.020332362991164567
-0.01652606572763465
-0.022506622143716824
-0.014419012999699065
-0.02388668924008743
-0.028006616684300253
-0.018744066414397315
-0.014614900202362351
-0.010399605590339762
-0.011793439363027465
-0.0038232511300582556
-0.01193521249551446
-0.018153001112457812
-0.014514236444894097
-0.01545058363803387
-0.018149358459827594
-0.01718248305885957
-0.012538856875306386
-0.018454726379643988
-0.029221972664462678
-0.009473855220248087
-0.02565969185038979
-0.019884345239790165
-0.020079620475842296
-0.01841035376440962
-0.01096497980250098
-0.023822646835095718
-0.020668005289069823
-0.01308922835561639
-0.0078829200319545
-0.005042700081044817
-0.006015138531954167
-0.004115044778711592
-0.006845560040265885
-0.015799407515971555
-0.016078222116087535
-0.016977502796668105
-0.02126220948356
-0.02505988680900459
-0.016947621176543547
-0.013174930582571324
-0.0220013470579246
-0.021379081142737656
-0.018709122188353914
-0.015873172816785703
-0.0020356442349269595
-0.008628407049565688
-0.019295381939399378
0.002678456549356132
0.0009602332104273206
-0.009549233886731075
-0.003289968221847013
-0.015886458093344408
-0.00785439080579616
-0.011382394064562495
-0.017541485269292993
-0.023118536394660882
-0.018335519996953844
-0.008634239258131301
-0.015197896521916684
-0.022501120398790174
-0.014411188648245681
-0.0010472128392318468
0.006447075393711922
-0.0019272270628134507
-0.012383272402844016
0.00842373313717117
0.014003321284257105
-0.001846925736749161
-0.007556074363946523
-0.010344668700788403
-0.01079389529845761
-0.021632999458542055
-0.025232708024009724
-0.013030976932228504
-0.013874653259447318
-0.018059255553625458
-0.012223695755999837
-0.010189932868856211
-0.02110848525526656
-0.009696623137511127
0.004109123395169546
0.008172060998728532
0.0072403595741706754
0.016492374320478738
0.003522739785625634
0.0038912208363749866
0.0006062269079437217
-0.008500730901447803
-0.01965415903282353
-0.016871836933877907
-0.011058865593226093
-0.015717433117425607
-0.011511147092975274
-0.008113532678029672
-0.003912734285750387
-0.016060973140571606
-0.01130174711960349
-0.0005432578963944302
0.017847338241525693
0.02951788038073442
0.04533244564811655
0.03352819284512681
0.018573736648948024
0.023894654914043325
0.010533787452746487
0.004586360227006642
0.0047588875014248615
-0.004549932893177684
-0.016191236745939974
-0.008592346142770978
-0.014616041993293185
-0.007235355024906296
-0.011082685215883858
-0.01306411845477288
-0.005928523204117287
0.02389109320740212
0.04136341304636221
0.07841599175348767
0.10330421555690164
0.0837856818421621
0.060272831756705524
0.04046182890086694
0.018293214132172785
0.014082439761349607
0.000837292577456273
-0.006362076010773374
-0.008610771996076044
-0.012424761696792887
-0.00886929389007977
-0.0015110236281405114
-0.0036292749352374665
-0.01018037279502145
-0.003423435137628449
0.019146891715764825
0.07955572696713606
0.2801089298549542
0.2207664440263195
0.12374206034412379
0.12077309490029857
0.05974982384579371
0.027962302317223648
0.012691308904673935
0.00787089857587077
0.002853032456833078
-0.00925801725379477
-0.023074107524451576
-0.009277490365730886
-0.020784656588912077
-0.013458953930156232
-0.01428666616716348
0.0032698792539706534
0.03809348331986358
0.15394820477337776
0.10739973772614962
1.1930824421307769
0.5084772855867857
0.1217528789670625
0.08794165916965588
0.04182852045880036
0.02597421218170055
0.006857624585525082
-0.0003448927256069495
-0.01241637908744205
-0.012613288097390256
-0.01925583457577707
-0.011943419431390542
-0.02056730992531897
-0.014009547882710542
0.017371598046672897
0.03495619160866997
0.12434028484817622
0.4767989813628054
-4.483455927973253
0.47229377705154973
0.4599217896319191
0.06542183769910281
0.04538118816019803
0.02509986688000606
0.01735070128171808
-0.005976377455589971
-0.004017585400632775
-0.0014271730475770553
-0.012902657092132033
-0.016418133701379452
-0.015467469835347844
-0.008061505638232795
-0.00031594211554930476
0.03500152517666375
0.05217666627066169
0.09841076468082842
0.32156312638429785
0.42288164115900084
-0.0021827785316905013
0.08005323748388535
0.03735310961651028
0.02928068387991747
0.007750181253889542
0.0040733147788378195
-0.013996210066319258
-0.015430203680471783
-0.015837409691381414
-0.02286432996758163
-0.017036279486210826
-0.00995819596517959
0.008243099801968603
0.0075202956758752045
0.035980289063612746
0.06791022516806856
0.13872725357346494
-0.10101476919763759
0.06956739090866436
0.043973465526778006
0.03958492404593394
0.012488463061752038
-0.002721920982674499
-0.02044209398619034
-0.016068296417957314
-0.017491180158022514
-0.019284031994767064
-0.01777666292796273
-0.017581178466850245
-0.01708688516114431
-0.016109077497073635
-0.01208762025713478
-0.01263814232251969
-0.01057124672846065
-0.009976434935781599
-0.010478703371690655
-0.011216265170066566
-0.01142430077490601
-0.012953454506743881
-0.014002659462169846
-0.015087985615142085
-0.01669369830894688
-0.017353654876457052
-0.01803790627959241
-0.017218855720737468
-0.01756773835286549
-0.01613900251660858
-0.01674284553592699
-0.01582070724434329
-0.015085655203806173
-0.01286101017490075
-0.011545536116914876
-0.010989144614781335
-0.012110137953141302
-0.012517226148603844
-0.011750655142523818
-0.013793990472565607
-0.014599361369516107
-0.015601540436798187
-0.01683562084398247
-0.016592366930437523
-0.017814765954529584
-0.017596912221144477
-0.018018445486855033
-0.016706594542656862
-0.015258182165235987
-0.015424814485309147
-0.013946287567447778
-0.012747145876373987
-0.010152242588935509
-0.011777116487359327
-0.011653968069698118
-0.01169004018491648
-0.012075956165000611
-0.01389188417355433
-0.01428567703583828
-0.01500503465344157
-0.016067451927930847
-0.016882794861249096
-0.017384921458656583
-0.01798468284466572
-0.017781152155709763
-0.016895720987865053
-0.01668892673851448
-0.015290711012112341
-0.013740011638500148
-0.01271532850982831
-0.010396480991805854
-0.010045882545956973
-0.011339955166760054
-0.011921120850934707
-0.012734448784087578
-0.013279419974522444
-0.013098011655416767
-0.014082331035221633
-0.015716794726545812
-0.016346315419743726
-0.018059587356558854
-0.018806787893058993
-0.018155742051981973
-0.01848001375532769
-0.016438117467197356
-0.015773147416938197
-0.013535475088853246
-0.01252134224211852
-0.0109150770768775
-0.010496600223069908
-0.00998763761491612
-0.011342620816605933
-0.012351892396578308
-0.011909296345902542
-0.014289307908236437
-0.015450966106465685
-0.016033825054957956
-0.01663433195730561
-0.01979045199328826
-0.019945940949142257
-0.02100574446630787
-0.01834821134795239
-0.01802138881496547
-0.016255619305904342
-0.013425927787761496
-0.009377361085616653
-0.009787541729458098
-0.00840934506263857
-0.008666318285058662
-0.010481701634695273
-0.011624989265032333
-0.01257911986915231
-0.015300639484617486
-0.01574111512268834
-0.017331397837330547
-0.017930515602996803
-0.021484646309817765
-0.023263682072578357
-0.023259116225342002
-0.023326058735990557
-0.020675709598748142
-0.01911147072610003
-0.01214907019665312
-0.008832011141907258
-0.005474664540525027
-0.006576172134063545
-0.007415334218893537
-0.00945628230258991
-0.0094759309677898
-0.011633232711001964
-0.013366804767423328
-0.015202788649562753
-0.01656780839493334
-0.0198786945889548
-0.0227868007814055
-0.02542508658287447
-0.028763076310904273
-0.027789746308892818
-0.027475255978866547
-0.01965214219102101
-0.00979824096636945
-0.0014459898159434976
-0.0014668493214670625
-0.0006575115460975901
-0.0033146221249242625
-0.00574344037720201
-0.008241400275399784
-0.010390087141616357
-0.01317968879074896
-0.015085968413571458
-0.019085736959395815
-0.02055073890183435
-0.026096995417035126
-0.031072520354758455
-0.03377123967239386
-0.04104562123902731
-0.037667191624529146
-0.03350586817608541
0.0023610180253397436
0.008273986153030634
0.011373767377599242
0.004538309425842517
0.0016585632654168194
-0.003831781475781027
-0.007098848017785303
-0.010468888568306519
-0.012932869697803172
-0.016768393961580048
-0.01990097365477368
-0.0224774961189833
-0.028963230696096035
-0.03484691882597093
-0.04715707669164033
-0.057103308608360194
-0.07585360950478567
-0.047051269635867636
0.01626439115080182
0.04422813034457504
0.026053198188103744
0.01665955949279233
0.004838865913281046
-0.0005674391568646993
-0.0061103254584745
-0.009899988355487149
-0.01296054553962957
-0.016485614039929188
-0.020098067563089794
-0.021836476316753617
-0.030317611641932602
-0.04164929856708918
-0.056484978068348735
-0.09601264710083017
-0.12504096270131992
-0.25559813347055
0.21628175247613846
0.09412702508155094
0.06461178551440719
0.026360728846430228
0.013519807052192533
0.0007130273252456546
-0.004221083011258314
-0.009487257854320408
-0.012138096176747933
-0.015966301540937842
-0.019616584076699913
-0.02401201397019737
-0.032733942862485016
-0.04137588914474045
-0.0692110571928363
-0.10382232543654471
-0.2981924996441639
2.843967119400507
1.8980375133683807
0.2564034005171301
0.07295782422162175
0.03997347716127736
0.012420274504612869
0.0023879447621670906
-0.004799864582047383
-0.00865307891077745
-0.012487372774629349
-0.01606441870943147
-0.020398035183304776
-0.024662938950800087
-0.030075841527517997
-0.04159207534488324
-0.05414813386449245
-0.09237276578146057
-0.1059323058320959
-0.20115427308407557
0.16735628839416236
0.07574556768542437
0.062209277985387404
0.02584609020292838
0.011515471014328116
0.0016542389989736802
-0.004863530339314818
-0.009335755144594914
-0.01271730723985818
-0.016251006055046265
-0.019680598684688407
-0.024634230885113195
-0.02871196802809555
-0.035405246452906276
-0.04485261686051716
-0.05223118683746764
-0.07239465808542013
-0.040421372929694305
0.010893983333621413
0.04231344772263728
0.02401613305626981
0.017233434645780303
0.005135411108765966
0.0005237307839624317
-0.006688594308132579
-0.009500641195623969
-0.013277936570482485
-0.01533494944087251
-0.018716141234196296
-0.02286123357636543
-0.024786235236689044
-0.03064756170724788
-0.03242203628615098
-0.038528522476343245
-0.036015765617498655
-0.030999237448092385
0.00182724205369234
0.007121068994989179
0.010089191751632639
0.003894204162822253
0.0013705699058745825
-0.003167870624992728
-0.007089934220783034
-0.011298983521992954
-0.01289846620678966
-0.01575334869317717
-0.01874557476435326
-0.02226708803252167
-0.021406480734623146
-0.023963283964772875
-0.028449089395973966
-0.027256377901770504
-0.027657098823341903
-0.018054367775865415
-0.011498706073558677
-0.0016979704402502527
-0.003089004263269468
-0.0016028726067526683
-0.0035865950549804795
-0.005112729457086164
-0.01006900762863283
-0.010828952169690584
-0.012755126500987818
-0.01474880998860841
-0.01764656406044539
-0.019847147441876302
-0.02013952456084852
-0.021636082265227372
-0.02255855721904046
-0.023091546451656533
-0.020279783845514723
-0.01753048040852397
-0.010898209120611107
-0.008687685735000884
-0.005951873904381785
-0.007037281080742791
-0.006159360285107784
-0.008149577563624397
-0.00968236515357606
-0.011412298091487014
-0.012541032161846061
-0.01629862141783982
-0.01724179319974155
-0.017829697015425104
-0.019270347081883823
-0.020041066541449878
-0.01973953527146668
-0.019375767736512017
-0.018070821796746364
-0.015290475858594763
-0.013090602197426013
-0.010818067866397135
-0.01077551063705671
-0.008201193539710702
-0.009200272188140983
-0.009879108595301628
-0.01062303947456741
-0.011637180786163296
-0.012912582239929322
-0.014826900364869496
-0.017494153085157615
-0.017353316806438143
0.005677218577542572
-0.010201846895604074
0.008847419040853418
0.006212214196252088
0.0010395788600973002
0.0024091282382513774
0.0016717617206932363
0.0016229914592167903
0.001121517336999753
0.0010904587750315232
0.0010738092648896022
0.001362739931791421
0.00133968031659586
0.0010588886135383792
0.0005841361506911178
0.0024788932009067654
0.001395870451726636
0.0059077318674341526
-0.7323363848690368
1.1282633831332705
-0.7166805606826896
0.04275393669682643
0.001990158765319223
0.0015546335543354828
0.0017584134813281474
0.0012745429346718387
0.0012696412082717462
0.000788855700467994
0.0010619016737844007
0.0009333012215172331
0.0024446104394992892
0.0012807460851088292
0.0014146789102475329
0.0012519155034401326
0.0019488899696435582
-0.03953483939095381
-0.005692138860451295
-0.006928335180751594
-0.001781387483718362
0.004274520598726285
0.0006588674762807859
0.002553032713439001
0.0009504482380380898
0.001310662282236185
0.000612856740746365
0.0011005467478927727
0.0011767261719238158
0.0012709725456891794
0.0016725836409620374
0.0020028882128290855
0.0008300726967793787
0.0018839567308112874
0.00041518257325742465
0.00260013616807786
0.0013519174818959602
-0.007440886547899375
0.0032825817439124517
-3.811478261101181e-5
0.002306775012441191
0.0008415486858123162
0.0011369976971505214
0.001676455249701149
0.0013393669606606992
0.0017586416402787847
0.0017466674311052306
0.0012953654916656484
0.0014507577686379304
0.0012854687392210122
0.0015920263300403996
-0.0001120941228874774
0.0005460948986971781
-0.0014556725648747154
-0.0017538718794822114
0.0010681141272549718
-0.0009876381526129643
0.0018615561906693081
0.0004992990550336601
0.0011732778410283732
0.0010199042236234118
0.0010989047327920214
0.001291750241410245
0.0009893652868424208
0.0011189411702866151
0.001237594780988168
0.0007248459662972063
0.0007211808424446511
0.0003751858388344494
0.0001153949229587814
-0.00075720001086725
0.0006613082382960018
0.000767592354715703
-0.0003109567736031173
0.0005741848491048153
0.0005374187692167978
0.0008929235722735277
0.0006396242739725787
0.0012115541768201751
0.0005709957567129668
0.00029647040264210516
0.00012469897453285287
0.00035499675447496395
0.0005906441663360779
0.0009375253578066097
0.00020835827105778636
0.0004875539162170941
8.378852053408057e-5
0.0001923189374241701
7.733598990331691e-5
0.0004161833242832818
0.0010663360464789901
0.00016930101872534615
0.0010321119231061903
0.0008325689339123787
0.0013084692356199635
0.0005961642006448373
0.0012068907062912672
0.0010368477934732767
0.0006433721141330054
0.0005928952579339332
0.0005825498573182469
0.000696182415374252
0.0008195397250034442
0.0004021312888297913
0.0006675051754532897
0.00025068520732364984
0.0005360784463006627
0.0004899344158587845
0.000905852331105696
0.0009400914582603281
0.0007584537990805855
0.0011196093297483611
0.0008996091513945989
0.0011578468232362443
0.001066388052108819
0.0010875988424426195
0.0008215279670900127
0.0013985799116424287
0.0011922318792005997
0.0007233659898005503
0.0014366956927164686
0.001001111859715922
0.00023779364637243396
0.0010379136694916157
0.0003633877642818851
-3.276409601420865e-5
0.0006538260855342955
0.0002789158992247291
0.0006870017469488593
0.0009788364187328523
0.0011357189808155752
0.0011324501228340762
0.0006799540351223306
0.0012269064410355794
0.0011229189217340978
0.0012006973437062721
0.0005643759385889459
0.00016335850126650221
0.0008577961250496354
0.0008757568967627926
-5.546026857458027e-6
0.0005685515838223063
0.0009752331390801741
0.0007140700606291447
0.0010310442158115653
0.00045773644696805484
0.00037064846422299273
0.0007722755913578894
0.0005313166593200472
0.0010399304731311067
0.00035219702201723824
0.0014108346673680945
0.0011838659535294788
0.001099944012277225
0.0007947500385653697
0.0006284492433989867
0.000511655185335258
0.0006921034523800426
0.0005842403287042431
0.0005978630921024467
0.0005556195504916879
0.0009618956400605564
0.0012094881502365006
0.0010819132560369728
0.000995884228754576
0.0013055313296603714
0.0007992212105447794
0.0010024760003442407
0.0001989541010080389
0.0012813571955001973
0.0013266669246879668
0.0005709827690598611
0.0007305959433062157
0.0009226335897980517
0.0005232702106297567
0.0013519509738560455
0.001213018350520892
0.0003207304911940065
0.00043719412640021475
0.0013121769397267443
0.0010202809825720712
0.000890320519099288
0.0008052049962150241
0.000705254472675481
0.0005031686639651335
0.000384284373905794
0.0006899580195143341
0.0007371929282248831
0.0009152878451094552
0.000929328867792926
0.0012890618770749972
0.001249570326894217
0.0011423546566296794
0.0009644570230955744
0.0006349278453845428
0.0004355712658490479
0.0008611337248111855
0.0008391733607840234
0.0012173612435448173
0.0006382424171142939
0.001336261021615136
0.0009879469169605663
0.0013425777719366884
0.0011520855575454262
0.0012093485870292308
0.0010961794727130934
0.0011905442127426611
0.0011033989840837227
0.0007483245034556015
0.0011322205886014544
0.001298766972451571
0.0011912291006043014
0.0009874028932440242
0.0003792909889595281
0.0011377441316069103
0.0017430028910378874
0.0008774915942945753
0.0011661266307138845
0.0018116372738507924
0.0011313870275387904
0.0011429038438073745
0.001092109016352404
0.0004788008459540904
0.0011542381421011908
0.0012870993750828228
0.001103651611461418
0.0009313008733507909
0.0010616052548728322
0.0007136289445080383
0.0007930786042146621
0.000606885535599972
0.0001835792544980235
0.0008503067989472259
0.00117963494677705
0.0014771081512709853
0.0016949083689426793
0.0019560694347836565
0.0009351822462596338
0.0013217997333431681
0.0009155483783402666
0.00098862879934753
0.0005793395671653719
0.0007400496741299567
0.0007098425713199182
0.0009526744875795937
0.001180505155983439
0.0008977957792575322
0.0005076047454629325
0.00042257482309198785
0.0003787950541437104
0.0014551025453570648
0.0019215500227695794
0.00033676579326530733
0.002323886425947332
0.0012044371656294958
0.0015299059970039046
0.0008251129934980892
0.0015589048462283654
0.0010643091070698454
0.001039788524465292
0.0009623939654321424
0.0011408826968901575
0.0012473155155771803
0.000975368234781799
0.0007274120045452072
0.0008571605009686815
0.0008014652082519384
0.0015929927780644806
0.0010684490670075097
0.0003762239905825775
0.0032537160907776786
0.0004629916219054223
0.00295590222665935
0.001347672750606378
0.001669604895096061
0.0016862623855369242
0.0010089431241974754
0.0010440428324155087
0.0009572965566930452
0.000996239516544358
0.001474901377388746
0.0012464480516937186
0.0014715610032384966
0.0011818853503421335
0.0017888368518615679
0.0009280561174901118
0.0026488388335578956
0.005509537532533748
-0.0049141480122675135
0.006969544019303884
0.0007260721827410041
0.0030326014154628466
0.0015850427978912718
0.0019841350118061825
0.0012890689003504452
0.0015060216703600767
0.0008840376814133778
0.0010241799372904766
0.0009024071869778342
0.0007853296434950601
0.0010219895051871318
0.0011420706807652723
0.0006643499993831738
0.0024878084056409993
0.0013222415971468413
