0.010113220509197903
-0.0008252298622032374
0.0001744174532320341
0.00029323969541790565
-0.00040034312829550714
-0.007360060242916435
0.0007156988365648578
0.008979416009349171
-0.008032040179715042
-8.826980666578081e-5
-0.009172344847136927
-0.010684124000430695
-0.009788662042201022
-0.006548428590202834
0.014756146588561364
-0.00507552374358913
0.008719834149834616
0.011823623397766592
-0.015473931309307024
0.0036942633941799445
-0.0013932839533941379
-0.013539031230020624
-0.00664772231167206
-0.007723576768263046
0.004801821781709232
0.016372032216694768
-0.002871872337490818
-0.006764871586913515
-0.006210042992230477
0.010317906033492365
0.01747489705574189
-0.014845877973357931
-0.014234598124377405
-0.0029353551863866914
-0.0046210620979907835
0.004956089207806313
-0.005430230830150821
-0.0037141505567887907
0.009557448326463918
-0.015922817975696845
-0.022534557074936446
0.003794304240284394
0.0010265299907092937
-0.011426990654116774
-8.21667655693456e-5
0.0012923006213140212
-0.0053812052142633154
-0.011091455148456709
0.00565736568800311
0.015375806421414109
0.015088154515336303
-0.007674283573238386
-0.01290591039606851
-0.01654049010967159
0.007310821473280204
0.004524042161306531
0.015282241074098079
0.00974539908968064
-0.023703116478488714
-0.004518238229210414
0.0003078114939621358
-0.007469956169461097
0.0047196216911397065
-0.005368208242599391
-0.009884094152355843
0.008598356410192862
-0.008848005162022464
-0.010515830329735024
0.0016120683265831842
-0.007767654783598333
0.01380696829762885
-0.012802207726475267
0.008195901844260247
-0.009001752631105774
0.0067429540022302245
0.003980287824067068
-0.00648936484901968
0.0016843722571375673
-0.0012493519653208908
-0.004110968858672312
0.014968809594036505
-0.012180077064782087
0.010319348672374058
0.0028415173583253178
-0.0012611067888918335
0.005306499127175219
-0.006766449261419809
0.0041930555821822636
0.006585698404601164
-0.0009274208561508414
0.000861558016954614
-0.0030612772261388735
-0.01592686232895849
0.01615927872797156
0.016455352373692955
-0.010562964798416702
0.006399361052938018
0.010292830324312462
-0.004044721153324506
0.014683681735461258
0.0015631780878401012
0.013726451467797735
0.003256403731457753
-0.00016455938957426293
-0.0031679029596240723
-0.01394440891497279
0.010132641169361814
0.003641014133660436
0.0067439222958105985
-0.0021128056642082823
-0.008333193391896985
-0.005971449312384175
0.00626486756673362
-0.00866264657595882
-0.008136602528222604
0.013559115812730638
-0.010641764179735419
0.011405464414337662
0.0011478300425397773
0.012165948414371488
-0.006655429950181043
0.00954999046853687
0.007850589457452076
-0.006497054748763184
-0.020185751958663883
-0.018706644845495078
0.009483201703676343
0.008387172685233575
0.006015372807088184
-0.007820671909070868
-0.001767256669453003
-0.010909766887229607
-0.0009062885605733368
-0.006165680304422964
0.0035696679083214826
0.010911736979025961
0.0019024427253039673
-0.010836293201809932
0.018533465968273526
-0.009455853662196013
-0.011857948208941295
0.012133171306693946
0.006784724879833401
-0.008917519134993947
-0.011082924841476816
-0.005728828240210936
-0.011013265015674326
0.007269247109421668
0.003326729395375743
-0.006350437287795904
-0.008385338347898466
0.01646061861411316
-0.003336828999484017
0.0014660968534035022
0.00992449606034322
-0.006053908092060555
-0.0017668685921967565
-0.004320171367196514
0.01642213393077137
0.013613600185188781
0.0006371119893512462
0.007984963699280177
0.006837125328287601
-0.010898553564839335
-0.016244934981082867
-0.0013137050625549283
0.015830117586736143
0.011020125398763337
-0.0013966365324415229
-0.005204966036795986
-0.015516527999498169
0.013364021687060692
-0.0037047901216239057
-0.008907362629443537
0.006439454237968915
0.005897535813157855
-0.008732579662120682
-0.0031682819940090636
-0.01646299845818564
0.009751681425637133
-0.003353133313465576
-0.0046694567744000985
-0.019968947579138082
0.00797073621372348
0.003256837682599772
0.013022399294669144
-0.0016511606295101125
0.006470765852555909
-0.01769702509605804
0.0063114815288203225
0.0013334698841602623
0.013469736635029586
0.0013405721943412908
-0.013063989884497494
-0.0009282792465947942
0.0034877405561241246
0.012033206160505152
-0.005067634558000856
0.0031938122665409194
-0.004812418103171355
0.0037579081660495117
0.00016052262054195503
-0.014872691780208858
-0.01975689523527396
0.0032642294030933573
0.0018353100379115278
-0.0009130802101168212
0.005697978513642943
-0.005399556790329543
-0.01401333138321893
-0.0022745706621387224
-0.0033287306238246194
-0.01594400238145941
-0.007988878244862989
-0.004400114613075913
0.019048321100738064
-0.00047271653460899095
0.0012018826601262697
-0.0009308539590486154
-0.00827949479488388
-0.005600575300444071
-0.0038986854559339783
0.008923671001966813
0.0024931765061861027
0.003080544775157882
0.00909379300435862
0.00023257642416092293
0.004709137813877615
0.006444605408185378
-0.005294890646128745
-0.003058048727166356
0.017186429757106225
0.004854101192441267
-0.010422184862513964
-0.006125664029914645
0.013761458830056224
-0.015476591409948517
0.0056312106923036825
-0.010752085585602736
-0.003373536756346324
0.009381839791132213
-0.005599720553388366
-0.0006289434609081301
0.023818014047165485
-0.005814896945197629
0.006762983252301594
-0.006779652675262713
-0.0007082278020859112
-0.005910232411012235
-0.004350915041948381
0.0064223992977712665
0.0009198228521981389
-0.008377999237088726
-0.0062823760051611294
0.0027968973737197375
0.001286729360899089
-0.010749708372889528
-0.01252609944453019
-0.004250721683771624
0.008253672990701942
0.00318303531584704
-0.011280223614043699
-0.006910204011762432
-7.034644102804188e-5
0.002059117398852163
-0.01037989543170404
-0.004547256750787646
0.0062109680780010335
0.005364853951507337
-0.00025289795090115705
0.023823839423656637
-0.0013903176587646373
-0.002127216265974679
-0.01802925982827971
-0.007433281858750815
0.009710285669649776
0.0043626894831019355
0.007773292497627216
0.0037162901982021783
-0.0027639776206751583
0.0014546628850912757
-0.003945303635079931
-0.004185666574809746
0.005675354227890841
-0.006374450894780838
-0.00358823688933352
0.007768561378975658
-0.017258984374165818
0.006468059515689832
-0.010981994982730916
0.018011182708558365
0.012911699919366979
0.0026221527182566135
0.005571318665201797
-0.006034174162665117
-0.00674560017912648
0.01785336327004807
-0.0006957191410802103
-0.0006133369814130119
0.00328601575438202
-0.006441869848005268
0.0017148605066788876
-0.015337286799224891
0.011078452878990681
0.010820486584357542
-0.019987224683315888
0.014790505437723457
0.008595212581278131
-0.00564566974049915
-0.024782001091324637
-0.0061578782214301575
0.00174559975053039
-0.009810689102861418
0.002812108780215335
-0.0037322559011298113
-0.01723136227536531
0.02277739457676187
-0.015231558867586523
-0.0037883387709013363
0.018360570084940214
-0.0017110705893511515
0.008757727306147215
0.0038800170803097362
-0.0032145517458876645
0.000759059681784319
0.005954183252570156
0.013616247394830878
0.007397543081025899
-0.01794961750390731
-0.0006490773929942913
0.008476151182659597
1.8479700946690079e-6
-0.009086885349405584
0.0014591330251826373
-0.0015571976667176554
0.008936036689590445
0.00013702016165733456
0.014814705119719747
0.00852828326419048
-0.014030074766219848
0.005105689567773674
-0.007421323940327885
0.003165785690302218
-0.013483073321899795
-0.006451620003037571
0.002382810586224342
0.005685152345891269
0.006943158823832606
-0.008767737733429634
0.006423456659274208
0.002363240651284294
0.00877340600722463
-0.00640336821266687
0.0023730150868127133
0.006985570910738761
-0.0020158020802451063
-0.0102664060709201
0.014798822453603309
0.0035127727978745537
0.002847611333735584
0.0026727264039373517
-0.008684094758496184
-0.00022881767385049588
-0.0031672607676759045
-0.013500647061402
-0.001901958342129658
0.01608458583681983
-0.01207901622715618
-0.0008094008516671386
0.005743998373505157
0.0048683267496089
-0.0008037615334600683
0.003847625318937225
0.00046341905911333973
-0.0017561234229396686
0.014833874425041206
-0.020293929577731695
-0.010903195700143989
-9.624539793783851e-5
0.006280645253671941
-0.001456140562320866
0.011496637281421983
-0.020292129380038645
0.004953531735298344
-0.0011280566352831096
0.005433762527145753
0.016638555864260277
-0.00206587327332342
-0.015321081275974775
0.00793598187250527
0.009430272889644403
-0.0008019546926672566
-0.00098602580173733
-0.00975059186385895
0.006537885578866217
0.018187848843687432
-0.004036792773564375
-0.006298097153938308
0.014351608504926118
0.003739614233007021
0.006088921412706398
-0.002778470577587374
-0.008801688676714083
0.0026406457478580494
-0.001081237246719271
0.0050378593191653534
0.012505001658368571
-0.005567977643281478
-0.00042986076478719343
-0.0004366030415408952
0.0004593410015249098
0.0016287284658291312
0.001195286399890833
0.0018438257233678525
5.8838464604532873e-5
0.0003679924482161202
0.0017874265073138517
0.0013385264380932867
0.0012588774188734416
0.0013204699216047126
0.001667239561556566
0.0035204114842153408
0.0022118468468868614
-0.0010069274471894145
-0.001898659844029386
0.0008728711167579734
-0.0007458889564353493
-0.00035170948972676323
-0.0013896169668557736
-0.0021666712561509674
-0.001661419725915075
0.000631342095115421
0.0005675138002189171
0.00228151449301299
0.001255820853717441
0.00033115927565663134
0.0024008581177649086
0.0007846088427276031
0.0007245262892382541
0.0018908285983354498
0.0002223905264360218
0.0027080206820757962
0.0020176097030599055
-0.0003972422597482085
-0.0011508342712893602
-4.290952394601309e-5
0.0013302103425217786
0.0004178234437170036
-0.00198293458532794
-1.0607978340915593e-5
0.0001268222005185297
0.00011351611525067776
-0.0009038707690170578
2.401753757488227e-5
0.0024743727104121456
0.0005641785348944298
0.002498230458773592
0.0021615716405316687
0.0016410112107721352
0.002447192262587412
-0.00041085487707143387
-0.0005695272728382115
-0.0015235812542018176
0.00013098713970083732
-0.0006807632787186141
-0.002205979736919852
-0.0004117650537714076
-0.002135633443210997
-0.0019241449324279925
-0.0008445173028055726
-0.0005548603035178778
-0.00034772412161475645
-0.00031811092668062213
-0.0007310244275570779
-0.0008749657109380197
0.0005460944681648131
0.0016934968664035533
0.0009058939396819892
0.00034829474528721787
0.00022927798539048975
-0.0004268638096871992
-9.191693307762682e-5
-0.000253407146612989
0.0006293923594482405
0.0021314536989872433
0.0009074501890779338
0.00037675594423624924
-0.00025991240321460195
-0.0008304186974803488
0.000491385200985285
0.000580825027879779
0.002814058421326607
0.0010566695582686987
-0.0011108850297045225
-0.0007074976445014723
0.0003463625471782221
0.0017072916137213807
0.001977523248595392
-5.243796718754686e-5
0.0001751822886263783
0.000299227989449212
0.000668718191941443
0.001131127663073369
0.0016249778290066334
0.001432482567371719
0.0014429133763550026
0.0017755650665574408
-0.00029583019790892576
4.286218342646256e-6
-0.001267315043224162
-0.0012105685507841591
0.0008743144324850366
0.0002520868981194253
0.00027445537471926023
-0.0008808716804856844
-0.00027716220984647935
0.0002848257433830544
0.0003397755768049241
0.0015861948520707815
0.0014447086391646733
0.0009671507078057259
0.0033822098403648417
0.0019740275584784234
0.0012081713244090184
0.0026332037885092342
0.001984961733355609
0.0012851961460857708
3.61879999414219e-5
0.001414606977201833
0.0005363163248970197
-0.00012770001047404694
-0.0008822205704168363
0.00030902526234795184
0.000221447487049824
-0.001987886286622424
0.0018850440686371808
0.0020587404889731444
0.0014924343469790863
0.0031875510387722994
0.0024155956194008665
0.0012777813948489042
0.0017943818945540201
0.003174428026691249
0.0014323574226172055
0.000884168317598686
0.0026052673870205706
0.0008573591003457125
0.0014275465672331815
0.0019553710574428816
0.00041177804638260957
0.00017856753038790192
-0.000643714607969754
0.00019761388924181925
0.0012983894513227563
0.00025457179251321856
-0.0005071081409988619
-0.0016203312601122217
3.123377107165361e-5
0.002454695047305407
0.0023501746923296034
0.000556747771324826
0.0022555332909803523
0.0021223425584246647
0.00267994748161585
0.0016271742926131068
-0.0011059732839384336
-0.0006215532598020973
-0.0008755207943218954
0.0010036369858927128
-0.0004188310841890902
0.0010789776462356434
0.00013798703947598743
0.001307891544530716
0.0021016779661031564
0.0010582108857455587
0.0010989029963904945
0.0026149196250388478
0.001828937247334514
0.0026055418455261576
0.0015016700379399538
0.0009536000342961942
0.00404571852425119
0.0007028457790747389
6.931317646733629e-6
-0.0016412732661597533
-0.0008588949531707886
-0.0008626564463205664
-0.0003491263531440657
-0.001080975303166005
-0.00156191164099949
-0.0007747134358437105
-0.0011359363684519711
0.0008251921393124747
0.0005506322383688979
-0.0011820512169912968
0.0019574160074621425
0.0026843604731383508
0.0020585473919307816
0.0014653399398668132
0.0028333069863979675
0.004213162086436428
0.0037172920742277378
0.005346107910545267
-0.0011975123869515116
-0.0022821225876873573
-0.006007489222133948
-0.001504087806161198
-0.0036079696681603976
-0.0022928890116854003
-0.0017345207374466621
0.0008079207671621652
0.00034427320633246595
0.0003915220471644959
0.0006160630520959504
1.1947199876660415e-5
0.0016909334335874179
0.003303819374110494
0.0020556451574129044
0.0018375393345015732
0.0032560581236003297
0.004952563707080227
0.010408322526355204
0.00572194170052477
0.004653348718133125
-0.019598156716969063
-0.008793309748089779
-0.009217490883726588
-0.004151323323620994
-0.0032714491728248296
-0.0016321915181732745
0.0007110829354072866
-0.0004674296867297936
-0.0004929797874848207
0.0001767525116854868
0.0004266792467208287
0.000446481818760501
0.0016371536729544451
0.0009302421677153326
0.0037310988122328183
0.005517087824180856
0.01047613262336325
0.010028795674666727
0.02812621432904784
-0.019531181800819
-0.017391774213341243
-0.040741313317722266
-0.009857981482950001
-0.010196189103655542
-0.004170516516482822
-0.0010496758098755984
-0.0017510075025576409
-0.0029206467050983532
0.00018649539908847557
0.002420983320714289
0.0018625069996781338
0.001315349888991004
0.0014971302327000276
0.0031983113634916427
0.004574525803213467
0.008362415011923826
0.011712760961000431
0.03595017279116382
0.034856532192608904
0.13464757780440273
-0.27270490308557244
-0.04879642346007225
-0.039238783822686425
-0.00917031947611857
-0.0017643962747469254
-0.0017555103737335416
-0.0014202480740436105
-0.0015962322832215716
-2.0045079308591814e-5
0.000611494599207167
0.001397308096700708
0.0013389841658679406
0.0026833028987090475
0.0030622131934634348
0.00294582815698035
0.004674971578985733
0.01993272966409757
0.02113004003602424
0.15614966556293905
0.4015595078465693
-0.44434426959632145
-0.13674084743387468
-0.00860796956830269
-0.013542642253535337
-0.004515856114732704
-0.0014869090572319965
-0.0031511692923188108
-0.005177581499045191
-0.00302670774872409
-0.002618335612927873
-0.0003715694833022064
0.001480492159975502
0.0018543340684365297
0.002943323366865345
0.0041109563846611595
0.004869877727378854
0.008368943281115036
0.024672760290405563
0.018418070848474175
0.27001617121519966
-0.1652779672800249
-0.031174550656706768
-0.03242278465972615
-0.006851266888869399
-0.003424548898359706
-0.0013368239762926522
-0.001999318113765871
-0.002800942914627906
0.0011522374801461168
0.0015340592129366513
0.0016902759046943758
0.001211083401985513
0.0019228268286760187
0.002741933779055844
0.0043919331809750255
0.0051412551773099315
0.008019756511517083
0.006669914721179264
0.018875881447246345
-0.00932284765333748
-0.0026957233079895615
-0.02951523540035706
-0.009632878531480525
-0.009406346902560484
-0.003202715386451135
-0.0021271161478241102
-0.002420896123110632
-0.0014799537762330995
0.00011607049459271023
0.002048761922798691
5.740521547753074e-6
0.0003899473128565847
0.002979565231983304
0.002417163980778786
0.003909474777394178
0.0031616790623982703
0.0016720955995642053
0.006042347732621446
0.0019177540280814435
0.009152714298592
-0.01134347070621375
-0.004069956976018388
-0.008614121887680333
-0.002414914554627829
-4.104864183676767e-5
-0.0027062771604991222
-0.001217754609003212
-0.0004695775766317557
-0.000781415447341099
0.0015550673837642585
-0.0010067639773389454
0.0002097678415953007
0.0026925805963401777
0.0026921411531601034
0.003867361407430331
0.0006390072060818448
0.001550160304257594
0.0009714980476046015
0.004066473606557922
-0.0012931781877154372
-0.0014602254540291757
-0.007286332068772725
-0.0012721869941287685
-0.0019785346279429
-0.001196749733618601
-0.002288408701188393
-0.00040120964395960095
0.0017189336902015762
0.001948545577659709
0.0022502932768729313
0.002790098899239033
0.001829955592993279
0.0019021707240160842
0.0031364340430019106
0.0030446642563920026
0.0016685542774872973
0.0012946858805668081
0.0023475990561232264
0.0035622673092682786
0.003137874134135672
-0.001334806892081923
-0.004832900181046727
-0.0022683280764069706
-0.00130719356645137
-0.001681639274174606
-0.0003774387826743737
-0.0015302535210217835
-0.0003064225232036092
0.00045653059533615095
0.0020300163672590356
0.0021990095543969693
0.0013143874065259613
0.0016211797840322577
0.0038422544364415624
0.0023320917788005576
0.002618847535808745
0.0037247459481895583
-7.187627787931777e-5
0.0014943583522046638
0.003156492698231453
0.000264883418298238
-0.0017234831267951896
-0.0008675319654967035
-0.0013492251608598538
0.0039036765614962857
0.0013139427228240949
0.007220953530588628
0.0021298202390783016
-0.00011723716538867461
-0.0019515099629622906
-0.003873347605527395
-0.004475162971407248
-0.006285269688536954
-0.007763703881093803
-0.007879828998627107
-0.010201725827624008
-0.013029862991935358
-0.013384038124357657
-0.014397578502495014
-0.018113200182502537
-0.022185641743018524
-0.029536108752090423
-0.027302940797222144
-0.02915318543677762
-0.0033177031865492617
0.03850286560458664
0.01294257265909343
0.012089042828259221
0.002744502285130226
-0.00022125161786597393
-0.0026470846382615474
-0.004170248292224665
-0.005460853589638833
-0.0063721870280359924
-0.009380002004702827
-0.010754143399027326
-0.011417494775519245
-0.013087972548113459
-0.01723716998434026
-0.022005060445522244
-0.03229837598211033
-0.037077690913888524
-0.06356029148127294
-0.02230071728339292
0.2748986750708275
0.056053976744225235
0.051903962110294334
0.01629954338251469
0.007747199701589568
0.0019604340096185933
0.0003502261792955075
-0.0021391090166909396
-0.005740852379843642
-0.008414115446556486
-0.008909810385692503
-0.010972352713039459
-0.011812139107498693
-0.015401551333316407
-0.01974199679733291
-0.027265528646644867
-0.03651709879336849
-0.07424730889369383
-0.07940502145912828
-0.26348084786203313
1.0034505361765325
0.23717639817765143
0.04072577473059746
0.029067752932071752
0.007300356067894892
0.0032179523438358713
-0.0009488032038824105
-0.0033748852332897822
-0.005255663237043739
-0.007849187524661303
-0.009032406381267052
-0.010961738853384197
-0.012847109809967252
-0.015987219308646432
-0.01914203637462794
-0.02491573169385808
-0.049106179951495806
-0.06459412681448595
-0.26782559137531864
2.202113834922926
0.2700529030331512
0.06267339017424703
0.05747208909497315
0.018382740504372344
0.009693366954599155
0.0031777357536296926
0.0003511311537181241
-0.000782574040297945
-0.0033306641202414835
-0.005986978333034082
-0.008312635558395138
-0.010853559878878299
-0.01149282931420278
-0.015229682162963979
-0.018223916000774106
-0.024244568613933738
-0.03154957877732617
-0.059472224277407844
-0.05365568206225881
-0.30669830613448107
0.024711626770944933
0.05383000298184497
0.02270713369955801
0.016573786350164092
0.006189021407689403
0.0020906179095112865
-0.0006927555041933069
-0.0022798352242720107
-0.006036850060308185
-0.007342459197407895
-0.009784782772774838
-0.010012921514870966
-0.011359223892354222
-0.013997246616450201
-0.01685804305056631
-0.02019749170132685
-0.026245884759357362
-0.025609299049569368
-0.04423650677879741
0.0005098507921641131
0.019466265023879773
0.012440066954522567
0.01442333043703882
0.0057871788834250116
0.003537431571587635
0.00038656497956171456
-0.0014220374210461844
-0.0032344424505257653
-0.005279763873769435
-0.00828351966782789
-0.007287503949956541
-0.010127591087172242
-0.011822613665703322
-0.012719667586503596
-0.015471737017113426
-0.016649972937874707
-0.01613151645784961
-0.020424764373902865
-0.013224158348900115
-0.015580416862786581
-0.0006123790083051469
0.007919061502099825
0.0023407417407560875
0.002842570840286277
-0.001615621747984432
-0.0007179592450634934
-0.0024527302720877184
-0.004338278251716539
-0.006066058586243357
-0.008353986603749414
-0.0070014549511155455
-0.008896846849713745
-0.010459386504109632
-0.011373696840224688
-0.014057064542074078
-0.012337166343801007
-0.013281747623112556
-0.011989555599816931
-0.013293161695909321
-0.0030173853056327175
-0.003082263677156698
0.0005033403243345664
-5.118517681685351e-5
-0.0009832111742238588
-0.0013568291234305541
-0.0022426464651242326
-0.005046810592378259
-0.006909065068034866
-0.0081453406641567
-0.00871223298081218
-0.009479610543945555
-0.009326003613625143
-0.009667763997598212
-0.011840745836456104
-0.011835435733694808
-0.011885523157316304
-0.011825909342466115
-0.01209452232960117
-0.010701580789665445
-0.008348894216415258
-0.0057634459548064265
-0.002957151153114434
-0.0029537050592726593
-0.0033874537107895994
-0.0033414740915839367
-0.004998388635081191
-0.004298840036314055
-0.005765429053826424
-0.006634304403033629
-0.009346915569974424
-0.008901709079999204
-0.009127922897255607
-0.00934049282775994
-0.011474947721383317
-0.009887998985576006
-0.011782865117556472
-0.012434398015706394
-0.009769910382297893
-0.00854128178549289
-0.009066978851361094
-0.005376951633288046
-0.006206839609709483
-0.0046872009226110265
-0.005113985520974452
-0.005239713976570274
-0.005761980826840296
-0.006519123351189474
-0.00768017903901603
-0.007140903960256161
-0.008811248288600335
-0.007573393472357093
-0.008204410967695187
-0.00988886476233432
-0.009200099687866302
-0.00916085136825237
-0.008956769170269071
-0.009579670092940674
-0.011027052904831943
-0.008705551390708133
-0.006839374418010559
-0.006684313546117577
-0.006917958259782355
-0.007280131437267155
-0.006442380394734246
-0.0052939379884886254
-0.005201132009935504
-0.00463096242962859
-0.00722893770157694
-0.007400202520395573
-0.00837149253353987
-0.007898800205940708
-0.008309784970950038
-0.009785085996072144
-0.009391737716765455
-0.008357675507403716
-0.008837944347752279
-0.008316272881426095
-0.008834691534658974
-0.01001774125775142
-0.007766828136349176
-0.006453589618831511
-0.006586801862538943
-0.007082510663029956
-0.005452123003640757
-0.006110724741475309
-0.006182842083988233
-0.0066470739941146325
-0.0071283282456853815
-0.0065094230709926895
-0.00732799263865059
-0.008583340335680298
-0.007679644588495927
-0.009358129402551665
-0.010152193965564637
-0.009364684741178714
-0.01033939578276349
-0.008618324029443418
-0.007592030798894144
-0.007192442107157664
-0.0075794830493250516
-0.00878179931680894
-0.008358382559237628
-0.007041849811494522
-0.006935144833188721
-0.005932132002724669
-0.005533342951579119
-0.006914634249214855
-0.0068108981967195305
-0.006858748698408165
-0.007101176137444219
-0.006506410560191287
-0.008048521116545635
-0.008997754168063263
-0.008487121319180582
-0.008973267729938842
-0.00895393291563909
-0.007783879697654743
-0.008670860271445063
-0.008101370979854687
-0.00831860904728617
-0.008741080209780677
-0.008290942604922812
-0.007794223993893876
-0.007110786966286557
-0.005306226505226522
-0.006303728553645944
-0.006863394532090803
-0.008570444308234181
-0.007899879756176037
-0.006162468571412394
-0.007380617420867968
-0.008345356212347933
-0.0089818375081324
-0.009776707861301656
-0.008887024575355618
-0.008375341973190144
-0.008504347083003539
-0.008913351834609793
-0.009722624143795352
-0.009338094537748937
-0.010449268310891479
-0.00912957368104009
-0.007218498048819485
-0.006872819973221871
-0.005972274888553731
-0.006574944854855799
-0.005630601105944452
-0.006466911895620847
-0.00725810105873054
-0.008038650255418184
-0.007900757384539223
-0.007844921832328346
-0.00870907093698396
-0.008613856313314554
-0.009374676338317473
-0.009783164752790422
-0.00973235431303687
-0.010894666263912927
-0.009671825058254119
-0.009190508102898903
-0.008997578533920565
-0.010036539295866254
-0.007061857612132017
-0.008383439927263859
-0.007305796591895339
-0.0066428460744680975
-0.005837819781260236
-0.00552803380640136
-0.007338627527479743
-0.007613273961136567
-0.006427172477684523
-0.010003319335307284
-0.009544090319672162
-0.010153450145965462
-0.010891188769016086
-0.010990226680285277
-0.010430882322025718
-0.010207704681896601
-0.011118067178909287
-0.009946113308021583
-0.009578938641150144
-0.006398600482189839
-0.006012271321880546
-0.005530828294448276
-0.006714112387296221
-0.006039931383445487
-0.005742548945261105
-0.005316941906064356
-0.0066817032012807176
-0.007974896843107624
-0.00779262826741574
-0.009061516615209568
-0.007931352157090512
-0.009153585497788925
-0.011326948681986006
-0.01275209889645884
-0.011283888894645296
-0.012451857871647624
-0.011596343476210842
-0.01140378122002641
-0.0069913596958829346
-0.00598296717388619
-0.004092368408581704
-0.004219098594953849
-0.005317988567706153
-0.004367313794606404
-0.005547007168295466
-0.006294299627801125
-0.00683679034875055
-0.00814376822755677
-0.00933945516614082
-0.009387378388467945
-0.011216906982337332
-0.01118543674210778
-0.013599179968071041
-0.01321657299863456
-0.013509522881230076
-0.01612203307409426
-0.013109209358616742
-0.011807777761856916
-0.0097383093445417
-0.001993097495057236
-0.0025400216778023433
-0.0007432657436268244
-0.0033626968219556373
-0.0023424432395681935
-0.0042770748433833055
-0.00409764639474862
-0.006972972908174339
-0.0077532003995767675
-0.007166728627433608
-0.01025390653701165
-0.011743349611266187
-0.012287774199001617
-0.013153714971234905
-0.015943084770542265
-0.01909012159445651
-0.01840121668588929
-0.02109474435111372
-0.013273441306762224
-0.09903220083804265
-0.05547371492247939
-0.030468504914302242
-0.016200705943893307
-0.01007871365423925
-0.005689862892750373
-0.0024564220935711584
-0.0013938532133213506
0.0013978473798648674
0.0009196274509336447
0.004525261542762879
0.007475959412320642
0.010023197018021643
0.01740190094833017
0.03320699654822953
0.05184586778339449
0.1250219416355711
0.26003769631659285
0.4633661801217879
-0.350036933091964
-0.0506382667090882
-0.030730875027419374
-0.021527206614731054
-0.012140015924017386
-0.00754462687228032
-0.005075584449320624
-0.001404041612655719
-0.0004966801978375918
0.0016516652069477856
0.001027478181130573
0.004815523671908129
0.006179273919055178
0.011647249026226015
0.01877743199311942
0.0272846922959021
0.04824271830222767
0.07703507249607427
0.14509774665979472
0.10806392060352393
-0.03154273412514578
-0.016039043084048434
-0.016340103926535655
-0.013600338697373551
-0.009172501360979784
-0.006461622499296231
-0.005362609962626603
0.0009030030380786037
-0.0008979345038313043
0.0019590860869110154
0.0018898791924215849
0.00550889155212378
0.007771820634372907
0.01097661040295271
0.013959188565064293
0.021775030635381366
0.03324979961344321
0.04962380681699748
0.0594445132630367
0.058607862350045815
-0.007155810262203673
-0.005909147333586661
-0.007128340616047708
-0.007443666958918675
-0.00459804790317491
-0.005202324411125132
-0.003809276010771842
-0.0009888319409329424
0.00012714821990507911
0.002147604108092761
0.0024603101332220465
0.0035361488685574935
0.007668732943414618
0.009366359484281777
0.011620479292616677
0.015296370919947311
0.02331834125080273
0.02838197603367618
0.03330964289052344
0.02474061802263142
0.006682121596609148
0.00020283674285577393
-0.0031871187913253764
-0.0005889870639999295
-0.0024900860826976455
-0.0028887473270997797
-0.00222383826809388
-0.0025334732199517452
-0.00024171089502490333
0.00160572658495228
0.0018291143963265325
0.003117099771747362
0.005452470575733702
0.0063184986112215106
0.009305710939819198
0.0113425233455857
0.012861101403941718
0.017146876964805866
0.016688073405949563
0.01558423540070848
0.0038685302986405505
0.0021098673938623118
-3.65110822539449e-5
1.5192626589253491e-5
-0.0017057391248881586
-0.0026722990237393355
-0.0019196055839109495
-0.0017620844763659952
-9.040259259369905e-5
0.0016841001615350013
0.001346737004743615
0.0031515219217112694
0.0054077393306549695
0.008096923743055606
0.006858304254210692
0.007275748356826076
0.008565863712511255
0.009767376204647791
0.010559172353635026
0.008407485319232648
0.0027956924436042885
0.002692375360971601
0.001307628946083122
-0.0007696019694098245
-0.0017172379140240064
-0.001861429666464228
-0.0013561522277160676
-5.243913840146904e-5
0.0006862893305519313
0.00022416313688492325
0.0021409646517594055
0.003118391723889381
0.0054675077346423955
0.006738082393763096
0.0066520747636870615
0.0051614606528461995
0.006309407593990617
0.0070275895494671045
0.006448021193457198
0.005532969046852554
0.0035539544555183945
0.00048625618747368806
-0.0012610521526108351
-0.0011850611906002045
0.00032198552004513386
-0.0014837820790255072
0.0003880503779241576
-0.0015184534693507656
-0.0003018621236664048
0.00023112747190820633
0.0027325031566396915
0.0026243971704954594
0.0026418376191274656
0.0037784845950361535
0.0051994091896538485
0.004429012435791486
0.0062959710467387735
0.004049847094741519
0.0023837138584424213
0.0015680253374927007
0.002070309027277969
-0.0019219467209663033
2.32009115444053e-5
-0.0021353504842494464
-0.0016809018067383383
-0.0007330023494387497
4.998625419469412e-5
-0.0017381727509670067
-0.00012253523196967633
0.0007412177268025051
0.0029523084226198257
0.0008860699311405077
0.0005552829747370538
0.0013964020127014897
0.004216459471312416
0.0026494993814619805
0.00428557859338436
0.0021472403911242995
0.00038406648164122166
0.0006014767352726998
0.001121710860349481
-0.0016191756916850847
0.0003959523851783765
-0.002187245406789947
-0.002154291660292291
-0.0012207151517344397
-0.0013652172604612708
-0.0010026631336412994
-0.0007882018329363704
-0.0004165149598464537
0.0016488894260382433
0.001164259668910458
0.0009549470927835825
0.00018842365851444518
0.001424581319796467
0.002933017838903534
0.002853133555353376
0.00018603749151481578
0.0019542100405844473
0.0009056694993023356
-0.00041787212943409047
-0.0021213019742537366
-0.0002758029848111181
-0.0030159144115711953
-0.0009973334658418117
-0.0008824825280923205
-0.002314437236193228
0.0006987191922522653
-0.0005977091180945664
-0.0007438206265390235
0.0007297631157094835
0.0005193517277652185
0.0010367129209377978
0.002045818766616766
0.001172246414150363
0.0026207415306752926
0.002191023030182801
0.001022638547028515
0.0008594009223475971
0.00037421693979238077
-0.0016627891575940125
-0.003746329853457263
-0.0032319985358192737
-0.004310978077968877
-0.002196484158405201
-0.0026027890281488907
-0.001149437549803665
5.518600503097047e-6
0.00020434702765781952
-0.0019294245689316552
-8.489788428421238e-5
-0.00047085349477331946
-0.0002766395799562873
3.0739556902896036e-5
0.0010232862219592092
0.0011698343819575702
0.0016994859843038306
0.0007191093410936091
0.0011519298934501467
-0.0018021314467599428
-0.0011926439781400865
-0.005490577481854867
-0.0044961053122958864
-0.003932614916140818
-0.0033684678735320505
-0.003114609490966737
-0.0009229123680097815
0.0002904894981789972
-0.0002665303302269856
-0.0006771696931084999
-0.0010012992172739807
-0.000436779727718353
0.0012808969235969779
0.0011617176721855306
0.0021363943609706486
0.0017380254143439355
0.0032099866510192556
0.00042134538123712536
-0.000318066461450731
-0.00161652353147605
-0.00218145795545926
-0.00620536528839334
-0.005210212527116642
-0.005249423394902673
-0.004489759930033067
-0.0026002788769233
-0.0017079865907951638
-0.00010862702262787741
-0.00042456802825064353
-0.0005155671369241511
-0.00038365163057085
0.0008075343770381683
0.0021286822086592147
0.00286609284095222
0.0016874108742655403
0.0014875411858215767
0.0022051673478284
-0.0005771037421270128
-0.0021296103281974914
-0.0034216505784989966
-0.00409578102986939
-0.008639074366760596
-0.010009101591762411
-0.007972694163643792
-0.006560391238281059
-0.0031933370395418065
-0.0017061260364207454
-6.316932071216333e-5
0.0007280409464098289
-0.001010074134576302
-0.0010334530247377558
0.0001853408442027739
0.002676197569332219
0.004393960023635851
0.002049335963188031
0.0019393295563233926
0.0007084096195406794
-0.00019657125478045204
-0.004047112380414792
-0.0065309541990293115
-0.00772339592175884
-0.01617783180378439
-0.013558861363178923
-0.0102834021527532
-0.006332407383536064
-0.005669213264695014
-0.0029985986652980834
-0.0006547789439629216
-0.0003363560702446809
-0.00018310934112235024
0.002196993699799685
0.003047620513458147
0.002735736292294212
0.004043614882888433
0.0034266764448769344
0.00282359073033434
0.0027677482519555675
0.0005161114736533301
-0.0033513631131051563
-0.013067642419995331
-0.015492568390687796
-0.02729368638042213
-0.02296370267013901
-0.014761945099927374
-0.010831514743943386
-0.007904416615355753
-0.0037817951992894566
-0.0002648190005386451
-0.0015685172804126583
-0.0006459795562746618
0.0001685120527876872
0.002730761764761508
0.0021526893228717503
0.0042001369158414905
0.007121560312847334
0.007292578999482617
0.007216628057572596
0.006784910828034817
-0.0034036691488972775
-0.026573710216433392
-0.03322507430817723
-0.050379647036450245
-0.03365523408463448
-0.022075616737395474
-0.015125352936126012
-0.008107116507652208
-0.004517633413630467
-0.002053688944230541
-0.0012252659778117288
0.0013374520323179368
0.0007605095064920886
0.003166543702258829
0.005290893466204413
0.0064501902420978285
0.008652521519738155
0.011960835946477004
0.015717341408128884
0.015586690417133554
0.012116852154574888
-0.058514268155975005
-0.06624672299380648
-0.08409426926135619
-0.05009150689284025
-0.02889446491158688
-0.017503387916344725
-0.00872223788741033
-0.0053954815764106915
-0.003041883133460709
-0.0007786396190751928
0.0010467788957009313
0.001643532059182592
0.004864620907379618
0.005971902962234389
0.007037673898191548
0.01123324067519422
0.021134260512885687
0.027868992552473878
0.048590515439440325
0.055319867353913046
-0.11160181295360343
-0.14631065379486682
-0.12883282570762686
-0.05906111206677087
-0.03242539944821108
-0.01719553636366261
-0.008962878186978168
-0.00539794838296565
-0.0022836366604885557
-0.002751632448788812
0.0007346484414097799
0.001245660516721514
0.004143904794083991
0.007629207156726186
0.009894007550264886
0.016675651368907606
0.02683709661661956
0.05564417992108451
0.08955521858724894
0.27674086225470185
-0.48880825889259377
-0.28996540328931236
0.0016013929904581715
0.0031871223136788977
0.0048916877884893
0.01409563730029093
0.016404854288557886
0.018516491781717794
0.01731906199765571
0.01473891724285599
0.009966185583008684
0.010541851896742855
0.007425079006955672
0.005515170977799046
0.0046322374297772684
0.003102932632537932
0.002723185001868152
0.0024725965627456757
0.0036131714404588518
0.0005887232876223344
0.0008859176001132342
0.0031539149841858334
-0.0023768185538675375
-0.0023345158025162866
0.002154623524750937
0.02508069797780111
0.030918956550953815
0.027953222358685855
0.02566623152053585
0.017971424069117368
0.01498219683644461
0.012320231722535104
0.0095111196529648
0.004782790395922863
0.005942002279010988
0.0052811866169191375
0.005412911818812737
0.0019384880546777952
0.004093623236309107
0.0005721794636140872
-0.002612878058024604
-0.00128796422338518
-0.010490174162759464
-0.015301176424918093
-0.013134490931213145
0.04413995436462467
0.06625070720245607
0.04886582210443124
0.03740597891811875
0.025128677207632406
0.019222148770095898
0.011758265169635032
0.008808237354508872
0.006567386686029326
0.006353731818344992
0.004191786034348234
0.004790791201877473
0.001886571528512792
0.0002671968678646405
-0.0016991856858230346
-0.0022794059054091907
-0.006629149379610986
-0.023480573188800334
-0.04501597462794131
-0.07010939816813859
0.07545708944548396
0.14611287865123695
0.08789846168578354
0.05093910440838364
0.03271660444010942
0.020811559899715185
0.0134939285884269
0.009576893689159635
0.008109478076531751
0.0054338406458890294
0.004307779012684775
0.003700894526186956
0.000568028225761436
0.0009179949685336045
-0.0002988134883989379
-0.0038524628384822967
-0.013425774265538593
-0.04514528705265863
-0.08641882563089855
-0.30221927938938986
0.60503921388623
0.31566702410221237
0.1390556559837106
0.06697194291286672
0.03567879069993511
0.021490313371384802
0.01437140077858976
0.009010640231147615
0.0062011197825132675
0.007771010672669791
0.004906964432134722
0.004028715150257968
0.001203358079879383
-0.0016485664125921093
-0.004126852377465552
-0.0077334470077157205
-0.018350324345999276
-0.038807765579162025
-0.09696064013964613
-0.2235613143614408
-0.41807405833057615
-2.1299496160991676
0.1268197434989482
0.061129915911161486
0.038940134694897384
0.021880178455552957
0.016429682559877333
0.011351200119772163
0.008067750381686462
0.006555448923947231
0.0033140871798574612
0.0038382662438582247
0.000705928331763431
-0.002398087483284941
-0.0037165712153401664
-0.007960549234412884
-0.022156171282502007
-0.03363874991656701
-0.05521700661343304
-0.11484654807480116
-0.0863636831108386
0.058804922596075615
0.06657775558655818
0.04346827725952864
0.02888079552367965
0.019036988023285153
0.013280638914583741
0.010823025373522333
0.007190232543256535
0.0054412016741896
0.003667548570316454
0.004426088669373079
0.0007892206405736039
0.0008217273411687631
-0.004540417481704214
-0.010748758077962252
-0.018179394040257903
-0.021491148172037587
-0.03392839995644497
-0.0414657110450437
-0.03993129181909082
0.020905478487426448
0.030819889375637153
0.023724551775060276
0.02089941446574331
0.015525154124584165
0.012888101823603193
0.010804668883966681
0.00445812630561362
0.007155120209713077
0.0033891072959140118
0.00375262195549028
-0.0005209194331542496
-0.0029938317026228247
-0.005460719480812998
-0.0077209733474433865
-0.011882420485269884
-0.014543790123145694
-0.017592154479070025
-0.02095677877132482
-0.012788396411744488
0.0042059606240429336
0.0150454675548228
0.015317279072190642
0.014971013786269152
0.010072658592239986
0.011208471319799126
0.010624172622805132
0.0070941339857231245
0.005057439150208536
0.0034627851173301407
0.0023181363624073465
0.00225273035555916
-0.002475891193933065
-0.0032276538045598034
-0.004423408427978349
-0.00831552614825855
-0.005173338580640894
-0.006704736786573081
-0.007255995939893516
-0.0069458113997559285
0.004231799144878408
0.009126284686109463
0.01001594917131378
0.006161926593709431
0.008117973963437473
0.00830287605846916
0.008165815405688436
0.008243097812318492
0.006408719731606293
0.004353305987360725
0.003318263010608848
0.004001692771529372
0.0004361232081050273
0.0008234286099471017
-0.0009239811233995233
-0.0045195507690569195
-0.0013170613456931581
-0.0008880788766661984
-0.0008270110000057232
-0.0014916806399925377
0.004897215590609918
0.005912831252572989
0.005700125257525099
0.00591451521650301
0.007709333261941895
0.009320110951892299
0.008635637111304932
0.006856558362718769
0.005664875996490395
0.004029256449025608
0.003695045109360084
0.002817472349153504
0.0005244937960660599
-0.0022268294544441534
-0.0012009491763540496
-0.0007193548380207153
0.0005325171347292241
0.0007861840946307925
0.0006849811282889235
0.0018507429075881581
0.0032990176434859447
0.003783547175335005
0.00419859377719988
0.007358063710111307
0.007997137798986836
0.008343498736789653
0.008196676336333296
0.004615796564734488
0.0044231391967494114
0.0053711672167422305
0.0027386424042370153
0.002223866309744746
-0.0001556290512476781
-0.0012116320866384863
-0.0009459411991861147
0.0012499911416895006
0.00030299185929070246
0.0028340740642900106
0.00342420272124297
0.004942033126541345
0.006202765719110083
0.006379539463153012
0.007858386693346806
0.006856977520175836
0.003752952163942015
0.006550760332871603
0.004911222464962985
0.005800639544453946
0.0056531218718563914
0.005415394154637039
0.0035358207493283523
0.003165886955725413
0.002271323873846355
0.001899724109205826
0.0019434026624419781
0.0029706668705336927
0.0021097851969239948
0.004904980712927659
0.006640581224582456
0.005995096363157235
0.00626372036224922
0.00696531454292088
0.004768504989981668
0.00670833696388841
0.006494761357322405
0.005708576128640092
0.004342139665090907
0.006056142171692565
0.0057611238066317344
0.005677315533296143
0.0027424623310282957
0.0047639907348697
0.004211006810177109
0.004196328369182631
0.001302710680882846
0.002759358776270319
0.002135395652496154
0.006169484408800989
0.004867171532204514
0.005160078272645089
0.006127761857182493
0.006117318065760996
0.004007795202611675
0.006110161731497216
0.007153053069479078
0.006468932540760612
0.006363282285441556
0.00476301871057318
0.0055976457069756
0.006302127675540847
0.004152685731102638
0.003925794921989037
0.004553922500917885
0.005611642831971778
0.003372439706805518
0.0019279244636452833
0.0032970281302346894
0.004423165172738213
0.004968030927077294
0.006257614359449073
0.007255963770316247
0.007573171150416786
0.004807396295957939
0.006865014170348849
0.0061837749067878214
0.006085408341997023
0.008171908305441187
0.004159040723855995
0.005861068959429321
0.006933086657729574
0.0038742825412944105
0.004233293944640227
0.00412681247733168
0.002657787718240409
0.002746978623005837
0.0026296748959869958
0.003947789596558513
0.004982096089014444
0.004034509075656572
0.006987391680276763
0.007400833669903418
0.00945796004483596
0.00930388553325313
0.010457851618825311
0.010170632388154698
0.00824739769714404
0.007139751045419626
0.005414218443596175
0.00550117287765211
0.0077538192182409985
0.005332442133572727
0.00678691750580604
0.006357844895253669
0.006021416642899867
0.003044945454343882
0.003120715893287692
0.0022403839536868884
0.005261233611958665
0.005919870631395558
0.00587035380925594
0.005916511413494214
0.010647682157868772
0.008746014213850252
0.009491816279006663
0.00923620285561207
0.010010706015473356
0.006747118487036855
0.004453568891801708
0.005740226389894215
0.005294118615241824
0.007166134393145821
0.0066260919749683445
0.0044569711710441065
0.005750431705454481
0.0026935235843075648
0.0018316113970337931
0.002878675619027454
0.0069210865700895475
0.0071664727356617035
0.007917522445903562
0.008123349143168234
0.010061600698051879
0.009064556439547053
0.011199739838274604
0.009299264806902182
0.007732796173675415
0.006964219026618092
0.005538808287783795
0.006652032920981473
0.005799898324241173
0.0058449780866469975
0.005876147480363847
0.003850077869422421
0.003026081206896648
0.0033242918306759825
0.003574611965031655
0.004213112838826369
0.004343237545304216
0.0076355062945899065
0.010104997755970724
0.010434672657363971
0.012423526941375431
0.01472745972050507
0.014070428665002514
0.011626346874180942
0.00823092010699418
0.006316242685619352
0.005457228475745996
0.005032754086279856
0.0060296628429640274
0.0060262611643451
0.006239597537218923
0.004211920659239124
0.0007293642497258789
0.001925576484041366
0.002948321595347302
0.005702959656920061
-0.011130830716624395
-0.012783781313843261
-0.01853902707167704
-0.01869343294801101
-0.0361372951159682
-0.01417815241622439
-0.007911778075997355
0.001474588971632593
0.01153222597599037
0.01958858256540005
0.02011928144527918
0.014188143166601129
0.0159997289681197
0.01475854368526221
0.017487409870579076
0.02165130659371445
0.024642738241057168
0.023851156342570515
0.01515958223785741
0.0011426016199481835
-0.006561214074406152
-0.030536216912815616
-0.03403648296871984
-0.046910681723305314
-0.04811726330869925
-0.04257218712163585
-0.018693086065153273
-0.006000328704948829
0.019322904433146108
0.02212736113625334
0.015385535850879182
0.020641268139442618
0.013838990557319153
0.01984462610103995
0.024075191814802395
0.011826716465337422
0.013124027365841924
0.015599865766231766
0.0019233777537118676
-0.0009925401107084082
-0.014046847278738967
-0.03318630976612101
-0.056411878560950625
-0.07948342237438467
-0.1326140815515928
-0.07016229515853416
-0.05126667147791167
0.01747353444855796
0.01153048061145087
0.021640374639277097
0.011827910830812924
0.014994664221880697
0.012360362728763506
0.01884232371337695
0.02162555914733676
0.016740980814121398
0.012194866391454657
0.013838738465891644
0.012761059230116452
0.002969885041164779
-0.013402599071531157
-0.05312876136720253
-0.07065616169756007
-0.1830855348117543
-0.1901429463504782
-0.3308542517283987
-0.028274404242648887
-0.005336585178548927
0.03444467892220554
0.02931345192851547
0.03329459918035115
0.020824033375417075
0.01929606335950416
0.020114134686099523
0.009392682630630029
0.016934959757253325
0.024396742277372475
0.007288843748750267
0.009515228925178707
0.004834240772325115
-0.020084041365337892
-0.052736384309164
-0.12295223891900085
-0.2122444373365684
-0.31574050178196666
-0.4522366445291447
-0.26141649504191333
0.05777088931784875
0.022940160324592073
0.03652382994950662
0.01656438120792413
0.0090080686260579
0.01784673982024539
0.025757749201413122
0.019251368545409046
0.01971701780894966
0.012667843792705434
0.0055460856279490245
-0.0059459406842447375
0.00039006884065019847
-0.018341471227829167
-0.055706464720783944
-0.09649256203470873
-0.29027464703050204
-0.38738168241581566
4.005806796585121
-1.084687780546569
-0.15227940052580752
0.01872675254334658
0.017673142391674623
0.016111692571304553
0.01192287854137611
0.012095344748397897
0.014725357639453573
0.012594035267263165
0.019577683892048548
0.016802100913018293
0.011868636343719253
0.011249606713414765
0.009926051669485982
-0.009489709641460557
-0.034671584864767
-0.0822897969723429
-0.1360567536099964
-0.2614903515017169
-0.4620600307239404
-0.08470579590091497
-0.21831852869543794
-0.04771824878915363
0.00031122780454633826
0.001758430172285935
-0.0018038997006633154
0.020513634029753987
0.021489048431987286
0.013438477342228252
0.012841432410414806
0.014779511882044911
0.0061835848638058235
0.0022527572793781306
0.00427398239110897
-0.00722581742428177
-0.01957394692536186
-0.027896967579871302
-0.07348246424192131
-0.062459731053562756
-0.15429174284569902
-0.1311735049491629
-0.11271277276322568
-0.04732855284458001
-0.013287541320269852
-0.002472498420775985
0.0029582222023741608
0.004588350168761193
0.024872616662284703
0.007750832296701037
0.010507596768052465
0.019970366670192235
0.006798520524654739
0.004963227136725061
0.02001388605843762
0.013256765706289017
0.004947428057742985
-0.00957432735118195
-0.027855229025798033
-0.06247297394903492
-0.07830705766320621
-0.09206826500482793
-0.06316530690517728
-0.03858260202301551
-0.020138751218284213
-0.006557197048099367
0.005027930958021138
0.006028280580443804
0.012186600174206764
0.018827591829935666
0.01469629488786434
0.009986309321451699
0.0160926663548397
0.01630344257924047
0.011212839927515839
0.016620754541580372
0.00033794384375165714
0.0008481767299854861
-0.0038713772752992223
-0.02521642343985487
-0.05965644071979543
-0.04854816533452118
-0.047980393448825855
-0.018949115201033078
-0.00887741094333923
-0.003441109689692257
0.008554091007754094
0.017263154545449525
0.015972990754682007
0.018382536567776914
0.0206142365593511
0.004795231230680817
0.014666241584554643
0.019405460107510042
0.022357532905118445
0.00956104339981194
0.00599798078740048
0.003491976296518144
0.0032534875236038636
-0.01719868303070417
-0.02080177589573289
-0.02168910786428689
-0.02111972132292115
-0.019990934369916735
-0.004001680236212802
0.01072401704291253
0.013239253431231572
0.010103924325984457
0.006996865344500486
0.007887867202429066
0.009426175482422397
0.012276631786336952
0.014040794107533346
0.01611357356188782
0.010299960257279549
0.01843649269934817
0.006577854782769935
0.014673164097400581
0.006689572926981138
0.00911952668614124
-0.003867805032952377
-0.01293649168969527
-0.00638604543697547
-0.0034989579015887477
0.001911054996910903
-0.002421329962055991
0.005950452949693303
0.01477604191712277
0.016119854102390203
0.01556362053895725
0.017283902423238632
0.016294532803198144
0.010108006143650773
0.013704438715976769
0.014135063788143516
0.013412143476992693
0.013056860852003738
0.009054520427645974
0.010721129384061745
0.011242723439660235
0.008269615944637015
0.004322438241034283
-0.0009413182205406585
-0.005886218941624664
0.0031444944012272436
0.009389613872154257
0.01668120500794182
0.02570687415442723
0.015128558682430036
0.0195922947727825
0.018444954514453972
0.012077241807302814
0.0055379135440876024
0.01187673391439292
0.023329201597303954
0.017178842214816206
0.011847913273756476
0.008811740481778161
0.009408959111950986
0.01358642073677118
0.004841714227874269
0.009489301496104635
0.005273287358011535
-0.00021396215100891397
0.004164837178865056
0.012542156837421147
0.017012852777871162
0.024917474133556283
0.024457474471415393
0.029287809204099204
0.014777844144724292
0.013578682349043287
0.014975484648737783
0.01483693036700947
0.017047165238876942
0.01263935837857089
0.008466297325805427
0.021899770614798333
0.003257291819492847
0.01290336912655753
0.004756524995359701
0.0037004975540472006
0.001537040425424211
0.014044194535720454
0.007237287770252541
0.014403567312034167
0.021062868461159533
0.017884180442566074
0.02079584517395221
0.019989685141225837
0.016957322973041433
0.012940329811951808
0.021505072376086235
0.018574329526962394
0.01580461811738225
0.016168952251731053
0.010542618022299086
0.009366711546654733
0.00716092221226664
0.009061493652169215
0.009128756740669739
0.00681205166867524
0.01033033008454363
0.00998408143232446
0.013508394989608617
0.009393427217411807
0.01674040247253043
0.013360147516025302
0.023820364863336937
0.012864716265567159
0.016863817738071968
0.02343049734802829
0.011227358444909123
0.021819934227744295
0.009099576477774454
0.007293711403000149
0.010101565149318958
0.002401824769915572
0.008497888251807847
0.008910622910554541
0.00901174351878229
0.000701088742824318
0.016815969787691544
0.005116990809413302
0.015631979288027332
0.0163266488559746
0.01986847671658204
0.022678388339433187
0.012536095291995989
0.020274036176944406
0.020335588221574764
0.018147014544779072
0.015366821605941348
0.018020191633778784
0.0031742501724462196
0.010902944803541424
0.012417716290691001
0.010276827540804388
0.0034807163662787543
0.0020371635134177335
0.004985458489551953
0.006279871229272153
0.005501408633367579
0.01833115604530626
0.011039325138772203
0.012340933385541653
0.016392638516512934
0.023577859682369782
0.020741701795174112
0.014406127805599593
0.021007805855847484
0.0077121228117806254
0.00797329774784545
0.0080462672408598
0.006202758680159477
0.0056216961728729154
-0.00010863671165083034
0.010870256099444002
7.811499153760057e-5
-0.005664535478676536
-0.0029458691157933426
-0.0023517352324617705
0.003103992837691631
0.010983186815449747
0.01332368219987673
0.014546605784780583
0.023997845506548345
0.025342050501903333
0.03151706916424946
0.016860556309925823
0.012013831803796516
0.014866423926150181
0.016315897106948668
0.0055284968937480035
0.01694117257805267
0.009771371717910989
-0.005453892773027205
-0.007100521306259407
-0.011948434661919376
-0.006773851603192149
-0.00852944233853839
-0.012740108190527885
0.001506668724144664
0.005688089158916974
0.023118222027332554
0.014631521064714865
0.024080241537544442
0.02143030976388469
0.019259777844102172
0.014659450652421503
0.01667685285857352
0.01936949060701013
0.011160813587537446
0.009482351273326842
-0.00468094887852313
-0.004747083618200567
-0.005988987912888197
-0.005857258992118382
-0.005570376761439365
-0.00614195178135628
-0.005233320412347715
-0.0057641509510495586
-0.004931145161373667
-0.005360716719780841
-0.005083537243584235
-0.0035322505303172383
-0.003314366083422124
-0.0035633346562259647
-0.0036444252001124476
-0.002712007385726995
-0.0035876047878307792
-0.004405252387637218
-0.004396373315283177
-0.00396395955075811
-0.005057293460282735
-0.004660209884812932
-0.00514528785577192
-0.004865794305908597
-0.004873407953987396
-0.0054753512801154775
-0.004296931252553851
-0.004323771575760253
-0.004289546144825029
-0.0043046566481778695
-0.002903814322301136
-0.0014905142041657501
-0.00029756212295287214
0.00024783873986687556
3.0393014259092197e-5
-0.000948619140037742
-0.001237407554209415
-0.0019803868782869204
-0.0030741472677575233
-0.0032225982560201223
-0.0038207717804707706
-0.0042302166360427395
-0.005234870817208977
-0.004695030565328015
-0.004158590728139489
-0.005438808646497252
-0.004648453808761508
-0.003994485791504768
-0.004176764884306095
-0.001940908614995512
-0.0008751200404233673
0.0013826776891725655
0.0026276641726350595
0.004732089286659093
0.0041326805648201695
0.003553712369730835
0.001749699956251481
0.0013660006473917513
-0.0007034019224278362
-0.002873195680983544
-0.002965232231415854
-0.00480251609141232
-0.004431847533308257
-0.004744225476046723
-0.004711333594894377
-0.00336447236134601
-0.003911221761102136
-0.0034191277476500696
-0.0035275025226817313
-0.0016303807659312094
0.0007429235763129556
0.0045450415284433035
0.006203185191966942
0.008581493989942944
0.010646600168342235
0.008517222288902773
0.006808274798033186
0.003966420027589967
-0.00018766361115765077
-0.0017405247694234516
-0.0026766079304331456
-0.0035877860369738727
-0.004342217529807733
-0.004803729182259152
-0.004672434458764108
-0.0052102083259873005
-0.004425921898352145
-0.003195885589492305
-0.0017340016869628288
-0.0008249435746193278
0.003030850613344532
0.008065855675808265
0.012030883978957956
0.01809898990279258
0.018668048551661515
0.017925015479243286
0.012256460437275667
0.006430552816621352
0.0013165274596918758
8.890474630380868e-5
-0.0019680636247722655
-0.0035719727470113058
-0.0044975514621938
-0.005158887301826937
-0.005420976544862199
-0.005044302690412791
-0.0041100835680962094
-0.003527274304179171
-0.0012291280670446909
0.0010585713240220528
0.005586497264612279
0.012043613427605727
0.022445822440453664
0.031672995083060075
0.04297354767570633
0.03027799790071999
0.021129305380272106
0.01063244717858182
0.003766246291321195
0.0005340016519327385
-0.0028290181962292373
-0.0046288870937251005
-0.0042912508320726295
-0.004173585253062868
-0.005448331029804294
-0.005880372188945758
-0.0035786238613831718
-0.0032304547681592365
-0.001783471720221804
0.002156667796698774
0.006492401829435004
0.01699307682649112
0.03136916578606008
0.06498941418487471
0.07555490286408738
0.06189114002459794
0.028598974277843435
0.014995104172016332
0.004466547492801814
-1.6934561243994527e-5
-0.004211493445584318
-0.005205280574373616
-0.005156978577318621
-0.005446956663386531
-0.0053024023912180964
-0.0052803766663094545
-0.005767126917386377
-0.004006747193949865
-0.0030954154740706185
0.0009005950127980739
0.006197386774490079
0.015272456663993232
0.04855805306622094
0.0859226627660915
0.24773390050163804
0.07977512196924008
0.044216179916079644
0.012431441079802515
0.0036275849636780272
-0.002281551928201418
-0.006087034837794718
-0.006102165895018252
-0.0055897522257089384
-0.005815797644809719
-0.006213219454823729
-0.005670550636110083
-0.005972405548585813
-0.005843772911928583
-0.004820859709389064
-0.003074395731627585
-0.0006534376141930582
0.011174830470222464
0.025450889157738386
0.17442495469997218
0.8243644288038706
0.1887903424185948
0.015100603483011458
0.006639115444203533
-0.004161046504699379
-0.0053283689035134125
-0.007764776069238225
-0.00774290515500184
-0.007505731779814893
-0.007311492975412038
-0.007397803214662711
-0.006625653117424625
-0.00678254529010972
-0.0071831391837682826
-0.006988577564380401
-0.007585277134723616
-0.008877669493280104
-0.018944142274119724
-0.0328535907755298
-0.20385011563375122
1.6999058944049528
-0.18551991284813946
-0.034990223646764566
-0.024651303002306425
-0.011873155957637962
-0.009714342778929451
-0.00947328307177449
-0.00825652146329906
-0.008510201721235618
-0.007685423283182458
-0.008620153482181094
-0.007611607447916491
-0.00774468043338193
-0.007946332141020165
-0.0094558176954862
-0.011375015979895677
-0.01709879519673144
-0.02493782158221008
-0.060374835786184675
-0.09916486101599523
-0.25667753911381
-0.09735250083042866
-0.06423937284080698
-0.029382591528419447
-0.0186853915286267
-0.012813856250446145
-0.009797334394015688
-0.008984446192435299
-0.008879256298977518
-0.007487319618489854
-0.007677339493665724
-0.009494965322332015
-0.009384063224290777
-0.009373169592580121
-0.01089709888027535
-0.013334241032923636
-0.01746747303419737
-0.027568006996829722
-0.04078052938962822
-0.07773206018189352
-0.08666980988529958
-0.07577607506173725
-0.044621813270270025
-0.029978609347231865
-0.019294181024216116
-0.014507001385868403
-0.010253081107065345
-0.009563321580130194
-0.00867761231684227
-0.007739087848411355
-0.00799762017342756
-0.008488778524671272
-0.009615574184190259
-0.010262472796510784
-0.011582741638831058
-0.01384461267900573
-0.017076156114394832
-0.023618705742098647
-0.034152437849964905
-0.04244554898409477
-0.056090101929044095
-0.043905018459753954
-0.0358359967617193
-0.023863333025662174
-0.0186905879891027
-0.014559765213036629
-0.011046183861108923
-0.009836560323171725
-0.008462249656336632
-0.008171039124168705
-0.008019488506240213
-0.008131310999804055
-0.009477402362986378
-0.01014772226450022
-0.00994936358696397
-0.013192283884061778
-0.016099640460867294
-0.019923558094248926
-0.024347293943689143
-0.030133399456630374
-0.03200606930418665
-0.031629848511412845
-0.02548487768459509
-0.020657035026065
-0.01645443539682864
-0.014089874481029815
-0.010385457370965764
-0.009164135525731887
-0.008168738626680097
-0.008727463063934767
-0.007528639592024719
-0.007831785447350933
-0.008741612308091638
-0.009357643642160487
-0.011512943276265307
-0.012828872408527028
-0.014057559979887889
-0.016871727556534332
-0.019685406626009733
-0.020984266371803728
-0.022536920533069972
-0.021601530621789853
-0.020275363201915173
-0.017202403441181735
-0.013094504914101752
-0.011346657485282997
-0.009438127285470322
-0.008074142722753735
-0.008144923540083709
-0.008450348377315182
-0.008085924250589209
-0.007507903772392644
-0.008663056789524606
-0.009706809092985675
-0.010171353932850336
-0.011056959769273537
-0.012775591971840009
-0.01363433151031849
-0.014603947055248603
-0.016755342709690663
-0.016218055071888556
-0.01598432715389013
-0.015269665630431086
-0.01286866253801889
-0.011000167809806847
-0.010211248719994228
-0.008297481981987575
-0.008446087475204223
-0.007838785867539711
-0.007969314135234145
-0.007734758815596458
-0.007153219533916077
-0.008171060555792737
-0.008640717602947568
-0.008675844785157275
-0.00944945450432932
-0.010668161969666181
-0.010915620164125301
-0.011947138862083928
-0.011276208566899974
-0.012392299672885994
-0.012420880736298745
-0.011039607752127787
-0.010254219481391965
-0.009079102390720347
-0.009285888288880835
-0.00781803833779823
-0.008265686570333162
-0.007587769275109103
-0.007769918425891145
-0.0076518761494337685
-0.006859996262917355
-0.007688754931226162
-0.007445829792351644
-0.008358276886668408
-0.00889873632544496
-0.008651506586672122
-0.00932514534972554
-0.008972870565951292
-0.009384924489081521
-0.009242552374658644
-0.00993632436735696
-0.009080784418483189
-0.008809306099776312
-0.008367154359178876
-0.008243281414810247
-0.006569748390096127
-0.006772333475935713
-0.006755214018081772
-0.006832645802762275
-0.006516019561337535
-0.006877914642293928
-0.007447112697792551
-0.007573670352249267
-0.00806925074495542
-0.007507640905000371
-0.0075859823637347504
-0.00817066006281195
-0.007374211195135933
-0.007331071575903636
-0.00765484487487943
-0.007730187019524476
-0.007544299311251313
-0.007117056807191364
-0.007024469959585843
-0.007014795734405567
-0.006053646045672497
-0.006287954593016613
-0.006465770823304201
-0.0062506287065153265
-0.0073167157160125545
-0.00663455881034336
-0.006725958281009394
-0.007080770311696306
-0.0064484035444549405
-0.0073702095130763765
-0.007069831036011285
-0.006097637529251879
-0.006984919528459544
-0.0055122355649209545
-0.0058391493956855035
-0.005125062046868026
-0.005915096537662472
-0.0053789960859008355
-0.0059227696634973175
-0.006073338776080109
0.010842594705734954
-0.014524951962396782
0.002927627899008075
0.0009206431486614423
-0.018643904793149507
-0.00831486802873569
0.005806150486279544
0.01840501993621641
-0.016941164334636723
0.0036304402949064274
-0.01524105456997699
-0.005518074654314087
0.003229087388896467
0.012588047436877052
-0.0016710450338126171
-0.010696170020477139
0.006612451942865806
0.008650508670029542
-0.003598605637276333
-0.01128407690733352
-0.010715596473890261
0.013249369510375376
0.014258418376917664
0.017286947502656014
-0.017609594977148063
-0.005482950899950515
-0.005153099327662846
0.014591051031924228
0.001301704928416606
-0.014248016397239398
0.006010085187495191
-0.0011708082613966974
-0.0005512078008125512
0.0011108682634252541
0.0033002477274714733
-0.00829741510278618
0.014850783526513225
0.0025529086582660103
0.013490095366597262
0.010236594987196142
-0.006068407677178102
-0.010030345662166974
0.005609674700615715
-0.00508631436260755
-0.004095940619058927
-0.013761458628018796
0.024665633805952242
-0.005075808939575595
-0.007478630996515813
-0.0038794057465391827
0.0012405790594429836
-0.00016238388389310356
0.007857231815651816
0.003688530009192107
-0.005118430915338494
-0.0171105259360634
0.010623753075879292
0.017051683740584883
-0.019483778394543235
-0.017403340118783438
0.004712657228313363
0.008212923048356644
-0.0054895244537466765
-0.003071623876774954
0.004881914898862638
-0.018550658930356977
-0.000593022092143348
0.014854107483716147
8.246502433503951e-5
-0.007347361873603606
-0.000851201345498345
0.009478694615914673
0.0026363136265740755
0.003188933126831393
0.0002460025815633586
0.008519479441005434
0.006485346390151717
0.01158658732782495
0.011966791637900431
-0.007745048513108364
0.012513723060034879
0.005315244332450566
0.0100781314272372
-0.000981633642797271
0.0009131477953727525
-0.008206252946065171
-0.012303121254493649
0.02441814767495857
0.008639230745920823
-0.003463855595660387
-0.0003877319160246703
-0.016248553156209017
0.0075130828628388185
0.004100168991989636
-0.015329932670469138
-0.008048000833276425
0.012175199481787765
0.00412557846361726
-0.01795963205350607
-0.01380869700674937
-0.0034322486605168788
-0.010040215211088367
-0.0007941446426538738
-0.005207552520880979
-0.011458740173796972
-0.011928717257123078
-0.006538624142227116
0.011580718359199462
0.015231180443914676
0.003617921531388093
0.01231331205316378
-0.0010792463854572038
0.023505382596639493
-0.011714924647744396
0.014837910858292745
0.005214097766188678
-0.007499255266248816
0.005444818098389926
0.010810513688295931
0.007665413737201325
0.0241062145620026
-0.011589683125020121
-0.0016321433767776563
0.0067197719374701825
-0.012370850818772946
-0.0040206969254591345
0.00018243890190531697
0.009415298721496438
-0.008022099680845803
-0.01850357058388737
-0.00918253095190108
0.01154600431631814
-0.0034992787827635087
-0.0019360556267804876
0.005752376868660147
0.004167161894807731
0.0015001580010171513
-0.012148176207806373
-0.010874176811722189
0.0064104418537844245
-0.002495601020781552
-0.004570461473064861
0.008848255641847914
-0.007915843474658886
-0.0002301383190898553
0.006914504951205533
0.01219320124905348
0.012522771922205765
0.002783145717579375
-0.012267297238288564
-0.010168973474479818
-0.005882559834145357
0.0009562296587286788
-0.008510919103357646
-0.004487550424346026
0.0108590166374079
-0.004529602552663357
-0.019447047409506053
-0.019910931667979352
0.002007251785492277
0.00904692089748595
-0.006837583176969609
0.017789606507115613
-0.0018883034689598224
0.005626121647797602
-0.009502238649281215
0.005773832020104175
0.014015313948593393
0.008316933144462559
0.0007114650077487991
-0.013702779385656484
0.010408873572976289
0.010561545321228941
-0.005047392876449357
0.015147727326249529
0.008247953230145046
-0.006284962233081184
-0.016734694307150827
-0.00367334272723755
0.008849256134160455
0.016621848704574435
-0.0031430357469518404
-0.007887113427578907
-0.007381823928980327
-0.00225851449504372
0.003990536849876368
-0.0019393551577695412
-0.0013373041967172468
-0.013344915295247452
-0.00589229801858499
-0.003689530927761223
0.003589887296372336
0.00730542958289058
0.003909117823880455
-0.0026002260301893174
-0.002880372385501751
-0.012991489405761364
-0.02093723966022442
0.015109294227973673
0.0075081851156223135
-0.0010502947537658638
0.009379413507437527
-0.003481858789342922
-0.022320704528542325
-0.002782033917102722
0.0008547878809400772
0.0040786846071121305
0.0037322089429757915
0.006702104094781552
-0.00645639589814887
-0.013060017515633758
0.008132135370566463
0.010614841152028126
-0.012955897846508534
0.0028212149714676757
-0.00494230867093064
-0.005218546008043415
-0.0001731000583556192
-6.250057832109701e-5
0.004324328646536767
-0.00819878663868312
-0.014361119101468431
-0.007238003109297227
-0.008879317626594383
-0.0029567830662198947
0.0138429640724532
0.018746309734747134
0.0008022668923806279
-0.015097583470535324
-0.008853634976317934
-0.006334315861145062
0.010571490746789446
0.0006912869704430991
-0.003347101271957645
-0.020663198167682053
0.006057792623689561
0.00235906147588762
0.007754173418657941
0.007198541661275209
0.0030143953346879982
-0.0015837144389802698
-0.007791032742190764
-0.00019504151743688887
0.0031802386722072527
-0.0029941217347596387
0.00980500278566146
-0.004626375870200271
-0.0003426488686267485
-0.014271151691603014
-0.0025746888507644926
0.007685533270791033
0.024597033282367963
-0.019008555692762788
0.012235978378480181
-0.00835246451573236
0.01289014355487183
-0.0018675010171202513
0.0013714856391734839
0.010608814750332403
-0.00527282631791768
-0.0023291368231677847
0.008352481861883126
-0.012388712963874029
-0.009943902086727222
0.00956947335928092
0.005859837369673037
0.007991083210957182
-0.001581804980111524
-0.0018761961817910155
-0.007697032686157975
0.0032335158782766673
0.005166531144819479
0.0020711526305452212
-0.019069016549348807
-0.012376327371686596
0.014594740802137227
0.0010288807033578653
-0.010078693905841984
-0.007390961256037803
-0.0022805558927317766
-0.004310564496838075
0.011484143080001718
0.006915589904895104
-0.003294914757932634
0.0020163949346054494
0.007842550866148722
0.009474278952119927
-0.003543375937751043
-2.921499505617462e-5
-0.0023236779160738757
0.01570171637997437
0.00047830579768354687
-0.00399403688281735
0.0038478861966904873
0.011428741104197273
0.007187437724203306
0.0030989692582203956
0.0009217334860760068
-0.0077047702895817055
0.0059114711251678515
-0.0035834761250414463
-0.011417101912137309
0.008534516019340542
-0.001069042898993336
-0.0015880695365178955
0.0004343309722636716
0.0012590985738712454
-0.006228906837462214
-0.008601996382598528
-0.001799358024089217
-0.0005016303585990381
0.012347553825890574
-0.014363641155826555
-0.00687280667200031
-0.015426712663201225
0.02200318561718007
-0.007275964094602288
0.00809059244492204
-0.00942455414897077
0.006260069026565801
-0.012513905302530492
0.002368886650466464
0.008453853293800748
-0.002105617994757337
0.003979893766022339
0.009495298570133157
0.008133288806204087
-0.007275791025847058
0.003389029923714124
0.002891856381350808
0.016502542084875768
0.011573627383424295
0.00953573036139458
0.001742730882457738
-0.003468459721902562
-0.0016218633042292144
-0.010407827483663545
-0.00651385377966892
0.012363305632043175
-0.004707587431227872
-0.009234453725697566
-0.008836937940596208
0.012356792523153658
0.010562791013935214
0.0029556988705009197
-0.002751557986446832
0.003944135944753117
0.0021553701939793744
-0.0008463402981986244
0.01075282542909744
0.0035234850381234586
0.007921797926975048
-0.0033630011089490312
-0.017996578696715167
0.011928365991307257
-0.010958294169743856
0.0026982261462367664
0.0005812453645850789
0.008390691269272254
0.012590393019888067
0.004454089285786225
-0.018339596337127197
0.0008506921203885118
0.015543355231616469
0.00316853641329047
-0.005997444061398215
-0.0024957318797489514
-0.006299131364872858
0.009075453942458548
-0.00468417905683143
-0.013323235539190174
-0.004567585295460421
-0.009176905975181322
0.0004612758853454384
0.002602353008211364
-0.0005830777518696876
-0.011859130644456475
0.0003244412118371227
-0.012960954222844878
0.005490372772860688
0.006432539579186668
-0.001777650064661694
0.004551632101679106
0.006473898147841951
-0.005982839478361832
-0.012821036183005903
-0.007706727661032649
-0.00016982077169383058
-0.008720855837847527
0.005438624457417756
-0.018701607934400555
-0.0023517853692816776
-0.0038394979152567388
-0.0029892196347685506
-0.007380478157072093
0.0019935489328341905
0.0029073110921475735
0.010977816969080713
0.0029423307642118955
-0.0015486490324273616
