-8.811139318777315e-5
0.00011950980534126309
0.00013742569663635618
0.00024184272595939376
0.2153954424464168
0.11878493240310119
0.05524563115778549
-0.08405027260623255
-0.6961573432912694
0.24233032757577877
-0.34683967291690465
-0.1235002322867275
0.025063843929906255
0.15381013223961595
0.0869317396666881
-0.02924900647274247
0.09148274747073425
0.1423094937357905
0.06699988713712447
0.05464234972314431
0.2511968989286438
0.33124621619679834
-1.3087171067235268
0.264774338862864
0.053229832641952635
0.034044858046765374
-1.1529185623068088
0.053010222691576736
0.06261304086563127
0.10444469808595466
0.031780024946777154
0.06273285946322434
0.23131088525076068
0.3538909501387271
0.3824875971644415
0.2248732456229639
0.19823978565521969
0.22919971932943886
-0.044996700523994994
-1.2242531304627198
0.1829474126705997
0.06626447861607658
0.04210837714225556
0.09203029914258334
0.09952100327299447
-0.007057586673505382
-0.03661051652304335
0.08313213774531784
0.09984028228609064
-0.06848624427161994
-0.19736370731131964
0.4986843900188397
-0.06953684808594168
-0.07561125428206984
-0.05112357226157959
-0.07958193511632788
0.057618537654094686
0.19150252151188563
0.17355775917161767
0.0942399369159211
0.11268015250865633
0.07615327280127544
-1.0590083492575588
0.07340767430588818
-0.06891269443855542
-0.10489798664699339
0.7815065468978146
-0.0498937616824438
