0.0001744935866878068
0.00015429742251884534
0.00030443576015048014
-0.0003168750958782782
0.0005165639179061372
-0.0005160491785866422
5.6951643059629015e-5
2.2709743631175777e-6
-0.09406049187816157
0.02892708673920199
-0.06954059833432928
0.01455315734840795
-0.0016335098430139466
0.14340609117769515
-0.007745823113452028
-0.003838995240983412
0.062479261787151935
0.1944822159815704
-0.04198796601382375
0.23641987654020577
-0.04367137727811378
-0.6179980297329801
0.2290454828450145
0.010163619007112056
-0.08366809961321493
-0.012967018667848749
-0.0001475126909026986
0.03321885411221199
-0.23407848241244789
-0.11346202304657002
-0.11688979943342116
-0.38039263937392626
-0.4715658201307394
0.04382792089917675
0.2080761931384688
0.3736825495819901
0.25103100842718923
0.1539317029621546
0.15058598679990776
0.23041717949132967
-0.23511703111774665
-0.12345033393924462
-0.17061834512564714
0.5985849371900807
0.054266723270984925
-0.182781411595742
-0.09703953631517344
-0.09558033119976773
0.04192137234047827
0.41772063249638836
0.0030738448328346793
-0.005149537518767067
-0.11143866199313915
0.07727651957625037
-0.094580177756679
-0.07868866323110535
0.15477815735455275
0.044926714797402886
-0.32123875721612494
0.9816946492261029
-0.18413072749387316
-0.2432391997605779
-0.2885921864146015
-0.12243983505889444
0.029383667785439174
-0.05870315904953331
-0.14165382830684284
-0.09612699304868744
0.0684468026953014
0.11065417329507672
-0.032775980846554004
0.13911650210892545
0.007264486127988504
-0.0025427543412543012
-0.07664181956255586
0.3942870313874354
-0.11120293860035366
0.21256701821611657
-0.1100964426982894
-0.06816268413156926
-0.02436020506017562
-0.004384597519665325
0.08973524086116717
-0.09133545961559422
0.18921030404918754
0.05053421280861072
0.12271025444608635
-0.5572816464141941
-0.25710640504415955
0.4725012673826269
0.3949842777057396
0.02102258056662109
-0.12574401267870688
-0.08463254435703824
0.07313157984007884
-0.021260706642405255
-0.1589093195321692
-0.15408039943900428
0.08858105746458522
0.0017953258331602708
-0.2365931889940277
-0.3690737187686274
0.27890810532967863
0.10147610128313546
-0.06524520619540405
0.03296141675282112
-0.07735635681770282
-0.13020802907375517
-0.06712385896961424
0.056321616154188625
0.05085184107996209
-0.18213615920458637
-0.2873489514904021
0.17163171708183028
0.2533357401135847
-0.323651300608971
0.010166305291697042
0.08675111538655925
-0.2534781188852742
0.7180282293776951
0.10919326861511454
0.12408330170457657
0.10795159998733188
-0.8826142466790691
0.3079694369839321
0.00041921455472641135
0.013127070454800447
-0.013623439814309874
-0.08535139248295681
-0.044557836044021096
0.05066450629301964
-0.1792770214341439
0.14842011797038185
0.049764254339851106
0.13278281759175517
0.14284834787159828
