-0.00026433591812362155
-0.0005277997213677486
0.00021272568790001726
-9.968189043524623e-5
0.0006226076443673547
0.0002461805214986634
0.003361331787043231
-0.00037362936476700745
-0.017016598600611072
-0.020249015256106766
-0.025461780282577406
-0.024789413361372224
-0.023684859317370206
-0.017630330505046594
-0.01434764490388663
-0.01022536359405516
-0.008431286750435706
-0.006687911349143659
-0.006860891145300307
-0.007137670488153762
-0.007833159590101507
-0.008783843390885317
-0.011716829122629595
-0.01372184045523042
-0.021869650017309613
-0.03230899699579347
-0.03680477810053562
-0.04402842634632375
-0.034195523274276746
-0.025591481409847947
-0.01703890821833088
-0.011984286464778962
-0.008265648992066717
-0.007353638094664486
-0.007193141474906848
-0.006717725027846987
-0.00783145475780944
-0.009911437431779647
-0.012680282795085228
-0.01692222021730701
-0.03204742307571692
-0.0421607975894139
-0.06802435723645504
-0.0696626869731296
-0.05818914604598508
-0.030713879541729393
-0.021070903785043088
-0.012377464444443211
-0.010341753064307482
-0.0069404783517421085
-0.00715471964986933
-0.006904092798474661
-0.00858458812444139
-0.009877992269036462
-0.01417343317678818
-0.018488200781494706
-0.032588138967719116
-0.05582680755671778
-0.18569399207403345
-0.1877643721525648
-0.06942465117117423
-0.03788060403737272
-0.018306520666647494
-0.011179273987384976
-0.007800205520201645
-0.007250560046765372
-0.006338025707779726
-0.006928257111526692
-0.007574468390506125
-0.009470022304513586
-0.012931200760196588
-0.02027756013149577
-0.028451880035212058
-0.09214004126648309
-0.307469032900738
0.8557566135389977
-0.06348524126152558
-0.008424829267709204
-0.011216555733067799
-0.0052835239430294315
-0.0041121207292812495
-0.0044367060949332335
-0.004949637115175834
-0.005797233412773278
-0.005974930783851665
-0.006946268508314721
-0.01003655889906498
-0.015333467590939369
-0.0025222796242969324
0.001596348542735583
0.11951056704506598
0.42126196953345885
0.1621386959764597
0.032637537346520175
0.012171227915881228
0.0015345981998382712
0.000515324691620756
-0.002335273110234831
-0.002993942234501087
-0.003981740291238649
-0.003456950153498644
-0.005407173926492709
-0.004945976369520155
-0.005372075170118466
0.009091086892381368
0.031525124576130284
0.07621658383584928
0.1804415476101216
0.08423776812376632
0.042626804242598064
0.019051772732634236
0.008524947024998154
0.0024128224164845185
-0.00040039848575270596
-0.001267088993334065
-0.002011233741803598
-0.0021133487560896134
-0.0022674176484621263
-0.001266157226190338
0.0017907091647002631
0.012224071202032127
0.02524704942438533
0.05171669814101328
0.06544166630077494
0.05181438250393105
0.03321749330578297
0.018609683579544758
0.007998500169672459
0.003531511651447764
0.0007234450317321824
-0.000513296668212052
-0.001020264976289364
-0.0013731695346562366
-0.0006543807345879985
0.000993665443429889
0.0039027041224556115
0.008890099752585465
0.016734200460946605
0.027185267092042487
0.03597753571367001
0.027977378083822436
0.021211512041893157
0.011151181282295409
0.006886398606627652
0.0025676933256433207
0.002041103264150719
5.398016158862346e-5
0.0001408933967374612
-0.001202998087601802
-0.00015538235483883778
0.0008187546402747966
0.00458127190061561
0.006289340296650434
0.01035265622943365
0.0153721058459381
0.017219678669556964
0.016925182110221964
0.011894344180839816
0.008613183858839486
0.004505270643563831
0.002067100302634508
0.0006869789918670318
0.0002060357925594618
-0.001373214488246819
0.0001179763334888116
0.00046434520747482607
0.001144431545402411
0.0017393435418016764
0.002387151158056719
0.005166084159230557
0.007749219122114366
0.00923614023897446
0.0077835682146326695
0.0066970954086699175
0.004842124513773392
0.002889187120088059
0.0001093187900280248
-0.0007740677410091771
-0.0002761033537699363
-0.001589700217592902
-0.0010599740419640975
-0.0011340983981174486
-0.0008108676058423991
0.0008604287493136885
0.0010908431920835823
0.0009002369274245471
0.0028038940827009667
0.001874677037936542
0.0028567277689409087
0.0020521045272486023
0.0006359927400858725
-0.0002041148098912981
-0.00042341698707277977
-0.00030173513752922
-0.0011835794677599193
-0.001762337937719227
-0.0015968835982528465
-0.001429038966294714
-0.0016300319020693134
-0.001372696696796933
-0.0019005002337357678
-0.002361907305447583
-0.0025838573782521333
-0.0016947563027444172
-0.0012741062825659959
-0.0007955238968625734
-0.0028803849580459643
-0.002344777939495944
-0.0022354441771077803
-0.0018950611885995168
-0.0035601691897915997
-0.0027351107762907563
-0.0027249270023338643
-0.0027476315608461837
-0.0031474468782898284
-0.0020810135855899733
-0.0051120907975265905
-0.004980435776983087
-0.005176484019019942
-0.0052031412396152865
-0.005450152173715988
-0.004834713016950622
-0.00412412033972599
-0.003665537075767592
-0.0035971836297684543
-0.003104040411447602
-0.004327107538660145
-0.0042818836380759855
-0.004416105456886356
-0.0053220639603355335
-0.005068228993257563
-0.0047187378107304235
-0.009109377788061035
-0.009689430877860557
-0.009710321609851132
-0.009742294894608495
-0.010257141854332687
-0.0075723121580584946
-0.007320402460928589
-0.006158051138927102
-0.005549586387700604
-0.00524479828244124
-0.0051219890428357675
-0.005546441152149839
-0.005326033293633694
-0.0059393921069195625
-0.006437560971657471
-0.007111057127972879
-0.01334599409346902
-0.01387658089277182
-0.015166682006538137
-0.017179192206497277
-0.014840980815320428
-0.01271858395450289
-0.010492984601513405
-0.008114575764258608
-0.005868766436296469
-0.005771550946618127
-0.005560621537536771
-0.005935934822328948
-0.006156759879536523
-0.006684881561583554
-0.00884136444185002
-0.011313610111305213
-0.0005068124088625735
-0.00010220271293519102
-0.0002564854977487398
-0.00041167206479768027
-0.0008577602430091234
0.00019960990232782406
0.000312802356921776
0.0032877559829472516
0.0020280341361644844
0.002193665026274853
0.004272437427477565
0.0042903638441718715
0.004538551990075236
0.005945250187999143
0.0034766285128825054
0.0016414573942691764
9.925877215750316e-5
-0.0019768474768924378
-0.0006058297967140066
0.00033957468699569724
0.001234793086806134
0.0009908876401750928
0.0011286240227850496
0.0013640646450314379
0.001807638845005202
0.0020952946059235077
0.004412341124831411
0.00415452306223614
0.0035769969153819576
0.004281507598508432
0.0007322599553707052
0.00041252713634797587
-0.0005617951071149882
-0.0012137808127762732
-0.0007208597586345026
-0.0005602899736052043
0.0003203095816915455
-0.0006318582483892019
0.0005408072518950314
0.0005718683125120927
0.001678978070403961
0.0016627394399910992
0.001573533719091311
0.0014541225815388782
8.972239147088585e-5
0.0006321862676838994
-0.001352595142915308
-0.0005889176032283627
-0.0015542930750682602
-0.0015070559778569128
-0.0019492008862306886
-0.0013500054227989697
-0.00025068203172966665
-0.0016220033846486694
-6.986759049753871e-5
-4.574365628274473e-5
0.00019753261468400426
0.0014583165714611927
-0.0001826059126105178
0.0004377231748551617
0.0002888771122868325
-0.000533088293743163
-0.0010348317079414216
-0.001903672596433351
-0.0008724598937669026
-0.0022888683205280038
-0.0020844761489390456
-0.0005313313359781027
-0.0011685948588884662
-0.0013637510798443428
-3.133918489954432e-5
0.0008294884737423211
0.0005652045562925106
0.0003009261962262851
-0.0008179692838646914
-0.0010782366559546224
-0.001064224619745785
-0.0011290303110834173
-0.0016655337864359856
-0.002839270316789501
-0.002964918100652324
-0.003084759949644747
-0.0019471101329502113
-0.00043444949022699284
-0.001003655117149801
-0.0008826187987528212
0.0002370732020358212
6.394134397511508e-5
0.0004910090957028673
-0.00023819708738546719
-0.002366841732612783
-0.0009539703815865685
-0.0009298928262390304
-0.002172408783510702
-0.004297621490961925
-0.004955333244902194
-0.005602202289284465
-0.004736316721630943
-0.0033109599982094236
-0.0020965081463357885
-0.001909594156789032
-0.0017025933094211034
-0.0012313164401675663
-0.0012810012719269759
-0.00015716027946668292
-0.0017302250773745535
-0.001664047187285565
-0.0023246915191629113
-0.0016030125794009866
-0.004620447312889115
-0.00671738625917341
-0.007328706606202414
-0.009123460514347976
-0.007383074295427574
-0.004311748043714073
-0.0021361739464060376
-0.0022557984275171417
-0.0014965604566367348
-0.0006469788575434826
0.00033198097546567574
-0.00037208223439918857
-0.0009945978354884539
-0.00045089862124726845
-0.0016503658464695299
-0.0033840959426367236
-0.006708596229976006
-0.013517698913846559
-0.011626985027047019
-0.008620678103377
-0.01036116681041608
-0.006827736556258894
-0.004567998583104267
-0.0031558415675407153
-0.0017888349190960241
-0.000825099226991332
-0.00031409102799563853
-0.0001139459410467874
0.0005028530978396156
0.00041517979828407627
-0.0014059129018049014
-0.0018619732754608142
-0.011459593896526229
-0.024014563889438453
-0.014558903139612335
-0.012361236942776974
-0.010389312517098947
-0.009578869700005765
-0.005810814047632761
-0.003977087868176364
-0.0023492800750491093
-0.0006096528472587394
0.0017001934371288865
0.0013856255484503794
0.0010861563562908202
0.0021997769664649927
0.0018520281630382187
0.0019827489646310112
-0.013342107197304337
-0.06342632416049868
0.017398578040522868
0.032286303368031136
-0.017535632721572016
-0.012618016852931348
-0.007221728901749411
-0.003974081547853665
-0.0024234676560336106
-0.0013874552469280855
0.0012693095174187074
0.0018504555051406702
0.004179112635089258
0.0056255948385208945
0.01109815755523566
0.00797949201546562
-0.00014751543562097373
-1.757594762768868
0.252610096175011
-0.07710159804166947
-0.026988576407872618
-0.01613571681032044
-0.007594932944296548
-0.0030951747192410487
-0.0018229009432179344
-0.0004578442120393891
0.002430080685245491
0.0046521213235192396
0.004309302794709966
0.010926384468618417
0.018090933038124476
0.04908732474569591
0.21843543440063734
-0.11813072000916816
1.2590636823533847
-0.03081607718316737
-0.018531800456062546
-0.01002506593281157
-0.005068578046856962
-0.0036311388135761885
-0.0009380991150484539
0.0007976303154717418
0.0021153047465847425
0.003074112007356902
0.006278176268021596
0.011451604214723254
0.024671172691250874
0.04123473864954031
0.08653346129850598
0.19886476562826186
-0.0076399274579200555
-0.003067735687266108
-0.007278951259365162
-0.0061595598570857385
-0.0035171467946341966
-0.00141811734547114
-0.0013161861565238206
0.0009013676070741663
0.00155030262842404
0.003419470921629763
0.005004644803427675
0.010094122241264894
0.015750075557579738
0.03228433626903501
0.03970969729969797
0.04917001881162633
0.00023353220850036167
-0.0007543970019756014
-0.0034022082978200294
-0.004329487927413049
-0.0019650287994027204
-0.001307271033582115
-7.084638268112754e-5
0.002344340720417464
0.0013475082549489288
0.003117890830018955
0.00516481891665577
0.006979571363887942
0.01120753709769254
0.015441303424199037
0.022715719649721747
0.017274512958575548
0.00693677848567218
0.0013776176441293747
-0.0004373729200672458
-0.0018202120532916227
-0.0002999763885183775
-0.00043554843464461545
0.0002340653154536198
0.0005892008644211468
0.0016576377778527403
0.0027629282636544377
0.0029703701264306385
0.0045423081464834114
0.006255423800480302
0.010203811036861426
0.011197485871749808
0.008900341792814516
0.0035549600982226043
0.005293098927996838
0.005441525106620822
0.005127492888557859
0.00567189238726316
0.0072829708494200635
0.006500012994740901
0.006665909057845494
0.007656973982926791
0.009490983061414935
0.010069751223524577
0.008614692611320668
0.008368282584469918
0.0075340392379393524
0.006218985348234104
0.006421209945739415
0.006076687866718984
0.00628464534748142
0.006523716830630883
0.005488945554937638
0.006893000638071388
0.006997257682063234
0.00750771294773986
0.007081916142371192
0.010072613293345307
0.01190656796618665
0.012722138888960266
0.010987273996660487
0.010297144860552906
0.008771110296698843
0.0076504869309373036
0.007447869772609172
0.006957120099726542
0.006099247208153797
0.0053376565388665404
0.0058250232359811464
0.0061474634748110366
0.006090143071642668
0.006701089954873455
0.008597823268683242
0.011218046813218483
0.019115197565250788
0.016456533903845987
0.014475022923661271
0.012234558168133547
0.009829301634902967
0.007685688265409047
0.007847173336748883
0.00692901968724988
0.006433052830786661
0.005910675550254526
0.005657453028845562
0.005371592292886207
0.0051980559534519685
0.006660844529506108
0.006391700641873253
0.014804323595419786
0.027177988103551282
0.02005013262362788
0.013718961065666887
0.0153990505541889
0.011757642213034039
0.009946118932033142
0.008458774556009201
0.007189311918503944
0.00625687398021801
0.004418391698480724
0.004739738120953598
0.004599644970700615
0.0037157275132586845
0.002470832219871078
0.0018759653942567853
0.009891942300704023
0.07160263386556519
-0.012000361861146875
0.017850772949972636
0.014652428217520318
0.014609896609401775
0.010822549773591279
0.009505323690454901
0.007657927144222767
0.006729493989129006
0.004511797960654042
0.00359405516992653
0.00197684756026294
-0.0001643993805641982
-0.00497562485344991
-0.008172167387516234
0.007166195277797294
-1.182044090220653
-0.22418132403303928
-0.02709469775642111
0.020877478703690625
0.01616866429497556
0.012190728491769637
0.009199483745589598
0.008043101941650217
0.006055641875384863
0.003373691093632868
0.001642162224361926
0.0014055348036808028
-0.00418319161080721
-0.011816268247707559
-0.03647400645094684
-0.1675083098627866
1.3062270526686812
-0.910840256925103
0.07210419410128276
0.0258772474241671
0.019634008440445484
0.01186118507182836
0.008366870372251296
0.006986872285728314
0.004720705231993821
0.0037367372576327437
0.0025747345765748195
1.7046504408024246e-5
-0.004578217225865881
-0.01570190866522084
-0.03175969439623222
-0.06911634688671214
-0.13771886551468765
-0.007653387628530871
0.020510702440469014
0.018968582734033082
0.013066682525176131
0.009868690442972188
0.008308837819559291
0.006163235946743699
0.004701494857387262
0.00421262336944748
0.002641481747241719
0.0007979522859699687
-0.003343222407269798
-0.008808616966522981
-0.02210889161205363
-0.031007533329117765
-0.037271113926224876
-0.003439312301758926
0.004310377159866439
0.009389507947980897
0.00994150191400777
0.007892131098140787
0.006717742165632017
0.006258108508745114
0.0037220783115365524
0.004356151401945505
0.0028326107660204955
0.0011479894503316323
-0.0007369864008461791
-0.004342458356027158
-0.008822292366189177
-0.014779170152875302
-0.012021387416443485
-0.0023297238098104545
0.003952491237228738
0.0075430120820497515
0.008193935619328118
0.006757266819908942
0.006165715204832999
0.005529468835823897
0.005202189046897892
0.0040678624341717665
0.0029913267873333026
0.0026837955278728367
0.0016891288444190228
-6.69727447661905e-5
-0.0035272765707436184
-0.004851927209533017
-0.003054836404690493
0.0006938230413513083
0.003412670291983809
0.004937231586985327
0.006478626338119387
0.005388034391891123
0.005669201480297784
0.0051753755348971486
0.005227952599432293
0.0032195513791004925
0.0037821563594389006
0.003581257814946707
0.002013568107448777
0.0021336421946400266
0.0013526797519043865
0.00010146488994137494
0.0014929874363571976
0.0030647064580915607
0.004828728008585998
0.004968265773489299
0.005156832839290269
0.005675948174447511
0.006287019519041203
0.005422281095648974
0.004512715705975797
0.004078120605376793
0.0037554866736760396
0.0037517545652303677
0.002154686804332973
0.002376807885805854
0.0026457344910227635
0.0017392660822747733
0.004815799584097001
0.004660181679848585
0.005070553970067881
0.00666491716857776
0.005905131513431483
0.005047785410432446
0.0045865881877546625
0.0047778663534987975
0.0051504115324529105
0.0048585372453430345
0.0039464012112845545
0.00407090392386085
0.004017060354708431
0.004176072446308368
0.005054467752728044
0.004899107295704786
0.006313241636585487
0.005608917816019007
0.005671145305837296
0.006691702632337381
0.0062390169696765795
0.006116268253895774
0.00533652358827579
0.00607032068754306
0.005918480566825092
0.005694165826938462
0.005303277605160538
0.004468222517943191
0.0055787535303659
0.005420583359018029
0.00534656161133317
0.005726871353488585
0.006224381164771372
0.006914542644723202
0.006806293065601966
0.00685111660619301
0.007148897561701409
0.006569587065373844
0.00563511796296032
0.0066597988077314995
0.005656577134263197
0.004993511402972784
0.005037462522664381
0.005397206796412599
0.006094757367605749
0.006582436356310432
0.0064562084324352766
0.006724080582913447
0.006700685312145034
0.008132960090800206
0.006683312079292898
0.007642146333155406
0.007094032320669275
0.006172644518959056
0.006565727403495957
0.006631388396853452
-0.0684312101740998
-0.1441931858441951
-0.30499271022754615
-0.0846490814127826
0.027483596862289482
0.017726622635499196
0.01843150394294501
0.011172993813193467
0.009582387155009232
0.005399485034702812
0.0035072952695724127
-0.00026491406842594166
-0.0027333592464672115
-0.009365060968420503
-0.016391446300803844
-0.041261640769173186
-0.05371526647464481
-0.06460661368071083
-0.0996425802998267
-0.01964234622705297
-0.007259044459330362
0.00949366054050796
0.008592094844360784
0.008485911247572309
0.006450223809627343
0.004895548086646948
0.002848964438065375
0.0009128295149433828
-0.003071709814349736
-0.007501457310573149
-0.016475853088083747
-0.026485324396521223
-0.025592693038217592
-0.03993596411075055
-0.030786990810414912
-0.01920454987317699
-0.002893018839419367
0.00216700964855923
0.005783475147827234
0.004205028166837596
0.004580262937039221
0.0029395877246112573
0.0014450301332591205
-0.00012609137999370842
-0.0022652775743133
-0.006869726368181869
-0.009970541237215375
-0.019305066317747685
-0.016822107022950148
-0.01711799527809434
-0.018445563543078407
-0.007583947986456635
-0.004007028394789142
0.0024349740220048254
0.0033480100321953876
0.00405946599501868
0.003097004788858749
0.003125976950454241
0.0018662503933762641
0.0005468602245814944
-0.0023895195342744963
-0.00338785190310535
-0.0069374178923407165
-0.010008655180988694
-0.006914622113675957
-0.009555565911903173
-0.006555212994905211
-0.0049630736573149405
-4.313770226308791e-5
0.0014419448120809514
0.003994883775899584
0.003911142773123684
0.004238016733219199
0.0023810379628625864
0.0020851167537236964
2.5582380757431782e-5
-0.0007621986317331916
-0.0021722004740614034
-0.0031918760894781226
-0.006352208979017275
-0.003278858999735571
-0.002477066886720551
-0.0014652533661726377
0.00031713611497882765
0.0017180063482577252
0.0042399006685461165
0.004188221512369541
0.004219575997671886
0.0035669323794436957
0.003125623184048965
0.001495265652110591
0.0013062917020026782
0.0005006511531922904
0.00026308225397797254
-0.002376458180685221
-0.002142150682890925
0.001065048620390172
0.0003687600041244298
0.0027117278581545883
0.002576751988437721
0.004419281056363646
0.005602598930619172
0.005231868571768142
0.0045081982700557735
0.0036994409078500838
0.00382545715449074
0.002552568866711877
0.002424239952384878
0.00141488124438718
0.0010912751414440334
0.0008897399016187179
0.0005792843257525875
0.002550581805922709
0.0033100935506991634
0.0041734097578193866
0.006038995647441763
0.006166326737601582
0.0073710134629195135
0.006933316134425359
0.006282115495756309
0.004910469244909358
0.005416913646535732
0.0037807628324643297
0.0033586416717430122
0.0021749791467686012
0.002185526981974411
0.0019126531304027238
0.00268455885849266
0.0049061476558874715
0.004645423535433962
0.007159678271155387
0.00817752510214878
0.008749666575058322
0.008738559199064463
0.00861190867879201
0.006781658440188282
0.005829948170283245
0.00552393406716445
0.00453165530375922
0.003257112436653514
0.003542551074114075
0.003184420326748069
0.0036710847031364555
0.004086819864785988
0.00503468514449127
0.008437733225201437
0.00950516368895994
0.012518281854047453
0.011463059045407465
0.0123043097479812
0.009751389427973555
0.007920834690062115
0.006840680481411617
0.00669023256390236
0.005018803541209895
0.003922538485514602
0.0028285488602291797
0.003641519743792207
0.004016685889693422
0.005022196516943683
0.0072087766561206796
0.010449527328287014
0.016812304319402015
0.018457843428982972
0.018672610587008073
0.01629844365775882
0.01372748619470148
0.010071568573954016
0.009230240645704128
0.00695772338083671
0.005776513241771533
0.004568132112966154
0.00420091548129306
0.0035135774378567933
0.004480380090211972
0.005643431597268097
0.006218915120177085
0.016107246736786644
0.025019069924523317
0.03162069009439348
0.026433364896691403
0.02399931537175018
0.0172013386075972
0.013175886640645304
0.010491803561815097
0.00840386858742605
0.005624877201670456
0.004870444563596223
0.0036394061548731494
0.0031308178769665837
0.0016717440311962311
0.00486750880541734
0.0047047314360802095
0.012264232916591749
0.04636264749018634
0.04844098919657378
0.044645121290639654
0.031905305663235274
0.023935628795877125
0.015350321176065851
0.012024363098898346
0.00844713131014534
0.006122552829337152
0.004124755250753178
0.003350674135586438
0.0005203800766792558
0.0007832703921438209
0.0002048369635778613
-0.010934691977786924
0.016642026366589863
0.06531826586945398
0.0886500370184788
0.05983669252729597
0.04632835315013506
0.026749324864503606
0.018591084483037704
0.01235612539374464
0.008962572313377477
0.004734266885333922
0.0026815437933953162
0.0008805885138112718
-0.00042490029579321943
-0.00474034460694331
-0.004339807829423479
-0.024334865917557767
-0.10489282356222593
0.28946344879025654
0.11667327135639077
0.08435431976443945
0.048907750953353965
0.033008595815782284
0.018183624487105893
0.013189396186347345
0.008035614889111366
0.005568609193237592
0.0009913031832736413
-0.00031068899544544167
-0.005338138623334543
-0.008800308287067205
-0.023051394876056546
-0.10459213139169038
-0.27737573365325946
-0.6317050445194703
0.2764296119824257
0.05610163185118263
0.04802774101768319
0.025897828719048336
0.017634369037358672
0.010697357444166609
0.007810929330276464
0.004209643952237059
0.0009017001912579833
-0.0032766467680779786
-0.006390114888445243
-0.01959561307374612
-0.03129110118850035
0.005329077919360618
0.005701131652809778
0.00648152612062329
0.006082558759672785
0.00627043217666969
0.006105302748032797
0.006749571947843362
0.006311571336301793
0.0059586219311054765
0.0055167166455324145
0.006040191962997588
0.0058996642750342105
0.005216871200297166
0.004965203362599604
0.00514009089862498
0.0048075165846005845
0.005840776969755618
0.00665485633628309
0.007098602107098343
0.007639685824291574
0.007239168859314541
0.007467813335791431
0.006859897465103959
0.0072183041600518555
0.006456052617997856
0.006259398571328167
0.006621537424437958
0.006762906868045331
0.0057401273921398425
0.006847726751626569
0.005867706250811302
0.005989527287343223
0.007813049679614907
0.007732021712278853
0.009359706103633708
0.008105963298513947
0.008894773304725215
0.008549611055154312
0.009691089501306968
0.008551867576239365
0.007502803283163868
0.007523143236923199
0.007327332367378134
0.00772310091750661
0.006956816377831764
0.006394422587500388
0.006251274538736363
0.0064088933977907575
0.008539438100390722
0.008435516783878574
0.010070822615018722
0.011433476326042013
0.011131427344017428
0.012181963858892395
0.01025489367151807
0.009146054900825247
0.008846385161275838
0.007553498996233584
0.006026270747662276
0.0062590835618819615
0.006244384474620087
0.005624687360493509
0.006879855963497346
0.008298062315021379
0.009171853365546219
0.009874466294584312
0.012213461397279048
0.013144916623539237
0.015419471930367502
0.013786073509305295
0.012780647936426547
0.010347505592950416
0.009784456479459792
0.007984102719431502
0.007190641865047018
0.0072666306063189495
0.006030209598311295
0.006186227108587094
0.006456931496103989
0.007713458680642293
0.009313940623779045
0.013580150325783759
0.013398970816644136
0.021159816590270365
0.020752028311535515
0.019368478644863036
0.014302356938346252
0.01126746280812217
0.008312166018070784
0.00762474745871124
0.007570181583731044
0.006688202163677328
0.00586813678078623
0.007932137642464396
0.007127262641639423
0.009858667821880279
0.012616273785363698
0.013442274699710459
0.030045315355061976
0.033328534424144955
0.043973373734214574
0.02452858965459225
0.019470292165776292
0.013824109653390204
0.011520138315105292
0.008532669975032202
0.0073552298476972835
0.006618020970339848
0.006925291460496991
0.006624519318235961
0.007606500101250833
0.0076265473403776315
0.008024223004884095
0.012708496665082602
0.0069988378877706625
0.27928082865265685
0.08142692971393921
0.038912933078496595
0.018523541853306062
0.013791382259715136
0.010235140867023795
0.009443873653951291
0.007317730155288838
0.006167494999975444
0.0063648044875680675
0.005986136409823239
0.006670293064939764
0.008014169711187248
0.0062004119503077
0.005136457476263656
0.32902649823705926
-0.34181764686067573
-2.0333051902087864
0.025129583130636974
0.019109475983407963
0.011350615076539455
0.009526676687710362
0.00793839826004831
0.007769876207721116
0.0072255990558209365
0.006188133705657818
0.005184754749745967
0.004741549592366332
0.004986462728080843
0.002249675834328236
0.004994477005017278
0.0017003041547866804
-0.272282084840801
0.07602507285183822
0.016619162523253055
0.011522535775180849
0.010477576955827102
0.008504615597475403
0.00794522599877183
0.007325795754846986
0.007301073215757932
0.005301250571423607
0.005984397059233118
0.004357461935999738
0.0038929034855059836
0.0012869575807011658
-0.0029174249007376564
-0.003887228542878686
-0.019795456197545268
-0.007509303895935852
-0.0012600158302231153
0.0056718028267745335
0.006421710388393917
0.007530349910645359
0.007523277935871626
0.0070700284684350285
0.006164750865892224
0.005019300874382654
0.004475848490054037
0.0035051878898999644
0.0036267965685343284
0.0016940867651011522
0.00043128788856290244
-0.004454990557072663
-0.0027841111839876473
-0.0066628298321567865
-0.0015549641927172213
0.0011912470922061428
0.00483957526618398
0.0059960957642397105
0.0063395855419462145
0.0054535981724154635
0.004546238114102387
0.003577660139015524
0.004013759293442894
0.004263754108312287
0.0046572781942113076
0.002651931630344834
0.0018462063260325464
0.00041876249330260725
-0.002899143803137681
0.001440292352972691
0.0026185802722399803
0.004386535748404871
0.005164645411130929
0.005574344431380167
0.0051802790316049785
0.004677441877947698
0.0036864963928479578
0.004777562294690901
0.004830236797047719
0.004302288160843812
0.0030869707530601894
0.0040657499478632545
0.0038712723246594116
0.003671230263838217
0.003160630257564094
0.0012669070116879343
0.0032912407003252517
0.003392794655869979
0.006081371798048526
0.005963536999357994
0.006142518535835564
0.004933936313248694
0.005327283227226824
0.00484806926083909
0.005031698147169931
0.004289220883528821
0.003829518643438788
0.004538850385132706
0.004436703307036707
0.0034080988423261993
0.002605897454749314
0.0031756990112653083
0.004120886299492722
0.0041235134373689255
0.00605212295070256
0.00586721469883118
0.005902053806067186
0.004937680966580248
0.004885751127975974
0.0050993305965427145
0.005022171869834122
0.004427248452639139
0.004012246063802066
0.003958479812394678
0.0053340724614210815
0.0036164222360639377
0.004253430768680182
0.00514894224879442
0.0061790459218728725
0.0049035336370386075
0.005947697239259998
0.005128187857838247
0.005127401742999975
0.004894731049832038
0.005017122069218044
0.005725204213883975
0.004548490813169723
0.004904843816501558
0.0052694766772146545
0.01382635704446841
0.011146950129631052
0.009918097383604808
0.008431066169554585
0.00648911835484798
0.004140828462269341
0.002544374981138814
0.0012368920684461538
-0.0005673234894039958
0.00016568705088279714
-0.000627682258400582
0.0020750203123373664
0.006004407419135412
0.010973632412936246
0.013487996948701883
0.014168663185403833
0.01101489491228232
0.009236084187416203
0.008343237551420173
0.006968035495025772
0.0063852454920653385
0.0033068194341495864
0.0034096897048211854
0.0022831492543090976
0.001528654965865127
0.0012611186479084644
0.0023424781139511353
0.0024269503110780593
0.006271700607334709
0.008016491273168327
0.010385772926709657
0.01057282824570502
0.008496974344529422
0.008499888282571135
0.007375207392906509
0.00663080696580319
0.0046010579317141585
0.0034821294617818775
0.002852497254450933
0.0019612039944118327
0.0019838342843619926
0.00246893957955126
0.0034942784758567966
0.0033443572485081048
0.005517157286582236
0.00689771633113009
0.007287356435081413
0.009225856495102058
0.008168444519657985
0.007683103659398402
0.008069825822499488
0.00643988917458182
0.0053210161058819695
0.004761845423792196
0.003378787217949401
0.0018090343714015481
0.0015818575263250587
0.0020780302790071857
0.002577746504929783
0.003308404052721433
0.004361683962646068
0.005565614105991203
0.006770266157475628
0.007417409270216121
0.008413679378856937
0.007563281237697067
0.006690461322018584
0.006046198377199856
0.00517195789094949
0.004385365233073955
0.0032626809618555054
0.0016218453141595148
0.0009049503510044688
0.001867442303845943
0.00147370332113241
0.0031194862901824365
0.00320505064034394
0.005700319452793585
0.005853674281760014
0.007566716450819112
0.0073639569968185405
0.007033353654860143
0.008134939437260779
0.006387782718835727
0.005215351828066319
0.0032144131029740223
0.0023062960149804247
0.0010855107451881178
0.00031782073038945743
-0.000552903107003204
-0.000660021913120358
0.0008385463758603901
0.0024035514880413325
0.004612055374567783
0.006284729527934853
0.007632846506449031
0.008433242550128742
0.00887465522996841
0.00852267466650374
0.006993175056115922
0.0047349377533020326
0.0030263631384475926
0.001095678146960686
0.0010888480946481514
-0.0012756879319457527
-0.0033178717357343485
-0.0034657679821058695
-0.0012197490054141082
0.0006485527580607044
0.004893883361390324
0.007646180374297715
0.008801135148745613
0.01166966844952546
0.010463253555128707
0.009196837284802877
0.0070275673608930465
0.004770324437071459
0.0025964908371629417
0.0007543058763031759
-0.0018378013642425949
-0.004117698847033306
-0.006853210480171856
-0.0068001996752432665
-0.008191867322390642
-0.00231294860507183
0.005175674401982963
0.011099976927676423
0.011565765870706079
0.015103925926301177
0.014173282537394685
0.010957404955486713
0.007681747353209892
0.005174796852592031
0.002893699144618988
-0.0003587081720620439
-0.0030599388632345545
-0.007461303624578591
-0.010450104077078508
-0.01656219782312382
-0.019186280794913097
-0.013796526611710387
0.009281173561139581
0.015525424483963959
0.01909872717955138
0.0243662393477516
0.016855085057103248
0.013052491748644642
0.008736335403809314
0.00539907174540625
0.002264356746526694
-0.0010226930731289405
-0.005142961649860165
-0.010069757050623646
-0.01950153564315012
-0.029821506278446187
-0.041744083100313856
-0.04178907638294505
0.00923632748586628
0.032458707132507335
0.029416286012913673
0.03259910487099494
0.023720003872228144
0.01526595034821095
0.010820661560448723
0.005978940855627456
0.0023186231081377645
-0.001765348963075222
-0.006579616812022267
-0.015356164722947258
-0.026587366884198407
-0.05073094730163003
-0.08186675836354852
-0.1876145176603652
0.031415140245042876
0.06403877655851486
0.05232449921272096
0.04382107543619531
0.02514455533031605
0.01758015766060171
0.01054124667108273
0.006737208101478923
0.002148229291780318
-0.0017219783378893288
-0.008442051514863193
-0.016447993362827405
-0.0349320901361283
-0.06446726440357399
-0.1860330234092394
-0.3677422951322079
-0.7855046718151625
0.160934457604217
0.0685182729109908
0.04014183358758347
0.02635887308573365
0.01637924009838651
0.010186030769590178
0.005738261633482833
0.002942213639423047
-0.0016371516895789082
-0.006609931883722391
-0.0143979345751447
-0.02611240795726919
-0.05513279812143512
-0.08991856799923036
-0.1572872992307071
0.3199664664036426
0.18246567247765652
0.06784444072820779
0.034269183062722156
0.021883752599638585
0.015909297832657068
0.0097568344982843
0.006401129851132422
0.003385709128514272
8.053383592836923e-5
-0.004528330380161945
-0.009495468237168379
-0.018447294431378113
-0.025573046598539182
-0.03709375903205346
-0.012562548673384846
0.08719492059956294
0.05780534293445775
0.045666086567977944
0.023644298801294813
0.018068705118311528
0.012867344302666882
0.009993549774864411
0.0057259233843858035
0.003591753250733517
0.0002612358622713085
-0.0019289514329419355
-0.005885149189418421
-0.008008832839615862
-0.012591595542084243
-0.00966516609591047
0.0007933603318129414
0.03192087158026935
0.03580710466674309
0.034914967633599144
0.018245014465951472
0.013791128005745145
0.011186262244936974
0.009261606270056217
0.00706805898631273
0.004086466280482792
0.0019955814551782846
-0.0006118565541689402
-0.00203957138814692
-0.0032393221220696957
-0.004302190053718344
-0.003358255536852328
0.006661563299074342
0.016105634178351685
0.02248635340348629
0.019920710042891084
0.017068206121117674
0.011390203456616295
0.011925186974791804
0.012189615330500034
0.010781337343816762
0.008472165530009484
0.012195001862994789
0.010297968968659227
0.010537776080749675
0.006130530558181449
0.017027918059870098
0.01759997491978984
0.008729691990375784
0.009577882490613808
0.015786284494328052
0.01642459211735908
0.009354147690537763
0.012346425516110891
0.007569970449062274
0.011273465930114386
0.008583762549999978
0.008136756174395758
0.011903556419172645
0.010995719230371069
0.01252248831018669
0.013982602236923972
0.016016108620603667
0.015952215743879904
0.014796052174437272
0.013213366839618863
0.010246452243077466
0.01006387927815272
0.012173971286013066
0.010510853016379459
0.006588512429138323
0.006780530741423633
0.007732592413670922
0.003838918779517628
0.006222596210278162
0.010262716888525618
0.003541252961375487
0.005613511047622922
0.009804970502930414
0.016398628946795835
0.019087474217183063
0.009196451968732512
0.007570788054088682
0.015680962715384213
0.00932016050975954
0.007833739392767283
0.007228486880343988
0.0006473675113540935
-0.00710334150949418
-0.002195185400108873
-0.0014373019761815173
0.003705039805583979
0.006591512546425033
0.01027199141625906
0.010153937029360214
0.016446816339267725
0.01494161382912469
0.014467560251513334
0.009319672828909881
0.016926556355350165
0.010227600084547076
0.001783786584614447
-0.010618006739749858
-0.008268763943210602
-0.008076506533553428
-0.01383433222544577
-0.01165054198315098
-0.007321631727056665
0.0030845740768784087
0.0024896998786798526
0.008421860199269611
0.014924495839773103
0.00743977304254312
0.011701102771763897
0.006255580065425245
0.014919130333702416
0.004062527636830366
-0.0020042885018856883
-0.021756543428385833
-0.020668325783839994
-0.03322691957770358
-0.029709707032771846
-0.028927887568255095
-0.015782932207794524
-0.005991194277778994
-0.0004751443366781071
0.0030373881313585
0.0050448853203002445
0.008411861736421413
0.006978010453259996
0.004570620623234779
0.00852957331070531
0.006064986069313789
-0.009649859076391614
-0.03252243556595939
-0.05217429569706311
-0.060906717466041566
-0.12309553369495892
-0.0677019194723302
-0.04042817920658964
-0.016357198030496043
-0.006486060760345965
-0.0008756049120713682
0.0013492015830261614
0.005083587555227441
0.005026684248604558
0.00785443226695118
0.004139222473777545
-0.005977874380601806
-0.020050326514653057
-0.0519736130916264
-0.044008073243339246
-0.2166837156238061
-0.24071830885956447
-0.15536426592459543
-0.06920353670026835
-0.034790694157223474
-0.013364061448513237
-0.005009418366551922
0.0033152217900741096
0.004541247319246363
0.0014468525991433133
0.004628009646188114
0.005833011845950515
-0.005413511051742279
-0.026455670584538103
-0.017958837591625136
-0.07627251531976431
-0.13699856271272914
-0.847383144717
-0.27699960175894645
-0.11014546828431189
-0.03730360885139999
-0.023406460533484934
-0.0038052642134032465
0.0009500663550772207
0.009194847744675362
0.00758080058971509
0.013722341368035658
0.004491386566181845
-0.00473368362105854
-0.008488944807803576
-0.06348679831974904
-0.3286854923102098
3.3052814355648796
-0.2985383594087859
-0.10820245238273092
-0.09685289220362575
-0.0417672788004076
-0.020343044078826658
-0.0013840206488519684
0.003777431395905631
0.0059519022840917556
0.009740738785801267
0.006985263704412174
0.011718118649000811
-0.0018910955533428127
-0.0278664930437178
-0.02773901771975323
-0.11270843286818362
-0.3351846840843988
-0.033744608748241894
-0.08253177416311833
-0.05039132734130389
-0.019568214645803786
-0.010494227756954888
-0.005250821447247316
0.004423145331338646
0.005663678278878198
0.012191836806518285
0.014653227797296725
0.014769865313874123
0.005086501398334939
-0.008208812024220668
-0.040980773733009325
-0.04183258868259773
-0.06979958311337454
-0.0170150683303707
-0.02625100910117373
-0.01679834677868805
-0.00991276910458279
-0.001597043768340747
0.00645019775432122
0.01335239660808104
0.010931705154906114
0.014001837180720626
0.015473538426133755
0.015183666093965325
0.009662945250738278
0.00041963968702109136
-0.0026354522153071535
0.004562150396790049
-0.016245635773942942
-0.009757039560349127
-0.002534185680154193
-0.012162049453897435
-0.005771606990572343
0.0034850117188366227
0.006393200787939799
0.009527269800927947
0.012072816882568952
0.016047904362823183
0.017343629492694686
0.013822216039759413
0.011485065630092368
0.011603737432415079
0.004389826275873809
0.000546988241120897
0.0007738333198640365
0.0060078658973089435
0.0042232646204500195
0.0026671184001863667
-0.0003548739138266291
0.00618167703274436
0.010971037798071372
0.012237168166144945
0.011528177643590647
0.017408599871404647
0.015508570770304035
0.016752364335394718
0.01479369707205911
0.01632731134982024
0.017641357282480098
0.01332561863964511
0.009186797965860803
0.005090118285990131
0.013437903167518842
0.004078903123117496
0.0058687960240214766
0.007027528950627866
0.01731379364246307
0.009586505596387945
0.01655680529948344
0.007491960690532364
0.013628388429012383
0.01470002279481049
0.009735953163801436
0.01504614727735151
0.013043771138406093
0.01452232318374943
0.01587200406957236
0.010716532291889748
0.004299412222392916
0.009431646316860364
0.009239997853052587
0.0069049103953032
0.012169082675334324
0.009951117302637166
0.010194882523449505
0.01042635897298038
0.015231232304478213
0.010889088161262318
-0.05048873328383423
1.0529006812288306
0.390341061570569
0.06719956939747057
-0.012803975213620802
-0.015527495033805391
-0.01556864393563532
-0.01431061163026904
-0.014768194242057204
-0.014288520625504394
-0.012675313727017044
-0.012622972369666835
-0.011704132802195292
-0.01140946087580402
-0.010039059083570036
-0.014092493970411216
0.15597157008250026
0.4682320543409769
0.9973581263642435
-0.08279393229589783
-0.026732637346154855
-0.02300229355757241
-0.016707022120414243
-0.01443927585587808
-0.013814060846892538
-0.013490245773017797
-0.011229797376691797
-0.01050030594178842
-0.011403485182703073
-0.007491064641796955
-0.0019615969147913684
0.01919039194229391
0.049983145032794565
0.13424557069531623
-0.03573655298628171
-0.036877811545155174
-0.029068077990353852
-0.019424583344528033
-0.016602730648469868
-0.015450191267957264
-0.013851035168426147
-0.012461977479137219
-0.012067342171911818
-0.011449896332344247
-0.009477631857768665
-0.005932916240476711
0.0031963101302667656
0.016479671200954043
0.01633291008100489
0.02033311372078142
-0.01879114201905632
-0.02086885506389727
-0.020442090058089526
-0.018516221458762104
-0.0158058467224239
-0.014390860434066488
-0.014410690383940418
-0.012624490227367367
-0.012718457375506372
-0.011456691279210889
-0.01034939869205471
-0.007159595025622988
-0.0027186109519698473
0.009054627927875215
0.002137692754559596
-0.0014836645568579647
-0.011829231487536902
-0.016185567283228737
-0.017659355710157875
-0.01741146940301598
-0.01506347216430144
-0.014484592231205799
-0.013398565447215278
-0.011840784266315341
-0.01281398421580413
-0.011671199595462823
-0.010230124087601999
-0.009128819511285594
-0.0060361734902453995
-0.0024100097416724833
-0.005923420369885884
-0.008605897240630479
-0.012400824772817358
-0.01391618460630054
-0.014212585512548823
-0.015387865034884209
-0.013389674385511944
-0.014022130612848686
-0.01306994833630613
-0.013459527111563611
-0.012663930672214965
-0.011560035574434697
-0.011652307104314056
-0.010797191696868672
-0.009814463676465717
-0.0068077571727372405
-0.009882160943978032
-0.011477238279997503
-0.01285552819517344
-0.014459316395202601
-0.013873745263315309
-0.013332151666371257
-0.013799029586062234
-0.01438042034045288
-0.013696459416332848
-0.013593187279004684
-0.011392169541224677
-0.012484272359831995
-0.012482759003169818
-0.010735486682854024
-0.011540239988805193
-0.01117437103630477
-0.010210799574253034
-0.013638791372546949
-0.013557467756531697
-0.01359971459581189
-0.01506286978447369
-0.013874386588059685
-0.012922870882822334
-0.012442690640933075
-0.012669794934774763
-0.01243499176627153
-0.01247920694756432
-0.012233107804913915
-0.012107388375340932
-0.010527636614140157
-0.010974891995846205
-0.01139262627631364
-0.013486586592872569
-0.014688490420403238
-0.013857853317562048
-0.013672372816858033
-0.014366406002157685
-0.01399094224519836
-0.013558332052023838
-0.013112262900736691
-0.013824197683751857
-0.01296509403192893
-0.013323573997261305
-0.012287061162133562
-0.012352421956721699
-0.012236333096881205
-0.012610338269320967
-0.013524086427405874
-0.014134067236414579
-0.01420128974199809
-0.014720554620053172
-0.014351829546459263
-0.013979977896964695
-0.014400940288322844
-0.01383299291325774
-0.013087521757401051
-0.014233796174939502
-0.013571502734130754
-0.013747259037593065
-0.01363580650571796
-0.012480649226634171
-0.01371312341335614
-0.013777730176372651
-0.01361693202187548
-0.014792999237016697
-0.014319971357611339
-0.015375313645789987
-0.013296766103003715
-0.014314303894924153
-0.013653248916846501
-0.012817400910882805
-0.01387803972923289
-0.01416188742639062
-0.012944090693550613
-0.012538802911394586
-0.013212675708755962
-0.013534106856757305
-0.014157812320106492
-0.014688626852117751
-0.014335162663974582
-0.015407390182261754
-0.01645556818937319
-0.016276388715970324
-0.014414326808086329
-0.013881936170788098
-0.013181236892150573
-0.012437803915084792
-0.013029785267669547
-0.01305499402212131
-0.012618252253468052
-0.013142027099087999
-0.013075932521041654
-0.013800901665621547
-0.016102545417325236
-0.014614002295489429
-0.014896418083169178
-0.017746052948696446
-0.017607407619332827
-0.016912583543129054
-0.0147605305525634
-0.014701062513127087
-0.013371939418578943
-0.013349555280635856
-0.013708023229575959
-0.013649326817013533
-0.013419672132710055
-0.01425493338493108
-0.013646389647289325
-0.015376663035113312
-0.015861740139985304
-0.016041695824691737
-0.015361541581922308
-0.019746002632852783
-0.023844191448569182
-0.017214058706177555
-0.014899067162880473
-0.013973993398721043
-0.012942870198062175
-0.012244307264469009
-0.013658843673933002
-0.0132152775192329
-0.013134362935987147
-0.012779339662328333
-0.014022102967981273
-0.014895597600867486
-0.01531625127062026
-0.01635975451874736
-0.01842657783803929
-0.027808423280042988
-0.03165005565185692
-0.012335073062677298
-0.007104701271327457
-0.013509710746376883
-0.013281857927143967
-0.013923985624035446
-0.014266735674774399
-0.013798840817051563
-0.013935979817941988
-0.014111887068448873
-0.014474552119853297
-0.01413171449585813
-0.015244314202556066
-0.017361613696573942
-0.018378673147858963
-0.030783604822963176
-0.08312567729092707
0.04621909355189133
-0.003972829861213666
-0.007303394067930668
-0.014733319798670489
-0.014009903258280065
-0.01476321730019707
-0.014431454626887427
-0.014007079876310693
-0.01236696109955756
-0.013491387781626871
-0.013903614283300407
-0.014441907929336577
-0.015426084367999728
-0.01956472370811799
