0.0003244054932331504
-0.00024158066862635302
-0.004280568555810856
-0.0003984681267223049
0.007664456182764858
0.007162846981861508
0.005681603823020239
0.004525556096780246
0.0021314962749516067
0.002816537693603599
0.004240835529407122
0.002485145569846132
0.0023094306940067387
0.0032551718026935183
0.002941818783018423
0.005797383412283776
0.008942660274193043
0.017206002365296503
0.015651163037672305
0.01602968040915933
0.012169487572793848
0.011340943413416503
0.0064206308954352104
0.0049132530063439464
0.005057160943179836
0.004216911219106321
0.003689541045839279
0.002464138505556581
0.0026164212645988128
0.003199499659626568
0.004018420210804393
0.0034025171992454572
0.0035111039473926537
0.004820471554212016
0.008775079071552852
0.010902005387257876
0.013544922832989059
0.010970186637888435
0.010237135298236392
0.008216214839344883
0.005513160776397445
0.006441694454384129
0.004552770270893191
0.004499939358899509
0.0047443477327562475
0.0040939291848971614
0.0031459846364667254
0.003623694838504864
0.004824073114409654
0.0035174815888163904
0.0033191997700013002
0.004833525758450393
0.006395928671803137
0.008875143296240033
0.006965259381653473
0.00729511520361257
0.0063155480910663895
0.006968839807117754
0.00602680901924676
0.005139569991748124
0.004332621253502595
0.002768581922136028
0.0031579233476592434
0.0034302313162717832
0.0039424235084886995
0.0038230441533589517
0.003883707541502068
0.002339803022900011
0.003614418815693311
0.004328545099320935
0.0042170292295479785
0.0044642034503853375
0.007148378440810644
0.005331705710011788
0.0062303762058484565
0.005823799089506676
0.004715369385498669
0.005238653090644284
0.0038948642464869164
0.0021975532844281504
0.0016776341898261959
0.0028695762358917428
0.004228078977123912
0.0039861953864073485
0.0023800146508067325
0.0017119405738597875
0.0020164202584442214
0.0024362590380006257
0.003626680793652042
0.004655039663822225
0.00552169093892943
0.003879735711342716
0.0040219933654742045
0.004146111754041229
0.0036161788504871567
0.004218945232375067
0.002391550408109833
0.0030950527123011174
0.0038224776722423975
0.0028374435261296063
0.0024103625790909684
0.0021745653093954626
0.0018295327290705995
0.0024575016829989256
0.001176124391427503
0.001749202709050007
0.003393474561995913
0.003584581794186817
0.0046857888853341755
0.004628141049389891
0.004373877875161632
0.0035100218248996424
0.0029382699016486853
0.004861493982032119
0.0032791183548865404
0.001819428800965684
0.002769842791198452
0.0028699582972189644
0.0026394734104403256
0.00185234076792539
0.0026109594381878176
0.0033994820067408046
0.000543842917092628
-0.0011112699268775535
0.0011890384999370745
0.001956861138629823
0.002419637736095437
0.003974004621195505
0.003515947690710384
0.004449849677687904
0.0030749580331299814
0.0021613775784169007
0.0025109578331580207
0.002625952028815611
0.0033242473888437617
0.0033533863405116313
0.001794479847971075
0.0021483436865071944
0.0022144556212575035
-0.0003107179692521966
-0.00022125341808019723
-0.001378415601677353
0.00010121780638284216
-0.0012085774447960743
0.0001797915463949911
0.0017497122338191561
0.003078887900597282
0.004004999978521939
0.0018948006465715054
0.003747126984701482
0.003857103336403442
0.003008097621316991
0.0021722535745476433
0.003397640932834383
0.0014264831308487826
0.0010203688310038135
0.0011729952511176996
-0.0008989087632195953
-0.0021117235311160962
-0.0034744713726414076
-0.003819204055112807
-0.0036823614193813616
-0.0019909860453764935
8.02594115687898e-5
-0.00020759725596711568
0.0025928327365360234
0.003115143314043397
0.0028757746289063855
0.0033653689790703214
0.0029068156785410876
0.0021388918933940254
0.002511109143838264
0.00024763436955892735
-0.0018219244987470987
-0.00017760471379659165
-0.003046283092993577
-0.005391186872736057
-0.00982656434298601
-0.007661004975271407
-0.009713145348812768
-0.004588612936940414
-0.0026745736416706363
0.0018089866602954815
0.0015152931496540878
0.0034264417355755463
0.0029049395992091004
0.002658621711202111
0.0043818516801271586
0.0036947149089615727
0.0024402105110966407
0.0011677206662717337
-0.001312038713836734
-0.004989694816206223
-0.007780779691520457
-0.01568738670731333
-0.01668755948556868
-0.024985339898817176
-0.016356484588009396
-0.011762998592591186
-0.002861155821549248
-0.0004884845672627713
0.00226205060419551
0.005665618027216799
0.004743950727252584
0.0028907640339772213
0.003339834440443644
0.0026652103331907826
0.0009801918437607033
0.00048541019015759906
-0.0023073087086150756
-0.005642445953485306
-0.014610277396955905
-0.01870933730574657
-0.042524917751059474
-0.045509215587458816
-0.05318963967885251
-0.014351690501619026
-0.007875493478698651
0.0008585616277873135
0.0032873061861665217
0.005988075877223584
0.004420288571247806
0.004755282881668228
0.004498332128102066
0.004463744850909798
0.0021871965760838848
-0.0007320628408828756
-0.002059227749373581
-0.00966075333505462
-0.01663733596652087
-0.04430129818802644
-0.06638111155616792
-0.12760355824439246
-0.08775850633849372
-0.025119104109229958
0.002983052918209814
0.0019172679676788312
0.00821837241557287
0.009399097341873438
0.005755029225497974
0.004736386152208925
0.003142391458757102
0.0032025564368641964
0.0026769423515521458
1.625026579973372e-5
-0.0035333281694198927
-0.009495521409777889
-0.02639506055857968
-0.0476551458505806
-0.13913220952076988
-0.26469474563106593
-0.260087354190652
0.021979577326727857
0.02298528714844889
0.01867178511867538
0.010150496610512531
0.01073318930014092
0.007269447698619225
0.004101207513099331
0.004097104644452435
0.0027459718540166025
0.002705053087166145
0.0006432578507659544
-0.000891915057047755
-0.010085530747484164
-0.0198924996636162
-0.0667149967221887
-0.11881222723998441
-0.2816687339421285
0.2605064906438658
0.12956105719318353
0.06566390559412227
0.023684397429903654
0.015715778177434112
0.013848964735535537
0.00829377158094174
0.005985702411265394
0.004994151822568367
0.00541147703462869
0.004697523787539352
0.0018130239650092023
-0.0023756166467634857
-0.005165696999147246
-0.014108605532403192
-0.018911824156639317
-0.03444494679423323
0.04029264701005342
0.12446618256693397
0.08206350209596903
0.04578818838656866
0.027283550778536156
0.013840677156290922
0.009383272607784201
0.007701239502234264
0.006270689153313853
0.005601320687059028
0.005389528641552742
0.004742840546023326
0.00241078731306305
0.0004299197786352357
-0.0030174028325418135
-0.0030766362441148514
-0.009613811438041209
-0.000357162598251779
0.02521576758813022
0.06296065555171505
0.04266309446582448
0.03186053895121625
0.01877929975956556
0.014261073740581729
0.00919714074287482
0.006905209477441485
0.005477160241648336
0.005158865019737836
0.0035355575080256462
0.004449780860539641
0.0037798126762449754
0.0014864969015738385
0.0019763672971613395
-0.0012444918635360115
0.0017168368531699657
0.002073430566473871
0.02013594241718045
0.023761735202518945
0.027222294931708753
0.019418907558809317
0.017131269581764672
0.011390608875715254
-0.011101654361170768
-0.009897534227528494
-0.008728064758754329
-0.00843417182042976
-0.00651639430741317
-0.005662595223851749
-0.00459274098496642
-0.0032120055614816966
-0.002513864510564236
-0.001301375677898766
-0.002468568484998677
-0.003917433497302954
-0.0059122224869034646
-0.0071054457947791055
-0.00944822949390905
-0.010968399172201325
-0.01176151421572093
-0.01118807465892795
-0.009877167523810288
-0.00847007720000721
-0.0076097242172703874
-0.00786343139282539
-0.006364402627609788
-0.0062631267815034695
-0.00474588405578224
-0.0037700285006311745
-0.0029591699967876466
-0.0031601182630533954
-0.0035965043819703975
-0.005556544456952692
-0.004790395007243513
-0.007737628569367499
-0.009240985361267717
-0.00993774296662023
-0.010364268084028952
-0.010874455092687179
-0.009957895051893683
-0.00898506599262136
-0.008549028949933406
-0.008438235534272575
-0.007463790478670613
-0.006430697822731694
-0.004953302914812954
-0.003682226177301607
-0.003735572380492541
-0.004890137076864303
-0.005153102693520492
-0.005214242114474195
-0.006769493839328882
-0.007409157631050528
-0.00852065846077654
-0.009218445290637776
-0.009828149532995973
-0.010046508789401356
-0.008775379575206048
-0.00896127974013513
-0.007977419525211962
-0.00789243241609654
-0.007070458966290175
-0.006419330145949645
-0.004533489816381623
-0.004688924701419151
-0.004536759546319037
-0.0051378051652278935
-0.005595650372787513
-0.005508477133017421
-0.006423222075756316
-0.007546372718459895
-0.008903735035054212
-0.00972983355020434
-0.009161986995021956
-0.010162569935003482
-0.009153035544046732
-0.009595225632256742
-0.00905290419143948
-0.00760671565674563
-0.007703858831707147
-0.006481899615226313
-0.006090402192403332
-0.0052859147055324286
-0.004601973890649291
-0.0038695371087381952
-0.005302039295093229
-0.0052641199247043385
-0.0063533111461690755
-0.007767519807025821
-0.010028170717660743
-0.009422897261341535
-0.010343081045838122
-0.009819594838701469
-0.01096824518508153
-0.010107118957932096
-0.009529729084384814
-0.008597860285796568
-0.007279125022700704
-0.006494889595997399
-0.005609422001497554
-0.00520363037502001
-0.0042566515779314095
-0.00372972178945217
-0.004020268667968086
-0.005716877537755144
-0.006475187395416478
-0.008740332355873643
-0.009804674154304081
-0.010104817568062918
-0.011333694446626635
-0.01122875887555756
-0.011413493932726166
-0.010094572451011901
-0.009524651446950064
-0.008140273626487384
-0.007383900042684012
-0.004891136053235567
-0.004837941362170836
-0.003852878707846639
-0.003693334386063035
-0.002716084949565429
-0.003526898385196849
-0.004367241883650344
-0.007017659092835681
-0.0075206448904339696
-0.011203088076053807
-0.011683332000295235
-0.012677642255395532
-0.011999342803075226
-0.01276629100959115
-0.011274395340871326
-0.010426790286954138
-0.00908913476244927
-0.00671988399761461
-0.005255215496554668
-0.004584823649756183
-0.002783855017185617
-0.0010572801094802802
-0.0009990814810842737
-0.0011040305459978639
-0.003159290726649716
-0.0050606422826196115
-0.012490774721883738
-0.014174762589541179
-0.01569449517713985
-0.014577992613899035
-0.013693578538996882
-0.015276052807922618
-0.012195285116754141
-0.01022040852082945
-0.008503382410678632
-0.007108309546937325
-0.004738032579282064
-0.004712274745182553
-0.0015172779046799527
0.000492390344788295
0.0032051744319031997
0.002830830673702997
0.00229179912002509
-0.006312648868745328
-0.01283090413145996
-0.02108956655533395
-0.019226162819885314
-0.020573966708672408
-0.016204509490065154
-0.01747002059792611
-0.01443579790751544
-0.011206423111126877
-0.009032974586739425
-0.0060791411721751575
-0.0037928811520037994
-0.0018811416787544938
0.0004959742229182615
0.004301413750746955
0.006900056414587696
0.011397594283892538
0.00805558591335489
0.001249705428284342
-0.02563094210860666
-0.030119374067617406
-0.03135305224202342
-0.024719756671052306
-0.021558044274876634
-0.020811671315932076
-0.01548400777598828
-0.012714807561027094
-0.008292379785274086
-0.006582298118206263
-0.0037117073699463837
-0.0016756585971806999
0.0037139945630077676
0.008971160853402079
0.016167451984348862
0.022725134806926978
0.03701796786304237
0.005802731358468951
-0.03572067502261727
-0.06817109318109628
-0.04501408392224722
-0.03652854410508247
-0.02536082879412511
-0.02144625307114324
-0.01696569091949277
-0.011323012459343498
-0.008597898636457747
-0.005863949754895279
-0.003462174754193399
0.0003958827281249189
0.004459389073367162
0.013343379990668564
0.023523298367076267
0.049509184755727596
0.05734552815411372
0.16186756717540732
-0.17137853082742552
-0.1034661010773174
-0.08109709448062939
-0.0436169147311134
-0.03159796999182878
-0.023832992206871927
-0.01612348577732839
-0.012047971033288574
-0.009320766513033407
-0.006118459588136812
-0.0013126775427971182
0.0009228271629731705
0.007579354222224032
0.014148184958661625
0.03249111958770064
0.05432383919071765
0.19697465123214924
0.7068952804179243
1.8635306643061746
-0.25800523247634244
-0.08150549003919123
-0.0539473983093292
-0.029803252117433798
-0.022139943529210546
-0.016411323120406166
-0.012405415465656308
-0.009627936566314315
-0.005560311768657252
-0.0027419916434981307
0.0009554862722223802
0.006376835840464563
0.014800289731338899
0.022182912896563104
0.04885995753502335
0.06775292299832232
0.15391770529665724
-0.1534798755883578
-0.0685317152916992
-0.07242648101089855
-0.04140023156866707
-0.03065538859856842
-0.019262633112329116
-0.01451512617686886
-0.011113868424959813
-0.00822715942009421
-0.006544246231393876
-0.002234011283155893
0.0002049655391072969
0.004228076422674987
0.008856222945914366
0.017934729401261913
0.022105988104331998
0.04382039816330184
0.024090624918141144
-0.008047483839210941
-0.05277562691755877
-0.03670121835603447
-0.033706247157318736
-0.02411321682377926
-0.016687239532357158
-0.013597491711118665
-0.00955452975733185
-0.008049130643216183
-0.00571974815682082
-0.004111636971988194
-0.000668599454357817
0.0021392938311864365
0.00574518168154025
0.008470511734272499
0.013040436329571326
0.01018833027901347
0.011225749210975616
-0.015831290229228266
-0.020709917766993543
-0.026435333442389502
-0.022238923881419435
-0.020561960024571023
-0.014668799947549513
-0.011819317940981958
-0.010257400879745237
-0.00794509310929438
-0.0064114273294034645
-0.003628366380369648
-0.002821438435790446
-0.00044676022008384984
0.0010796058735288794
0.003707244799907433
0.003491050620275516
0.004642415525287569
-0.0018609606107367767
-0.007180646238843623
-0.016537678495941274
-0.015691985401229618
-0.0167377035936564
-0.015559332087737946
-0.011917184504800948
-0.010192921409555657
-0.009442692883325369
-0.008704326698572108
-0.007698472923592492
-0.005402589511231779
-0.003950640836690703
-0.0031469493362301796
-0.0004173020730882445
-0.0006983018206962997
0.0007249860293050082
-0.002225091445529282
-0.004133853324427122
-0.00851881036113301
-0.010037708693642563
-0.014233183283063926
-0.01325257066430351
-0.013372462285494935
-0.016916624770088096
-0.01029532936809219
-0.008204421227008298
-0.010186251177504234
-0.009521894417092504
-0.009725805081160598
-0.005577087536235641
-0.00035744189156682407
-0.0016942099058723063
0.0018809158325870357
0.004944003165584366
0.005517546311345649
0.0013428865804764392
-0.004543267006328286
-0.01452998001780126
-0.015849499613459956
-0.013687693271393814
-0.01300493382196245
-0.011200198563890781
-0.014276670765668424
-0.0061107905923345135
-0.009915939854078721
-0.003171035449187805
-0.008391703186584146
-0.007796261564426834
-0.006085009467138637
-0.002833481315137794
-0.001969757641789397
-5.778999722425754e-5
-0.0035386859876171744
-0.0022914627288175616
-0.00614336487930051
-0.010169646634483168
-0.014697369754538968
-0.010447474806316222
-0.009121751452890858
-0.012942828744786129
-0.016973915297448728
-0.014938282678650158
-0.004727530652771392
-0.006870210191202109
-0.006073697874645665
-0.0044524113238722796
-0.004271758766437288
-0.0010167924989576585
-0.003055390891357858
-0.0006933707640146003
-0.0027608423139148463
-0.0002294411462614044
-0.003082310062824588
-0.01279035228156343
-0.015743024054925874
-0.007626009965588859
-0.007134354547909297
-0.006514238124189773
-0.008762178272344073
-0.006781745629247969
-0.001313101700599348
-0.005283338611081798
-0.010511740277455817
-0.0050993000784032875
-0.0039825018603283375
-0.002094654481946472
-0.0010459538873530932
-0.0012491008123876454
0.0027092221538103736
0.005161200178823255
-0.0008264046247910171
-0.005398012580689564
-0.00733928204397828
-0.003772300698519136
-0.0075023045150818465
-0.006990842623421821
-0.005674068705542639
-0.006835860954697459
-0.004393098012457211
-0.005946293853601851
-0.008412614273981921
-0.0002725594756259309
0.004940150968307019
0.0032795892812174407
-0.0012235825396687907
-0.0011298739084721924
0.010559496104263419
0.011434480617485376
0.0037387620238384157
-0.0015498714831145763
0.0022051548351955472
-0.0034124103857013314
-0.002570346354298564
-0.0022236743157189333
-0.0014786422510400248
-0.0017450193523806884
-0.002377742814083569
-0.007184870311974076
-0.0037735023924808367
-0.005988205741718488
0.0014954948681802055
0.0006804175953728785
-0.0019294809718073337
0.0030561103676690522
0.008682358383995326
0.010555413902013025
0.006800998401636088
0.007840092873009597
0.006884662256109056
0.002450426274735017
-0.000753481248793925
0.000711942210892894
-0.00114524484210877
-0.0006034938060604457
0.0014638467561816741
-0.0015167064904237405
-0.0006981820697573849
-0.003990483546041696
-0.0014869999173053564
0.005080968809354869
0.004424753588379144
0.004149926558371083
0.013486388263475582
0.015435667632592171
0.016127971947154103
0.010004316862316077
0.009263267145900856
0.003608820881104714
0.004326574633841528
0.00666352840245447
-0.0004968223269129944
0.00017697381172320273
-0.0017707256704963096
-0.002508789850812744
-0.004987878953448898
-0.005225679152640809
-0.0003944809689551444
0.0060530799819718
0.004173796217621804
0.009790643734690182
0.018497682669483612
0.023326334840423804
0.030616082910747557
0.03155405572403159
0.01948746837743311
0.018617948159007778
0.010024989762053925
0.006641334327383376
0.005851399006642417
0.0006967229774200558
0.0012548145414203763
-0.008890861008261072
-0.0015305330618103532
-0.00480801477350813
-0.0012380028873971946
0.003603241043039297
0.012300900204507933
0.023495103667925493
0.033722400665237226
0.0405798496118841
0.06244083210324621
0.046971733369169474
0.03691309799301041
0.019102435954446835
0.012359280145317274
0.010462574056698655
0.004130643940575128
0.003341544498172123
0.0012127617769375663
-0.0020857429705387755
0.000801127898492677
0.0029493223936508596
-4.0678836500373464e-5
0.006490050459356145
0.01593400117959897
0.0347175291026305
0.04798392852660395
0.09921511254184212
0.11598806006401678
0.11683451888824328
0.05114650688233199
0.037603776847494635
0.012141775567007837
-0.0025112448303417118
-0.001332859225189269
-0.0016058006639511142
0.0020810605753031337
0.001087604851296974
0.0033832628767572776
0.006461657604386087
0.008386063662681664
0.012524475035719478
0.02896631777681953
0.041928491587007614
0.11423864512816824
0.17737021291910868
0.36890349131178507
0.1559906968503279
0.09409704689750657
0.03185834991307199
0.017488321528048276
-0.005800158167905431
-0.005191079485717201
-0.0006708844575631639
-0.001118201337136683
-0.0006580704271982184
-0.0033318061870312703
0.0030234414664752816
0.011472190094164766
0.0164849231091053
0.03641357992561438
0.08293621354338059
0.16828058932000894
0.6146397420821028
0.9222112873163282
0.3432667007751344
0.024559033631812853
0.00988347060975043
-0.0027328092109510753
-0.008016378413861588
-0.004261166091266735
-0.004477747891487282
-0.0037560445590266414
-0.002136428180645362
0.001918581626864729
0.002611956633202364
0.009700862462756516
0.01610328522408352
0.05127368545968518
0.1142996600300467
0.3370640378399969
0.9977953284702787
-4.6083184655449925
-0.3172961321835568
-0.07074570757163574
-0.06476543414250271
-0.011356546695150616
-0.010543329112922193
-0.016849425232299344
-0.006567280371413013
-0.003294776569656475
-0.003309985654292173
-0.001786666905525076
0.0025553476517143937
0.010968301703491603
0.030994909675570725
0.044797033115257866
0.10828030898394018
0.16038168294423874
0.22121334947330423
-0.16462586837089085
-0.20380685274635033
-0.12882470352101957
-0.03660986500645278
-0.02912303877957207
-0.017398982178841435
-0.013792540522479777
-0.013665388111889326
-0.00943174802398539
-0.008507222167918374
-0.003492498915784823
0.0007370607240828671
0.011485946005754364
0.023811830606025708
0.03864609707907938
0.0513060671464861
0.09177388893011339
0.05599225470149385
-0.03714115470847019
-0.10892737707966449
-0.04674681799067111
-0.03830150523636044
-0.022254182904445037
-0.013294912778522579
-0.010448930625769244
-0.009083993825448354
-0.009289808753003873
-0.004814102528439246
-0.0060414304582543455
-0.0026065732064756344
0.00242210894747713
0.01240591225745085
0.023855628066582805
0.034318570655409074
0.03680938487243053
0.02162173375164923
-0.03834276879581998
-0.031883122447401324
-0.03753776905503806
-0.023997528427206125
-0.023310931254692736
-0.014838365080508412
-0.010012594939156063
-0.009301002430846198
-0.008500158716178473
-0.0007688785398962587
-0.00471526511121257
-0.002881030176128401
0.00011434381660458185
0.005924522217442824
0.014975325133865807
0.016328082605477037
0.023958844959881508
0.005603671366752546
-0.006138719879492433
-0.023435788413891323
-0.01960858492110891
-0.027540261034173005
-0.018262535512158812
-0.015695047471116774
-0.010759777692040354
-0.00687291438056919
-0.007393225134310398
-0.007465699519210908
-0.006256095050474087
-0.0042624527667742655
0.00025797970919932934
0.0013760718757424941
0.002183029369309542
0.006222441861480986
0.0063044372136690325
0.0003884037100774526
-0.015024083422427554
-0.008488508957705632
-0.022849894278237047
-0.01490445960091626
-0.01526339027381148
-0.011257853574645371
-0.011084102355150675
-0.01268937966842063
-0.015095991708009017
-0.017149672591104215
-0.020539248866330004
-0.021652217716900988
-0.024943902912226326
-0.02091479626402733
-0.020316755198527922
-0.017322764160258092
-0.015341746241501256
-0.013070715051388408
-0.01215687705903106
-0.011436093135991119
-0.010862959110914429
-0.010430737552784335
-0.010557500778078483
-0.013036366513257801
-0.012417630916632016
-0.013024381501556409
-0.016644983867911738
-0.021210622387072678
-0.023911627181043178
-0.030901947879200156
-0.03021683758256055
-0.030379555239994162
-0.02416154552735133
-0.023009418941930152
-0.01812820968755697
-0.01469358857378788
-0.01276423055966468
-0.01199331477921005
-0.011462193753819362
-0.011365913850866152
-0.010723310180489224
-0.010664640773209763
-0.013254743132504118
-0.01438904845910057
-0.018279840476048276
-0.022289719389789325
-0.03227724044931108
-0.0408162310921377
-0.0514067350189463
-0.040913492534727335
-0.03432190136286531
-0.024681239497581744
-0.021464901646740184
-0.015803669859711694
-0.01412973618113665
-0.011676962160741374
-0.010921007291355
-0.011062368411194673
-0.011286436229301663
-0.01040029065542354
-0.01266699951184683
-0.015181179201095414
-0.017272700885996667
-0.026691795519316764
-0.03833206056397347
-0.06724638505494931
-0.07416912932326675
-0.07092883534767977
-0.04200221815360402
-0.030236126047404673
-0.019544785559216567
-0.016746405827506135
-0.012923241019840773
-0.01198352661615396
-0.010356422714118383
-0.011120844941167406
-0.010507932956912837
-0.010036497819656116
-0.012442986831391676
-0.013216371772650648
-0.018224943568688257
-0.024700534978335763
-0.053394713066749255
-0.06875571870280282
-0.22112367155588863
-0.0858959359402157
-0.06431950716842562
-0.02928230922892397
-0.020324641531316766
-0.014841510855182096
-0.013030478772280614
-0.010405567301361517
-0.010027111277970402
-0.009857258400175956
-0.010637028205752406
-0.009772576688264539
-0.009452217075303611
-0.011027216225648506
-0.01028892880745712
-0.01916364077059448
-0.021638015076498405
-0.17586395278999278
1.8985624478494179
-0.17575928892684475
-0.04055371089956853
-0.03013173964300127
-0.014501059262914128
-0.013768553968307914
-0.010254715691114644
-0.00943398659623074
-0.009400376135352145
-0.00903034397632401
-0.009000314257980334
-0.007254373284132425
-0.006799201556059857
-0.005161558568226968
-0.004774768497356132
0.007153958526491346
0.01745678887371779
0.15698755964491723
0.7246123344672115
0.14341665291753447
-0.00913854725524334
-0.002452491838693663
-0.00873715995278638
-0.006578251918750288
-0.008558541230949696
-0.00756573549826357
-0.008580924623086895
-0.00890676926523544
-0.008309536607017403
-0.006859404172241402
-0.00416654068181822
-0.0031123821491494926
0.002784853902229435
0.010626357323353071
0.04783041029035416
0.08765164704729707
0.23169526856344966
0.05981003482776255
0.038308956466703806
0.0036307825722155895
4.1304218200224785e-5
-0.0044541007077721784
-0.005844513035669687
-0.006911623452209978
-0.007265874694352296
-0.007830501011232555
-0.006794089546860937
-0.005513137427294391
-0.004222758022739023
-0.00065616842803142
0.0028758123467984113
0.014568913048013414
0.025701687677196373
0.06225649387005221
0.06320691801823675
0.055024876789809336
0.019906699135243133
0.011249775059431488
7.281975139350336e-5
-0.00268986555198711
-0.004700707131952321
-0.00484207383048093
-0.006385475614371534
-0.0063058589155487
-0.006263432950960936
-0.0056948682821747155
-0.0027525785157658028
-0.0018041590718653163
0.002778056166301277
0.008199495311149224
0.019358792066619678
0.026178432854432408
0.037412632995286035
0.023794209668739803
0.016219087385154513
0.006607371688274543
0.0011618062662970658
-0.003114885982887382
-0.005038318468562984
-0.005756655571908153
-0.006405630853632635
-0.006330306690772247
-0.004932662185992065
-0.004739522096196946
-0.0045691669687868836
-0.0030101324118256443
-0.0006763132077718302
0.0052786660306286745
0.008539146335693984
0.014575126247552793
0.014131129151344984
0.013324518305422431
0.0059046599038663815
0.003907111485099354
-0.0006644981063302531
-0.0029019291332883944
-0.0048008950444253405
-0.005216376015986345
-0.007213070513868568
-0.00654337692358452
-0.005946177520379252
-0.006133394202066394
-0.004821501559062496
-0.004872338485132834
-0.0016692995028601341
-0.00034078871415088526
0.003881416476786984
0.004639770979736864
0.007072119818527028
0.004306874769702513
0.0029169677322786773
-0.000664232003605538
-0.001837968651348385
-0.003695577357189579
-0.005712188108613271
-0.005473891869553164
-0.006790061927981014
-0.0071294433698384846
-0.006232110126305748
-0.006371810570266704
-0.005778995495093742
-0.004852391861615493
-0.003929363546409766
-0.0017516067227062405
-0.0010186493047874435
0.0007202740187349224
0.000869328007498869
-0.0003749993290713922
-0.001577230389490876
-0.0031796927442060696
-0.005182581335289914
-0.00560102378300338
-0.0063712039563938025
-0.00660425434013422
-0.007258022172966718
-0.00703149983875995
-0.00700331575515538
-0.0064383235857113945
-0.007274749614044589
-0.0072913118510790475
-0.006244414349003438
-0.004345070923977171
-0.0038782775172288863
-0.0034086200871230265
-0.002891131441058616
-0.0038813498774361156
-0.004893064107630051
-0.0058311612090524104
-0.006111452814174476
-0.0063267618066084885
-0.006593028838802734
-0.008674078189432385
-0.007446630279959895
-0.007102549809256281
-0.007236039832732648
-0.008147563960750183
-0.009022723003891807
-0.008267216575733583
-0.0077607617601019195
-0.007239854328345299
-0.007613694135570632
-0.006054886077760142
-0.006962896603276026
-0.0061088684885045805
-0.007236079870018109
-0.007042381808983551
-0.008410734214426781
-0.007572885456017425
-0.008596950946619343
-0.008674610413995941
-0.008140545915255953
-0.00816730703109089
-0.008141540638840395
-0.0092291861020541
-0.009489051316296267
-0.00876990165788709
-0.009810736698549687
-0.0099122878733989
-0.009869621842693322
-0.00971088553798669
-0.009912444563629845
-0.010032904365962728
-0.009623473334702114
-0.010434877949835124
-0.00931165516549477
-0.009339282926870363
-0.010187396903314615
-0.010410142127747603
-0.00863390541150712
-0.009591971283733465
-0.008725135624525246
-0.009537250506213379
-0.01084919392995912
-0.010067450618453221
-0.01049505051816438
-0.012025232117145396
-0.01333966748350317
-0.012557872481508922
-0.013777699615892536
-0.012999350869956116
-0.012676693859554297
-0.012438950985224673
-0.011927694163587675
-0.01118168268505635
-0.010901740262187938
-0.011127985538728418
-0.009755229510510026
-0.009279154771090665
-0.010198683341588844
-0.010804269614434507
-0.011060388003035378
-0.011797262947887327
-0.012167654472305537
-0.014770242092704701
-0.015405504511804117
-0.016634866544968874
-0.017539663433868966
-0.01740851629484974
-0.015591478025857497
-0.014005421813024941
-0.012864453108110487
-0.012613518971751052
-0.011297590775459665
-0.010649377566606322
-0.010441280637745687
-0.010180407377324846
-0.009832960576698378
