0.000745469964921445
-0.007902354559150896
-0.00034977884272614074
-0.0007205970804703555
9.128049337893994e-5
0.00030730380770145133
0.0006381654080512081
-0.0018386556371104285
-0.0035008311728053254
0.01181238450594709
0.10735934610030555
0.5968833042748914
-0.5672970433461544
-0.09588380525368845
-0.025095791745133652
0.03687214823385179
0.05216672972098581
0.1409811666373259
-0.11084495448712103
-0.03633501573598268
0.001928056975710819
0.0049933632081626865
0.041954551675442875
0.007468378452481646
-0.015597754026098858
-0.03718044782961148
-0.016406731612760444
0.010771867920980411
-0.006764146852844225
0.014217307473605417
-0.03118936216093238
-0.0022750208823094416
0.005368885227709025
-0.016210943533011012
0.0016676276760365053
-0.061621962909136685
0.0405752281717428
-0.021944933516343555
-0.02321588963163195
0.016701978531425986
-0.0650253714482118
-0.17267247716585069
0.21203607034938576
0.036304088180532865
-0.07953390583336083
0.03645595779936127
0.037145202594848895
-0.05172693091288883
-0.05375388013009307
-0.0740825792934957
-0.06369372734253848
-0.01398196918091045
-0.023140256899320494
-0.023537995158176755
-0.06729230655789799
-0.06162223118385613
-0.0003945956684425902
0.10465374677114432
0.06136687464769861
0.07072696414871563
0.030836143113875718
-0.04086550873317254
0.10291112260798702
0.3666305864964716
0.33154322713964696
0.30747977797933684
0.05549348110513639
0.032258070306724985
0.1915809272967381
0.6208758227137268
-3.1346750264747723
0.29166288123906053
0.11596473964569719
0.016837211394173244
0.025311632468892283
0.23222938222793355
0.6743077711978497
0.05698318052023309
-0.017958548512829815
-0.04899524156162669
0.07462624362480112
0.045746226929525395
0.005353191839387035
0.05429268827596862
0.09945726924668917
0.21573338071437828
0.19754128298802157
-0.007835784767436316
0.019374195555662818
0.005458513908176255
0.2517732181330229
0.6987783713337198
-0.0630906331207556
-0.01603809077195115
-0.05184503663041737
-0.0312882228499824
-0.10347469872168577
-1.0016275628825082
-0.022557025779050374
-0.049034952849943886
-0.010230866496212685
-0.06605100599668517
-0.03383481148490665
-0.2253636557646593
-0.02896303813194955
0.005110007709682487
-0.018501710109038155
-0.003131707617413735
-0.03650633147554257
-0.005341393845199662
0.04988034049153287
0.0045953332469648505
0.018783143203334667
0.004794375159740252
0.05259896720804605
0.01971977964614147
0.16306232609517085
0.13302212647530565
0.054522844203239176
0.0503273253542935
-0.01868863368802167
0.2602867618837386
0.1262637856763647
0.07463764559076021
0.06937573131560984
0.032387302162188596
0.06366190875679549
0.08055912463862777
0.043310499166307324
0.07132278960212463
0.039077493744096234
0.040625895142877504
0.0010791556843385412
0.05908455048491905
0.030762320179693884
0.03463215946327548
0.048556995546104556
-0.008023525396416603
-0.0221343380493278
-0.1250701833367954
-0.03585479567279781
0.08436023758372267
0.02696437223711616
0.025255377678809157
-0.13081428236724957
-0.5081897819537146
0.2995758688501177
0.11343939039034374
0.07909034985163103
-0.011732314173811119
-0.33434891118457494
-0.9395875720402737
0.04760584037851132
0.06827424248356986
0.041277876059079815
0.00452030911131007
9.515859003289616e-5
0.019831933576579853
0.06091764152642621
0.0976651859963656
0.1007629581695092
-0.018799087881656948
-0.011268493014860192
0.0209073560815109
0.07508628568267037
0.18107411911345367
0.4027037728068607
-0.1578495441524865
-0.06302697222559647
0.008276332408629981
0.07026432052792338
0.20916490806430316
-0.8437238312743447
-0.40942202374377384
-0.1097855830112404
0.0017320093084457525
0.058565378387971996
0.12908018210965272
0.04562175050388449
-0.08568661880774833
-0.05869091810330137
0.004765685156268321
0.04477782087045725
0.06948514589373679
0.04652861801636806
-0.02594607586876281
-0.014826223591978115
0.018940540883210087
-0.6697551924599608
-0.11092402068423803
0.04033009031227824
0.036218246497465086
0.007719515040802574
-0.2016518554812143
-1.0629773058621241
0.25491251796271164
0.10685171175288667
0.10184062262620439
0.11767828846352636
0.37085023649969495
0.2036278500822076
0.12050165597708397
0.10769892621266562
0.08298330021396758
0.120146005180695
0.1198119188679859
0.05179835418825977
0.07765933471860466
0.06158075601067723
0.06682916288040733
0.06352811516829396
0.0719227624048803
0.002500108543076397
0.00690957506306465
0.03768816161018796
0.0357629901014861
0.03199112398833606
-0.006130995213373019
-0.1811153408599172
-0.04266089767897309
0.01067894430904535
0.027357000601792743
-0.0076114380667461875
-0.0806502292305898
0.03643968295388507
0.031085115273204688
0.068365957660701
0.03574435273236275
0.05301018529304621
-0.004750627944407114
-0.014872783309597785
0.043732010873553474
0.019628734716219537
0.01643146803097499
-0.10066422996936576
-0.014178449994198941
0.017366383871411643
0.013944519849590786
0.06563253064688256
-0.07179251123523585
-0.376056468629275
-0.09617103561660353
-0.027579156099365617
0.07384447180123878
0.09411774731413054
0.24774802787510178
-0.8148193403095434
-0.3358146446304484
0.042294533821561044
0.048629175545998285
0.14158801057720946
0.16966368422996478
0.28309701843007257
-0.03817788249889335
0.023079424607055494
0.07165482227589087
0.07557372603132892
0.12909679794966472
0.07245614682994227
0.04635260100733404
0.007713732604961954
0.0062206728039470366
0.021668290605014632
0.0492896065533558
0.16194070277952996
0.030317763048958064
0.004208614233522142
0.015928361387475717
0.01527769264882233
0.039744454173696604
0.061323793698009256
0.029160723432457104
0.013041382533800716
0.010094342271834322
0.01956462986284801
0.025398892659765155
0.043737644070803945
0.021283977822965237
0.0055482855313022765
0.01665584934753582
0.013939836785605408
0.029306074237245055
0.025972498193999667
0.026919281133172542
0.022521878818916784
0.007888826481257771
0.02971502250522184
0.005907179431300468
0.08853653114447804
-0.007084364007078279
-0.014657578142949733
0.01749839126706449
-0.003933884275398851
-0.4779597047005545
0.05093185535414713
-0.34342125644330135
