0.000220533457295331
0.0008805669380896636
-0.000280121973437335
-2.568367023034457e-5
0.008781449538244177
0.008292995523942087
0.008653624676739694
0.009418278474037114
0.008958636677830806
0.009325137894777343
0.011283559291337075
0.012620856139281423
0.01539638122793084
0.01998559138162649
0.02276605314979505
0.030514564752451095
0.02971970989897301
0.03055161116146269
0.022722395013863386
0.020108967268361175
0.015371774292123625
0.013320296105535648
0.010352282219962228
0.01008410410568873
0.009443198528430423
0.008130984420983343
0.00812448049456612
0.008310622600870916
0.007766438649186282
0.009561816914035298
0.011128067389247029
0.01342392066372822
0.018256089143109465
0.021564436921377574
0.03372762314727202
0.03917098577192574
0.053064749932344696
0.03900963088619928
0.0331244383725492
0.02238283625555322
0.017358523524111734
0.013074982433066014
0.011313370797858921
0.009888704685027196
0.008675512206620804
0.008423261311857453
0.008138397404176564
0.009086194923727213
0.008137975186353827
0.009691632184254107
0.010435081170450083
0.01429294990395229
0.01704690906347708
0.0282749440767566
0.03699836513400498
0.07251616771034901
0.07763602308901868
0.07373524223479046
0.03957762967922868
0.028085810744279713
0.0168658874040241
0.013250991745461882
0.00924246748944886
0.009366913745462058
0.007699633183161429
0.007307329761063622
0.007556506697523359
0.007753448924310827
0.00771254888166266
0.00754683427789628
0.010298897144943591
0.01109880772348029
0.017621069236306682
0.022168403550377667
0.05660937583217589
0.07578410347809124
0.23640129697920553
0.0819449918469571
0.057906876626984474
0.022932088121968845
0.017877550460938228
0.010985627970580397
0.009123751102093798
0.008281028956957474
0.007163768371260756
0.007416898037763827
0.006741444816632399
0.006700769041574717
0.006204750245729575
0.00780073931562848
0.006755871629785862
0.009394803961908879
0.008464187591998393
0.020838913383098037
0.01754952418791654
-3.356007954254523
1.691240562106865
0.1836958669372089
0.018735006187495566
0.021607439509759917
0.008855908451435643
0.009550628997408779
0.005955803790473355
0.007919901011008836
0.005569404430633065
0.005659084290335873
0.006360889558331965
0.0057943147163491806
0.006499377259083267
0.006117958865367169
0.0060634971944605025
0.004222171976498717
0.004288535021595093
-0.0071984369499520605
-0.0061659454104936815
-0.15371485362703696
-0.7324030373768213
-0.17184021454404286
-0.01290109318472011
-0.010352596059501909
0.003325753717968847
0.0036885265901511755
0.004785501623071881
0.0047288068921294
0.0052302110351376664
0.0048293464599768795
0.005590527538887115
0.0059409128193555144
0.005108148679946563
0.005334884333616868
0.0031457145902108207
0.0026659951727619527
-0.003351712016635565
-0.009044272280297678
-0.041293893948281916
-0.058133978514151044
-0.20738727840516324
-0.07660517992233255
-0.04702713949819212
-0.012294505050236767
-0.005576421512226472
0.0025362588939224343
0.0028559117792537536
0.0046286316755458435
0.004859082338478688
0.004802487764501718
0.005380246472902238
0.004306827125432103
0.005018889976283574
0.004211838654140799
0.002700668876478184
-0.00027214470322670033
-0.002314065722723114
-0.013006795379826758
-0.02260406891979617
-0.055686637936929295
-0.058098203036493275
-0.06078098325135667
-0.026454467358304586
-0.01594055031560572
-0.0042362495672671726
-0.0005908937590148467
0.0019627122265244686
0.0035209210014603156
0.004697395992817268
0.00519697544372418
0.005567807291083306
0.00484521982963644
0.0042045701005131945
0.0038905690466353557
0.002088428402644439
0.0007185882704959432
-0.003158585352556282
-0.007220101291194171
-0.018448219805212055
-0.023648073278903406
-0.03643227189544224
-0.025516241477766093
-0.020769846083003286
-0.008914206815792554
-0.004839324370927934
0.0004601555004593189
0.001593463751423743
0.004021142647053673
0.004803535200120665
0.005421300924904944
0.005556722031741692
0.005197416741399915
0.005548131280611129
0.0037250665046871263
0.0029807129603169843
0.0006689689773644856
-0.0005173671172449402
-0.0056974717346380595
-0.00862331675275629
-0.014468453540929275
-0.014453899709254538
-0.016104804425931298
-0.009216533068803727
-0.007206974531630071
-0.0017664040732966282
0.0009464855663665622
0.002340488754819816
0.003508364395441107
0.005031173497471871
0.0059502858642965974
0.005064131853177709
0.004669039372900816
0.00453588222099176
0.004582024627457367
0.0029990868901695468
0.001400921642905873
0.0006613150163310421
-0.0012385243440151334
-0.0052631075640928605
-0.006187897054315698
-0.008854356250696709
-0.0070537867721777725
-0.005626460231669678
-0.0019063060805831536
-0.0009210906807456915
0.0016180756043637791
0.0030088174652944184
0.0036997588163878684
0.0044424456632026245
0.0045557380680020226
0.004533007783233294
0.004895080861474402
0.004329091960339439
0.004381754983638834
0.0034907355910779305
0.0033934380540828063
0.0024335209333640404
0.0010463926508236438
-0.001420176357275343
-0.003000385032026541
-0.0019436828723315887
-0.0031348212013816994
-0.0013879197219529957
-0.0003584459453724256
0.0016366019093559275
0.0018746305487804976
0.0036773378629192106
0.003919513806989276
0.005766935720731262
0.005006296457793197
0.004772274170776702
0.005041556196981492
0.005301214703439715
0.005771009516360466
0.004384572854074161
0.004741536303251433
0.003040251694693847
0.003009121277884064
0.0012708319312177022
0.0008363407760558475
-0.00012513774093668868
0.0016458035836440308
0.001539547730021147
0.0028268302682067964
0.0031561427688651896
0.0034762093482059216
0.004184534155716648
0.004985231294384025
0.00618031176099382
0.0052873500175992
0.004833600195814202
0.005939243803795106
0.006050268174980881
0.005807855449503934
0.005907194602998903
0.006480559113145298
0.005140612832266229
0.004722626560028794
0.003870743901365198
0.0028574701828040783
0.0028022316893664976
0.004001035437888387
0.004387574052620368
0.0044536282845345585
0.004800701963528745
0.004449297947717643
0.0053298955000311175
0.005590978304935616
0.006559201209048122
0.00681764650358354
0.006377667801115681
0.006964439308955162
0.00722877844469141
0.0061927470366499714
0.00629039213499639
0.006920497784416611
0.006619238691431124
0.006541921761070308
0.0050952498357286855
0.005754314606999644
0.005522403198897847
0.0056960668794594676
0.005497329175004876
0.006264251053000573
0.005764088533560517
0.0060558196236245405
0.006594451847877021
0.00613636752805287
0.00735529704115914
0.007447023781535073
0.006909357078046258
0.007306069506292691
0.0070315683195298
0.006579890967370705
0.006847331689034679
0.007182491887500229
0.00801377622184295
0.007410764911813494
0.008331393788088216
0.007734223643723545
0.0075737098773732536
0.007440465144982097
0.00729546452409214
0.00685642930049708
0.006911750427435117
0.007111760861492718
0.007421731065325573
0.007053737204311846
0.007987495300440238
0.009162869636124085
0.0074612755898310085
0.007502207300019663
0.007269997500779115
0.007833015910971573
0.007295443750313872
0.007980049990366974
0.008819591410347098
0.009360238170060348
0.009887662464959101
0.009807613512639727
0.010373118207647192
0.010275764922960758
0.008889168933035672
0.008497428089494748
0.008433452018506798
0.007397747691331118
0.008032716349799065
0.007545387783651396
0.00929219545769155
0.007730625896863733
0.008711984384323225
0.008304232042502982
0.007449518302912173
0.007936207480218897
0.008535774096670577
0.009036346268779485
0.010723273919639177
0.012032551420103597
0.013175712860911785
0.01247423809753773
0.013700135134603147
0.012012966356024092
0.012049886032410263
0.010491507835992401
0.010590928041158965
0.009897502641378248
0.008768305536163456
0.008722401407392156
0.008729260956587008
0.008354695855939617
0.008335071278870315
0.00869987227700323
0.008199954373109643
0.00875308794539387
0.009603321930875526
0.010127657190420102
0.011399391502407843
0.014468553060900563
0.014967906050768816
0.016467865533580366
0.016345719845313647
0.015352950432892623
0.014342296607158567
0.013348442260520104
0.012055225161616478
0.01135807881060519
0.009803709652214727
0.00980007463622748
0.008253138353572014
0.008038037989496575
0.008186846388613068
0.008182611917395298
0.009859883200486056
0.009291491824974364
0.011470452080542695
0.010804418061043737
0.013366980264461578
0.01609077459217104
0.019492521627955537
0.020789535996731296
0.02242028482781169
0.01960009384846282
0.01842921686999446
0.015794836837313683
0.013704961579741713
0.011597740163125675
0.011408936115410325
0.009825981652055145
-0.04356101366647127
-0.043332827581835945
-0.05444352902476781
-0.021372028347154962
-0.013718375401305376
-0.002145596885704261
0.001538878414466533
0.004210945496348531
0.005723347465419025
0.0071287573140375
0.007290328025918186
0.00797624439277868
0.007178622042573538
0.00726926645453979
0.006428562562670997
0.005670337872836075
0.005235739961184058
0.004568877982880106
-0.005119407835049656
-0.01109386110562037
-0.013689070485064956
-0.02855484038724418
-0.019453391648233894
-0.01667585867665758
-0.005632533441839019
-0.0017290531776676928
0.0030770257700616505
0.004044950929587301
0.005540098730297123
0.00706651555870745
0.007746425084534181
0.0072242437640524584
0.007079979678910981
0.006814004575294
0.006697774434865864
0.005674838244977027
0.004381829987661904
0.0018633285111362365
-0.00011995327917286935
-0.01087500167545206
-0.008520255497630452
-0.00849104624471765
-0.011974174265295437
-0.00452593803901807
-0.00425560612618437
0.0012161883312629838
0.0026883493616447303
0.004026132600575952
0.005402083535000581
0.007576871121295227
0.008232268864291441
0.007805714379815431
0.007443447328423156
0.008637789633736044
0.006528728060579448
0.006810520783481622
0.0046114538573021535
0.004337473497231915
-0.0007363004282410702
-0.002446882277242473
-0.0009451539100748922
-0.004060696434808477
-0.002027694448682172
-0.0018952292972457972
0.000725164094062831
0.0014469785497491859
0.003643153323805572
0.004756429055629251
0.006151947512195996
0.007882087973543693
0.008583137950667688
0.0070271298861770875
0.007211126854560938
0.006797414394806855
0.007417584863755316
0.005701792229562135
0.005280958873773224
0.00523321591363912
0.0035329005938690016
-0.0006793611923813826
0.0007345763959352959
0.0014158112240102445
0.0003749751542001847
0.002599151395018209
0.0028997065455652897
0.003982021223645981
0.004647898334008772
0.005563390541885011
0.006725440079960622
0.007236271819884718
0.006469730885980332
0.006855763057756926
0.007145852229102079
0.007739510899125895
0.007142183242053476
0.006273959546110531
0.00744505696787291
0.005853296462259149
0.004827490200694702
0.0024730996646929273
0.0040070732794209975
0.0034518209929553668
0.005111820950409156
0.004499890677590733
0.005215385763672179
0.005551192282750125
0.005657036501427375
0.006928517714566788
0.007981900888778877
0.008535679010694953
0.007257606587353751
0.007579156092930004
0.00798359429484433
0.007968552050177404
0.008293301934079013
0.007573299895770446
0.007834226618282751
0.005978474760867941
0.006189588303559686
0.005045343279362318
0.004726281633995647
0.005229221846058331
0.006290166295496583
0.00634903307457559
0.006568310248595821
0.006526017512818469
0.00637763319043522
0.00785762142600254
0.008074566734277765
0.008712890509352852
0.007675456208068996
0.007859522208186117
0.008392437535151193
0.008870745241603115
0.008383592605339942
0.008718051340372898
0.009548051972928406
0.008688509439442615
0.0070634222352268
0.006407193021544311
0.008413879028766289
0.007394309060605237
0.007747704417109867
0.007227404984479015
0.008551669969003563
0.007940796239788606
0.007944824293323048
0.008223503168471629
0.009350817006351552
0.009637525894585535
0.009713568873179083
0.008300331452319924
0.00955520137082003
0.009118427248936207
0.008105608522710177
0.008660775730111247
0.010145107047180248
0.01037351686605136
0.00905348395237768
0.008368610001083401
0.009940622510942793
0.009205320086220907
0.00966874272290066
0.00877302017111408
0.008147512937889541
0.008580427785612521
0.008912806192911201
0.008752977457145502
0.008849050387539395
0.009485043872762559
0.010580029887864053
0.008910784891187106
0.009606869630948733
0.009371587649645761
0.008676903334277569
0.009090509861528321
0.00938877963364874
0.011177392955164152
0.010369876382972052
0.010752937842331986
0.011596858920578452
0.011589953517574105
0.01147257462533421
0.009170662846410353
0.009873650798461059
0.010293508842971588
0.00937447430384231
0.00886766065454322
0.008412184874146517
0.010568158693511319
0.011540277853474916
0.00985502564659754
0.009896626476954818
0.008483723409567077
0.009413032879243987
0.009271483853353411
0.010089547249797205
0.010949608566085227
0.011772619487460754
0.011794458988796204
0.013805655743505564
0.015131438750707757
0.012596766581106002
0.011929268078257949
0.010914907753199931
0.012158546052068132
0.012153791998876107
0.00985937496007782
0.010075757263557708
0.010592457512621741
0.009999072481445763
0.010909683969768682
0.010683244196647795
0.009138831689697462
0.009252307067027078
0.009709834823029742
0.01132656473509157
0.013198871357409901
0.014098736480807032
0.014479995102782365
0.017314646475389328
0.017490017776387604
0.01611837130964629
0.014254361134236662
0.01430371745939716
0.013904163652983765
0.013692960816252889
0.01090269025557286
0.011473297533396131
0.010140659815985407
0.010280174055104892
0.01058601543075798
0.010471719006787084
0.009738415095733303
0.010976419623136176
0.011826952883706388
0.012804931139116368
0.013402712449587198
0.016444661887644145
0.016078378466773628
0.021010149389984967
0.022481900748925573
0.019870267939330978
0.01827124271027503
0.016332885328217774
0.014799922175343158
0.013056715930259536
0.012195743773946659
0.011201281784288787
0.00911781692078853
0.009350101277705563
0.009530014804051077
0.010044660259452068
0.01126573689672978
0.012117733356310202
0.013579427220102533
0.0127492348277312
0.015562663708088066
0.017242560681509547
0.01974912062983448
0.029603289252052405
0.027464716229443048
0.029788006090343076
0.022796386348569554
0.020995350932317754
0.01581495975152973
0.014572061202468569
0.011647754104378127
0.011352409785873317
0.009250998668890578
0.009798202496449358
0.010395785918203894
0.010989892926853753
0.01034292326274753
0.011567830274288001
0.013338773421241545
0.015252643666200934
0.017559817899409434
0.021501648684186064
0.02326532738472224
0.03571157560569577
0.048991407877149784
0.036274945856337434
0.032114097778763874
0.021900223776137203
0.017905247135470606
0.014293364344009204
0.012576525082271434
0.010477231521991358
0.01019713390386597
0.009260415615903296
0.009146376847029474
0.0094742604649039
0.008943895809124417
0.010832789028067363
0.011829045242929033
0.01552331935565209
0.02062571494236316
0.02251498577229165
0.032898526276433755
0.06410665927800757
0.06426817069215468
0.06854441268272582
0.0369702846526072
0.026587886013781398
0.016446266838674433
0.013428659441764506
0.009623136653104804
0.010296839514282504
0.009565304069745744
0.010144236240684754
0.008871504767058846
0.010356527496980092
0.009792807264965063
0.011639008200631195
0.012982772489465671
0.01702793022219859
0.019912451563181572
0.03098232592153606
0.03537653451114228
0.07479481557715796
0.18581475344736154
0.07292438333246591
0.052787448940669536
0.02221243593631767
0.018280355975035117
0.011068851917707742
0.010172957174536593
0.009822147259386281
0.00887798182655734
0.008234583417897779
0.00859523145639769
0.008844434956948815
0.009584033791581651
0.009562926365627474
0.012340466637944436
0.014792981159043246
0.022170770082775206
0.02556027479479447
0.057350140081812016
-0.7819418341981847
-2.225009578997779
0.136866340936999
0.006784767121745996
0.020033126555435744
0.008707550135489876
0.010205871565951425
0.007231908465810889
0.009330487392744509
0.00812175589290873
0.00817485363075588
0.007820757512371997
0.00833155988476276
0.00852725374672699
0.01026324503944871
0.009560102437912254
0.013901037464305651
0.014331771129521192
0.030722050488634432
0.03332157501592554
-0.07535096826251313
-0.44789729011942747
-0.16482237077649078
-0.013858575399931957
-0.011096340331995639
0.0034262853892851166
0.004965986608249069
0.005580566484282958
0.005946945528719944
0.00731744550681664
0.00780946093987049
0.008698810362827183
0.008250014716560687
0.009221393427281678
0.00859149849085585
0.009567625140381484
0.009154346113586655
0.012403365150844054
0.004104027026465974
0.014339025465331506
-0.03938366025607389
-0.17133383090094242
-0.06876971195417637
-0.045109495615152824
-0.011054203871521789
-0.0037425243973234737
0.004118183662183414
0.00434327182935442
0.006556935240705258
0.007823066496643558
0.0067430764934692765
0.007925874642605739
0.008237708607969721
0.007942343332547586
0.008622422185628151
0.007226255157901185
0.008210350740530128
0.0035671538081763726
0.002458186799391219
-0.025558358571652992
-0.011529263919399199
0.006346195307509269
-0.0034455122855949327
0.008921549996041854
0.004320091316261108
-0.0003647162981552396
-0.0007634934560978174
-0.010799246650650254
-0.002039979096333537
-0.006475377109359492
-0.0034969485844181573
-0.006801388763675886
-0.012786223271124698
-0.0014021265172130873
0.0031539247239732475
-0.007904887757630027
-0.002728139507532063
-0.010108347634808891
-0.025878811263912938
-0.013480697870166163
-0.0024650501799442052
0.0055871772900806735
0.004209876843129184
0.009829623274851476
0.005685813045807472
-0.009873782674906408
-0.012203845677444699
-0.013031367718208429
-0.005239223870896877
-0.0025203071432711444
-0.0036859826839137234
-0.011513599292979805
-0.004606264887805198
-0.005177010077685546
-0.005633050099383871
-0.006936875040025443
-0.009836885804710595
-0.009880154882257157
-0.01316317421737292
-0.019069003281120656
-0.0035613881190672356
0.0071511826192854995
0.0020052905890352644
0.007632093529662795
-0.0001700106997014686
-0.005474992091014653
-0.0033535327794070547
-0.011141878666952312
-0.011058573283853602
-0.014981153534215325
-0.008455977794133259
-0.012194158050556684
-0.00825213467045712
0.0016599323876622277
-0.006938735158373611
0.0033732519078946217
0.00014940318332657548
-0.0025781890672000904
-0.00790609648149721
-0.0016027758897993924
0.0013512372793601632
-0.009656869187226101
-0.008611613776951538
0.00480066315019115
-0.004817795367698304
-0.0029616026921723167
-0.0002402858413430208
-0.004797558561603008
-0.0061617985919836865
-0.0034271221182796876
-0.006871687163828635
-0.009854832174281555
-0.014224184951226113
-0.011659291777767134
-0.005931629995214543
0.0039659065750393945
0.006804305098411296
-0.001112584382766126
-0.004951390269008341
-0.0092656268448387
-0.0020533961816094123
0.002604422620505079
-0.011399824036089409
0.0005155932640680955
-0.007023394886928405
0.002009589869927977
0.0007290628712533032
-0.004628248156049487
-0.010350107006942798
-0.00010679883089914096
-0.009570876587108552
-0.005230437088231579
-0.004832484574972834
-0.0066521743233317185
-0.0041874042246558595
-0.011754147879161205
-0.0017634369477733188
-0.00012822539503667984
-0.001559008177622845
-0.0045139265219588205
-0.003186616728664868
0.0015266848166783052
0.0008330010344012149
-2.5813592852652677e-5
-0.005255352073784868
-0.0014627100820402313
-0.004191742294743844
-0.006215332773942085
-0.0017592703349854676
-0.009726692126774577
-0.011441726831192529
-0.01207175656523244
-0.002338519000043005
-0.005800536237073007
-0.010377926865353194
-0.004407959722733192
0.0022890042146252
-0.0010860584972190602
-0.005392200993135073
-0.0063219994303616005
0.00010187221279138459
-0.004295615502877041
-0.003219278234944883
-0.014088075412327903
-0.0005786735687426379
-0.0037221969185058596
-0.011713392627158078
-0.004042022992295114
0.002738704291644478
-0.0048692584475398945
-0.013347259545387067
-0.006534807908451652
0.0005449161161158572
-0.003240166526721511
-0.006369229525518444
0.006302219148163249
-0.0023393367129459055
0.0017591017946621413
-0.0005820136861297721
-0.00044406130263304226
0.007096475310006648
2.696192199338229e-5
-0.004340641238368209
-0.0025931541306571104
0.0008845673741078221
-0.002172382127111354
-0.006025396974489353
0.0027028844103576723
0.0009081473657876126
0.0002797913298892402
-0.008314476701725058
-0.004527013766442507
-0.003456542877945166
-0.00351671699172558
0.0010111306438641506
-0.004282784850610593
-0.003967153556582384
-0.0037647880708362768
0.0037090695151906217
0.008144382783497833
0.0033026473618527684
0.0010217570831626878
0.0008736537437905249
0.008173849024345984
-0.0013227427579476513
0.0014018866910390979
-0.0020302381934423352
-0.003200684774611026
-0.0015188830430552633
-0.010558109200759022
-0.00010873228963962636
-0.003783299688345359
-0.007462982614412071
-0.005534065618800578
0.006107017172162698
-0.002075295886901559
0.009914761686728873
-0.002245334339622064
0.0034059334473674234
0.00796352120553973
0.011844041092653475
0.004073577773942847
-0.007099017455699947
-0.007661734623433154
-0.00027785229484572323
0.007464450379495001
0.007757375219983024
0.0006655017069887503
-0.002273103533671431
-0.004610620389401058
-0.0020827769137992443
-0.0007016493930930001
-0.003266255827308664
0.002099652829512109
0.006044278957201648
-0.002720887195962248
0.012141982073601936
0.014196483746162792
0.005146388372723319
0.014982966072870287
0.01763572929576048
0.012477142344763872
0.0017684214625244483
-0.003852097041792032
0.001656712238151075
-0.0060873688059914395
0.0010363491457971961
0.005402897893091664
0.0008602471941297664
0.006943275673240655
0.0016493031832420669
0.005768439820950813
-0.00023568132230395426
0.005932902473593222
0.004438740091723664
0.002203316457578712
0.009414679879735679
0.00795176791164898
0.018808798354853704
0.015905778629982693
0.03570633193351394
0.024487886494241558
0.01872368934242648
0.009020003987409764
0.006165860778328734
0.0012806044947806284
-0.0024034045049643035
0.004608763657128511
-0.0013654772805487313
-0.0031257065066911034
-1.2661980653674333e-5
0.009561159751442
0.010400646263302926
0.01214233261505824
0.0027262551308920658
0.005683719947111893
0.020051417863855787
0.02168004700110738
0.03624256949909013
0.043349022929604616
0.05520161627906934
0.03328945178604704
0.012787184401437474
0.016329305548447456
-0.0007467659612452205
0.0016978839652705042
0.011591042037038748
0.004807274786515476
-0.0003897431443698636
0.002298755809170777
-0.0036856895379037326
0.007403681853290991
0.003297233154942642
0.008023882717259205
0.009693355991289954
0.01708171372177783
0.04244582201303555
0.050858026418787707
0.07206535363411429
0.07018385915817132
0.09305898470294918
0.05457127072423044
0.027922109502470503
0.006342142793077066
0.012038619898537464
0.00401857442814207
0.0008182326961661424
0.0043918743441508845
-0.006883755326808284
-0.001485111928949544
0.004798929850465657
0.003216881815873515
0.01298696067574753
0.02027453362283771
0.019859866798656308
0.026979365358354306
0.055428058669673874
0.09594904365437315
0.136984232667218
0.11831963437882012
0.10485123408053176
0.06675646362077345
0.03154045089408367
0.01531198222696868
0.004577755180778286
0.01579178166971399
0.011153730784414449
0.007222400527860105
-0.0035779545673591704
-0.005307522884515872
-0.008141475025500852
-0.004547768664824529
0.00795881386070788
0.01591770378028842
0.023485297837594267
0.046179555055532166
0.08387456591730856
0.14919109000882833
0.316905277997134
0.2636343114366957
0.21478633055713392
0.04217634098677256
0.029334885943092817
0.014860965104791013
0.0016401782276358667
-0.006962468096278265
0.004681433293473388
-0.003306511741250465
-0.0021275030677292265
-0.002159251661912305
-0.0009195098031536198
0.004685779197088036
0.011589100064088195
0.014988049945438082
0.0227680338047759
0.04293032015237998
0.08501713112545056
0.2273239769119931
0.22778727456401301
0.5286237346244077
-0.2736610833334338
-0.05162498734726642
0.014748140865521116
0.016164085812555
-0.002162806432460019
-0.006477468959713045
-0.0002721045879039177
-0.0001869230157646297
-0.005131587234610785
3.881453702605234e-5
0.005851532741927988
0.004769817764953149
0.007992367104044225
0.021354706187240557
0.02262399868609504
0.023232535651003004
0.040800848701975194
0.11700908102780776
0.35921921044711885
-4.45634167562896
0.8614736747051837
0.04550242419161824
0.02631120500902304
0.009204767932780935
0.004498152362509531
-8.18971348894369e-5
-0.001128352070383076
-0.0006386633954983023
0.0018539120870078218
0.0019025712299981538
0.0037073786700617026
0.006261353264826226
0.001473845676276381
0.015816512115722985
0.01603136083285401
0.005841944207156735
0.009617243500239625
-0.023460671785645395
-0.1421096843663878
-0.08696143748787899
-0.01954084114287341
0.037258149097784736
0.012690919548118478
0.0062631444576136145
0.0023667712330985094
-0.003139111649199693
-0.0024747696838374887
0.004806257910266994
0.007062366436993668
0.004999608844937729
0.0013021773962199128
-0.0063459638957646045
-0.0074261696579709345
-0.006881896726226619
0.005325074303031759
0.004085666563753358
-0.012694007823638817
-0.01939317740751119
-0.0562256702943052
-0.04110936530024401
-0.005287134672421138
0.006592873871793114
0.013256156080596545
0.010397647389537357
0.0027498638088770274
-0.007631644477281371
-0.005085025145581925
-0.0009790365898260916
-0.00666144132114872
-0.0004697585976249899
0.0053305111744446215
-0.004869657285429407
0.001143709122052038
-0.0008481560994926985
-0.004121782541136439
0.003551121405474196
-0.005866135161353076
-0.026966662055610453
-0.026467057256462867
-0.035075575589100405
0.006019686465998688
0.004711128894765545
0.004386442270082886
0.0046233973219013645
0.005001192068991835
0.005736083354809046
0.006042104456586012
0.006791174053553497
0.007177194946157589
0.008175778101796604
0.008960234409877333
0.009905313545134197
0.009794520703165908
0.00955786712259345
0.008937260665552895
0.008497633413917141
0.007627506522946981
0.00856875802834378
0.006420885994933295
0.006172994110144213
0.004678861444556013
0.00424707170109745
0.004276219888914717
0.003920085953930518
0.004596892718903214
0.004384558172012926
0.005808987494539233
0.0065277839012607315
0.007745279132697629
0.008519775791492129
0.01000408134145981
0.010059892555983429
0.010552448306752322
0.010592711241629728
0.009684530509592698
0.009563941739827183
0.00855676632719557
0.008106229146691627
0.00716971490873178
0.00574793205789142
0.004680495896087452
0.004511752132551964
0.002913399839849382
0.0035339136610662942
0.0022546265481446313
0.0023503836216553857
0.0025883028760408096
0.00568187745954898
0.007737778033093406
0.010547138904874447
0.011121071860468337
0.011358355431796087
0.011075927099393482
0.011731745007822519
0.00971273014256037
0.00944381644935041
0.00867026907268631
0.007703567192811305
0.0064652959528027215
0.006008176101402665
0.003764251437561833
0.003137688841886921
0.002283029288558178
0.0003968463655329699
0.0009531417862448227
9.180970760283374e-6
0.0016651399547025674
0.002774368301249686
0.009016298609262115
0.01045290678852987
0.013085221689126509
0.013163691185018641
0.013759248093954188
0.012046539397039282
0.011383903033820135
0.010327705467621679
0.009498753446609165
0.00798904436061891
0.00613256748388645
0.00435320583598499
0.0037824604921441133
0.0017025689838178833
-0.00035861934394885975
-0.002259837270075917
-0.004931179532705006
-0.00400181729266453
-0.005379032027056644
0.0029149529464499503
0.008331889465288908
0.01790448326484066
0.016780661167672975
0.018048412542811077
0.015410300966681823
0.014393008351212674
0.01219569523969719
0.010511627472089521
0.00931500454240326
0.008068603218607815
0.006685980793386235
0.005873823051646293
0.002535714410961135
1.8667371233147293e-5
-0.0017026920494823776
-0.006495181048015785
-0.009579758368381229
-0.0163429028109701
-0.011926763314002713
-0.00919139327952733
0.021340858824142512
0.02219692524066666
0.027590407309364212
0.021935028921448718
0.020408217156838455
0.016729108192861115
0.014152591178893092
0.011627762623531426
0.0102482411207434
0.007634167120319987
0.006336179226755908
0.005127738531177312
0.002279188123144325
2.337920196602324e-5
-0.005056184571427969
-0.009956815602459911
-0.020813317994270754
-0.02759949996069524
-0.04920864053848102
-0.017458665527977875
0.02331480431415622
0.055739194424043036
0.03865957199145468
0.034030567438019056
0.023747353424928886
0.020440398969591395
0.015166094590198574
0.012448241501356578
0.010302548304049777
0.008244723511052337
0.0060171221293721325
0.004457946213295955
0.0017966529428275844
-0.002670309981531317
-0.005611606975603719
-0.01607535435221655
-0.027056417976885024
-0.06176172146061825
-0.0711497159451759
-0.16823079969861152
0.17549269919806013
0.08171600883223117
0.07256030445834712
0.04010936781572572
0.03102609268462988
0.02141761817954201
0.017405989882193197
0.012261472988760173
0.010012392221421765
0.008243929114986514
0.006356792981581338
0.004645744998665615
0.00012525311439652042
-0.002370072932563711
-0.008262630036643057
-0.015534328147440777
-0.03774314877589597
-0.06277648064469081
-0.20564621819413986
-0.9550975237885684
-2.0713701420102875
0.24379809039147304
0.07818312169689802
0.05356581308390392
0.030799708129622575
0.02384944603616935
0.016253096512780677
0.013326963467269094
0.009666542317305373
0.008611767379983551
0.006064119261965521
0.003946131999870827
0.0005104033551587811
-0.0024640786190898915
-0.006150732611132132
-0.016072458051648635
-0.02485972705841432
-0.05573245343930393
-0.06290845212899063
-0.14654317766056574
0.16176136346212844
0.08317164420286544
0.07523748180701646
0.040144069586418356
0.031566839290118026
0.021353786699480393
0.01752362318736507
0.013243950790081909
0.009912250264713261
0.008210941639437684
0.006284412331261874
0.002877244590305586
0.0012632214456229402
-0.0003895499306193072
-0.004795166273706672
-0.008188761878260554
-0.01765590520707903
-0.02186517550920124
-0.04007966586765954
-0.004481011570066774
0.023184725651650574
0.058958833252009304
0.03921783217584266
0.0344098849404448
0.02395571482216336
0.019863657210429937
0.016147158466636148
0.013236713873597842
0.0104446149595032
0.008702768257594667
0.006205788602725393
0.004238472199660967
0.002272618632510797
0.00030529041255344084
-0.0008587121790621619
-0.0053195596905211695
-0.007002919272024047
-0.012368922768485096
-0.008344866699284376
-0.006079905275383519
0.024379260222515572
0.02496129555556479
0.029034741484908026
0.02284274448299973
0.021245588715020018
0.016233911189443895
0.01423541562903395
0.011510334336890348
0.010056808643176955
0.008187707996270522
0.006382786360105158
0.004031948904277972
0.0037056239704612547
0.0028346148072507303
0.0012415759948641665
9.02116527791932e-5
-0.0030586008269412996
-0.0017005951635306652
-0.0017405865620599892
0.0059543149122850345
0.010814872034959063
0.019162841749993977
0.0184189563981721
0.01887250929226806
0.016435621764348686
0.014662012064820321
0.012720941490020614
0.011927220467831477
0.010293891098106793
0.007894385591160546
0.006266139358790826
0.004971727231794704
0.0053539920128211444
0.004507296226198507
0.0034310598439096355
0.0014167724515152837
0.001070760348296534
0.001306820952380766
0.0036054884626859586
0.0057708657689832295
0.011597484042327718
0.012137134120578711
0.01546431724293863
0.013439081390793878
0.014388902651235618
0.013052139060007628
0.011667509424116795
0.010717606801452445
0.009039293724325614
0.008291065435693854
0.0071051277441047875
0.005694635159551894
0.00577299313251832
0.0050517757444717105
0.003979488347382426
0.004151688750879726
0.0029934020256872492
0.003913526146337837
0.003815627013117093
0.007907261233757932
0.008854965355943361
0.011144269036154208
0.012124902373205192
0.01220025533273513
0.010947496003608701
0.010949644395622116
0.011001307037800254
0.010182322115301913
0.008759681319914106
0.008756850290534234
0.00699432414672756
0.006633916461363204
0.006058344777289751
0.004697320442821881
0.0034155299032782587
0.003599822338183769
0.004987174727233868
0.005432564070066449
0.006434785887072477
0.006924793970795302
0.008689109920718703
0.00876788578281915
0.00991452774930805
0.010248189217308601
0.010320258273217014
0.009869398811454294
0.010766532796193074
0.009749204737634682
0.008462943796657366
0.00832084953128751
0.0067734011981971055
0.006728087446162897
0.005806762737961894
0.005104189018236496
0.0045033814646607715
0.005160070245198412
0.0049464740419642725
0.005411871597586678
0.005939223461546958
0.00699599570721237
0.007669718894746498
0.008901681771083105
0.009020182518570674
0.010209000377485145
0.00987509167908959
0.009313815869234405
0.009682781788873995
0.009950828521155216
0.008528194366426248
0.008927864959620283
0.00718766114441887
0.0056786494372293205
0.005476697019362928
0.0057943981287409225
0.005435903404490331
0.006543374551248871
0.006315015920637004
0.006287129988317086
0.006367200667303014
0.0062377510148338144
0.007615508979523
0.007597552026425246
0.008728979000584638
0.008833336903368783
0.009185007349520725
0.009189343540542199
0.009157021495385918
0.008977874759980608
0.008820151747467968
0.007527528466420433
0.007073380929620861
0.0057468955093000675
0.0058980921011607184
0.006609877574189673
0.005712697300212432
0.006260879576722096
0.005811522065613843
0.006984147893119335
0.007000978125523683
0.007059921414935617
0.007714790968178314
0.00728801843496173
0.008334790420802473
0.009083718212293828
0.009556776413032835
0.008837399613064794
0.0093276532317035
0.009521000893348666
0.007664752952551699
0.006833295342901744
0.006653996429134789
0.005612458760826873
0.006080989001166062
0.0056075523947622125
0.005160556317793834
0.006154616056559153
0.0052769932876321765
0.005350869548709104
0.006288845906778683
0.006093488140529977
0.00719137598250681
0.007707473573503349
0.008588431098028879
0.008612688291505648
0.009472734149246289
0.010502730995830172
0.00949578468462855
0.008147015604821712
0.0076512703796867846
0.007796840368498406
0.006638711508051696
0.0064998409472974365
