0.0007302738516259103
0.002993116866031473
0.0006313192043546361
-0.0004608337479631422
0.07997224133461822
0.05499798093470441
0.0673112147500068
0.05987627586275109
0.09078011010322143
-0.13153016403363055
-0.7094947444601035
-0.1763421019182281
0.04518061527804804
0.06427419411594686
0.05781900804961393
0.06535451425642086
0.05203380543270785
0.06685608537244382
-0.14427162005698776
0.05858199051743652
0.061650217460034136
0.05707681522826895
0.06549284616493613
0.056589382717226536
0.0667675176691178
0.053039323954569416
0.04547725840738792
0.045112160292480455
0.051739452391936655
0.0590821238820558
0.05796699296484901
0.06319940317367222
0.05821478240421653
0.06947578399956895
0.05485202817236513
0.060820775763549884
0.06259585351434188
0.05468800003973976
0.060305080167347994
0.0574582159369084
0.06751700728023001
0.062228009194630424
0.07048375614954763
0.05044019505078669
0.048232753699150525
0.06343734364658632
0.05999326858666096
0.06958262863750336
0.06567243620276128
0.08150075243611836
0.05997698113136336
0.0779920885191417
0.05865490914341919
0.04799763316051894
0.06653561053366842
0.05612290353695219
0.06748364564759528
0.07378243798182853
-4.056374206967423
0.06265500356173427
0.030580984704914032
0.06195677503909622
0.055214498766900225
0.07096529965252456
0.05439087511499566
0.5330262265081963
0.6840202359871379
0.6438265271061064
-0.14088606483690003
-0.33095245636541226
-0.28240356003000633
-0.08047406935284727
0.033112701532985664
0.007218598711692874
-0.04397559931615223
-0.10120887734158189
-0.29198554548413647
-0.2297160837431476
-0.17257854385012353
0.3945123358778085
0.0611809389146674
0.00908398634063931
-0.050418739458523036
-0.1447759248171905
-0.3179655401044483
-0.40477981546288827
4.938627325381447
-0.5293371110118561
0.0037429132937983655
0.026994199224140758
-0.06219151962551786
-0.1730669735914703
-0.22298007532144123
-0.2654816935724473
0.3222269739890877
0.4237149876098774
0.08809134953588642
0.007616772918024036
-0.04762565010211821
-0.13466947658666234
-0.12955806332804595
-0.2511411368280516
-0.7109230434700902
-0.03885401380817976
0.01994995970751267
0.01198831387529839
-0.03449762312770884
-0.08562511671451348
-0.07227659094564592
-0.05564760298324365
-0.09391631506173458
0.004893363904695467
0.009129066311624488
0.000825521261626793
-0.02107822263082707
-0.05151408742672996
-0.05324378706771257
-0.058420143807850516
-0.050361712233186376
-0.008970665406810545
3.6646858805476374e-5
0.0005337279672583913
-0.019750582852452785
-0.04336368615532997
-0.0876084883441558
-0.1007893975112938
-0.17800628591994788
-0.03283088957532775
0.004459279044589901
-0.0062566511805213065
-0.025670244209741035
-0.06096129191807544
-0.1045042974277896
-0.09858697323183435
-0.05809742585165341
-0.048548892065841856
-0.03827962311106952
-0.04729994458293261
-0.05397385119316457
-0.09606778093231895
-0.22082831959911298
-0.1148674639254125
-0.08341973673400403
-0.046418722886089205
-0.045042355219151495
-0.044149651344416396
-0.07963553989041139
-0.11624454261471631
1.0320125672252694
-0.13003533629734795
-0.05271235717000985
-0.04395404968518149
-0.029677926615554164
-0.04215680660387318
-0.04650046526557859
-0.13814395544051014
0.45464627310218014
0.10908244756345709
-0.000929236206672265
-0.008757191541057363
-0.02134888259919944
-0.006996294383891024
0.00252996035935994
0.12893860295912035
0.17636436728706587
0.06947433735921939
0.031095964929176663
-0.005533424424702231
-0.0063979175985011605
-0.004517757378209045
0.032992011725010525
0.08055619546236868
0.038905853442069836
0.04044465685244741
0.002867947187925669
-0.003875364926899362
-0.013915530559312517
-0.0043060127943192516
0.004360725318460366
0.04353442141438659
-0.0016394049378610723
-0.014093724256131203
-0.012928156207329702
-0.02272425325122682
-0.018046946807262133
-0.02305260548246475
-0.01194292108096817
-0.012231774404157162
-0.061164237646051695
-0.04488936526039428
-0.042564355919627775
-0.03185984313827238
-0.033755884623578175
-0.03103729180202164
-0.04035681064879717
-0.0426951266560337
-0.06031459801926478
-0.09730078467516351
-0.06869342789185309
-0.05430621350010893
-0.027030224998672445
-0.011686131581726036
0.0137053645425194
-0.02416684267737438
-0.20203022431870765
-0.13551012368550727
-0.103247398041622
-0.05371454049225967
-0.028066546153555052
0.023218297533139035
0.055012655778047356
0.13086136093810233
1.7021347568353407
-0.26281841464173356
-0.10673053270907279
-0.06763034603934885
-0.014540726622285546
0.025859937853159754
0.1900483138755202
0.8167652477281355
-0.16569811330316303
-0.10671348209265206
-0.09741498859690348
-0.05309933301239251
-0.02980938275035317
0.016373742470902668
0.026693253360841475
0.09212578406140161
-0.05384966440079447
-0.08545667064772382
-0.06307140383026213
-0.05292637985432519
-0.029092132539510044
-0.017158310942360023
0.005137592032671103
-0.02264398301333013
-0.05564964750664998
-0.05590299811471433
-0.05881846706575605
-0.044176008776519754
-0.03845164466955406
-0.022442992524597683
-0.025268536466413638
-0.02427028779759119
-0.04479891725884091
-0.05815633941669799
-0.05028388307862732
-0.046770696936074746
-0.03440823565490951
-0.029660114460808126
-0.02257361895213065
-0.03622679693402316
-0.05875933296160835
-0.0602149927258814
-0.06200031041766058
-0.04494488786927861
-0.03736567770583101
-0.019855539643696015
-0.020232633103441207
-0.021682825633023706
