0.0016439982533455134
-0.019173685927467748
0.001574109839072101
-0.001191793670757156
0.052353334594018454
0.046233919594591985
0.03603553514195372
0.0415788594912472
0.04339681993207925
0.057118885219286764
0.07435044633840736
0.23901247599117725
-2.240930557048165
0.2282307646570278
0.09324565193805577
0.05361537013686127
0.048180087966781096
0.04422720565408779
0.05251334537122078
0.06275686357362709
0.10424924095876348
0.14909897590513477
0.3288394084289428
0.12433898340789333
0.06721973900532595
0.05413159307585219
0.04683333889090849
0.04747550719426265
0.048437160223479214
0.059788644312155484
0.07635689696185728
0.11456071427338411
0.12872516207795112
0.10704000988118373
0.05587493816756462
0.04618028480535315
0.04679715339040507
0.04245331489802453
0.04394085285733733
0.044447368202402714
0.06223569551662378
0.07006191790383957
0.0782413936373794
0.06675569705238686
0.03950768625295789
0.03852327808820454
0.03627645438880184
0.04072627001573747
0.03654830486406587
0.039533181526555945
0.038951440280674626
0.04930813225128296
0.04464078584518764
0.04555360946577504
0.027364222591152922
0.029849296386314828
0.03087045770865233
0.03168370443050715
0.031840725920226354
0.031057688839745332
0.030481963360343194
0.024936637703789913
0.02610074060867658
0.018828379301838807
0.011064985802367833
0.02075708499662514
0.023939847263319297
0.030539446080788835
0.02606180812685084
0.02633809973799639
0.013310488660837432
0.004865235954758252
-0.008333152288997565
0.0024038872365681704
-0.0023786314417526605
0.010801386928607734
0.022510351194534064
0.022736722315116826
0.023574289521958013
0.015586374841670175
0.003749669264695464
-0.03662292930102833
-0.05102869679451926
-0.04185645333788372
-0.03437982889838598
0.011520377432138506
0.02004049095957674
0.02658647829701031
0.021789127119924902
0.01624574760193759
-0.020681518735907643
-0.05912272096672859
-0.23553571653597533
-0.07576537069465368
-0.010955642555246002
0.013322098268124192
0.02942590387912764
0.030069831477821808
0.03456180353248972
0.02350558296268762
0.01563119531822299
-0.16831861692618072
-1.321872983383456
-0.1712720053337011
0.04961545061202632
0.08290566560208892
0.11291903680339405
0.09555891514677856
0.09324253682045075
-0.013655210498837016
-0.10667318413960329
-0.05361488116584518
0.010354106450248358
0.02774796464858093
0.05140819399746692
0.09618011453500533
0.1394727437109319
0.162526684562804
0.1511229542361463
-0.1435060823330952
-0.20728181745171306
-0.18011708095901008
-0.07595878588613894
0.0024337458854092517
0.06501053127687513
0.08658329449662985
0.15008838614788592
0.20876553265743694
0.028711719363198437
-0.7618304230337339
-0.6159967299826765
-0.18989265263606378
-0.1581454320767741
-0.019046889676274836
0.035407023800440134
0.040387607714832414
0.12082357218581438
0.10818177960070598
-1.4156181368469622
5.098589753657072
-0.7103371325266552
-0.4911822135918467
-0.14576074714625684
-0.01700457551507041
-0.01084210664321835
0.0594163258931393
0.06837093943387679
-0.05944765060943485
-0.16232511485469872
-0.6656707927471026
-0.5616901192871973
-0.2546114579639395
-0.14943130517857836
-0.008362998007780608
0.03366810198244507
0.028759247049399764
0.04781969438051764
-0.024016975067988472
-0.06264176725235863
-0.2130667556722826
-0.20484695893293464
-0.18995349429213976
-0.06301475490788387
-0.01794700411719436
0.03473849661251589
0.0364086566339557
-0.019018508032485084
0.009233110629716075
-0.028166866528263064
-0.03483257652686964
-0.11475734420593775
-0.029291985422379915
-0.03231662973532532
0.02787744626621762
0.026355998644215013
0.06935238569945061
0.012371176895225636
0.009431449399565332
0.01850405711771856
-0.017514050458399197
-0.02908748421684452
-0.042579189987284084
0.0001695633948251129
0.0001274430643800461
0.05433844065409807
0.07608743919817637
0.06806155153990515
0.06251558498370169
0.016304762217994328
0.021354902491938606
0.007642138382102454
0.0029179987415914243
0.007827414657642742
0.02568657205996274
0.0895237891666441
0.09540176249773576
0.09802564472091735
0.10797776421564073
0.07859736438078554
0.0126878805837689
-0.017375635000528425
-0.005153226174433705
0.038031604035870484
0.00946069878184443
-0.04860719819445075
-0.1304999573867201
-0.23766245141188533
-0.3804024622849342
0.1608770852724468
0.08300770339060898
0.04692117632595792
0.011240502276257912
-0.00917576620707972
-0.03288559962942318
-0.0544817071035221
-0.08780564912217116
-0.19367996536631696
0.46110738771844256
0.25875075863209734
0.1498631442154949
0.05114619521275953
0.024254719037729546
-0.00707562754717425
-0.020627822866072537
-0.02808287642140732
-0.0440634338873905
-0.005513000270553137
0.18033652083721036
0.1516367225535923
0.09970628283036122
0.054962958701558935
0.017735947807362352
0.0037849517963152437
-0.01712326806870184
-0.021403708906773896
-0.0074347919550460835
0.0021008125041154417
0.10567621463747914
0.07003787945509019
0.06667095868638248
0.03521101132859632
0.02192522918399286
0.0032034385896852744
-0.010618087644319261
-0.010647005894656319
-0.0067951597404833025
0.008803655330783873
0.0310764097706543
0.04688266862682225
0.03389916258479581
0.022688393990287187
0.019189466068461673
0.01149635514110491
-0.006989170544769389
-0.007744376218653798
-0.010313656846335199
-0.001004040601366522
0.013863764521534799
0.016153553747073172
0.02120901118685827
0.009775204000530998
0.01232770398343103
0.006022399887979503
-0.005646093847859612
-0.010853259073444147
-0.018041324555394186
-0.015451919522944387
-0.011568779634609226
0.0032798168637927405
0.006374997245994129
0.006475340508424694
-0.0017782158849326015
-0.00026977413000795744
-0.009911370659978921
-0.026575274394942332
-0.031779426592760306
-0.04222463325486623
-0.03117608402058596
-0.013841336103061068
-0.003212652250672052
-0.0012148213996179447
-0.002781829135890676
-0.007413653503913328
-0.015522417970455674
-0.035292793189396016
-0.060691679193032554
-0.061524447023193235
-0.07571502970071294
-0.01163186177919893
-0.0071448402322278155
0.008465225608964138
3.811751821047578e-5
-0.005713968851723161
-0.02805574208446725
-0.05228556823628534
-0.0908688426578036
-0.12936456664726584
-0.12032927098063617
0.005990312043706511
0.028387673708541356
0.013634243631884826
0.005646557174285799
-0.0124369971425083
-0.0231823801209009
0.043791089773295724
0.05327525734250848
0.0599820821875984
0.07350218610756083
0.07658550172621961
0.08049104082987091
0.05173273213770492
0.03992408365754643
0.034380821962891814
0.04559746378367089
0.05178037385838336
0.05346777017691429
0.05568509828982752
0.05540420241838057
0.0664118267263957
0.05738364572898001
0.052631693324205454
0.04280655315096758
0.04121572443436323
0.04036873100600814
0.04784280763159222
0.0527802330955374
0.054601817317564895
0.05916959385586604
0.056142983384907114
0.055545884973542986
0.04138882288386567
0.04344553769851044
0.03751830734961765
0.04053302797111216
0.04707305012851045
0.04619821484306304
0.053164355185616644
0.05422947607849589
0.05795398450262509
0.047819292884654196
0.040535396434179596
0.029912280992616884
0.03491519593012352
0.0370152019043326
0.0420579065820762
0.052831205884123614
0.053538934703858246
0.06096189346647823
0.05893506933373151
0.05459619616406691
0.01574659728290453
0.018679635438606727
0.01832171205586562
0.03381242890150948
0.039569669176841585
0.052174824180578006
0.06586062162623585
0.06655401366189279
0.09487806001205625
0.051715758961704036
0.007606097198618912
-0.029955065867679754
0.005927498989916514
0.019833163664759554
0.030886754577856383
0.058967593543183074
0.07402937339375719
0.10628382688695868
0.10934454722417085
0.24066359438497473
-0.17430385622973024
-0.07059686670733209
-0.03312515630943636
0.015093558643145691
0.03802070387795096
0.0538144351917462
0.09034966517231532
0.12436253341351551
0.3152414470130501
-3.007956228052669
-1.8310829847649333
-0.21760065216830077
-0.029387795517995682
0.005890722934952291
0.03670955017229487
0.05957747182862855
0.07755912925589378
0.12331660929202294
0.15157547094946702
0.3150134117963691
-0.12309511804772096
-0.004296436278217553
-0.008144359831177762
0.0256099182266618
0.04409034732185079
0.051201865890866685
0.07141506354032816
0.08302563638966745
0.11377524460907339
0.105315033723901
0.06503501145254915
0.008244744661025778
0.02772806368139796
0.033398560506647405
