-0.0006388635446850096
-0.0011122611661021353
0.002761651046649395
-0.009905938036026612
0.03971617088403202
0.05238525258753784
0.06530491272165906
0.0991484793867265
0.09813302496783786
0.2126656446028788
-0.2140002558241956
-0.0695332760289474
-0.042631415363146664
-0.0017387192642213589
0.015547266776468067
0.031377687901743195
0.04377836665576369
0.048193059273518524
0.05888350446018116
0.06299993705006206
0.0792626025865143
0.02332860654477404
-0.015412853961411059
-0.0345424403886088
-0.0058292050678706835
0.004391557274366373
0.022159984316556715
0.029311209024876644
0.03844459773858623
0.04478051263944354
0.04486644917616577
0.052722117195524
0.04936954445804249
0.03056224117931052
0.0049613080873730795
0.009050869526041332
0.00576020405518989
0.01729867749691379
0.025778922089136482
0.032213912419202906
0.03800724046487497
0.03646945115098924
0.04347383063175757
0.04144443896790088
0.0384225902210087
0.028414536294446492
0.025995204183664133
0.016289240808508458
0.025060355960673044
0.024375722134180253
0.03000521507498935
0.029894465007731953
0.037167851959107066
0.039618638002621616
0.0409152562685725
0.043026641001066845
0.03573709090584156
0.0360551750457506
0.02505177112685204
0.02575825528889019
0.025619231138364784
0.028434728984325038
0.028145093532568315
0.033691105827219854
0.03836202187193094
0.03942013721928322
0.045230419873099635
0.043723901727126896
0.040804276805726424
0.036200932133186085
0.030302367564453796
0.026771069709734207
0.02909404510457424
0.027972393404197785
0.02983096467055768
0.03431671369574999
0.03666159724181679
0.046074256103260484
0.042791610142314036
0.04728608485374693
0.043628503820803605
0.04163320885104805
0.03013466055976134
0.031411807134900854
0.02831200995528833
0.03125311842515219
0.030180222194440887
0.03402409987225436
0.039354343761291224
0.04235536759372774
0.04768555468086182
0.04604773679829182
0.05274222234452237
0.04734238261464569
0.03947545337030227
0.02807114938103225
0.027349455973937776
0.02841174764096656
0.03253799807030997
0.03301739942143876
0.0409993651266168
0.0496829623142573
0.051199654225714444
0.06195108306046338
0.059419045252923956
0.05990447061033218
0.026418570665970767
0.023046724469603614
0.018206784995032303
0.026084314065784323
0.028152956273833192
0.033139674489402825
0.04410258161494101
0.047305531807463094
0.06153485115466704
0.07597350296191867
0.1065571170044217
0.07390117852580706
0.0321626195709306
-0.009127123208886296
0.010962602385406712
0.013949939657588771
0.022123309141429896
0.032504629427688975
0.04200555160547821
0.056166450800813436
0.07046687078079006
0.11689956350609312
0.1517213843523465
0.25747848353573044
-0.15513969688380475
-0.03010103264161463
-0.027779133348388413
0.006408197776357294
0.015702765287681667
0.031108833582479442
0.04408594037947355
0.05538266920492079
0.08111303954362929
0.11265146294457608
0.3090676027194291
-3.003315930856708
-1.876779868995119
-0.2216154283590669
-0.0446305017234337
-0.01143361662034256
0.016551521995094364
0.026135696291594013
0.2634930615515672
0.08420769028726334
0.04221517299744378
-0.0008964654376677047
-0.0090435230097647
-0.016608072861109532
-0.019559269862375245
-0.022467486462963947
-0.01592563586991845
-0.008091548959373333
0.028901077409598592
0.06314797025306816
0.06744736549328699
0.052095729938668886
0.01699436622182768
0.0037877891792412375
-0.011120479534224079
-0.0138889073569249
-0.02107307582948682
-0.01896121278712784
-0.016032621671830817
-0.0029859283563010387
0.00865144591717137
0.04601172739714763
0.027797029458896186
0.01242293791999086
0.008007319379660238
-0.005558959511439833
-0.011136097051397916
-0.015221812045601102
-0.018395662910021874
-0.017224574618242866
-0.015070603316257812
-0.0076074718334120705
-0.00046793370567893176
0.01261800142417709
-0.005410206480948476
-0.001360171098152024
-0.009918704864373469
-0.01294081043459993
-0.018495295363133796
-0.016000975346016237
-0.022431898155280853
-0.020130755017622518
-0.018151313751277345
-0.01340263036776489
-0.011246376239011568
-0.0036538444351968736
-0.0173650465066636
-0.017700539494209185
-0.016871857121234353
-0.02247439557148638
-0.021931462707625044
-0.02258515066923038
-0.02085716900809948
-0.02060669743286045
-0.023189806583992948
-0.022301547712097695
-0.017447831987279463
-0.018480561184728492
-0.03046425777539557
-0.026241091459620405
-0.030504373143137073
-0.028444521713610636
-0.027565680299522728
-0.023302687766199308
-0.02302050683842049
-0.026363817777715327
-0.028816403283860863
-0.027320567988115125
-0.02939290865156423
-0.02909004152727926
-0.043925466127852676
-0.04083454600259189
-0.03375890631331057
-0.03458643545487072
-0.02773324311196555
-0.02835616105123176
-0.02577939668916378
-0.02867583833119259
-0.032304628453927
-0.0364634736493506
-0.035660204547372565
-0.04292815750435195
-0.07162565368297723
-0.05997526849300731
-0.05038687564896776
-0.04075036841497458
-0.033771522674335724
-0.028414537996563616
-0.02882456900360704
-0.030708548991130485
-0.03884483495218236
-0.04089069275618684
-0.053304532408643204
-0.061252809687147095
-0.11121104014265372
-0.09974397705368769
-0.061044574241467954
-0.04672352177182115
-0.03440452347810329
-0.03178935355484924
-0.029757886397020296
-0.033474934408524504
-0.03577821508805394
-0.04849598576695267
-0.06548441735251967
-0.10430949551118757
-0.2990265850137979
-0.11930617880051494
-0.08142671163903911
-0.045072344875523876
-0.034264545690825925
-0.0289416055004927
-0.027681463487542857
-0.032736031123799796
-0.04094694824155178
-0.051055635768479976
-0.09322019258289338
-0.13294658210259488
2.3067454820565034
-0.23190053588600373
-0.044110907287280544
-0.038972006153611516
-0.02746556899563935
-0.027093405528986193
-0.026853848712199504
-0.030438069217398802
-0.03604100702800803
-0.050284696178238435
-0.07161889470250901
-0.24362687385865403
1.363698114094794
0.16247102906552044
0.014205030623305123
-0.004563549769056157
-0.019136297398925257
-0.020603655950407706
-0.023787289846030863
-0.022929247427834608
-0.02437568791710811
-0.01356593437672847
-0.010432611492159191
0.170300414749922
-0.01467976618037315
-0.01118300420885534
-0.0031276539132759867
-0.001136751011259585
0.002116954436233975
-0.00042397670658175573
-0.0036329497409105073
-0.012771652741284752
-0.014503562193986594
-0.014200584040777836
-0.017407676828138
-0.01621376702938068
-0.015432080623681215
-0.018368533156214683
-0.0071761021990097386
-0.006421615995274984
0.0006587244566368307
-0.0011614867018859575
-0.0036857683106417275
-0.019903001403186054
-0.0282827298067056
-0.043642917330172185
-0.02851454492380444
-0.02733257024845967
-0.022326370773881575
-0.015776423101804743
-0.012059602644332392
-0.004506552621170079
0.0031096872468652694
0.007222788582355974
-0.006908110782951806
-0.017508503185930908
-0.07051646877467278
-0.061303372620327146
-0.056768885946235484
-0.03705728002342916
-0.017528965937248116
-0.015525875059492829
-0.006528429507868508
-0.0031648430696788812
0.006526245522047302
0.011239703743108708
0.021989003164890702
-0.009446813406598434
-0.12028655590375568
-0.1267377801718915
-0.07870354113237041
-0.05340300686941341
-0.02674084516695361
-0.00987472829582357
-0.002191450378397458
0.004267192240496539
0.009033361229026543
0.04394285957024193
0.07112787747451065
0.12521275713533617
-0.3595170668921114
-0.23373600550924467
-0.11202956940005314
-0.046835135746314864
-0.01870049008048034
-0.01298338330471602
0.00027047251706709087
0.0030423186375503446
0.024061615566251696
0.04856341300964194
0.13022797886751172
0.2427333202273379
0.4552004816622596
-0.20682670535548156
-0.06335315485267694
-0.04864798228559764
-0.013941157380618697
-0.004892634901847879
-0.0010541208716019724
0.005392353161157955
0.016981815281736472
0.04609841849294807
0.08123097775586055
0.1308830163374846
0.1897671764100048
0.020936969278398124
-0.019650607429933138
-0.01676022562075778
-0.005569292303656343
-0.00694706725803886
-0.00011823458063625592
0.006136560078060703
0.019579381186706813
0.029989946516947776
0.05842977340056302
0.06608907077276144
0.10672499051895457
0.024559673117525237
0.012199462485345605
-0.005455574658389605
-0.003618091421138476
-0.0003569822590574693
0.0011325931307860004
0.008874115372808382
0.015115380904379848
0.024031818826514353
0.0277269231844223
0.04887882257817828
0.04130962001307716
0.022192386139239004
0.0048673807657157635
7.932859289910051e-6
-0.002160050411167414
0.002838296611215754
0.0017258551683724914
0.005527724221915936
0.008622252641241366
0.009570551277057292
0.016975381703812544
0.024258155941640606
0.020929421304200307
0.00980194375006897
0.0003268808979365119
-0.005636290811046043
-0.001257397406308892
-0.0007058748729828034
-0.00046031008139496956
0.0004775918265176402
4.6467866552056796e-5
0.00745617443629555
0.008387715181880659
0.009540665935632577
0.0006161985319960547
0.0038442320712546597
-2.606669926008212e-5
-0.0015460088141981752
-0.003490286685306315
-0.004532283782616617
-0.00311886251728771
-0.003996098822068761
-3.356221904476453e-5
0.0012900615370759778
-0.0005528477160059496
-0.0074727643520402795
6.165707927183336e-5
-0.003458775783261889
-0.010638551842656796
-0.008733918796790962
0.007463181815265622
0.026904840900665028
0.0716534341243877
0.010355752593324809
0.012420711903566476
-0.04891402262497675
-0.06152660506824896
-0.15422005549535966
-0.19618434287890915
-0.26402914098423697
-0.07306578640018842
-0.05866951653327625
0.019852953524670713
0.03226346736795655
0.03692888259690706
0.017934312793467556
0.006559173100920374
0.033997554406781955
-0.035875526150663715
-0.07464786471715303
-0.16183693260438572
-0.11407369221161624
-0.08495914702855782
-0.03957771125708759
0.07169516287134103
0.036885059187503726
0.04853121508333436
0.02555085370727888
0.02761418099554917
0.010237557841326945
-0.010688092018505822
-0.029813803188512455
-0.014248050476762317
-0.03555045001462352
-0.02796249436999285
0.0014543319239950802
0.04550827579718964
0.045331390922056645
0.05291094135236387
0.03202544335484589
0.043496466770657244
0.0155413514574809
0.044040659295385594
0.01300913159012766
-0.009929249038981767
-0.031406220206572244
-0.011431506033770343
0.028122660696132607
0.04831574834088738
0.05357352923836105
0.03857552534017685
0.03587178749165368
0.03608436067451761
0.01622700656058028
0.024154370895767004
0.011358383875152818
0.02296055639160212
0.019915080705602068
0.026033445105623103
0.03848122208892381
0.027131495923391605
0.0680208367057256
0.03317930903591824
0.041627722039591086
0.008930154274219686
0.019055121385623645
-0.006745258680314504
0.0035483168049169128
0.02931648787092745
0.07670837952481914
0.048110211791418424
0.05367552249034746
0.08446895385035486
0.05755189107258149
0.05107420881377978
0.03824501733059152
0.009722072016497229
3.730738002024692e-6
-0.052139846937561046
-0.02904670492970034
0.01204234640318002
0.024095607003912466
0.050575875184462125
0.07975734686945157
0.08555000750029891
0.036567041485569225
0.0555561514168282
0.04525237346557391
0.004099239729904371
-0.010640307849043096
-0.06452646960719433
-0.03213253865698997
-0.05870588484729145
0.035883879485031654
0.12217159818019971
0.11849874230242818
0.10572302915961468
0.09179122881190269
0.046357298746554296
0.035429820248673326
-0.03387558652559254
-0.044780418036843475
-0.08014135993715625
-0.15686120152228306
-0.20278035998459812
-0.14612493345193317
0.11670042951196259
0.10233320708521286
0.10607516782328293
0.08840639014101512
0.06527726151993185
0.03651066309695622
-0.01412808583788541
-0.05397576235866547
-0.15783053354395965
-0.2005488507913486
-0.5756745142128655
-0.8851212722845312
0.07947648149566863
0.17647717399879848
0.10308725359440983
0.10035896602850679
0.04955375745123271
0.01620242298577132
-0.009930866140477786
-0.10793118237929164
-0.1640508693118043
-0.4978113205040479
-0.7367349121279614
5.142049809698127
-1.3759082425316576
0.11426986791808763
0.031050651933461893
0.04912536473647986
0.03686643507696813
0.006576791105230601
-0.030422903364460963
-0.053585628224831136
-0.1429727440571729
-0.2543027999578681
-0.6129699753982079
-0.6561848235672993
-0.20602148557604044
-0.04774122779209254
