0.0014734798438773833
-0.00442019825287523
-0.00048576054083588146
0.31330942930089634
0.6078724665940709
0.291511568368798
0.32019699878571956
0.22477238823545856
0.07024000682715414
0.2615595466932804
0.2500896813214553
0.16091966288367376
-1.5116279077972044
0.060064032121827225
0.24066064728593078
0.48545113788018573
-2.7096672183042934
0.6669022427161951
0.2804453167980707
-0.13583447943564816
0.07669584299589843
1.0958706879596376
-0.20343483500654105
0.00023511720651259583
-0.20302727983795668
0.15802561621287556
0.1765227540367015
0.11040007149519658
0.6151628667902397
0.4708619983387506
0.3174796151833058
0.32899377835560645
0.5907889402115416
-3.8034819023820545
0.4507412078776104
-0.3095639275827038
-0.2636309703855535
-0.23171286537438532
-0.30171860842738885
-0.3762839060175448
-0.05830650624967785
-0.23769897397394646
-0.32110190581944004
2.278725128463329
1.1497334069619791
0.07621393168010214
-0.4644794321835557
-0.4725234663786568
0.07975172461973278
-0.2498498906137819
-0.2908537386663965
