0.0005040034493699384
-0.018763904171443486
0.00315521049991196
-0.000994931672236889
0.01641419964463773
0.012827914240597914
0.010594831620882848
0.013971242090968457
0.015549981642845314
0.013447255633643476
0.007114341980980989
0.01130759653246207
0.009749287013409377
0.005357669606522552
0.0009343219203731494
0.009008904897505391
0.010548964130915616
0.017065467373108472
0.01641970526996106
0.01110497876726756
0.012658287267448602
0.010642695595438734
0.013837732703443888
0.013418750173731177
0.009092744248652211
0.007827645050609164
0.01047621135779743
0.010124011143814358
0.009188967710728496
0.011630031435628567
0.01583525456181171
0.013553156441987138
0.013069054289195138
0.012827437288896366
0.011358737333767422
0.015182651899947249
0.013627565503664141
0.01297850074308107
0.01094642072902107
0.0063082921300483385
0.00919782694169988
0.007790105929465412
0.004564547096120567
0.0075418914512525165
0.013658597029914054
0.013656625060724938
0.02311263130889746
0.015589331813153104
0.012750587958583658
0.016803004173632556
0.019462410683006977
0.015642080774352068
0.008999881172503601
0.005085998866376772
0.006030883560138617
0.0004756335313049662
0.005718932744412066
0.007264306476158165
0.01790530836113504
0.013728627447810185
0.020792062827206453
0.021861363275637143
0.018277320976451253
0.018893693884485183
0.01614123090072284
0.011084323127999816
0.00565590249882861
0.004718460919461695
-0.0015300560735198715
-0.002985210822304605
-0.0012132250805996997
0.012097839259492973
0.019199465804914648
0.025545016921235213
0.03842243929920157
0.03134193312394484
0.0264242501332335
0.02084763776362508
0.017148532897481267
0.008788577834785476
0.007139975772741616
-0.0009143227105072257
-0.0028773909554928134
-0.011559104270884933
-0.005810220037456725
0.004708399597429658
0.039702551758567683
0.041441470007713165
0.05750226871520787
0.049485200095161046
0.03221149700809964
0.023359185007858413
0.018844111027009464
0.011261221635109595
0.003993792715601906
-0.00016530962926794373
-0.01716628059386512
-0.020472178800065827
-0.04233134972275601
0.009072341678935083
0.07577090275641184
0.09790224627196938
0.10168527510977331
0.05450057894154284
0.040589036058080764
0.02587070185308052
0.015166794837214717
0.008852572287382928
0.0033672801196056963
-0.004021836795724287
-0.021063739786545712
-0.061205985996367986
-0.0811344241103592
-0.15481313859505227
0.3284202163962266
0.06935042491798668
0.10610992892567213
0.06802455689188544
0.04236195113327028
0.026586442669346608
0.012245908604662575
0.007819140738728124
0.0038278761711208575
-0.007296975398436268
-0.03397834703823075
-0.06060142227611737
-0.20294684064717952
-0.8218778294810232
-5.415936824976927
3.499183116834222
0.09450939773598008
0.05770732456446656
0.044199293462513806
0.027097427771017008
0.01399108197703626
0.009734307991811532
0.0005976481374807513
-0.008466147017736817
-0.016281410599741863
-0.055462546151861074
-0.06375437327916586
-0.114606508038776
0.31932355514190736
0.08398783650984752
0.04705900458433421
0.04123380803009194
0.02900156240862636
0.024886657937128152
0.012743882849593366
0.010814967843841896
-0.00019587527303404782
-0.0017911898282577205
-0.013442614261271028
-0.019803930548423422
-0.04185852700006856
-0.0015658900625633654
0.0636538785248947
0.07624075120800065
0.040777203056904895
0.0314630491588499
0.026804615031929373
0.017486519115670524
0.012230018409242824
0.008631798131374034
0.004124190372491726
0.003108387948708359
0.004361707000784679
-0.005356674491058363
-0.004990882456612073
0.0008097627821729748
0.03774721378120703
0.03401649993567326
0.020344473623496902
0.02458883145189605
0.01925421627712597
0.018590732711188315
0.013796526261887439
0.00991757888289358
0.0014180891360527496
0.002246969262463045
0.00297898600579192
0.004026499269421185
0.0032535906831250277
0.012240106023304841
0.017957653045141412
0.027352752675629175
0.015219801504420791
0.013752166287563518
0.016842825650573972
0.014330487422533508
0.011393084146213135
0.011055319330698653
0.009051753572469904
0.005913633770693923
0.0058992068467542645
0.008014334380067142
0.00673013322862958
0.010803888849690716
0.015353106479990927
0.019731442997868335
0.03126388229558572
0.010671743377917316
0.010871194650594081
0.013903462985224819
0.01968514737750107
0.010500488104653722
0.013832706628947715
0.016390096477465612
0.020422401691109184
0.03448125148102889
0.038312860796537
0.024726227570478793
0.02387121037383335
0.025166655880793677
0.028844348050575827
-0.0002483585553907236
0.008996975534493645
0.017381025714363948
0.020691990770353948
0.01350307231090811
0.019255575999151987
0.02561141930073354
0.03826067385089355
0.035879590562182706
0.044272373532371866
0.025472080242340888
0.03064943538971813
0.024364366714135208
0.03810957030518809
0.02301044527804649
0.011461305616186614
0.019736807732648794
0.019463403220825216
0.022238268179961166
0.028342252178526928
0.03374453364772388
0.04402866911106861
0.0412952008591349
0.04244392233112858
0.04814653302982421
0.04938587069364717
0.051071945094559354
0.026520862849531656
0.013128386096249015
0.018092514123995627
0.017376756929156946
0.03182973723237124
0.03273773740041218
0.040543685673511416
0.042659893347865324
0.05911519376512682
0.053911312225140985
0.07191794120841886
0.0862658457495266
0.10668096406454945
0.06709326310115575
0.042125736553466575
0.02425607089236373
0.0051596969748939564
0.0250199888571948
0.021331814669527546
0.03211994174043506
0.041915445508987986
0.04043259943321981
0.05150138278136064
0.08275304804046202
0.11631840149261924
0.2085360270424093
0.19532564585483334
0.18905151511307403
0.0020049149386060067
-0.0018627680449531954
0.026339950954688256
0.015814354175567077
0.03752450259607541
0.03636684421119335
0.03348519944789812
0.05501233222169126
0.057725603457787426
0.08627634531025911
0.17909101812632092
0.28320976361487243
0.6061801687365048
0.18207898079798285
-0.03113808814854828
-0.04522020696318443
0.003055613167113825
0.016957357126233544
0.015046491375198694
0.01316243293377812
0.035787127135180063
0.06055087404352404
0.06297654346276485
0.10612724458059197
0.16479476576064592
0.4351830750025884
-1.023560896532806
-5.28401703830098
-0.05835163095132072
-0.047249456158041284
0.003327641600310659
0.00853944631990697
0.02112005090752121
0.013003742535241477
0.033755813710756005
0.031305618296562365
0.04578674134104709
0.07645652497700693
0.15527112155253542
0.2009452064520266
-1.3348310780060653
-0.35451153060940865
-0.034314805121758114
-0.00042325622954399113
-0.0017927232483383364
0.02137204433873043
0.013148789594443516
0.023562899467597955
0.016058550851410232
0.031374425036075924
0.04758388881549513
0.06809470140055553
0.10421172161358151
0.1685654575861
0.12000038236930369
0.10517144411177654
0.03878092519852534
0.007461190665368739
0.02378082989026061
0.015552128318552143
0.00939861003801612
0.0062020272824062535
0.017283864531872712
0.013402249988070984
0.02525757868798335
0.043175087723755515
0.071714978768718
0.08712517725602743
0.12112748738462918
0.04524682164011233
0.020801616809157708
0.03268098051163163
0.02293303687567583
0.018334973287697284
0.0026034488932739326
0.011512125188677336
0.013863277355539879
0.022877092282857222
0.02817365642434136
0.04126672708994511
0.048730245285814607
0.057232981727925195
0.033669567030202255
0.03864513906590335
0.026925273762538424
0.02932685226078405
0.013168816887295483
0.0005983062053480539
0.006355415784941504
0.014235033291298407
0.009730349483363113
0.018408833467349648
0.02087221247336786
0.029364448350084928
0.039715727893255386
0.045887327220437854
0.0325287043630954
0.024326128762628588
0.02056686627335313
0.02294863867142299
0.0007074913809314192
0.0031380247866302285
0.014111530612837025
0.010365064616629213
0.013252432062966401
0.026870733994261136
0.009563015991050004
0.023633193212841314
0.03487945238656614
0.046309473557315475
0.012330222174418495
0.021793087648669114
0.024035524933665203
0.012238345227538099
-0.001867112130646326
0.0028044488739867924
0.022730918238285006
0.005229608831914949
0.012772805775018797
0.02459171788023408
0.014695698699822787
0.034276333697339
0.03954648758361006
0.02386861016121419
0.018149917218473907
0.01731195190423367
0.013728427297269839
0.015001079523655059
0.01552744898074149
0.01818998260094733
0.017767654334789787
0.01853622740732405
0.0031486993407524692
-0.013791352146820254
-0.1397277575996688
-1.373830814082997
-0.17448799327871453
-0.012711118373592071
-0.004063971843247038
0.013780579625061011
0.020902393903817977
0.016761427651685586
0.019013191400565024
0.022514575233663413
0.0261340322500454
0.025673005239526172
0.03925648108811164
0.04388184599478709
0.2231752236829434
-2.210262884934844
0.2315506001941993
0.035954260287352144
0.030097296599238973
0.02132718888342226
0.02103553935068704
0.023775595070000797
0.02109416721429819
0.024466593739097143
0.02225981654966595
0.03498099623272139
0.036429398208332214
0.08407037498145212
0.12370900887841023
0.32341499981099175
0.13047264918732487
0.07872895383752525
0.0424218560514748
0.0346008554807315
0.025568347814015468
0.02302826506073865
0.023672999764217894
0.020745508765501047
0.023859529655370002
0.02919116955270199
0.04260327370600607
0.055921208261690544
0.09805247326960335
0.11367119454995595
0.10051356901244145
0.05587794100621914
0.044719298847137254
0.02909469412826012
0.02368665134591625
0.027285564437968896
0.0243941027090933
0.02496196215793228
0.02478396102742184
0.029538822962820167
0.034423923593783594
0.04974858452450565
0.05754528510299085
0.07406354817462577
0.05680903716345183
0.05444248983688849
0.03708886299809646
0.028750316032044556
0.025511614331199105
0.022451099948956547
0.02283832656722722
0.022818125338864723
0.023455532330618745
0.025471691644811764
0.030923144384343088
0.03372134617717669
0.04548743553959789
0.043569847116223116
0.04625057760984645
0.03839307596436744
0.032862445514884736
0.02673389610693013
0.021492063864418987
0.018749689253140057
0.021739654612449227
0.018714220708898572
0.018968042639959756
0.02459838986263293
0.025889693881900155
0.029185645009290273
0.029187382685313127
0.033074113534680906
0.0321502961613518
0.02756204966054304
0.02604818091389026
0.02793130003818379
0.01954240740319409
0.018252041367708582
0.02000535849238559
0.016788351338174804
0.019106610144676246
0.01861167192539791
0.02030878751996156
0.016419966727594937
0.02371128497093538
0.02178570356749474
0.023477615613509816
0.022477123217998697
0.023343033143229504
0.019504063697843677
0.01682021096082431
0.01869739700569434
0.018164759652606978
0.017308185143245176
0.01827221946044935
0.014529440663324088
0.016786786156515795
0.01401904480066702
0.013386450933472278
0.014880123608889868
0.01484421049688267
0.017317057785509748
0.01669262206083374
0.016681629813612136
0.01671371693041464
0.014525658688212633
0.014948101396387867
0.016865033901420582
0.015138701461897955
0.016119541970035463
0.012317332661952562
0.005939436706235879
0.005582004974097748
0.006842293462651012
0.008494911103730381
0.008345451195182374
0.009677679685736513
0.014494567388209324
0.010752015258442906
0.012295007250835
0.013739689096766946
0.011156559834650791
0.008145917864122698
0.012397155114599717
0.006384963525767489
0.004628452302392559
-0.00498563421042788
-0.004209422421149908
-0.006704330481042771
0.0012476484110113676
0.004542734671251637
0.008433981552107596
0.013144112909155738
0.014874021983273329
0.01014202243899066
0.011187557000937019
0.008177009441880191
0.00738804678928505
0.00030719529661392165
-0.010672491138073831
-0.02088007625283807
-0.03529280052345118
-0.023479079855561077
-0.012612928217306437
0.0009899035334691268
0.0030928264352995914
0.008329862453849314
0.015600137799146279
0.006754328525597254
0.013670319862908394
0.008164020942074067
0.005262854260217103
-0.006779257005203366
-0.018688137773032205
-0.05927235543558057
-0.07572733513317761
-0.07101004919589556
-0.026116253268310227
-0.009968798729179539
0.00448512614189389
0.01037702687396734
0.012032520250535708
0.010201109987283827
0.01467751515838983
0.014416678875001488
0.004422865190553102
-0.0006407724778177507
-0.045385550805128884
-0.0691836238580526
-0.23985933452844643
-0.09008578119708706
-0.05146073531294211
-0.008951887964206037
0.004078847113330113
-0.014446268180280502
-0.04077070384799554
-0.006097573844728776
-0.007132795376153841
-0.006492933076686223
-0.010265344087261447
-0.009503853391686346
-0.010147714392657435
-0.010566049598332584
-0.011889657539290216
-0.0126677214294911
-0.01321362682989222
-0.012153856840715137
-0.01554214823546348
-0.03107793298879564
2.5239901874129527
3.0697170406874603
-0.006229404052599611
-0.00487599302363599
-0.007689520284354792
-0.00976288260359097
-0.009720882057915454
-0.010985003342802883
-0.01210832203174179
-0.013005039884109792
-0.013231093832704545
-0.016429807421094143
-0.015310217905555248
-0.030989195983939392
-3.2379315370676056
0.02010379751392899
-0.003440289389771678
-0.00446749827862988
-0.008576189601938376
-0.009701358966096424
-0.010624239714451663
-0.011023729348113067
-0.011988305273986942
-0.012369034496847474
-0.014133531035382223
-0.014434560764410496
-0.022851690982134163
-0.021205634485398975
-0.02109473196834451
-0.0085791672019692
-0.0026949589533981975
-0.008181596064372708
-0.008482648583534619
-0.01024016892431684
-0.011297203210787749
-0.011197775972511004
-0.01093725079083203
-0.011613630222300874
-0.013286552292723576
-0.014585940085570561
-0.01596513800769249
-0.014991859866046443
-0.014125521923282463
-0.009760340344904271
-0.010073757814074212
-0.008865492796625797
-0.010072255897800834
-0.008807394685951032
-0.010591723284045682
-0.011058524181438063
-0.011181239957524909
-0.01075634705947317
-0.013071267952700376
-0.01291742621282942
-0.014580686246590877
-0.012590609462598264
-0.011364933043409938
-0.01154365318208361
-0.010532633847577114
-0.010725091269322641
-0.0098716644742433
-0.010075693405054105
-0.01051270507568152
-0.011476003677394658
-0.010993844193222259
-0.010932806408291428
-0.01138724079722805
-0.01214431534340348
-0.012283421240142672
-0.011305253077298068
-0.011431150349686456
-0.011751588631855402
-0.01120944749846988
-0.011461247149662929
-0.010988902314416288
-0.010119750845368536
-0.01054839956570623
-0.010734298933143824
-0.010860953254793101
-0.011751703806655925
-0.011641739215691439
-0.011643471462598521
-0.012024018214263566
-0.010917413540542407
-0.010596279583838854
-0.012108305501756629
-0.01160841207856767
-0.011643399647115119
-0.010565701234253762
-0.010954426170059699
-0.011010800828390128
-0.01071565340991254
-0.009809607340290644
-0.011096513325890945
-0.011867605470563444
-0.01150122877646529
-0.010504697083373203
-0.011199617925915336
-0.011024003843947092
-0.010436329547667399
-0.01070999910007828
-0.011072771860714644
-0.010428683420720066
-0.009913572212212854
-0.010151440432103111
-0.010781896216249866
-0.01028732980916914
-0.01051567632657494
-0.010795437503631801
-0.011900533142485736
-0.011276270383633288
-0.01134630917741618
-0.010965804326399198
-0.010907220931604142
-0.010356835482111394
-0.010695860672147598
-0.01044246869816353
-0.011163993618392256
-0.009839977677712566
-0.010757678737089679
-0.010477865689241897
-0.011330351767512358
-0.011589704729259685
-0.011807519257702702
-0.010575553576972764
-0.011017535863606988
-0.011645732791330899
-0.010467684774978406
-0.011072646185259985
-0.010609427694386846
-0.010615703289440373
-0.01089966325043587
-0.01070379905713996
-0.01033615361281979
-0.010695471071226478
-0.011349734726402086
-0.011651190759501245
-0.011249558355890355
-0.011650254194479855
-0.01206550232437824
-0.011604911157324193
-0.011371697926705861
-0.010739706221844718
-0.0110189807626732
-0.01006432438682407
-0.010298119122065495
-0.010665352536977748
-0.010321633008320856
-0.010632451865583892
-0.011401038022627933
-0.011767773253553701
-0.012006954808893917
-0.011930377589488728
-0.012529868831361356
-0.01324667660581453
-0.010604494786444204
-0.010839951468554656
-0.010227657324288209
-0.010319478251231468
-0.010529330440219028
-0.011819758004446922
-0.010148138084386752
-0.011812217832331138
-0.011247842667547164
-0.012063057215044555
-0.012252116972172605
-0.012840496350934524
-0.017301016813795735
-0.014489377059438837
-0.014812984638367556
-0.00888114419768447
-0.010286812933825922
-0.009622516959336204
-0.010513899993745166
-0.010653247117508514
-0.01108449517441119
-0.011520086183750092
-0.011841060758036202
-0.011970649754764563
-0.013774079412152229
-0.012404163612164534
