-0.0018932838625795255
-0.002813610313329445
-0.039476313358405644
0.001757263721146893
-0.09625669061044685
-0.03309738187696753
-0.0925117837427361
-0.10930287511786765
-0.19315060662069183
-0.13429091487398637
0.17588875042997715
-0.03025913634482104
-0.046344108958653214
-0.17350065361694006
-0.20938774383151143
-0.4083833130162062
1.1919369838225966
0.21398295219902835
-0.07887723308507942
-0.14003592161579037
-0.4625478613191057
2.6297042899882364
0.1811490531744286
-0.03365839462707181
-0.04487586041417936
-0.17482945796132934
-0.20778266335849513
-0.40200921922801036
-0.10009977750525079
-0.029974335146470514
-0.09113478566869726
-0.11561882503178594
-0.18928371377588066
-0.13607328127264973
-0.05287959554943435
-0.07098511180700794
-0.06991595471929872
-0.1292074853957187
-0.12921522420212006
-0.16197212198933073
0.10459133149081488
0.04914327547592524
0.06001439563962582
-0.037598556215848636
0.06480611651047652
0.03723593646938324
0.034088165157146556
0.07061017588296706
-0.04957627241993977
-0.07241843064822669
-0.21451674014633929
0.1435535198645829
0.11699313821697088
0.0021357781096775588
-0.006811842119113117
-0.27145630669644366
-0.6357801229274371
-0.022028196341767527
0.030721104945939947
0.07200913761689595
-0.048800761062815175
-0.07013738002515574
-0.19499116209650744
0.1424923037097357
0.10320705838120274
0.0524691131985875
0.051330845583789454
-0.034338182546755316
0.06224368014194176
0.041491680717332835
0.08068270112452205
0.09903315377733762
0.03178207191687653
0.06215727065104146
0.027950353521457565
0.11241164503994763
-0.015917482810874
0.10788123732654215
0.017643729944179988
0.15791512940728097
0.9700718175561519
0.08987757939013027
0.024551418946349598
0.09253877085686776
0.1901469986910556
0.03653067430647884
0.05585046320951208
-0.1275924046194893
-0.04261470292585261
0.08022667883699139
-0.8556974236811526
0.3987827606260866
0.061225764151092335
0.0310807239188766
0.061081412167601726
0.02369947131640648
0.9209930673543233
0.4668718931737524
0.2353342946475704
-0.02369680647703745
0.005334816444402362
0.2518502577756683
0.5110682457251327
-6.70224230665793
0.6452437002971828
0.20316034754125295
0.12064473837138841
0.06358557431212152
0.4843068560599887
1.4055006862880246
-0.03877392149657867
0.03443594064896835
0.17199806844659704
0.21197106748764005
0.210429999198415
0.484371248207299
0.24366358987093548
0.2223724555997453
0.1947622236060212
0.16241746224566286
0.40012865191527974
-3.3660261868007084
0.5127661871984234
0.16615997229206028
0.10070673509936813
0.1401387295559301
-0.08759100101726955
-1.7052438614704304
-0.21554461756188908
0.12988094197773367
0.12607614141975687
0.09127618606141087
0.09353686385132132
-0.18583444543320554
0.04909493385922226
0.07102284067307549
0.12120951614363729
0.14006872149224717
0.09364280352609583
0.12511556970089266
0.08662226409227347
0.1345699647982679
0.17211572517471857
0.15284996794651007
0.20058061308549377
0.1774833171903281
0.20260840149860224
0.15999894715131105
