0.0020292441997297778
0.00023543481093477796
-0.025891041057250604
0.0008822213096204113
-0.00640290198545982
-0.003579093620696614
0.0005021384345427465
-0.0026628656479227505
0.008341585718911141
-0.09153185440916643
1.6542357301379218
-1.9524428721245384
0.1247394596748275
0.0018298290152391288
-0.02497451759653671
0.03837912492401855
0.09781228392947372
0.15947578250634042
0.06743217993627064
0.01539658239506668
-0.018720299639166004
-0.03753855767473753
0.038996594524686554
0.02038724203341052
0.02971635080740269
-0.018119807122176465
-0.04743998424813549
-0.029052481994199963
-0.04360439444485401
0.016276300057731334
-0.014038917063131462
-0.01673868130247525
-0.03343584426706492
-0.07171004773048476
0.012071529657083448
-0.0013703328417333837
0.02116140186295465
-0.030327844337272675
-0.045197116751867265
-0.025025501077058317
-0.07512876076569765
0.19013803457454292
0.07035611953449449
0.013751685541758242
-0.49766158662638366
-0.07086745608676893
0.05727969885826033
0.06842117116355513
0.29603832348975667
-0.7664372535608318
-0.18060226733352155
-0.04443185982667793
0.004145081992148254
0.05064377834756068
-0.061789701011855915
-0.3911007572747477
-0.04610499566894922
-0.027180292983959617
0.041141381718644524
0.03777836330102951
0.05316244138106795
-0.07567333177701432
0.0020247263060816805
0.037138739172808154
0.04484795038970669
0.09075584996134212
0.06547050663054481
0.08244642776020632
0.06454963108440807
0.026486106075861854
0.08419360249684567
0.0985531787909197
0.17325513526807623
0.08866579732698213
-0.07411442685311846
0.020824811047981517
0.04893002192604526
0.15481558681330912
0.20002486873129535
0.33257074835949313
-0.11599657799043527
-0.20787353765182096
0.0073864074088370694
0.02311519792386303
0.0729198187681737
-0.08577791103095904
-0.3535189683854669
-0.24252250034530506
-0.12996048658020462
0.019539305396010065
-0.03298692686564434
-0.14658624309552776
-0.357092828780175
-0.403646753092554
-0.2098591319497274
-0.1108981004124184
-0.046366003752723546
-0.4115221577380003
4.447898926507384
0.3013839403747257
-0.2505676564669387
0.002474717520267341
-0.16774749096546368
0.12410703408834498
-0.6418669784573187
-0.06481222851692049
0.00870614611448384
-0.013212834716662205
0.049379997515590114
-0.7168677104025546
-0.26694241214945225
0.01939274744015559
-0.06607984308916597
0.09361156210595162
-0.025631397314600728
-0.11607912218060737
-0.032135414899926856
-0.0213029677601429
0.03125171611324182
0.05646170447134329
0.06738548509969809
0.028430843034103072
-0.04900046337691973
-0.01790230185645864
0.02493219788000252
0.07169107432211133
0.07522640438809663
0.023733130980386388
-0.16679600479641998
-0.0689792353249572
0.024238825152037555
0.08542866621782773
0.1166068558165004
0.05425454748865427
-0.40509750974536934
-0.10396181787069719
-0.005308944777495961
0.09758589251259049
0.24196675180774638
0.7304082001355098
-0.3624753323976975
-0.1415792729919358
0.00025778589589824026
0.056882605648309756
0.11231018062052164
-0.49068263706818616
-0.13231525338398825
-0.04935094878632632
0.005220144250945364
0.05749926408985172
0.0734766869908986
0.0032391401839592104
0.09737592148341369
0.08702652076371763
0.08826318228129429
0.006749437942863581
0.054316576491448394
0.05627033484910805
0.05083939368213827
0.06942311967565629
-0.013725660321657252
-0.030056279566633214
-0.02660047498122405
0.050652586381164086
0.08178270153669033
0.025810231540372024
0.5895923422233148
-0.23764844992866738
-0.051208582538457885
0.007375180914742215
0.10857459971044034
0.32798241254711824
-1.950535611008374
-0.6647755153502874
-0.20278782816169133
0.06284709694223473
0.18637734461798883
0.27419418323260425
0.30332132859591093
-0.12629566642485504
0.017051906396781006
0.06305945998255655
0.11397543507884708
0.19355075868379862
0.15764739153275972
0.06576311771186731
0.036642853954344946
0.08966864841581018
-0.037969876974618705
-0.06438752432920927
-0.013057960438516555
0.002544375469374064
0.07020705806728314
0.033931073723627275
-0.09037474795660569
-0.05242021527536749
-0.04811097029477038
-0.008550369606344761
-0.03319590956478635
-0.03474769396816541
-0.12780256439523183
-0.11979823800567097
-0.045493754907154946
-0.054597992447545915
-0.05420024078769425
-0.18711995340874737
-0.2532991583826449
-0.11333634102761411
-0.0850260223819375
-0.026957709853418197
-0.09680041219425733
1.1935153028053618
-0.5477551460534228
-0.24860036665731652
-0.03204856580092456
-0.0066383416856285625
0.12314209489989238
0.8834043166151486
-0.1937352787731223
-0.07737545281369547
-0.03743827622989522
0.06246707429856757
0.12941933593479515
0.19330845153610055
-0.011194804859174847
-0.031111791887083115
-0.08815834653241018
-0.1881619469561905
-0.09500339814397299
-0.029422443455309928
0.014187374851663444
0.011187205229485455
-0.0021443415789713562
0.000277549020035809
-0.005240397911410017
0.006905157986143148
0.04652379959662467
0.05109727419480842
0.08200189019245262
0.10128700499991804
0.09552085176940679
0.054759350624778796
0.07260964801947567
0.08977378416999422
0.166178366364896
0.34999234911004495
0.21661411796486504
0.1036499782597767
0.04214824964704392
0.053637892114105794
0.11287254865146566
-1.0075148832228586
0.48191484053194555
0.11584759328089442
-0.010543809337370326
-0.049059196584564375
-0.14592179568687394
-0.5007319535667957
-0.16723350735756784
-0.02484421021442485
-0.14154884471284132
0.07837675134660982
-0.001441609809492944
0.020936480665270204
-0.017027524467437962
-0.02164491323289195
-0.5299313773423263
0.24944550296938467
0.07748926625565832
-0.0014335803181555473
0.008022962955557196
-0.08553834382765528
0.6340277354936229
-0.28292981807027107
-0.08641817789137758
0.01282059690663989
0.0017460344120298014
0.044663668432140605
0.07899126701281999
-0.1100716794021952
-0.012067771368985866
-0.005236221602208641
0.03219538983495689
0.022709101829691006
0.002557280649055865
0.00344755112568745
-0.011871555019770124
0.018081433878042338
0.003926931704550425
0.0330425403909567
-0.0038930671230117593
-0.0018342070092323905
0.014765881884619908
0.0010957271568669009
0.008350029443243678
-0.018703442981705048
