0.0018501307769199025
-0.0012995210240406008
-0.11159536129842511
-0.08532051140005334
-0.044431957901770854
-0.011704683588962518
-0.004401223655481216
-0.010245683604059521
-0.038384928625094766
-0.082490729878007
-0.04205775795681311
-0.03040758479391275
-0.010502187758865713
-1.534433727948042e-5
0.002199702937136427
-0.002056135748958362
-0.012231096956202982
-0.030469569064993873
-0.006310071456812236
-0.006488888331765251
-0.00025381634326539985
0.00451422334842312
0.005232742392919826
0.005442349664442234
0.00021479030559627796
-0.004014985086186289
0.01565646776148954
0.012048808717306018
0.006633381018722496
0.00793088221066108
0.00876508836199825
0.0026562696283592086
0.0006554440574848466
0.007124444694000896
0.049875627040470244
0.033521664833019986
0.010190995601771486
0.008502902241701188
0.004748494326333618
0.002683792266621877
0.003008847955397273
0.00931849138453814
0.5115397854589099
0.03436119327478475
0.012512712314218839
-0.003680886258767537
-0.0009376108760476396
-0.007283666025787791
-0.014292036048995847
0.0418318715455681
3.6666683692629722
-2.6304329413908287
-0.0817026851537906
-0.022217740647035484
-0.014370247548398224
-0.022102165194753443
-0.0757805433474616
-0.07984205759476762
-0.4123347540247271
-0.21791101779077643
-0.07289803174844654
-0.02948045089628485
-0.014308204916420703
-0.028132262283907274
-0.07249568929169921
-0.1595538342662122
0.0962473143679522
0.06982302818903711
0.05026447002660605
0.041482234928500596
0.024786948569382614
0.038819107628771624
0.13884291946881153
0.14376155912857977
0.1488895690731148
0.07680465504023964
0.05236227014681253
0.027005193731627793
0.0002938214601218816
-0.03561837343979515
0.4965039251303741
0.25020308442405864
0.1767376499260022
0.08809907556785536
0.054993577934444135
0.04208518924048909
-0.05457664626607568
-2.3605130497785236
-3.4009592071117836
0.46696545959588454
0.1374170043015793
0.08219052249892828
0.0633153621983116
0.04853086191385495
0.05452216712170584
0.10821657650733876
0.4681684748295125
0.22295231760943793
0.09284098108375372
0.06919389143924251
0.057714483295804045
0.05735592715038764
0.056065439384416056
0.08953981307047322
0.14454382080809153
0.1311430250581269
0.0690672665677185
0.05791257434737787
0.054877496106354305
0.05160635227544004
0.058051526007196666
0.06735376163479435
0.09052631128823123
0.08187533579538196
0.06528925950599418
0.057461748275449476
0.0484993878300453
0.048811930760712656
0.05029276359955595
0.06270721739504755
0.07411776722627726
0.07301850113840534
0.0720646176736425
0.05742220675677689
0.051391479551190236
0.04528302349513496
0.04771344581236814
0.057388505175187565
0.086971079762602
0.08868199752102572
