0.042502256062666194
0.0002535142322026593
0.0011864674388481116
-0.012294158974978257
-0.061348784554256824
-0.4167796616789701
-0.633025667141987
5.049817517643054
-1.2647903757238108
0.12177981794326166
0.0339772652847951
0.011411809156391353
-0.12446958641693136
-0.13035890140801548
-0.5483500371962406
-0.8192905553352755
0.11944029770098502
-0.036964002414357267
0.027248418083345556
-0.0078002712485868994
-0.04795493600055528
-0.12501740413937287
-0.1709297856326837
-0.16715974252214277
-0.07394759613014179
0.05664682164556119
0.048202263717184016
0.029228215526907606
0.013235253863799212
-0.019324799670382125
-0.0986916032496146
-0.02352057871038793
0.03030436469581822
0.017080174604430436
0.053568235161652177
0.024334141216458986
0.01283472997619918
-0.00225163857708283
-0.002596769230768568
-0.01847789024969848
0.02166098202230778
0.024583693061402935
0.04909870137363859
0.03981924998501846
-0.020980993686443645
0.012584312618460408
-0.08366482940163147
-0.005309482249347908
0.04302762824101869
0.045716487711217536
0.020359542753313486
0.03281351598440113
-0.02033049284197352
-0.11814940992545703
-0.020113953849015202
-0.14895651651586628
0.08189122989104759
0.061735573117899366
0.07923611704024947
0.012667140152714945
-0.07203411987615876
-0.059646786046944685
-0.5775071853973022
-0.47540248152905473
0.10754289386682363
0.03847027514451798
0.07672433453425857
-0.028476478754121556
-0.03840197666114334
-0.05357759441023079
-0.03617747378310755
-0.029846589842880553
0.13842246658502821
1.2805662869960686
0.1562885646878342
0.0065304252109165805
-0.036133697136442905
-0.035938330917929716
-0.03797344722497197
0.0050675499265394365
0.05399688836336391
0.2531341767882938
0.0588489679931189
-0.023345076358382587
-0.03287571060482049
-0.045320283235263645
-0.033963550705282244
-0.025636433805146717
0.024920987337662417
0.03558325763799111
0.026742904228589506
-0.04213860352874796
-0.051795533988554375
-0.04767241595975232
-0.05235553420132845
-0.04223734736855115
-0.03975986914971599
-0.019416930551351297
-0.03811310073011639
-0.07336361163574122
-0.06137355058677677
-0.06541952213504554
-0.06309404219612391
-0.07306138189224369
-0.07277123167940794
-0.09146352165415231
-0.07190445850856195
-0.0933843609639031
-0.0802418049041996
-0.07060837519466931
-0.08170035029720225
-0.09230331251592476
-0.13970667023150862
-0.14590091487741744
-0.1381454948198919
-0.1285924977490771
-0.07849598462398145
-0.07996847447564742
-0.08032487540979935
-0.12491374487645149
-0.17425579549425874
-0.3721225945918042
-0.17774206879589052
-0.08450654847310031
-0.07370318369701034
-0.06132841569667196
-0.07812742345058785
-0.08419316409001797
-0.2624131439926089
2.2481417969354887
-0.2731577718155582
-0.3836386856751725
-0.16720615180421225
-0.11168343108437241
-0.039655048910081994
0.019622352355592818
0.2311696948628122
1.8684035497566203
2.7984523993807975
-0.1875046780382741
-0.150628984540214
-0.08958526757265389
-0.05506247383183312
0.0052375705071741755
0.04675052224835522
0.12792953287773895
-0.2841630386956101
-0.13842625854508356
-0.10873629784676837
-0.08889621390069705
-0.057665291140939844
-0.040553159574242256
-0.0075690346230859835
-0.047716195502653075
-0.09661153788307597
-0.09936267810594351
-0.10066692514997302
-0.07826017920873647
-0.07118734050586473
-0.0493211046195947
-0.04859486196185276
-0.05167548075169081
-0.0966173854791365
-0.09799792272918396
-0.08867293588813595
-0.08585731528967357
-0.06246743897131427
-0.05454489507592735
-0.05111151130459671
-0.07068302361105396
-0.07953102495656852
-0.0961600210427928
-0.09779773776932087
-0.07959537949430713
-0.07034619051862631
-0.048078586678804186
-0.053144418270092635
-0.05261021698882907
-0.09688133971391097
-0.13737054357459094
-0.10717401874479088
-0.09218048468553011
-0.06035093033527794
-0.03976778999495329
-0.011726656821770763
-0.045913821296124174
-0.09934023535304427
-0.1849907112981896
-0.15282676322943978
-0.09065975635376704
-0.058334097846593255
0.005958544803596219
0.04505719362176726
0.12706834568738967
-0.2866462330955639
