0.0002355463656327978
-0.0008433579410113599
-0.01950383697949247
-0.0007257629992233507
0.23035997716562762
0.275183620672426
-0.10293450864135285
-0.048196776956279865
-0.015957050809246857
0.035146777464390086
0.060659425219747445
0.13559394731578137
0.13865079541173803
0.08119862657111741
0.008556106217344133
-0.009088588251016938
0.018280734493896007
0.02620062031992213
0.06433610620473332
0.09276925476037282
0.06345310635439028
0.0610316580030322
0.008772184610980657
0.011559247810174332
0.011306887393006799
0.033180401963876616
0.039556112024647684
0.06469830660502617
0.03912628313730184
0.012383428563124013
0.009043401242740706
-0.004788931357011051
0.012067182067079138
0.0159731918490351
0.03475490374589934
0.030491474212103496
-0.008420343096976595
-0.013777811919846226
-0.04149918785091003
-0.009199551333477864
-0.003849934867153881
0.014785513622542117
0.016312711183937345
0.023316462583330366
-0.03185123008128602
-0.12705592741134555
-0.07467242608901954
-0.055182457532641525
-0.006804560217108759
-0.002531517368873285
0.020912560830654948
0.0029889356542326722
-0.0792015703102989
-0.3064629065598426
-0.16912624752439073
-0.06395147092981597
-0.04000365648735171
0.009750682372968441
0.014670772066521865
0.014861749450541308
0.26764458181352024
-0.46529272707185704
-0.3079190317326298
-0.13415767067008957
-0.019796508523266816
0.012053650374408361
0.05663873821967509
0.08095247860476763
-0.07939091448005427
-0.07980173679941871
-0.08476695487079224
-0.13413791931034627
-0.18527903111771712
-0.37212012931924526
-0.13469947769306087
-0.1119346402090494
-0.0686986488755524
-0.06682164490039094
-0.08222872440994117
-0.09377648017042776
-0.25757046743525375
2.3601680272632697
-0.25310721525657937
-0.06259076656646897
-0.030326494819755714
-0.05425661981938711
-0.040869008446581125
-0.0394673603902723
0.1482762510444606
1.3137679332521428
0.18783427056336527
-0.005702902152212632
-0.033338090590045985
-0.039227715284813565
-0.04082528312517929
0.00018476400537855396
0.03313740969685013
0.2192652233533643
0.058180135499334894
0.013310858205278839
-0.03725727434726282
-0.04605767611283363
-0.04025615342603956
-0.0319441930895252
0.010462904087255065
0.020234785328456153
0.01862547369556432
-0.025167932631132196
-0.05548156220482846
-0.05373419028756869
-0.057748271978001135
-0.048117603237911165
-0.04402421772811951
-0.028648233056179126
-0.044355512537331616
-0.04152228767432425
-0.06363776967001136
-0.06996617528812496
-0.06673292269553248
-0.07798030532418478
-0.07673635944879055
-0.09425116317118634
-0.07834369452812051
-0.07247846117630308
-0.08035310454353055
-0.07342543604215211
-0.08489913801540382
-0.09363233682197929
-0.14065800630929792
-0.1471797182302921
-0.1272606770613916
-0.08575943346363397
6.412459153575057
-2.0696089513631963
-0.4234234859415094
-0.10328762118766004
-0.018484707617077246
0.051828992566868015
0.0011860485551459469
0.2745987528964282
0.2715150984187257
-0.43567058204493153
-0.205665892506716
-0.08797261927575983
0.03416148853433157
0.03956668249476267
0.1455677619975546
0.19511716597760687
-0.00933966021208137
-0.07509880337612765
-0.092775488358634
-0.009351582638193384
0.03436074547446969
0.09248557822200335
0.09980019007955952
0.178657579516542
0.06400093663110773
-0.02955056542887338
-0.018453618749054466
0.020343668111469787
0.05817886662069617
0.06369885424554195
0.08173655472284726
0.08015613043901078
-0.02910073349670407
0.003705765753707008
-0.03247439732721153
0.03153866088109029
0.03660901885708624
0.047822411313604186
0.043469672440521155
0.00478887239467455
-0.1072433961928873
-0.11729342966841867
-0.013942327337079077
-0.0001501578486548011
0.02800111556621334
-0.0028544486954065066
0.000401800113891721
-0.10097491030493595
-0.3657803829984556
-0.2345962679543045
-0.137329017007204
-0.019054433248677297
-0.007801230276561823
-0.00295794938730485
-0.10240517136814183
-0.17930744408555632
-1.8352016041046992
-0.759804680763261
-0.19930703957347387
-0.07397878520692709
-0.00925400475731402
-0.03179029002567553
-0.06772832951772001
-0.3934435575043258
-0.09843748828457981
-0.13866914303302563
-0.11926312255364196
-0.06347368880981591
-0.0069164328119920284
-0.034940960061557766
-0.048805827026052406
-0.0758208179698514
-0.1430326482918044
-0.18172915713437873
-0.3194714497754259
0.12876573806479238
0.013749843480869547
0.0027132626672242595
-0.04726811062056266
-0.07663335606062882
-0.1441344676835594
-0.34714205898145123
2.48877649705386
1.4547553982419432
0.23584112878538868
0.028095845000405253
-0.026705638593416008
-0.09329142225078292
-0.12999882888291572
-0.1477307710467074
-0.2634760859505099
0.12378097217407799
0.06503778376810755
0.020111125984968732
-0.044069028688059154
-0.0719451295158355
-0.09067876817518536
-0.12047391532648906
-0.0794805901889695
-0.02976636996822026
0.01268904224450236
-0.02366086563692729
-0.04668119044226542
-0.0745505990322154
-0.08331600795520502
-0.0794464536121908
-0.07716453776597622
-0.04003457529023552
-0.03649221960842948
-0.03389593496213638
-0.05372508984056647
-0.06376375149883548
-0.07130938854743782
-0.08039257411768164
-0.0653223490229429
-0.05665994649329374
-0.041584874118264135
-0.045578799736948006
-0.053071902386570176
-0.0660790162091529
-0.08717611909857853
-0.0845059796702429
-0.09291438360294349
-0.05360682360452141
-0.043902064521250284
-0.044158814982914726
-0.05885392016546893
-0.06581317714613363
