-0.0007677992900500337
0.0012240965305544773
-0.0006044128264852197
-0.005436861463400892
0.0004259373102017069
-0.0007231154937465862
0.0007516654426443615
0.0005775036077754448
-0.0007074255731032519
-0.013298506468238441
-0.0026348205293283845
0.019348857899873208
0.053831750056155016
0.08709968375935039
0.10651449799340225
0.022687289335463375
-0.03672367286771492
-0.024641253416244274
-0.0072523018642234385
0.03087497188749271
0.08111824575125896
0.17073464013726758
0.3532445610718122
0.05537944754241648
-0.08171663517551687
-0.06859927505285081
-0.01549641146277991
0.015804457912655945
0.07896277654418783
0.31680419842386826
0.745215425138137
-0.49084104930465605
-0.17501366937644106
-0.05427216339397731
-0.034707343161024355
0.004798671669120305
0.006016315698215074
0.05151204786739023
-0.36016363292347925
-0.13922600098350438
-0.0800221473062902
-0.053856994222961585
-0.026021581402798723
-0.011136097144754673
-0.003805685410255411
-0.018084624975821674
-0.05217354438064763
-0.14802669098053084
-0.049445489295820405
-0.03039005013798165
-0.022793059709284157
-0.007629406135184081
-0.009086913023595844
-0.00787555732794945
-0.04849649978955991
-0.04708613649677458
-0.017273545554187173
-0.020100608651200468
-0.013385264729062842
-0.006985166190963157
0.0067811169012957015
0.004294922392565473
-0.002649593815179173
-0.02283944588676216
-0.014075603397345246
-0.006412605264150705
-0.004088779942465953
0.0036361553365406897
0.02417145315278581
0.03497101243631666
0.02725733476229753
0.00857541414774804
0.008725103655233851
0.0025718544278709172
0.008130375638634574
0.0029676859837364446
0.01059473562372189
0.004378862703277805
0.011822116307113521
0.0034210383683184104
-0.006523203601030031
0.006255423897699723
0.004116506528425913
0.017292801755841355
0.008357388694356552
0.01592312740401339
-0.0059759292563821625
-0.00041541878067096513
-0.007200694646570864
-0.004581311137026102
0.013724528024848881
0.01148132100877731
0.029654086965592817
0.0027343832170392953
-0.022358420666176514
-0.02443437283883686
-0.027707135772637316
0.0021275969078589753
0.005806633136165146
0.03368629753219966
0.043902103000916556
0.0938032633343176
-0.12073747360163367
-0.05262010386748375
-0.014794851124396324
-0.0069906676003793815
0.015234637683468026
0.014004691348266719
0.11909819505771976
0.4774323166063148
-0.471955670520275
-0.11107042494564295
0.0021939363482539483
0.010118598993354414
-0.0035327167041597123
-0.0014795291787887258
-0.03691433630379034
-0.6570190897919255
0.4134778242404136
0.07289053038458325
0.02818584781002686
0.004945384964861669
0.00652621367122412
-0.006696342712920084
8.294221385614538e-5
-0.03277029534792906
0.09595705726568565
0.031494232653042756
0.006708652899763063
0.00980023542545623
0.0024232666468306297
0.005821219459021815
-0.003951407726005373
0.01532976095396541
0.013403570159090114
0.02292304293056465
0.02949350842972894
-0.0025182671101027848
-0.0484044966506996
-0.0673634800728686
-0.07133472477646655
0.0010000121097726634
0.10909575344104289
0.08272156313490941
0.023498901616678173
-0.007413379915522665
-0.026575233271634018
-0.04483848571322747
-0.029465010182656036
0.008109396288783237
0.06388277753601673
0.03909845231576559
0.008890101169291826
-0.0017604775090874147
-0.02351745650622682
-0.025961836060260535
-0.026882288428559047
0.006909068512391859
0.02195394723982892
0.02779308830147843
0.011478514694073886
-0.010441533799936118
-0.017550861298936092
-0.030930794102455583
-0.021819525433061298
0.003022442832147112
0.02444732717332726
0.019757800221855484
0.013956029173103521
-0.006262740600364423
-0.03477798747600193
-0.04421039791310022
-0.053468583934853604
0.029478004587649053
0.03840081264242718
0.04212868718280223
0.031115766005518207
-0.014092232744336573
-0.042730294334023616
-0.0985940614205869
-0.11706856359422531
0.07205334127340914
0.12671957958160412
0.0662148399496561
0.036811749633518166
-0.005048664775562973
-0.06606356135464983
-0.14528116620066422
-0.24581501425259233
0.6063037075826723
0.31512936606445313
0.13798956911753632
0.047300634283412864
-0.01537060166252949
-0.05906837586465698
-0.12892103333481
-0.2680012095139668
-0.6404133460368105
0.26612438246550035
0.12438655801093627
-0.10202357644366616
-0.1943484846859411
-0.1262946907971724
-0.04887302664458005
0.007871992763035851
0.09682351572660401
0.02868078436206104
-0.0011354762183422868
0.007976176931221143
-0.03823441180965455
-0.022487238410201775
-0.010160812145026248
0.0930490206642019
0.09481206295526631
0.1005912317377293
0.054290729444563784
0.06492605268649011
0.0424556861935413
0.007700965851830263
0.017490492914440686
0.06158131759474145
0.11516965865832318
0.0965800160662787
0.07355228378304693
0.030324807054907754
0.012492892773584834
-0.04738989598945083
-0.03468533777437428
0.04116010456668982
0.0776938833252312
0.08682679308351555
0.08067445321602847
-0.002825607106729945
-0.22162507143645355
-0.08343047914186194
-0.13498633277668282
-0.037575156984652726
0.04466828100632446
0.08869030755565693
0.025619790935219065
-0.35662648732753033
-0.34373673719876424
-0.3274808652408276
-0.13004671277779628
-0.05800473464893174
0.04777000492930166
0.037123314031357935
-0.07122470419260686
-0.39847132234224586
-0.8986777572530479
4.156155342747725
-0.16526147690045037
0.031900253008422974
0.01090052774000179
-0.017512900783708256
-0.12290722199994172
-0.3243407395592087
-1.0237840274555585
-0.08754673725883554
-0.3545426417872051
0.055515488263331726
0.07124121765190466
0.007323919236346185
-0.12689270263389038
-0.02164302669359271
-0.04561591881527047
-0.09005572509550261
-0.09029914218384638
-0.0135854699034602
0.00036383399886899667
0.0014854210090728026
0.0002878975276976504
-0.01588994708441803
-0.07524406140944095
-0.22430822037602915
-0.3526636683047191
0.015366116089298538
0.02930574738121789
0.016096233500033325
0.0008162345254142376
0.010523566220290338
0.010521225599716879
-0.5168603194944431
0.9854761369699813
0.322543802978835
0.08846232120757162
0.045185198287289265
0.02323702611272055
0.004692777864359756
0.0019649447391100576
-0.058174449424630494
-0.019316909125039177
0.008060400134017001
0.07348703786454806
0.022446975196770677
0.01542729210444823
0.0004501604839929939
0.00019031028902752458
-0.016883629166445955
-0.027993055314230245
0.032769251089481
0.02422186330185296
0.017047190444619068
0.01157249077395046
0.0006263323453759568
-0.005586845986931751
-0.010881449325704047
0.0009189136528874634
0.0015294774112799
0.010214238530176252
0.007217933931008793
0.005321845320527275
-0.010127176824225604
-0.014351925439596631
-0.023144817887083082
-0.018855294075643604
-0.006542208592843212
-0.0009504385113420684
-0.003430269953310707
0.0010281366525511852
-0.009042812404663411
-0.028883518506057526
-0.031215964867501698
-0.03600334423281532
-0.01363550825681245
-0.00024591820835261926
-0.003376557187868362
-0.006350738936480548
-0.005031066085009175
-0.030873811424256627
-0.032665469342436984
-0.053437844387556784
-0.026450195797276945
-0.017623277097106798
-0.00018989000034231397
-0.003401363346313528
0.00829466924038559
0.016316356499125346
0.002798093095921793
0.015650119936490056
0.0013143832832099827
0.009307806195736401
0.008773550106549325
0.018220776157045517
0.03521164337531781
0.03847236889555323
0.06252649583855018
0.04982963536993889
0.051045816741032285
0.030594868675003266
0.031039679402672132
0.02368888712327433
0.04771203292148437
0.0881863987484177
0.10595885923063128
0.1373124339359114
0.07548458912449908
0.05782853497440587
0.0348892695153908
0.04243823253699403
0.0571463384639091
0.08359916390134373
0.26506017061176884
0.23661677205537518
0.1320578402970038
0.05490018537605529
0.041498401009211344
0.02779204345624798
-0.01090511332573522
-0.02981756493702246
-0.7439115274792298
0.5527275233473372
0.08164574390463328
0.04364752168573304
0.01526393387741063
0.017964565268958482
-0.03814767481641176
-0.10253727321467929
-0.3964050085100319
-0.2864189855023036
-0.09383184161093804
-0.038603060577451664
-0.007477982267918265
-0.020419346254359542
-0.03975505519176494
-0.06642810127622237
-0.14161767694160157
-0.13312288121960206
-0.08228904538733245
-0.027277412973100424
-0.01622536052721679
-0.009251873306568847
0.0438204734101383
-0.0004920803177017759
0.003177426559818114
-0.021998828438724694
0.006663345125783857
-0.05910960552535506
-1.2338742864097036
0.1250899069632384
0.09380145554388529
0.0486052019550245
0.008308623903404803
0.009598801159582268
-0.02169448774093124
0.17800322235492336
1.1033971492074037
0.2336101197888772
0.08323487646564061
0.029780355081705012
0.016222542531486986
-0.008735203398252404
0.002754186033843131
-0.008439670739011487
0.01648855840580753
0.08039735595591836
0.029157543797024434
0.023224507134903486
-0.0009154936947106365
-0.0030744741267853676
-0.0131254101346013
0.0004112002661790809
-0.009715138023431264
0.052580288200398936
0.014833606097897988
0.002256899328551774
-0.0007770087004306542
-0.013848830322936398
-0.009438176667892238
-0.0235096058151728
-0.002595680575485899
-0.0033111753587793664
-0.014987693635754955
-0.0025366740869625687
-0.015523805965712826
-0.011291189473597422
-0.032453516758446516
-0.02843861605532078
-0.04157314461443256
-0.01378676259984495
-0.011434894506525194
-0.01806857110894729
-0.012249504801977543
-0.029341322150498488
-0.030801773805337336
-0.06325740032272559
-0.046465128162294714
-0.04314749079517825
-0.024672936947574817
-0.0036082902896013955
-0.01780881221460742
-0.016259426669302177
-0.047300615462041715
-0.035145665958732
-0.20036821519550843
-0.029241038044565175
0.024877431647441762
0.04790357978765257
-0.042018763737422866
-0.7547089609640344
-0.13150469009986923
-0.10637455842759927
-0.038045498014270526
0.017400852433517865
0.03837446891873598
0.017759832748907887
0.01730291327305481
-0.07918334725234433
-0.08883114842989982
-0.07313695813979808
-0.00980858947547912
0.007214756596615591
0.03144335088291805
0.042793841253023227
0.017187040485950596
0.010631078686413917
-0.04196260089875422
-0.011973719069514409
-0.007413202905470072
0.027007795159603516
0.04514931046595759
0.04186539638032637
0.05682406854484645
0.024972150015526242
0.025467913399306086
0.0061394433860471435
0.02106564582284659
0.024168857483543502
0.045712919012975396
0.07989890579349207
0.06829012267316768
0.07749059673656064
0.035538247356854256
0.03744793375899246
0.026195521688326177
0.04892687630045094
0.07878016306287525
0.08906060040890228
0.13938059048064746
0.085999115574591
0.06421410502805734
0.024949889783239903
0.03920368890691073
0.04012861987546088
0.06471855677294637
0.1382751181742213
0.18723551251519302
0.3295204986577093
-0.0021959278903361914
0.018962054010589993
0.012966022033299308
0.0502107435915013
0.07283213280423188
0.08733386638484758
0.2599530466638272
-0.8953037153097344
-0.43555504004495854
-0.0744049184417659
0.005003771089377289
0.021842692672537634
