7.967197143858481e-5
0.00015549005024734555
-0.00015358204996392057
0.0014082221291996655
-0.0008835784973982013
0.0006902360223775539
-0.00013646470463381564
-0.00042662296070761034
-3.9572829389328924e-5
-0.00017191006156149519
-0.0001492572109815354
-5.0465961573708325e-5
-0.00023801702308129846
-0.0005939028023432323
-0.00014312810256988058
0.0006945245861312063
-0.07636767697976925
-0.06579317084872942
0.04604274535298086
0.3628138792112011
-0.271559586980214
0.02690282977551087
0.09998433978757075
0.17360706428378994
0.027897076429409463
-0.020381768163317406
0.18407003376283762
-0.02154978813037191
0.0495293982089066
-0.06134448312637016
-0.30137020206534776
-0.10118069049682206
0.6446722450323166
-0.2570679928378891
0.13832002120357623
0.2542265462700045
-0.32150189938730017
-0.3240961835501693
0.21138947182314172
0.22926603603546158
-0.16014172358708295
-0.16979080564072435
0.0591661501225742
-0.08368534790307423
-0.17667380703542995
-0.09354007949864004
-0.020064978174146316
0.09702234707894088
-0.2231755746689595
-0.4243287228458346
0.4875717572014552
-0.1821669296138484
-0.20740081024332158
-0.2653932945907352
-0.09434132865999952
-0.14217655632023468
0.010581887148523438
0.07865631382921115
0.0713706781289763
0.02303163023840287
-0.0404344191484326
0.43081260050659403
0.2654375252997705
0.17995524373099195
0.03268879157935194
-0.14203193005174733
-0.07190105405602049
0.3214623382869433
-0.09680142239780563
-0.08282544089468745
-0.08223892017599997
-0.07597791016055473
0.14635423927351682
0.16828993139402218
0.05475858055032857
0.1188619958091675
-0.16845039458205352
0.06524523221270417
-0.05007351477553302
-0.17156052199179733
0.059859746145278336
-0.26510957005337316
0.36410726783042346
-0.20284550251840844
0.06746573625945494
0.03686009459080807
-0.15551073828947964
0.0028982290640048145
0.09814368552050938
0.16347715981760894
-0.09379209979283053
0.1580400518165291
0.1375154511978313
-0.09314286094867287
-0.10618931936657633
-0.15067733124076252
0.06984150786668873
-0.16445017295014863
-0.18817977663474295
-0.062117619659526405
0.0721343950951745
0.0014497977600781043
-0.0982360196072323
0.047756711415986516
0.08734381486056977
-0.023012715476744015
-0.08656265041394876
0.11277361830279173
0.06684652863536414
0.06607254857182832
0.45524180069543213
-0.3341017684969076
-0.12107446560553232
-0.03773537317206094
0.1334388872535911
0.1893675413828179
-0.21732055824918417
-0.11762334487574369
0.2038429502819124
-0.30646888395160754
-0.1450109852572795
0.010713899480766396
0.06369422240554448
0.3172844487392265
-0.3366704492080914
-0.05484537583372285
0.18676813365321274
0.23173935296828232
-0.18079674505897067
0.07812169038160184
-0.041164766262729094
0.0036331854541699726
0.03394262765590467
0.08601357142648222
0.024770664411309797
-0.15818351925568316
0.6093515926859714
-0.19967578092174945
-0.3213121964947696
-0.10651933037411467
0.03535444737093638
0.21092541315304314
0.049563389359840566
-0.16132424356015848
-0.00869326049312735
-0.0216187845488287
0.15365153321449204
-0.10608602917000991
-0.14991574001735558
0.03958423446454406
-0.02512103035445323
0.009366494273436523
0.42266644369467127
0.07850480257795216
0.04126556743278459
-0.1924878702555807
-0.20236936237357128
0.12483217724103034
0.19880543310432572
-0.3429846087567351
-0.11241346208758071
0.1530877861392086
0.2712830940283444
0.0443148069842007
0.24389432694283678
-0.14288112369487044
-0.180933998705144
-0.07074126938345705
-0.18022834164861484
-0.02949530899077106
-0.07280683945465315
-0.0781849063289043
0.25217450108577
-0.129447191206453
0.05272940664985551
-0.06935148028577426
-0.16622598858886287
0.12513436049301527
0.0692857379068093
-0.030660344464467887
-0.10525806961437024
0.1287243295174057
-0.05955507507317826
-0.04726695673935229
-0.26233455322165666
0.148888584159546
-0.22233417834012179
-0.06003297479024633
0.14476409813509986
0.16355157394283856
-0.03813336571682392
0.2666528223579838
0.245998661202368
-0.023910825589778188
0.2077071239840597
-0.0968475627986795
-0.06740866332706
0.023112162573921256
-0.11163640497153873
-0.019519875262079135
-0.11909569527539368
-0.0632694895553998
0.13296960656522028
-0.047658600234248755
0.20675494924349716
-0.14122255436945017
0.09081751624037412
-0.2454903484357425
0.024920184323514998
-0.16162517660153744
-0.011502636234762036
-0.08317477567945988
0.12210414040454422
0.47163690497525607
0.016377231908702376
0.11576143025833761
0.07207792609524194
-0.4459918882282707
0.08136667288503528
-0.19881522319367018
-0.017492099323442006
-0.10347052687719356
-0.10118771319535572
0.23331554854782843
-0.08384713210517696
0.15259635227253296
-0.2528870866761246
-0.04699630679322486
-0.0841144119286287
-0.28095994466819024
0.3101574687062645
0.2484274677895638
-0.043238364211415276
-0.03027816319378076
-0.009395844489234135
0.023739491353440688
0.01982598706661976
0.16084422340344445
-0.020355839549876895
-0.0714178969513215
-0.20314467568172856
0.5461600983498367
-0.22356665356321637
-0.2398427878672532
0.08217912417496576
0.2068500858202939
0.07408108708358445
0.14749881080921437
0.02361418758873355
0.17200469208758762
0.08598342029416205
0.0798336441886512
-0.14448525216424535
-0.5102079935991698
-0.02657059077882889
-0.06678719671214156
-0.2638998110679513
-0.15791793737062998
0.1741846068855638
0.10902846045411417
0.010897562391409031
-0.10600450139486048
0.1069833876452413
0.06867253970689524
0.013402338052047864
0.02757132620319651
-0.19456665760675892
0.06465992469055182
0.05712911596786247
0.3832487468846363
-0.3778676620759192
0.08687856063056101
