-0.00012735361504938693
0.00047536589989668874
0.00812140383086181
0.008666764500683669
0.007919810346484053
0.008545343672535078
0.009790939763420502
0.011009070349641317
0.012205307630853953
0.012372624524457521
0.012635669592833257
0.012475885991720401
0.01023065182788829
0.010482693364822337
0.009629265162369059
0.009535109161405852
0.009597030314232877
0.008108026275117608
0.009535978436015481
0.009670709957325833
0.008603095994509667
0.010025243207308398
0.010839499637137892
0.010963961411886347
0.010935475288637534
0.010415457013274605
0.009893502062283475
0.01125295106022946
0.010626855980146881
0.009459323270970946
0.009056641080530826
0.009154550508267887
0.009344691917142454
0.008905368362869634
0.009328143073826033
0.010023563998569646
0.00851442322096748
0.009933465663956096
0.009508333511254602
0.011115720606065495
0.01107210072796556
0.010864564141775614
0.0106912205100031
0.010960219411660126
0.010870482129518366
0.010630164546270195
0.009627794256676293
0.009014024375625979
0.009151735236993008
0.008671424457350939
0.009426539917769386
0.009882960105461013
0.010082008535520723
0.010370064152746631
0.00929259646061804
0.010898127740413367
0.012503776175487157
0.012858037106632107
0.012618768032133444
0.013017056964015939
0.012298284520280589
0.01144726563042159
0.011291210684050038
0.010802177560059115
0.010748848675361829
0.008002072694976596
0.009549294446933332
0.010211997475137133
0.010294160949422591
0.011595147724174203
0.012464207850007347
0.012691426050903646
0.01273675748266796
0.013615394791368834
0.014525515197869517
0.01578088936917544
0.013638028001306726
0.013124126911680117
0.012066339611880103
0.010555640215767867
0.009885813296457883
0.008750430628796832
0.00916130062473977
0.010193745970963461
0.0110772678187001
0.011028112015008947
0.0139030577406876
0.015424305479971005
0.017274125733818115
0.017358986161572228
0.018657737077978447
0.017569403356517185
0.016129013418761582
0.013698394605554684
0.013423964359719978
0.010555523179443891
0.010046380562258404
0.008346075528279708
0.010650642836699935
0.011272524385435974
0.012811734499752262
0.0129829837792172
0.015402792186947312
0.020364026749927024
0.02223765100891413
0.02537221790001553
0.02276086746662643
0.02552282757854347
0.02101135042608173
0.017931258649237558
0.01444198995821371
0.012372897252502702
0.01155830644148459
0.011804852600154073
0.011223010551109136
0.012187116988797021
0.013170530473537499
0.015151624017955985
0.017796465183157157
0.022701222407692054
0.032058744213682815
0.03552146093184405
0.05259942522455508
0.034196710786180494
0.031716462115463036
0.020473019225493095
0.0179372848663042
0.014057294592506372
0.011784851915633499
0.012287045877904131
0.011298181440444728
0.013119825433082382
0.014012410308500742
0.016924484728466364
0.019532990850553097
0.026462015818829777
0.025786939660896634
0.022686289091026282
0.05957390125464446
0.022936554203921947
0.028088630689918355
0.026122650966488095
0.017687927108726912
0.016642849094682406
0.012937581262185341
0.013193454484518374
0.012101024241892324
0.013755858867002934
0.014616982509626519
0.015439382082919798
0.022105290263366363
0.026781135344226485
0.03699878272007251
-0.062158009635315
-2.978880932026424
-0.06215985137985313
0.03674474154562197
0.024670425249775266
0.021390567248709486
0.015421604275646773
0.01249408556706793
0.013230769070620901
0.012231244802342429
0.012381077989842618
0.015113230996338128
0.016396676446190746
0.01976268728042634
0.0304948333204067
0.06213751137445836
0.3952170928409321
-1.8037404520660703
0.3928834408049044
0.06202438942586965
0.029612861158646874
0.018852667238149625
0.014850258432433514
0.011838091562687508
0.012880773110034828
0.011952790076835503
0.011075133973756748
0.012373958448125602
0.013929028750000638
0.019138737724194266
0.023543283201379023
0.04126421089751471
0.05536356245784061
0.11626333616450103
0.054408055525178974
0.042033983658616283
0.02395635543469081
0.01903230966139049
0.012654345101050023
0.012477248115548064
0.01185454019522992
0.011404872193616016
0.010301166158215804
0.012351775743151877
0.013884293042719346
0.016277180049822367
0.022078857201303318
0.026387781737895504
0.049023201853346805
0.049204612212999474
0.04880346227716332
0.026489441834461374
0.0215766069402516
0.016528456946989078
0.013886775261267172
0.01220266447685358
0.010955573240423518
0.01129777200433374
0.010016504720024348
0.011830879818610942
0.012130716571494917
0.014195649107240206
0.017617875927401716
0.021839387119986405
0.02505656512253579
0.031702475163726554
0.02496359301960217
0.021452059057937203
0.015538500929149403
0.014693508163213421
0.014236076341713491
0.012519539363631553
0.011161247595064898
0.010303568589106903
0.010383499617517566
0.009884578276222545
0.01106021756325231
0.012244728238949688
0.01507257209512728
0.016886746897502098
0.019097138026776334
0.018435521032501605
0.019363467932417392
0.016063476138300066
0.01448563233376811
0.011698719310945137
0.0113099067893956
0.010676367153879018
0.009757490635302157
0.009355719078420203
0.008942919164422594
0.00879192921075375
0.010005574140945838
0.01095426815099172
0.01289254277600593
0.014525089146619978
0.013192339024296352
0.013692780599075496
0.013690714422930905
0.014333046051510338
0.013396071077481794
0.01039641454049276
0.008884104906820818
0.008857555286417343
0.008620590279895958
0.00017916316332643075
7.183195392022575e-5
0.0008540070987603183
-0.00039334715053081237
0.001253179412462402
0.0032331598092901308
0.0005953830447270137
0.0025059237105795693
0.0029563513171762526
0.0021948870333809317
0.00263807187308446
0.0014741659936405823
0.0018336202876906675
0.000966810936060378
0.0009255560960775959
0.002255754513795726
-0.0007344604387541512
-0.0009138037395459916
0.002587038996780763
0.0020740580571462002
0.0025561552851183318
0.0026468976615207787
0.001154481128231662
0.002593660141575432
0.0008404642393331645
-0.0004120601305495777
0.00024748013291865065
0.0009725650189320654
0.00094997237622442
-0.0015467029535744122
-0.0014051188714641555
-0.0008311967614792624
-0.0021937271945739684
-0.0010333412739134237
0.0024642011730479276
0.002079399715276619
0.0033821423119356027
0.0038568215877592743
0.0031037494562001964
0.0021306384804768846
0.00044158745032669056
0.0009637434153562643
-0.00038146870004270256
-0.002033838980729775
-0.0036311658142719016
-0.004548705956547113
-0.002878207865334377
-0.002320404578146398
-0.003986153749174976
-0.0013236703923731538
-0.0005995795278096976
-0.0002340835220629387
0.002618857309294259
0.002522879208999331
0.002208095209523649
0.0010137536588553484
-0.0008901986230391878
-0.001343575411924463
-0.0029414290300063583
-0.006066422516118417
-0.006287398056016079
-0.007807886718302126
-0.008769822439699308
-0.006779218679153665
-0.009812033728867162
-0.005767248612627651
-0.003316374488183996
-0.0004929994658081926
0.0009455431708149035
0.0005626600644425149
0.0016175828082955908
0.0012014153197181714
-0.003811596734015342
-0.006762679734585155
-0.007850466890576698
-0.012289421373299412
-0.014217073150772693
-0.01582830183786032
-0.01595444378214362
-0.01151789912347445
-0.015830777609354196
-0.010830184632770721
-0.007647147463440868
-0.005174801131553673
-0.00048391598172901917
0.0010086588787841827
-0.0001791954775591547
-0.002641003623780865
-0.006816681962244395
-0.011730352704038736
-0.015408795133355047
-0.023193889905785994
-0.025485705686101943
-0.02929024591576194
-0.026888351946140126
-0.021807554683605637
-0.025453832497332934
-0.016872768533786726
-0.010981900270899571
-0.007966659492793703
-0.004050263474423221
-0.0004417090365683139
-0.0021083112528556248
-0.004921841764749444
-0.0125066867419765
-0.01821703949854786
-0.02670652808156618
-0.03557222899344482
-0.045957638537638346
-0.04880538481234163
-0.04460543893176442
-0.03577174203607765
-0.03754577711612502
-0.02490211444933616
-0.01655805870515521
-0.009499670752855148
-0.0065568434128889675
-0.0044009754405953914
-0.006239234269865897
-0.008746593492953742
-0.015904641915918304
-0.025240989361879733
-0.04037059685420445
-0.06145844699667723
-0.0796445513455773
-0.09050773384486491
-0.07741205622237533
-0.05964426959655587
-0.057892809345100646
-0.032976240430076936
-0.021533624397608763
-0.013045356951754716
-0.00922552139711744
-0.006990534420381684
-0.00794019528769314
-0.01180599843999398
-0.02123543095533678
-0.033856202299822176
-0.056658444513310056
-0.09322141755636568
-0.13787101797137805
-0.1713880687014818
-0.1387740931471363
-0.09310271674043614
-0.06917598406669757
-0.04029678791692627
-0.02265789758759334
-0.013418844217132252
-0.010099781308205385
-0.00941167051951957
-0.008902375534710643
-0.015332150040284997
-0.0234654278318255
-0.04069039879285049
-0.06918680572135018
-0.12714196606724043
-0.10523219736080398
-3.854969135452354
-0.10390865046973533
-0.12748183881732866
-0.0655788619950483
-0.033092604208180075
-0.02163787656243936
-0.012685180041765897
-0.010288038475227839
-0.008234688434982602
-0.006957229304257367
-0.014326307648864159
-0.021951539960444882
-0.03477600829623717
-0.06438300920730902
-0.1272751244748114
-0.3535883169583393
6.4484746552615695
-0.35187353988086195
-0.12841798230839713
-0.027199011317973944
-0.022132081795947896
-0.015523414798165453
-0.010142204317822657
-0.007401280083388365
-0.006320447356535422
-0.005989149981570374
-0.010502232581148286
-0.014809032785047483
-0.022719124497142924
-0.026023733222923045
-0.013384595376132938
0.10853236081958251
1.565402238544108
0.10700805359413151
-0.016593388141377032
-0.013605060549006842
-0.013547984932808357
-0.011693688527980134
-0.00829015638522614
-0.0063244942271580154
-0.005228004456301887
-0.005127595024721892
-0.008457834930044515
-0.010499030285601445
-0.01382660998281928
-0.013542983417427703
0.003655506502358976
0.009447377214522396
0.09992203885335393
0.008753120716902008
0.0035841278929879907
-0.003996182477978252
-0.008436545930497164
-0.006536702725748327
-0.004968250230602018
-0.003821546593473143
-0.0033159856486034266
-0.0029169367015623934
-0.0050317734906031465
-0.005741646858658497
-0.00896469733667419
-0.007935923026420138
-0.0006624650405408138
0.01706338480071463
0.021739924892848296
0.018772455284039487
0.001447112820430813
-0.003248444822267987
-0.002420998671870165
-0.0006165139324479708
-0.001691204217160222
-0.0023990120856609625
-0.003194090482197387
-0.0024114049785036755
-0.00046364035119496013
-0.0034664797032415693
-0.0038961066399892455
-0.004251867049697053
-0.0002411134367713822
0.0023631555470914473
0.008276448076099873
0.0036962889225746133
-0.00026670087170807414
-0.0011411414900487761
0.00031502547164826756
0.000917173497805225
0.0007373748290173915
0.0006463509621593076
0.0001718047682013748
2.5356737722385383e-6
0.0022431037942899903
0.0012135912079190257
-3.997961136318847e-5
0.00037521223657497845
0.0013600006678931647
0.0038495976173733197
0.003002592482745813
0.0010928280474351328
0.0007572328636933608
