-0.0010687608909262947
-0.0008733727068742686
5.0010977554122994e-5
-0.004032357988865194
0.009097855705080427
0.011980543075256044
0.013203500514575415
0.02060193201064096
0.02492739224556162
0.044915197502945176
0.06165426826382716
0.12070722458349531
0.10590343867575247
0.08535053861518728
0.03850641062757331
0.03100533539434217
0.01558184692654433
0.01382034673340356
0.010030076319411841
0.009739056281072954
0.007413321240794221
0.009622040950116905
0.01081369759746964
0.010916740486225712
0.01352491799818681
0.017884006768459762
0.025641770310438836
0.030235786392332067
0.0518715464873833
0.057746755512168534
0.07374687784322519
0.0433979748635576
0.038340227528414095
0.022102096443052114
0.01963431850818002
0.014520280985057804
0.012595205872662019
0.010306944270549054
0.00956688218749743
0.00991012990832895
0.011716141020771823
0.01282737291059985
0.012669901189912645
0.017176769328040117
0.020344939820783992
0.02724504718388595
0.030791668936000483
0.04056803102875913
0.037085041043151495
0.034936083892858766
0.02605708144387334
0.021881336606689512
0.014787179090840732
0.014870906198170449
0.010265040975709036
0.01139505079313412
0.011754700369812751
0.01101008703975799
0.010512483686299324
0.011599201908858246
0.012911672454750837
0.014167593239469426
0.017417649345523225
0.018519207257974905
0.02414254612203781
0.02492186960295796
0.027635116690535085
0.02066553900425096
0.020882451055434216
0.01603562473222993
0.014475940222443147
0.010794636784710142
0.01078867059621663
0.010097372034741984
0.011716284864736193
0.010635056930701794
0.007964941472118257
0.009967766781012268
0.011076624997103655
0.014803612873978047
0.013640578922689148
0.0158306027105367
0.01727671423171871
0.020332897402451023
0.01814047065822594
0.0194643839808185
0.015457178933921201
0.01352524896691566
0.011208706851499264
0.010168748079699344
0.009753949292443862
0.009748521314637326
0.008660845347504513
0.009306630815005365
0.008353461744582694
0.009631265494165913
0.009351791610451604
0.011965441673328978
0.012112321506532527
0.011391917045444505
0.014303116747062816
0.014029198566285973
0.014740497343640267
0.01288657101547499
0.011804326191650921
0.010000843411237012
0.01148065582940527
0.010082694431043785
0.010426746463363477
0.007451558735379273
0.007812395570018513
0.008969077596504865
0.007710233621702889
0.00898752461683769
0.008595703072851462
0.008807395258834469
0.009110279611704224
0.009617046537134301
0.009947151490998792
0.010137194487421992
0.009839841681668283
0.0087734611293169
0.008838001105308661
0.0081238389683834
0.007340428478448267
0.008448311244523004
0.009169202659975716
0.006803222874189269
0.007802197245671156
0.008550058928103189
0.006727614045459111
0.006991429775556844
0.006458739157152573
0.005342627598712393
0.00570745315309414
0.005246102194003284
0.005381629686420992
0.005514453840852754
0.0047726394073636215
0.004907886986197504
0.005480508759570972
0.004596370070812617
0.005245497520388537
0.004930984395009565
0.00614670394928361
0.005226025408592764
0.006219768793461745
0.007117208723852574
0.005923654084961511
0.0070215516310008184
0.003995981071416357
0.004567690504299021
0.002676646218177995
0.0025474818864353746
0.002360804248213072
0.0012498779238307369
0.000549680065887423
0.0021287690423280924
0.0013988290808439146
0.0021484852174329648
0.0016444254190715424
0.00475694694996664
0.003739939105553189
0.004627569976580091
0.0055222628599019595
0.005903857070545325
0.005300975582828703
0.004072879964020805
0.00343282996324864
0.0020673310152045732
0.0014943759302357864
-0.0013153342866635848
-0.0016927641169344728
-0.003878301838186784
-0.0024384558242098978
-0.0044807486617802865
-0.001455253172596033
-0.0006101366036840476
0.0004132308223483543
0.0019236860268118574
0.0029655962801674175
0.0027370421806381722
0.005546215499857548
0.004616447336710491
0.0028443238014792785
0.002761478422288816
0.002529358655008156
0.001984682792086896
-0.0029182239604872255
-0.004466644003850731
-0.009245095716510202
-0.008679727282515128
-0.011894937840449597
-0.009523633109301367
-0.008148774814255709
-0.004326790335909783
-0.0018542752378501075
0.0008376926993406112
0.0026546425808078285
0.004019999631272426
0.0047684626551963965
0.0033984150963916326
0.0020374156431758033
0.0016474987175291336
0.0019742412603844747
-0.0010040663611181376
-0.004646536405032347
-0.010284253227513187
-0.013739244543500177
-0.0219415130132456
-0.019577567260040386
-0.02266891945158841
-0.014053292986078783
-0.010728023552713536
-0.0026826690523960393
-0.0013233725971075324
0.0025788670454148293
0.0018244784357500407
0.003996518500096888
0.002917820523550223
0.002541319329838074
0.0027454989332945778
0.000333093300227307
-0.0013092541368498194
-0.007611861031796962
-0.01209954883238656
-0.027443545520672526
-0.033802813267846
-0.05263672263070305
-0.034483797265938254
-0.029145260163184014
-0.01324129685968102
-0.008304136576959225
-0.001586595819408502
0.0008845441835448623
0.00182034675181141
0.0031919573041731095
0.004257334146641112
0.005421824720263564
0.0033459830349120033
0.00242619817295489
-0.0010969467636236388
-0.005004223836232633
-0.019611831963982918
-0.033053894616523874
-0.08527000890679899
-0.07866362649740136
-0.08195003956909767
-0.03484320378936053
-0.022921009507514568
-0.006797470011072847
-0.004508358722973071
0.00046150881919444114
0.0017950372094546162
0.003753040810850141
0.002995412496855114
0.006719706534796989
0.006071896571748247
0.0030593266117104325
0.0025216090608105508
-0.008115640935857102
-0.013024557238644083
-0.06366716673397922
-0.10981410256098251
-0.28374498966399886
-0.0895497638395178
-0.06934967158564614
-0.019049669635426085
-0.009941754897701114
-0.001326934175275598
0.0001847768722014711
0.0029149764012583934
0.0038151202879885267
0.006245717233883586
0.006849114434742108
0.0062241052570147296
0.007328108347220595
0.004066486614354629
0.00614226081744298
-0.01369433633834485
-0.010367760895721
-0.25059940476736925
-0.7602206071783383
-0.23360277438327254
-0.026589014722239054
-0.02498144172034118
-0.0007075675739268929
-0.001153896578224242
0.0031860140770870954
0.004700855458989813
0.006371455008095928
0.005173347788286625
0.008706247063939906
0.00935750136924658
0.008993056142892777
0.014442432868486885
0.0131826846994573
0.03761451926064825
0.03340227101705493
0.3104403955571692
-1.9423898701378801
0.4829759162089505
-0.0014178129338975798
0.016400472704962404
0.002542216670189738
0.0063537883074682305
0.005318673473404873
0.006578850539250392
0.00815445741788483
0.008583327371281486
0.009027653003881558
0.0101813390381448
0.012517503657754505
0.015130383819099154
0.027407279529297453
0.037539675621835175
0.09929379353410629
0.15213017427761935
0.33920494155525
0.08206255032472873
0.0538287139807712
0.017306445551243697
0.016007463220199466
0.007626008960809146
0.00848862256016323
0.008052404313524197
0.009210900748317472
0.007996321454132696
-0.003513474553584982
-0.002379251695340141
-0.004303054052524565
-0.0071116479822919245
-0.016720648372759085
-0.023614962748050763
-0.060640398868627994
-0.04472147735060588
-0.05573080236460353
-0.023672998479768365
-0.02100798819306119
-0.009241934572678424
-0.00962829393860538
-0.007213047421363897
-0.006144426495614171
-0.00387744131299529
-0.0050197963257258595
-0.002453612237363517
-0.0011709121617109926
-0.0028229639333158148
-0.0025319771914645273
-0.009246333893736967
-0.010455753705378752
-0.04659356339948085
-0.0733365520693252
-0.1690963010571785
-0.054346728789105556
-0.05506403390572429
-0.01714503372774638
-0.015142467428484022
-0.007747702150238316
-0.006870279397337899
-0.0051774024183491715
-0.005209050691548967
-0.0024323246791311402
-0.0019081032010706239
-0.000876430040863161
-0.00023164079120801092
-0.0024695038720514667
0.0014527385482475603
-0.012494335916115387
-0.00866686444335689
-0.18424077800195357
-0.32654973370167784
-0.13829756013694153
-0.030109202284213998
-0.028212447768525717
-0.008792697470116509
-0.010207339124766861
-0.006399684683243858
-0.0037154880707684283
-0.0033159456663531942
-0.0030302013533684965
-0.0020715814425909464
0.0002061748499705056
0.0002535036960613804
0.005638444280233306
0.0051853672013237526
0.025873462647063156
0.02174034315756116
0.23056074608116034
0.5243092312754806
0.5720034291804288
-0.0527819387907406
-0.006238046684819647
-0.012685513992619255
-0.006107461397099635
-0.005261692494891869
-0.0034335691674648584
-0.0019201109580760246
-0.0012349840924314407
-0.0005976263472613864
0.0005495112791030947
0.002749282902873629
0.004086470427012928
0.014536801354518797
0.023013681069440264
0.07783423403788614
0.12327829141971372
0.20370252480665046
-0.002504921289544739
0.0016710822200490863
-0.01075083727891656
-0.003034714788679526
-0.005854581485581607
-0.0034774509473629867
-0.0031572218242267437
-0.000954843283436812
-0.001070911701295276
4.059427124576936e-5
0.001401545285981134
0.002973327649836887
0.008294227437661342
0.012700906983773658
0.029810322709726438
0.041495586601742004
0.08857433018604025
0.047532760736596645
0.026023616143180318
0.00024819713097780187
0.004317064622562488
-0.003520845141095923
-0.0003809147470401493
-0.0018295825105606662
-0.0008067612818284059
-0.002387577263023527
0.0001015931758009757
-0.0010103209357299108
0.0007372751713144772
0.0033701120901785016
0.006916012457984996
0.013227590475335296
0.01596902709242937
0.032239142065076706
0.03289658152004119
0.038274229633587474
0.0066447371195920545
0.009709137651858294
0.00011183284216609616
0.002980135505463949
0.0019111603147595655
0.00025991717080172294
-0.0009873742957040592
-0.0007776129985449078
0.0004972588256687634
0.0004547297493357316
0.003169859736593932
0.002945095575112054
0.005593372003232684
0.007330014402162702
0.013145869025037508
0.014396452468410238
0.020255909447143883
0.013238979485587615
0.009849675182916469
0.004233426628982159
0.003436486321770491
-0.000749482092321709
0.0015060974300616643
-0.0018193673389961392
0.00040192280727757663
0.0013741728118285268
0.0014857674819795928
0.0019609491294557396
0.0017144652756998485
0.0029764908318913545
0.0039044543475268445
0.00542044112524246
0.0062690764312542755
0.010049225864525961
0.00843518804583691
0.009239255534627703
0.0037285767622537904
0.004319625189025857
0.0006414118587748632
-0.00032263663896395125
-0.0019373286415329386
-0.0014203127491182858
-0.00131149135616573
0.002088731276218237
0.0013803861843944814
0.0007819025434902948
5.5125097223087164e-5
0.0007254844752164209
0.004407429524441199
0.0034037861797448377
0.0039562914896743165
0.004779005715762026
0.006953294221847622
0.003651359718879877
0.004158576704490009
0.0013490092083946505
0.0007425069588017721
-0.0015170545127649246
-0.0012880048080724856
-0.0011832387053312995
-0.0006329868319449824
-0.0007141170331056153
-0.0001893584322319965
-0.001557243853003645
-0.0009880851820369492
-0.0011058856334667949
0.002276399675952342
0.002985718284798267
0.001273488325327599
0.0033725915110850253
0.002400501103619622
0.0028867733806357187
0.00021490058816225536
-0.0002783329787215912
-0.001213608588055096
0.00036786073593428857
-0.00028254171430473253
0.000690089531144863
-0.0021731639683060713
-0.001881297970988252
-0.00024892877106671247
-0.0020009550037872396
0.0003540480454924045
0.0002639759427055557
0.00038341000886715727
0.0005903748782643539
-0.0007070340234524267
0.0007861953762350306
0.0008976019579088064
0.0006148134186621379
-0.0011058617869172255
-0.0013337448292098264
-0.0029095314107354655
-0.0025379485803202406
-0.000799018131594702
4.69916372973061e-6
-0.0028145840390243508
-0.002133889428917669
-0.00017028515533005153
-0.0007064275951924283
-0.0008845381488446667
-0.001294808614080044
-0.0019360169532797315
-0.002019231467569266
-0.004399044294169122
-0.003098257619373627
-0.0018041915842061096
-0.00294306070597262
-0.004185881893770223
-0.003228754693900814
-0.0036049958575307644
-0.0037925720535644672
-0.004067242122135375
-0.0029346896476885862
-0.004137155795021996
-0.0022502739872720095
-0.0009310483402831106
-0.0019110129038593313
-0.00012963743547460868
-0.002172692956204618
-0.0027753015839074766
-0.004130346372114577
-0.004563243681289317
-0.0037628071930174453
-0.004159292909525779
-0.005366669749472915
-0.0046757449259488704
-0.005436631204480754
-0.00498695673137974
-0.0065092587528311095
-0.003226282243389393
-0.0052405116497300395
-0.004660650030300477
-0.0038445041485419564
-0.002017619868770959
-0.002351951949441086
-0.004280791567736533
-0.0037595476410991683
-0.0046957609305736435
-0.00486769960674698
-0.0062621929770975806
-0.005943159844379572
-0.008369117945488417
-0.007594199829365425
-0.008936081768928478
-0.0074435868270913115
-0.006850939196558873
-0.006930724347701829
-0.005403247871966576
-0.006049309133428768
-0.005955573465789205
-0.0038046742436041686
-0.00373168021787167
-0.0026890262133251203
-0.004176138415273125
-0.003434973574122918
-0.0036485135019705857
-0.007716953703594146
-0.008203750283639425
-0.011239088141527557
-0.01037355230388571
-0.012833811994110204
-0.011230889895197904
-0.010405003559090152
-0.008405144285174186
-0.0068203598409452455
-0.006257861371233122
-0.00566518869579578
-0.004091539143934744
-0.003719312919879301
-0.003891459598857151
-0.004487616953074482
-0.0056014102190612945
-0.00473165952581418
-0.0068399331454592
-0.008433558344115362
-0.012459225922604409
-0.01380828283160273
-0.018869388418441328
-0.016067737758791646
-0.02022413565124947
-0.013516896672248847
-0.01287982033098196
-0.006926851860064717
-0.0076049716934246
-0.004880676757403067
-0.005685365915908124
-0.003723790676576013
-0.003632753004718485
-0.004416855814858991
-0.004179611387077515
-0.005455401384073736
-0.006443462888394905
-0.011010669235464952
-0.012921020782737913
-0.022184110809038263
-0.023757455647936906
-0.03582966749787271
-0.023466692283225784
-0.02384840928094925
-0.01358737430607773
-0.01118347027111625
-0.007417136107689112
-0.006083350598860188
-0.005338206114271618
-0.004231117429096324
-0.003144434732479203
-0.004615270838622785
0.008622209503994704
0.010975298286513432
0.01162475143657833
0.01131103888402367
0.011155584463450724
0.011554444786331068
0.010662177040947395
0.010695937818691725
0.010294408480425926
0.007893558065319318
0.0075717070538743846
0.006885821417840158
0.00538740620959715
0.005613506510838877
0.005655218548419372
0.006808592768237308
0.006883022458466312
0.008011489066720497
0.008885558521343975
0.010966287710014866
0.012573886391774794
0.013032411690825725
0.013048452975689658
0.010941222943721624
0.011439037736721102
0.011330581371495759
0.010929010102589714
0.008173870736710219
0.006228779268186849
0.006242422897383291
0.004835923207597845
0.004333153578645627
0.00526410977496019
0.0052412108649727614
0.005841715217807431
0.007082041559922101
0.009156035833600551
0.014003392023097923
0.013894328634755362
0.015578700765538717
0.013030765508759822
0.013526534603508316
0.012781981682562565
0.012220048130435101
0.010066949172579272
0.0067755684015129046
0.006122986678675064
0.0053010686409800676
0.004106719971349237
0.004236489212137208
0.002043156581837732
0.0024610582375112723
0.004248478490105691
0.007722320951243519
0.011216806477525099
0.014929720251169301
0.01690649435878778
0.016433321998697868
0.016163787805848605
0.015021146544654453
0.013732725611484751
0.012683108194531062
0.010193534860209493
0.008007092717654688
0.006723195044363147
0.003873374209202513
0.003133051904195507
0.0005560083543899536
0.0012061872813302773
-0.00026388962369079097
0.0014933123706140751
0.0044031526482612915
0.010466303522763279
0.020972387412809955
0.02118314189107374
0.022205602533347055
0.01894682018667078
0.017533915552891636
0.01412796338772477
0.012701471733098785
0.009211040313785692
0.008146061180947427
0.006040323598662203
0.004198030892818449
0.0009216856754298414
-0.0025289452288334694
-0.00524982120077855
-0.005484936916515876
-0.0059017233171588055
0.002272240780090671
0.01964842040972284
0.02866473250186833
0.03334577810259128
0.02985004459404551
0.025411322008674967
0.01973266982721448
0.016919596124567747
0.013414698030001955
0.009448049494171166
0.007393492928906948
0.005363819563317546
0.0018822939997246123
-0.0013282918362742258
-0.007214684649227826
-0.011007730220509968
-0.01867601297590521
-0.018336676927727794
-0.013888251195442524
0.02501532679671617
0.06545512384240372
0.049616807571493914
0.041868702675815
0.02954836129895918
0.024243046392220347
0.01861567188241824
0.0141815459212867
0.01022834163124118
0.008331872299058235
0.004538548221127295
0.0009134468286917037
-0.0052188215098002925
-0.011867762189892148
-0.024648060204383104
-0.03502909314850534
-0.06008811149274612
-0.03575639951471544
0.21552485348393471
0.10308268067494138
0.09082487070022738
0.05235135874170208
0.03795376508142227
0.025668959319042423
0.020937966634556045
0.014291454008642013
0.011092200460291895
0.006786595628808222
0.00267896023834925
-0.002017779139147059
-0.00769347321737219
-0.019084661365490318
-0.03461325886057865
-0.07326839537662501
-0.10678282678227638
-0.2170589832897893
-1.9240135677494163
0.2893891426341596
0.10279068064746288
0.06913087170320642
0.03915474319050164
0.02902135683447192
0.020986039492864775
0.016341167967351154
0.011274998393607983
0.008065221910332715
0.0036743958679614453
-0.0017751810697111692
-0.00890233897979254
-0.01905232461600408
-0.046423160640905556
-0.07956450009981271
-0.25439522731392866
-0.9510441170643179
0.21700220653811692
0.11684791096330979
0.09555710591949541
0.05348278586477021
0.03875912007105659
0.02535558752339164
0.02030743328912645
0.0161652692329715
0.0126598998718453
0.007794815688175483
0.004880647692110507
-0.001282324973570527
-0.007057530484993419
-0.018492795001216047
-0.030188099258994846
-0.06409555483872467
-0.07920446025548152
-0.19414530676792713
0.042645598110688694
0.07657146441453262
0.052733599010568386
0.04369864667564055
0.03094245748618373
0.025491452996539352
0.018018427251979642
0.015393737191635374
0.011866140226152504
0.008953592367723726
0.003923806071367306
0.001595717512468015
-0.005382605550445065
-0.008146376422195536
-0.020905940244495363
-0.026694176377552933
-0.04490309264210718
-0.013123797801123159
0.029776586059117816
0.03439990725944643
0.03713186157299092
0.0310601502724099
0.026795977314585457
0.02044716301309632
0.01751958376984824
0.01457547622652908
0.011564576206047445
0.007859426494679897
0.005953897949871095
0.0021193096109494197
-0.0011324975092736912
-0.005667756446653824
-0.008739258431800352
-0.013419425224677784
-0.00816317045242701
-0.0047315851648242375
0.014702676642940588
0.025318080674726805
0.02503002349361421
0.02472325199153286
0.02108240423907787
0.01864531361005647
0.01532446530984381
0.013106123083487749
0.011118930912797972
0.008821671728429159
0.006509099385009751
0.004350853336818146
0.0013507732269173326
-0.0005030345379558362
-0.003474521434917873
-0.0009784417181425422
-0.001660557442534909
0.007231438357056521
0.014639911951236389
0.016887014641334595
0.019219464171543785
0.018528677773323926
0.018199421553495937
0.015629507008865395
0.014217877287555795
0.0126817289318852
0.01086208242831468
0.00856460732763087
0.007502812017986696
0.005435961831234853
0.0036977108792426057
0.002574813088486638
0.002600002925373746
0.0018944028950886587
0.005465260166703845
0.006767821705295631
0.01113288862362126
0.016165007427815015
0.015013742360483159
0.015589490715918537
0.014275629552400344
0.014471058627693182
0.013684589657795846
0.011783443188061358
0.011115870763944323
0.00882251575548483
0.006402520039025374
0.005849888579959837
0.004733336562117163
0.005308238042122725
0.0042995942960209945
0.004961366516986376
0.005637462882509764
0.00901118732871252
0.0115098217532669
0.012633168039203193
0.013123454147719331
0.013835128611608639
0.013937869577278942
0.0137969250406059
0.013458218593363736
0.012073762389331518
0.011542863390872706
0.008911453726837083
0.007574754478733265
0.00698685824584819
0.006187929669240136
0.0049129941717746175
0.005218594827563998
0.005398021165434534
0.007193997672947719
0.008926244383055957
0.010537101640231597
0.011869143205363229
0.01200555697226524
0.01391594607419927
0.013333638721133481
0.012626976766383718
0.01222261761378192
0.01125901187339915
0.00959264682411949
0.00911229703188805
0.008318609706956134
0.007592894709918923
0.006191143735474736
0.005607539285188498
0.004888060870785558
0.007612096462610885
0.008051412076504899
0.010107542723645158
0.00874467884320442
0.010883269685448902
0.01114577029797129
0.01070433839492999
0.012549018316472977
0.012758234037161205
0.012180416184718611
0.011691669092722849
0.01049968785672471
0.008257410986606498
0.008711862324572427
0.006800095659680046
0.005646883353222002
0.006014870083632275
0.005966210256036578
0.007072684017346725
0.00810426587414556
0.008350865452803509
-0.018106481667521317
-0.015819623389270905
-0.01839109453006151
-0.018485540552273087
-0.017218335367330757
-0.025146943922487598
-0.032313079047151486
-0.024797592829555064
-0.003892559161836705
-0.019504969841879223
-0.021856975875291066
-0.017684465169252844
-0.011022923627517927
-0.0019942928828463116
-0.001615777667027445
-0.014418218326273364
-0.02537789637633333
-0.024701748703322056
-0.016718993787779923
-0.018650288017843922
-0.014821540126649735
-0.016018273866225764
-0.023604754440951326
-0.014945671653473604
-0.02275722150550602
-0.019298414716609768
-0.013546159652990117
-0.015582232780912779
-0.009071230525331271
-0.017085310543962295
-0.009083200322752316
0.0015645730530364926
-0.002186837992385478
-0.02479940016181927
-0.029864032821728392
-0.015081090630812153
-0.0030295573991364795
-0.007003241670645166
-0.0056914888261097515
-0.012081402655964597
-0.007422657000070524
-0.013778175773640758
0.00023094339502052752
-0.00560983121008043
-0.004253608914784631
-0.00043148886273468897
-0.013297113864564822
-0.019821761709227715
-0.02048269919406749
-0.007714783771261749
-0.011037388058801506
-0.019712451528793695
-0.02960513307767637
-0.01445870145349266
-0.016135940075243337
-0.0175690033726731
-0.002352852282355874
-0.012653896202634327
-4.117558676315007e-5
-0.010485598112375687
-0.00011493149902298567
-0.014553193544048378
0.00365607753163286
-0.0009457828601715792
0.010999224470074852
0.006067616400793023
0.006076255525500137
-0.0009154539284614564
0.0077977449550221106
-0.003790760671105794
-0.0017618961413106565
-0.0196310182388507
-0.0005198602750711196
0.004643216736461247
-0.009144139326313055
-0.00010448645255651309
-0.006142651716555159
0.0010735343940784226
0.0039192416502681696
-0.008220182372004742
0.0020308429083998824
0.022224920736796973
0.012953840476558003
0.038516466965518484
0.02962757019648994
0.021509407442223696
0.019746916241528516
0.00788721247146602
0.004504823124114723
-0.005988084632371411
0.0019544310330961764
-0.002746566908570878
-0.006495427500200918
-0.00888916924742109
0.007216560295591926
-0.014635214642460365
0.009529799159216845
0.002673688681556
0.009109121857339546
0.02019099917351552
0.03202846539276437
0.05365334962583334
0.09227180595390129
0.09022592558315308
0.07996326282696624
0.04365794053120576
0.018700155093635734
0.010079496246614323
0.0041335275127661435
-0.001216376453668635
-0.004895208977698447
-0.00625636907198804
0.00641000983202375
-0.008367781230042157
0.004570185229214941
0.017590274932063176
0.01384502047194829
0.03509446016531097
0.02390828897912564
0.12343811710268555
0.15178408739394772
0.19209227892981579
0.3372958899752073
0.1427128812204551
0.043207642437818945
0.028282672879937756
0.021180526728475875
0.002486833663316779
0.009119785933447606
-0.010106111192752568
-0.006130573062072568
0.00568580224264798
0.006017391944698179
0.0034674937404441807
0.028756360239902246
0.0280466778021497
0.04833527106578614
0.05122067261716331
0.3396770198318301
0.7948177333634626
0.48609015330239824
0.3023285780870458
0.11449772225998048
0.03315796173524991
0.016004185914118084
0.0025273950841997427
0.004249798200610551
-0.010095039719985106
-0.005307301718975577
0.003458804027316535
-0.004235013017177323
0.01859803561329587
0.023171172742054644
0.057668405765785316
0.03530130237091301
0.41716217185375665
0.15419866922820352
-4.957740910032726
0.9837941235178743
0.16921692862294582
0.12615150637548136
0.0578121614646559
0.0229785530449888
0.011513276016616374
-0.002484447908339401
-0.01495491534290284
-0.0016640233623386375
0.00015741204306113235
-0.00824961690029278
0.007527989413208115
0.0226785901347971
0.0332166248315698
0.07379809856225308
-0.06457303726689988
0.19684492248867283
-0.017895834437623652
0.21913671398808848
0.13104235073726783
0.14127322905722384
0.04632487291143215
0.013129280887649015
-0.0013932028346218099
-0.008444361780948512
-0.00044065453714004117
-0.02185270284409726
-0.002698014610296895
-0.0038348502610169788
0.009030848049735623
0.010848523957674522
0.029142204784008488
0.029122592075528655
0.039917828190309194
-0.20507427260247182
0.149532806135649
-0.0017867754856026065
0.06815459456210875
0.06179881631336447
0.03851783334793041
0.013317539908534591
-0.0006907120069592041
-0.015267584485087369
0.0002902692992940341
-0.02104966250574672
-0.008287836010283683
-0.0044804813275679265
-0.004318605204062194
0.007460235843372187
0.0030214256770429685
0.030326661824203717
-0.002242377962680822
0.024831473774000083
-0.02940684682249911
0.03862457919638299
0.010723889299207355
0.038174076169926706
0.012159887184920603
-0.00450712741440962
0.0023358499931455355
-0.01999609610360605
-0.01915556349576643
-0.01635848874522167
-0.019858608032647943
-0.01079856835096561
-0.017274760151970835
-0.010569425396397018
0.009533319990476156
-0.003407778018336805
0.01715204492051221
-0.007901317902318187
0.026713488867969107
-0.001224519517412553
0.006306358260068933
0.007186416123849254
-0.0036055634179051714
-0.013828181075003283
-0.005413341653014213
-0.020459051711888214
-0.016590505840927073
-0.02688524068136256
-0.017160311166900845
-0.02385564234028904
-0.006979327285808784
-0.00021569121028312474
0.0019230335196411801
-0.0028586533379673855
-0.00762023293078238
-0.002935678249762573
-0.0036702810754826918
0.011230006371144737
-0.0016899267799160304
-0.004731788989284635
-0.006548143038466643
-0.017366895121851886
-0.017240011803136352
-0.028942966795359765
-0.017643300494458853
-0.026071649957505456
-0.020093913542369987
-0.026598528679128913
-0.02027512605895632
-0.02535147011706995
-0.005359937716375424
0.007277108416748898
0.00505811585611067
-0.007724087954313721
0.0008904077282073597
0.005399220267706128
0.013592866313563585
0.00031075180187234105
-0.011439107984010582
-0.011604723454837148
-0.01321036760213124
-0.011775398725414625
-0.022538612654252048
-0.01389399782196692
-0.022240819176139747
-0.020404670608957263
-0.014580851167980968
-0.01325353730962238
-0.013927475775853588
0.005042091101150139
-0.002376296937479152
-0.018964898806807056
-0.026138644740749832
-0.010350190398507389
-0.005064429531833632
-0.010360879754940006
-0.010476079976143993
-0.02945252657009881
-0.010034037144590193
-0.005715242564856142
-0.011547011870901054
-0.02213529918194107
-0.019379288670713285
-0.019427007815403536
-0.018379792785432558
-0.016736270600489742
-0.004328011266130754
-0.00657310135018486
-0.014894584618894475
-0.028477612044049787
-0.024010600418186943
-0.016305546378481733
-0.009270843083072562
-0.008476094995311078
-0.01031033261737287
-0.019195602630818057
-0.01701263063477667
-0.012071920101867546
-0.02675457643542764
-0.01980639995087317
-0.013312588162175404
-0.02636039009724546
-0.02177661500098667
-0.015663945088735448
-0.03323205202731865
-0.018298225143623118
-0.015028734320688925
-0.015216165833390444
-0.01448539756239603
-0.014423372242299146
-0.01663664303892394
-0.011977660873411991
-0.0016722419162499681
