-0.0006216226255936527
-0.000634795044775995
-0.00964632695349087
-0.017348908116602613
-0.012160761099203323
-0.017076258699324862
-0.012139975404160333
-0.014059876764415715
-0.013985097566056908
-0.015471201382104977
-0.012841771040478287
-0.01318304003681499
-0.01467246498741699
-0.011483245284104176
-0.008293831114862328
-0.007464409157658996
-0.003661909267230293
-0.001739045396187347
-0.002350631211616226
-0.0033689684391194404
-0.00746170736141777
-0.008006079744128636
-0.008689802730708646
-0.01377294342148078
-0.01216077469074276
-0.013578728803961899
-0.015364758825606931
-0.011128272919773866
-0.012681360700237744
-0.014284238512157458
-0.012460821377238742
-0.01044130102673197
-0.010231330076228028
-0.0072090829886677
-0.002767298979277809
-0.0019121587307055583
0.0009546819920577508
0.004728122846294137
0.004383311007332186
0.0003166558610120916
-0.003391500917266083
-0.00647261645514476
-0.007202541828845373
-0.007711453565073309
-0.01144787257206656
-0.010766057433155181
-0.011562760612727865
-0.011516450946365504
-0.011744702561794636
-0.012843246954995117
-0.01162317924799892
-0.005386609618600668
-0.003984004231846142
-0.003520073716707214
-0.002231343599375467
0.000829645080624434
0.00581392197842785
0.0075573108428462965
0.012668373670786685
0.013568763268573758
0.008306124492851777
-0.0004361644983604835
0.0004951645064674519
-0.00911119220967173
-0.009825277914093383
-0.009014118046193936
-0.011886469897903824
-0.014529631387557399
-0.011305193508202404
-0.012891784703937577
-0.008229668476973352
-0.004413538178116549
-0.0030648647776399226
-0.003011083139250237
0.0029006730620532075
0.00841005395188231
0.016863112424553746
0.021649992736295323
0.02619660970475232
0.028514386320405767
0.01884226701476133
0.005674013461512555
-0.0020386909103650088
-0.008299629943048874
-0.01023670695026991
-0.007418287047704946
-0.005159631819636924
-0.010587236152524018
-0.0097083523145597
-0.00939883322147017
-0.008000941221741598
-0.007666782592152411
-0.0035140365673182634
0.0005732477266440182
0.014597781544653582
0.021841386529613635
0.0304356906021188
0.043266571841628874
0.05279208405477192
0.05742995717119005
0.04304237440745847
0.01050846153214109
-0.003330146859302676
-0.010517468686563414
-0.009361693777936886
-0.0017162331767278866
-0.006610307190460954
-0.012556627961469426
-0.00882597694898186
-0.00953942070130171
-0.007154616208584148
-0.004334000145443961
-0.005126811569849503
0.006214319382055114
0.013439907947209388
0.028267039226772983
0.04772560919289052
0.07473433580276612
0.11128230042532201
0.12788368726331462
0.10610576764145359
0.02337506563700314
-0.04839445311281734
-0.022592387047581357
-0.010354583340168762
-0.004997864752114448
-0.00911374055557749
-0.010071618745087541
-0.009403874076748763
-0.007667016178717807
-0.005411652867373351
-0.0020093616411783425
0.0007567350168503192
0.011336458709899548
0.020330012494251308
0.04212370060546131
0.06584088189543581
0.1262495256133972
0.20665554164750188
0.35356707234796153
1.4822001632788804
-0.03863046734415056
-0.0966872812674228
-0.030205390199526203
-0.010533700576266047
-0.005994246626826986
-0.008199957485570447
-0.008460063010483377
-0.0049049877920840515
-0.007672092141337015
-0.0070540208620927984
-0.0032254618858284655
-0.00017596239991576564
0.010606960203537833
0.023195357099144977
0.0417345387825872
0.08058143486922423
0.15402606604449648
0.33522901182554876
0.946992126349515
-4.1771975852056125
-0.5293880233879339
-0.013089558532424933
-0.014775912713777272
-0.0056066837714542975
-0.008960642555910505
-0.006985313819874694
-0.009378442004229262
-0.005904660089678737
-0.008277421460940486
-0.008723717846496153
-0.004644682363272785
0.004197987589655147
0.011155076760716653
0.020821884409961557
0.03831900826843351
0.06931103542881663
0.12843198304549142
0.22542535707183267
0.3750003368804381
0.5359757043699418
0.05421259065836139
0.014410000166929261
-0.0029190989707515826
-0.0026413080738638376
-0.004268629599430916
-0.0032685600964962778
-0.007134393873627581
-0.0013704100976722727
-0.006517463506675356
-0.00665208189893952
-0.003966923336235741
-0.0007428848897174509
0.009918183621364658
0.014054709444641217
0.023681199929173374
0.05178431196813874
0.07652204962621877
0.11718282678843052
0.12398253496037753
0.1540654861808694
0.051086647779189004
0.010644210222733468
0.0017276644598716714
-0.003977839149016741
-0.008029396918519536
-0.011898586854469779
-0.005929433736103048
-0.006461022105409373
-0.0064264704936621815
-0.008236094098588134
-0.006457671238181526
-0.0025714600968204456
0.003206902986043305
0.005646024804220036
0.018678264919804243
0.03361398729010218
0.04778006145992449
0.0589367746276086
0.07318374025855451
0.050053868191027556
0.03521626995138496
0.0076397757429124465
0.0006068463814747826
-0.005927823230175801
-0.006848619079290999
-0.007306179684771272
-0.007366050440146208
-0.011449804916803485
-0.013062217446495137
-0.011310141576634186
-0.005807723268990303
-0.00421148472169689
0.0015011758465050683
0.006237046661264079
0.010646366806207766
0.01964963511508497
0.025887516686697472
0.02908530934185243
0.0291485924715942
0.02718153004992797
0.010533721784819563
-0.00297298175854094
-0.0015264792893758847
-0.006715832465940135
-0.00833789032420958
-0.009156803094541373
-0.010892731195573133
-0.014475885725802056
-0.014371791650043667
-0.011152329135539167
-0.008677976391894746
-0.009329959086768935
-0.005139095664614261
-0.0008659643187984162
0.003962416993067138
0.009051069469013689
0.010941662757094694
0.015561077018525186
0.013620598380155238
0.006786374757708295
0.0018084525416912087
-0.008102650094951817
-0.010437904001629634
-0.00981290267041137
-0.012062318237449663
-0.015169914564419391
-0.012636139238847668
-0.010579912784238168
-0.012065435163121885
-0.012800639216405285
-0.009742214730142
-0.010132598118609597
-0.009572895811868643
-0.0021252227890553575
-0.0005374943491667811
0.0019188665189414345
0.00553349335342453
0.004549010659281386
0.005266220530687457
0.004368941997207017
-0.002098398854860542
-0.010511361988348381
-0.011549264922246573
-0.01287019567789012
-0.011982008354799338
-0.013451305559258083
-0.0122118631025218
-0.009890567919175119
-0.011772858206745297
-0.012601950345503245
-0.010190420280789347
-0.010224331753302281
-0.01021844310757296
-0.008983586668077647
-0.0024739206364344643
-0.004539678180077224
0.0032815688160785944
-0.0026945233557356557
-0.0020657661081809444
-0.002671134470430384
-0.006195430676694084
-0.013397006263053571
-0.014238881998938094
-0.013204625194320552
-0.014861834630903221
-0.015798059075541326
-0.014325759809873946
-0.014047485202925928
-0.012718854733274634
-0.010996687518252621
-0.00879383785810331
-0.008429926340045883
-0.008675091314737137
-0.013711417197317693
-0.008850414672463086
-0.0030751067455063266
-0.005154160541547426
-0.003968702262753454
-0.004623321391144825
-0.007289584881085082
-0.007299421153049354
-0.013526434058757206
-0.011185862111036868
-0.012994138746644773
-0.015847985120337648
-0.013685245352747101
-0.01318983923049178
-0.011839233736664206
-0.013855622187010256
-0.011147848713376735
-0.011882757548594422
-0.013991851000351885
-0.013708195091943706
-0.013786229801523449
-0.012029998909812099
-0.012633759027339306
-0.0069314983162863195
-0.007566564565554733
-0.010204821641343838
-0.01164558876076565
-0.009789658873168662
-0.010538268869164981
-0.014075992770401934
-0.015501477396281889
-0.017574061081901078
-0.013131122377789035
-0.01464638515461389
-0.014096148169574739
-0.012284801619247636
-0.014474886654357354
-0.016829272475736786
-0.01415953442600914
-0.012976082628980326
-0.014259064816058556
-0.007706677298188382
-0.009055920424047226
-0.008121906678540371
-0.011190637942572478
-0.008516040671117856
-0.010452539085582946
-0.012648556654513202
-0.013241322187958517
-0.013476219885063404
-0.011763076691591212
-0.01293318411375826
-0.012685446464252893
-0.01381555204236868
-0.013438008342296
-0.01579983955717534
-0.017422179949482988
-0.014376409824937689
-0.015811578366618905
-0.013842978541739433
-0.011623947626625119
-0.008789297820832114
-0.011209371383820634
-0.011754097880465402
-0.007399882536976837
-0.010074708772885202
-0.007420457829633258
-0.009326753288998598
-0.012757359098044848
-0.013091125149891894
-0.01832987463120458
-0.014702080463092815
-0.010367521915871357
-0.016995707754924226
-0.017330737212391322
-0.0183919837760839
-0.01641595755895258
-0.01350848370912641
-0.012996156085082198
-0.011028473198700577
-0.008676513333478584
-0.008387636102674824
-0.0075953664799239115
-0.004786629382828414
-0.0034974171057508938
-0.008197173064685466
-0.008475213460735185
-0.011762114716406157
0.01897987323563321
0.01766861681718517
0.015558949255075588
0.014000211834127006
0.012681870304561357
0.01102138856528842
0.010562565855633692
0.009437864549897266
0.008688933372550327
0.009690918551596206
0.009093291482134449
0.011705268196839189
0.010252303769278
0.01126715648983961
0.012586045585248826
0.015026962235128644
0.01574522828377648
0.017985347843202278
0.019363712904942303
0.020037357400310467
0.015962027317234707
0.014855941490245467
0.013231400470460807
0.011794521460973392
0.01132782393183334
0.011140584780511619
0.011056237822345074
0.00946580492664827
0.00923085354023452
0.009365432346777827
0.00896552072979214
0.00987608914878734
0.009626682101046126
0.011333753181705751
0.012041437675834685
0.012510666332753915
0.013451289589786192
0.014163785339019202
0.014658582018395417
0.01511925859390813
0.012213122811578037
0.012844183000498598
0.011422015008989915
0.011428208403143668
0.011295113172253216
0.011124380196238638
0.009654527962750395
0.009617073077385636
0.009079198866973224
0.008042842127971812
0.007972356125601342
0.008541062411097927
0.00929616535476024
0.010302803514905305
0.01103234794149191
0.011137941161273009
0.011013837966788868
0.011134021445855529
0.011774313131625377
0.01322106000898677
0.01057021274149941
0.010146456624129037
0.010087084422217077
0.009565165391055829
0.010115859277245468
0.009666887698171304
0.008473052604874238
0.009432514143943256
0.008211117974461014
0.008601510700080535
0.009446466175014677
0.008996380545629162
0.008326766247337898
0.009563071805079463
0.009117927347163293
0.010113946610204
0.00973727495619639
0.009902182674506857
0.01052269865147816
0.010597561918136487
0.00965943136702731
0.00955228174251124
0.01026091037100483
0.009383701666014528
0.008965458658174866
0.007328744367364735
0.00902568928481146
0.0089753712339655
0.008676972670288855
0.008787527042411744
0.00823356359765025
0.008044256930542344
0.008527277865571826
0.009689757122606732
0.008996068226940719
0.009196653231418956
0.008241721725052168
0.009370607588228712
0.008445382187985578
0.008986664695065958
0.007609723267404312
0.007566262542845693
0.007232913784257896
0.0077526638809179114
0.007600892599330432
0.00734651563988034
0.00812498015567538
0.008949097032311067
0.008036357769977298
0.007764643212359848
0.007867089346166947
0.006577067630667539
0.007684835450277909
0.009200997399343751
0.007742968879364212
0.008063926427458044
0.007911170229428152
0.007913371400107195
0.008179441526491126
0.007939966335878386
0.006904607591601889
0.006893214292089566
0.006287620958031663
0.008012035610701244
0.007458193108878213
0.007086346866094708
0.00790883801021933
0.00698050344233511
0.00669491907092196
0.0074242032317658815
0.007365473701153977
0.007238924712742737
0.007546350154994221
0.007313054343083971
0.006952972919633168
0.008033029320365455
0.00738314035110341
0.006332768739680625
0.005464953652540042
0.005748438533490637
0.005089743867874049
0.004970767974590415
0.005177829623788448
0.005564337052763726
0.006888293191558994
0.0057514840518968335
0.0078694132942394
0.00658191005096428
0.007659003653312521
0.008131371243211099
0.006983822079914807
0.007518174591544592
0.008047033973571236
0.006803949034920096
0.006789711299913024
0.006106431865619903
0.005782548114662352
0.004700054447142134
0.004080723378074174
0.004509321103769759
0.0026755570472479745
0.004487027545523967
0.0041135359390983405
0.004325877170904866
0.004684270786079933
0.005147344358584455
0.007850710109289862
0.007604018189439444
0.008839420097941607
0.007970860418079661
0.006829154538719368
0.007096600548718818
0.007427207756249775
0.00654179575961856
0.0059426876006065665
0.005074316932937665
0.003924781631971602
0.004521233305864248
0.0025348482812632025
0.002297547247636403
-0.00042503746692683917
0.0010598884706299982
0.0033997889392397623
0.0030567252731058
0.004283994695892265
0.005265758368810902
0.00707208483682045
0.007187037957790941
0.008247968562846684
0.009284118304312165
0.007374010236096794
0.0068645237160796825
0.006530640699731056
0.007647354245197165
0.006126566766788894
0.0034870843058719945
0.0024684786026581878
0.001758854313442464
0.0003641375044182044
-0.0021270369878016865
-0.005702038678369138
-0.0020263805247966475
0.00045230212800425533
0.0026885335704751557
0.0037831524744529783
0.00616051516373786
0.007361306500856011
0.008312498238394613
0.0090179072641764
0.008932830907457745
0.007895758813246894
0.008046057172710867
0.0060156844094786735
0.006517806835628365
0.005626467047776392
0.003594639168556111
-0.00017589609151223858
-0.0016888508553056462
-0.007290817498367814
-0.00674156146269737
-0.01316797415008007
-0.0092558372571673
-0.0007113593400895923
0.002007662716621902
0.004014907955751603
0.005661072180803097
0.007618583339121871
0.007527147608899668
0.007912932076644834
0.008083838959301579
0.008389494264053124
0.007345059840752186
0.006753941389322057
0.006345899161404044
0.005079680921428754
0.002925577021672804
-0.0025098867836745053
-0.010838868046374555
-0.015959409466777257
-0.02491411832612364
-0.03891669503195284
-0.01388196600032526
-0.003734947427944362
0.002899489229136833
0.005411623942385202
0.008201762454959814
0.007486080815231072
0.007788557313228036
0.008399437418733412
0.007953308912305493
0.007686422638885039
0.00628497739698418
0.006223498190022685
0.0066774966747176435
0.004405392979601823
0.0032299687650761627
-0.0050583665733330094
-0.016033567244012465
-0.044715621527888855
-0.04353302221507391
-0.05189328196484266
-0.03058433654152804
-0.001488496702577302
0.0026786524330407405
0.006294189544413184
0.00754125141291008
0.007758161364579388
0.008760697363334837
0.008967295348205461
0.008319741184031688
0.00736827704577812
0.007475527133422588
0.007795266801614587
0.0063648215843981025
0.006169590324234156
0.002513322717396936
-0.0022936124093561145
-0.037793172518390636
-0.07462400311610601
-0.17355806821837616
-0.13445088495399057
-0.015440305170656596
0.0006088796637498878
0.008959090479871755
0.0073245733674446424
0.010243826725448728
0.009264291401063584
0.007841638339063331
0.009303455957388546
0.010394281625355859
0.00944237401663515
0.008545583828247855
0.008867086421713572
0.009013592007972604
0.008934965930827182
0.009238912889566029
0.00041864885595430644
-0.021596765046031644
-0.17312054448362993
-1.6985458507633218
0.19622938525159664
0.050106921696767046
0.027925355609881682
0.014823950806700277
0.01258456385119847
0.011608596929533161
0.010231235216411177
0.009867059623020157
0.009696589158830968
0.010254719143174681
0.0097981425310604
0.008993976168584954
0.009935063526811361
0.010378631849709517
0.013071649139259227
0.016187859691863277
0.03194915316748304
0.059101959298197754
0.26280210555788514
-2.2037564377738232
0.09804516378736701
0.06260831604066587
0.028461821687892876
0.020110105907362886
0.013073021217127551
0.01188910826396502
0.009537479032707203
0.00896170523539291
0.008575039466570088
0.009714605286546385
0.010598863745921684
0.0100165880453082
0.011269121445452366
0.013453479237438204
0.014129060725147866
0.020395885194582526
0.03154058292280276
0.07003878877714673
0.12659329778834238
0.24828820060707343
0.06703324678051573
0.03965963703489473
0.027635727644371146
0.0178014986427496
0.013845261629509031
0.010905787023083431
0.010407984932454192
0.009219867031026325
0.009525276338203206
0.00983596450983085
0.010492923727325347
0.011409215442756965
0.012635548998084847
0.012654456518843284
0.015263583991860532
0.019883144912207724
0.03125407957353568
0.04275653372102551
0.07234199564610308
0.07652760277623868
0.03761265144589668
0.030581602282144474
0.021068440286775583
0.01599246557491329
0.012996597281522094
0.010786607656540612
0.010811736694817728
0.009957110229720014
0.009024639585625998
0.009752529364707736
0.010290954574769036
0.010580139003511908
0.011484997089583313
0.01168513788469627
0.014537084755930022
0.019124098288318576
0.02417856438920923
0.03394854328426829
0.03970837970798227
0.046483804048582614
0.027313573564833847
0.021021267678011064
0.01824207656935095
0.015759944542631833
0.014627561688510732
0.011491065073013444
0.01087416926825866
0.009634125141196735
0.008854004007281133
0.009907227001496093
0.010193261174812104
0.009917601605088575
0.011586242284797483
0.012201374795419427
0.013938846046276623
0.015947812685616607
0.020815801551126587
0.022653538835643763
0.028066395223425425
0.028550768596931658
