0.00037012121008364693
-0.00029237415580939173
0.0005653643687221124
-0.0029767925893337934
0.00032340071665818944
-0.0005165718733726725
0.0016197746345823056
0.0002727270529140751
-0.0006326895639846424
5.663701271517137e-6
-0.00029198846852837275
0.001745182133374066
-0.0015996884650183113
-0.00021666345223254847
0.0010117821891345458
-0.00016329173973805898
8.47319780091505e-5
-0.014868658541198333
-0.026962340218657753
-0.08234250316358441
0.0004591393946047465
0.004027799062672323
0.005633154647820944
0.0003990451171587524
0.017115430003701932
0.04509877143243165
0.011427547941526374
-1.0055812736781458
0.03668337205924703
0.014159809377570701
0.014186490373415163
0.012042110939584766
0.0314762075388227
0.07761617292859792
0.40272724680774485
0.44401624686271024
0.2048662840729401
0.06945470576105922
0.023469475586989866
0.016738154196937815
0.02236629083600222
0.04323950944776087
0.08012496631249734
-0.37977864305724407
0.03083870290263328
0.02054677300330821
0.014137487903167023
0.01327492003112016
0.014132081060960382
0.01638651819096865
0.019670243281307644
0.004076031953231296
-0.0032985254215667542
0.003949868784531896
0.005493982896577315
0.00590901874291914
0.001191389587159121
0.0024600757442569164
-0.0016339309955359003
-0.005133504619904533
-0.008287713345329947
-0.0019892417042131974
0.0016159646078579078
-0.0002614240823782838
-0.002346511801322969
-0.009922457362030306
-0.010614542242525275
-0.018375783065675475
-0.007976306339183625
-0.00563011834979488
-0.0022655037169151283
-0.0026786507497905225
-0.0052920433618872135
-0.012037287725392958
-0.03107167556075902
-0.0371842759161739
-0.021334502677190573
-0.004300255731927303
-0.001578410917043041
-0.0010496372575848514
0.01424796779236113
0.05570687495802438
0.022776684558976884
0.05351649408663149
0.017138812696955462
0.020604379548079355
0.0007216637562203593
0.017124893836091108
0.025559915208211874
0.013817803596182465
0.034209896454996
0.015005102410426647
0.022700843984790355
0.0013883063179357992
0.013008688177364556
-0.0014322795542434364
-0.004172671946501789
0.013422195196965374
-0.0049561831054066715
0.013575299574718628
-0.0026617668978511765
0.007700479272630143
-0.005302047425688607
0.005843733366701409
-0.0006309398183289961
-0.021206335938429473
-0.0021336828268054956
-0.020911637148830535
-0.0021075170529330773
-0.011546760322528321
-0.0012531968207419224
-0.012633386392767633
-0.02685682976851618
-0.02227648002800747
-0.026521069344603614
-0.020485128092415348
-0.02677241373270861
-0.0049778871125052675
-0.016540028779260536
-0.0029831416536788913
-0.0211552520145727
-0.04789857466273006
0.10829945793929566
-0.06274596898379246
-0.006536482438237566
-0.025405960248338917
-0.0019522482268630832
-0.02698490462766249
-0.08149200786177939
-1.6184436792382393
1.407928971289629
-0.044287754962161446
-0.02279448915905933
0.00681880470818633
-0.017112645598983303
-0.006107018498832449
-0.0007738765594163101
0.18728396939342912
-0.02381254975016997
0.054196937804011094
0.03951589412947884
-0.0008110289802429362
0.012568604166897208
-0.009906848669529544
0.004862608810339378
-0.022819785160679527
-0.007620303434482807
0.006684833247260611
0.07925826165280896
0.07617523111812968
0.06946915214665214
0.016755503867103342
-0.014667689705591484
-0.015733581142818746
-0.025359154211088582
0.0011978144862872496
0.0023635288949776672
0.041564046376409695
0.01364585924879537
0.009617816595116955
-0.01487163607946997
-0.03638685012104455
-0.033429120421418344
-0.04780149655700592
-0.016422148348158947
-0.018381601800802456
0.0031003126891354267
-0.013288887334960576
-0.034906958666401686
-0.03658531776811065
-0.06567688724267842
-0.06323311813559104
-0.08095814371609472
-0.023994786553096132
-0.021026835320461294
-0.010217127716026488
-0.025389839582811068
-0.06452217610995886
-0.07897236767393533
-0.14737406039357595
-0.11070519424687106
-0.04534315481800403
0.004623727346977342
-0.018486912434388447
-0.03561702823240155
-0.05721763970219343
-0.14804995480551797
-0.22118575742532154
-0.4199173332792748
0.12011662652773994
0.023661054577510436
0.014068560665133283
-0.007054298981493979
-0.07606216925929833
-0.11033521700658917
-0.3273190535030869
0.916632294229261
0.3658647997912372
0.11724324063337684
0.02035250818815382
-0.011956999846634134
-0.02024638863943074
-0.06091846201736713
0.05939172081237537
0.2754509477755005
0.23259801514943046
0.08951209962656284
0.04654487285090639
-0.12205207373722801
-0.04158443228889817
0.009403296964238698
0.005479181105418723
-0.052755455276760795
-0.1180003366984039
-0.14461980812816808
-0.14885379218602793
-0.06476076423820515
0.06522645231554536
0.1443415052882969
0.07663975979090051
-0.008220230626977075
-0.08747108911392341
-0.13684144570826354
-0.1251024809935355
0.11722712265631066
0.3165985637251927
0.22053172654929473
0.16143597278346214
0.08712421281943776
-0.013474913990095663
-0.07122792929526812
-0.0518331619689901
0.3410310651301327
0.3060954024412262
0.2418201425854913
0.2731938773772363
0.19280383628167558
0.04259957455119156
-0.007598947856292848
0.08117289912156488
0.42279435582077224
0.1573911880902452
-3.346567187325519
0.3347923223397057
0.20659957005742438
0.08565787542916187
0.009569599141984459
0.1467279998988516
0.39532095793086414
0.30748521815696234
0.3220567743145808
0.18471600455510598
0.03790223482951549
-0.05250975229907382
-0.031001958524140436
0.03695914533639851
0.04094812529796113
0.15001726522872164
0.04222834704357114
0.001398867048776775
-0.08313076866974256
-0.09025310864701387
-0.12095826986530886
-0.07514177439533051
-0.08935915479399838
-0.045438300474545806
0.0046219128726543105
-0.03296590249169751
-0.06743937392841393
-0.11970192109500621
-0.13625138201297574
-0.13609663844591216
-0.005163385203662166
-0.006287262702337578
-0.011978054881154488
-0.020968376607220417
-0.019534786506598643
-0.020075846635126966
-0.011204747673704068
-0.006344962958231449
-0.01139024895721068
-0.009775197917534128
-0.01570611544769991
-0.01732699131621082
-0.02842128323653529
-0.026262044581688043
-0.027674521611657538
-0.01129218264894195
-0.008810093953146433
-0.008778519976712725
-0.011915042721216934
-0.02027323990452007
-0.027248001625730902
-0.045748721937973136
-0.042803169629120015
-0.022437824730016525
0.008148177562430255
-0.0013688837546845458
-0.011936313918637358
-0.017684682353944756
-0.034112078633429015
-0.04112741849959132
-0.04913886524760712
0.007368343239335998
0.023647485881580336
0.0076266994279272134
-0.004703157788784696
-0.007835726824206763
0.010828728312796502
0.04756674114875786
-1.9385709993388647
0.07409571990205203
0.0771593577934664
0.01769367101250183
-0.004638717123915725
-0.008355134600977938
0.04111095711858203
0.5753133872393329
0.49637786028111314
0.2575493872131516
0.028947327067191213
0.007055402102362852
-0.004287042560291491
-0.008877301403602704
-0.004062985328179496
0.07071971686078499
0.7825141960988501
0.09075631604314946
0.009832026406192981
-0.0017444016808588387
-0.011784571691221818
-0.010491063338799775
-0.01243069387422643
0.002826632859097864
0.03958836284640455
0.016844165091190563
0.02142320360140694
-0.01308284489705205
-0.02557204161308783
-0.02668816774737571
-0.011078119387632477
-0.0024473426032238102
0.013116338932401434
0.01561860681324144
0.037330607501353585
-0.03409077435080863
-0.053571169039719
-0.03412122883697116
-0.021009177801827976
0.008149468003398785
0.025009084565319716
0.05887323326432952
0.17403337812141068
-0.2816009652642287
-0.10682269486809037
-0.06101560680125607
-0.020370824295088463
0.006969370520887401
0.06131124343965225
0.10594994060347676
-0.3239174871328116
1.251721202521603
-0.17527582098919817
-0.075879503022785
-0.033228389409105184
0.019444233375288358
0.059610891529010994
-0.3225704286516332
0.29725629850918917
-0.20262144684870909
-0.12306237357068481
-0.0735774754892418
-0.026288338780502726
4.852690798555427e-5
0.045395093856418094
0.07429126492210812
0.018823327469652724
-0.06774944302901181
-0.08116570890143274
-0.044426505539593
-0.025493252547340407
-0.0014026960856096272
0.011040134139734066
0.0399436587224282
0.007878180200191424
-0.03239700556276294
-0.03291774824256156
-0.03037754216406027
-0.01483131434329872
-0.009066013832645138
0.008101621096517287
0.009220085178453174
0.0021046152756853485
-0.008336047151299457
-0.024101647893981632
-0.020420590187975703
-0.01632155475107926
-0.0029788695943492602
0.00216129790192353
0.012853254434842674
0.09114594851798939
0.01733619291985477
0.012634053562040719
-0.012898232771647538
0.014990580551056634
0.06404655959697561
0.21547885261365105
0.17053381745691998
0.029735984005127038
0.02034538123549234
-0.009742687924914664
0.00427439581804436
-0.008940493017351527
0.03341438089826276
0.06844529160134767
0.08430643543490092
0.010243177338882529
-0.017394873437599583
-0.007801007783170717
-0.023116534129293608
-0.006226198449964611
-0.021396569859629733
0.01669494592255215
-0.0014742286365566682
-0.03627539320661474
-0.0177339196140137
-0.03124399694564809
-0.022181800692296257
-0.04008249719635685
-0.0290196895708923
-0.05208453047584056
-0.020489749486598475
-0.04603676100381139
-0.04820461793253741
-0.030993587399165422
-0.048857458374750105
-0.04518188207547554
-0.08579650121758305
-0.08086474273049159
-0.09130857298671624
-0.08441366692766128
-0.038776365969096775
-0.05097670638716554
-0.04668645361166128
-0.09126245814897169
-0.12033980038772762
-0.16744940657478888
-0.12441793652512972
-0.042063215980384316
-0.045814580096276425
-0.02435515178759559
-0.06274412203063602
-0.07246792301544504
-0.12631779090537482
-0.4115374922859958
-0.2190975657749577
0.040983888725557284
0.022701695617808926
-0.021962494240669067
-0.013121213064833067
-0.06266274717786323
0.6033192703105709
0.7708622835186625
0.32122048207885373
0.026153259385146767
0.05057094207415552
0.08236667634325093
0.07915932618299136
-0.06031262817995222
-0.05989277303016722
-0.032976402682861075
-0.004855238122922023
0.017597647465808688
0.037765820747981745
0.0464848056608695
0.03435568944642371
-0.007439802171852267
-0.02092515164305641
-0.013932704045339118
0.00015591904419993155
0.01697127615234193
0.03009811470007434
0.03583594257659456
0.0301055442163407
0.0030951922816371586
-0.007144981810973076
-0.007501290135299988
0.0031934475579350374
0.019642786973937894
0.03544975943720033
0.04596798033645282
0.03938747892734326
0.004802106912341934
-0.0170310332893571
-0.010962386710133637
0.0031072380863369324
0.02663416977972158
0.055783154995299025
0.08456980200334363
0.09291327527899579
-0.02251645099996231
-0.04563358074975006
-0.027143653924621806
-0.0025476279588035533
0.0326969536178077
0.08536357138060746
0.16531754696797385
0.378957578268748
-0.15578721533017517
-0.1209820669177791
-0.05639619236558613
-0.008409946971960687
0.04001153172434089
0.09136775682998473
0.3505576523134923
-0.797190553355554
-0.6244309628120599
-0.17149946561201307
-0.07250182608068444
-0.014641676658288005
0.03449941800788722
0.0857999186840414
0.17384515309937879
0.45362800056486846
-0.1892858314900561
-0.1377052427702883
-0.06227153775674508
-0.008194214467462838
-0.017651131016888137
-0.007158085819968934
-0.0201574884599606
-0.01787569688419094
-0.02935747115271383
-0.0219846052201753
-0.030841214668393267
-0.007234952061100648
0.0009486511403972498
-0.014838100728001442
-0.010412370122728786
-0.022944031533870493
-0.017392512350491145
-0.025195137739867646
-0.006683624576166739
-0.008873378414447956
-0.00372278181684099
-0.0014836492755130708
-0.01767840438682796
-0.014099833975133244
-0.025132795998146967
-0.012359454543721636
-0.012030365048335458
0.03418591007246092
0.023948489229054962
-0.004230911228337266
-0.008902897149597942
-0.028103900665839683
-0.02443445792179097
-0.049200058129534645
0.08250218111081228
0.3002503481269181
-0.13545357304210584
-0.027760104969277447
-0.029969106185493772
-0.025267232011326666
-0.05812688545594184
-0.07594118893250953
-0.36562329771400603
0.7982192468636933
0.02927559523891321
-0.010877138938784387
-0.014128163135051608
-0.03991347142747333
-0.045505981090719946
-0.08582544140738865
-0.04904640145995622
0.5370475335113997
-0.0008371139372326888
-0.0025254261563730732
-0.023642800550952227
-0.024284547846758785
-0.04942555845990246
-0.04695307816889998
-0.05247077896260938
0.04416594138648132
-0.0004294120045906873
-0.016976412978969388
-0.014192818152006946
-0.027796932248488084
-0.028388019306098775
-0.04339428982582898
-0.025065601057851494
-0.02034381037441765
0.01593423626134042
0.04025172048031292
0.045507495867882636
0.01847163587168096
0.016696700558593562
0.0010231240684662316
0.00948725663154138
-0.0033759880786168937
-0.005447834597178074
0.015087483658781826
0.0016574274742800522
0.010550090706885621
-0.0008678341193212575
0.005084014201557813
-0.0038453287311572305
0.004566031951192743
-0.0008036387346005837
-0.01951252390313829
-0.002920328814027166
-0.011110129065319399
0.00043837321041136567
-0.005557766207334464
0.003479634797568764
-0.006321128650191245
-0.019408759417254895
-0.027430407121426005
-0.03952624017454274
-0.016109270717468826
-0.01365165837703711
-0.00036492936602200714
-0.004562628970819184
0.0036286327189637975
0.013239700469806204
-0.08074340554132892
-0.060724021292058936
-0.03632043716161715
-0.0073491477365302685
-0.00825786247824282
0.005683089647119199
0.0016899063512055457
0.4710501972467504
-0.47651753847200046
-0.12032921100474656
-0.013231472508882207
-0.009884198824075601
0.006072530517668809
-0.0010098854461986983
0.05429212105514021
-0.9395967962696683
0.5717022555898393
0.17457783287683076
0.03007548460572308
0.02233733467173698
0.0011895961029983195
0.010602442145310939
-0.013492360395886237
8.065867963156137e-5
0.20107865348292206
0.08364832764322806
0.050558164234634946
0.013968479263466187
0.01483928575350641
0.0024869333343741735
0.001535880052412932
-0.03372544691789972
-0.03263184954867242
-0.04389238158108347
-0.2337042080785477
1.0281849867355195
-0.5049965167981627
-0.12780676015303802
-0.05395954738541901
-0.05383718340013795
-0.05253972898951117
-0.07922320498949165
-0.16233367466069598
-0.28713614616660954
-0.26967873477300924
-0.14645265911884503
-0.07670824162975916
-0.04284979526698651
-0.05037734817877036
-0.06140084016978057
-0.09805529292664056
-0.13342876990841937
-0.1366517645408711
-0.09199759678495856
-0.06143037769436118
-0.030586249033646283
-0.025375322993688488
-0.037387512130509275
-0.03857666705983197
-0.057133280203565444
-0.05185523253011898
-0.04446295651590413
-0.030510179905306415
-0.009303106846664811
-0.011540700813259962
-0.0024299005880704396
-0.0034139406231879113
0.01116427742187752
0.0008673620365611755
-0.0006390404562652113
-0.01076378282357871
0.005203574322640045
0.008384548690494906
0.018004838422889437
0.05296866019692174
0.0776888853609473
0.08106871533153528
0.03870988319043174
0.01776103714579648
0.013384751706944925
0.01582999961428568
0.051060704022060935
0.1079241115286625
0.1801399655747097
0.16900907818886876
0.09016124590374605
0.029630991515977353
-0.00024014611813502428
0.0111024380358274
0.03556236463121668
0.11470803319020664
0.5579434706439632
0.3222712362626657
0.0998859660970225
0.020514962605055226
0.006636815327316514
-0.0816267971926271
-0.007953078425402485
-0.03696575258303323
-0.005410079198304341
-0.02462332967316934
0.010937238772047992
-0.00769554352348357
-0.03872793351667545
-0.023337917773078594
-0.044342676493802656
-0.01674931707476684
-0.033586366639045066
-0.007249643565485988
-0.024081997173066305
0.003785975034987869
-0.007736489773620559
-0.041292464969408894
-0.014183709425746031
-0.038154883821943104
-0.012889505982810499
-0.026104400643436543
-0.004890516018235531
-0.02348736659298655
-0.026673586032409533
-0.0081394387350679
-0.03731311898408017
-0.012816962422905285
-0.030869096288234157
-0.007386191722445268
-0.019216420138389298
0.0015888407068346206
0.00641153898562011
-0.022648397300693745
-0.015805478384169985
-0.03838209810117855
-0.00866654509290151
-0.02322482112171305
0.0015402494887600939
-0.01589276757186413
-0.049070187791737926
-0.09613633009242346
-0.11397236479417916
-0.012576735701877326
-0.03761983783943557
0.0051746690407589065
-0.014035217529814414
0.017992293699227137
-0.01152830828973435
1.0729086794692497
0.338861399908655
-0.029763299586254482
0.002519386865324949
-0.021098770428881163
0.026045377176224446
0.010494599735884702
0.06094421769852918
-0.5549873451787655
0.11531982151501212
0.005553622256864748
-0.033712696228912334
0.013042810293126423
-0.002723954928014062
0.03679220442427494
-0.00877795432317714
0.015115934432107873
0.0053287784902257265
0.02635605064758356
-0.007384130427279223
-0.03222356774932685
-0.03446734306037965
-0.0033768687086265076
0.010661757433733047
0.00174785139213549
0.017349998790155228
0.005373511846409343
0.02152489401049303
-0.008789753802907068
0.007132800169294657
-0.00917048029846968
-0.0008972005294890597
0.012202497448572464
0.0036284745449757074
0.017334178074164954
-0.0010423632621922925
0.017121949009193324
-0.008521788246740358
0.010259665725982739
0.011364608169773324
0.0012062034605949564
0.015722509876445318
0.0034178902593890188
0.019113284242974045
-0.008730507921281156
0.00984343754321035
-0.003273397154509637
-0.0034026508580044692
0.014706683811468073
0.004690178390236356
0.0285203997512157
0.011235936716361614
0.014856268296519664
-0.0064763678830905115
0.005758400407323268
0.007310684295512059
-0.0007344160302385275
0.025651257973252233
0.027932494596769816
0.27268872857894244
0.25587547903233093
0.042116669308984916
-0.027971621445406006
-0.018147939540888332
0.016637030311536294
0.007784432698218139
0.07300499140107472
0.6262423628175935
-0.820176931451193
-0.19211038695374547
-0.033425214840588094
0.0017020779817572963
-0.0010590455578271079
0.028422124677843292
0.023084985787041285
-0.018486772294939082
-0.3890791472660238
-0.07859535981215718
-0.041006252993388205
0.031910885089612796
0.03364396836542572
0.08596813273240025
0.1008349631079517
0.056938374841253775
-0.06616109688610484
-0.019458038252006687
-0.025056059651568013
0.0065399782275404016
0.08001021634290681
0.12609140672527963
0.24738144251874028
-0.45913075238203604
-0.042184963222513215
-0.07331837770027812
-0.0026850653157264627
0.03926149994539095
0.05292160198255581
0.13322662226937593
0.30261937411177786
-0.42134351605590453
-0.07271473038419969
-0.042995469008169446
-0.041179779578782855
-0.003962020556996508
0.05389157844313697
0.05102625713378467
0.10045719494464593
-0.12832153860732187
-0.08512421027911932
-0.07469083769330384
-0.006102833734311267
0.01538611370795428
0.005507893454702535
0.04862439386966619
-0.008184296861829194
-0.03966643298535041
-0.06744260136260442
-0.022962267524593318
-0.028570679684479655
-0.006508826180294103
0.02373776469468799
0.004819039261934977
0.02308796971556473
-0.028432558928914716
-0.011273472116484825
-0.029766955564362558
0.00166464867947163
0.015734146120095015
0.007946668430281332
0.03666983051157272
0.009696133380887362
0.019691391774991563
-0.02316369870937336
-0.001013229559455533
-0.013299368844061618
0.0017697161795070329
0.03825542604486007
0.02990425322163655
0.06131859344685782
0.015168383156133669
-0.004545320654049837
-0.027278489041232687
0.007631624812970467
-0.31137535268005107
-0.1875756013726423
-0.09119673985500412
-0.0492685189280718
0.00505166027066649
0.01515693673608702
0.04657755559119026
-0.010134399915403665
-0.666717273703488
-0.3788058367110657
-0.13598471904854678
-0.030823672796265085
-0.0003244142876052946
0.06474148886564368
0.10603738635159886
0.3239124405437169
0.4566024240380543
-0.18205360881509952
-0.07900072927753954
-0.03455022011304766
0.030110748039354516
0.06232522220223851
0.12698778486229917
0.2451555204036445
0.108277548022141
0.0023826819007193613
-0.027088599966725458
0.0076338642666136085
0.0179995390564999
0.06822483760671068
0.08816675056965957
0.13524834637133518
0.07306570110958964
0.008844524824881803
0.01297347839558974
0.003271030409780875
0.027277953677515166
0.03758968123592941
0.07247224184526037
0.06879320254743332
0.016112992113937203
0.01193599201980871
-0.007495792033297037
0.008224126853837395
0.01004056058440429
0.032122405947948546
0.027960798316056787
0.04554857951166718
-0.0068869104939359655
-0.03680209243193394
-0.016300945123286253
-0.014109504521143122
0.010393885364004795
0.010317546137434686
0.024274303938732096
-6.725101054947438e-6
-0.08348644919603965
-0.06852859950272007
-0.06423017164621783
-0.018929679738736032
-0.00865540114003061
0.019881348069908995
0.005414177474208709
0.009424691782730518
-0.01818347283013653
-0.04421446910544935
-0.09369191936933967
-0.13424494947637738
-0.3781225152010706
0.15261082604591564
0.07427946267857748
0.028850799731089914
-0.016182468388033465
-0.044532673464203656
-0.057922500948880025
-0.0904444589814432
-0.0698068266546795
0.024317428043117477
0.03288381421241756
1.4466559696753333e-5
-0.02514248239080493
-0.03366746420717524
-0.054223558833814245
-0.055058709785591006
-0.05327422190348188
-0.010669963288736163
-0.010590331895265589
-0.010364274277476545
-0.02217022281480758
-0.03674631471591901
-0.04162644480838785
-0.0532165823632612
-0.038720395952458825
-0.028378263381396724
-0.013416700293371882
-0.018695079334501385
-0.026662789706621733
-0.03327348172740925
-0.050408052616717776
-0.04832628911480458
-0.048058755550208665
-0.01584361937772201
-0.009895473405723899
-0.010240116038775815
-0.0170025332339923
-0.0453653300914004
-0.05902522038369142
-0.08515013840907389
-0.05489638290596316
0.0027560057379169226
0.01994514784245231
-0.004285144798700659
-0.020413676317363957
-0.04497487709887541
-0.10142199189600798
-0.13659667342608192
-0.22356556663843416
0.2089117166628991
0.06506461428516012
0.02192461708968794
-0.006872889457726589
-0.06241176735411762
-0.09739812230621091
0.8945669896546448
0.33758261004750334
0.6607851828790879
0.1278626234558052
0.031139851561707597
