-0.0003604194678816594
-7.82034830275322e-5
0.0004807308499328792
0.00044548442262552784
-0.0001260638264416483
0.0005756407342718907
0.00039031139999286246
-5.812900264062974e-5
0.0001861060477446455
0.0005195322413227216
0.00020036638084781365
0.00022842408060163308
8.675785110726035e-5
0.00023224688780712447
0.0005378020747100974
0.00030258106398014975
0.023080889027772077
-0.16680238658912017
-0.03695355648431101
-0.013584718776081327
0.19061493058129628
0.5222833791788883
-0.1588302182271572
0.05919406500995818
0.24732083456147952
-0.5232313426650043
-0.01852145391655005
0.06742788687781347
0.20285982658062224
-0.33885327763494283
-0.12348618542603616
0.07788132793510803
0.42508440130035857
-0.5613157913637695
-0.2769924639656197
-0.22079713957014027
0.23718171388906598
-0.0014501701791084934
-0.12805423578462743
-0.12567755019286844
0.13714321736472704
0.11184338990539469
-0.016712725007916637
-0.028817772164530738
0.2728263546568878
0.3395841921431357
-0.1504563578249271
0.007110936858291396
-0.45839790396819785
0.14653735226718106
0.0627296672259378
0.12580785149355658
-0.15483008929216352
0.06733034244843533
-0.009871011843662578
-0.03155218515262243
0.17912850250865256
-0.2802730969781775
0.022048556927640527
-0.06224979186060107
0.1346466922083693
0.2054350745016372
0.044382208353397
0.009227831165660639
-0.06950937746858242
0.3705837002140954
0.34798709389607824
-0.12979813531691534
-0.3347033180877056
0.21520937388733205
0.21798335786272813
0.0430379668572681
-0.08511390033312669
-0.05462295965525467
0.05499498277150844
-0.09833932766863764
-0.038709589905595844
-0.06903318948323844
-0.3086120183252392
-0.0800546592574768
-0.028146204483291273
0.08321617159174381
-0.0004242910749763196
-0.0659173882803494
0.30914990530856695
0.0983704575933975
-0.3336348512776581
0.24158083368610023
0.07396965308610876
0.14567016925533968
-0.1135126754902236
-0.2547564911809311
0.02420348475922076
-0.22808354530918507
0.07228409695416929
-0.0038693251403523485
0.10988107941711084
-0.05327589697567661
-0.02242579233307994
-0.10420667681845654
0.3026233466826383
-0.4663125587617084
0.0326958544785418
0.040658333609854005
-0.1161584230226458
0.3345408673232239
0.08982581235242408
-0.03480456059528122
-0.13357475616265788
0.13885699649678027
-0.059363569490775495
-0.0743600561620524
0.018263367210188067
-0.05187597767187154
0.15606128684761889
-0.2238701858224425
0.3825020742751244
-0.01587376197695162
-0.059372929678004366
-0.2705372080195718
-0.12974250848204075
0.0920979995137842
-0.11050226513661666
-0.05991814287825719
-0.01355050414900384
0.019550470376961886
0.2721210033154614
-0.0382527177139568
0.09960192021462069
0.0557361693186102
0.19209543221114095
-0.2614488683386631
-0.035724989814936756
-0.022369451236455864
0.12647228358194662
-0.14214897790624753
0.11307324854482229
-0.06324085017037885
0.0012147071614267404
-0.0656628183324028
0.16536370652546734
-0.21732711637748986
-0.18387499678865818
0.2704406014234573
0.06661008201159299
-0.09980312736219576
0.41331416294073015
-0.22279249450538355
-0.016004778575835817
0.07640716436337026
-0.09379834891397801
0.020776255286424076
0.1650258167765761
-0.12490140742450516
0.05286981450245493
0.08689960276186666
-0.3053148525334418
-0.19827382049473602
0.06008896916098436
0.08619696201688191
-0.45965797057866464
-0.13144814252373466
-0.09817449406259268
-0.22190584670467564
0.46305289163945734
0.3004464513219917
0.06379399490573441
-0.3096720903591869
0.12425383823894515
0.07875960008803988
0.09443466988897826
0.2407922478956624
-0.044044107669079895
-0.04377693546339441
0.020485947227645525
-0.04834005383763213
0.09104495045351821
0.04934080692255912
0.3092017706908115
0.24831204808030724
0.02270390807578018
0.028401158299633467
0.22128118651609596
0.003906606930106769
-0.08917591205303123
-0.1943253495867873
-0.45548729479928307
-0.2326704537292273
-0.12415333593471956
-0.13918276403685576
0.6479405742785536
-0.38803790021441187
0.20706250458468278
-0.0071071101763937215
0.04447195830933137
-0.10852013543429587
-0.30115621789825886
-0.14237277644842808
-0.040800539177532215
0.12506305500596634
0.138136665951315
-0.004349253292943983
-0.04502488193816152
0.26563572526377066
-0.015124297598288582
0.12371659556080891
-0.17538372144341463
-0.0851475712753253
0.15774369016368753
0.18666505025689845
-0.24347463238862763
0.16575899732160443
-0.05676824757063618
0.0018840122550456363
-0.12740046754718234
-0.00516215168860549
-0.07026053189750027
0.06274118921387048
-0.12279016756977856
0.17091902358758274
-0.057943067163333216
0.12957613718536637
-0.4424751285891826
0.21758629441270708
0.23891272378541015
-0.09784414349518586
-0.08475966429658305
0.026208028477184193
-0.09762281092549545
-0.21799261879554577
-0.024739815438976624
-0.059483202304415325
0.18986222929187963
0.20753734544182736
0.07937064252317935
0.15750865874174022
-0.349220725957727
0.04789430579309203
0.054418138281931955
-0.12174909113605004
0.40804164492719286
-0.007512604501258295
0.05658127897994267
0.05142764391658932
0.1327847083315649
-0.21711333018046639
0.2370920693765573
-0.1014772603435392
0.035212533630519946
-0.050183771680205685
-0.032639863813638335
0.02922002692701845
-0.5997814123031251
0.02756184270827128
0.06582554249958779
-0.005439048455363597
-0.20579701229607625
-0.07732648844724631
-0.01145156423203629
0.4049423748342025
0.034839081977334756
-0.034165903848375985
-0.01708762190348793
-0.3580181996288838
-0.13528205633583054
0.05010543303943361
0.10785290045995626
0.23916158992633085
0.018084596454329513
0.05054166419267218
0.061354053323419554
-0.11845284745057989
