-0.0003063555333131994
-0.0018942486705373482
-0.03568964321216507
-0.049819621509094296
-0.07876384389522359
-0.09030082258735177
-0.07790096400759332
-0.049399138395470166
-0.03476595499501265
-0.02469919015008969
-0.021955429511410815
-0.01908175858448399
-0.017378375469658446
-0.01593891801879609
-0.017839631361673807
-0.018410079344587656
-0.020619744692666548
-0.02559083968346545
-0.02843066285140325
-0.03785913535160829
-0.044992759966520655
-0.054085277965977833
-0.04480215187892531
-0.03723387142304085
-0.02755014123335985
-0.022472718651408763
-0.018527873721720965
-0.018499636381269963
-0.017669811419342065
-0.016445933770537532
-0.01617912548294209
-0.018500888547179094
-0.020097288440636397
-0.023363255518758036
-0.02427113016221802
-0.027629816213708167
-0.03285392036275814
-0.034685645119225075
-0.03342140146026205
-0.027060559325016238
-0.023998998895886626
-0.02024178744500093
-0.018936988772760406
-0.01727287290236576
-0.016342277068275714
-0.017400459209069942
-0.017770005746955978
-0.018619565740872812
-0.019083273987238646
-0.02062052461174643
-0.01986493576560934
-0.02279005501076092
-0.02366733243583846
-0.024937931410423587
-0.023971418602728927
-0.02256721278844314
-0.021220139137776654
-0.01833459140118071
-0.01779319199218088
-0.017930562536498836
-0.01605162764320833
-0.0172652549624841
-0.01609117865783431
-0.0164476549274638
-0.017318779876555324
-0.019240701043830803
-0.01827025443016891
-0.018955585230878022
-0.02027297314206234
-0.020038707351374134
-0.020474491685351707
-0.018170262462292346
-0.018909190597921007
-0.017467268073941705
-0.016876472907688386
-0.01599566173838538
-0.015374498232682724
-0.016725231676872686
-0.016448886296328964
-0.015500086773352477
-0.01682931259311405
-0.01815696220854425
-0.016606615480371553
-0.01678785569016626
-0.017579921162685117
-0.01668129847499015
-0.016746123213028402
-0.016650702286840582
-0.016304428720700783
-0.015601517550704389
-0.015047737673031015
-0.014559809304396761
-0.015381586615653163
-0.015311791613748077
-0.014820567153902472
-0.015226601552439392
-0.015255956088390985
-0.015986150737639673
-0.015073281325953125
-0.013952533926702756
-0.01465100701998602
-0.014371059554731934
-0.014395039458459494
-0.014362083709024443
-0.01347398772754753
-0.01359539738842482
-0.014171063357107546
-0.012956945294949116
-0.01419866844043546
-0.014251079949350006
-0.014730962615612337
-0.015285122687867107
-0.015214733838719949
-0.01510720501462081
-0.012972020471897968
-0.012068297079461696
-0.01210518782347212
-0.012673513820981443
-0.011502876653531585
-0.012324082857488138
-0.012615950136864219
-0.01361407632454
-0.013697880870333981
-0.014907677918661865
-0.015206569395809376
-0.013881154101928197
-0.014366046844148021
-0.014903784134046704
-0.01480336319452809
-0.01430290872998572
-0.013407847345203849
-0.010416481255335654
-0.009917768897181514
-0.007186880939222732
-0.007962582386452643
-0.00903203350296922
-0.011867220311860596
-0.013166504569779691
-0.01344703947288248
-0.014100022410403652
-0.014429829382570826
-0.013444100492707053
-0.01417979670044884
-0.014153422688663644
-0.013783757861638513
-0.012814889437805036
-0.00942139928497251
-0.006843163074764108
-0.003933516099942179
-0.003629793233626679
-0.002927804765037024
-0.007120124913015976
-0.00973812960663911
-0.014193403103537573
-0.012547178307855306
-0.014910103330793931
-0.01376980685935602
-0.012929024255674245
-0.014741841312637342
-0.015168780076977764
-0.013371771253948929
-0.011873484156568798
-0.007941025340908256
-0.0006541391808998023
0.0033562109871200117
0.011799419110356956
0.0035311301262914985
8.974543331163252e-5
-0.007021393425751708
-0.011894252309773444
-0.013471851956000737
-0.01340836482938499
-0.01459288561175402
-0.014192044820466957
-0.014992886663344978
-0.013279474314613796
-0.012380597857335151
-0.01036956694927744
-0.0052085537019570995
0.0022853974938047234
0.02840490683213944
0.03007067995326472
0.0282792261382736
0.003626733327809411
-0.003972706225655208
-0.01119838677641775
-0.013507292460333485
-0.01451496767629524
-0.015678918053391267
-0.0148581483379431
-0.014459390326046196
-0.013653912665977588
-0.0131146797180157
-0.010968257022570444
-0.008366395149279308
0.020688444528953562
0.04939342411359892
0.14303007223994427
0.04068916117634352
0.022008240172080674
-0.0073004757809550696
-0.010577611338792162
-0.015308384483452191
-0.015302035372534288
-0.016243005913026742
-0.0152470767404354
-0.015349138936451361
-0.014675898410266213
-0.01373646403461092
-0.009917750809327346
-0.00907782719557522
0.016781073442997604
0.09869755837404447
2.1610284779717133
0.09241698545422503
0.009407348024343743
-0.010521218853088382
-0.01712787455790781
-0.01632640820306855
-0.017534825470841627
-0.016763695553393708
-0.014796396190443348
-0.016077714349962295
-0.01730988959488136
-0.016264241424351334
-0.016499939546244655
-0.03709593211741152
-0.061029437522942515
-0.3138569810804295
2.7287674389371874
-0.2607494866202028
-0.0630081915764393
-0.03841867124151973
-0.022482728425788693
-0.0190081314755945
-0.017317494467332308
-0.017010945086547855
-0.014816228332317093
-0.015703287969589003
-0.017605996652075382
-0.01992706415242056
-0.02371597587607947
-0.03883110863517734
-0.07359435107955777
-0.13584341892668494
-0.2963348140196905
-0.13475212233907613
-0.07547330466557636
-0.03941148224845122
-0.0280885995038106
-0.020969583523071777
-0.0192916131119443
-0.0171749768228575
-0.016768629744867234
-0.017170110211396736
-0.019130977698093552
-0.020316594911223743
-0.027149619013843537
-0.01886420906421214
-0.03832859181323798
-0.060172124644537923
-0.10208549728291498
-0.10886498704136603
-0.08106781505054869
-0.023818821618484566
-0.005850356175748454
0.003541347651714601
0.0071823451868343385
0.008356508364662068
0.011344155031669783
0.008686444071657015
0.004833020436530774
0.001684411511549318
-0.00758147093496309
-0.009164302365619853
-0.019269693474637774
-0.034435007531149024
-0.04257301672919629
-0.05361442321754018
-0.04088939048533574
-0.01873052889378093
-0.0012767660126402139
0.004969009087448305
0.009746156848111375
0.010063703400875475
0.011664327221051941
0.009414171463753864
0.007169550541335317
0.0054190997770872575
-0.002830487786686717
-0.0024092360285520534
-0.0075994129582742515
-0.013556802639458918
-0.02004102176237075
-0.01767883662206736
-0.016851467275275384
-0.0034852373559494812
0.003995038147295435
0.0076231257707190135
0.009117089060304197
0.011323544361566155
0.010761437100361058
0.010843184468357641
0.008884694761530348
0.007689210389752432
0.002715371937939245
0.004281664564194971
0.001537951523413175
-0.002912253920848172
-0.007579762933903486
-0.005587398361704218
-0.0022676416428364
0.003657393936275622
0.006476716440285546
0.010284728619963358
0.010089648831488628
0.014838197320816027
0.015582887151552116
0.014091224330405385
0.012442331041622345
0.00954901349406734
0.00758421935065992
0.006941376370451331
0.007424580434941989
0.003833340642158209
0.002693295164015443
0.0023675906271113556
0.003985845237313073
0.0083706150926213
0.010172497828617615
0.012466165786279213
0.014314247991532424
0.014785836640268895
0.015542743287857753
0.014627970453417165
0.011324463899359023
0.011237570831423906
0.007863908074553675
0.01144050727779293
0.008004986941925618
0.006280418391797908
0.007496622423989099
0.006126143060775125
0.009016833691871928
0.011119976475453926
0.014157839896518903
0.013294882899112246
0.01541523173419951
0.017154478603365993
0.018605790110816024
0.018988804426410252
0.0158423294058048
0.01610969572668185
0.012816280530719752
0.011412169861023152
0.010088392441884761
0.009284654361310141
0.005863473609834184
0.0076060321826617655
0.00978736089298425
0.012655910359624727
0.015038029728556517
0.013648503790662096
0.014889988412077806
0.01576186194537255
0.01729438919123734
0.016832902934519677
0.015099008275380646
0.01303268153535974
0.010740885957233407
0.0097230028647779
0.008963682831786335
0.008499173367590016
0.004632228443211292
0.006781075190374729
0.00899183237699139
0.012157764962379292
0.01165584796668735
0.014638999417117536
0.015703888359210584
0.013844208591308874
0.015204537157538636
0.013559629792907407
0.014070898198583067
0.01092481132714889
0.01012465263617883
0.009379040206775583
0.006011335315022479
0.006467762292444098
0.0025712909565644977
0.004093200784367459
0.00571804095001004
0.0085194359083043
0.010222723693204736
0.012466129662912238
0.013174926773420111
0.015915482924617398
0.017705756910241538
0.01714415262721686
0.017330153481275992
0.012789667090465381
0.011154255063220021
0.003593024027169857
0.002631521898562854
-0.0016420090803689843
-0.0040231236973506
-0.004984777644965368
-0.00011033650764654844
0.0026759100941038433
0.010295808916146572
0.009999284318204368
0.013435488803948244
0.012858672939913083
0.015081340903273281
0.013955347580196767
0.012231450742511875
0.010059460287335563
0.008168818740977522
-0.0008126668420473785
-0.00685990245861854
-0.013415597766997318
-0.02153980204178662
-0.019311830179697165
-0.012992670634197904
-0.00519018566399426
0.0025682875191380596
0.007306716066035713
0.011852033474047794
0.013798489715448531
0.014309639045304818
0.01209303418964836
0.011585871348312307
0.009087495351175399
0.005369600219056699
-0.008971501042904293
-0.02035951310804992
-0.031813572322554454
-0.042258601161053566
-0.05379669528378059
-0.03592639951386714
-0.018274554468900143
-0.0015815314923389922
0.006987500660116056
0.009583298328639755
0.011131414773748228
0.013090241106455928
0.009556269746339422
0.008646433423218388
0.005818511751908804
-0.0015630768117770619
-0.01597172835066839
-0.03520998290691724
-0.05452758981354706
-0.09319613982470619
-0.12470654865298601
-0.1462911410684071
-0.027818897424006086
0.00132925656739361
0.008385156138350957
0.010957419639441282
0.011336327200063896
0.011862684966380732
0.010599562634388967
0.007244296792132352
0.0017894600021475084
-0.007486758771422268
-0.027373084869276962
-0.05086165831941166
-0.0960589048093082
-0.1822491796491187
-0.32058584130828793
-0.33290214675525015
0.018722208482077247
0.020770899915164735
0.019235544433017747
0.012202962437638453
0.010637847975650493
0.009676194969377253
0.007529149273561103
0.002244129661020733
-0.0012331932987133447
-0.008845843805161452
-0.032024788143155083
-0.06433975764565265
-0.12541937869281422
-0.298240988548801
-0.8297931661235268
4.354680818332339
0.5285034687711659
0.07645205028572968
0.02215291656102261
0.012454502068569823
0.011456278296772204
0.010489327106968344
0.007437744294302943
0.0029787312518695184
-0.0015668037196224303
-0.012847756497358597
-0.0275321798018868
-0.05433445035660494
-0.10652665410787988
-0.1891430952297956
-0.30633582136786724
-2.1374631470739116
-0.0068262261454232346
0.004601148767978792
0.00793896920684903
0.008178108004872117
0.010084260024106255
0.008870804311366354
0.008348150163292599
0.006233458358076647
0.0003055538996064534
-0.009074223658652927
