-0.0022848904126726247
-0.0016719046115377843
-0.0004383961722062339
-0.000567156592338925
0.0005943339177884978
0.01585614109558029
0.009708946643803075
0.022319822384699196
0.025636919727702993
0.026477779423448103
0.017125404160670384
0.01958895767443924
0.00616747274132525
0.009340805996192279
-0.017007175102489207
-0.026101480878844563
-0.04055265661261259
-0.04698224835606756
-0.0515789212979511
0.01981483287581297
0.01987769352133698
0.009949121042487278
0.018759737329275803
0.02000686042549891
0.022623980554323922
0.021551148289306286
0.01883015564806107
0.015851514735725762
0.011674645436014186
0.00862584550510083
-0.003403670854346093
-0.012186301407729045
-0.009991678497425625
-0.01923751913870111
-0.008541441551570205
-0.0051342071543666904
0.017578225076830375
0.018074437869658785
0.017691135094063448
0.01792301496673155
0.01595885405697975
0.018178611107490965
0.024979054533904626
0.016979604457492234
0.011414184075096815
0.011187328348696153
0.0041450287975187015
0.0026448083202122684
-0.008968152572017916
-0.0035457434733116005
0.0011328050034806634
0.012391575501545385
0.017290566495206126
0.00816530780461917
0.0142909313854079
0.008086203459838308
0.009174030501986567
0.016780181581213437
0.028054384210153726
0.015740598294588643
0.008605475571759759
0.012605620294783631
0.013065059305935996
0.011046277913861285
0.004280184209769153
-0.0001406533235527353
0.013599037926804784
0.009145124160834123
0.005263502246448966
0.015783098817664806
0.01366051557138167
0.023314213317547648
0.01850605908228525
0.018261398444672432
0.020095775738939645
0.02238654163401267
0.010059984016412178
0.02426129860528358
0.01698722811891337
0.00431667584000422
0.004378530119855759
0.00020148203449917262
0.0069902144993439
0.005127703019130144
0.008947144705569685
0.015307789492491302
0.01533393745318596
0.028217937425872544
0.014621977901468656
0.016749419561039394
0.031017976904656717
0.02179995367372642
0.012275235240999037
0.020298364026704957
0.019473424004175486
0.0008079539387839743
0.012571241699653133
0.0069831567549141285
0.015340552145531983
0.009899348738896075
0.007622045686613168
0.01804974418701687
0.014874608808160758
0.02326605138570054
0.013055929694783272
0.013497457860225399
0.028409109430878474
0.02009174989957298
0.018199272968851276
0.019915679103330766
0.016564060829699332
0.01295304851554914
0.016176455415647197
0.014541747880328807
0.017117466600855374
0.015926878119443853
-0.0037680494703513237
0.0015402684254887137
0.005960865889993347
0.006129309143263951
0.013465840842783674
0.01798281449402254
0.02709128279460228
0.022903135781288376
0.012356116362154008
0.018541888182412605
0.028173446421728587
0.0241118884000296
0.01958487019929889
0.013239713333244295
0.0036658059060929622
-0.0007562602561514434
-0.025168687734312082
-0.011087252307921869
-0.0027850883336591405
0.003434855839872571
0.009275511314296743
0.01663763030278471
0.020696984177601435
0.022945982989287312
0.009902964846998326
0.016554816377794455
0.01759040797132541
0.017062677840298607
0.005868534376789093
0.00500974649411344
-0.016530384087590354
-0.013667055113941177
-0.04702588115552339
-0.04475729416804898
-0.021198145228975614
-0.006927882232593474
0.011162631872959069
0.008058578965992363
0.015143529858779745
0.01463951169388104
0.015207689721271888
0.008162710739973218
0.013066556212258775
0.0056093526604257
0.004482536618356261
-0.010534669985501725
-0.027428871990361745
-0.05288323924103516
-0.13356309120795107
-0.06719445902809908
-0.043331157690034545
-0.006371011633974386
0.006614738399753688
0.0014146005048304142
0.014109168261728826
0.009377854930117302
0.011454518210932511
0.007292722435014714
-0.0004667875761560008
0.0025768930182328885
-0.011591424122575047
-0.02070749630544138
-0.08330929058945948
-0.12430650378304524
-0.19447146067234777
-0.13309561473989484
-0.04505961926038339
-0.021970218192823493
-0.005452828926666237
-0.004368859789913193
0.017569380278072415
0.011856732415503023
0.003261000455297643
0.004953825521919582
0.002378987403020717
-0.01625120488730518
-0.02693508529143029
-0.09233669391866588
-0.16594283227375517
-0.4441178314325109
-0.41037898950295687
-0.13673258883660977
-0.05610679522878706
-0.01221734524166436
0.0002638564851457992
0.00938100541956156
0.005289965458766253
0.01194366751546008
0.004305515849098109
-0.00139126004005128
-0.019504820593927524
-0.02236635226614037
-0.08149826733566486
-0.16344065966631627
-0.7574154281622072
-1.4478816347927472
0.16057214872356415
-0.014365880998951303
0.009525224382844621
-0.003451199659294955
0.010538083081985231
0.0022532740078710337
0.012632398725996054
0.01265182564009074
0.010547351661149352
0.006284249504383635
-0.012530402886485608
-0.056309729775805825
-0.11824092724337279
-0.43641103861951214
-1.4272924171583943
5.544026026019377
0.18506285350568658
0.05723711938631613
-6.25667484799395e-7
0.013483599697206241
0.02268478840988916
0.02238666444045681
0.01896974062812798
0.014047252843285021
0.010319578751972362
0.0003344062378764273
-0.02389291217834277
-0.04597896389534255
-0.13148373524006096
-0.1852794501646885
-0.4100651687222847
0.17400167175613757
0.05963580641337392
-0.005388259145939529
0.023125745779441542
0.016363156491430532
0.02073047774901155
0.017979729608302544
0.0267566426501498
0.013084742555629676
0.0038831670241883127
0.006303966053195885
-0.010498826189466794
-0.042871075900922456
-0.06898894395646117
-0.132076846262987
-0.12493323989086362
-0.009189419628176279
-0.011110348542875024
-0.011362478073859848
-0.012436738958220662
-0.008919388102086423
-0.00799969070086281
-0.004621656565706875
-0.006065299825712621
-0.003866604322800082
-0.002942609405816705
-0.0023078098592654275
-0.0015209192610934846
-0.0003066468479365789
-0.002565282810519144
-0.0022329551491934415
-0.0031463618824303682
-0.006314029947687956
-0.004821679862823675
-0.008579643287678941
-0.007031450105651283
-0.007821903761783587
-0.007171799585908378
-0.004934434381573913
-0.003476792358999889
-0.0033764208391707114
-0.0032222357012761348
-0.002654159397378431
-0.0028738619445918597
-0.0030324474658890636
-0.003328301399620072
-0.0014643502244419205
-0.00041412762287186934
-0.002627330855268767
-0.003548532669923029
-0.003234136565967609
-0.005540128343607949
-0.005206798409875263
-0.004781299017007158
-0.003734221091050956
-0.004095414172436286
-0.003938076225765526
-0.0041637347741973986
-0.0033938525396560947
-0.0024559830765789005
-0.0013679005110982365
-6.044228885298549e-5
-0.0010825618267150683
-0.0022547394388393233
-0.0011334240947371592
0.0007620934956290757
-0.0011181503441597101
-0.000903591931328147
-0.004218087546744595
-0.003192483077335735
-0.0017831448495835827
-0.0034723004953513908
-0.0019649942590018554
-0.001760563569454226
-0.0005567312919686055
-0.001379018604327685
-0.0030214263916843154
-0.0007583779176419767
-0.0018610891719269625
-0.00112544564652458
0.00013045320182755943
0.0030021063925398475
0.00023433404916327664
0.0014102514849761
0.001142685593725581
-0.0033489497729497545
-0.003778245330433099
-0.005354313706824286
-0.0013635215600756726
-0.0017136067288110336
-8.366029907453403e-5
0.0012601722248023744
0.00016490860464656466
-0.0024445507835362925
0.0003472462045475055
0.0010260928860627752
0.003029659907188791
0.00692095193866283
0.005825576419346314
0.004612234697017213
0.001247943626477275
0.000520324698770841
-0.0024427725365149403
-0.002467654821828533
-0.004113595456460598
-0.0022588265253024676
0.0013577571666054363
0.00315007202795914
0.0012196883709846467
0.002712106541779655
0.002290861691979553
0.005602355698354596
0.006556044884453265
0.012721813630097013
0.012401851434606198
0.005509215108438969
0.002267641763142542
-0.000344258780003166
-0.0016299844521521774
-0.001688443010658893
-0.0015582132852903986
0.00030074056922380207
0.001147777090413036
0.003139385188592186
0.0035420201456738175
0.003944949618800051
0.007965188271650069
0.010382866624769393
0.014354671631013097
0.030019357452559715
0.019993700849137035
0.014293676418925207
0.0013186442121105857
-0.0011552431606223807
-0.004680857412771855
-0.0018936459584838958
-0.0019001595384061346
0.0003159367670682155
0.0015818911032772429
0.0028306147543991182
0.0008132774599269281
0.007854477678225212
0.009528455158279051
0.01851343226338941
0.019856499295121083
0.055298623410183295
0.06213771954186781
0.015134430880820976
0.004941053153892794
-0.0036221357321045335
-0.0030804338641623736
-0.0033724436426634807
-0.003430736878109535
-0.0026254610606125887
0.002152778098641239
0.004396573342275007
0.0029590203568477112
0.007178233096853603
0.018539391093448602
0.02613939582790521
0.05429666942043283
0.1555046924370749
0.10253973316803017
0.026749640264894636
-0.005855608394097311
-0.0043810203910345374
-0.008779563562634934
-0.004602352932722187
-0.004447463377721339
-0.003194146376916354
-0.0016318758195114692
0.002976869624987529
0.003683870099397837
0.011355356602809483
0.021802563631299607
0.05363505002389143
0.0864117739462027
0.29633816135827784
0.30447297416547914
-0.04575304632583089
-0.03215213356603769
-0.024938889051123358
-0.014522857390448904
-0.010025614320264782
-0.004576421519044957
-0.004184541895376914
-0.0016005071846890563
-0.0005912700693139105
0.0031774226158432168
0.010436611019172839
0.03147525057975319
0.05749786793095702
0.1547622015616028
0.34016721430592106
-0.361379624561421
-0.1860687280479138
-0.0900583407387807
-0.03221304858723171
-0.021645843797869786
-0.011504960542574098
-0.008435163752710634
-0.0031776605043742257
-1.3575126505140068e-5
0.001839712729855972
0.00284547292857615
0.01028986805861821
0.019753430871736585
0.06543898614949802
0.10604441275038974
-0.06631090691165224
-0.19546285406055386
-0.10978351344270801
-0.05787099922393053
-0.037460624789964196
-0.017755339487068353
-0.013096147498282421
-0.00921886742116187
-0.005893244717545612
-0.00026845721228839546
-0.0007659009862951508
0.0023065796625989145
0.0048073465260128415
0.011671205164042726
0.013420083078114485
0.021894459527216456
-0.04079726111356905
-0.09348824933621987
-0.05933095409087733
-0.04078052960546507
-0.02342246497792677
-0.017452339545405832
-0.011843174850893616
-0.00921839555976035
-0.004989975738216506
-0.0031570465175769407
-0.00022651376217860958
-0.0007905846034757813
0.0013861632824888263
0.0013066950280641847
0.003922974457985533
-0.011493721317945542
-0.028671594043234282
-0.03355292570958343
-0.03558636355324234
-0.021586913436889187
-0.021734312621400746
-0.01320852865815374
-0.009225698731809916
-0.004903470231165608
-0.004063293757203086
-0.0006791212883617934
-0.0011449313121456538
-0.0003157167025696226
-0.0020803537809666386
-0.0017080015503203579
-0.006685994119645591
-0.009277725566210216
-0.014800827989681842
-0.02243566227631606
-0.014478726097192586
-0.01619345582254103
-0.013065904835068155
-0.010793025095357468
-0.0077918211587937125
-0.004525255291191615
-0.005613597910575287
-0.0029311295444888275
-0.0011609752694461991
-0.0012112352670831921
-0.0015914058363709716
-0.005007770740192348
-0.006125223166305663
-0.011341129180155854
-0.018830738877584713
-0.020401287289872866
-0.01578969371159501
-0.014550497309994833
-0.006780578777304371
-0.0048142739107975285
-0.0015885351890748357
-0.0022059381979273357
-0.002379328452010697
-0.006939398266065297
-0.008279247653890152
-0.011552319316934219
-0.012210174619797834
-0.013904988066781676
-0.015626975606655654
-0.018304037134885754
-0.023768799156463377
-0.02339399053032349
-0.023565608545329925
-0.013706735721001367
-0.005073281411377409
0.004942212734779675
0.002661274407536815
0.0029939065149549478
-0.0009094071953487542
-0.0037344034950560294
-0.006540484048402153
-0.009381765936947051
-0.012833520171767915
-0.014919247116972865
-0.0186888575715225
-0.020862196574472705
-0.029324693370590443
-0.0348493656998824
-0.031138030828275563
-0.025359013219668443
0.010295452269782795
0.014297503458763105
0.01688857968977425
0.007917159096542625
0.004724764257638877
-0.0008577115946483948
-0.004910762843639551
-0.009227966153102913
-0.013274985681990238
-0.018183032095934512
-0.021057075285485973
-0.026257287207566295
-0.04237911482542257
-0.04983663614492396
-0.06786099884641766
-0.030307205779775748
0.024432413163279987
0.058943122099010745
0.030637608740071882
0.021339544108238344
0.00923679197286457
0.0044942939787197544
-0.005129704656955906
-0.00954378785847993
-0.0154362160183357
-0.019090540633201616
-0.024771132070454824
-0.03061453840845624
-0.05116242004353737
-0.08700639186886283
-0.09757419531409424
-0.215735092026222
0.18090208924386184
0.10858506241760506
0.07575704100749776
0.030671980923903483
0.01664451230203971
0.0037614919380080506
-0.0024002859611421986
-0.010049343592282368
-0.014512573534477236
-0.020260427804833562
-0.025696581191191937
-0.0380332362951899
-0.06353807296407593
-0.09815873090304912
-0.27930512135182756
1.9819822826513316
0.9980415016820665
0.28958852469923635
0.08024285289695401
0.044330012633539195
0.01572708045718253
0.0072091159866953984
-0.0021726826577243975
-0.009002917797682808
-0.015311955992499897
-0.020570575134388824
-0.029231823684951055
-0.03815304280251061
-0.05189640657279577
-0.09342970992480587
-0.12328629280790135
-0.22244362165932507
0.17599959294935588
0.0719935355215729
0.06617230660723465
0.02903095198879248
0.01564095791046377
0.002962551659756796
-0.0031394118741707878
-0.008595758107748389
-0.013208114262378601
-0.020954147170136564
-0.027098844603311023
-0.039922273323259164
-0.045428523711755146
-0.05337305600935637
-0.08266414544634758
-0.057744165392380656
-0.011082776075501207
0.04585044084114048
0.024124125409236225
0.019270096881118404
0.00665662340294331
0.0014471514115969699
-0.005094520067801699
-0.008579230975418038
-0.01464046047267819
-0.019715693596084334
-0.025664080223741323
-0.03205478979862037
-0.03198125575725973
-0.03901547605937021
-0.03740078102225394
-0.03904585517000142
-0.003352784947137369
0.004928860488065022
0.011382224930444136
0.006295600024273097
0.0034345960933240094
-0.0027361666411837037
-0.005599220605236302
-0.01018542305613109
-0.013926375525664149
-0.01736586197486173
-0.021332945628512782
-0.027535584771542294
-0.026825409115796305
-0.026070261636846278
-0.02766835354906837
-0.019440693315439295
-0.011632539677565784
-0.0022265060236891965
-0.0013194425760669792
0.0005738733809659849
-0.002992876585806018
-0.003980604340263003
-0.00821035130040866
-0.009934017294032028
-0.013576063530490831
-0.016658867090712844
-0.01994898098365566
-0.02160947215722791
-0.01994227782944563
-0.02196731962965911
-0.019421382887072243
-0.01863885917548863
-0.011124513716314866
-0.007974782870733842
-0.003563818625598225
-0.005143600632547279
-0.00488521578483218
-0.005873111546647483
-0.0076462892415555
-0.011237844967794139
-0.012714292726781764
-0.015042378897150007
-0.017300364314342388
-0.019718530749038857
-0.018366753860994758
-0.016723668912971366
-0.017345299038934232
-0.015091674234605371
-0.011931237424974976
-0.007121585788476705
-0.007081266397786728
-0.0053402804135578175
-0.006416865387407462
-0.007061160105714942
-0.010469957742936067
-0.01117067657731217
-0.01308001613160307
-0.013822386528734422
-0.01619978156042256
-0.016550000846066275
-0.015756981986725514
-0.014529065171794397
-0.014448830650996319
-0.014030712738022045
-0.011398821724158495
-0.009390329123655642
-0.006763465202380094
-0.007347364053879578
-0.007253990770758381
-0.008170714507857288
-0.009379874783157908
-0.01150237672207375
-0.01197481799222913
-0.013670814123723486
-0.014643588968292768
-0.016740176191795606
-0.015094257563363004
-0.014236649905341325
-0.013754284020379887
-0.011961692655490084
-0.011070319878050825
-0.008118027070663263
-0.007253660102286737
-0.006413532087658786
-0.00783977718439257
-0.007373004459368563
-0.009956775304410399
-0.010902228945444122
-0.012436952794616148
-0.014109734018596241
-0.014669699882778121
-0.015505951597747881
-0.01601856871013812
-0.015585637335927383
-0.014048502336145208
-0.012463463616817418
-0.009255027539638569
-0.009509234908162674
-0.007786374174879724
-0.007565975503667886
-0.006993695325322556
-0.008032968882935245
-0.009153278319872943
-0.010059790287776668
-0.010372048277206692
-0.01304398280780726
-0.014078371124228196
-0.016038424424271627
-0.01744450517596929
-0.015816525321298916
-0.01607288970005657
-0.011443315653432018
-0.01075090686923988
-0.006550043708560061
-0.005568630808959641
-0.006165323416869331
-0.006468293715581379
-0.007719140905296503
-0.008387470154189294
-0.010070726751801953
-0.011952349368591256
-0.01358967275028434
-0.015425918156878899
-0.017205168072556242
-0.0147807693606681
-0.013458879942036366
-0.0056357595294713285
-0.0023535231508822873
0.0030043299433857007
0.006195875118324931
0.007997315019236268
0.007654740372671016
0.009576673713832456
0.007062602275824405
0.006852117609035742
0.004417742145356439
0.002350512189404725
-0.004340312278767746
-0.00861703998654827
-0.016831213753353374
-0.0049319710425410656
-0.0013615928920438789
-0.0005100611426349352
0.004330949686040983
0.004078274994362412
0.0067678670783570686
0.007938133664815975
0.00880738734183781
0.008758593639014885
0.008273151439934618
0.007954369691432431
0.006882265923274839
0.0037205062115051413
0.0010602012218930384
-0.0029909048556364367
-0.0035317811166117393
0.0032000695080866225
0.0038512852715091687
0.006039597220170631
0.006040604879798084
0.008223420302520299
0.009445164624491825
0.009547824462444045
0.009741189430660312
0.010285325128515438
0.00973847642894199
0.009816030478884274
0.00875531421358569
0.008167395050032413
0.005538604438255185
0.004558149324639372
0.0016418997758957574
0.009044156501079302
0.010501548498065989
0.009071917964664443
0.009333928195395353
0.010147884560638781
0.01089129262337424
0.009567916480526156
0.011232747992933235
0.011372152792029676
0.012373434668387496
0.011789895619052814
0.010753041649141445
0.010467241424338749
0.011409924469623432
0.009602246153906797
0.008734819568525946
0.01550274135709326
0.014518957239457536
0.013579891546868502
0.013905782044715681
0.013963054003391687
0.012492663702942105
0.013402592040745358
0.012602711117357474
0.013589283162133958
0.01218036184802637
0.013262243248305838
0.013323306148645608
0.014171005533073145
0.014032165770889306
0.015943612679455137
0.015246180105841193
0.020197212498308484
0.02216238824352475
0.01880525920226624
0.016904126244428424
0.01630288840582107
0.01519624337061489
0.014921197995228756
0.013624246142744335
0.013501532161510413
0.014490285643919666
0.013745407890125136
0.015337400009770125
0.015573639796667055
0.01849298633954602
0.019236752783118802
0.02064573067632815
0.029509917184182645
0.026322939369439666
0.02497235215844569
0.020929555490844527
0.02023295209341371
0.01729575413064403
0.016960074712692643
0.01503872864473366
0.016033742408150628
0.015285890613960457
0.015347143427850618
0.017004660468491306
0.018912151827074054
0.02069403908174655
0.02599283946002378
0.026051491249204698
0.039866118627635415
0.039971143901100445
0.032066126886348904
0.027794744565436413
0.022140377830886578
0.020389212406534362
0.01667746346790798
0.017243525140915757
0.015112180472622912
0.01625066320598316
0.016473614161738533
0.018689737011804514
0.02129968664050123
0.026697693547841215
0.03127960466630269
0.03969800289929043
0.06514676461503505
0.05284882367985709
0.04603161329730347
0.03172970917403274
0.02607820171847435
0.02146185874755076
0.018355337003693104
0.016631863840413052
0.015264761391224135
0.015205033233881924
0.018391138735435564
0.020345072633696698
0.02510134570707114
0.02952566912176052
0.04099179185749948
0.051794721343797256
0.0970192754202381
0.09356080706422985
0.05436718072024024
0.041249054174311246
0.02669140525071696
0.02114420482418212
0.017085387120958383
0.016241336683799727
0.015210936613427392
0.016351411567684968
0.016894949256173845
0.020343747181280625
0.02273103183878399
0.034635511103555956
0.047753232010276224
0.08338636719174328
0.277130946661021
0.12256203120136672
0.08275109373094786
0.037692238864518765
0.02877506636238001
0.018969189207432135
0.01771817510187307
0.01463899658958766
0.014475051045468527
0.015247602218538417
0.01683192085431002
0.018713634951329796
0.02338643363591838
0.030340245852495586
0.0663248351440092
0.09051777995715148
-2.0027609153641994
0.22828270880434753
0.059251929052864465
0.03846527555271238
0.019291881054348613
0.018696103320436242
0.015996745852968657
0.013890876431743186
0.013283999069282747
0.014115739706802901
0.012857984247159586
0.015387023765078833
0.013583938358786341
0.0246576895659514
0.027150014284532887
0.2111509457110863
-0.9840611713541648
-0.17059163235011324
0.014754852003443585
0.006308070643166779
0.012650682768546197
0.011377416499581742
0.013284950439531575
0.012116819197145903
0.01185406638467701
0.011360099379080963
0.011356572297735764
0.007737372966089365
0.006562938084482865
-0.009974194209860487
-0.0265454260142413
-0.18266049019112773
-0.2888309333915724
-0.06650873677464313
-0.04357780588790712
-0.0025684160132156725
0.0023879668910803775
0.008952615555640654
0.009043115459181293
0.009945058701083656
0.010277763300199217
0.009643392076981252
0.007536064831469979
0.0057130033095581035
-0.0034862214491245365
-0.013505265719405173
-0.059979047284061525
-0.1117087124483802
-0.07892287191921417
-0.0662548207374354
-0.022313348518613187
-0.011116558083569648
0.0017642436938870697
0.004460491135345145
0.008916142576041652
0.00831049852428815
0.008408215811595596
0.0076115312646294064
0.007174038944000699
0.0029115434814917375
-0.0021536450777066593
-0.01560427722337713
-0.030449163975773758
-0.07799743642909913
-0.045433385805926284
-0.028321543109175455
-0.01747054074214647
-0.0048356403784673785
0.0008963663913068908
0.006542123350349955
0.006411177550783342
0.008756918733669987
0.008348521327201371
0.00592310955297345
0.005696941310590481
0.004568392531162481
-0.002874272572675955
-0.007297008345390835
-0.02069019473164654
-0.02958932170072374
