-0.012637285802613215
0.0005226154490551274
0.0002009338986761163
0.0001359503740139687
0.003114302326871418
-0.0001320039110705358
-0.0005221104652441984
0.0001147819852642675
0.007933860003438157
0.010647406030884614
0.0028752449709421183
0.008589656117778139
-0.003134051087498602
-0.0033255585300803127
-0.014292685002744656
-0.0037895661032591645
-0.005986989300064666
-0.00039407865264700693
0.02080483556305258
-0.0034007892788527247
0.004760908602795522
-0.015625792560849318
-0.011972297114712895
-0.017660252300048255
0.012540015542957165
0.006057988387028628
0.006896899976264687
0.0011633589198303958
-0.0025123454183872346
0.007505746698764543
0.004499370972255209
0.016545538324322994
-0.003654983319944579
0.004317551534926289
0.0033207578489281055
0.002914460744781
0.009543394861047367
-0.013212676638015054
0.004569563817018561
0.0045320030906241815
-0.012699578506281756
-0.0058341019648628
0.0021763574650080562
-0.0057190697291110695
-0.005872486362587527
-0.006228454989362284
0.0056020702650366894
0.00975160325376564
-0.012959015566293553
-0.0284315381017004
0.0026604595959439387
0.0004826862071936333
0.004438325897187578
0.013088351136952949
0.009485942527857312
-0.01201208069032864
-0.002159601858205308
0.01002982906969416
0.01137968564640441
0.01689888934186189
-0.0033970294140310583
-0.017397835921419344
-0.014909332319979617
-0.019860540648349693
0.003756989897715312
0.0098992874030526
0.0037294374222840996
-0.005631977386694806
-0.009447726373492315
-0.011568724971689988
-0.03241418071716269
0.010218177493482123
0.012628538744317836
-0.02713217657611494
-0.014563554247238217
-0.008341317785834045
-0.015773345360782925
-0.0016289085854803743
0.0017477586587695418
-0.0012674044097727658
0.0086110985000536
-0.00399414825724271
-0.0031155121735885055
0.00036760642496559026
0.003417009798341115
0.01709527348849138
0.022704151289148964
-0.008892531316748137
-0.011252224245248209
0.005108366027844225
-0.001732211443245069
-0.009500992483756058
0.0030724230452390563
0.00803386400483303
-0.001290776489291308
-0.0009216923870427279
-0.0050112716815202095
0.005755599829285871
0.005237255338717591
0.004161003760128747
0.012148135400209516
-0.00043859854944050487
0.0048162334950656634
-0.0013272739715824056
0.00849897753711754
0.010042585076550642
0.016754612621215043
0.016200392639000808
-0.005073115948261701
-0.0030910999507067676
0.013088909919177293
0.007683943137637834
0.012840844647072963
0.03660528651102053
0.01146127127351262
-0.005630868618311338
0.014614785126065405
-0.009994401522026297
-0.014703946224520205
0.0012583780372724057
0.006937925800448639
-0.0052350119895215996
-0.021499886347625112
-0.00017242347716461023
0.0011885201296050218
-0.0009587311213845261
0.0011647368029589007
-0.004513050720537638
-0.003592864938138183
-0.020319398325984152
-0.010039203193124352
-0.009272061418100622
-0.011613180431698965
-0.012219698008622246
0.015517646926204044
-0.010181536101930922
-0.0022386720956827266
0.004832682381439159
-0.0054547814876064376
-0.01310111530640934
-0.009444364653929102
0.011626123339277684
-0.014597681121963512
-0.004885636571915762
0.008353338564710376
0.009484298739331688
-0.005681056881748702
-0.02296732708304023
-0.0024371413607555993
-0.002873601651837913
-0.030870233086593098
-0.0066640885431572625
0.0064662084320068385
-0.01592932255111825
0.00023742638055770742
0.0014646121703573221
0.0126878904246041
0.008335354918357771
0.018970475879271545
0.03255369839090391
-0.010870307860743358
-0.009515598476497926
-0.007045791875491883
-0.00038138063179856796
-0.0009987512568286425
0.004621794426484778
0.02715552082639609
0.011200722333059493
0.006701262465945856
-0.006698164595698919
0.008862788766154343
-0.011726186458455176
0.007385866815284676
-0.006542114410484957
-0.007094912237262957
-0.013686563584464115
-0.009156825928316247
0.009056381414633637
0.006426634787393842
-0.0025387306645285263
-0.004706257073203834
-0.009556294542082238
-0.009568269557270014
0.016032216742130477
0.023004210484364997
0.00878412116386153
0.0032243724494479264
0.012839336303722314
-0.005245795529454573
0.0015438272255763317
0.020047123604400734
0.007562657058144993
-0.015921658153711684
-0.017407142641279103
-0.010371056171294446
-0.0066228170803625695
-0.020483655589286845
-0.0013191011403324128
0.019890714673108063
0.014005426521857134
0.00191671434960939
0.002667703376062554
-0.017052248198653076
-0.010799380696287832
0.0022080062848899495
-0.00562442789881938
0.014754397972189873
0.009362814563444068
0.010901247403223357
-0.003625218894075556
0.002445516324507304
0.0033643514713159834
0.009180899539720035
-0.009843081808881078
-0.009675696062608595
-0.00013639947102890538
0.028948333954893966
-0.00420222039575925
-0.00401855178522248
0.002407740243438268
-0.0009816937050099882
-0.025509840071709023
-0.014775594178474367
-0.02125904345333247
0.03259325612779459
-0.0014272675084305829
-0.017691494654665546
-0.011761810785324256
0.0070542988194568
0.01025639081798443
0.025299160036934866
0.011286405379407066
0.008828542667163054
0.008948766007464345
-0.0005278163104003718
-0.05087122764463157
-0.025743498952280956
0.020531100264964627
0.0024837105855974135
-0.00259130563652853
-0.010654609958141074
0.0015576392301497512
0.01078315456417761
-0.04434099856435577
-0.022665107895239105
0.005557156513943431
0.003899101692023039
-0.007314511922461225
0.005877399421545098
-0.017327677439976506
-0.015464828535153782
0.019625011998112153
0.0031594773076692078
-0.003852149612388199
0.026415052375860643
0.029731661531036745
-0.009573042171713921
-0.01760574537693518
0.027946940806403232
0.04576950676324127
-0.014407939752010396
-0.025973182230377246
0.016214587036135757
0.01780581544334699
-0.0073530739682556015
-0.014734497893984217
-0.01684157322893148
-0.030924008481299364
0.0011332857191476598
0.008209848335362938
-0.0006530463536514788
-0.0017615041753797451
0.03705544465077077
0.020908723180259867
-0.005869246957674824
-0.007189081986507931
0.0204542031952277
0.019985215715034203
-0.030116865502163446
0.019382455502880806
0.030322860281229897
0.018597284897888606
-0.014214778690650244
0.003103259892423529
0.003089728636170305
0.007170552222709184
0.023669047165282335
0.012058889323087497
-0.023852405551888518
-0.047236916216207056
-0.012243875129324795
-0.004603806908257048
-0.02495154360330908
-0.016693350956520248
0.0037308001555027767
-0.025190700367452783
-0.0015291561812599509
0.01226963602094959
0.005126728318224361
0.003948166215000748
-0.001868190469097501
0.00815956486694742
0.002782901898286314
0.017496236586758786
-0.0007303589196399696
-0.004504072467994787
-0.0008114746962781189
0.009227435470341596
0.022366116103687658
0.00033777927630092405
0.008782416623192535
-0.014178049286039794
-0.0007086765854616404
-0.017679070386845974
0.0036056470572232054
-0.016062496246168723
-0.024847257322453048
-0.012174372364581123
-0.004661172541347988
0.0007969338531581154
0.004115538993192841
0.0057974853149283965
-0.001986829647871092
-0.02005837161084842
-0.0007323003673865426
-0.004081006775079431
0.022418191652020705
0.005742767895908356
0.0023729237290335083
0.009920487417823087
0.01856323078720161
0.014322375234381556
-0.020515292441011603
-0.052340683281106734
-0.15337950324974745
-0.06056234057648285
-0.028398839097366214
-0.0037906279690019394
-0.0015221563261489796
-0.00011846160335958434
0.0007784870806593655
0.0025188063476930395
0.00245166317960772
0.0020036123158038463
0.0018057829801110298
0.004480515500412809
0.005500332672034553
0.008003751893774896
0.0071071845094022945
0.011333959341503663
-0.0023532942310080553
-0.04116066579785903
-0.038994249371503975
-0.030587112779163064
-0.008427173775384654
-0.005620799779953416
-0.00015339149731345366
0.0013275806890060329
0.0035586251019773772
0.003294591346153902
0.004896301616985347
0.0023029101492285107
0.0031462369093147365
0.0033981696068726905
0.0033583568575116063
0.0031456251006715943
0.004840001432644122
-0.0009505716786117885
-0.007524734253329639
-0.010151316116369626
-0.021895869248216713
-0.0063741876953068675
-0.00489028547061636
0.0004523422330090322
-0.00036021617716291916
0.0018818450642081475
0.0036429031080303814
0.001971939592274662
0.0034323052601966156
0.001726154831502351
0.0030848116251778663
0.003795406045384462
0.002398431524852013
0.0032814265695943674
0.0012148845752526713
0.0010581269712982284
-0.0020155790146948625
-0.0071147867991079835
-0.005452694037227727
-0.003909771232583311
0.00015352110434234813
0.0011188598011420603
0.0007430153991320541
0.0012393450004672883
0.003949311520047052
0.002360742722763558
0.0019301142534154574
0.0012983101957110283
0.0028083934115228477
0.0024862426522144635
0.001981381721153438
0.001273122147716328
0.0011523771813647518
-0.0007649863109068331
-0.0018127453772410634
0.0009827270299380074
-0.002244936544096449
-0.0012890673152323477
-0.000973620503822536
0.0021542328232406365
0.0012841226147934936
0.0013296583923895879
0.003086223138504753
0.003040810000792703
0.0027651161839655648
0.00034548812302094166
0.0025375850143365595
0.0016203954555326922
0.0030660690525801887
0.0027243362928757314
0.0018160860150252612
0.0012563963335356213
0.00198149426961385
0.0012499988775610807
0.0002178407804410343
0.00046344128807442823
0.0029292352272382444
0.0029666237721081286
0.0023154496788901457
0.002478814376346332
0.003263271294040136
0.002096853982566549
0.0012636290769686676
0.0022616343411008184
0.0033837121905837216
0.0028091756103222447
0.003687312365255629
0.0017649525421835038
0.000958919301696045
0.0003331829415429895
0.0021435890814977365
0.0030752034934126093
0.004127516994729857
0.0030345754561079546
0.0018997561446558629
0.0037583022752011017
0.0018324620399917892
0.003122260045363269
0.0035606713989796606
0.002514719516174012
0.0018102391523101427
0.0026972525974125377
0.00236101730852274
0.0021424770768836824
0.0015617810281168003
0.0030374004478393134
0.0014259706908694857
0.002544465632644958
0.0033760435319758935
0.0025892425334681033
0.006062465892243737
0.0037673426509813234
0.0037093125705842493
0.005667382346854097
0.0022499990240029597
0.0011307336464881942
0.003225304682592223
0.0028317821659508496
0.0019291652073869672
0.002829202823535479
0.003401360886306665
0.0017892816915324962
0.0023303012575344607
0.002781724719562102
0.0025574244734683075
0.003451613279840205
0.005245309092725267
0.004949984505890126
0.004203357839443562
0.004182969722307031
0.0038153614323285074
0.004709076624542982
0.0035237186441057565
0.002835652760467863
0.0033683405960520537
0.0028594822114424738
0.0020552870758307473
0.003199888176034998
0.004306879732651621
0.0038077911173213597
0.002209081890411025
0.0016726703454280796
0.004691489391875773
0.004549210886777131
0.004618274144236169
0.004654516512856429
0.006108763449741045
0.0057292854184940786
0.005535776119625044
0.004998363589996099
0.0032576247430224116
0.003363149952644204
0.002679083610328844
0.002694606184117342
0.002483436377635612
0.0015603083372462145
0.0031113845073273837
0.0038475242590586397
0.003921764392153592
0.0032388771218308577
0.004238221627250225
0.004121963582928222
0.008206687225922604
0.008240714120772246
0.007792029287598806
0.006897478336727339
0.006128013410946803
0.006405845151658775
0.004922256370920701
0.005405328564049879
0.004374188877879658
0.0035711506949239894
0.0029217612876227387
0.0025755642124619484
0.002255710507765262
0.003344342097063018
0.004033708548985826
0.004029858138026485
0.0054129597595448
0.005515211610548484
0.012397630802923285
0.014149116494977161
0.01560273869104829
0.011417370615865188
0.008578029472713126
0.00658811266494563
0.004677769728642899
0.0045352893737425045
0.0018946029948362895
0.0022953943456573388
0.0029796759831573296
0.0029429981629948703
0.0016030785772897164
0.003946505502036817
0.005005449409219511
0.007212379865457783
0.007704818261781314
0.009249479766330046
0.019035729908677995
0.025220065930944
0.022580382452325343
0.018747439367656923
0.01398322572849385
0.008988017530531172
0.006766328828700735
0.004873184397242512
0.0023434935945972255
0.0009886653954051534
0.00210395345737242
0.002903266897698158
0.00356784305869769
0.004879216966454574
0.006018320642006909
0.008222722131552257
0.011115351019021117
0.014797969206461627
0.037836435280725236
0.037893993452289755
0.050743785186106144
0.03311363258987454
0.023605420836054523
0.012975983484526322
0.010104983435971176
0.005628126675489318
0.0047103378060910405
0.0038915414897262067
0.0032754763116222356
0.004474300601041526
0.004970293763676136
0.007069512649109008
0.00901599087096363
0.01013208711288071
0.01549575253123069
0.022438319104526726
0.053848436520793984
0.10021158124748264
0.09628219522268525
0.07116582115755182
0.03436023015714627
0.01975050526804665
0.009298065444756335
0.006360479139313029
0.004015854851823282
0.004397178520455474
0.004129315347093658
0.005145617363868824
0.0037933476240459515
0.006034486494341351
0.009143542674660153
0.012928063826802547
0.02085334096341279
0.03976720975685492
0.1114755839232813
0.14023047377316686
0.2794152739419038
0.08979661721773555
0.051783582139213656
0.01904263890921319
0.014065911768900378
0.007595832031776036
0.005660771640494709
0.004761425925014229
0.004610252562630587
0.0051289623693513255
0.006126156760838331
0.008854609350570773
0.009209448989191063
0.013830062443280644
0.02975554776665096
0.050234819837321386
0.1084038944403327
1.046045708077984
-1.1852406262975548
0.017280022812863796
0.011218843119945447
0.01517245174262055
0.008475668467092776
0.007974974952291235
0.004696774216729109
0.00476373423804781
0.004629670480932312
0.004124600243517962
0.004384477580684268
0.006830617701798311
0.009262463046952637
0.014223222993639885
0.02495249183474951
0.05683903506162402
0.026388878984026136
-0.9917967187050417
-1.029986176488156
-0.21194887415693694
-0.022331112910330082
-0.009278653758178603
0.003586089000139487
0.0012756812661147165
0.0031988072329607415
0.004617949453705521
0.0029457190863138322
0.0023705063691156427
0.004015418796394484
0.0058634676887246535
0.007981768887702374
0.009715629082287423
0.01954531757573928
0.02226017963702192
-0.00015726651815146285
0.0008101718225949307
0.0012126363641532304
0.0058189195197104185
0.010696506595845139
0.02442013604217455
0.022263132003399355
0.03844376066368116
0.022102813526415153
0.01593959321547655
0.006434102378302832
0.004520275958219472
0.0003313810949513854
-0.0010814760643247689
-0.002534156439224788
-0.002712520487610104
-0.001802653198695495
-0.0018680715975152378
-0.0006818490699366559
0.0012002886957134212
0.003992852670365814
0.009632602384057295
0.02576234131875156
0.035378847226153524
0.07424721889471958
0.07461886340004756
0.06169259331173488
0.0262649764181184
0.014226705330345191
0.0036050946441105254
0.0009438017981907903
-0.0009172375630698887
-0.001336780912478478
-0.0023806935111936618
-0.0015860693268481831
-0.0028129365599986497
0.001717826694568348
0.0016542805331331955
0.004161141748161757
0.017043217464907022
0.031406194569416616
0.08136332965481623
0.08914295380791754
0.2596902114111184
0.08232864577255797
0.04861299300338347
0.01485572193381925
0.00948144364043921
0.002666001376469893
0.0013775686409364517
-0.0006224568067194539
-0.0011705502767681323
-0.001194445048852347
-0.0006605265160117952
1.4976612642962064e-5
0.0021840782745170735
0.005750481278636982
0.014170791452767154
0.04407317994149564
0.06854296301913326
1.0339896996699462
-1.180903505994554
0.037407630137717474
0.013197168978938625
0.01361129114140841
0.0048381201220870935
0.003862655903200765
0.0005213938773810455
-0.0005194940247375635
-0.0007880472867546318
-0.001290392515112316
-0.0018525162063399512
-0.0005229782938613132
0.0012362015008227799
0.002769726564801736
0.012915799258465274
0.016446398486931604
0.03919371056035815
0.9101445408577862
-1.077714997301589
-0.21910068063191976
-0.018734667072164337
-0.010268890486487155
0.0012045848608139835
-0.0025197775648534873
-0.0010032201029511081
-0.000406552642272333
-0.0018880026274371044
-0.002787047388365649
-0.001739139547650539
-0.0012503602002736612
-0.0006724583182028482
0.002109414625351406
0.002386812313967941
0.011983346717100529
-0.009963047698487968
-0.02289377295612214
-0.16666398361110382
-0.052321010378104674
-0.029224076919783577
-0.004334099033540938
-0.004094466667614315
-0.003968350899425177
-0.003983108663102742
-0.0024556741419041626
-0.002865459220556647
-0.0030565389590463446
-0.003568880935471404
-0.002035002896481727
-0.0019650514155618286
-0.0022971888480367826
0.0009273737474258179
-0.002190315343607316
0.0016862028495136325
-0.03450476475370216
-0.02985893671396428
-0.02722794509493884
-0.00782566451645645
-0.007096604966288925
-0.0027899994129223678
-0.0023956760199905984
-0.0008447348779370183
-0.0013715538012225204
-0.00011003396183359334
-0.0026304385232976788
-0.0024753380133654365
-0.0019476336727833965
-0.0029497435966060175
-0.0018216124462158802
-0.0028741668690586467
-0.0012416787704554232
-0.008097878359367648
-0.008419735585977126
-0.02066331058309027
-0.0060263049765298254
-0.006296567828681205
-0.0018652915993357748
-0.0036302474760571135
-0.001686065564264531
-0.000510541339996351
-0.0024757936267060555
-0.0012289465562164233
-0.0035155975643067494
-0.002836707810688676
-0.0032464672969498053
-0.003201605048855828
-0.00391817007363112
-0.00313104417169622
-0.004714492710509666
-0.00452598060924231
-0.00890503534221808
-0.006917395254497121
-0.005947670937916475
-0.002666135609089309
-0.002432174829751103
-0.00296325631621412
-0.002825450123644636
-0.0004102459957401268
-0.002286962470879004
-0.0029596616892433184
-0.00413231953384265
-0.0024551207229411777
-0.003759987106989059
-0.002654183442149048
-0.002203444844874582
-0.002606664368133346
-0.0033207265858196597
-0.005321742538878888
-0.0026768854902495705
-0.005589473772301262
-0.004004539616662072
-0.004488207630532786
-0.0018381819932907085
-0.0029201274901796688
-0.0032458321612108274
-0.0016779633387147164
-0.0019131372343787923
-0.0028582410244411987
-0.004624381787242518
-0.0023222169648892082
-0.0031818408892067703
-0.00210798702723545
-0.0034463947112561475
-0.003980217351335576
-0.004435504457454888
-0.0020109558818177022
-0.0035480283906979978
-0.004149512490181241
-0.0030839568747280414
-0.0014846340148875975
-0.001536174470032653
-0.0022975638578339266
-0.0024640542719326563
-0.0016400346614272362
-0.00266326950572858
-0.004389099297566815
-0.003095137824976361
-0.0017720138782197884
-0.003480670100095519
-0.004331120831185518
-0.0025031438688642134
-0.0041108956900512495
-0.002899697742489604
-0.0030671507106372134
-0.0021606319655755675
-0.0008880702731639692
-0.0013855059976791509
-0.0024447571289825695
-0.000742746307082884
-0.0024581302883585443
-0.0022457960551203865
-0.001795490190484346
-0.002667389161926811
-0.0036679542920305774
-0.0021034310949183586
-0.0025891810714309934
-0.0043455326857814265
-0.004179690195454675
-0.0035690224261007084
-0.00342765542687391
-0.0021803919448984137
-0.0018846054152161455
-0.0037975801831602813
0.00048824111252150344
-0.001648233208894449
-0.0009593017221405369
0.0008319461843736941
-0.0024428599349898775
-0.004212549205303246
-0.0020547413672617793
-0.0027912678819810837
-0.003642245003012079
-0.0025607988609691215
-0.0026069998268054544
-0.0022470974748585405
-0.0036045970066729445
-0.004534813726648225
-0.0015028498037112526
-0.0016958208951998264
-0.0008012643268774623
-0.0014774637191737835
-0.001797984892080049
-0.002297400146831179
-0.0025179280223748247
-0.0013213807920066426
-0.0023655941623757135
-0.0029620150553805297
-0.002294733502690109
-0.00293116127469437
-0.00376645902999449
-0.0027965332622351636
-0.0019332226145469316
-0.0020533850803437018
-0.0025021026143867905
-0.003542681012861034
-0.0022579562717262615
-0.0031642072569396267
-0.0021980559882341304
-0.0020331254540636775
-0.00047506898055576114
-0.0010315369420155454
-0.0008494434143394272
-0.0014282663859088956
-0.002973202968632036
-0.0017513576624886285
-0.0028240950461909274
-0.002949561897880309
-0.0037502473369663675
-0.004534242723265854
-0.002927089112515249
-0.0029873161467460062
-0.003077024161197927
-0.0024488545088457714
-0.0018949830741030373
-0.001562750247661866
0.00031699611364626677
0.0007005265485415098
0.0005273635088422186
0.0001482113164991479
-0.0006235438321344648
0.00016092702341569348
-0.0011685839418883808
-0.0003667968244884679
-0.0017264973802022096
-0.0022955110238960397
-0.0029680327248810595
-0.0038762947977401996
-0.004115668330588594
-0.002714015346758996
-0.0022599635444909808
-0.00029854887270056675
-8.201384075316823e-5
0.001086170802915488
0.0040308217631054135
0.005506674670285679
0.006603266321818599
0.003292360264930928
0.0023034073002769976
0.00019752727047960109
-0.0015630526639464912
-0.0013676228537843572
-0.0038537699092391414
-0.0033520712567793156
-0.0028819584542396186
-0.003321411634050544
-0.0053057473954829714
-0.002192321424316606
-0.002271496719950299
-0.00013921699023496635
0.002031460740600114
0.005243889896634391
0.008304246706524594
0.014218821027941572
0.011905772753279182
0.010215374379892329
0.006229156052705185
0.0024005374739210564
0.0005985350494453282
-0.0010394511047612054
-0.003913792346706671
-0.005252032960116841
-0.00394237663234379
-0.003396547869123997
-0.003340003329971764
0.003253983115192199
0.004564550681077162
0.00748001074759781
0.0074564192533060885
0.004790256110835981
0.003885400260520754
0.006290408052592251
0.003734163916016501
0.0032870736858702787
0.0028520969591805502
0.0033447712055846663
0.003246622253095297
0.002671096308374593
0.002475727359542407
0.0029755943101659257
0.002760409455863423
0.00306550509434935
0.00043284006834385237
0.003332459783351522
0.005018646033388971
0.004209895180578668
0.006786964566798579
0.004885670515778047
0.003988367960992312
0.004763483451615081
0.0040109991553482416
0.003633979988956333
0.0017071676573577694
0.0026686056560434107
0.0016092182964263443
0.0033615378394143284
0.004341389772666328
0.0037548166415214664
0.003896209525088904
0.0024572337735463174
0.005544918828635876
0.0037760993422496798
0.005167049596467103
0.006823640817654905
0.005929551783609608
0.005371020915221712
0.004937964451026557
0.00449759953709419
0.002980202869197192
0.0022489951428176238
0.00314161491986438
0.0034678275690293585
0.0028751408100112282
0.0045164382742037806
0.002943120482432539
0.002248825980231266
0.0018672781113039613
0.004789135856229359
0.004191559684122897
0.006182006771762634
0.005398514473009563
0.004223252905203789
0.005572986909016338
0.004357328634687818
0.004055091239053531
0.003783802355491782
0.0033318928024137556
0.002795904331648606
0.0031802327677948397
0.001862747545792389
0.0022719099572553413
0.0009707227984503755
0.0034216352645374177
0.0018343391602044738
0.003501673364378461
0.00347455130837189
0.005121926131681636
0.007941246982105523
0.005082848526447831
0.0053901624372838085
0.006666049697379084
0.004177975168771331
0.0016843367688513392
0.003823587480110602
0.0033237378468469036
0.0023746129456054563
0.002649346424423607
0.0026099993898924946
0.0016917749316718478
0.0013401901580845214
0.0027257758475732457
0.0026751275910354053
0.004232866884850213
0.004169200158258859
0.0031460229122836263
0.004337943029954753
0.004351438070950692
0.00455841390144761
0.005221362186129168
0.003667245394610662
0.002366151726458387
0.004334044884409246
0.0038232696026353555
0.0019356524889397634
0.002333215791276018
0.0032115076064363635
0.0028775531894901438
0.0015958261378733241
0.0007656886308114194
0.003284922357451923
0.00355621514789855
0.004980841618470996
0.0048399399245821605
0.005227345396145098
0.004756718118091177
0.005712810876027134
0.00524762862962423
0.00419461978146445
0.003987368282577892
0.002942878841314801
0.0030017069330571006
0.001988551351310523
0.00162575915672311
0.002513389959536711
0.0026395543206284753
0.0026009355890380774
0.002229659983377809
0.003957181615302319
0.0022073931332488366
0.003856036891952234
0.004564131488804827
0.006605746498600131
0.0064985831893054945
0.005397557366511487
0.007118702488236788
0.005697554316725902
0.006226584216005568
0.004493251786658397
0.00314293226468237
0.002859390017456339
0.002083555847515413
0.0018768030148943325
0.0020937383581054697
0.0024424008605344666
0.003206213263433579
0.004132477398114573
0.0032154927405625036
0.004819031561619697
0.006318799444135909
0.01242568316202141
0.009687712576576636
0.008285270746979989
0.005735224672462526
0.005724226918584751
0.006076391253890937
0.0027981009080538096
0.0020757717755034875
0.0027194783927731027
0.002834413695093531
0.0009220289193777578
0.0029074485065299555
0.003652180722221267
0.005114007222630726
0.005054900965550467
0.006134669298714732
0.00817919201401583
0.01000197701841302
0.016880895267747824
0.016677712486423545
0.01243700036962966
0.00960516199814454
0.007817980726270773
0.005339416493709974
0.00271425795472698
0.0004009634333187545
0.001972977082586625
0.002559173879471937
0.002396476810594471
0.0033364186684540532
0.003329483372056787
0.005887670387145262
0.00683283448081898
0.008956095324299794
0.011701041702256807
0.018717451942127837
0.042163948673147066
0.028574795324093044
0.02413673694035145
0.014355849193286247
0.012521652003234483
0.006944341679521808
0.004218048475042391
0.002922626609521914
0.0031655330317719955
0.003889982887884883
0.003412720178491534
0.004944703743089552
0.0057517316066964105
0.005614281606608928
0.009368768514307221
0.012063189716630295
0.02545204884917869
0.023242629261425275
0.07775664599790111
0.0728730377614863
0.0360865986093372
0.02459614852888196
0.012278059181056521
0.008438463634172621
0.004664534365249017
0.004972008882759432
0.003456802996963208
0.00417823547387065
0.0029472186660160315
0.0045920675250320465
0.006171928900482403
0.007641782676645671
0.012608700530743536
0.025140237802878322
0.03363996210701532
0.07456151466308825
0.28985298151548994
0.08647637884224142
0.06570462378942771
0.02629133762517445
0.018972776736716133
0.010600530223202202
0.008027495520547115
0.005920426242808125
0.00504342861045998
0.004652369158255063
0.005050549664131842
0.006399907687218283
0.006158193246581294
0.008738479335934067
0.019083228172529783
0.030258625259259247
0.07593240018378304
0.074798962700267
-0.5984127803752382
0.13026328254671277
0.031709924582023014
0.032006252370809236
0.01563065245787365
0.013292100828052279
0.008378417345788237
0.0066078338043236776
0.006312992503742471
0.004590100646982103
0.0039020616856807527
0.005589964572842311
0.0066485236472852045
0.008890138549855705
0.014319664273146303
0.03691362737213023
0.036013426265073235
-1.2949653257372313
-0.8320371567744295
-0.14075415718336987
0.019363376460941217
0.007738401208062168
0.013165934430307029
0.007702794225915235
0.0070044733585273
0.006727699996396418
0.004755011469582701
0.002950754390887108
0.004043496389174807
0.004179731127807318
0.005751293565327103
0.007107241014610894
0.014213907849463426
0.013818132056548913
0.03480977373603611
0.0013861583145769168
-0.09624362613545324
-0.009722231255567575
-0.004908157581517485
0.013424339119456672
0.0075456191730047095
0.0059528951394096025
0.004293649952869322
0.005096586857032591
0.003869584292966755
0.002594623014468363
0.0020037872732370536
0.004021377257948492
0.005267426930272628
0.007366398196003644
0.0070139957773739745
0.013547330597400145
-0.008994541380673671
-0.01006088645035128
-0.006312854101886702
-0.0041231050178103515
0.011083327559926344
0.00651634497204084
0.007637008016624166
0.0062542926553346544
0.00659917673204604
0.0042410070781946085
0.005196705877529571
0.0033841601794944304
0.00296288348967227
0.003921615482409825
0.0039680058550376355
0.003513336265483332
0.005997968246129809
0.003267731037408649
0.008195209289189109
-0.020211045717228954
-0.0056726119258276525
0.009052836227056153
0.007820955331435387
0.009038556469994683
0.004483131299100244
0.005122296029376712
0.006515331784468744
0.003842816262564538
0.004323335528839023
0.0027826137986081967
0.0021029770702723524
0.004428282095769156
0.0028849015292945774
0.003880998142603289
0.003151480108755493
0.006093078797175371
0.0010571649046065446
0.0022316142375084945
0.016679429859069603
0.011680628895696436
0.007212563801776167
0.006386660575421567
0.0026512762002298793
0.002752165401579395
0.0012278062496999457
0.0003980868899202822
0.0032547250416021583
0.006370283754259097
0.008790000105095012
0.012117009721196541
0.01624975050152382
0.024086282658203367
0.025048824490832348
0.030779198711974546
0.02294524229887994
0.02151914769064816
0.010408864085841001
0.007378489494958741
0.0033068432109043086
0.002606003709088432
0.00283300982944492
0.0006673975429023268
0.0013761376607511909
-0.00028736938060541946
0.0010433903118716825
0.0023815960177471845
0.004649620537006787
0.007168616159033332
0.009487460099722171
0.012380300219947177
0.015711541239469558
0.014037858301868685
0.01509770129921786
0.011076622823672755
0.004924132303298312
0.004599997627555166
0.003103996984565581
0.0011425773630959438
0.0007200039346917356
-0.0016653854732347107
-0.0015747602655999298
-0.0007227447114648245
-0.0006282965896985829
-9.061288036285936e-5
0.0029920551394700175
0.0009589906612489402
0.004627835288868192
0.006362605814025042
0.008180478603576057
0.010548849294689489
0.005995783648754639
0.006962883665900832
0.0015933680733907528
0.000427989790589494
-0.00035565330289544526
0.0004471245332811796
-0.0001192838390305553
-0.002743550066293775
-0.003684743189528023
-0.0040149402829566
-0.0044980505918106395
-0.0016229565840397012
0.000522558619947698
0.0011786800978454948
0.003400795022289062
0.0024635073878728243
0.002938737051506017
0.005032563865062627
0.005255273712629964
0.002948286115700229
-0.0006096043715844349
-0.0009472873646494277
-0.003358848677779501
-0.003616725044448867
-0.005085473436303284
-0.0042285826815936945
-0.00490004178328881
-0.00484577420666728
-0.002258074401242237
-0.0023858406008980685
0.000689233315875539
-0.001050015148650126
-0.002230312326011677
-0.000713790917485904
-0.002125909738309302
0.0016613100411376617
-0.0010087949946736105
-0.0005642436076207665
-0.0042397781558773575
-0.005736736852022314
-0.004202500162015002
-0.0037476843632454114
-0.00423018786705792
-0.006720922754156657
-0.004362710617780234
-0.0018419775010444124
-0.0024861020410139904
-0.0035741125540975677
-0.004542869036072414
-0.003983687608980306
-0.004119446950319623
-0.004842422481290749
-0.0043923833109298345
-0.00521324002783615
-0.005408778408789937
-0.007814284707051733
-0.007764399574766578
-0.005707895511224976
-0.006675960614961727
-0.007649531604238091
-0.0075231107753063586
-0.006142635972895772
-0.005196368568389758
-0.0058688711665580585
-0.004945677829421067
-0.006594796034599004
-0.0058461193300120545
-0.003876199886468561
-0.005291708318528483
-0.005441832155783652
-0.009665715884243942
-0.008286011992584452
-0.009806506825850691
-0.008596125875112935
-0.009460886337214853
-0.009747335458885866
-0.008314919970008695
-0.0071324386627670605
-0.002903453172744573
-0.004335765368006004
-0.004662746508318637
-0.005509466466032169
-0.004477901773593302
-0.0071577333591623694
-0.005001370887938124
-0.007263075956350248
-0.007767153337519657
-0.012109846704750956
-0.011159164960322173
-0.016829155515068268
-0.015433917096945578
-0.017284401158512194
-0.016602871090514386
-0.01199428284197823
-0.009678701532896395
-0.00798484694462359
-0.006177346175205061
-0.004331447374640596
-0.005342194531678371
-0.002649538227663548
-0.003936129198870039
-0.006771566464386375
-0.004065196960765372
-0.008321333809348814
-0.010471584455474161
-0.014596544256223786
-0.021846059616720283
-0.022196004933001633
-0.023939581158612454
-0.016214156483906193
-0.01595857686541227
-0.01281718753614398
-0.00791013041948491
-0.005106716155506521
-0.005629593579230884
-0.0048706956070389135
-0.0032181592843424202
-0.0041607811957682156
-0.004141612882858985
-0.006258378422663329
-0.007095640266780384
-0.008068878623792628
-0.012402914851587175
-0.01985778943632742
-0.024055272099903238
-0.03573122569708726
-0.027741203447582925
-0.029232720267150274
-0.022641110155755498
-0.010068664370371821
-0.007882422178514339
-0.004952960796528415
-0.003391571630961176
-0.004883548301091021
-0.0050505873696453955
-0.005162957412485198
-0.004299092519648439
-0.0030287850167574136
-0.004325141204637637
-0.003553257989328679
-0.011835667241535645
-0.018675943949961096
-0.044563008444338637
-0.052339399748837286
-0.05730980047416914
-0.022397495759651442
-0.008695732348304263
-0.011423302622333327
-0.0036992613145330343
-0.0039085269243083025
-0.005098841965796063
-0.0039487052935646945
0.00032855137778596707
-0.0025797654222294492
-0.001915760790133924
-0.00242122193904612
-0.0016469197203187861
0.0013914292937297931
0.0041293270436614845
-0.015498092956589257
-0.0467485922118392
-0.10517561199936637
-0.05175375000642851
-0.04841027233488059
-0.007712827364003237
0.0007627543917775103
-0.001790577759728769
0.002039677028368125
-0.0019357310236632354
-0.0001736284514406768
-0.0014185194068230599
0.00029229463414322693
0.002052012582252488
0.003658300384861725
0.005533127593770669
0.016736929784435035
0.02532242103271048
0.038964792578828386
0.00958402596461226
-0.1003191056747459
-0.1541061358839769
0.00904628489673921
0.04647302742912451
0.010342485058913277
0.004461224654850363
0.0028306116015258554
0.0017609084046550792
0.0011090859574291812
-0.0006754435290606481
-0.0005504719085836333
0.004000258876154706
0.0068878156816321555
0.011455187444012856
0.0254480229831235
0.058194376755868846
0.09155154802427912
0.2844580136793474
1.5323240181279647
-3.2348783016750486
0.03472259984390129
0.018989168107604367
0.017859750947364778
0.006571926826849782
0.004632604301785632
0.0020167452880162523
0.0012233240866978583
-0.00018321635786685262
0.0010793963604003544
0.004307824295213393
0.009508093831352017
0.013962398144387034
0.03333727265267793
0.05600250518138202
0.10947656509472507
0.1837236607195509
0.4363244607337212
-0.17008208800049296
0.07655313052092243
0.03860266318085231
0.014645146154838487
0.008987054964783487
0.0034624398555748725
0.006703660072043274
0.002365080779872519
0.00025564789153302526
0.0007352635600004714
0.004655877516077662
0.00828966461152123
0.015662783937561466
0.02491031187991531
0.05194289178041791
0.06960330502904179
0.12514131560533387
0.13885181478743963
0.11235554994478393
0.04085385548048545
0.025339892747841368
0.019481592005679668
0.008044460411182588
0.0073393477133251225
0.005469021261446867
0.004376183046676358
0.0018451876977094873
0.003962810020519603
0.0031098833476993597
0.007531083652892688
0.012356322288048699
0.02636360492237728
0.03625321445208224
0.05669892325628984
0.060492714673762715
0.08672190920792391
0.04725718069376041
0.04533072802521164
0.026664803793388814
0.014881140229904102
0.011996725716839617
0.005604224136433141
0.004359359633930077
0.0014370495124476222
0.0016708011589666566
0.0008528643989488956
0.003980948781413841
0.008035520566932845
0.011303160884597083
0.0167642330106502
0.026635259876713065
0.031205197943588458
0.04407828969211447
0.041203660234492914
0.04433396879712785
0.027640687905760252
0.0080683605648831
0.005658771760928794
0.005816933651403689
0.0033574530373289323
0.002059814350744058
0.001161631189461208
0.0002864996387341982
-0.0016071452454523628
-0.002366888528162899
-0.004264063498239572
-0.004522496529431787
-0.00566783608997814
-0.0077639687717414455
-0.008889263078972665
-0.007706708559865018
-0.008456589896239841
-0.0017877402848443871
0.0009670893237502607
0.010771331629233986
0.013286122437729328
0.007965671070031556
0.005671643238313245
0.0023065301487876404
0.0005421662010653439
-0.0008146061732058225
-0.0012660100512466496
-0.002139040660098793
-0.004383565415762497
-0.006109568976298267
-0.007486462451975308
-0.011290685445157201
-0.011576909790780448
-0.014085304577854531
-0.007168194359737918
-0.007434747568282333
0.014347010644688312
0.03285546773314388
0.019191312385673554
0.015576519727525223
0.008274317075793985
0.004556636634286059
0.0021274141104182824
0.00013350210742535482
-0.0029259737828174082
-0.0038914725862341393
-0.005610093119667776
-0.008917086033894534
-0.012419674147928647
-0.015423625832935701
-0.022067110433303252
-0.01994093132127812
-0.029732968894556094
-0.015672245379978633
0.005375159135208135
0.05109432997835261
0.04138292293270422
0.021468055908001493
0.013757181520363954
0.005426997254469777
0.0034804194502007124
-0.0006261688879363411
-0.0025199483517523644
-0.004885906402513552
-0.006790000891218925
-0.010156445360741059
-0.015481025690254191
-0.02641481591018533
-0.03787288768713389
-0.06649217351925593
-0.06735285768679376
-0.1738587683257022
0.12680043682885503
0.1958413076595915
0.05347992110507101
0.0287223413106286
0.01379161219477471
0.0072979408292485415
0.0021048811958492104
-0.0008080474013338116
-0.0032371883006887185
-0.00513644704877093
-0.007543585575290673
-0.011979096793958996
-0.01919198311673319
-0.029669733838460412
-0.05774150834829179
-0.1026621342336097
-0.386255849333704
1.3874224229092365
0.6990306227777694
0.07353796115880011
0.04422235062745031
0.01966787903925916
0.0120880963594786
0.005751588165764133
0.002490528982866109
-5.8606433365682316e-5
-0.0018052059621406387
-0.005195253576861358
-0.0087634385053873
-0.012601705521418176
-0.017896096390173456
-0.03151895817120101
-0.04890701936257095
-0.10061416047360362
-0.1725351834953505
-0.24467047810549714
0.04990201802628905
0.023680083158639963
0.014805523356789889
0.013121415681781571
0.0073695822700975905
0.00479780803681098
0.001231687191071682
-0.00023851932835639207
-0.003127275168370155
-0.005157812134552088
-0.007493651965637041
-0.010767292744637797
-0.016895819824415563
-0.024718794349148993
-0.040206262259360775
-0.053704950276107374
-0.08531765852064872
-0.06933882322116719
-0.008135430277493865
0.0019370707505484762
0.006584085334441211
0.00420467340908624
0.004458298323497479
0.0020627391296177753
-0.0007364625687062271
-0.0016307870595653527
-0.002124448439883353
-0.004234430714529778
-0.005752411453790955
-0.009948225829959505
-0.013345068519367155
-0.020411802570011142
-0.02558211814473131
-0.034774392116058955
-0.036033324344676286
-0.03780556079253712
-0.004358308611852052
0.0003972185506752152
-0.00018192859814819372
0.0017947476257872109
0.001143424526066983
0.0007661858187504413
-0.0014451939094679415
-0.001252407722050386
-0.0022302482151873313
-0.003397073028929932
-0.005074404384002003
-0.007439496675506995
-0.009968574551451791
-0.013174412026925326
-0.01800051158215826
-0.019932357999992118
-0.023441918196438014
-0.017283790045714214
-0.009395327629034998
-0.004014525744838999
-0.001590282409048268
-0.0012092086351408544
-0.00093526167520337
-0.0016709898378397389
-0.0010556393516233
-0.0005411288698682052
-0.002002158463556796
-0.0040705436554679154
-0.005163752040922346
-0.005965490186293792
-0.008951568723517413
-0.011026082661865397
-0.012568140029542863
-0.014259550777194019
-0.012465764201831077
-0.012201267465247079
-0.00650594665707607
-0.0040731642560658905
-0.002624478052745874
-0.0020604587226746053
-0.0015183957681745902
-0.00145308426998703
-0.0017062204413347032
-0.001229043334278854
-0.0018458879271936318
-0.0034746335681335675
-0.004416430454300308
-0.004482695987068851
-0.006754797181737672
-0.008949123054984527
-0.009344658358701683
-0.009371746279642379
-0.009427012954475133
-0.006866835422676323
-0.005391043660733318
-0.003630516683916896
-0.0018461730469884281
-0.0017934113973329662
-0.002245023970384691
-0.001528619089620491
-0.0013392977889479106
-0.002362130256275294
-0.0023156444529862904
-0.0030643237484916158
-0.0036557651357129743
-0.004418037065332225
-0.0053304910269738656
-0.005037779671782256
-0.00585540217992495
-0.005869615286226854
-0.005752859669772541
-0.005861327138106073
-0.0037938172545958116
-0.002502702851315889
-0.002242180912981446
-0.001717174072927056
-0.0019243320663059334
-0.001643728696435861
-0.0017807534587765805
-0.0018649157504053839
-0.0018627068603149807
-0.002004344064043079
-0.0008588495976963662
-0.0038966205263446826
-0.004379086014756682
-0.004891345958873114
-0.0052101958616586706
-0.00498061806683477
-0.004297178526461328
-0.002750931122090372
-0.003312862313661869
-0.0011209906762325958
-0.001204100172932
-0.0015802825603337062
-0.0008006878637952578
0.0003746815705157378
0.00034802419892681133
-0.0009359630948035101
-0.001746879931118255
-0.0015119343596182774
-0.0016828146497518948
-0.0033670867328835603
-0.004521313518742982
-0.004198944465112548
-0.00503561828913945
-0.004602529390595226
-0.004223466286514249
-0.0033931573388714027
-0.0015240651186830244
-0.0006700594732459109
-0.0015037156350192636
7.182116991330035e-6
0.000709975725142317
-0.0010743098092250564
-0.0015319601816047325
-0.001653441356150702
-0.0020498679286103665
-0.0016877411671427393
-0.0018879158909125516
-0.0022508752999900886
-0.0035345328105574328
-0.004011710997324114
-0.0039018804425547575
-0.003627275807107206
-0.003545490924390834
-0.002546913312892106
-0.0015298864791905697
-0.0005935587350880026
-0.0016657140559036806
0.00022087725061532766
0.000755057805302522
0.0002663257211256142
1.267436516560604e-5
-0.0002821421211313523
-0.0008133159564579669
-0.0011378758417899938
-0.0021084748306854167
-0.0017975661549417044
-0.0021403755350882015
-0.00438777177517302
-0.004404809693547815
-0.0047110990399764005
-0.0031368855961680163
-0.003002677797059988
-0.0019257556671947145
0.0014036286860789429
-5.350284710080972e-5
0.00041518857568332554
0.0009661661611366963
0.0009292623753848447
-0.00010510237579801122
-0.0003214274833381408
-0.0006931922245735499
-0.0015125428476605838
-0.0019747209978431125
-0.0024419639106517572
-0.003744101910027175
-0.005195839789664199
-0.005908480198799029
-0.004432960991018519
-0.003843342055006151
-0.0008747141516308769
-0.0005511345046036169
0.0021847953467514798
0.002476228495961707
0.0029958546989423324
0.0026473162091130305
0.0021359533691174657
0.000838161849390061
0.00013890308931891013
-0.001146389525285715
-0.003345883424567177
-0.0035977554750643054
-0.003123766545314674
-0.004919094758078696
-0.005081178443701998
-0.006166682643556708
-0.0067216025577821565
-0.0028093790982080553
-0.0020115395877967034
0.0024384642902909844
0.003881286155410393
0.0050784285317188125
0.005398058828598071
0.004034752698206993
0.002771601442174852
0.003084913277282674
0.0035666141877783546
0.0036053086454810135
0.004050134663844759
0.003783200507338637
0.004187947121517071
0.0034466891222895845
0.003520203065021333
0.004778324387201907
0.005171187426999762
0.0036906730209594735
0.005542691723355666
0.004124015999619987
0.003961301069813849
0.004344838232004367
0.004854392994742593
0.003623491455314347
0.0030799541730732872
0.004876265705445394
0.004084374239354271
0.004029526409342022
0.004574527979887879
0.004345782427743662
0.004836354210848279
0.005147338591525399
0.003370234619362188
0.00409262194126036
0.0043598735614033615
0.0026398621461749118
0.005334126467817768
0.0051575228831764455
0.005071534854130669
0.005181242574371277
0.005119515314414989
0.003921873865577918
0.0032294737944828693
0.003530203900779228
0.004335854291566596
0.004478514169203397
0.002472950255946929
0.003476502698401458
0.0041753612894881555
0.004633106383144593
0.004573269149783431
0.004794635085845119
0.005516607577551342
0.004602236695732693
0.004601515017805969
0.004241181648491203
0.004903169334931071
0.005104037408096103
0.0046561057142469435
0.0053556351551094054
0.004235110168200244
0.0029426397499486795
0.002871604376367293
0.004060602586139618
0.004204935937364862
0.004076153962902697
0.0051177647521642436
0.005052495916073228
0.0044793117051365626
0.004620513808332478
0.005531322646652063
0.005770580205361225
0.006100677375330881
0.004990387314052188
0.005764472297194955
0.005109368730446764
0.005085349077087209
0.004723800663759092
0.00466099281216434
0.0031575578414392816
0.003383318365272514
0.0037496460743102716
0.00393255637082361
0.0038366697495589314
0.00298424039706388
0.0046993230396528834
0.004954699858900901
0.005863530938137389
0.005460024422896843
0.006430836888797467
0.006034767531566139
0.004789809702383593
0.007365985683079831
0.005388336556763896
0.0049112988555485805
0.0050730360861441365
0.00542665658439432
0.0038770119709125575
0.0038644149373123255
0.0030291521847541267
0.0027719257143507432
0.003037894824669918
0.001714692229767178
0.002268220479952181
0.0037052510443636795
0.005378310573765851
0.007526927801333023
0.006108819446825362
0.0067633337455186085
0.0063476915994762125
0.007878775146212682
0.007417761108152507
0.006338877257162358
0.005280375934402992
0.004179411024968538
0.003594125306501994
0.0023377445122984763
0.0030408470471918986
0.00096102280316035
0.0002084668634755539
-0.0012933283563205714
-0.00047838187557885757
0.0020459325514929684
0.0062420425353932815
0.006104306822958841
0.008840804614834651
0.007839203920624288
0.007467208655977626
0.006937744494577424
0.006129466462671722
0.006302707078310166
0.00448560980921751
0.0036964644306755833
0.001882787792742903
0.0007734698648029619
0.0005605822940031733
-0.0019508023472285217
-0.005610653467132561
-0.009266789611160045
-0.005712108129439985
-0.003031140265842086
0.005350521410566091
0.01001549416380323
0.010274126829387477
0.009237411589037748
0.008455870967086346
0.008248800976233059
0.005917171106470914
0.005541149613304814
0.005075589363119745
0.004746424795896878
0.0023568378525496065
0.00024400028201102894
-0.002459571835807973
-0.006265493590499455
-0.015612313138983182
-0.01989225964845027
-0.027931262171103748
-0.007776931430578265
0.009880126864809621
0.012019577929882922
0.01387812380901114
0.011910760885146206
0.010103682475791964
0.008424525504882286
0.00595813636304265
0.005603220467950564
0.004487345970176671
0.0030332272164170365
0.000563636718478939
-0.00022309481360235992
-0.0031403408860541096
-0.011573282899796934
-0.021210101963848225
-0.046249076114799705
-0.059398213332622234
-0.0023149388528691177
0.02714517864278117
0.026141716365058458
0.017772541374802373
0.012280517377437647
0.009700718641057489
0.009195121715550024
0.0069866216185045975
0.006065093429033291
0.00440415502535046
0.0031406404118934947
0.0014498445482176193
-0.0011103140048290881
-0.00476256441372607
-0.013803869804680558
-0.0342018682483871
-0.09477771598416668
-0.8245040773489108
-2.496648385792157
0.18785093069943742
0.05084643920215541
0.02916768505293904
0.014445264520484818
0.009770629161430877
0.008811839732652657
0.005989515054535505
0.005544371376636573
0.004157227697690793
0.003088780550903238
0.0006566946101141688
-0.0006641276897063852
-0.0027755862607536986
-0.011101712917411317
-0.021237862548351708
-0.029288345415057756
0.013579728927979767
1.9253185155107766
0.1837213780582614
0.053719809945737974
0.02790244052989048
0.015102994405023018
0.01151364910855878
0.008521123192280815
0.00742172151341251
0.006155290633186087
0.004993922004684606
0.00410393125895714
0.002021156519140695
0.0009106336178126271
-0.0014105059612062273
-0.0042173963969430375
-0.011503042311524084
-0.0070560518429110194
-0.0009339105021186325
0.0717161852248146
0.05106927211488994
0.029594748636813557
0.019540556656891975
0.013611596348095679
0.010905290376997773
0.007375432349600813
0.004917640392353867
0.003001667908323602
0.004981485966892546
0.0027912557192753588
0.002960668050402099
0.001785561757084029
0.0005949978732672624
-0.001972332804722046
-0.0025707331070753884
-0.004688906932241004
0.011347629062695357
0.01766494718766244
0.01992877069373936
0.014604585956519249
0.01404316415504308
0.00992343479280696
0.008537448654387242
0.005432972652785594
0.005845034233523359
0.0036932968912325556
0.004685951674720846
0.002634078574654691
0.0031362396095620413
0.0025014254721006848
0.000992556777116005
0.0008543249380395977
0.0006863458675725167
0.002306836899772265
0.004370155562540046
0.0108870242550473
0.008842433423739797
0.009845679651277434
0.00821454966229407
0.007880581368740324
0.006675498748667269
0.005244837755629108
0.005384995611303236
0.004472950299990822
0.005166788211591862
0.0037870551914936028
0.0035189668856225446
0.0030996337307307694
0.003022709462128862
0.0023368201529106987
0.002744199511653097
0.0028511951441064507
0.004703630891986133
0.005868251095515452
0.006136116292874291
0.006381272892119426
0.0074284116876177355
0.006976921323264003
0.006361929851726991
0.005248010855458334
0.00480242276569748
0.003968793408350225
0.0051522163584075955
0.003022857414217843
0.003363752761644083
0.0029804028342124604
0.003274489836414791
0.003403571515875374
0.003558517889782891
0.004578152689435013
0.002685346600614648
0.004998352771187489
0.006333660117480266
0.006120416519049168
0.005633387471148985
0.006387901449406512
0.0060142475659287235
0.004305859828520422
0.005010213573571455
0.005188757454200176
0.004430196315317599
0.0036313220672228703
0.0036722967834210128
0.004296455788074611
0.0042987219536495935
0.004129105540549688
0.0039743046653194095
0.003623397745042878
0.002714243141709115
0.0046300379165094005
0.0058169929173385
0.005293605320570956
0.0053664009696713436
0.006251193990628267
0.0058854875056692235
0.004032525156331707
0.005339997872959327
0.004494727034377229
0.005960167326943343
0.006453668877380018
0.00874688577356713
0.010762380339953652
0.007806279985984298
0.006641544043766174
0.00240835367158119
0.002063253412373412
0.0024398559898621873
0.0021594579501025635
0.0019320664932742661
0.001157123885925323
0.0024495153575911127
0.0036405077747332665
0.003437725727493593
0.004506351461851231
0.00484401303021315
0.0033440067695192314
0.00631581848131235
0.00766019239089661
0.013139000818937716
0.010024647304754093
0.012636498818790512
0.00032098430592093427
0.0008191309270485918
-0.0014295923476087785
0.0010683129389523968
0.0006875190462859442
0.00042247290720302127
0.001848297314687061
0.0023859082139464196
0.003649941762619947
0.003164753786038522
0.00465976385733514
0.0057229589588053366
0.005721127508763697
0.006469589251692063
0.011528271940175961
0.016756167294027638
0.028966960508140894
0.014419326612472886
0.004565492536092554
-0.007781868364076411
-0.002838779937917217
-0.0029383250494260486
-0.0010693201448721882
-0.0005048080561122739
0.002949534312984324
0.0015770577970134678
0.0026844144777403603
0.002923858106929899
0.004264168081773788
0.004347132543419423
0.004288091020414772
0.003442508659606403
0.0015769561544985637
0.01701267165544831
0.022631184807664673
0.08568192792647028
-0.0572383937046243
-0.019162185910611106
-0.012755828399340984
-0.0051510414266878225
-0.0022231872968654174
-0.00043857443059183016
0.0015334993416080077
0.0026204063955840118
0.0025067010066436367
0.0041686723467134
0.00342863830551142
0.0033871043393521776
0.001574078355898473
-0.0023537479442643644
-0.005584583882193651
-0.05758027157581606
-0.4525412292596652
-0.64484550510041
-0.21539626929875302
-0.08305849075384929
-0.020166870492775418
-0.007323916050062174
-0.00042325529494624146
-0.0002443808537139258
0.0013401226297202634
0.0030805860894539128
0.002752425380482429
0.002934794454152319
0.0030492744469996893
0.002780137340468009
-0.0005557523907390915
-0.0018615665773650198
-0.010870926438782248
-0.020590646068346874
-0.09326272232132012
0.5995673491132631
-0.13853873248613513
-0.02660616648416866
-0.016236463157315723
-0.004109031741758285
-0.0002360052020555991
9.899871680541021e-5
0.0018462139110421378
0.003335515594316476
0.003503667827730784
0.0035925336334191307
0.002908485957681017
0.0026359278512422223
0.0014773237567899647
-0.0012109020111467834
0.00035450397853695594
-0.007306892623860724
0.016214117894932812
0.033854401432097087
0.008330934693116434
-0.005008002604948773
-0.00019642746638296902
-0.0003957301669353856
0.00030725521700448663
-0.0006376483125227383
0.0005726463751805189
0.0017518742052607132
0.002240247654847416
0.0031485585430583592
0.002059427309375682
0.0031894147032358114
0.0019202270796320692
0.0024359532982201064
0.0015778498278919083
0.006900304040291658
0.0034582821688721194
0.021098937929261315
0.010084945940982934
0.008609299154945455
0.0011858164558128164
0.0030899113133913874
0.0004827341081557471
0.0007532796097077323
0.0018575108501604838
0.003304648255490663
0.001807156578230483
0.003606455716396595
0.002490492901621963
0.0030939306777453385
0.00372587965727517
0.002584377913842956
0.00482346214322855
0.005865439093422251
0.008820391267950813
0.009319131566550726
0.010689774098875282
0.006078552301069753
0.005453208596643419
0.0018836930737081245
0.001719400950563908
0.002688914324347794
0.0030836097123058104
0.0037344081626683218
0.0038061785520431108
0.0032921737584669817
0.0034818097573621836
0.003369105399047228
0.003870122834256894
0.0041840645125862785
0.004155558441202702
0.004828857711735523
0.005791029500427231
0.007277374493360169
0.006267242185722257
0.005944488229397091
0.0034691036302329547
0.0025387196450641623
0.0023178638837745855
0.0034696881753757207
0.0020320694167427697
0.004357228923620866
0.003908699241509172
0.002623436375458477
0.003738420488070637
0.0036084879258663684
0.0035697836239579283
0.0037985714081656304
0.004775138152548593
0.004520648708684834
0.0073380751910710855
0.005425653935271398
0.005095926504384872
0.005463827180546285
0.004833748597331403
0.003928943194488755
0.003409894110616898
0.002610366650957762
0.0036456198701421607
0.004196630778942225
0.003915207927812
0.003076394603256534
0.004006704626523956
0.0026826491889565683
0.0044752584583541664
0.003808709960998641
0.003794006544684924
0.00413383018948999
0.00695408724132504
0.0059464204486929795
0.0043334946773092645
0.005024187798203502
0.003872227529080809
0.003990754949296734
0.003992029144768117
0.003412340716715147
0.0033786383737513686
0.004403894223354404
0.003464175434291232
0.0029353253181471028
0.004330031326315341
0.003060043075969491
0.004266763764835425
0.0039874212886259995
0.004337091512044056
0.004710624800561148
0.005921572580596602
0.0038246470511292922
0.003934829994191632
0.0045888365920691565
0.005176762888011675
0.005393685088855455
0.005351676195378912
0.004127376387635201
0.003849545736521659
0.003479048063078519
0.0036850055476084897
0.004130792317277694
0.0026829434012631227
0.0025230432298607103
0.004325929360830729
0.0024921511862390756
0.003074327513069134
0.0034794622495195374
0.0039600722706475
0.005636477051636927
0.004525403881733825
0.004636016678330192
0.005579706572450267
0.0052107858649710305
0.004599768749065931
0.004704169880313204
0.004344693897069727
0.004670740018366541
0.004367908463787572
0.0032353447188678596
0.0027131166515536043
0.0034916457125389808
0.0039651116141636526
0.004362882803423182
0.004461843266622067
0.00401839683033904
0.004495232643228789
0.004957446471565895
0.005476020553717818
0.004534857698059148
0.005419866434085667
0.004131639191437844
0.003688436261274721
0.004594419035130584
0.004556120486129561
0.0028181962895742103
0.0027660638337207223
0.00313683092914937
0.004164857796137179
0.005017064404026575
0.004145231504059088
0.004268369523662013
0.003845870148519155
0.004945439804559658
0.0057708856808625425
0.0053044621672313184
0.005182602843643552
0.005371043352115731
0.0036913396807578187
0.004203617019428207
0.0036726596644075403
0.003628184556387397
0.003330245890151083
0.003023530370471433
0.0035673047154016575
0.003783314969610413
0.005725488298774098
0.004836506390214743
0.005374952218943189
0.005357938933044771
0.004970728413600797
0.004302246470085028
0.005695302682966144
0.006236913274221866
0.006620537641434778
0.003981139834736339
0.004916017838248832
0.005628119901103336
0.004815745911898793
0.002001609402755719
0.0022422927686028974
0.003337683636369345
0.0038289119845397192
0.004586698270366922
0.004741076318050571
0.0034807791296253138
0.0039394711007354425
0.004513821582323487
0.005633134213958771
0.006652521005158932
0.005608760779962282
0.0066371104923843805
0.004549131945351584
0.002279631591167192
0.003013758834209071
0.0046322480237916104
0.0049737144451901605
0.003560560278262661
0.0032053172163124585
0.003320627984215144
0.003190708716029963
0.004102228522507229
