-0.0005235912005923072
-0.0003137572193429916
0.00015490851909845708
-0.0014824947210749307
0.0003801056010192312
-0.0013619591399576182
-0.0006307175482067505
-0.001659598080184771
3.6572688180314724e-5
0.00032227963155250937
0.0003131290547264934
-0.001290581161978246
-0.003147766745588992
0.0007863398099579369
9.521402999651418e-5
-0.0001560079970013104
-0.020685483595585374
-0.1886949117449267
-0.5652802086882754
0.8285266709917364
0.1412134234200177
0.02560102881991607
-0.04113188460350189
-0.08947664427200941
-0.2788288183335096
0.2439051014762726
0.05917518567929543
0.026082797736747848
-0.006255719318914834
-0.05766985056856479
-0.05321451010226827
-0.00526903845894337
0.02475250926778798
-0.006743022135612238
-0.02650166955090413
-0.026310667700579358
-0.06298787688951711
0.0008765707295126366
-0.0024694720076518933
0.010821133700434856
-0.01390229405079143
-0.06875906020163226
-0.06282269219362095
-0.037620423337629834
0.02505445473049192
-0.010183378643473058
-0.056024794432667266
-0.1031213192226986
-0.2013779981480878
0.5159313208400168
0.06448850200511488
0.025803038812057345
0.1256913898945443
0.021306232579132015
-0.06613216465077211
-0.10918496225280339
-0.04713655093656995
-0.6258140778121357
0.15447471550763048
0.0029703506159761794
-0.04474225445361352
-0.11230461747742505
1.1319991471370792
0.005137152647706771
0.015767099037077643
-0.0029557466076027767
-0.044394657780112534
-0.05871710770077631
-0.06966135182682322
0.0252088928428877
0.009612805859666416
-0.011551254382865993
-0.02444555265546968
-0.05169938637856686
-0.02674447795341901
-0.005563005788331482
0.006919994632977565
-0.0031453953879575242
-0.028684562841923434
-0.03284599345850366
-0.05138026667004944
0.0017788194752110943
0.03238101899834515
0.003173045796194327
-0.022499932545044836
-0.07373563607051159
-0.06503561781897871
0.023753908380475638
0.009015939682703292
0.04902980196929916
0.08276067486941442
0.16508987618473847
0.06587375751068755
0.03557605158363016
0.0007413618181872127
-0.004147752477026142
0.03815854476109972
0.03059638753758979
0.02776192839540422
-0.0013514303703571332
-0.03863124310544517
-0.019965861471130754
-0.05001231470903162
-0.022257703621365758
-0.050820366394253316
-0.01899865313117629
-0.036630548179675926
-0.08236642292524768
-0.11430889187657017
-0.2602869627586752
-0.10433030441960511
-0.07300527127873033
-0.04841312658551407
-0.04985006255229189
-0.2617367992313844
-0.8233281770491522
-0.24465619622858514
-0.03397306096782588
0.02027307663526556
0.027690323180095126
0.2771830843663829
1.0691047475412248
0.34566779267825837
0.01594780059883294
0.1732354387870319
0.3049172810159932
0.3112597429418112
0.17134218196746676
0.13773587092374426
0.11110636520813504
0.024957888467304547
0.10453003209172271
0.12018496501368342
0.08978623199305974
0.0601894330344106
0.022778338897125015
-0.03597629778517884
-0.031179226833552297
-0.010633156862325894
0.010776145748417476
-0.0208539558459421
-0.027354427076555495
-0.0604911842253827
-0.03741717222883582
-0.07681924602320904
-0.04986613542563335
-0.01187946599796629
-0.052965983493960686
0.05707387078560349
0.081852930567843
-0.11963916032846339
-0.10249041529802924
-0.004664699509295305
0.004532527807475582
0.19842960540594307
0.5723530208437833
-1.927600682106602
-0.21957777651272492
0.11652474589877151
0.10154236814139647
-0.6545814279531379
-0.22964480687841815
-0.10271317554927958
-0.007790679538125835
0.1236145090597083
0.41782889727910655
-0.13121164982996222
-0.1313191532990265
-0.07003528093949359
-0.016212452655816015
0.04689278603734063
0.07335841601263429
-0.06469380012983482
-0.07992918721585043
-0.05851982841331996
-0.01943405074114197
0.01508192696081286
0.013194045780688309
-0.054866403413944484
-0.09074824365351665
-0.054689561874197365
-0.01469003558862301
0.023702181109447232
0.044871583725738004
-0.21914429391606605
-0.1686905335312613
-0.0820972124584163
-0.0022913987795903667
0.08615637011934313
0.12431969751726146
1.047642558517337
-0.2937883426548891
-0.11908556071129449
0.010528559495145723
0.15943239059221223
0.4853531574361969
-0.024588374549195494
-0.02549815060330651
-0.029689389996649655
-0.06320366653213104
-0.16800291949371898
-0.0636831260343401
-0.028321591278706926
-0.022543763247352876
-0.022780202205117596
-0.05250367018265748
-0.07563694758547347
-0.04722382149117336
0.0023125623328882155
0.0018690996686226986
-0.004982762536381758
0.004805886872688556
-0.024197361614643025
0.011379665779312072
0.06533890055064688
0.03134611803201605
0.06823640482157729
0.13308941761890886
0.59120664662327
0.11021210738224756
0.08434699548666401
0.04836643561562302
0.08993253831866833
0.3486491432185836
-0.8981539820425513
0.401892323423936
0.013561256277195477
0.0037288634247311008
0.01763126153336878
-0.019973601632250548
-0.5014166302166951
0.00819433416978577
-0.12070649046978589
0.060433567475838425
-0.03271615624224671
-0.012925232903799995
-0.05006465580131951
-0.04895480395564201
-0.5199900556282455
0.5584636353490244
-0.007514491327478828
-0.05097852508720244
-0.009308855115699632
-0.1011600949293615
0.6940250932168022
0.2391935147646753
-0.10847527039467322
-0.029955928396147167
-0.02416776625927937
0.05669378896083444
0.0688348596468095
-0.09844080385425928
-0.05242438286958194
-0.04537002903275424
0.009615129147006147
0.019303214951863646
-0.031076160089087493
-0.02591099946746975
-0.05101028196544291
-0.019623328800118463
-0.023065760651867367
0.01188440898148851
-0.020553332204752583
-0.05638073688677124
-0.024939754675972568
-0.038448307020871125
-0.011692912813833134
-0.04389209565930938
-0.01159515023583516
0.029605668535971134
0.09298982546799128
0.14528426076972642
0.053911054727562475
0.053128842568098855
-0.009849979344458982
-0.07326793355478768
0.3609887890473328
0.21174005741121105
0.1433919587548936
0.027746302101652694
-0.09886814700388286
-0.2832647464663477
-0.7254589897703507
0.32100747825961806
0.12586424309988647
0.05730543142059355
-0.061840946393910565
-0.19101935380447943
-0.28620970404734647
0.01755986455837939
0.08720090392138455
-0.01634240177126754
-0.054284980736442806
-0.04426319558187875
-0.06927382866983449
0.04689799123445466
0.016097178908976637
0.022155917601727894
0.003279942539531464
-0.036374975216790166
0.047018466382556925
0.03348766898215578
0.05961587805365189
0.0035366080396153697
0.07795070759171968
0.1619635761838156
0.25692767211469764
0.24296624419106552
0.12268222541530911
0.07678599777715131
0.040182446309283804
0.06916048981940985
0.10078430554850365
0.09199363423081636
0.06516573898380965
0.03309304838991736
-0.0027754187486109714
0.003204988985038685
-0.005641374929293225
0.00709004837513154
-0.009383517733896824
0.006901575842332281
-0.022546466997907078
-0.056148254138121585
-0.12996748519029694
-0.14069995217217562
-0.06065556581883537
-0.03537756475689993
-0.008306632667841467
-0.06383092609291248
-0.4025695725694021
-0.5093949633880842
-0.11723855255490967
-0.013500816211350184
0.08471849790762034
0.2158322313904509
0.5946644185545501
-0.8611851936766773
0.14290281467880928
0.06155159536699778
-0.04135005679104038
-0.04972420583101685
-0.01712971087295542
-0.00425839528935372
0.015599221189541781
-0.01145997454107527
-0.038787416954382925
-0.030545816611467387
-0.015142172751496688
0.00619214728588038
0.008737510240936617
0.007714816329086712
-0.0825373682452917
-0.0459548845598329
-0.01428020657295274
-0.005770998869199723
0.019892932815036204
-0.01986201990579317
-0.6045438511144502
-0.0570855097011116
-0.019896331936836938
0.004617271908597962
0.01928435794656493
0.03821517819058969
0.0821021916358432
0.7812702341072696
-0.038445853562298626
-0.025601079751720855
0.018008921152998857
0.2394869249117911
-0.04187249203903225
-0.05910143843356227
-0.04358166014846769
-0.007899876175845082
0.001622837781075395
0.01558677522941366
-0.013217610317982036
-0.008730892587788884
-0.018454330089336314
0.004448014193730467
0.01233457520161125
0.0069745847205529765
-0.02188045714191158
-0.03429223324549567
-0.019887452619036097
-0.02377261123373099
0.032794726972073404
-0.019172968244057224
-0.07331928129400225
-0.059349711435058676
-0.06965496998968417
-0.0026129865459257494
0.544351061969703
-0.005400208161930346
-0.11718403442670267
-0.10157599472059621
-0.12039524034375353
-0.3124386707518828
0.6107670829420085
-0.42775779586167934
-0.0548542595855665
-0.045424515336595604
-0.06270592164742758
0.04139623247484796
0.2754883856764476
0.037209135079606236
-0.011989421224805435
-0.021404142780128844
-0.01303330488544217
0.008015731813313805
0.08581079588453433
0.021918687501977913
0.04666410218617026
0.06637476127635328
0.023688377690144976
0.0001936119780391814
-0.013113769161490568
0.02075764249631406
0.014602565307209249
0.00831602710590597
0.004117646899935578
-0.012679339690200108
-0.016946792200984277
-0.01514510592870767
0.004599750864364254
0.016879583688879842
-0.005127100166263944
0.0003183782377002091
-0.012168971870203724
-0.0022505766408055677
0.47382859449134707
0.10725554108249828
0.01382833036142613
0.009971551285310647
0.015715566926278294
0.018648506612005348
-0.40981647485234635
-1.1046536799944928
0.04957360725317988
0.032900555406192585
0.030889319987945058
0.2083297820498105
0.08797790246070952
0.13510883867788726
0.04939477147750509
0.01787096640917674
0.011413878526599234
0.08738164969742021
0.7288297358025585
-0.1373954503225324
-0.0915106152723298
-0.07323182185152544
-0.019551707121715115
0.08472697196408294
0.1426750722013132
0.01466928973946017
-0.04549208317784425
-0.03749330063340723
-0.037900159574068774
0.07866445408247001
0.0654180977304806
-0.0004745626465612673
-0.019133051271880572
-0.03178645488559411
-0.011899705801638938
0.008981652195956901
0.03379238808611584
0.022857590095767117
-0.01761790550995285
-0.01313896442940226
-0.015051206429031428
0.03875333624588006
0.24748332602926665
0.05881454752256193
0.004435540260719229
-0.024655224668139814
0.03367335492707479
0.11988440460326297
-1.8634982890158673
0.32393098064051096
0.0010166873369365477
-0.024750243583446453
0.05045854716810679
0.38141476973613186
0.006236259080134003
-0.03785046167161714
-0.0034389114163318204
0.010444959489437433
0.034162418418719455
0.034083739738473
-0.059585765160293756
-0.14886070855219358
-0.04726147644633136
0.019344123321942196
0.012795916450949091
0.0031854630778451526
-0.06732084173231193
0.642024871338808
-0.11297026209754081
-0.042601744076596844
-0.003704958119483197
-0.02573163999802394
-0.01674068620533355
0.1829607575385497
0.2037633912074174
-0.0958544439974715
-0.05566599828164043
-0.03807387290015697
-0.035642844871036646
-0.06731872184593951
-0.09883776233829512
-0.07357282346779756
-0.014955245435610564
-0.01413593071904126
-0.022971978910105478
-0.04145155938958244
-0.08027475842649355
-0.0012292043417501653
0.012137284305806946
0.03371341641221354
0.006422043061058582
0.024259199185139708
0.01116560508260537
0.04897897365584279
0.023251246633239832
0.03740426790451999
0.028510188917762132
0.0022204840879375743
0.016419957321457256
-0.015331009564837506
0.018377096565060425
0.0013981526932834091
0.02643298493477543
0.026404118893036094
-0.020859038671481703
-0.027598599585073897
-0.10607964344450634
0.1103370694996036
0.09051806668212699
0.0022584592609168367
0.02248339779283519
-0.09361390403128261
-0.4648109489517079
0.6519804278609019
-0.034931206469793766
0.02342792222467553
0.0245910760295768
0.16213542884762566
0.7079626537061706
-1.5239060398365807
0.011839834441847497
0.009790235521615438
0.05495267051723211
0.08345730521894922
0.1544139603783214
-0.04806243626889469
-0.434639000261527
0.6693845742737122
0.2595016541958751
0.06375971984552832
-0.0545913689338345
-0.10330778872464765
0.09573676215325012
0.2771080046104285
0.1602561121393541
0.061647721358735565
0.02596163074726494
-0.048704206579699996
0.006638831986267076
0.09566222661309218
0.06824264808047019
0.05663901577256525
0.0007418932572325547
0.016792860939218855
0.0038341318867351195
-0.020380790487579133
0.034088299646083384
0.0051478879525513254
0.014533832668114656
-0.03392938043486748
-0.15857379850854178
-0.10010713975707687
-0.05307312158768801
0.00016466530076195943
-0.0421127011989791
-0.05205185807152468
-0.29544992751664906
-0.325271009478036
-0.010110773906546858
-0.012539313157778733
-0.02405012509579521
-0.18035016984372554
