-0.00020931134594628814
0.026363181433181712
0.00012129164268809614
-0.03591658008728917
-0.03252541238193393
-0.020296275532797864
-0.023932903165222758
-0.02385497831372832
-0.0642855489178615
-0.06417864130197841
-0.06846134346077815
-0.057997001143642285
-0.04929465533109501
-0.04273822100429594
-0.035288033571661735
-0.030155868987722993
-0.029465177178493635
-0.040990636759594336
-0.04759767149686998
-0.05868792769369711
-0.05618021041241091
-0.05497895951341051
-0.04736198763006566
-0.04020182649303971
-0.03847611302726442
-0.029809744600573517
-0.0361455150208447
-0.038040753101447895
-0.04989918835047278
-0.049550655187865174
-0.05366676086504761
-0.05243379591290638
-0.04976360082755877
-0.04232892362767797
-0.03556659757996897
-0.03240757283300914
-0.030714204195662488
-0.04212204182965087
-0.04667028608170666
-0.05853103160936564
-0.05378887786525423
-0.053668652178526954
-0.04662424098862848
-0.03742218790084058
-0.0312235852181146
-0.01839037296892531
-0.023379924129661927
-0.025369197890091087
-0.06369222254305573
-0.06456009081568286
-0.06786846180632707
-0.05654820740899751
-0.051398519542693324
-0.03596050090633011
-0.016410929183601267
-0.003584053156893698
0.017537997951299115
-0.01634462393669227
-0.06797918133047844
-0.10482507281881268
-0.08035626923930282
-0.06870219049214253
-0.047937974269661156
-0.029513613802273343
-0.010278793048563602
0.03906149065196068
0.06513475615582
0.15890247845829983
-0.2549780737462437
-0.1513664427991806
-0.12395814870535436
-0.07634078930465789
-0.056965838686666416
-0.03463076484507628
0.0068828839841443045
0.050493588064988035
0.2485184767432913
1.6498916087303863
2.6146538077751975
-0.3330491664768481
-0.13581311119344125
-0.09311553050549742
-0.049161776204481845
-0.03141280674448763
-0.01273691777530034
0.03660620588348713
0.06610930620877274
0.1631633945382382
-0.2556841455104281
-0.15116388227926472
-0.12230545610867155
-0.07571520117797924
-0.057148504906894486
-0.03832715252247419
-0.01930031400926144
-0.008136354512905994
0.02084919040266353
-0.021108937811680443
-0.06766282097781108
-0.10707236586605895
-0.07911625818360443
-0.06905217212487995
-0.049837867775608696
-0.09740961181602252
-0.04305331800929288
-0.01980731801290262
0.013843445882929847
0.02647194748762696
0.12559572080662978
-0.03297653225043145
0.14363261082741138
-0.032582660565151154
-0.03200869196747397
-0.05644236348266618
-0.05393678743673428
0.001159711269885979
0.04812890503583259
0.10141529133695866
0.09890392880511162
0.5393616753230343
0.42798410638123946
-0.009190268453552313
-0.06209491280408346
-0.09037682823805328
-0.03537951419265852
-0.01464714450688129
0.05363501623323918
0.13400757107066888
0.343190716479395
0.6536147053341741
-4.7557039090670115
1.019375771645518
-0.027473640912508826
-0.03623210492831044
-0.06567263853266368
-0.01623429202099529
0.033262325355010676
0.11529282126205236
0.17043875735657035
0.48789028263081285
0.9264206132701255
-0.06055555693630032
0.016186892259481098
-0.025767638795301105
-0.03076664493976637
-0.020554083979652017
0.02444058068238658
0.09362937524802722
0.12078432582271524
0.1393920938187783
0.17589227828946596
0.143977571202838
-0.03494439840899691
-0.01687384652495843
-0.05362000611013027
-0.040960373312826835
-0.017126717606392762
0.04520597518779568
0.03669315071526249
0.07727079345480314
0.026222055806073074
0.005350281388292331
-0.033689618968972934
-0.03322929316412424
-0.05377801583775351
-0.03452382320075624
-0.02130907540411604
-0.0007706268638982038
0.025095751247056458
-0.023532652195876295
-0.019921311486950626
-0.0038945938296657255
-0.0579484883755258
-0.014538599281893626
-0.055568886812693404
-0.027215044450237764
-0.006282700573051459
-0.027386461144400995
0.006370737270346705
-0.003890002839421377
-0.01141995346510011
-0.006471499585782234
-0.04327495639994066
-0.04046710535548902
-0.025156720337302617
-0.027999206652199796
0.003856242246158929
-0.010188458048998855
0.042886685020212055
-0.012934474569645624
0.036530436718523934
0.00558711670489925
-0.03852340607446463
-0.05948542237814241
-0.029686279603401568
0.00034722354686163304
0.010341766147680669
0.005945188770912258
0.03239211854976453
0.05913544810667131
0.014758779662679192
-0.010664604015319917
-0.0422757094194975
0.1676399326196622
1.3434416731011205
0.17528364889573467
-0.01171065780650906
-0.018392691639181228
-0.035231379574223995
-0.03300212785348151
-0.03661452323122844
-0.020864510409080588
-0.014336184109384524
0.06696248823981157
0.2549750853086618
0.06720573382161249
0.02251005073719795
-0.018042613366782898
-0.024647310854107842
-0.031318192994272694
-0.023623071656756083
-0.018424468138966192
0.024056815710999952
0.04232183064582577
0.049894581082858894
0.04076869795512177
-0.00136240167509827
-0.013157692375773345
-0.02742858397918709
-0.028977981883890877
-0.027187210560947073
-0.014819695214943706
-0.004094903801005487
-0.008090044421933333
0.012443662232232592
-0.005361992468475555
-0.010868620300106612
-0.026901621236284506
-0.028290119793860702
-0.033325356090107866
-0.028309137489425106
-0.0262123404730416
-0.01429621733782353
-0.026717511348841205
-0.02848827878277957
-0.024147955707277853
-0.031980665247877633
-0.033823707610675185
-0.0341648714965006
-0.03437978481914571
-0.03918889430295314
-0.03418024502894222
-0.03507691443476972
-0.053488818609918894
-0.049040819760342635
-0.052271898109355536
-0.0421997476245649
-0.04320872080880477
-0.03744507841009318
-0.042994292621887135
-0.04114342347845744
-0.0419832849473374
-0.044720774903236754
-0.06945112971559607
-0.08677526635953349
-0.06922382408581872
-0.063489600332083
-0.048760568326640136
-0.04630289662378045
-0.04206818387872699
-0.04569312533111977
-0.047668749649585375
-0.06418286297287815
-0.1175723410982399
-0.1301685857238016
-0.11980649475330964
-0.0767158640696049
-0.060506620422232364
-0.05146547033511123
-0.05078471314835222
-0.05026227293253302
-0.062396486081870144
-0.07327611801502643
-0.15048758130223688
-0.3354442621901971
-0.1470895334164814
-0.10401931978953814
-0.06072500997959661
-0.05363793444568372
-0.04645299381207227
-0.053183013973774215
-0.059328321581417764
-0.10083981144068845
-0.246116695149197
2.333084921254414
-0.25064520465152357
-0.06252362070766082
-0.05695548906735401
-0.03913045867406297
-0.04593392768664572
-0.04291996718247856
-0.059391708184007824
-0.06405575410784044
