-0.001707799884411351
-0.0009703542863278244
-0.006608824766307631
0.00452786027950626
0.01632078039535624
0.04983582141405125
0.09058251369641554
0.10044997906661532
0.018798252092941295
-0.005176779971896892
-0.008000811233145439
-0.006359564626986877
-0.01314019178953899
-0.0056684532987222435
0.0038226785459514676
0.015474903702398247
0.03362460198849859
0.02622949141161878
0.010776742113325126
-0.003137153434831313
-0.008294254583686923
-0.012410079012031878
-0.011324665535822434
-0.011575536488082058
-0.005174112943663656
0.0034279239000721026
0.008602415525510833
0.0036579159519561024
-0.0031393845695812037
-0.0035217814432055255
-0.008014920078964776
-0.016375076230373528
-0.013982544829565563
-0.011474970066263765
-0.006983339123681102
-0.0016595932770678958
0.006205731286610234
0.0005939206883639501
-0.007283146700271391
-0.011975116126293895
-0.009728516042206977
-0.01384119482666962
-0.017607969104337113
-0.009459489338301253
-0.007446751269978999
0.0012874097346031919
0.007149371491017039
0.007341191535597806
-0.008725665014616739
-0.01303822450225971
-0.01012261626449291
-0.011414367654266313
-0.009186685143960632
-0.005493896431449502
0.0028538307374845126
0.014838820075461922
0.030294387491069687
0.018226582295562836
-0.001978578246157157
-0.010526266341471484
-0.010628798989419751
-0.0130707518667209
-0.008471640522037043
0.002142592106545324
0.019125119585612017
0.057314876654124665
0.08717163054473234
0.08520200840903747
-0.008373423325770443
-0.010603956927081935
-0.008831617106633861
-0.012183552404384308
-0.003291635343455235
0.010990111229259882
0.04521419973073415
0.10914895607220909
0.2661334743966075
2.7415158320120385
-0.03287935949448015
-0.03069001463538973
-0.014588573203006792
-0.008739131944214516
-0.0006884715641159453
0.018100990876368035
0.05300917012071201
0.1555826200285779
0.48959220624493205
-4.016934693449382
-0.4591642605288361
-0.062092145605639186
-0.015385387046478448
-0.009443441311164872
-0.0004790096467221841
0.01122823107429185
0.0425421702534378
0.10802518080123834
0.20335784893904318
0.11811225209683632
-0.039573295324747244
-0.013040783116311568
-0.014904169563856168
-0.005823959891598604
-0.04307041069636564
-0.0467176408491008
-0.0570184787300027
-0.07115067346018458
-0.07841371474323357
-0.06901583355478388
-0.05856185804987241
-0.04725423898264667
-0.04438195546081742
-0.04035624208785002
-0.04599342398780561
-0.055801253888995206
-0.07827217445682158
-0.11435454024144957
-0.1408375819365605
-0.11971414477242552
-0.0791963010393164
-0.057944315970528903
-0.04772886411117852
-0.04640231515939646
-0.04901998670840041
-0.0650358159995983
-0.11120732797687685
-0.18377644351891811
-0.39699150718835385
-0.21678074641559683
-0.12178660504854281
-0.06976851218861371
-0.05307428119493668
-0.04460041248206678
-0.05137876465593362
-0.06873911884361916
-0.11857565785971617
-0.4105008441492462
3.416149891179034
-0.41906476223543854
-0.12180739172264146
-0.06976125222617591
-0.0487040118134558
-0.046754182217595995
-0.04568309857417591
-0.04811025219098052
-0.05817011687631884
-0.051275455890668814
2.5182695885862403
0.056267746259891796
-0.021019730270418254
-0.04198545592744199
-0.04347012538617347
-0.04298954527474735
-0.04060719754805905
-0.044823745847693046
-0.03674695765905261
-0.026194132316690447
0.08498865078693699
0.0171442212238653
-0.009249202786637501
-0.034061484153664445
-0.0362609766024901
-0.04032842884461891
-0.039891939976220786
-0.039835870159905966
-0.040981224672761656
-0.026913564451302243
-0.020547239650592006
-0.006666560948964682
-0.026604654298300393
-0.032310229774845
-0.037382211555426495
-0.03827778061005103
-0.03493330703504423
-0.03632882520073276
-0.038325441552382024
-0.03882190855217128
-0.02845847564282111
-0.029696705034454852
-0.03031086633453786
-0.036451898187183
-0.03839433563131004
-0.04118527124702318
-0.03547265659691973
-0.0354393578409597
-0.04271510928363226
-0.03969306447551289
-0.03916162301692765
-0.035677330924917344
-0.03739365066082803
-0.037616958223684216
-0.0388912212231711
-0.037468976352059015
-0.038614202810838896
-0.0393482477355478
-0.04281779278630462
-0.051208902023428135
-0.05236087627219037
-0.050743864424103634
-0.045850137784365134
-0.04252242062591785
-0.04160401100389076
-0.03761188595654596
