0.005059468017221077
0.0005436090868565495
0.00010601022434995444
-0.15855878375037702
-0.315387127291727
-0.09555718552911613
-0.19310427726236418
-0.19113305835601468
0.013905934134629767
-0.029406714943544278
0.044391742538125466
-0.47167427720003563
-0.06325087856684435
0.1894615950179799
-0.0194808772291417
1.5579092455765076
0.016146436435577345
-0.3097236499970428
0.011461876072113422
-0.12232703060174682
0.07788413305350331
0.021104106534849353
-0.0030615492809656208
-0.31296119447318654
-0.04268521558331818
0.10197979913159513
-0.10840614215678704
-0.7170543794584341
0.3584588581871833
0.21407402578369228
0.9231632431070347
-0.7002250058149838
0.10928725937770727
0.20886967286920183
-0.005800580910605566
-0.06120887409539282
-0.05811583490907852
-0.2039646211300724
-0.032186138343014405
-0.0019148682711001132
-0.15451794364805854
-0.48453722973126573
-0.17567346692837194
0.09526195542491947
0.62855599601298
-1.0200559795189563
0.20832753778224083
0.1714760344104666
0.04703624479062386
1.0323208401175838
0.03799634831318039
