-0.0011210529969430494
0.0006908489580507129
0.06282637345800043
0.17046016299941855
0.34498010908343685
0.14705694329769195
0.0691578070535187
0.04211437472729974
0.08561893248858325
2.5474961419193622
-3.263498265192593
0.047168497038814976
0.05890065605027329
0.036039519444483546
-0.01580232076127368
-0.027275329376519285
-0.5763951801374487
-0.03210041126947556
0.01020218320131709
0.0048329955885309086
-0.004855052253436135
-0.026326814894960863
-0.024295830427799443
-0.0010317479458788424
-0.0005516443869375092
-0.003089111629952676
0.005358552822426176
0.012493676446139476
0.01680005785535523
0.013535336568376102
0.007668558010674762
0.0009974053932773784
0.03267598626560018
0.0646355563214814
0.08186663414807081
0.06484533496702091
0.03095420596259281
0.01803570608498091
-0.10278163937324256
-0.2083060684292593
-0.5481875963452165
3.2684883944620506
2.182342675798905
0.006993163281609451
-0.08020397584504031
-0.17170133351832126
-0.284247492324231
-0.6195461303678459
0.016217781638297943
-0.03051475272788715
-0.07926255165882298
-0.11460851244452874
-0.17581724524401807
-0.16252873774493756
-0.06633529781493587
-0.05088609660272516
-0.07952016330037909
-0.10674262058255678
-0.13619189270799947
-0.14431287653694455
-0.09288231663215926
-0.0749965410172489
-0.09331984388095745
-0.12453015775296748
-0.17321031194067404
-0.1901514974018751
-0.12764682359488405
-0.08820595204479059
-0.10534267816299939
-0.1739708521565467
-0.2566741431053838
-0.5338861836937349
-0.16569592992884702
-0.10453379997524403
