0.0012953771133037578
-0.001646334175109191
-0.13793695442947695
-0.22233220678625937
-0.4677939018013273
-0.10994296226350787
-0.05692904298880368
-0.048741605860732125
-0.05921148649054554
-0.08443544595581441
-0.17673570041013653
-0.4607738618706853
3.380833825522998
2.354169703510878
0.05379081919757275
-0.04047093189013866
-0.05261848349806943
-0.08912206583799365
-0.14778361443152507
-0.24898327389153194
-0.4944080517702215
0.03387171712684575
0.0001666843525577695
-0.025725692910999565
-0.05239004006864144
-0.07841980311367142
-0.09524264578665269
-0.14164566851042446
-0.13699030090575265
-0.03629114374334513
-0.02359578933094488
-0.040087110233031534
-0.04801407518776185
-0.0684121352058566
-0.06910379709230485
-0.08634278230815828
-0.08482030884036099
-0.05044837024417086
-0.047562558026391984
-0.04254973797826911
-0.04980274830144567
-0.05728342071837138
-0.06203527023192722
-0.07286713441851515
-0.07346366448759088
-0.06115445951035315
-0.05188158852512044
-0.04794134254697258
-0.04760711650450235
-0.05353945497730774
-0.06843923865730722
-0.08367697792108175
-0.09049134054019606
-0.07058273132950446
-0.05942422386402143
-0.05156754655269243
-0.05122573291840098
-0.057814126216635
-0.09467447572615405
-0.13364368606787136
-0.14502131268629767
-0.09145965773713374
-0.060232482900810014
-0.05781950829080772
-0.05497486005283723
-0.06914709485051565
-0.003980097131959985
0.0015262052575412905
0.003458205361318035
0.0030459685811963055
-0.001096143900492007
-0.004362176316975595
-0.0063818816548568994
-0.005620972835872923
0.010963230386950157
0.03283964680707861
0.03940008470313623
0.03040142774507937
0.01540317541641694
0.0017904476703156605
-0.0019904233074177382
-0.0005903150129280567
0.041918001847654436
0.0838402862932018
0.11318805868839435
0.08466072967801
0.03546391484298187
0.011549286182108954
0.007113613754412971
0.011304818104454295
0.07378177519581335
0.2188252451718387
0.4089850194442174
0.16183767860344236
0.0720398773338553
0.02642658314015916
0.01330265214680801
0.028532211822608174
0.08160110782376351
2.6342538655327696
-3.645893390991424
0.07888795006197287
0.0747251012121234
0.023619203779971922
0.014694495591716265
0.019477412157826682
-0.013312295833198816
-0.03554477917099939
-0.5045912765001371
-0.04593713491642263
0.010475251244446024
0.0021700304264347537
-0.0008953572010552409
0.00034644634889134624
-0.01155918720791247
-0.03641301180859299
-0.05369638153351551
-0.012854232702764534
-0.006679987950027586
-0.00711162292573629
-0.00964533878593862
-0.012513483711906139
-0.012188673405052069
-0.018409647078893414
-0.015957114072613916
-0.010216265417445134
-0.006818234646698447
-0.006409225696066732
-0.01087623099641226
-0.01140412068693601
