-0.0012983719515853077
0.04477451643071311
0.0004985846399618994
0.047720954012036194
0.0471135306922486
0.02511721812567667
0.04651686355592347
0.046040038752696244
0.05692742929216273
0.0541665655847265
0.05877288806527387
0.08201482597318094
0.08081930870886775
0.09666455767412989
0.07961264532320506
0.08018627297824378
0.06817520434518833
0.07200150852385419
0.06809641741187458
0.09639562024032196
0.14375922514756795
0.1547796209872211
0.14159386263660909
0.09613958933406652
0.08967700014533235
0.0768679216015971
0.08848303311672662
0.1312690196426831
0.17742738224378643
0.3735809324693616
0.18142419578268498
0.13054064050864422
0.08362238191488154
0.08430552110076688
0.08572054381027433
0.0895737568065654
0.27386424124244624
-2.4115065990958513
0.2726707171325556
0.09098525285754597
0.08167066449588982
0.06990367370124807
0.08230990545295404
0.03654494881793456
-0.15749551199334086
-1.4413661924867225
-0.13371062726013655
0.03872584253018936
0.04153873460111365
0.05788189416749756
0.041071176116379046
-0.001038319006439377
-0.05129202353434406
-0.24733385027599708
-0.047806709737436844
2.820886109587261e-5
0.04074920809354664
0.04083913357391601
0.04155860063352232
0.03063221659071862
-0.017398189237424783
-0.030002081187903616
-0.02100392687260766
0.030461506379382424
0.038830701647440014
0.05136175652684166
0.03811916764151354
-0.046911008466653616
-0.027062635231918084
-0.035671433838643185
-0.020191527743422567
-0.05085000715685139
0.046189216450113556
0.010976167734678844
0.008251619327165364
0.005514396906524988
-0.04790902783394477
-0.03701748013387296
-0.03864907338450913
0.18435106228619125
-0.0779751221847137
0.0979930122406109
0.006226455118857859
-0.005858657390484744
-0.034662346590618745
-0.07443213793478767
0.0006325028817114756
0.4093759129662109
0.5168634993895238
0.0034517766072059714
0.08993366739927275
0.010961720108330153
-0.03636241304653058
-0.08272353274129217
1.193342137550798
-5.048468565998587
0.6133426951637185
0.3759402988056547
0.06280387766538179
-0.01766638458677431
-0.04028495172175463
0.08151752081894846
-0.059219459854052435
1.0388016338381008
0.43793546502003183
0.1579523568318777
0.08175422630138385
-0.025931641716510197
-0.039184407014468244
-0.035314518510856166
0.1681277485695381
0.1199650904250244
0.11699480747931484
0.1002563934551395
0.018762248973828707
-0.01955492877065375
-0.04062570678127458
-0.03931688297905647
0.0032915312499268426
0.07874964538535707
0.07628678463297697
0.005901382408506045
-0.00643591442295823
-0.02380046241304291
-0.07057411803798157
-0.023424524675482672
-0.014853574563753427
0.017768191451044357
-0.008035152642141812
0.00248082520549221
0.00817172575307391
-0.05973888215448311
-0.08144128369968116
-0.08927477490652201
-0.0945778772866758
-0.07772776758397223
-0.07005849804838679
-0.04799012525034586
-0.055757434197768824
-0.06748818833460929
-0.07667844831479668
-0.09610097423784678
-0.09127895739743298
-0.09256894572522749
-0.05143655645298438
-0.04725679588253627
-0.04777519256598933
-0.05382073411986023
-0.08650840123764195
-0.1066674146899806
-0.14071634856260193
-0.09756770400047657
-0.04202205054733743
-0.007184741194365608
-0.03975819228925716
-0.05292265478594625
-0.08734734072469948
-0.1519111852205995
-0.19041437554292462
-0.2854323585163553
0.13130228375498848
0.046547857424760704
0.01045172647389176
-0.03779765655701659
-0.10794378606079134
-0.1643673510802326
-0.3863792332961297
2.743985048845531
1.7861855102184856
0.23176296898652082
0.019596157177546463
-0.05875925779428264
-0.09015863036596129
-0.15555420102547857
-0.18678685164410117
-0.29042622712679345
0.12984933210771657
0.04299881038092536
0.0077382167899480185
-0.055693566250496436
-0.08857213083676752
-0.10724513429066651
-0.13881600182153553
-0.1011316781918655
-0.05240305528524075
-0.008383681541190558
-0.03919603605992159
-0.06644727340816761
-0.07615482221358948
-0.09779103607979073
-0.09437285890436056
-0.09600543643019821
-0.051794087841893016
-0.050781022696449414
-0.049032688996227376
