0.0008540430477908376
0.00041177852691612565
-0.002436673090550613
0.015605777216525812
0.0127705021175986
-0.012819081884617368
-0.03874388656124163
-0.16837147131380076
-0.06566003774482813
-0.031908481224785
0.006758666387894558
0.012411904285731903
0.019630040767419175
0.019503799507173354
0.020916016257819636
0.016247048252510828
0.006666071829478237
-0.00117937662185004
-0.024770037777014014
-0.03532441030946031
-0.042008632237093196
-0.008261553934475977
0.0017708597426471435
0.013225100398469357
0.01677084476436374
0.019184785083644382
0.01642058344277516
0.017467831324481126
0.015804065402948698
0.003418860700266888
-4.8806218983157975e-5
-0.015630597489861075
-0.002917544593845209
2.1645347169009727e-5
0.011278203182024682
0.014568612007668433
0.0205913595870377
0.020293792215049115
0.01852296838313212
0.021945231415245407
0.018399686888914978
0.017300651527842104
0.010405596091646709
0.008594995578033442
0.008307161323952096
0.01326163876341126
0.014866450302561823
0.021046355813590444
0.019133823505882927
0.020264546789761004
0.021530037284917116
0.023458360671019852
0.025466982443740564
0.022716009485755913
0.022240074337246202
0.01845892059865603
0.020106479098947454
0.01962427742258424
0.02287457162667286
0.02603588414949622
0.023979169894840224
0.022263625134011866
0.02197324413271975
0.02777958755462359
0.02845625131347118
0.030560998108813194
0.030700274763871483
0.03286896361906079
0.029333300713880007
0.03000861541258657
0.02975945112089501
0.03127993489287154
0.027415646599159692
0.028857916745056177
0.026865750508750817
0.029717156178158993
0.03625631134947336
0.03663351901717615
0.045058658250665885
0.04358423584254136
0.043228809832596374
0.035158271431936554
0.03529443653714858
0.029928408741774618
0.02880686692023155
0.029848820663069372
0.03188983499598983
0.032964822951444823
0.03848179084748771
0.049785011868679466
0.06014682819711997
0.07533351985016504
0.05833120683593794
0.050641118097194245
0.03781463539925339
0.03611431628232976
0.03153778185723486
0.03269146841730646
0.03139282288387275
0.03472716857002534
0.043711356031343296
0.05663365699279975
0.09721193004126945
0.11091924923424487
0.10306571706549729
0.06133188376426354
0.04513994680971507
0.03559389939919901
0.034346079346647795
0.029963479407482122
0.032031328243212566
0.03616173076142155
0.04103834464268177
0.07629500161833785
0.10564210634608849
0.32467896907160665
0.11097314690822643
0.07586243459768348
0.04467985428407796
0.036101039186713875
0.031184025540859747
0.03112464075037757
0.02974587571724951
0.02797588827243406
0.04173382986471165
0.043835832935812724
0.1957535473956869
2.8062121982771706
-5.249673573101908
0.014246499134236446
0.04029142823444402
0.027588711350991904
0.027397805923154477
0.025867535464430193
0.029706364588184493
0.023999593544735028
0.015490284585362515
0.00707905157454549
-0.11514469370224091
-1.1811630695233648
-0.24061165329235404
-0.0003974851511356309
0.007929687397685974
0.022690168851460194
0.02176997877336316
0.02445676444195158
0.020615906450433902
-0.026329295609541194
-0.014906404326450287
-0.0037380547418722717
0.02789590701122989
0.04441832203217259
0.12132654991615002
-0.24700798723247053
-0.10817477409764971
-0.08798315664082722
-0.05398995117015767
-0.042675647278356675
-0.03303058939774603
-0.022767653118018375
-0.015003231851949425
0.005119526871347883
0.02901507221860476
0.1546648961058507
1.6419283097640929
2.5505778315594356
-0.22260921142987045
-0.08516460281809306
-0.06487760854487873
-0.04304395536223647
-0.03365310695412906
-0.026653139806915725
-0.015440667590448912
-0.007155982245053953
0.01779466165772503
0.018757584767784104
0.03783610348408013
-0.19913410957411418
-0.0824911944230465
-0.08191496825066691
-0.05215025645981564
-0.043308704490322286
-0.030851547180827905
-0.025495501110209026
-0.0201804684542279
-0.010697102882862916
-0.007628980472197864
0.004182547839805321
-0.02823986392535881
-0.04998034968617307
-0.07072578256262124
-0.052646067675459395
-0.047211274569572255
-0.036494048941796135
-0.03163585989356892
-0.027811915078571597
-0.021110286408124068
-0.02153096318540255
-0.014453638907174503
-0.01950747148565822
-0.020033120047280372
-0.04515056151288623
-0.04327024489290776
-0.045502806462980605
-0.03879534775946648
-0.03600447191090603
-0.030529913473552713
-0.02760485797022668
-0.023686848459993904
-0.022889875835335343
-0.024391897928600217
-0.021100396813736003
-0.03141681203586626
-0.031614324195768186
-0.03927255919860229
-0.03684104406479302
-0.03686712276370036
-0.03297840341919104
-0.031125203740352825
-0.027978711981837462
-0.02553661232356754
-0.026654591517291975
-0.022799111235423546
-0.025451567289779993
-0.027293883775343118
-0.031488177483650286
-0.032770418337516344
-0.03611150206281994
-0.033086774921629085
-0.030228075638835426
-0.02932903651162029
-0.027404529085409038
-0.02582703296474281
-0.02643419329908541
-0.024890863594393044
-0.025325853151665998
-0.028833180619502356
-0.029625319299130752
-0.03229495727023141
-0.033759357931382926
-0.035537014199723625
-0.03201561147880258
-0.03127022518070451
-0.028342050799269828
-0.02529494693197207
-0.025743778716411533
-0.023552652866668085
-0.025185038720672393
-0.026525263208045803
-0.032275437972388896
-0.032520165213690624
-0.03525283593342039
-0.035152297091653885
-0.03282092593392796
-0.029093159890338793
-0.025812319418606088
-0.02609309352371307
-0.020455191837480922
-0.021944914548007982
-0.02006905054434729
-0.028384483921436186
-0.032225561872327974
-0.03846247196612475
-0.0373075647231409
-0.037634813198193305
-0.033598934650402396
-0.031216901644321966
-0.02800993130728975
-0.02255500615811247
-0.01785175340893197
-0.012749958331849123
-0.013616145498028953
-0.014430730657193119
-0.045076319277839554
-0.04542046686735272
-0.046605710451561255
-0.03898253209294329
-0.036410354308722075
-0.032003237059737795
-0.02519349081352087
-0.021110547476040846
-0.009152040427257823
-0.0013875190227166305
0.01975267190746831
-0.002692677549035953
-0.05175928553620796
-0.07595782283881448
-0.05842280172584869
-0.04848796665218321
-0.0375830944181522
-0.03321887828193527
-0.030526519618186
-0.029543633749225834
-0.03433019871090305
-0.02576483292192277
-0.04099588402125967
0.02797344445528978
-0.1233572783141321
6.2343328000111065
1.04537913335924
-0.11511494842167605
-0.05678931154631781
-0.044697515144077896
-0.014132790046607105
-0.025156885171963912
-0.020535772503512368
-0.019974801824534243
-0.012161404579431868
-0.029993800456279023
0.21079005986808838
0.835777400390922
0.19538293534113974
0.029695632786298925
-0.008751559934559535
-0.022074881710686674
-0.008674428145727938
-0.010777719603519123
-0.01853731007887644
-0.015424241840810376
-0.015949694638841144
0.007167435759779338
0.0017323346621180517
0.195362292073101
0.0988514797983778
0.03810950000898663
-0.0004815877853925404
-0.008580881822379255
-0.010957729003351808
-0.009831417799566847
-0.017899348286341387
-0.02051047207703762
-0.010850006905026455
0.0028119286325360053
0.03852948503503631
0.07594610556344154
0.061083125418585626
0.019947475989567615
-0.007810719076427634
-0.004124700072168784
-0.009189851935594802
-0.012805166122224975
-0.011926191793626362
-0.0178432312980669
-0.019314221773397353
-0.006680471169277872
-0.00010505757617080853
0.017991276668987352
0.014611082037085957
-0.006534852461168133
-0.00838362814555855
-0.0010876495583280474
-0.013443862899072219
-0.019609776520640217
-0.016684386286586264
-0.012142781200851148
-0.02358033278905853
-0.024796081606731243
-0.024439716338502452
-0.014390674973988441
-0.011638123382003112
-0.016949876741346778
-0.00945457094052044
-0.02110103304556026
-0.02700734956855598
-0.027543889972346285
-0.025918387921929048
-0.01632452406041387
-0.0277136063544213
-0.03329691508300994
-0.03900010828549513
-0.03720445865555883
-0.034555922812712435
-0.03150798997811975
-0.026822600073160428
-0.035048164783360744
-0.034585581264145855
-0.03112540463166509
-0.04046040492140292
-0.03509332079916789
-0.046779574409811515
-0.047480003676105886
-0.059157599633252574
-0.06260408518557344
-0.053451539198437654
-0.046116353624566175
-0.03573275811133588
-0.04350439578720735
-0.044054394499863606
-0.04038995106532738
-0.042741453780480845
-0.050972806002831994
-0.05158753725620874
-0.058393709259299986
-0.09159805000584315
-0.10553357625124543
-0.09913190371576579
-0.0785964753182568
-0.05620267300405482
-0.04457122749677778
-0.041273184264387586
-0.04617185939223669
-0.04513087142315948
-0.05373916234160868
-0.05505699752649206
-0.09177351397061081
-0.14678117691831752
-0.19671515816746898
-0.17013033153868912
-0.11872979204308526
-0.07873692321933906
-0.05166264003427458
-0.047383531815658804
-0.04780597059510342
-0.04881992983933338
-0.054126571560506515
-0.06964154995096497
-0.11404423493076957
-0.20392711838269365
-0.3514695477176784
-0.26583118378589204
-0.16249274312395082
-0.09413413205675306
-0.06158913844598793
-0.04252904648425023
-0.03559301403613626
-0.045368469567077914
-0.04457647896040698
-0.0644861959274035
-0.12461370829964026
-0.22637733631325457
-1.0765704374078726
-1.5557323241863976
-0.216920569423755
-0.10525152271739122
-0.060466014153504014
