0.001625949234032117
0.001985364285857798
0.006208434979976999
0.007801752079074778
0.004092064464226044
-0.004786200381921327
-0.014007742483733548
-0.015008763192004795
-0.007607152912115492
0.00044790461048591903
0.007454208685227247
0.0066608834094962046
-0.0002491146566137456
-0.012152274589876621
-0.0248548695450927
-0.024070542407816305
-0.00760804380304129
0.0005253826451544887
0.004422026894607758
0.004357144382993341
-0.0074999202161571575
-0.029403955901271806
-0.06548584163941427
-0.05984388697991419
-0.01852948799140188
0.0015798909190292032
0.002186532704626737
0.0012824790749724974
-0.013847470645272834
-0.05776033033532
-0.14243025356892905
-0.1779233437876858
-0.021462853811991842
0.0768390743975189
0.013517466291824227
0.0016182180226549108
-0.01623707743170675
-0.10609407704062677
-0.6995537726278406
1.5862967989749954
0.3800963967216323
0.004642297993469236
0.007143622343119452
-1.9071347496675377e-5
-0.010053798302269318
-0.05403223157678228
-0.1385032247462982
-0.17551251582393415
-0.01815028237780571
0.0028864629236554588
0.007357662989489122
0.004259912746957438
-0.004967307851577184
-0.026209218797323085
-0.06231767764200157
-0.05776759680019322
-0.0160434721721111
0.0014681799692670076
0.008400779177801288
0.006905600430099936
0.0007568621278977446
-0.00983882387581457
-0.02534048835326276
-0.027388742571777803
-0.00993197940783879
